person_id,emb_0,emb_1,emb_2,emb_3,emb_4,emb_5,emb_6,emb_7,emb_8,emb_9,emb_10,emb_11,emb_12,emb_13,emb_14,emb_15,emb_16,emb_17,emb_18,emb_19,emb_20,emb_21,emb_22,emb_23,emb_24,emb_25,emb_26,emb_27,emb_28,emb_29,emb_30,emb_31,emb_32,emb_33,emb_34,emb_35,emb_36,emb_37,emb_38,emb_39,emb_40,emb_41,emb_42,emb_43,emb_44,emb_45,emb_46,emb_47,emb_48,emb_49
00a1r,2.7821896,-0.9382026,-2.2078445,-1.1785669,-0.48329642,0.38168904,1.3514782,-1.0945711,-0.6544749,-3.4236102,-0.08936092,-0.852796,-1.8129597,-1.3789072,1.6576191,-0.907535,-1.4008949,0.7426069,-0.14182708,-0.35483685,0.2815548,0.65665716,0.542476,0.22025828,0.57526654,-1.3997009,-3.4291854,0.7535758,-0.42699713,-2.8195605,-0.8172802,0.82738733,-0.5776181,1.4716287,-0.3916852,0.75340205,-1.1128199,-1.2473078,1.3673646,0.77533627,-0.24783933,0.43400264,-0.4854564,-0.70441407,1.8291045,-0.6776279,-3.427099,0.020711463,1.3666109,-0.5703301
0cy1x,-0.676604,-6.289825,-5.535192,-3.6382246,-0.4413285,-0.663285,1.465302,1.4756414,0.6936464,-0.63785136,1.2061093,-1.3851078,-3.3383045,-3.3512938,2.6855311,2.4706247,3.618913,-1.0522908,1.2299082,0.7256575,-1.4961889,-0.98497254,-0.83777046,2.4625626,0.21600117,0.8450524,0.9024547,-0.50720084,-0.9397861,1.3840117,-0.7314069,0.42124826,0.5569427,0.6757962,-0.20551403,1.406223,-2.5099523,0.60388446,0.46862978,-0.89141625,-0.7922249,0.20146833,-0.08578937,1.3750023,0.96129155,0.9599525,1.0352756,1.2359083,0.48216373,-0.38125244
0di48,4.9522495,-0.4446572,5.7005086,2.3713236,0.20920296,2.1431775,2.9583652,0.38754955,-0.932929,2.3027415,-1.1096606,0.12222534,4.5216503,1.4515704,-0.851204,1.5860614,-0.5624174,-1.7016103,-1.3221099,0.68778414,2.045828,2.1863875,1.7622693,-1.7597524,-0.3690806,1.7962304,-1.1441365,0.4739451,0.9758447,-2.5152566,2.2675478,-0.7475126,-1.7345129,1.9829857,-1.7206416,0.45088533,1.0231515,0.23797232,2.325197,-1.9765719,0.14772119,-1.5605129,1.1285652,0.5314088,-1.6548026,-0.20805518,2.1130028,1.8429923,-0.0023694166,-1.8108854
0ifq6,-18.468035,-14.1023445,-1.7437167,5.545101,3.923572,-0.9355289,-2.4332638,4.6728683,-1.4403026,0.67818445,-0.041449495,1.0288378,-0.08778403,-1.2176756,-1.9525101,-1.5976195,0.434158,0.92911744,-1.13742,-1.555694,-1.4977531,-1.9872682,-0.9727466,-0.4760394,3.7904139,1.8130254,-2.028966,-2.249862,-1.0996748,2.1077433,0.31039938,0.5641325,3.2055683,0.8205565,-0.32773933,-1.036345,1.3069323,-0.34689555,1.0050641,0.9016248,0.060556766,0.5589629,2.9527574,-1.4509351,-0.356544,-0.55536014,-1.5959316,-0.15428182,-1.6812494,0.11915728
0ldjp,-7.2199173,10.478096,-0.87341374,5.1981688,-4.1182685,4.031959,-1.1906645,6.4226036,2.4091966,1.4023392,1.2468878,-1.5145223,-3.9889557,0.38157186,-3.1008494,3.7204494,2.8434124,-1.445403,-1.4298509,1.7317101,-2.8823533,-2.1807704,-1.2288468,-2.6359878,-1.8264937,2.1418972,-3.3297207,3.4384582,0.9810578,0.40232632,-1.1574537,0.7041096,-5.097278,1.3530174,-2.8563223,3.0738902,-2.985058,1.7142432,1.7948058,1.9877636,0.30909345,3.1987782,2.4477189,-1.980874,1.7902089,-1.4343652,0.671922,0.9279344,-1.4651775,1.0091358
0xhxd,-4.490264,0.683165,5.7010546,0.03327484,6.26018,-3.8447757,-1.0629277,-0.6227007,-1.1901282,0.072660424,4.4222617,-0.33723372,-2.1336572,0.53584725,3.7308686,3.1704822,1.3816202,1.3062961,-4.459641,0.14117898,1.7523586,0.3988459,-1.7785546,1.1395633,-2.656419,1.4874026,-1.1303753,0.2973775,-1.5925021,0.4813654,-0.07494422,2.099876,-3.1314795,-2.2136736,-1.1397331,4.096482,0.9562795,0.8211676,0.88191724,-0.28604308,-1.0326986,-0.076429665,-4.16964,0.98517305,-2.9978442,-1.8726807,-1.3948542,1.0474464,-1.9615318,-1.0177555
17cwz,-0.27693638,5.895405,-5.945125,1.6997806,1.0186272,2.3988779,-0.2244492,0.77141243,-3.0306635,-4.321756,-0.86374,1.5120541,0.9024822,0.2701271,2.5109127,4.7962036,1.0918461,-0.81648535,0.78164715,-4.527075,1.2027345,2.0817473,-0.9580629,-2.4018211,0.70812887,2.2016108,-2.1760805,2.1600401,-0.119378574,-1.6617945,0.7269011,-3.071263,0.64684147,-1.0486268,-0.553371,-0.41712305,0.15401977,0.63664126,1.6092013,-0.5655419,-0.12411545,-0.57520163,-1.2856735,-1.4850533,1.2850976,1.4075555,-0.029680626,-3.9615948,1.1107877,-0.9400108
1b3hy,4.522287,-4.1473894,0.9786748,-6.2149606,0.9003318,-0.091589026,1.2395167,-2.4277875,-0.46867475,0.89065045,1.1623778,0.6830792,-1.5692363,-1.9791018,-2.854888,-0.5109959,-1.5504116,-1.4205297,0.9640033,0.04070071,-0.06673083,2.3774889,-0.6883147,0.29950973,-0.026203109,0.1756802,0.07303181,-0.3939147,0.319091,0.08641626,-1.6359377,-3.0234249,-0.08177411,0.5182381,0.8726295,1.0068926,2.102611,-0.43146256,1.1695727,0.0038064343,0.48212737,0.84295774,-0.32808366,1.5456171,0.17807506,-1.2723161,-0.30747414,-1.4940873,1.2280564,-1.8426437
1njfu,-4.0645313,1.6165608,-4.9417152,-2.4036803,0.86763334,-2.5455377,1.5986068,0.92463833,-0.20015924,0.3889584,-1.2507665,-1.6777467,0.97323394,0.21726206,0.6469864,0.57232916,0.3835898,-0.71291596,-0.5327884,-1.6311485,-1.5421716,-2.9866989,0.73088807,0.11805863,1.6500282,-1.6538459,-0.45522335,0.71419877,0.69715697,1.6331049,-0.28341106,-0.3399475,-0.71709466,0.81752443,3.4361827,2.2122781,1.66271,-0.0892062,0.53473496,-0.19513947,0.4922453,-3.3087173,1.58278,-2.996613,-2.1360145,1.2856216,0.73250693,-0.5010157,-1.0765151,-1.9998139
1o3dm,-2.1147878,1.7788382,-7.712314,-2.7164361,-1.4932253,-0.89729315,2.0471396,-0.42101213,-3.5750146,1.1154948,1.4097642,-2.4074082,5.3077555,1.398792,-0.47824857,-0.43221086,-1.1365882,-1.9040414,1.3133202,0.47598064,-2.7212903,-1.0006694,-1.1577115,-3.1538115,-0.92007995,0.034921445,1.4793639,0.69453686,-0.82549566,-0.63925356,-0.730195,0.21478711,1.1138743,-2.4813058,-1.2759097,-0.6486602,1.1624444,-0.20182511,-0.24492349,-0.2326915,0.5317484,-0.11367939,0.60995424,-0.60716695,0.1829678,0.08965127,-0.532471,-1.0599942,-2.7463312,0.38709295
1vec3,-8.927801,-2.7341285,2.3245528,1.3006448,-7.452677,0.7292137,2.3259869,-4.940033,0.7372442,-3.7348578,6.1442204,-1.9681659,-5.234021,1.8760293,-0.8961777,-1.0882195,-1.5254929,-2.1178458,-4.083102,0.11173451,0.25070834,-0.4753812,6.545042,-0.6633181,1.4265842,1.8169284,1.3432649,-1.893941,1.4748056,0.2655836,0.89539444,-0.7939872,-3.4028814,-5.6344814,2.7325892,0.85609657,-1.2757919,-1.1493481,3.4165838,-0.6536096,1.2636865,0.1970302,-1.405762,-1.6559498,1.3006947,2.961382,-0.36958766,1.4076576,-2.8522406,-0.6882102
1z7bb,3.5740845,0.8857679,-5.8079166,-1.3511044,4.5805483,-3.4149456,1.3692508,-0.4252052,0.52756536,1.1339557,3.9475687,-0.32149252,-3.3257918,1.9542034,-0.051304556,-1.5386924,-2.014258,0.407403,1.6518501,0.5947052,-1.024763,-2.6034112,0.700989,-1.7187158,-1.5511146,-1.3537288,1.3289447,0.11545332,-1.0292618,0.4625548,-2.5022175,1.3383586,0.7266169,0.83147657,0.7599553,-1.036909,1.506339,2.941743,-0.9082336,1.1937629,-1.9510198,-1.2157798,0.8742068,-0.28002656,0.962508,-0.15035936,1.3922074,0.29850394,0.50616306,0.68668175
212kx,2.3620787,0.94791895,0.54263216,-1.1257132,5.360786,-0.89233863,-4.2219577,-2.6373022,5.3299413,-1.1753829,0.057876166,-0.26742595,-5.460204,2.5307682,0.41540673,-1.1580597,-2.1164384,-1.0706497,-0.8264284,-1.5516251,1.5361941,1.5836451,-0.6738625,-2.8417192,0.7389419,0.9768689,-0.6990606,-1.1297777,2.5051506,0.90118736,0.4966073,0.386464,0.8605147,0.99715996,-0.68962514,1.3616886,-0.057951752,0.27654478,0.19938515,-0.65339524,-1.4582409,-2.4505966,-1.3151917,1.2725706,1.889776,0.7865253,1.362449,-0.23336954,0.75253046,1.530283
293vr,-4.2172327,2.1453989,2.9537735,-6.511619,-2.1697721,4.7852,1.1384691,-1.4359517,1.7500985,-0.5020265,0.19218417,-0.66983837,0.25843218,-1.7234162,0.17589682,0.3050904,-7.657507,-2.314238,4.365799,-1.9899774,2.7450972,-0.8313743,2.3868382,3.573243,-1.5922517,1.1718805,0.22297211,-3.3867404,1.5711354,2.88827,-2.320272,3.7892182,-0.322548,1.981416,0.03688212,1.4742706,-1.9952868,0.54141235,1.9581566,-1.4161737,-3.7153885,-0.9787908,2.1750617,0.7185789,1.0056715,-0.06735623,-1.0033019,-0.8693587,-1.525598,-0.5390611
29g1r,-0.3587198,-4.5854864,-1.148689,-2.03089,-2.133196,5.394658,0.2501196,-3.3905234,2.6101196,0.46646693,-1.3129221,-0.2902773,1.3341672,-2.8924978,0.05614643,-1.0624167,-0.19597924,-0.7974126,0.35630974,1.4248569,-2.397863,0.15547271,1.2561394,0.5008385,-1.0846406,0.05270518,1.2352822,1.7486188,-0.09243626,0.5786066,-0.443022,0.9731494,-0.12080706,0.23441322,-1.1236485,2.476593,-1.8700092,-0.637853,-0.56788677,-0.09429786,-1.2312524,1.999256,0.81049734,-0.23264705,-0.71588147,-0.4892513,1.491254,0.08160878,1.4260229,-0.04897185
2bpor,-10.028254,-4.5948796,0.056424495,-4.2717133,6.9797144,2.7481263,3.9934046,0.46750596,0.3360925,0.8125345,-1.4935942,-0.32386804,-0.18052924,0.26667506,0.71370715,-0.91048515,0.76261973,0.51117027,0.7294043,1.1259575,1.9954067,-0.77290916,0.7514417,-0.821032,-0.27679324,0.6949659,-1.426815,-0.14858606,-0.2745875,-0.27370843,-2.716617,0.96312886,-0.92773443,-0.043640386,-0.109023236,0.6066557,0.11822203,1.393824,-0.4752501,1.4303722,0.6539959,-1.8489732,-0.5244207,-0.33470738,-1.1090285,0.07860129,0.346716,-1.2316645,1.2712477,1.8571141
2ea2g,-3.706037,-1.5077497,1.6917937,2.6421163,4.1461086,-0.71842635,-1.2025402,0.3675396,3.127905,-3.803007,-0.17720525,0.8356104,0.51942354,-0.2574033,1.868841,-0.90112084,0.21688506,-0.12087784,-1.2580253,0.11091444,-0.5504243,0.45135042,-0.59886503,-0.64580774,0.023378724,-0.8903599,1.3917613,0.69316655,4.1210957,0.019724503,0.30219164,-2.3820617,0.067665085,1.3411524,1.3165787,0.23443633,0.044619616,0.6213231,-0.105239525,0.8970899,-0.7768534,-0.12466319,-0.27292082,1.6855658,1.9833326,3.7962935,-0.5153006,2.5059078,0.6725059,2.6231477
2g6k8,5.894737,7.4174657,-2.7379708,-1.240415,0.13584921,4.920038,-4.7829456,3.9158618,2.880124,5.936175,-2.3602366,-0.6099953,-1.7213254,2.1404543,0.16904421,-2.7816179,-0.18840969,-0.029539892,0.50787246,4.1167364,0.46461323,-1.2373161,1.0572215,-0.32342666,0.22590327,-1.3063241,-0.8675413,-1.5595797,0.3603859,-1.1025729,-0.7999235,-2.142429,0.9868871,-2.3721576,2.1440177,1.5664648,0.23554906,-2.2581534,1.211534,-1.0168948,-1.1481762,-0.13530983,-1.4037453,0.2794009,0.86399066,0.48485187,1.5078825,0.49280384,0.5051344,-0.8743832
2vz3n,4.531117,-0.26944312,4.817448,-0.9442477,-2.0919566,2.7081177,2.903191,-5.2990775,0.12743455,1.6954278,2.168148,0.99699163,-1.4991504,2.3435683,0.27419448,1.5275345,1.3957893,2.7890575,1.5655398,1.0647445,-1.667245,-0.6138018,-2.1054077,2.446313,-1.4945934,-1.7364088,-0.33608085,0.7237262,-0.7588066,-1.7716494,-1.0172032,2.3762789,2.1152122,2.7941997,0.6085412,-0.48255208,-0.33396414,-2.1071517,0.34288526,0.7348523,-0.9547815,-2.8773408,-0.35062623,0.9600438,-0.5221654,1.8845065,3.0942125,-1.393396,-1.1834337,-0.91022134
33a05,-8.0509815,-1.6258123,6.4831953,-3.285713,-3.1276114,-0.9758951,-2.761637,1.2302431,0.06692207,-4.034818,-2.017184,-0.5224419,4.1385098,4.0428166,1.4844911,-1.300989,3.9412317,-2.9792361,4.008147,1.832698,-3.7075245,-1.3361568,-3.288416,1.6355535,3.110652,0.20509599,-1.5322407,-0.73437124,1.0519936,-1.3170439,-1.3802029,-0.77560586,0.6809174,-0.74079114,-0.3324133,0.6119041,0.21874397,0.48827615,-0.14848627,-1.4746516,0.5736755,-1.2462429,-1.1927425,-0.75182843,-2.0532718,-1.449387,1.2861773,-0.6928629,-1.1590421,2.2254143
3biuj,7.789095,-3.8479881,-2.2365155,-1.1879654,2.228849,-0.98329556,-1.4913983,-2.4927304,-3.0856771,1.4101334,1.9181085,4.3782425,-0.43069482,-2.8131895,1.7125332,0.008243576,1.1368129,-0.02774485,2.3734808,2.24952,0.29549038,-1.2555141,1.5489124,-0.19568187,1.0062201,-0.22324593,-1.227267,-0.40225765,0.47596484,1.8096166,-0.16932914,0.22584848,1.9095056,1.9728962,1.2948041,0.19107723,0.83666176,-0.032712977,2.225261,0.06430003,-1.1487339,0.29611057,0.35326755,0.057755686,-0.29043564,0.33878672,-0.34044775,-0.79661536,0.26386142,-0.35836866
3d56s,9.91841,0.1611651,1.0393113,1.9257646,3.0103092,-3.2034872,-1.6632997,-1.6000743,-0.5619361,2.6803524,-1.2388977,-0.90200496,-3.6382203,-0.69007236,-0.34647295,-1.0073429,1.7046831,-0.25470915,2.9261765,2.3978958,-2.0173335,1.0672532,-0.23559596,2.1140275,-0.9603621,4.300025,-1.1782566,-0.854307,-2.342378,-0.9024845,0.1877086,-0.71557856,0.5607745,-0.70991886,0.103523426,-1.0895811,-0.87081623,-1.6201837,-0.14811665,-0.9949051,-0.70976496,-0.19485085,1.0744877,-0.16277665,1.4608656,0.27057514,0.0663068,-0.41640988,-0.685518,0.9508719
3uy58,0.62716895,-2.608316,3.7434201,-3.4869995,-5.4073315,-1.268829,-1.241026,-1.2011675,1.5981637,-3.3233905,-1.0702852,1.6319822,2.888487,1.0280911,1.6874727,3.7248206,-0.3330136,1.9423869,0.006992241,-0.19922373,0.4451437,0.21084325,-1.9255888,0.56540126,0.7546703,-0.5735642,1.0003934,1.2861934,-3.8361323,-1.368943,-0.12685063,-1.1537348,0.84352744,0.041611537,-0.97735256,3.0625362,1.3681237,1.8616503,-1.232906,0.639033,1.9963622,-2.7404177,1.163687,-0.96743894,-0.119602546,-1.6588852,1.4875913,1.6675173,-1.3618544,-1.0535209
3wglb,-2.1292508,-1.3396844,10.328988,-6.219984,0.87229115,-3.79173,-0.01609949,5.363258,2.3272214,-1.2000933,-0.79281545,-0.5253944,-1.2163346,1.0068957,0.8886006,0.52056605,-0.89196056,-2.4474785,-1.3550403,1.1529778,0.21352136,0.3850134,1.6698315,0.025152188,2.3071408,-1.918766,-0.2764255,1.3868454,-2.288958,-0.9964506,1.0793575,0.2604363,-0.03903061,-1.1376555,-1.2926506,-1.5281806,0.9764361,-0.8459288,0.3367985,-0.8705459,2.5490108,-0.9735781,1.8144314,-0.21235433,-1.2632096,1.1611722,2.9142485,-3.0507092,0.19020872,-0.3640142
4kx6v,1.0096734,-5.500449,-2.3886244,-1.9777625,-9.607281,1.2146186,0.09777589,-2.387497,-4.392943,-2.7575655,-4.0418544,-4.6308846,-1.6124732,2.2132387,-0.0828562,2.235276,-1.4037791,-1.1798067,2.7028096,-0.00042171363,0.2514895,1.598781,1.2342533,-1.2274715,0.12002951,1.5846046,-0.26574937,-2.024564,-1.5857879,-0.036200937,2.6164439,0.10357797,0.30745858,0.11912952,-0.8878633,2.6460626,-1.2793208,0.24258912,-1.0605692,0.20853002,-0.53795266,-1.3337979,1.5755012,1.7053514,-2.6999984,0.98534775,-1.4266372,2.3950005,1.1943903,0.7838221
4p3l9,4.1999483,-5.2499585,-2.068556,-2.0341594,4.373115,2.9277537,1.3615152,1.0276831,-1.5276935,-0.57927525,-0.26023343,1.3512704,-0.77896726,-0.17215393,-0.29287177,0.79836154,-2.8174376,-2.0447648,-2.1468544,0.10609837,1.3217088,-0.25466755,0.5835334,-0.9452859,3.4754558,1.3335954,-2.0783246,1.0591494,0.5949983,1.2374828,1.7519876,-1.3312289,-2.2937064,1.2235242,2.602004,0.32361695,-1.8081595,-1.2531345,0.9476714,2.4232135,1.6339027,0.3724764,-0.7780584,0.76202154,-0.51736516,-1.1126988,-1.4562852,-0.081457175,1.1673195,-2.1832604
4th4n,3.6437056,8.374087,4.535893,4.6316385,-0.019457048,-0.7254712,4.6711416,1.9019617,2.8058813,1.2559693,1.8903037,0.54941845,-1.7414905,0.030138882,1.9825454,-1.9139189,-0.567072,-0.9934742,0.24441096,-1.3287555,1.0367138,-0.37321612,-0.04245099,-0.9020468,0.66630524,1.0636264,1.011226,2.1397388,-0.97330964,-1.2922136,1.1118071,3.5924814,1.8366128,-1.4339429,-0.80210847,-2.1331375,-1.0818418,1.5059552,-0.4680656,-0.14651528,-1.2128028,1.7479334,2.7265444,-1.0952127,-1.6464584,0.8479813,-0.23097992,-1.1858474,0.8392019,1.0316089
4wbsc,4.5492916,-1.1158864,-1.9577848,-4.9366484,-2.6808403,-0.7643457,2.0888147,4.0013328,4.122115,-0.74083704,-0.025074432,-1.0993264,-1.358832,-0.09865764,1.4156295,-0.013606464,1.0610656,1.7670141,2.0234008,-2.0990922,-0.8250033,2.7937872,0.5276711,0.6069845,-0.023757482,0.38868353,0.18346936,0.38718396,2.1972117,-0.7322928,0.04140792,0.9281359,0.3561553,1.0886556,-1.4199449,-0.78631353,1.2284247,-3.3324335,0.45076308,-0.002361267,-0.560834,0.8237995,-0.4618194,-0.88148475,-0.11386349,-0.45728502,-0.71705884,0.372621,-1.1951182,-1.3505555
4wcis,1.2261696,-0.98154235,-4.370246,2.2692416,2.5246022,-1.9916058,-4.113643,-1.3571566,0.105687305,2.1172223,-1.4677868,-3.2598286,-0.3873792,1.704031,3.174274,-0.7121355,-0.47546092,0.18820497,2.5297647,1.1977389,-0.33970866,-0.84537685,2.1571405,2.4059868,0.8119807,0.77501005,-0.16191316,-0.22251411,1.0430425,-1.1158301,0.36102757,-0.30289787,-1.4017642,1.287319,0.5546567,0.82633483,-0.089640215,0.87017375,-1.321655,-0.5043509,2.517686,-0.89097846,-0.7134646,-0.58976847,-0.62886614,1.2027404,-0.10474116,-1.2615805,-0.56923145,1.5553584
56vwl,0.8282715,5.5353274,-0.14053155,1.139062,0.83863896,0.06356043,-0.5975374,0.29049337,2.962352,-1.0001465,-1.6412499,1.8399287,4.208595,-0.115903184,2.9833653,-3.0195117,-0.9361172,3.8480065,0.4401016,2.6885858,2.3091888,-0.67531985,0.04303025,-1.6544801,2.4493983,3.6343155,1.1842823,-4.2920427,-2.6102982,-1.4108611,0.09190339,-0.9684347,-0.43505958,0.8822008,0.44550234,-0.90416574,-1.7749122,-1.2881882,1.8290899,-0.58641464,-1.4269885,1.5403608,-0.34514442,-0.2968224,1.6801535,1.4807506,0.31393284,-0.8519167,-0.4773672,1.2461382
5puzl,4.364876,-2.5905595,-6.6439366,0.44920233,4.31908,-0.24595559,-2.0124633,0.52360606,0.7482603,2.7393343,-0.589181,-2.935694,-1.9907659,1.2999146,3.578385,0.70080924,1.3109448,-2.1010857,-0.87590474,-1.4004314,-1.5589087,-1.3421115,-0.72863775,-1.0209256,1.3291373,0.8060453,0.9140849,-0.12808968,0.46830308,0.041960705,-0.8324712,0.19225983,1.0038728,0.43192154,0.39315346,2.5402088,0.43432546,-0.46447977,-1.978712,-1.1662443,0.96360093,-0.44050148,1.6393542,0.060499348,-0.7532998,0.82748306,-1.8884298,0.5134391,-0.4698341,0.30287266
6qe7v,1.2853318,-2.686918,-1.1112146,-0.564845,-0.32035124,-0.22691664,1.5617319,0.30203265,1.3333299,-2.2846801,-2.0833373,-3.191236,1.9216273,-1.8619636,0.43477988,-1.2748631,0.009604732,1.1456133,0.57338566,0.31116062,-1.6554221,1.7740968,-0.53543305,0.13069424,-2.4303389,-2.906338,-0.40421745,0.49323073,-0.05598833,0.11033825,0.9499576,0.5255636,-0.29786208,-0.009549971,-1.615961,-0.11890604,1.4348943,0.10872245,0.15737347,1.9506805,2.2060912,0.00922021,1.0946729,-0.85830164,1.420205,0.8835862,0.36461318,-0.39641127,1.4561596,-0.06217673
6rxfs,-14.098338,-0.64475006,-2.0202887,-6.2094073,2.4373062,-3.531236,2.6394956,4.5742064,1.5251948,2.9823554,4.4320836,1.1755769,1.6629078,2.6018958,-0.46276063,-0.8596419,2.4258447,0.20279273,0.71318555,0.2801956,-0.5864381,-0.982099,-0.36694354,-2.1057575,0.7741478,0.6781164,-1.0541741,-2.1609962,0.2489601,0.6009835,-0.23207311,1.1337962,0.841529,0.100176014,0.6552901,0.7065578,-0.63898987,0.08986784,-0.75083315,2.2525969,0.31668758,-0.6140865,-0.15370557,0.17068133,1.1255517,-1.9465591,-0.13413776,0.64074206,0.85295826,0.16126737
70l1y,-3.1721082,5.5961094,-0.53022474,6.6520543,3.4300568,-4.3603764,-3.4680507,-2.0905955,-1.7202747,-1.6441177,0.37473553,4.174845,2.1981165,1.6556298,0.47205558,-1.9767398,-0.06331423,-2.0774665,1.5847986,2.1963997,-1.2660673,-2.8149722,-1.6404893,3.7467458,-1.0246867,-3.130475,-2.5426986,-1.7900401,-0.26623783,-1.3963659,-3.4186642,0.83831054,-2.8356845,-0.80131423,0.8935839,-1.5949323,0.19081266,1.8397558,1.6539917,-0.81741184,0.9773128,0.6754356,0.7835258,0.8203911,-2.4152915,0.39694265,-2.2511091,0.49424416,-0.16249487,0.4983124
76ux4,5.2916327,-1.5051309,-1.8104391,0.61409897,1.4023008,1.9797529,-0.15929335,1.1281432,2.6485538,-0.78666747,1.5838776,-4.401646,-2.9926076,2.429058,-2.2039936,2.4197085,1.047051,1.4649026,-3.157157,-1.4323903,1.2443349,2.5575573,-4.154063,1.7652901,-0.28758594,-1.2395893,-2.4562273,-0.903257,-1.037108,0.63206005,-0.33831662,-0.78259873,0.9075166,-1.6413537,1.2079797,-1.9141427,0.7467852,0.52034795,2.188503,1.0465223,-0.62012476,0.60430664,-1.4937553,-0.40886882,-1.3801973,-1.1786594,-2.7009706,-0.21608455,0.7656968,0.789854
7e5rr,0.9340309,-3.3343809,2.1089828,0.87281024,1.8832848,1.9496926,-3.9400167,0.1294154,-2.9749906,-3.3834023,-0.06992162,-2.061953,0.16592892,-0.9430633,-0.77580017,-2.5807846,1.8478379,-1.1249386,0.052308414,-0.3083907,-0.37986746,1.4659549,0.6547076,-0.3508647,-3.683434,1.5826348,-0.013504988,0.5180003,-1.5766451,1.7391872,-1.6594533,-1.5565886,0.8097609,-0.18738428,-0.15953022,0.71280146,-2.4433405,-0.97842485,0.23132777,1.304146,0.74247926,-1.4635378,-1.1367768,-0.20648363,-1.1368338,0.27120847,2.2574565,-1.1739696,-1.8256661,-1.7848105
7ftdk,0.06993103,-3.5901213,1.8633503,1.212413,-3.8966188,2.4782245,0.9865113,-1.7670608,3.3824356,-0.08637729,0.46413442,-2.623603,1.401122,-0.3213208,3.9902298,0.61736804,-2.7223966,1.0096933,-2.4781675,1.344679,-2.4402497,0.8942394,-1.1661507,-3.566732,-1.9684985,-1.2188635,-0.83862,-1.6973222,-3.692455,-0.9470501,-0.8097512,0.727371,-2.5299697,3.2444603,-0.68143904,-1.0177615,2.0297909,-0.65530586,1.0575353,-1.1828957,1.4245392,1.3723897,-0.81460196,-0.04905796,1.4224876,-0.11762446,-1.9191594,-1.5325863,0.93789476,-0.64382076
7ge54,-3.1118476,-2.9489186,-5.1142244,-1.4959615,2.5004246,-1.5628211,1.6513858,0.69261336,-2.4357545,2.6259205,-0.7773127,1.2300285,-1.0481154,0.91559124,0.6759105,-1.0604801,0.42259297,1.715102,-0.09301363,1.7656591,-0.7346818,-1.2393091,1.5097288,-0.7552868,-2.1832888,0.114739254,-0.526125,0.52738255,0.66773456,0.51779383,1.1549728,-0.27131844,-0.5229785,-0.012314903,0.4591419,0.7686889,1.2335619,-1.3649905,-0.08235717,-0.89733344,-0.25424284,0.66671634,1.7400168,-0.20872581,0.19525637,1.0652087,-0.1176187,0.025512412,-0.8469882,-1.0283804
7hiu4,-3.1202476,3.8127725,-2.876778,2.1507733,-2.9952743,-3.554406,-2.326361,-1.8682545,1.1201472,-2.6927798,-0.9886305,-2.054683,6.408055,-3.752615,0.54136133,2.6593983,1.0059007,4.1852765,0.17578979,-0.5486155,-4.25799,-1.171447,-3.1520376,-0.81158113,0.73623824,2.1961215,0.22608933,2.8167734,2.640661,3.0630713,-0.7845409,-1.9121233,-1.8188967,-1.4859427,0.08438501,0.46805847,-0.22493672,-2.6390922,0.13063197,-1.9242864,-1.3669454,2.0045166,0.4765139,0.25648904,-0.845804,1.4740686,0.49455115,1.195167,-0.9066712,1.5184271
7k50n,-5.2985687,0.83175373,-7.3394017,3.563371,4.162433,0.05407587,0.92897385,-2.3644078,-1.529851,-1.4175651,0.15961255,-0.16937101,0.20404191,1.9183166,-0.81993717,-3.1733913,0.14865379,1.7932332,0.027586687,-1.0139147,-0.17458682,2.8097637,-1.0429783,-1.8018479,0.14978975,0.5264768,-2.4258883,-2.4523385,-1.5426097,-0.2009874,0.3873451,1.2429229,1.0796758,-0.3985102,1.6144407,-0.5362239,-0.42331523,0.7249467,1.4445477,-0.5154234,-0.20313329,-0.10508455,-0.98871255,-1.800031,-0.85153747,-0.91839814,2.499932,1.0079901,-1.0762775,1.4457916
7o17s,-3.2947483,1.6358621,-3.9135075,0.31598666,2.0934324,-1.5741076,-0.45793134,-1.838527,-1.9664507,2.0047626,-4.5436325,1.1290593,-3.3240817,-1.22534,-0.74728274,1.9343601,-2.8484924,-0.21282211,1.8052044,-1.2368363,-0.6045746,1.3433862,-0.850521,-1.053052,1.8179482,2.400087,1.6580497,0.78832513,-0.19778918,-0.906303,-1.1195393,-1.0541823,-1.5680227,0.98162735,-0.15531285,-1.9282686,-0.13753773,1.0225648,1.0181756,-0.55521697,0.89312524,-0.16580456,1.669328,-0.19471781,0.7462458,3.755732,0.59593576,1.6917614,-0.7378106,1.005048
7ub3z,4.0399523,6.366278,2.6104336,3.0151668,1.2923774,-1.6524605,1.7921369,-2.4343488,-5.73176,0.4180597,1.8182261,-0.79126656,-1.1984891,3.0148275,0.09339105,2.4980848,-0.5922508,0.96482736,4.4263983,0.6512916,-1.7518718,-3.3274803,-1.0369248,2.0894215,0.3083833,-1.8131456,0.43754947,1.6139219,-1.6757804,1.1702218,3.5000262,0.9544035,-0.39737645,-1.9498231,0.8740523,-0.90802133,-1.0851868,-2.6198766,2.693536,-0.3676176,0.24895398,1.1903158,0.704982,-1.2883563,-0.38720018,1.8113675,0.12813944,0.9907091,0.5926321,-1.4746222
7vnea,-0.47500798,-0.22747673,3.9903553,4.4636416,4.937155,-2.1167579,-0.13312192,-0.37776557,-0.5423233,1.1045395,1.7467095,2.162214,0.19683155,0.29873717,-2.9616795,-0.48185635,0.63844496,0.17047295,0.856221,-0.07281015,-0.23793902,0.8055673,-1.5405774,0.61513066,-2.0786922,1.8176835,-0.612445,1.4827034,-0.15502243,2.2452757,-0.12268025,-1.4725507,-0.23575626,0.31714678,0.010582682,0.72052455,0.23465016,-0.09043347,-1.5129898,-1.6902434,1.4654759,-0.16818418,-0.4237599,3.1609187,-0.2553446,1.1472406,1.481687,-0.26448664,-1.7099774,1.3248975
89ro6,4.3628154,-5.694958,5.4129224,-4.960824,-2.6886504,1.7811018,1.4584968,-2.6059883,0.07700554,2.059199,-0.27821118,0.9502171,-2.9887595,-1.3527483,0.17337674,0.7673601,-0.4987754,-0.6660232,1.1183691,-1.8256751,0.59365064,-0.060623284,-0.7881089,0.84386027,-1.9963773,0.5571127,-0.20540307,1.0268196,-0.6277477,0.09438954,0.66971076,-2.4184303,2.3914924,-3.26225,-0.39703834,-0.49922168,0.49131507,0.70962214,1.176406,1.3526512,-0.28744236,0.17174478,-1.9128492,-1.8372246,0.38304427,0.7715126,0.11201952,1.0968692,-0.28625226,1.1486254
8bg18,-0.6738924,1.2111331,-2.9131482,-0.9651295,0.75389326,-3.6133268,2.3242002,1.3219309,2.1404562,-2.695308,-1.3478302,0.041101422,0.8931131,0.8828756,-1.0819238,-2.2879934,1.8182333,-1.1899469,-1.6940918,-0.5474549,0.5011675,1.1172016,-1.1494188,-0.31570262,1.7079678,-0.26150808,1.2166673,0.15117511,0.16923623,0.6732326,2.071561,2.4861307,-0.353714,2.2888353,0.8891686,-0.16244729,0.2864215,-0.2770683,-0.42390624,-0.86034,2.5271869,1.0348172,-1.6781136,-0.8445648,-1.5251044,-0.3228528,-0.048852865,-2.6155865,2.1006193,-1.9335837
8fkgi,2.0648217,-2.4512134,-0.4572644,1.8810811,-2.3792634,-3.6245825,-0.72167146,-0.8612683,1.6883675,-1.8562454,3.0322862,2.3109927,0.5802159,-0.32576418,0.2220071,1.2448409,-0.0014026337,-1.870768,-1.1790205,1.1735284,2.6133595,-0.08254408,-0.27975765,-1.1204779,0.94818544,0.59652597,-0.10179253,-2.7537563,0.26293018,1.0264726,-2.2431226,1.4188163,1.2523621,1.2968637,0.5611506,0.87812513,0.6614466,-0.56334156,1.9987323,-0.49596182,0.40847364,-0.64187586,-1.1789519,-0.3278495,0.30452827,-0.3740579,1.6983825,0.570305,-2.1855948,-0.84068805
8ij30,1.4885188,-1.6712006,-1.1215874,0.9738997,-0.8068404,1.1881639,0.13401555,-3.8634245,0.935543,-0.56251,-1.9789739,-1.4987435,-2.4258895,1.3375747,-1.2401063,1.1891583,-1.1358074,3.6942255,-1.3521007,-0.45542318,-1.2497171,0.6125015,-0.40776613,4.393992,-1.413033,0.036511406,0.46069738,1.8187125,-1.0871333,-2.0038786,-1.4961939,2.0246015,1.220544,-0.8316862,2.0424697,-2.2444687,0.37404555,-1.5839845,1.1802026,-0.6595783,-1.8439006,0.45638445,1.8292556,-0.5568442,-0.26448584,-0.03597267,-0.055220727,1.9123753,-0.23953442,0.8572509
8ka4n,-2.1042485,2.6802428,0.6474994,6.332501,-0.33085683,-0.5108559,-0.63808095,1.1424277,5.9895673,-3.7269135,-0.46659487,0.8386055,0.8807855,-0.8382785,2.3478384,0.58426505,1.2107213,-0.09987611,0.27102128,2.2409856,1.4744765,-0.6680293,-0.24335757,0.9508109,-3.4122772,-1.2269131,-0.69668597,1.2724278,0.6552317,-0.4559514,-0.9190279,-1.4822851,0.10052628,-1.1731944,-0.11235973,1.0074289,-0.110660255,0.82499135,-0.36187798,-0.6921229,-1.6765059,0.8734593,3.5155108,-0.86899805,-1.0034535,-0.4108176,0.14336154,0.72758144,1.225236,-0.48402593
8r5lt,-3.323579,0.39338842,-1.7711343,1.3309721,0.7696812,-3.3043106,-1.9921136,2.5103614,-1.5509981,-0.71047235,0.41291767,-3.4045687,4.579606,1.2504075,-3.0451078,-0.45693383,-0.5037012,-0.55424243,0.5338993,2.6933417,-0.071814105,-2.4471922,-0.0914424,2.5078263,0.5825687,-1.7829721,1.293151,1.066629,-2.9443407,-0.063049056,0.7136823,-0.87831527,0.33644366,-0.10869306,1.8639435,2.2450562,1.2472892,1.4527023,-0.4675786,1.5808862,-0.42387733,0.77144873,-1.6907583,1.3362948,-1.7811095,-0.3376948,1.305311,0.16121054,-1.9258873,-1.1736631
8tr2p,-4.1607714,-0.41334707,7.181694,-1.1484705,0.380847,2.6868165,-2.3332384,0.83406407,1.8189087,-1.3856438,-3.147588,-0.8634213,3.0584126,1.3226911,-0.5932809,0.6994607,0.49386024,3.5137138,0.4094749,0.23835768,0.27516806,1.9517697,0.7548537,-1.3210142,1.6939441,0.70346075,-0.8797823,-0.9201153,2.3833745,1.8031918,0.81649834,0.55877393,0.34647474,0.93487924,-0.84936386,-0.3775408,-1.4894866,-0.64202124,0.9800834,0.29543203,-0.8214034,0.15695691,-0.6151423,1.3622926,-0.5924912,-0.80309856,0.28198442,0.23049341,-0.74991846,0.4488185
906gx,-5.235928,9.12914,0.62322235,5.3055267,-4.12535,5.924282,-2.046156,3.708572,0.47302514,0.96192175,-0.7126496,-1.35532,-2.2407725,-2.3628013,-3.3634503,2.3269436,2.4668145,-1.1822798,-0.56770384,-0.381187,-0.6298295,-0.4883714,-0.1137722,-4.311406,-1.3545836,-0.96938473,0.6587575,-0.16110231,-0.39276582,0.34124023,-0.2595834,0.44438487,-0.47712094,-0.9079962,1.5761486,1.0524684,-0.15594597,-3.4851813,0.3871715,-0.04145009,0.53599995,-1.6907543,-0.17122982,-1.1288251,2.5754247,-2.7643676,2.028184,-3.9304502,-2.14829,0.87878567
9duy2,4.3968515,2.1871285,-2.4646323,3.2764893,0.999479,-0.19452609,1.0956668,0.020652832,-1.9552943,0.9490163,-1.0866776,-1.0917096,-0.5226183,-1.7373525,-2.18224,-4.6532836,0.9020889,0.058309127,1.211786,-3.118245,0.6351526,-0.47995156,-2.2128558,-0.79030985,1.7897884,-0.9619125,2.0417433,0.1775933,-2.0587876,0.21178856,2.1909068,0.51533955,-1.1220834,0.5733484,0.40646508,2.3101945,-0.8247379,-0.7871604,-0.5114469,1.2347343,-2.3031347,-0.67738885,1.0266917,-1.3187307,-0.9804119,2.1080706,-0.15437156,-0.9250415,0.5590516,-0.86328465
9o70p,-8.176568,6.2648587,-5.867642,-4.623489,-0.08642141,0.8020974,-1.0270928,-2.327542,-0.61716825,4.376522,-1.3897439,1.6694493,-3.6098156,-3.9220457,3.1058812,1.2578346,-0.5553099,-3.8071806,-0.6515695,1.1272073,2.2210526,-3.6283262,-4.003007,-1.4515367,2.9976425,-1.5631367,0.33308184,0.96942544,-0.9730289,2.3352804,1.0069717,1.2212372,-0.75330186,1.1723033,1.5697763,-0.4428502,2.7941072,-2.6065056,0.27912262,0.5052863,-0.37142068,2.5522633,-4.712151,2.7070427,1.2230079,-1.1608644,-0.8749305,-0.47238436,0.4239065,-3.2948654
9vwzo,-1.1599506,-0.06777606,-2.839584,-4.0693674,3.5788078,-0.22841673,-0.17175822,2.6825023,2.2872498,-0.813098,1.2948531,1.6882704,-0.15421131,0.60414505,-1.22634,1.2827265,-1.1083628,-2.2563941,2.1022582,0.42666447,-0.5546897,0.5711454,1.2646523,-0.08112401,-0.68621624,-0.76761276,-0.9957424,0.32514817,-1.9712869,1.4614625,1.2994599,-0.72803205,-0.8057791,-0.4645731,0.9576002,-1.473265,0.20443407,1.1770481,0.90681595,0.37634805,-2.4371452,-1.4368814,1.3370792,-0.93420345,2.3729882,0.4599274,0.25075498,-0.6361744,2.282643,0.33091223
a53lx,8.586321,-0.98102516,0.7297938,-2.3433948,3.6391757,0.07295891,0.88892466,2.064978,-1.4422047,-2.452764,0.18960686,2.81606,-2.7470222,-0.05387347,-0.75449485,2.0124526,-0.3649387,2.6041968,-0.25571594,0.28616792,-0.50237274,-0.21499306,0.9489825,0.13953175,1.6483668,-0.018121954,-0.24421293,-1.4844776,-2.1737251,-0.020800052,1.0182804,-1.5948147,-0.23965737,1.3995583,-0.770297,1.2054878,-0.38481513,1.4059584,-1.0396403,1.5333598,0.216557,0.8447797,1.11565,0.8059958,-1.0991566,0.98560655,2.286496,-1.6139477,1.1987264,-0.0009188271
a6adz,-0.20104946,0.4691595,2.9161906,3.3506548,0.41702938,-1.0778068,2.4079802,0.99215937,-1.5317277,1.9497373,-0.5879581,2.2182174,-0.5553001,0.5083353,1.6951536,-2.007536,0.091887444,-0.5893225,2.2394261,-1.5959784,-1.570647,2.7136798,-0.9726286,-0.21275103,-1.3533713,0.06874087,0.35633877,0.45167285,0.25975558,0.22026001,-0.37371457,-0.854834,-1.0201564,-3.2932737,0.15144308,0.22831643,2.2105834,1.5360016,0.6344149,0.35773492,1.9974842,-0.37920883,0.7469309,0.58408266,0.13683467,-0.58768374,-0.18112911,2.0054784,-0.07089213,1.6492723
a8aho,4.428475,-0.46809867,-4.084266,-5.1734786,-0.60148627,-0.90992266,3.0147514,0.3318084,1.5215864,0.6664261,2.3420308,0.6074937,3.7737432,-1.0143795,0.10908675,-1.1534126,-1.2540994,2.5706816,1.2505003,-0.99107367,-0.75869805,0.087988235,1.1964937,0.89618546,-1.88548,0.22283727,-0.15651523,-0.36531648,-1.1369375,0.48547134,-0.78202903,-2.334237,-1.2680955,-1.7782329,-1.4965931,1.9139736,0.0072206473,0.008252747,-0.9687927,0.54072696,0.35300782,2.0398595,0.52505386,0.89246744,0.3348756,-1.0510968,0.42371854,1.3810545,-0.332614,-0.05347805
aev6a,-6.251724,-6.720442,5.4170246,-7.8283696,3.264198,1.2290365,3.651734,3.1562734,-3.0024242,1.3150464,0.50114346,-2.546636,1.4856555,-1.9979904,-0.77585655,0.6704513,-1.3783321,-1.705471,1.6927555,0.7601673,-2.3206782,2.7827575,-0.40239847,1.9176733,0.8447442,-1.1596906,1.6125847,-2.125516,-0.70324147,0.2197257,0.5295653,-0.7099897,1.4377403,2.680571,-0.73207647,-0.14054182,0.23643743,0.7062979,-1.5724987,-1.568458,-1.7952662,-0.6357033,0.9310903,0.7811985,1.2144365,0.24543187,-3.1378324,0.6106496,-2.091618,2.288693
afrls,-2.0621903,-5.5983,1.1150467,1.4333749,-0.8421258,0.22798046,-2.5631828,-2.7584617,1.6164103,-2.1270578,-0.4025744,0.39464304,2.2538533,-0.33944786,-1.7534907,-0.96177745,0.028875627,0.09510088,0.5614682,0.008460867,0.35618117,-4.2175465,1.9879347,-1.5052909,-1.9472454,-1.0556898,2.0902927,1.4361192,1.9102353,-1.0500765,0.5257352,1.5973305,1.032476,-1.4636713,-0.8048494,-2.739221,0.78736323,0.9445494,0.4072058,1.8937991,0.1649865,2.4882472,-1.0637957,-0.52975696,3.5181928,-0.19975622,0.26064873,1.2470309,0.5871997,1.2044076
aht1w,-8.151094,10.471693,-3.7701623,-6.193748,-3.7613409,2.3376918,2.0372295,-5.0330243,2.2239761,4.660168,4.2494397,-1.0844984,3.0276937,-0.48459873,-0.028542357,-3.7005444,-0.39645207,1.6408428,-0.52372354,-0.4368812,0.4573143,2.2537172,-3.4391563,0.16518517,3.5482411,-1.5154876,-0.99767804,1.0781916,-3.0384347,3.119203,0.17932183,-2.8927143,2.3773284,-1.2345628,0.8165226,-2.029932,0.26243567,0.53605586,3.1694214,-2.4098384,2.7290854,1.4734488,0.53331244,2.057108,1.8014394,0.5724844,0.40276587,-0.075084075,1.9855376,0.25394332
ahyp7,3.6062555,0.60612994,8.094589,4.7982097,-2.417719,0.5036229,2.7017567,-5.605517,-1.5673422,2.601601,1.046115,-3.8399272,2.0091016,5.562625,-5.6002784,3.8559246,4.061455,3.3462238,-1.8776997,1.0900296,-0.06282935,-5.3008466,1.5313104,2.7539399,1.5328448,0.077455446,1.5675861,-1.5526215,1.593443,0.46036693,-4.0450945,-2.1758173,-0.954227,2.1073306,-0.36860728,-1.4971769,0.035017274,-1.6231427,1.4156442,2.8200834,-1.0304408,-2.420506,-0.26749933,-0.75057936,1.3187274,-1.5657054,-3.4932888,-1.3564367,-0.22487053,0.49427232
amf2x,-9.218737,0.5993165,10.805499,-4.7983823,3.897686,4.8479843,1.0659688,2.3790662,0.09586532,0.1921092,-0.41162223,0.6556611,-2.4651482,7.125789,0.28210664,4.933342,3.2497609,-3.3202014,-0.72643614,-1.2292603,2.7738268,0.73241776,1.6411505,-5.6908736,-1.6186187,-3.0229847,-0.19449899,-3.459747,-1.0344054,1.3408313,1.1931467,0.19180316,-0.6647117,-0.51145154,0.0070222914,-1.7060165,1.3870447,-1.9925677,-1.1805226,-0.5135111,-0.021420954,4.549956,0.85988283,0.85195875,-3.638881,0.98655885,0.4421556,0.43613636,-0.09309312,0.6353378
anjsc,-4.116293,10.112343,5.007236,10.310258,2.735468,3.3704436,4.3197274,-1.1376762,-0.2931394,-0.72477514,1.6956428,0.67822903,-2.2911155,-1.0846431,3.457721,2.783387,-6.1440268,-1.9742078,1.354175,8.463725,-4.3841023,5.5908647,0.008012599,-4.7576623,-0.39417234,-0.672236,3.0082417,2.7140725,1.1369549,1.0125248,-0.5887249,1.523465,3.919784,0.03762159,2.6298237,0.68902326,1.090661,0.08363719,-2.134104,4.565285,-1.0444841,-2.3794377,-1.1263267,-1.7049142,-1.7924631,-2.0997624,-2.9184208,-0.584231,0.7847464,3.3119974
arxcr,1.2295066,-4.096729,-0.45639282,4.157473,1.411159,-0.680821,-0.5088129,0.96367675,1.8274791,1.4370663,0.8148459,2.567583,1.4747975,0.30333242,1.8148884,1.3377125,2.9599764,0.1311215,1.5829883,-0.35124633,-0.02402127,1.4190271,0.36055532,0.91425055,1.0980943,1.1228518,-0.5325768,-0.6634348,1.6996453,-0.040104505,-1.6804255,1.8097095,1.2466319,-1.7743086,-0.6367635,0.06278641,-0.48794705,-0.43783674,1.7637064,-1.5649765,-0.01068572,-0.26393798,-1.8160688,-0.13252172,-0.78230965,-0.734216,1.136184,-0.010910946,-0.5606352,-0.4371075
axvvp,-0.36211854,4.2439146,-5.7670546,-2.7804992,-3.7254024,-6.020934,2.0255003,-3.6909995,-4.128291,1.7490364,-0.7202801,0.4811055,-1.9451619,1.1914506,-2.9290946,0.30615702,-1.1010644,4.084481,-1.4495808,1.3516011,0.57010734,-2.4993896,3.1471033,-1.304232,0.8774609,-0.788136,-0.73366404,-0.41364485,1.3757787,4.705181,-1.2072076,3.823721,-2.0201426,0.035655107,-2.8644307,-1.2596216,-2.822931,-2.7151215,-0.4662311,0.48163176,3.1013138,-2.391193,-1.2991698,1.887257,0.19275187,-1.072377,0.16067918,2.2289772,0.08865327,2.1212046
ayss6,-2.7184675,1.2728119,1.641572,3.5710843,-2.011602,-2.6660502,-2.505016,0.25707945,4.758463,-2.3384755,-1.8710142,2.0978508,-1.3472464,0.14338522,1.1386354,-0.08557635,1.4321675,-2.6735425,-1.528168,2.9900484,2.1757607,0.3008046,-0.46474773,3.6764104,-3.6259565,2.0864058,0.64739424,1.7984729,0.7777433,-0.77375793,-0.39809364,0.76865053,-1.8371155,1.5142007,0.8882114,-0.8391876,2.7211692,-0.2820843,-4.3119726,1.883419,1.6084671,1.1772537,2.4954846,0.3174519,1.4982225,1.0349593,1.2646906,1.9617078,4.2702155,0.91763365
b8zaq,0.9612002,-3.2374723,2.2746348,-3.888933,1.068603,0.22971243,0.62107134,-3.824575,-3.496536,-1.484967,0.97288954,-0.07658722,-0.9536995,0.23144507,-0.22917843,2.5688403,-1.5956546,1.3877047,1.3953665,0.46238977,0.7342529,-2.7520912,0.5197765,0.38975787,-2.9405613,0.025546461,-0.7034249,-1.165521,-0.024237683,-1.9754986,1.093219,3.0359614,1.8193876,-0.23551138,0.89462626,1.9183317,0.14410502,-0.10334124,-1.1346546,-1.2634044,1.7400129,2.7326167,1.8679453,0.5199405,3.2035782,-0.5888183,1.1929096,-2.0995734,-2.1807995,4.03946
b9jzt,-6.443037,10.588474,-10.310186,-3.106225,-3.025642,-1.7840977,0.73538595,0.8086833,-1.1740063,-0.15115236,-0.6225627,2.4782743,2.3212185,2.4223766,-0.85479075,-0.3660005,2.137517,-2.2895648,-0.5069614,1.622764,3.0621324,2.2967048,-1.7047719,-0.641237,-0.5282961,-0.32790488,1.5301081,1.1262256,1.1122718,-0.76731664,0.8843326,-0.045822676,0.42824504,-0.9582576,-1.2843539,-1.1259171,-2.132239,-0.71535546,0.22502208,1.0290223,-0.13377532,-1.8279284,1.5033585,0.16915074,-0.123941936,0.24216726,0.15387087,0.13753726,-0.088037066,2.9139812
bbrrv,-5.45217,4.191838,-0.78035694,-1.7024835,0.6673479,-0.63851964,1.2604027,4.9438286,-3.27455,-0.66565794,1.5892965,-1.9819214,0.059270795,-3.9267383,-2.9402614,-0.8392158,-1.1030442,-2.2918289,-0.48703757,2.7669992,-1.165259,-0.6940097,-0.67123103,3.3504593,-1.7119373,-0.6516298,-0.5220031,1.7888404,0.9710002,1.8519168,-2.5839758,-0.9154021,-2.269795,-0.22737916,-1.2812929,0.60057914,-1.621123,0.20754042,1.4232979,-1.9389472,-0.8829641,-1.2476203,-0.49368882,-0.22681722,-3.1911786,1.5386933,-3.5788295,1.1854513,1.0874014,-2.2664812
bc0tc,2.0206592,2.032082,-4.7626123,1.8699418,2.3960395,-0.13063395,3.2237651,1.4037018,0.47152048,1.385317,-0.97869784,0.62278795,-0.30605143,1.6006913,2.7018378,-0.90328425,0.45369723,2.1106899,-0.9838089,-0.34865227,-2.9754188,0.14421684,1.2418855,-0.30423656,-0.56631947,-1.3848561,1.4272414,-0.5919092,3.242844,0.7736481,1.070348,1.1637166,-0.73573387,0.2693527,-2.0529253,0.36458087,0.3382258,-0.4694572,-0.22798502,-2.0485873,-1.1988626,1.3146167,-2.0060015,2.4409306,-0.8022021,0.075003415,0.7927368,2.0411987,0.4854017,-2.1629875
bc89d,0.04556279,0.7975395,-1.1279017,-1.4898663,-0.3762121,1.3062801,-1.0222636,-1.8263072,1.4114662,3.1630392,0.7088538,1.0415753,2.865476,-0.8380818,-4.1199226,0.22172417,1.5533675,1.7392743,0.6298028,1.4188272,-0.7588647,-0.08667572,-2.0654213,-0.9139053,-0.23976916,0.3396353,0.21357848,0.9095309,-1.5692306,-1.6485783,0.13192052,2.435609,1.5616053,-0.9042009,-0.73678374,0.92533934,1.3549192,-0.29690704,-1.5183412,1.1586787,-0.80201155,0.9219186,0.9657073,0.63160986,-1.2484497,1.5098584,-0.00070843066,2.9144797,-1.0724407,-1.2919024
bc9lg,1.0456258,-1.5581098,-3.684363,3.2064774,2.1142786,-2.0872185,-1.4660037,1.6093315,-1.0340822,-2.1960182,-1.5499473,0.7442464,-1.9629158,-2.079102,-0.15074421,1.2946986,-0.30373663,1.7809323,1.1520625,0.5470791,-0.39445496,-2.1323254,-1.4228929,0.44176298,-1.1776727,1.023021,0.75296104,0.71505463,-0.18823488,-1.1932524,0.08173722,-1.1898669,0.149209,-0.5848511,2.060835,-1.6017824,1.0766548,-0.039714124,0.1436123,-0.5491995,-0.8849057,-2.6460462,-0.7178624,0.7905577,-1.4074851,-0.43255553,1.0374992,-0.96518934,0.47422376,-1.0206047
bf785,6.311891,-3.836591,-4.575332,0.14014173,-1.0797865,1.0750102,3.682833,0.04084589,1.6822509,-0.42897978,2.2664063,-1.3146108,4.8006334,-1.317997,-1.0148833,-0.41118324,2.4755087,-0.17028157,-0.9515618,1.1020731,0.86493117,2.720449,-0.7530016,-0.61801124,1.6733998,-0.44872776,-1.6206207,-1.0273002,-1.8392279,-2.4215715,-2.129372,1.6320027,0.56310666,-1.4560916,0.14973024,1.748867,0.85618407,-1.3990265,0.41319945,0.66535497,-0.8521389,0.78590393,0.51526105,1.7038076,0.5317828,1.8655437,0.5328965,0.11709631,-0.95710623,-0.47145528
bhiml,7.8567934,-1.2052437,0.15896742,2.8096285,-3.575153,-1.1642538,1.1828722,3.2089324,1.2561492,-0.18848976,0.33154878,-0.27339986,0.5373725,0.041793104,-0.8205965,-1.240469,-4.6995707,-1.9680964,-0.5543451,-1.5547191,0.5448424,-0.9222938,0.36756256,-1.758246,2.9283633,0.41482145,-0.37666455,-0.6423361,1.2359564,-1.5298173,-1.247449,-0.6096489,3.19953,-3.386219,1.5536207,0.047181614,0.38192973,-0.41032568,-2.596068,0.66255236,-0.3345806,1.8610581,-1.7394446,-0.027761506,-1.562091,0.3041961,1.2831471,1.5357128,0.04300373,0.5850897
bicf2,-3.2845006,7.0665026,0.77498806,6.479387,6.3281035,0.4764302,2.5395248,-1.6297418,3.3422892,-1.8158374,0.6323039,-1.2180163,-1.4171349,-1.4393061,-0.31462434,-1.5941129,2.2288525,0.10564994,2.0537522,-0.21934983,1.7884943,-3.5569108,-1.8668193,0.15583894,-1.3123546,-0.39430204,-0.89976645,1.6277785,2.5720544,-0.049138516,1.0925215,-0.46035796,-0.50159687,-2.0068152,1.2494129,0.91199577,0.064972736,0.611906,-2.846458,-0.628161,-1.5118879,0.5920611,0.2980712,1.203997,1.177693,1.5372919,0.066840045,0.8846156,-0.7228134,-1.2002304
bm5ba,7.643617,2.7685347,0.5866538,1.2260978,1.6555008,-2.5073473,1.8357099,-2.1081128,-0.19013359,-0.1530119,1.0335071,-0.8304785,0.15890989,-0.52489024,-2.7269597,-3.4113774,-0.95523953,0.34447706,2.3236918,-1.7347119,0.26018056,0.53007877,-1.2893386,-0.97977495,2.2646964,0.8103207,-1.621189,1.8327093,-1.1101005,0.6970112,-3.157686,-0.4777614,-2.0325649,-1.2175313,-0.97500336,-0.17851703,0.10072901,1.7649617,1.0666252,-0.221414,-1.7199678,0.46076718,0.24751458,0.3444784,1.385451,-0.043527618,-0.8554146,0.36001742,-1.2153556,0.049268447
bnxw1,-2.3371692,3.1171665,-2.3686895,1.6722157,-5.632427,-3.5732696,-4.6764855,1.4793643,-3.557163,3.4579773,1.2148682,-2.3807573,-1.1658788,1.4983684,0.3005836,-0.2359343,0.97114295,-2.0144393,-0.48031858,-3.3226562,1.2551876,3.5351946,-1.1988351,-1.9514495,-1.1414685,-1.6014736,0.9160388,2.48016,1.6203827,0.95327556,-0.15602408,2.1203399,1.6729201,0.77527404,-1.5385504,-0.99285895,-4.3726315,2.1935065,-1.5021044,-0.18815936,-1.6590462,-0.5823467,-2.4121754,2.1430545,0.3970615,2.3203576,1.122951,0.3674233,-0.5223055,-1.6636354
byr2v,5.6650724,-1.7551026,2.7173076,6.1015363,-0.78268504,-0.15232505,0.6363684,2.0153472,-0.68906575,4.7086406,-2.1153834,-2.0368822,2.1573741,-2.62018,0.5222375,1.8350942,-0.2751283,-1.4562587,-2.1255171,-0.09081292,0.5558944,-2.690274,-0.7524754,0.874449,-2.2834752,-1.0608965,-1.8093946,-4.3384733,-0.7541364,-2.1810603,1.3289368,0.81424475,0.6204149,-0.3739598,-1.3206806,-1.7623478,-0.3158582,-0.29575703,-0.019075593,0.4891844,-0.55895245,-1.2901762,0.05442249,1.8011005,1.159833,-0.24498588,-0.45370066,-1.3186436,1.524666,0.06536326
c0p1j,1.1777115,7.4384336,-4.920978,-5.050856,3.2333765,3.1153853,-0.4191152,1.3119267,0.6108423,-3.5714495,2.304006,1.3793415,2.6195006,1.8662522,0.27271417,1.4165332,-1.4533937,-1.7238952,-1.429137,-3.3732398,1.7622472,2.3690517,0.68642735,1.6345855,0.21905749,3.7290673,-5.1475554,-3.200976,1.0639465,-0.47026822,-0.1869281,-1.1840696,-1.2417009,0.79938805,1.1482122,-2.2497077,-1.9993299,2.3917294,-5.2058845,0.5020115,-1.1236997,-0.7066277,-1.0731682,-0.2411961,1.0799942,-0.22087808,0.2892004,1.2208254,-0.4777655,0.054647665
c42r9,2.8539288,-0.19108784,-6.1912355,-1.6885256,-2.3401477,0.14656295,-1.9254103,0.3233791,0.39195,-2.187137,3.112079,1.8629783,2.8688853,0.9217226,-2.6583033,1.4328909,0.53279614,-4.2498026,0.3945138,1.967028,-1.8291286,-1.3486257,-0.33404997,0.16404766,-1.8890374,1.3059753,0.6875717,-0.7121081,-0.96414834,-1.1308155,0.8303362,-0.59047914,-0.8698814,-0.19424917,-0.015011121,-0.6588598,-0.23160572,0.29163796,-0.48380706,-0.56973547,-0.23457932,0.39669052,2.6741624,2.1927187,1.5501465,0.35945222,-0.4949174,-0.3830401,-1.1275438,1.0906715
c9e9n,4.4483166,4.2434154,6.9571075,5.9232516,-0.080745436,-0.3863773,1.8114605,0.17007557,0.3975612,2.5029106,1.5773507,0.5263616,5.0870633,-2.2666652,1.5904263,0.10177493,-1.3208367,-3.0599644,0.37139416,-2.6929786,0.03806527,-3.3054245,2.9693546,0.38567182,-1.988923,-3.86536,-1.8388226,1.8728112,3.9686391,2.7918866,-0.6486686,-1.9588406,2.115487,-0.31779718,-0.29927796,1.9070005,-1.2840393,1.4730638,1.0579551,1.108317,-0.096244946,1.7346007,-1.7986783,-0.54129297,-2.8596568,0.51455337,0.18112196,-0.3841456,2.5160365,0.71907496
cmjtd,4.9905453,-5.185909,-6.9741745,0.96763015,4.381699,2.1493452,-1.4206765,3.4216647,-0.6642369,-2.6145344,3.1376898,-4.944339,1.4347682,0.82513946,-0.046492845,0.40450448,-1.246393,1.0073397,2.0018659,1.9777243,2.0483043,-2.1779046,-0.4657275,-1.5996042,1.5586706,-1.8330566,1.5076959,0.009593036,-0.8287302,0.9405236,1.1054728,-0.503472,-0.23565476,-0.77577,-2.414962,0.03052407,0.09068301,1.795836,0.31957826,0.36416367,1.998059,0.08452546,-1.705707,-0.74371916,1.0372847,0.20604181,-0.09700232,-0.5439328,1.0151805,-0.9496435
cmmpb,-5.374788,-1.1478528,2.140939,2.8334572,-1.442754,3.5576456,0.19276482,-0.3391456,-3.496518,-3.2499115,2.103517,1.1281703,-1.3914062,1.4946328,0.4907802,3.2522972,-0.51098514,4.1419816,4.37229,-2.9439707,-2.2074525,-2.2522836,-0.8003308,-2.8992937,-0.77131563,2.4230886,-0.95045954,-1.5172493,0.59739345,-1.1232213,0.9686588,0.28831995,-2.956083,-2.927523,-0.8854111,-2.7071486,2.5073342,-1.8301497,-2.1069841,-1.0830288,-0.6162938,-2.188677,-1.8213518,2.359269,0.2714291,3.1520078,1.3278824,-1.7975754,1.97745,-1.2006817
cnx9d,7.436125,-1.9227619,-0.6355682,-1.3481251,-1.8220443,-1.3857561,0.71041733,1.4966298,-0.4443488,1.9888381,2.8644385,-0.98604095,-1.9043185,-0.25637555,1.499217,-2.7854507,-0.7141512,2.966259,-0.48179877,-2.1551812,-2.4124415,0.35169092,1.0417894,-0.6989029,-0.8874577,-2.7464006,-3.1835396,-0.50411236,2.5455818,0.31524485,2.7343378,-0.5277573,-1.1164714,2.7889545,1.3181446,-1.1500115,-1.2893612,-0.36868447,-1.6808888,-1.553692,-0.9761465,-0.8357954,-0.58185697,-0.7585798,0.47747615,-0.044938833,2.4649172,-1.3743643,0.5428144,0.6065638
d3vke,5.1542587,-3.2267802,6.4224267,-2.2106109,-6.6876554,-8.090036,-2.3398347,-1.5327548,-1.1431104,2.2059364,2.2568178,0.45929763,4.170025,0.33299476,3.7934988,5.353519,0.14829837,-0.13614476,-2.7288752,3.494609,5.1432533,0.7683647,-4.8153224,-1.5181668,-2.5994198,-3.6345239,1.2827255,0.60552126,-0.13938905,-0.50690603,-0.3478815,-0.4507351,-2.3049247,2.0454297,2.7352633,-0.61231667,-0.99978155,2.290895,0.1986563,-3.549635,0.8540676,-1.4297992,0.24009207,-0.8656531,1.6254016,-0.6362426,0.40467125,-0.22562607,1.4977403,0.374307
d5yrm,7.0394535,7.4836,-2.2257686,-3.675599,-0.28629768,4.326417,-3.7034097,3.501818,2.3173883,3.7981963,-1.0449387,0.5774667,-1.9242445,1.178423,-0.32770854,-1.5488673,0.23856375,0.6877809,0.39997554,4.961218,1.1042823,-0.9692814,1.576007,-0.6438413,-1.7572689,-1.050354,-1.143409,-0.6887774,0.06308217,0.30643034,0.6428074,-1.7877073,2.399105,-2.351351,0.9315363,1.5096065,1.0652363,-2.1910603,1.7738255,0.4387588,-1.110697,0.0477639,-0.7154842,-0.23495509,0.40288314,0.31432942,1.4204721,0.76625544,0.41262957,-0.55284375
d8l9i,0.73905057,-3.4273427,0.3747483,9.463143,0.16686298,4.1780906,-2.886943,-5.7793436,-1.2295438,-2.4973392,0.6977623,2.6357868,2.8099675,3.0014272,-1.3641856,0.28530687,1.472242,0.87643075,-3.1946287,0.84487766,-1.9179777,0.39463177,2.2647452,0.45932528,0.40225202,-2.287706,1.4361179,-2.0274627,1.2953792,1.6516963,-1.1219025,-1.2181828,1.5911831,-0.37185574,0.6444473,1.9660914,-1.3043123,1.9157104,0.21104145,1.2191594,1.2600856,-2.4150867,2.346078,3.3470078,1.1349062,-1.6208407,0.27003473,-0.40404838,0.95067614,-4.3091784
dg0ss,-8.789785,-4.299754,-0.8640356,-2.6070762,4.6879616,2.3322675,4.5110016,-1.5501907,-1.0518295,-1.3020785,-0.64344263,-1.2830296,-0.93208504,-3.3672113,-3.169084,1.4307296,1.467993,1.0993806,0.7678072,2.4392269,1.1962616,0.72583115,-0.48961198,-0.7328818,-1.7319832,-0.021250136,-0.324205,0.5822156,-1.7407279,1.8931547,0.723564,0.78499633,1.6093479,0.27819467,-2.2130466,-1.231838,-2.1182947,-0.006966742,0.48685634,-0.23433857,-1.0381529,1.0858206,0.9989886,-0.7106061,0.31499884,0.46205685,0.24231046,-0.7277709,0.741522,-1.0969257
dtsui,4.4239697,0.71097994,4.3773937,2.5933175,-3.751847,1.991895,2.103553,0.15414742,-2.2263048,0.006242687,2.1718254,-1.122256,1.8483605,0.9628725,0.05679769,-2.7728305,0.47936064,0.32073227,-0.35028023,0.78455687,1.0290326,-2.5957725,1.6244794,1.4641056,-1.361038,3.7353694,1.3576831,1.9387934,-2.0617461,-1.3442504,2.701602,-2.436608,1.6050118,2.8443613,4.4904675,1.0853533,2.2982407,-0.7236368,-0.407656,-3.5046148,1.5435746,2.4683633,-2.297603,-2.029078,-4.1887603,2.0948834,-0.6785207,1.6085867,0.9450988,2.2210383
dw6oq,3.861447,-0.9856931,-2.7628727,-1.6568059,2.246168,-1.329846,2.160737,1.0168335,0.42349288,1.3840638,-1.2905947,0.40582404,-2.8255198,1.5016495,-0.8173302,-0.094330065,-0.48248047,0.14634064,0.08052607,0.4603824,-1.1485066,-0.8149213,-1.49933,0.52237594,-1.3296257,1.005581,-0.8435895,-1.3594694,0.6884416,-0.07960463,-0.532865,-0.28680912,-0.07787567,1.3213209,0.65942085,-1.3281798,0.77275324,-0.50288576,-1.3357439,0.2741706,-0.017480198,0.14147715,-1.2951266,0.45317614,-0.3527733,-0.35455203,-0.14307033,-1.0864644,-1.6663791,0.1389919
dy25d,-4.2076964,1.2942066,1.7406499,0.43488666,0.72642124,0.8846919,2.846316,-0.030942947,1.5809523,-1.3280171,-1.6094737,-0.6989523,1.2932643,-0.21216328,1.1294028,4.2323713,0.33856687,1.9833928,-0.25591698,-3.855242,0.55655855,1.9780641,1.6191467,2.8372111,-1.5742419,-0.0618568,-1.7161057,1.5675526,-0.29646954,2.7193375,0.48934487,0.28774923,2.0639436,-3.2806041,-0.66504586,0.31006104,-0.10926486,0.45860747,0.80968523,1.2995877,1.9393723,1.4612591,-0.48236972,0.4123343,2.009734,1.007269,1.0692898,0.9154331,0.9899498,-0.83467054
e8ihk,0.42208222,2.6532125,-7.0612283,-2.9937966,0.38756585,4.594583,3.129206,-5.83495,1.0349503,2.076917,-5.455735,-2.065507,-2.547896,1.625694,2.0561843,-0.8114706,1.6801202,-4.4140244,-0.7485307,0.6768956,3.2184982,-2.0269597,0.65139717,-0.8157751,-1.2972424,-1.4912529,-0.13535301,0.745635,0.042761233,-1.5694253,-1.2107676,-2.8919313,0.857747,0.73753333,-1.8374146,-0.09545539,-1.1701409,-0.3401702,1.080124,-1.9484922,-0.83887994,-2.1576197,-1.2071447,0.8743868,0.20881651,0.815927,-2.7624161,-0.21019655,0.11007055,0.6793159
eels5,3.8651042,-0.7263853,0.8258426,0.28204742,-5.624684,2.5233278,2.5651827,-4.544169,-4.106867,-2.8836055,1.5100914,-0.88983554,-1.5695223,5.214597,1.4267329,1.2487824,0.0958756,0.32703885,-4.4412117,-2.449236,0.90464365,0.8019869,0.19938226,2.8700633,0.48380902,1.849022,1.5648878,1.5495391,-2.0567741,-3.0200095,-1.6551634,1.8712319,-1.3791806,1.3544803,-1.6460509,0.12787835,0.6682433,-0.9754631,-0.60916424,3.3073394,-2.6374,1.1819808,-0.85900646,-0.27423277,-1.1302813,-0.842361,0.32587427,-1.6645188,0.98930585,1.8041159
egrrg,-16.863237,-1.54379,-2.7775166,6.8162017,-2.706135,1.4420507,-1.6972456,-2.843877,2.1555288,4.8498573,3.3371418,-1.163948,-0.038450662,-1.8009537,-5.2973285,-1.4886549,-1.8205904,-2.8243194,-2.5248997,-2.0925114,2.0229812,2.6817644,1.4024295,1.5596662,0.8288263,-4.6591363,-2.1327136,-4.0644126,-3.875909,0.25385693,1.2337949,-0.34690034,-1.0890957,2.0917585,2.0682688,-0.70417273,1.0757036,-2.135498,-3.4605916,-1.0322045,-0.5603527,0.5875001,-0.87989825,-0.5272488,1.066963,-0.29629716,2.1826434,3.6244826,-1.0478393,0.32232133
ek9iq,-1.6273031,0.87414813,-3.3907423,-1.7437522,0.5557375,-0.0028121572,0.078763366,-4.5795183,0.9841072,2.391238,-1.483207,2.0470572,0.6129099,1.2255975,2.7907875,1.2057168,1.5117477,1.2714567,0.5505092,-0.8814682,3.1408398,0.6217248,3.250466,-0.56338966,-0.1725131,1.6053146,-0.46040916,2.161264,0.3793195,0.31611198,-1.5272666,-1.039016,-0.71916133,0.7524018,0.5522545,1.8603029,-0.1265522,0.11659418,-0.4793806,0.5403831,0.3112307,1.1948786,1.3770691,1.9832284,-0.5421836,-0.040691566,-0.2402817,-2.0114655,-1.9562926,1.8362265
evqeq,2.077308,-1.9753876,-5.1027236,0.20781168,-0.73342574,-1.7682865,-2.5238674,2.1338308,1.4213979,1.600606,-3.470962,0.20747107,0.43875307,1.8954949,0.29973307,0.07032689,0.42407876,-1.136923,0.3477732,0.2586209,0.0587803,-1.893335,1.0517294,0.7397249,0.38835755,0.66714627,2.8245275,0.6168937,0.4203798,-0.72915244,0.8312587,0.19263516,0.4717463,1.5084078,-0.059431408,-0.2608291,-0.29735625,-1.622537,1.2663748,-0.058820073,1.3536392,-1.8782685,-0.0959671,1.5372473,-0.6912603,-1.3595439,-0.09503978,0.32027602,1.2679652,-1.1554701
ez9fl,-1.3090882,2.5401502,-4.128908,1.9110667,-0.43064556,-3.1647024,2.729632,-0.86617154,-5.938161,0.26426277,-1.1852534,7.0724096,0.025385747,2.5528975,-0.27494663,-2.3937232,-1.5974398,-2.2449348,-7.3863993,-0.72225344,-2.7566686,0.23655911,-0.5325245,1.1368588,-1.018009,0.6101194,1.3968828,1.386781,-3.3700447,2.4755511,-0.0155331865,3.0865657,1.1351595,-1.8313156,-2.3825948,0.65563196,1.5810646,-0.9509139,-0.15632299,-0.9606796,2.3486817,1.0035673,-0.21157259,-2.3915498,1.0547812,0.26388,1.3699546,-3.2246852,-0.6877565,1.1888596
f5cp3,6.386865,0.82543576,-5.027017,2.3650606,-0.5436722,-1.8625623,-1.0886326,0.2622674,2.805432,1.9981923,-0.8289633,-2.0264778,-3.1262534,1.1239443,0.7859243,0.25541678,0.3507829,-1.3338139,-0.35356396,-0.98834854,2.693428,-1.0123793,-0.9588947,0.032238856,-0.10479699,2.3823526,4.8498845,-2.3892393,0.6848685,-1.352412,0.10820034,-1.5395406,-1.1766622,-2.3574946,0.9967234,3.0202177,0.27667868,1.2404901,-0.86810607,1.1730675,1.854598,1.95156,0.8301888,-1.0054847,0.4167883,1.5772097,-1.002005,-0.8567088,-1.0083482,0.22103
f60ro,4.0332556,10.627041,6.2652264,5.365751,1.1763477,3.4674122,-2.4453974,2.7388916,0.7602823,3.8668373,0.6156366,3.4136367,-0.13540079,-2.755378,0.73358226,-1.2840915,1.3915175,1.6713455,-2.0090764,-0.73342735,-0.24192497,-1.0295581,1.0638325,-1.0699145,-0.10372488,0.969561,1.3561076,0.22690055,1.316592,1.264298,0.36520955,1.2996528,1.1620646,3.1809964,-2.9446871,0.012481459,1.9088141,0.8098551,0.18352455,-0.90820956,0.008067861,-2.4869466,-0.022343077,-1.2463399,0.7488054,-0.03389916,-0.7243655,2.810302,-2.3743992,0.979034
f76v0,-5.1949773,-6.1519933,2.310118,3.9820356,-4.0070148,-2.3414247,-3.4588728,-1.0851687,2.5357559,2.8431387,0.6954106,3.5481243,0.8976363,-1.2861987,-5.2223444,2.5619917,0.8180876,1.2000209,-0.20520988,-0.5211222,1.3999233,2.0791185,-0.7287922,-1.2070053,1.905501,0.28452593,-0.6883108,2.1062994,-0.82610875,0.65908283,0.5524319,0.7382233,0.7039256,-0.47695675,-0.7115452,1.4273078,-0.41044322,1.3426358,0.472261,-1.3959055,-0.49245292,0.33287194,-0.30364394,-0.98232263,-0.21398993,1.5173091,-0.45585543,-0.17594852,0.1920331,2.2557364
fz8wa,-2.7843812,4.0626316,-5.346149,-5.6564927,1.2357907,-5.916025,1.115716,-0.049485635,2.7624044,1.1196634,-0.12793498,-4.2393785,-4.496758,-3.5248427,0.7115417,3.8889568,1.6061745,0.6414783,-1.9819709,1.4594995,2.0875888,0.26457837,3.7673745,0.6331674,1.9938793,0.43585557,-0.91539156,1.0830992,-2.1342776,0.5328602,-1.90212,0.22966303,0.35426304,0.95492697,3.4540768,1.8533058,0.31867796,-0.7333743,-0.86267406,-2.1520262,-0.87966746,-2.5516436,0.78422403,-3.282638,0.08705944,-1.8373791,0.82651174,-0.07351529,1.6722517,0.025861142
g00ic,1.349446,3.8547215,-0.69544977,-0.557519,-2.591293,3.1207097,3.01327,-1.4750482,2.5287437,-1.2320474,0.1710952,0.5713835,3.0505457,-1.7445087,3.9054902,-0.8435792,-3.5003822,1.5826662,3.228762,1.8092129,-1.1362365,2.4825838,1.1055386,2.2250528,-0.33906573,0.2364895,-0.112760656,1.0261703,-0.07849538,0.117400475,-0.9768806,2.276723,-0.983444,-0.25055397,1.4293201,2.2128172,0.5854875,-3.1355104,-0.3047273,1.5138987,2.8308027,1.1151533,-1.7055185,2.6128197,0.27732477,-0.6068373,-1.7572793,-0.72247136,-0.22300656,-0.434232
g0rj9,-2.952477,4.9059505,3.4971032,2.192385,0.81782603,-2.3963761,4.023578,-0.53382117,-0.5221954,-5.45538,-2.9692037,2.2890565,-3.7499986,0.06840967,-0.1851842,2.616796,2.5547085,1.5936418,1.387457,2.061609,-1.6060908,-1.4155998,0.7456263,-0.20627615,1.5018597,-1.0119826,0.30166364,-0.32905495,-0.100941986,-0.105194665,0.19942422,-1.0899708,0.95224905,-0.058393523,-0.575597,0.31477755,0.23437901,-0.96029013,-1.3695519,-0.42297834,1.0026128,1.6550944,-0.71862733,0.15496764,0.41615742,0.43826133,-1.4989492,0.4210217,-0.29827517,-2.92155
g24p8,-0.89043003,-5.859549,8.34552,-2.7754376,1.7714398,-2.3498898,-0.45742908,0.97295314,0.42060345,-3.0731857,0.18980777,0.47536704,-0.7900738,-3.1588387,-2.4975252,-1.4162027,1.0931565,-0.0048856456,-1.7497045,1.8659347,-0.5125347,2.5720325,-0.5597617,1.1877414,0.44254863,0.8640314,1.243946,0.1675885,-1.3288475,-1.5322658,0.11525228,-1.5329058,-1.0666271,-0.04294297,-0.11876321,-0.30694798,1.8083992,-0.69118124,0.7184783,-0.36980435,-0.5905497,-0.7052067,-0.17553245,2.5151305,0.21401632,-0.76867706,0.49196878,-1.3523809,0.27459216,0.6105104
g89mx,-8.309623,-1.7086877,-3.1187787,7.7460093,-1.5418179,-3.0187485,1.8386145,2.108611,1.0224273,1.1228489,2.0164974,2.9610827,-0.22252066,-0.7686511,1.9672956,-0.08232524,-1.1777868,0.12389035,-0.08070006,-1.724532,0.41847035,1.4973838,0.78578067,0.39351,-0.15202735,0.16464171,-0.8747733,0.88077223,1.5476123,-0.9738816,-1.0047913,-1.8802568,-0.76972336,0.08080346,-1.4389578,2.2122824,-0.19418195,-0.19013758,1.3104807,1.2137995,-1.0102553,1.203124,0.4296402,-0.26403865,0.3838665,-0.91168016,-1.2305275,-0.2972417,-1.1819319,0.1269336
gozwq,-2.6443448,4.777828,3.8222828,-1.6845256,-2.3595734,-3.651429,-5.1897326,-2.0443163,-3.7627232,-0.88380885,4.7671595,0.14631371,-3.8678796,-0.5324996,3.7617025,-0.11402963,3.4363189,-2.0596468,3.6044352,-4.8906593,0.91915107,-0.46285433,0.86388576,0.26264673,0.57362,-0.2424738,3.130984,-5.219728,1.4500359,1.1628985,0.42863512,2.1811883,3.1470711,-0.2435614,0.65928006,0.77117366,2.834841,-1.6766957,0.8054001,1.6257702,3.4795702,1.9184281,3.809239,-2.1229444,-0.46860495,-2.5719666,-0.19120236,0.06927476,1.5293363,0.66004604
ha6bv,4.0362,-2.9204307,-4.5140214,4.0886316,-2.648823,1.6992656,2.1698604,0.5991624,0.9230025,1.4370029,-1.9968691,-1.9563462,-0.68467087,-0.18350855,2.1294749,-0.32824585,-0.3114836,0.2534016,2.394307,-2.246657,-0.95155793,0.19975798,-1.5574161,-1.1598792,1.5480494,-0.9747614,-0.85478634,0.6253659,-1.6859664,0.15175478,0.059212375,1.223907,-0.1557535,0.47021788,-1.9035603,-1.1885114,-2.2932777,-0.45845842,0.19148281,0.8223918,1.9261235,-1.9005796,2.0003788,-0.15315475,-0.9404437,0.22849074,-1.4730028,-0.038102258,-0.028034631,1.1615695
hetd5,6.715339,-7.440363,-6.2605376,1.8754048,-2.9108047,1.4189769,-1.2754807,4.5501432,0.08089167,-3.1360514,1.2145978,-1.3294169,-1.2428389,1.247596,-1.6695893,4.0146213,-5.243271,-1.2191846,1.3817126,1.495385,1.8405707,-1.2087333,-0.9174399,1.2692984,2.6194482,-0.49671558,1.5269988,1.4102266,0.76417035,-0.49816933,0.11092511,-0.9561111,-1.4264243,0.1768732,-2.279701,0.34879106,0.20841846,-0.41290617,-1.2479317,-1.6361624,2.0979204,0.10497576,-0.40797916,1.0624528,1.0966272,-1.8002043,0.12979496,-1.2634072,-1.4824724,0.0065715066
hfvpz,4.6569743,-3.8575757,4.9762707,-3.7874165,-3.0027802,-2.3933074,1.3248976,2.2559824,-6.473096,-3.1340797,-1.4564714,-1.5504718,-2.2891188,-2.2193036,-0.01046681,0.22438784,-0.6634314,-0.18729809,0.8640417,1.61469,2.216038,1.2592484,2.9210465,-0.6333248,2.7857966,0.6410152,-0.980513,0.5214468,2.0511744,2.173985,-0.6760847,-1.0289419,-0.020016585,0.2703599,1.787895,-0.22688124,1.3116714,2.4658487,1.7108101,0.76807564,-1.112903,-0.2002155,0.36811158,-1.8735328,1.1384022,2.392439,0.5542201,-0.45794034,1.221113,-1.0252218
hpbis,-0.8582092,-4.076186,5.844895,-4.4781775,2.537977,-0.79864484,1.3647188,3.1910493,4.116629,1.628799,-3.136088,0.9720084,-1.3496246,2.7277431,-1.241011,-0.9297497,2.3100824,-0.21761586,0.10675076,-1.3735471,-2.7668092,1.1144305,3.5523274,0.0028731776,0.49785322,-2.1901715,1.0027978,1.593933,1.3869278,-1.7785528,-0.7098033,0.7242147,0.9786277,-1.4369717,-0.7024105,-0.65407205,2.0800376,1.1136569,-1.1041728,0.5331356,-0.53001463,0.87261045,-0.5218049,1.2206072,0.813171,-0.4416301,-0.39701807,-0.8759696,-0.26417062,-2.4728096
hwot5,-12.348221,2.2497659,3.0154943,-1.1839366,-1.4292626,-1.3872232,1.6023346,-1.4661549,-0.41692412,2.04892,0.85454816,-2.0807693,0.9570636,-1.0572295,1.5134368,-1.1117592,-5.968517,2.6247435,0.7363319,2.9620953,2.2554681,-1.0225549,-0.42101806,2.9578815,1.3994462,-1.7407361,0.8872666,-1.6149914,2.501698,-0.3420745,0.63955283,-2.7091217,0.12648739,0.63190633,-2.3891077,-0.41631195,-2.5553792,-1.1980147,-1.9422319,0.22882989,1.7595241,0.51035017,1.6411717,-0.54390156,-1.6765679,2.1036966,2.2919993,-3.4709785,0.71044624,-0.8976498
i2m95,-6.4087663,10.312086,-5.174695,-5.9293966,-7.240586,-0.01174886,-7.33578,3.4193747,-5.101926,1.1503112,-0.4043497,3.0454383,-2.408968,-3.3798373,-3.2246068,0.118009254,0.6752396,4.7467513,-0.17205784,1.3090192,0.81393737,3.7815511,0.5783789,1.1967745,-0.17633003,-1.4453987,4.110095,-3.1810963,3.6015637,-2.7926006,1.720921,-0.721022,-2.7898204,-0.9214679,-0.11933599,-0.77339625,0.4066076,2.3087473,2.3228662,1.6319889,-0.4559607,1.3405274,-0.8079754,0.15842983,-1.4398669,-0.54551107,-2.332725,-0.46361202,1.7395114,1.8194782
i89x5,-7.9837184,-1.8487955,3.3519058,-1.0956736,2.8348787,-0.5096853,-5.3848934,1.4951642,-0.6274723,-3.2347436,3.074058,-3.578971,1.7722905,0.61623687,5.816159,0.4765534,-2.1545205,2.5213199,-2.082365,0.45018154,3.137333,-1.8660322,0.78588855,-0.86750877,2.4674625,-0.7752704,2.8794072,4.3289165,-0.81972265,2.0231233,3.0246682,1.250678,-2.5463283,-3.8070338,0.6999244,-1.2617095,1.7087768,-2.9316974,-0.7805633,-0.9962135,-5.442013,-3.7970107,3.8646169,-0.83477193,2.3254857,-2.9751937,-0.8279613,1.5504142,-0.997395,-1.483077
ibsjm,4.03339,-2.8618503,1.7485695,-0.5562414,3.1978657,1.2711575,-1.1606395,-1.1276276,2.1762524,1.0084243,-1.8216102,-0.4226413,1.8012494,-0.15504648,-1.6462415,0.579678,0.057200614,1.3991364,-0.9711243,1.3149123,-0.16809306,1.0566331,0.21230485,-0.40463796,-1.9874076,-1.5073795,1.8419794,-0.8260063,-1.4504787,-1.974591,1.3438584,-0.058661196,-0.37280974,-0.6858249,-0.6388238,0.073472545,0.4313867,-0.7592054,-0.9030064,-0.44062245,0.18474062,0.65143764,0.16848832,-1.6500636,0.91048557,0.4071531,-1.647768,-0.2626503,-1.0115519,-0.6228852
ighhg,-13.155822,-0.20838964,-4.7394543,-6.436391,1.7673104,-1.6845489,3.2693355,-3.0216439,-3.9435792,2.9896555,-3.2294436,-4.996674,0.7810148,-1.6632509,1.9860325,-1.203598,5.882153,1.1654476,-1.4317018,-0.34508547,-0.772936,-0.7638079,1.0265758,-2.6216826,2.1362197,-0.48495057,-2.3476202,-0.5357054,-0.17179468,-1.1694349,-2.237687,3.1242492,-0.39085868,-1.3377684,0.379596,2.142182,1.4249692,2.901427,0.86980814,-1.0392318,-0.09784994,-1.6245401,-1.1046877,0.59287715,0.37100402,0.73817956,-1.3177,1.1114751,1.7819759,2.2187166
ilhrp,-6.786862,-1.6825668,-0.8353858,3.8007174,1.3375403,1.9505913,1.4551051,-0.22860485,1.6426368,-2.6959913,-3.7142234,1.1838856,-0.89432937,0.6251217,0.28683633,-1.0239493,-1.0070271,0.7899147,-2.309088,-2.3690925,0.7574133,1.4253966,-1.792791,1.0496517,-1.8673724,-3.7367234,1.086464,-0.68742853,1.2626354,0.30552906,1.9638212,-2.0890467,-2.7743149,1.168398,1.4506577,0.39354897,1.2850204,-1.6827167,3.10536,0.80484056,-1.3630564,-1.7813474,1.3940768,0.027160548,-0.51262546,-1.1888012,-0.6457978,-1.4245926,-1.2174115,1.4465078
ir48j,2.8281035,-3.952231,1.44982,3.4512897,5.039971,-2.1575363,-6.309858,-0.4257528,2.6424472,1.0701295,3.1362596,-2.2237947,-3.2573645,-1.1018745,-0.43723366,0.3948322,-0.40028307,1.0197982,1.2319589,-0.2670727,1.1590047,2.6531403,-0.4543754,1.1726127,-0.023905003,1.2518551,0.72064674,0.7224522,-1.2246021,1.2208136,-2.3861694,1.7743489,0.021176688,3.1983786,-1.0416782,-1.6208069,-0.44970703,0.8455765,1.2448037,0.03549747,0.1011324,-1.285957,-0.34202394,-0.78813195,-1.7318075,-0.0103477435,0.7304559,-0.23231858,-0.21270506,-0.10049758
iueq4,4.8938932,0.86757827,1.5482271,2.8656478,-2.1037908,1.4540403,0.35585475,-0.02560075,-0.10137304,3.2809622,0.37251472,-2.280728,0.7716019,-0.4811441,1.7684103,-0.90947896,1.3814374,0.68021095,1.6867917,-2.4847562,2.964806,2.3187366,1.1770992,1.7605852,-0.48110244,-1.1941863,0.3532894,-1.1282971,-1.3914114,3.5111506,3.471854,0.6158788,1.6482414,-0.06948555,-0.23808019,-0.19232567,1.7763509,-0.0004767533,-2.3227723,-3.5298007,1.2231214,0.5283531,2.4010375,3.914348,-0.77259636,-0.7761436,-3.5427907,-1.4315743,-2.3106844,-0.015781244
iyz57,0.32314685,-3.0762525,11.699763,-5.4922066,-2.380007,-4.1663313,0.10740085,2.0051851,-1.247317,-1.0117903,0.13741809,-0.43701646,-2.5820203,-0.93927604,-1.2773137,0.5981479,-0.99794316,1.3215477,-1.1542434,1.770178,-0.06215796,-1.6052444,-4.0119247,-0.57475996,-1.1153393,-0.960189,-1.3297529,0.31482157,2.4508116,0.47316492,0.40127832,-0.1297719,0.88811016,2.0929909,-1.030846,1.8960508,1.0907129,-0.4721051,-0.7978419,-1.3714253,1.032858,-0.3597143,-0.5617129,1.5995264,2.6662557,3.3582778,-2.748225,-1.0880483,-0.061711527,1.5703098
j0fnu,4.4323187,-2.1270485,1.0124937,2.2645044,0.48392197,-1.5716566,1.0728756,4.2354817,2.8370523,0.5676071,-1.0732596,-3.1392949,0.65839773,-0.48672685,-0.7189046,-1.6997554,2.5219505,-0.07686613,-0.13322158,-1.769415,-0.68255347,1.5194656,0.22000638,-0.12842312,-0.027425688,-2.6017783,1.3868902,1.4306862,-1.3577387,-0.37827083,-0.5456887,-2.4037004,0.7232949,-0.6993033,0.7254609,0.25941095,-0.14186853,0.45901328,0.2070911,-0.2011736,-0.7530713,0.3338503,-0.30887815,1.0239986,-0.7665732,-1.0665343,-0.57849365,-1.2200814,0.14499052,0.45764473
j8yub,-2.031903,-5.5251713,8.187633,2.071448,1.2781684,1.551966,2.1880589,-2.3146398,-0.6891138,1.2364256,2.919826,5.9711165,2.3273017,-4.9704347,-2.2362435,0.40156925,2.3030388,-3.7040794,-2.0365906,0.03389313,2.388825,-1.6270995,1.0947843,0.3679129,2.3697624,-0.44671023,-1.5615783,2.847388,1.2075365,0.12034721,-2.0475743,0.85011446,1.3658584,0.9520634,1.3364568,-2.9385731,-1.8299786,-1.4730865,-1.4477607,-0.30665365,-1.3674806,1.1343333,1.5765661,-1.3336811,2.7406473,1.2558799,-1.6936319,-0.5003371,-0.034351956,-1.1218668
j9t67,-2.4574325,2.6421192,-0.9391968,1.7115589,-1.5377748,-1.4222982,-1.1834131,-4.1802564,2.4153087,-4.442559,-1.9972153,1.000262,-2.7232466,-3.3697333,-0.39028642,-2.2335436,1.1596822,0.44470093,-3.2045023,-1.4506593,-0.25113773,-1.9425987,-1.0607307,-2.0224307,1.6716429,-3.5081313,1.0130739,0.89986026,-1.21569,0.97257507,2.0700474,0.50875306,0.843603,-0.90312654,-0.4057624,1.111147,-2.9699256,0.9859587,-1.4941111,-1.2503965,-2.034032,-0.25079283,0.14128946,0.2315664,-3.853591,-2.1720881,0.7133449,-2.4530504,-1.0884433,0.6329764
j9v1n,-5.108347,3.2336266,-3.3766255,-5.4712925,-1.3629338,2.029318,-0.21371804,-2.5148604,1.3110694,-0.37496638,-1.5826873,0.6329263,2.1492872,0.7390033,-1.0259075,2.5994227,-1.1538637,-3.434368,2.2512612,-0.4341156,0.70554334,-0.83689433,-1.0606527,2.2818856,0.6278939,-0.21199334,-0.37161267,2.1828823,1.4717176,0.17108151,-2.1372797,0.68937695,-1.5187471,-1.5760549,2.4996674,-0.92241275,0.34861287,4.3500857,-0.42154405,1.3338908,-0.67964077,-0.47590145,-0.11717402,-0.7058604,-1.3448008,-0.2730084,0.4574704,-1.5838248,-2.6437194,-1.4786274
jex85,-6.3708625,2.124514,-1.8370601,0.65917367,-3.4500656,3.4064426,-5.255423,-0.14532445,1.6090184,1.5845997,-0.7721724,1.2644256,-1.7787656,-1.5575365,-1.9781955,1.5370594,1.0523491,1.9748998,-1.7080752,-1.0242026,-3.6710382,-1.0062361,0.7811985,0.1603042,0.30722794,-0.6836929,-0.6938897,0.71421325,-1.5737207,-1.2111712,-1.3942797,-1.0399785,0.5631206,0.72247773,1.1445513,-1.542873,1.7901758,0.41059968,-0.21929353,-1.4383438,2.3064697,-0.61915165,0.98883975,-1.2656263,-0.7880132,4.258446,-2.9673867,-1.6822821,0.69028944,-0.8327375
jqodr,1.4169759,-3.9037402,0.7754416,0.1621452,2.7591133,-0.93836075,-2.9690936,1.2975334,-0.17599118,-2.9636428,2.0374897,0.59966093,-3.2044456,-1.9773293,-1.3394861,-0.92361116,2.9660137,1.9600573,-0.20384051,-1.1298048,-0.87658966,-0.73171806,1.4659879,1.1187701,-1.8298937,0.12968072,-1.9445016,-1.8891534,-0.6364822,-0.9878763,-0.55605674,0.67052096,1.8592055,-1.116656,-0.02077475,-0.4870679,0.055843577,0.41365647,-1.561404,0.91793823,1.0136472,-0.04508525,-0.94942594,-1.919665,-0.03825061,-0.3672549,-1.1325623,-0.8038887,-1.2777048,-1.0876192
k7iif,-3.790519,0.95513266,3.7484503,-4.083957,0.64940524,0.8806469,1.5863825,-0.32897657,0.5176203,-4.306748,-2.8105714,3.20749,2.0211837,-2.3417625,2.7089684,2.3485813,1.6528981,-0.6109109,-1.9045317,0.57170403,0.9668231,-0.54304266,0.20077164,2.074068,1.7245997,-0.07653843,-2.88199,-0.69295204,-3.1769466,-0.36265478,0.39133945,1.1680098,-2.890754,-2.2847917,-0.12901902,1.2645979,-1.1480823,-1.5580896,-0.80601776,0.43663427,0.104855284,0.36655438,1.0348785,-0.16686979,-1.0058104,1.137501,-0.68624526,-0.7041158,0.7893,2.8383482
k8gd7,-8.429088,-2.4840312,-2.5876787,4.9615254,-9.085345,-1.4423773,-1.1235318,4.3171825,0.56364757,3.3915596,-7.7095456,5.340407,-4.48093,4.9724474,2.0289989,-3.8160858,-3.572984,2.5643623,0.8893335,1.506475,2.9500153,-0.12587085,-1.270481,2.2326143,-1.4928038,1.209039,-4.679092,0.46005824,-2.3586497,3.283981,-2.930723,-0.16959098,-0.24279256,-2.1815856,-0.7144264,1.7658432,-0.47722873,1.5503973,-0.7549444,-0.8700071,0.35751516,0.07280357,0.007292936,-0.37494686,0.7561736,-1.9070251,1.1183728,-0.583285,1.6126087,-1.6163647
kficb,4.04614,5.5872607,4.6224833,8.123446,-6.4128227,3.5544217,-0.5326255,4.661664,1.4359719,-0.8950633,-3.1968844,-3.9771526,0.6315925,-3.9811044,1.7121625,0.0256999,1.4294876,1.5168345,-1.993004,0.21561068,-3.7418838,0.70273215,5.98656,2.2370067,-0.013862601,0.028047493,1.8773334,-0.8245274,-1.5381536,3.124043,-1.8196516,0.62903416,0.42792413,-0.0138444835,3.8294752,-2.2531,-0.7325249,1.7682118,-1.41034,1.0268205,3.8395903,-0.963076,-2.4123561,0.8269895,1.9727076,-0.014394711,-1.0694304,-0.27715662,-1.944499,0.09156526
kms82,-4.5927453,5.9915586,-5.946453,-5.0004992,-1.6595379,0.75033015,5.423477,0.7609493,0.5350935,-2.1228337,-0.4035663,3.8284972,2.8314788,2.5931602,2.2239215,-1.0937744,1.5922436,-1.4406551,2.5670106,0.34257928,-0.05571289,0.29663354,1.0216413,1.0812211,-0.5144529,-1.451261,-0.85503656,0.09795177,0.768367,1.1766375,1.8466557,1.9287856,1.1678301,-0.6924447,1.1169264,-3.9895155,-0.30454224,0.32771203,1.034805,0.6869391,1.3447056,-0.6817047,0.14959832,-1.4661639,-0.11686006,-0.27870548,-0.71347517,0.92211694,-0.37207544,0.15316431
kvy1a,-1.5903957,5.7675085,-3.473439,0.22092205,-0.45415884,0.42910284,1.3367703,-2.1025076,-1.2073727,-1.8238338,-1.1646717,-1.5207059,0.82401496,1.4609059,-3.0600593,0.70816857,-0.20256457,-1.6074387,-1.1731195,-1.9137197,2.5618374,1.262074,-2.2554643,0.2543616,-2.015149,-2.8827348,-1.3020719,1.3225753,1.5015224,-1.3406112,-0.30506766,-2.5149243,0.49473363,1.3893597,0.587121,-0.4306023,-0.564525,-0.7986466,-1.8541825,1.3349825,1.4019728,-0.5916732,-0.6722207,-1.6446635,2.1186562,0.013823151,1.0814586,-0.27783322,-0.9874872,-0.082198374
kww3y,-7.260304,4.34746,0.5849804,1.6379815,3.9592357,-3.9666026,4.425729,0.40524286,-3.293645,0.85979134,-3.8166223,-4.085318,1.4670622,1.1811509,1.6527904,-2.4677327,2.9687538,0.47935775,-0.9778863,0.43875545,-2.4862058,1.9489014,-0.7857054,-0.40970385,-0.48647183,2.630331,1.5710806,-0.59586096,-1.9022158,1.1219718,2.3657532,0.8346535,-0.009409073,2.2794127,1.7245675,0.9226268,-4.786967,2.4995468,-1.1669225,0.83533853,-1.1688927,1.0976727,-0.06827197,0.5191526,2.0791416,0.20651424,1.212796,-0.48468345,2.1764235,-2.38753
kzigb,-0.31336376,0.15237631,-0.37055004,-1.6964486,0.80792034,1.2109296,0.40540594,-0.13932592,0.2825961,-1.2347192,-1.5023158,1.1538234,-4.190181,-0.24241102,-0.37660602,-0.091750786,-0.95150125,-0.45821026,-0.7455188,0.3225637,1.9838036,-2.0067334,0.42913517,1.0593868,0.5276855,-0.9186079,3.338035,0.6367709,0.094955586,-1.646374,0.9918158,-0.5225676,2.6410499,0.00088119204,1.5131586,-1.5616657,-0.74149823,-0.97366035,2.4637582,0.6439027,0.3419505,-2.4461286,-0.5326156,1.0030047,-0.25954875,0.81125635,2.6977575,3.1726785,0.70607126,1.663581
l3bok,-1.5679135,-7.313787,4.322792,1.568285,-4.4082065,-1.1064214,0.4107762,1.3441292,5.227681,4.107172,-2.3453207,0.5585239,0.37849832,0.10091672,-0.6412288,-3.2353835,0.73925054,0.04718249,2.2753997,0.7392131,-0.03488005,-0.9827674,-0.9251815,-0.7579294,3.0119078,3.2274184,-1.1729273,0.7993429,-0.059206545,-3.6353636,-2.4479644,0.8904658,-0.37953398,-2.8830109,2.8401613,-1.6132251,-1.5277467,-1.5311005,-0.37466457,-2.0980165,-1.1740756,-1.023638,-0.48622704,-0.5059465,0.50713676,-1.4786433,-0.17669651,-2.0704424,1.7065836,1.1477978
l7xza,0.2944156,-1.3926378,6.549372,2.3216105,9.232834,1.2714686,-2.6100736,-0.22825968,-2.6571498,-2.821029,-2.2040162,-2.4656549,2.3858316,1.2796022,-2.8965845,-3.0426543,0.1997874,0.8831376,-1.268446,-1.1097529,1.4978055,2.3913279,3.8462372,1.1176027,1.9855477,-2.3168628,0.8325872,2.2855616,0.06702253,-1.7755167,1.2422298,-1.3407681,-0.9336994,-1.3583676,-1.2606983,1.2431457,-2.2539792,-0.4964358,0.3590959,-3.1868677,0.7598661,1.232122,1.5518236,-1.42999,0.8986051,-1.2228167,-0.021353483,0.7996931,0.7352152,0.27408454
l8eqt,11.961496,-0.55136675,-3.000345,1.5438613,-2.1710718,-0.63488096,0.7821549,1.393093,3.2126875,-3.159658,-1.5870252,1.7575557,-1.7029418,-1.027775,0.48101357,-0.7882137,0.37742084,2.0475323,-0.98351,1.1079528,1.5750366,-1.7149717,-1.476393,-1.2108107,0.93177366,-1.0576289,-1.2553569,-0.17321856,-0.50958574,0.7775413,0.44582438,0.30985418,-0.1231803,-0.19596708,-1.2228141,0.99979734,-0.7734909,-0.21019116,-1.176514,-1.0477875,0.53726923,-0.23527005,0.7232593,-1.316172,-0.91545594,-1.7545756,-0.6290656,0.12130513,-1.3320328,0.102735996
lclop,5.7032495,1.4096894,2.4894998,-4.1655073,2.206393,-1.7936091,-1.116334,-1.7104559,-1.7323495,-0.51881576,0.3587559,0.0597693,-0.18395989,1.1461502,1.6804086,1.1544845,1.2207446,-0.5776172,-1.8650228,0.9665234,0.91756636,-0.86630166,0.684023,-0.19391654,1.2669475,0.8546147,-2.25797,1.8157178,1.0227002,1.0434862,1.141206,0.051665008,-0.89324725,1.3668767,-0.8195092,2.613285,0.4836186,-0.2327646,-0.8784847,0.2014419,1.7688785,1.1017456,-0.19406545,0.8056014,1.212599,0.014799086,0.8868235,1.1803694,0.36099386,1.0348767
lfhm6,6.397889,3.069677,2.2624424,-3.1086624,-2.1878269,1.413806,-4.28265,0.96328175,-1.0611342,4.0718923,1.6621679,-0.59165156,0.3829027,-2.136186,-1.5373467,-3.179632,0.012575928,-0.056352027,0.51342493,-2.4825726,0.47381604,0.665443,2.8242676,-1.6598588,0.7975174,0.0764877,0.8831058,1.854977,-2.2776902,-0.52195096,-0.4772583,0.8461192,0.994469,-1.4540515,-2.0396695,0.74812716,-0.12142864,1.6715585,-1.1668015,1.2548778,-1.2728848,-1.2567123,-1.491115,0.62044406,0.18643738,0.7060677,-1.9546641,-0.35072744,-0.86875826,-0.54861677
ln91z,5.362747,-1.6678039,-4.8645244,-2.8881228,3.0620759,-2.9848676,-1.0165513,1.759254,-0.8970832,1.9716518,-1.7245642,0.9300176,3.2328928,3.6839223,0.034952436,1.1874754,-1.3835597,-1.8793958,-2.3792117,0.75840473,0.4202318,-0.65071255,1.9174837,1.1049919,-0.64345133,0.66664976,1.1950073,0.1898169,0.68213534,2.200667,-0.27528903,-1.6765385,0.33733833,0.29241922,1.9738826,-3.6913366,-0.7539571,-0.820711,-2.2727044,-0.34563076,1.0690271,0.4893725,1.0833224,0.46106708,0.7324052,-0.7496975,-0.15639958,-0.47429925,-0.07416154,0.17072493
lspv3,3.3157794,4.9311233,4.2188,-0.6227319,0.27732253,0.16008577,1.5852388,0.8791484,0.6236874,-1.0338669,0.4827875,1.6563164,-1.929416,-2.157368,-2.1538363,0.58287454,-1.8180336,-1.8676919,-1.3842546,-2.3678758,-1.7075185,0.6495729,-0.9229425,2.835677,2.8842318,2.3572628,0.32168052,0.47645912,1.2641119,-0.45791417,1.8572184,3.27429,-1.0202256,-1.4016794,2.6344147,-0.6618843,-0.40049404,-0.8614772,-0.66723824,0.529599,-0.8091002,0.39092672,0.23799156,1.6251032,-1.280639,2.276495,-0.45350075,-2.8961139,-0.0377255,-0.12684208
ltop8,-0.43862963,5.3337026,0.8195134,-1.7298094,0.60285133,4.5097065,-5.79083,0.44548336,-0.12507646,3.5124762,-0.06573066,3.1797662,2.0267873,1.0345453,-1.633425,3.1327975,0.38621864,3.1459491,1.7251546,-2.2833288,-0.6308384,-2.297618,-2.3801205,-0.49329072,1.2111846,-0.8316529,0.87087744,-1.6009917,-1.251547,0.89424527,1.776621,-0.32620797,-0.17773023,0.10722555,3.1334803,2.388773,-1.0458335,1.4905452,0.4338998,4.5443196,-3.2427678,-0.7933861,1.6381816,2.3115282,-0.6275439,0.82708097,0.7579399,-1.7936636,1.6711415,0.5245567
lwvjc,5.1346555,-0.94391197,4.7898307,-5.1020217,1.1074861,0.7251761,1.9653832,-0.35193145,-0.9863832,0.29160357,-0.34776688,3.9854033,-0.18571201,-0.42651883,2.217575,-1.259948,-1.637435,0.4096052,-0.3801003,-0.9301212,0.059007015,-1.0951134,-1.4247057,-2.2382104,-0.6296198,0.41251007,-0.9022325,-0.8994534,0.07397492,1.7462134,-0.482399,-2.7590754,1.0987134,-2.5323951,-0.9273774,0.5959399,-0.44712937,-1.0940567,1.3234049,0.7023087,0.7351907,-0.6624667,1.3832967,0.6341309,1.2930572,-2.0052865,-2.583927,0.72644156,1.8831923,-0.6014936
lx6ix,8.863286,-0.6278815,1.2625134,0.59967846,2.5369406,0.5421476,1.1346434,-1.7251416,-2.8606477,1.3363343,0.7740711,1.6860895,-1.846083,-0.97473943,-1.4182901,-2.0465813,1.0858151,-1.0349923,0.07050501,2.2418208,0.468548,1.0719564,-0.4210162,1.0398906,1.0013027,0.67069215,-1.2271868,0.012690258,0.51757026,1.0914909,-1.9629129,-2.5189457,-0.035880495,0.7803659,-0.5312115,1.5579225,2.4188256,-0.72109276,-0.38298678,0.3334583,0.92605007,-0.9569342,0.7404265,-0.86925864,0.69313747,-1.5577432,-0.39926273,0.4753001,1.5345482,1.0187715
meqhr,0.12251416,7.9182134,0.055023313,-1.9104269,-0.7324973,-3.5534198,-0.7715854,-0.23585673,-0.9423597,-2.2501957,-1.590884,-3.6973746,1.4111263,-0.62828714,2.3399043,0.08634103,-1.7612311,-1.3453842,-0.08427636,0.34268886,-2.3769188,-0.11581835,0.923374,-1.1072824,-0.94690603,0.77605635,-1.8405815,-0.23246807,1.0357114,0.9923469,-0.43407726,-0.74494684,2.1346297,0.70980406,-0.40602264,-2.8348694,0.90633166,-1.040064,-0.18716688,-0.013817367,-2.108228,1.0535228,2.2023652,-1.5700756,-0.59384644,-0.87380534,1.7174073,-0.01596296,0.7609376,0.5262968
mfgtj,7.281398,-1.7575461,-0.023131981,-2.3406022,0.12819986,0.20684096,-0.19022831,1.9445558,3.4227893,-1.3268579,-0.7142926,-0.16461946,0.5338333,-0.43701294,-0.98529226,2.190729,0.37802684,-1.0234457,-0.06639611,0.754864,0.76307756,-1.9405833,0.18684669,1.3156407,1.576709,0.16804302,1.4902341,-1.2086823,-0.8157039,2.6997054,1.6933725,0.6765367,-1.1623346,-2.2621043,1.2821504,0.6371156,0.04602968,1.1294907,-1.5234004,0.46291545,-0.45151252,-0.7773556,0.99761844,1.3423818,0.8069542,1.2913607,-0.07264139,2.5705588,0.2955444,0.7386817
mi5r8,0.34366643,-3.597922,-1.5420957,-1.5525893,-0.8450098,16.57765,-2.0128646,2.8652904,-4.5346494,1.7299294,6.4168615,-5.182941,-2.3603306,3.1070364,1.1067728,-2.2995672,0.23939662,2.9362051,-4.023921,1.381652,-0.80615056,-0.14257914,-2.629082,2.974496,2.1367486,1.3010502,1.8981985,1.3906946,2.5281324,0.62255746,-2.891875,2.9494796,-0.90142614,-0.19911356,0.7557833,-3.2041345,0.852999,2.7741203,-1.2953886,-2.6060708,0.6474757,3.019821,1.684159,0.84970945,0.44979572,-1.1453152,1.7360289,0.78817225,3.6288671,0.7279613
mtom9,-3.6497502,-2.762113,-5.660175,-0.50120574,2.0499268,-1.8097273,-3.3686676,-8.387894,-0.38524485,4.223776,-3.4165144,-1.4639686,-2.0702994,-3.3961003,-0.92589986,2.8483043,-2.7597618,-0.028115708,0.12500225,-1.8108504,0.96101564,-0.8963828,0.2639049,-0.49403962,-2.0151594,1.0077575,2.3048725,0.6907422,-0.29071826,-2.5390382,-0.5005345,-0.058451556,0.955632,0.08416783,-1.8558187,0.09794435,2.0240924,1.5216894,1.286723,-1.5641292,0.27309164,2.2531846,0.005614034,0.44712585,-0.44686496,-0.21846206,1.029107,-0.7180137,-1.0286056,-1.8928747
mxuqf,1.4959544,-2.072132,5.1098733,-4.205792,0.1982129,-0.5668962,-2.6344578,-0.1570757,2.6912029,-1.4015397,-3.1105423,-1.109395,-1.175331,0.2715013,0.9629789,-1.6047323,-1.5114399,-1.7178401,-0.31923684,-0.8450438,-0.9178619,-0.43749404,0.4640763,1.1646742,3.160595,1.8930525,-0.2617959,1.2535229,0.018071795,-0.0073653418,-1.4119356,1.2939278,-0.25318745,1.0237465,-2.6423209,1.5901868,-0.015934289,-0.31225926,-0.32180664,2.4232686,1.5135734,0.63609415,0.5742244,0.96006835,0.14413404,0.37664905,-0.19691624,1.5997711,0.43662223,-0.45282406
n0s0f,11.839783,2.8425817,3.130743,0.9632092,-1.8007739,-1.1694955,1.1231916,0.31672484,-4.056213,3.193771,-2.881532,1.9155928,3.0514596,0.14865075,2.4610267,-1.3298746,1.9292768,0.6790767,-1.5983294,-0.5464447,-0.009083087,0.30556443,-2.0323477,-2.5476549,1.3121029,2.3571353,1.4794099,-0.553204,1.8118255,2.9768662,-0.7737286,-1.7285428,-1.0969211,1.0811237,2.8943632,-0.8949156,1.460685,0.34078154,-1.4275048,-1.4927565,-1.0472691,-2.2912529,0.0014794035,-2.452786,1.487498,1.6510206,1.0760914,0.88482183,-0.19457069,-0.45607027
n2pn8,-7.606489,-3.6728096,-7.451629,-1.3665895,3.9186947,5.650564,-0.78619665,0.20316947,1.0014818,-0.04536189,1.7599624,0.20561458,2.2699196,1.6251825,0.24804784,1.1182855,-2.8486607,-1.5077294,1.560042,-2.0894823,-2.8077517,-1.4576446,0.08244616,1.6618161,-1.7820437,1.8839941,-0.82762706,0.35835037,0.090629674,2.0640235,0.8202444,-1.2593553,-1.9483016,-0.3017799,1.3087102,-0.3514621,1.2164607,0.7399864,-0.6025739,-0.16644204,0.17328826,0.18093632,-1.3147962,-0.9989553,0.72113764,0.7517841,0.059068233,-0.66801196,-0.38024315,0.71323556
n6xqr,-5.10636,1.908723,-1.6711861,-0.20906919,1.5969156,1.5276164,1.4907286,0.6364851,0.4143026,-0.41964474,0.30366522,0.48991254,0.91585076,-0.03435886,-0.13527642,0.6267792,-0.04657709,-0.22336009,2.2539392,-1.2207196,2.3794074,1.1813561,-0.5580096,3.3077588,-0.18145055,0.9094669,0.48036256,0.60294586,3.43531,-0.14118561,2.6767726,1.8774031,2.750866,-1.3156577,1.4796864,2.8655572,1.6074542,2.3964944,1.6224713,-0.016204702,-0.8414614,0.4780296,-1.2439299,-0.18878543,0.48861843,-0.8213167,-0.04092192,-0.5819636,-1.4755466,0.6270395
ncyc2,2.4607272,-0.27338853,2.624637,-0.105452806,-4.6319113,-2.604693,-0.3179769,-1.3509979,2.0392444,-2.7604902,-1.0713772,-0.76625276,0.4099524,-0.09884739,-3.1219797,-2.9003882,0.4589874,-1.5371697,-0.65641767,-0.91417134,0.89558756,-0.51715475,-1.3683386,-0.21518387,0.28025702,-2.8594923,0.5157658,0.06730112,1.0193428,1.72035,2.3078077,0.6830225,-0.14482185,0.3425511,-1.9446847,-1.2160509,0.5356832,1.5056344,-1.6426402,2.4355583,-0.15169531,-1.47055,-0.31153306,-0.85117614,0.038402412,1.0482192,0.24589415,1.6263328,0.19417657,-1.0575621
nhhpr,0.009594494,1.2542862,1.9721415,-5.5037985,7.2102313,-4.4665833,-1.131017,-3.729846,-0.5144724,5.379691,0.48336473,0.09516905,2.5087595,0.04564696,-0.47750244,0.026885593,-0.48428255,-1.5845944,-1.0506985,-3.2149436,-0.13524067,1.7846885,1.322392,-1.317383,-1.7877829,0.648156,4.113064,2.1905994,0.48395932,-0.5465088,-3.8149705,-0.029551331,-2.3974085,0.22791985,-0.48730674,-0.26080418,-0.96847236,-0.61119056,0.95903444,0.91944456,1.2468902,-0.03733071,0.45641443,-0.44130838,-1.3252251,-0.5832854,2.1317642,-2.27201,-0.42767087,0.33421668
njkpj,2.6874917,-9.299168,-4.252446,6.3954415,1.5894816,1.6229655,-6.5937343,-4.2533493,-0.0073471363,-1.735973,3.446382,0.12904517,1.4468781,-2.8360364,1.9847295,1.6397618,1.7361628,0.46036994,-0.67495376,-0.18372378,0.54065394,0.10352281,0.49414042,-2.4998722,-2.101761,0.28956804,-1.8459848,1.2554579,1.1724149,-0.21491091,1.3353344,-0.48249683,0.6144134,-1.4346306,0.09352679,-0.616559,-0.9341314,1.1848427,0.5433728,-0.5306378,1.4270524,-1.1027546,-0.12447057,-2.056502,-0.07130187,1.5319872,-2.820963,0.6611474,1.1347301,0.37426993
nuaiw,-0.09781973,-4.1264977,-3.2219374,-0.864546,3.2449284,1.4359984,1.5434082,2.414922,2.2918983,-0.16386025,-2.046505,-3.896732,2.3652098,-1.8820113,0.02933227,1.9855236,0.80428094,1.2020676,-1.3446097,-0.3066587,-1.5894356,-1.0631145,1.9772918,-0.7178303,0.019987067,0.8358455,-1.5882261,-0.45434716,-0.6462115,0.66084045,-0.14447066,-0.03552969,1.2157849,0.43432915,-0.95840013,0.4125407,0.3364811,-0.92346936,0.84623736,1.2856191,-0.30522007,0.830759,0.37401372,-0.25262687,-0.20898657,-0.33032444,0.078325704,-0.23848477,2.279961,0.5723114
nz9w1,3.9384935,-2.5523143,3.271315,5.1289215,-1.6362389,-1.4792131,-1.7319373,2.2963011,-1.446373,5.177941,-5.601781,-0.7603284,2.315729,-1.1964867,0.74767697,1.7957755,-0.48002443,0.21478122,-2.0514154,0.5010176,1.9995396,-1.8472309,0.26104927,0.9331872,-2.2045276,1.921626,-1.5226057,-3.65916,-0.44064993,-0.05283843,2.2852824,0.5218677,0.1288519,-1.8313874,-0.3776581,-1.2120986,-0.15352327,0.18103355,-0.5274474,0.9112516,0.025248764,-0.79812735,0.5914575,0.3242464,-0.021247465,-0.4547558,0.3670044,-1.6774595,-0.048145205,0.12290945
o1zc3,6.7342362,-3.488688,0.2811301,-1.5571222,-3.2129493,-1.3258737,0.90946275,-0.1421913,2.274867,1.5879413,-1.9867339,-1.7031504,2.0006382,-2.115382,-0.074716605,-0.8135226,3.5884223,0.29317182,0.23588508,-0.38193274,1.6459935,0.3042368,-1.1015778,0.7220505,0.22733992,-0.28727174,-0.36175182,-1.3272325,-0.7937479,0.79025894,-0.3155343,2.733692,-0.9730284,-2.5662956,0.1184114,-2.6359522,-0.76591456,0.9094445,0.042245626,0.49052665,-0.74636376,-0.3987387,-0.7495409,-1.830643,-1.7886002,0.107914016,-1.2414159,0.1014901,1.5155097,1.0721588
o33bd,-17.392433,-1.183707,-0.43181244,0.6094535,-1.3904533,-1.94428,-0.48132166,3.580321,0.017699335,-4.633834,3.0840862,-2.4269521,3.5343451,-0.2355163,-4.699778,-3.4036272,-6.116789,-0.15571629,-2.5229666,-0.13776904,2.3857036,-2.4748049,-1.3198135,-0.5394331,-4.5534244,4.6741347,1.2021704,-0.82456833,-1.751677,2.3164277,0.18143982,1.987749,2.8234038,0.17354754,-0.4223985,1.7261194,1.7552317,-0.55900794,0.7381294,-0.7245771,0.8272209,-2.0225189,-1.2940346,0.022635711,-1.8715842,-0.48675564,-0.3389592,-0.010354497,3.6190999,-0.11238541
o3a2p,-1.2061459,-2.2969048,3.8980784,-0.1441821,-1.9067727,1.7327931,-0.13193475,-0.84222734,0.21980654,-4.446924,-0.22330365,4.6007853,-3.8321123,-0.146618,-0.72468555,-5.553014,0.56943685,0.45964387,0.49484873,-1.2346089,3.4538045,0.23468164,-0.9169776,1.1488117,-1.4021354,0.6756871,2.1561136,0.59191066,0.9511497,-0.14622961,0.5516775,0.10080318,-0.5678702,0.09344734,-0.58327824,-0.081585914,-0.91059494,-0.14941442,-2.3364425,1.01149,0.28259546,-1.8102754,-2.4105551,-0.21290034,-0.6941719,-0.59503376,-1.1478181,-0.482205,0.39658052,-0.33113402
o3lxf,-7.067947,-4.427303,3.465485,3.080725,3.711633,-0.5422092,-2.3871658,-1.136978,-1.6425049,0.4484765,2.5388057,0.88376254,-1.2310168,-0.52752715,-1.6140157,-2.4397464,1.6353517,-1.6229298,-0.027772699,2.6854918,-1.5555307,-0.29105535,-0.928138,3.019665,1.256008,-1.036135,-0.061445203,-0.709051,1.5109639,-1.1321782,0.040226594,0.4457618,1.8530002,0.6618294,0.8168762,1.1265677,-1.7752393,-1.5322951,-0.4791515,-0.96703804,-0.030114576,0.030376105,-0.85613334,0.7663894,-0.5171879,2.003442,-0.7745113,-0.22365804,-1.4498738,-0.43466246
o9a24,4.625818,-0.7108812,1.199437,-0.080919825,-4.257583,-1.2322971,-1.5979238,-1.5061896,0.4748486,-1.3559138,0.19155073,0.17560366,-1.0712218,4.177892,-1.0733914,1.0206188,1.3459613,-1.5055883,2.473106,-0.21206284,-3.815577,2.5282156,0.2489121,-1.5785437,-0.3826988,-3.5857952,-0.30958524,-0.5622094,-1.5794039,3.1828427,-1.1563185,4.1829977,-2.144591,-2.3753505,2.495124,1.4918284,-0.2648754,0.1258958,0.6022233,-1.61669,1.4002506,-0.36920956,1.3529035,1.8489488,-0.3317289,0.5695579,0.29081196,0.955625,1.3635075,-1.2224019
o9fsx,-2.7765973,8.037153,2.6399996,2.7178228,0.7647477,1.376991,-0.07125259,-1.0055177,1.9740826,2.4041035,3.9380236,-4.579621,-2.7566693,-2.6333466,2.5020397,-2.594903,-0.5043863,-3.847431,-2.631034,2.4369395,-2.3771238,-1.1256189,-3.2157035,1.7674764,1.0416548,1.1601071,-3.6717055,-0.31872457,0.4198427,-2.172201,3.827873,-0.6140552,-2.28646,0.8528231,-1.0846865,0.6475935,0.8267679,0.5670571,2.6528888,4.1700306,2.873414,-2.0620084,0.9265306,2.6461835,0.45289183,0.61403704,1.7340895,-0.035704054,-1.8117733,-1.092231
oct5j,3.6594882,-4.6296124,1.3103571,-2.2747734,-4.778128,-0.07988273,-0.36518946,-1.4949391,0.66049904,-0.39296988,-0.018330825,0.49848735,0.6405046,1.7363595,-0.4963253,-1.7200752,-0.4372814,-0.86933386,1.0267677,1.1048057,-0.27137578,1.6416863,-2.1554413,0.029792588,2.4384007,1.7510145,0.22258727,-0.95708454,0.39880475,1.8757389,-2.8179302,0.5792091,-1.2653111,2.0441508,0.1776746,0.15552585,-3.0113084,-0.56975144,-1.3122739,0.88415706,-1.6465158,0.84956056,0.113433115,-0.114169836,0.9785343,0.08388712,-0.22023025,0.5185375,-2.4735768,0.9473588
ofe7w,1.4665504,2.350291,-5.131031,2.4140103,1.5142938,-0.18804406,-0.60907775,-1.5522168,0.39585832,-0.6028901,-1.8621161,-3.8123274,-0.93631744,3.8896062,2.0954578,-1.2482306,1.8229922,-0.8349572,-3.2441463,-1.8812858,0.44633585,-0.7205834,0.40169615,0.8017395,0.26141635,-1.1371195,1.1293504,0.764022,-0.88764006,-1.3457143,-1.6679267,-1.7253097,2.8641899,0.41556633,-0.8663208,1.7127467,-1.2899221,-0.49471766,-0.86207145,1.2914782,-2.231854,2.3996265,1.1892296,2.2338922,0.7620959,-0.85366017,-1.6667655,0.65325665,0.76131964,0.7250062
oscdf,1.0385821,-1.1658512,1.0303767,-2.767903,2.6005855,-0.9149685,-2.5572562,2.697306,-0.9961529,2.4865563,3.1444428,1.3873415,0.49372625,1.9455214,-0.8783136,-0.5127107,1.6207274,0.0039089886,1.2061365,-0.9424097,0.7428753,1.2472597,0.091557786,0.6609232,-0.32038805,-0.41746944,1.7641613,0.32279006,1.9620878,0.46004945,-0.49641687,1.7259773,0.9508716,0.47227857,-0.44543996,1.1197016,-0.08716915,-0.6276369,-0.39535835,1.2879268,0.6771842,0.3858885,1.7169693,-0.60525775,0.84533066,0.3031379,-1.6606035,-1.798755,-0.49013165,-1.3100599
oyp87,1.2262504,8.97212,1.7420554,-7.420042,-2.9672105,7.1543045,-3.7660484,-0.9648044,-2.7306151,-0.8071931,0.7037622,2.050795,1.4946725,1.490817,1.9265515,-3.2445319,0.78188556,3.429339,-0.47707328,2.262346,1.4206805,1.655982,1.8332504,0.42663777,1.8584931,-0.8619018,-1.9356675,1.1766056,0.89594173,-1.6155621,1.0006597,1.0751537,0.5717991,1.3973441,-1.8902452,1.6049155,0.3460814,0.6367625,-1.1721406,-1.4685525,1.2928591,-0.28782427,1.3802158,-2.2689953,-0.21434218,0.447849,0.18777463,-1.834641,-2.2571685,-1.7401985
pqdwo,-0.5320976,-0.7243099,3.5146658,0.96729827,-0.7854177,-4.2075567,1.4198449,-2.1594644,-0.4742302,4.3938885,2.5561733,-0.82157934,-1.938651,0.9760983,-4.746855,3.297653,-0.88271433,-0.9475421,-0.3059417,3.1342006,-1.0355297,1.9716334,2.2551408,-2.6251147,-1.328321,4.7157364,-1.6641465,-1.4037415,0.7071535,-1.7656369,1.7045238,-1.4295067,0.1314366,-2.4727812,0.7776606,-0.68117905,-3.1821418,1.6005844,-0.35081047,0.12376311,1.0521199,-0.5169107,-0.40268055,1.4561276,-3.770178,-1.3850003,1.2981695,0.9773148,1.7142314,-0.46670368
pw1a2,3.9846015,-6.4422393,-4.883477,-2.6854465,-2.8035796,2.412858,-1.0950935,-3.2892375,0.3754773,-0.112515315,3.9004648,1.6551878,1.2509943,-0.36295626,-0.085989386,-3.3769333,2.0222523,0.49400917,-1.5906558,1.0020878,-4.6786227,0.6340613,-2.2080185,-0.6499108,-1.3024594,1.839436,1.6217285,-1.1814361,3.5873334,-1.8683481,2.7216387,0.30407584,-1.3566208,-0.25740394,0.27917448,3.5648537,0.51507,-0.57396144,-1.2511792,-1.2242211,-1.9088168,0.4309461,-0.45207384,-3.5880373,-0.25394052,-1.4582543,1.051428,-1.0924747,1.53039,-2.5093777
pzttc,-7.233615,9.6138,1.4329435,-3.6609347,0.4613087,0.4584202,0.22881836,-1.7109039,-1.0261586,-1.900136,-0.56114745,-0.32033783,-1.1916083,-5.6665206,1.2528477,-2.0773065,2.500184,0.24977587,1.2860317,0.56872404,1.6546015,1.9518901,0.9378424,3.6291144,-0.4167964,-1.801261,-0.668234,-1.5865479,-1.2269028,-2.4494328,0.77192605,-1.258249,-2.2223141,-0.018088294,-1.6496031,-1.4545002,3.0159805,1.079777,-0.2208821,1.3712972,-1.6428063,0.31725675,-2.7213945,0.68326724,0.8641866,-0.46937472,1.2686081,0.25067365,1.3856782,2.236832
q2hse,-4.000045,-2.1050901,-4.635091,0.2465443,-1.3731856,-1.347824,2.9410348,-3.0146205,0.6228955,2.399156,0.092176,2.8706489,-0.43195218,-3.3013475,-0.68992376,3.419241,-0.72445285,1.9515231,2.0125375,-1.0504613,-0.297509,0.10250622,2.5844388,0.6853498,-1.7899101,-1.5800005,0.21287899,0.63892275,0.13274527,-2.2525043,1.5260607,-0.60286486,0.39432052,0.48809648,0.9097059,0.052108858,-0.035003085,1.542181,-1.0561919,-0.09888085,1.0317864,-1.6375558,-1.3732872,0.54129237,0.5343297,-2.0860665,0.37591675,1.3934801,-0.53203076,0.5441593
q31p6,2.4378116,-3.5554142,-2.560403,3.0724618,1.7819387,-2.869788,0.16779017,2.9844615,1.4753937,1.5546579,2.5261977,-0.4625988,-0.37821123,1.1163247,0.34440294,1.1987818,0.24791142,-0.22751214,0.59372574,-0.18248862,0.4183948,0.48096415,-1.5796361,-1.0513893,-0.14413254,-2.3466926,0.89239055,-1.387074,1.4863049,-2.4512365,-1.8265519,-1.1365551,1.6686323,0.28720418,0.8461721,-1.2517278,-1.5242192,-1.2244991,-0.16658868,0.7058897,2.146953,-0.28516302,0.3561783,-0.56122756,-0.06304687,-0.37059936,-0.78355783,-0.25057596,1.2308104,-0.3889906
qe5iw,2.228296,4.0475883,-2.7837765,0.73840696,3.1253355,-1.1337364,3.4009182,-2.2777014,4.079792,0.075356066,-2.5385306,0.3761842,-1.2699918,-1.1756594,-4.09684,0.21015279,0.6362934,0.21405602,-0.90572333,2.1592016,1.8906158,0.6102684,0.16474341,1.3318895,3.069937,1.7882619,1.4709175,-0.58620214,2.0552516,2.0417979,-0.5140437,0.6440977,-1.2562732,2.2794046,-1.8885437,-0.6182423,2.065338,0.2107841,0.3515275,-1.1238049,0.09097725,0.9061283,1.479413,-3.028369,-2.4886546,-1.7484504,-0.043653216,0.6881711,0.0052496945,-0.7434733
qn6ki,0.12451091,1.5012978,-5.3661857,-3.0279822,1.4540787,-1.1957194,4.2838354,1.786685,2.3297675,2.2546613,0.37208116,0.6082766,1.7640849,2.9674063,-1.7989092,1.0771642,-0.6262321,-1.586116,-2.5435486,1.6400709,-0.66289717,0.938168,-0.491599,1.3236704,-0.6124077,0.8027369,0.33214003,-0.52085614,1.5896837,0.6503679,2.8028038,1.1502693,0.73378974,-0.35762626,-1.9843199,0.5057744,2.9374957,-1.155326,0.32685086,0.24720407,-2.0128224,0.6311344,-2.0915067,-2.8835042,1.102945,1.3579451,-1.2187306,-0.7438635,-1.417332,-0.052016098
qu2by,2.7928104,2.3701296,-3.1660323,-1.0289217,5.402315,-1.608242,2.434306,-0.3994782,3.4257464,1.1951392,1.0500276,-0.8837008,-0.85525125,3.9783556,-3.3674588,-2.404202,-2.435443,0.19312795,1.380289,0.52864903,-0.6407362,-2.0210803,1.2790402,-1.2619586,-0.38961217,-2.7539365,0.009372883,1.897732,-0.27259862,-1.7555885,0.30192876,0.9036948,-1.6930302,-0.6894034,-1.8483611,-1.7472922,1.8516966,2.3579547,-0.80627936,-0.48901337,2.2660873,-2.055075,0.44980255,0.120151654,0.25863647,-0.39625517,-1.919967,1.1290182,0.40851334,0.6270326
qw4hl,-0.19574927,-2.7062416,-0.8303749,-1.3158462,4.53924,-2.2522736,-0.5696161,-1.866566,3.9896426,3.6688852,1.5517915,3.015433,2.4603517,-1.2633389,-1.06589,0.16464832,-1.9537799,2.2797642,-0.030567458,-1.7959496,-0.20992774,-1.1074648,3.9238918,-0.6000664,0.5431204,1.5479072,-0.9465762,0.2161825,-0.45823166,-1.5275323,0.34769726,-0.16642454,-0.50042385,-0.29319325,2.1723871,0.31565362,-0.6739235,0.8177456,1.1886952,1.0839667,1.6442047,0.5369913,0.32906714,-0.122981906,0.56306136,-2.1703017,0.03250388,0.16601826,1.0311276,0.9339624
r11kw,-6.5496244,7.258415,8.867719,-2.1458595,4.451321,1.4231352,-0.34193355,4.987837,-1.9242133,-1.8627847,-3.8006945,2.1540627,1.1341133,-0.3100019,-0.46636477,2.2764678,-5.127732,-0.26020586,0.08175511,-3.8219411,-1.0676008,-0.14272371,-0.68245846,-3.7739873,0.748119,-1.7217046,2.5427845,-2.742084,-0.8642614,-4.9470463,-4.9547486,1.8784683,-0.7012732,0.9127063,2.890728,3.0054944,-1.7249715,-2.5665731,0.8274482,-3.036418,1.3541665,0.4922465,-0.81668997,-1.1507983,1.1424462,1.396524,-0.5966627,4.325359,1.0231943,-1.9474853
r82fi,-2.872384,-2.945724,4.403622,6.790753,0.41780478,-0.954395,-4.477008,-1.2818192,-3.8622499,2.0377195,-6.3269415,-2.93615,1.170329,0.06671487,-3.3631346,2.2916305,-2.057494,-1.9814696,0.94333863,-1.0916729,1.0930346,0.0013389863,-1.4661131,0.5633043,0.3196059,-1.9183955,-1.0169284,-0.12130146,1.2628506,1.1564759,-0.2568446,2.435663,0.39922875,-0.45480657,-0.1912566,1.2286117,-0.5625506,-0.8880266,-1.5254703,1.8140422,-0.8358424,3.2678478,-2.166391,-1.9295824,2.293876,0.7967038,-0.29609066,-1.2752973,1.7904352,-0.24872881
rf2g7,-10.716935,3.5359285,4.390015,-2.2595694,-1.3238397,-1.9295416,-2.2785444,-2.3130853,0.44642067,-0.23800251,1.3063298,-1.3116591,1.7459611,-4.055925,3.783782,0.63934237,-1.5637054,1.5630475,-1.1273191,2.9610941,1.5047785,-0.20015873,0.29135525,-2.359949,0.35068345,1.438513,0.4963716,1.3136703,-1.6543282,-2.2880185,1.1133857,0.46822572,2.078179,-0.22515373,1.6290755,-4.969899,-2.301044,2.0562074,0.05491164,1.4824305,0.43354583,3.4330168,0.19981053,1.2719738,-0.84607464,-2.5003273,-0.47966784,-0.0703292,-3.8880324,-3.1291006
ridfr,4.623417,5.921748,-1.05179,-3.9528153,2.0697837,4.1844397,-4.0294833,3.687388,-1.3189523,-1.2483261,1.4844894,-1.7644455,1.5477544,-1.7260252,-2.7012165,2.320033,-0.129754,-1.8248256,1.6176773,-3.780265,-0.91161954,2.1432905,0.3864526,2.482141,-3.6394832,-0.48295206,-0.06605444,0.99302864,-2.3978531,1.8901758,-1.2606047,-1.9809337,-1.3217577,2.6824987,1.0608947,-0.28540504,-0.6344984,-1.795481,0.70866245,-2.2638018,-0.13747764,0.23104526,0.58948296,-1.11666,-2.4687986,-2.780744,0.72380346,-0.41638732,1.2359806,1.3200827
rkkav,-0.52268744,-1.2706956,-1.3121917,-3.5610216,3.6904984,-1.3171315,-3.774395,-3.2407074,2.3419685,-0.29972678,0.9914761,-0.66941285,1.7968513,0.51037,1.2011247,-1.0563872,-1.0923653,2.63553,0.22602935,-2.1921482,0.4811966,-1.8321885,-1.4366904,-1.5476454,-0.032317746,2.0901735,-0.53309,0.22116655,-1.3984421,-0.310209,1.7258765,1.0742453,-2.145824,-0.18772137,0.27830085,-0.92902213,0.22211978,-0.70051575,-3.7251868,1.4093986,0.515707,-0.0033541247,-2.3177075,0.018868757,-1.2381196,0.1583412,-2.9388905,0.34848797,2.5284486,-1.0199152
rlkzv,0.10994354,-1.0638947,-1.1014261,3.5674274,1.0472256,-2.0827982,-2.0416896,-0.605136,1.449191,0.75068545,-3.390441,1.5927087,0.5278009,1.6431754,-2.4627278,-0.5332454,-0.8853108,1.3858172,-1.2910954,1.3469772,-0.650091,3.1792145,-1.6128854,-1.5076656,1.5610878,0.8949721,-0.326124,0.2520752,1.7765557,0.5836601,2.3393307,0.16780859,1.2363144,0.58244133,-1.1018306,-1.0991292,0.5732677,-2.04916,2.3289518,0.0040259482,0.6586963,2.168402,-0.27682772,0.10014007,0.6078232,0.48311976,1.3329787,-0.31523606,0.1589996,-0.091854684
rzj8b,-0.42290196,-6.389672,6.104123,-3.373552,-1.0923153,-1.1652645,1.5177993,1.6962667,1.1591604,0.3333688,-0.58506125,-1.4325967,2.02043,-1.0968446,-0.5226803,-0.022940721,0.8279312,0.08016679,1.4005817,-1.5960649,-0.08454646,-0.25877655,-2.2139907,0.085237265,2.0508957,-0.96762544,1.9232103,1.6310095,1.1640683,-0.4033889,-0.80196667,0.14182258,-2.0728574,-1.8085452,-1.2184575,-0.8324813,0.45753226,0.20140736,2.1926272,0.23512013,1.177052,-1.5776453,-2.0146465,1.1996509,-1.1423621,-0.33066127,0.7599424,1.4195716,-1.0851469,0.85079795
s6avc,-0.45444673,1.1882256,2.8221278,1.9390687,-0.95767057,-1.3262064,-1.9396689,2.004727,-3.6118495,-2.4573436,-1.7062974,2.4780054,-0.2434708,1.1220701,-3.3003767,-2.9383,-0.63713753,-0.034460373,3.8078687,-0.029896883,-1.4430113,-4.283936,1.0375427,-1.1096375,-0.44021755,-0.7830999,0.8591708,3.0034506,-4.156762,-1.4534146,2.0813603,1.7396152,-0.7326918,4.8057537,1.2670623,0.93777484,1.1836616,0.21725689,1.0847113,-0.06938384,-2.444849,1.5126629,-0.9396797,2.8321362,1.6466932,-2.8942378,1.6791545,1.4948274,0.2880902,1.7752787
sa9ho,4.759376,-1.9098877,-3.9407725,-2.4630778,-1.8975233,2.2305617,0.6502841,-2.8248236,-5.8679414,-3.7315476,-6.269602,1.4488475,0.016199099,0.6050062,-2.5746865,-1.6175873,0.64904916,-1.0812054,0.03839972,2.8592353,-0.89601105,-0.58099204,0.9463827,-1.3932225,0.29674238,0.9559929,-0.9161398,0.58736295,-0.015834806,-1.2136939,2.4837024,0.8854582,-0.4445636,0.3278623,1.7676846,-1.9569448,0.4336772,1.7696136,0.650381,0.62780434,-1.3659209,1.3077193,0.32811543,-1.4147129,0.39432523,-0.4110695,-1.407383,1.7481358,-0.8141357,-2.1479826
sh3z4,-5.596259,-1.5907304,-0.19956532,2.881121,2.743736,0.43669748,-3.556426,-3.0151,0.3830354,-0.008906875,-0.3296684,-1.2159706,0.26297486,2.6388435,5.039685,-0.90758765,-0.6538716,-2.2264755,-0.18313606,1.0350875,-2.4083865,-0.38844097,1.5902064,1.8070168,-0.0042581544,0.2922631,1.2173967,-0.85246325,1.6160535,-2.631217,-1.8777426,0.25333416,-0.9688208,-0.13222335,-1.2491902,-1.8925344,-0.11549241,-0.31086084,-2.3147576,-0.80918306,-1.4219217,0.09330815,-1.9202834,-1.2071283,-0.93292683,-0.3827538,0.62485087,-1.196553,0.16770115,-1.0399613
slp0x,4.8611245,0.008743795,5.074833,7.1606064,-4.212516,0.35020122,3.159887,-0.3891781,-0.04416582,1.4809959,0.91457003,-1.2569745,0.450031,-0.8060588,-0.21134812,-0.63695055,2.8186383,-1.0035619,3.6635919,0.3967659,0.9397229,1.7224557,3.2890923,-0.8940494,0.65015113,1.019117,3.4251513,-0.41587588,-0.8019996,1.2591158,-0.67380404,-2.034529,-5.317547,-1.4314544,-0.87255335,-2.2632236,1.2136695,-0.68111134,-0.31391335,1.4495664,-1.7450849,0.98340505,-1.327503,0.114500046,0.23805168,-2.4591575,1.8581554,-0.83901125,0.4846693,0.046000604
