question_id,qemb_0,qemb_1,qemb_2,qemb_3,qemb_4,qemb_5,qemb_6,qemb_7,qemb_8,qemb_9,qemb_10,qemb_11,qemb_12,qemb_13,qemb_14,qemb_15,qemb_16,qemb_17,qemb_18,qemb_19,qemb_20,qemb_21,qemb_22,qemb_23,qemb_24,qemb_25,qemb_26,qemb_27,qemb_28,qemb_29,qemb_30,qemb_31,qemb_32,qemb_33,qemb_34,qemb_35,qemb_36,qemb_37,qemb_38,qemb_39,qemb_40,qemb_41,qemb_42,qemb_43,qemb_44,qemb_45,qemb_46,qemb_47,qemb_48,qemb_49,qemb_50,qemb_51,qemb_52,qemb_53,qemb_54,qemb_55,qemb_56,qemb_57,qemb_58,qemb_59,qemb_60,qemb_61,qemb_62,qemb_63,qemb_64,qemb_65,qemb_66,qemb_67,qemb_68,qemb_69,qemb_70,qemb_71,qemb_72,qemb_73,qemb_74,qemb_75,qemb_76,qemb_77,qemb_78,qemb_79,qemb_80,qemb_81,qemb_82,qemb_83,qemb_84,qemb_85,qemb_86,qemb_87,qemb_88,qemb_89,qemb_90,qemb_91,qemb_92,qemb_93,qemb_94,qemb_95,qemb_96,qemb_97,qemb_98,qemb_99,qemb_100,qemb_101,qemb_102,qemb_103,qemb_104,qemb_105,qemb_106,qemb_107,qemb_108,qemb_109,qemb_110,qemb_111,qemb_112,qemb_113,qemb_114,qemb_115,qemb_116,qemb_117,qemb_118,qemb_119,qemb_120,qemb_121,qemb_122,qemb_123,qemb_124,qemb_125,qemb_126,qemb_127,qemb_128,qemb_129,qemb_130,qemb_131,qemb_132,qemb_133,qemb_134,qemb_135,qemb_136,qemb_137,qemb_138,qemb_139,qemb_140,qemb_141,qemb_142,qemb_143,qemb_144,qemb_145,qemb_146,qemb_147,qemb_148,qemb_149,qemb_150,qemb_151,qemb_152,qemb_153,qemb_154,qemb_155,qemb_156,qemb_157,qemb_158,qemb_159,qemb_160,qemb_161,qemb_162,qemb_163,qemb_164,qemb_165,qemb_166,qemb_167,qemb_168,qemb_169,qemb_170,qemb_171,qemb_172,qemb_173,qemb_174,qemb_175,qemb_176,qemb_177,qemb_178,qemb_179,qemb_180,qemb_181,qemb_182,qemb_183,qemb_184,qemb_185,qemb_186,qemb_187,qemb_188,qemb_189,qemb_190,qemb_191,qemb_192,qemb_193,qemb_194,qemb_195,qemb_196,qemb_197,qemb_198,qemb_199,qemb_200,qemb_201,qemb_202,qemb_203,qemb_204,qemb_205,qemb_206,qemb_207,qemb_208,qemb_209,qemb_210,qemb_211,qemb_212,qemb_213,qemb_214,qemb_215,qemb_216,qemb_217,qemb_218,qemb_219,qemb_220,qemb_221,qemb_222,qemb_223,qemb_224,qemb_225,qemb_226,qemb_227,qemb_228,qemb_229,qemb_230,qemb_231,qemb_232,qemb_233,qemb_234,qemb_235,qemb_236,qemb_237,qemb_238,qemb_239,qemb_240,qemb_241,qemb_242,qemb_243,qemb_244,qemb_245,qemb_246,qemb_247,qemb_248,qemb_249,qemb_250,qemb_251,qemb_252,qemb_253,qemb_254,qemb_255,qemb_256,qemb_257,qemb_258,qemb_259,qemb_260,qemb_261,qemb_262,qemb_263,qemb_264,qemb_265,qemb_266,qemb_267,qemb_268,qemb_269,qemb_270,qemb_271,qemb_272,qemb_273,qemb_274,qemb_275,qemb_276,qemb_277,qemb_278,qemb_279,qemb_280,qemb_281,qemb_282,qemb_283,qemb_284,qemb_285,qemb_286,qemb_287,qemb_288,qemb_289,qemb_290,qemb_291,qemb_292,qemb_293,qemb_294,qemb_295,qemb_296,qemb_297,qemb_298,qemb_299,qemb_300,qemb_301,qemb_302,qemb_303,qemb_304,qemb_305,qemb_306,qemb_307,qemb_308,qemb_309,qemb_310,qemb_311,qemb_312,qemb_313,qemb_314,qemb_315,qemb_316,qemb_317,qemb_318,qemb_319,qemb_320,qemb_321,qemb_322,qemb_323,qemb_324,qemb_325,qemb_326,qemb_327,qemb_328,qemb_329,qemb_330,qemb_331,qemb_332,qemb_333,qemb_334,qemb_335,qemb_336,qemb_337,qemb_338,qemb_339,qemb_340,qemb_341,qemb_342,qemb_343,qemb_344,qemb_345,qemb_346,qemb_347,qemb_348,qemb_349,qemb_350,qemb_351,qemb_352,qemb_353,qemb_354,qemb_355,qemb_356,qemb_357,qemb_358,qemb_359,qemb_360,qemb_361,qemb_362,qemb_363,qemb_364,qemb_365,qemb_366,qemb_367,qemb_368,qemb_369,qemb_370,qemb_371,qemb_372,qemb_373,qemb_374,qemb_375,qemb_376,qemb_377,qemb_378,qemb_379,qemb_380,qemb_381,qemb_382,qemb_383,question_num_options
QID11,0.14512883,-0.06684402,0.10303538,0.062035475,0.050158404,-0.0048489235,-0.015687698,-0.042757597,-0.034054898,-0.05284815,0.021465542,-0.04175045,0.041913055,-0.032333933,0.025852052,-0.035482205,0.016514465,-0.095363565,0.056211233,0.021525078,-0.045862958,0.030678581,-0.0010770794,0.04991095,0.1158345,0.030941512,0.030550873,0.076058544,-0.022969842,-0.032856997,0.004010252,0.0015330829,-0.0041938326,-0.020893838,0.015059624,-0.057646163,0.040211678,-0.03258565,0.07860284,-0.003334007,0.012253717,0.01865846,0.019538518,0.05632446,-0.021392733,0.021940732,0.0012339394,0.09254138,0.036530517,0.021741278,0.029458836,0.094878085,-0.044006545,0.1571401,0.02156497,0.025371986,0.021246593,0.07906245,-0.049917817,0.036557455,0.04128219,0.010322059,-0.015655927,0.040714525,-0.043369524,0.021095963,-0.057623144,-0.008292561,-0.02496628,-0.15438814,-0.06975731,-0.01000915,-0.051829826,-0.01838324,0.035479877,-0.041377738,0.061724093,0.03774282,0.064271934,-0.020761516,0.019359399,0.023926644,-0.03903726,0.009000041,-0.018976752,-0.050159834,-0.05072308,0.15625192,0.059164062,-0.0755894,-0.0040456457,-0.020285264,0.015471611,-0.008511292,-0.058087677,-0.0009869002,-0.030865718,0.015777064,-0.03400013,0.03285045,0.01759913,-0.04433058,-0.018976575,0.01908263,-0.010272286,0.057010874,-0.10667405,0.04990834,-0.029703526,-4.1897078e-05,0.03776993,-0.0115885455,-0.078156896,0.018473985,0.044832654,-0.062084515,0.08238502,0.013354675,0.053071715,-0.0039678053,-0.09333587,0.03157074,-0.025888616,0.007608925,0.02959845,0.0022536966,-0.071621515,-5.814089e-33,0.016117621,-0.10092438,0.04028844,0.07754078,-0.09194064,0.027528195,0.0370717,-0.007562028,-0.046536475,0.04573972,0.12877887,-0.026118346,-0.023389732,0.033763565,0.024138924,0.029096756,-0.071113385,0.03569393,-0.09848199,0.02252708,-0.05475716,0.02782161,-0.035534,0.011467206,-0.03877202,-0.039611675,-0.020542488,-0.0164067,-0.034159735,-0.004236799,0.017730858,0.04141147,0.03803317,-1.9540457e-05,0.0012140576,0.015505888,-0.008717043,0.003245556,-0.0072468426,-0.012849058,-0.018199176,0.0038411904,0.07354602,0.03814642,0.11699756,-0.047915984,0.067600414,0.065796,-0.052979622,-0.03388298,-0.078245685,0.023455307,-0.08583841,-0.0124060325,-0.009865186,0.015401455,-0.00096000126,-0.08576645,0.02918366,-0.010328868,-0.0893685,0.07939234,-0.019528206,-0.055869214,-0.03755523,0.0013744164,-0.022094913,0.0333497,-0.021918198,0.025183965,0.014808648,-0.062528536,0.02296959,0.10015201,0.026995158,-0.0063347863,0.0056335665,0.034305472,-0.016096128,-0.0049500475,-0.03284764,0.027940353,-0.08384982,0.11295396,0.11752539,0.017832711,-0.030243345,-0.09006231,0.013338162,-0.00801291,-0.042789176,-0.011669676,0.024209859,0.013175375,-0.054571137,1.5619622e-33,-0.076137304,-0.077898115,0.005377618,-0.07690974,-0.041893777,-0.115395255,0.06610277,0.10522663,0.022411887,-0.013169719,-0.08609438,-0.04999651,0.043425135,0.102603376,-0.095700935,0.047145348,-0.021350084,0.033931207,0.03604753,-0.05568205,-0.060528208,-0.0013958149,-0.04683962,0.100472756,-0.008515567,-0.028370421,-0.07180773,0.034778826,-0.010167907,-0.04479789,-0.04154609,-0.0025859976,-0.047514107,-0.03832843,-0.078528516,-0.0096714115,0.038375147,-0.058439396,0.080639765,-0.05055808,0.032905336,-0.055361014,0.02421393,0.11293167,0.0031231341,0.029903544,0.009288924,-0.013348176,-0.09999291,-0.008320995,-0.058615007,0.036950245,-0.051191863,0.054123018,0.019800186,0.038030807,-0.016299063,0.07254734,-0.04230251,-0.018104568,0.019600265,0.113439605,0.0043846467,0.014859277,0.039066073,0.019422792,0.015336639,-0.026018469,-0.015489531,-0.032503877,0.063761555,-0.026553372,-0.06531609,-0.09534213,0.0405083,-0.00566643,0.0819459,-0.0138375955,-0.024420815,0.06931236,-0.06823246,-0.03633659,-0.086247414,0.005721305,-0.05602569,-0.017405432,-0.051095564,-0.0444832,0.02514577,0.006669908,-0.03871359,0.11413138,-0.12555356,-0.109638475,-0.010155992,-2.0651711e-08,0.06561384,0.09094708,-0.04580904,-0.0028965943,-0.0113801155,0.03919035,0.056040715,0.061137065,0.01544896,-0.022347204,0.045642473,-0.03554885,0.029092655,-0.118710384,-0.0033463433,0.023530036,-0.0043843305,0.06458001,-0.018721975,0.0048463317,0.024898794,0.08001784,0.024983909,0.009266075,-0.07626007,-0.021225119,0.03356111,0.023044622,-0.02734969,0.020467253,-0.022210214,0.021918995,-0.058947265,-0.017686673,-0.036984112,-0.079830445,-0.07306929,-0.0023983603,-7.287085e-05,-0.04433392,-0.010371028,-0.02606044,0.01938116,0.02151918,-0.023959141,-0.034586865,0.007772947,0.010814056,0.0028073045,0.043682154,-0.10444926,-0.027708292,-0.0051510166,0.0057272357,0.072325006,0.039716803,0.04327662,-0.0695744,0.0019267832,0.038811162,0.08390028,-0.022706768,-0.05015035,0.020288292,5.0
QID117,-0.061855603,0.07079995,-0.048508767,-0.002756274,-0.033968497,-0.05766328,0.10724846,-0.010392867,0.049181007,0.055541754,0.028892322,-0.0069822986,-0.02299215,-0.03080391,0.0011534666,0.019902442,0.019227132,0.022218568,-0.15036932,0.012866444,0.08939886,-0.13312191,-0.04381236,-0.00058198906,0.11577751,-0.015841853,0.007718821,-0.042969216,-0.013158352,-0.046501875,0.016756793,-0.0015763865,-0.058085304,-0.061251108,-0.11263767,0.00045851688,-0.030151121,0.029014125,-0.037422612,0.07930506,-0.060034983,-0.018190408,-0.04398174,-0.07041527,-0.051517084,0.020724084,-0.004726805,0.13278621,0.034211054,-0.013976517,0.041171826,-0.025049467,-0.07633896,0.053041108,0.009310615,0.012869525,0.025419813,0.040473647,-0.07395992,0.023861032,-0.027019804,0.002001473,-0.038102485,0.005523598,0.12245519,0.008439666,-0.06443665,-0.030296423,-0.05929777,-0.02310798,0.03932214,-0.05690028,-0.011541509,-0.07765701,0.037295733,-0.03157829,0.0846084,-0.028561382,-0.021210868,0.0784054,-0.010574723,0.017982375,0.02939126,-0.032124773,0.029036678,-0.023158273,0.013904566,0.03444546,0.07655487,-0.020421347,-0.004793517,0.059997305,0.033633262,-0.03770094,-0.0098897,0.06237205,-0.073974706,0.027559776,-0.013563789,0.0022034668,0.06915243,-0.016989935,0.022620985,-0.040127043,0.07926006,-0.038305953,0.06018032,-0.026637316,0.031498875,-0.021155424,-0.06787175,0.010967035,0.0390425,0.11392298,-0.06950867,0.09529855,-0.0640248,0.06375572,0.06019189,-0.098586716,0.024074234,0.023934854,0.032233056,-0.069488876,-0.1192923,-0.026197566,0.046560895,4.860151e-34,-0.120869435,0.013657825,0.006895681,0.049042664,-0.023339737,-0.009979724,0.021848736,-0.013905343,-0.055312354,0.061439104,0.016416261,0.0018484996,0.1320135,0.13611336,-0.085034855,-0.003317816,-0.023518384,0.050130036,0.08119483,0.0044925413,0.12647599,0.0253016,-0.0066396804,0.027040448,0.053312503,0.0009779489,-0.042477652,-0.047810897,0.07636594,-0.020093536,0.03189205,0.06206441,0.033754002,-0.055951003,0.0077304486,0.08604965,0.07007417,0.0011258909,0.035262775,-0.031217849,-0.08256292,-0.011749112,0.03781845,0.040148206,-0.12354906,0.058292735,-0.019627513,0.0199261,-0.0588609,0.02210027,-0.047838617,0.016332703,0.0014089457,0.03603596,-0.005908154,-0.04615919,-0.014283142,0.033076447,-0.06313425,0.02074849,0.067956194,-0.015855331,0.048802335,0.059784055,-0.029864518,0.048357114,-0.031507965,-0.03941042,0.068584494,-0.0107197575,-0.05091706,0.060296543,0.07885572,0.05319071,-0.010603032,-0.04370366,0.08226662,-0.0135920225,0.0669514,-0.029323839,-0.03566711,0.015015807,0.019652924,0.042155467,0.030808523,0.062289108,-0.014918185,-0.02537805,-0.014503727,0.021338042,0.07905405,-0.029084006,0.069510825,-0.012336046,0.064497605,-2.7912271e-33,-0.03240608,0.08295746,0.005521191,0.0061114426,0.036041312,-0.014413321,-0.0024470075,-0.032191288,0.08718138,0.050019633,-0.11091728,0.041679718,0.04997708,0.0617568,0.0048793466,-0.06692349,-0.014292124,-0.08790288,-0.012363503,-0.039309744,0.02860368,-0.04344304,-0.005432306,0.048758026,0.03850519,0.037551988,-0.0037714469,-0.08634105,-0.049152374,0.008095398,0.014223319,-0.07036841,0.028076116,-0.07515063,-0.031219825,-0.048807077,-0.012413276,-0.0012158739,-0.020091921,0.006815478,-0.051364224,-0.05423434,0.020540286,-0.0007592735,0.024259202,-0.09309072,-0.028905151,-0.050710946,0.11016576,-0.010748709,0.015498568,-0.0103746625,-0.030890431,0.023931522,-0.07725475,0.041539963,0.07600561,-0.04382247,0.129653,-0.0022727319,-0.068256,-0.004886268,0.0058210506,0.07106241,-0.030100452,0.014265047,0.019003687,-0.015646446,0.0028401602,-0.043961726,-0.024119832,-0.0015121928,0.09387555,-0.07890783,0.04783262,0.06139435,-0.019674197,0.003599223,0.027683532,-0.007215173,-0.055264596,-0.0053580743,0.04409058,-0.007033616,-0.029917508,-0.074638136,0.0991865,-0.01672951,-0.020962583,-0.05808124,-0.0003448373,0.0011962954,0.014065241,-0.058063284,-0.08650146,-4.480356e-08,0.010175391,-0.0062391623,0.005524875,0.05058577,-0.013579853,0.025701232,0.047531478,-0.023663485,-0.05259772,0.03671936,-0.02359258,0.05658893,0.0066963225,-0.04158327,-0.042059973,-0.040542353,-0.0063571283,-0.07915677,-0.045911346,0.02294127,-0.02209541,-0.009438733,-0.038756337,-0.029939013,0.025518473,0.026736073,0.07896616,0.14020683,0.018964201,-0.009100384,-0.022550786,0.009631589,-0.039673448,0.048259705,-0.06199858,-0.017642492,-0.065692306,0.0073153414,-0.0051545757,0.013592043,-0.034523547,-0.06911491,-0.009138867,0.026670823,0.029454438,-0.0020587405,-0.06991937,-0.10046458,-0.071311094,-0.103298664,-0.038316414,-0.038188875,0.04647271,0.029846635,0.07741423,-0.07703271,-0.064619265,0.059354812,-0.00071689603,0.036216673,-0.045408703,-0.026189305,-0.08409262,-0.04865606,6.0
QID118,-0.0058958395,0.07436201,-0.044861443,-0.06414337,-0.028497048,0.0065808506,0.13992484,0.041838005,0.033628315,0.076208234,0.01691838,-0.04721278,0.009071746,-0.0072253114,-0.016932115,0.053694658,0.053599052,-0.00898409,-0.106674634,-0.024658954,-0.0069317417,-0.09028466,-0.08007198,-0.014855537,0.04071516,0.0010590206,0.008025346,-0.023704132,-0.058489647,-0.06554537,-0.030415978,-0.024699979,0.003107299,-0.020818844,-0.124231294,-0.01927937,-0.055303846,-0.017773792,-0.04895258,0.04354202,-0.067474745,-0.013090229,-0.04780507,-0.010056435,-0.074288666,0.020166362,-0.024753518,0.15954202,0.03393975,0.036261212,0.04072419,0.010732695,-0.04676922,0.09630954,0.052466374,0.00020939826,0.026270507,0.06631454,-0.035464004,0.07770331,-0.04238262,-0.008236612,-0.07770823,0.00090032996,0.04390755,-0.025823217,-0.042840324,0.023031048,-0.055270273,-0.024869896,-0.00081885373,-0.0041453573,-0.01040824,-0.11490613,0.04180376,-0.04412215,0.103553444,-0.030795807,0.018991956,0.1018094,-0.059704933,0.0013446955,-0.0063595735,-0.047932655,0.0018177311,-0.015294701,0.053756107,0.09976621,0.05743863,-0.037403062,-0.06041033,0.039840892,0.072857365,-0.048165623,-0.04549682,0.07987228,-0.08610965,-0.045557905,-0.009636628,0.0022445396,0.032337982,-0.015433235,0.058668584,-0.023599679,0.049572036,-0.059423473,0.030200694,0.029372854,-0.032905962,-0.014292454,-0.070504986,0.047888827,-0.021449063,0.07209039,0.004652138,0.086903185,-0.047358345,0.06358523,0.016424222,-0.044011556,0.039706822,-0.024703318,0.02875873,-0.0129955,-0.12550762,-0.029350132,0.06352628,-2.4081969e-33,-0.082328364,0.0013140476,0.007117584,0.022686413,-0.014497766,-0.059508227,0.046026777,0.067313924,-0.03013398,0.01754357,0.002252336,0.019805286,0.045232024,0.11313024,-0.012809461,-0.0128804725,-0.024298683,-0.006223664,0.06645412,0.03297591,0.035815597,-0.0031855495,-0.015658196,0.004403946,0.024382181,-0.0010305265,-0.09409836,-0.01886666,0.10203036,-0.05715254,0.033210307,0.030929714,-0.0020070735,-0.055036016,0.009685095,0.04084572,0.0858656,0.007143258,0.060237065,-0.052768227,-0.04301997,-0.015463537,-0.014417353,0.05875276,-0.08287266,0.008824678,0.01748624,-0.0789414,-0.07387142,0.011172408,-0.015623492,0.01935493,-0.030247776,0.04745404,-0.03171075,-0.05265473,0.007921462,0.011277471,-0.049168766,0.030009422,0.067116514,-0.07855092,0.15198584,0.058885574,-0.0067385803,0.0426586,-0.005248743,-0.025695525,0.06408038,0.007133214,-0.031126546,0.05101459,0.08494186,0.015084242,-0.0009351964,-0.0042599044,0.046919566,-0.01852287,0.07438736,-0.017485432,-0.036807925,0.0026671344,-0.058023702,0.052402858,0.052763697,0.11873235,-0.008796865,0.006347996,0.019600848,0.04190609,0.029661208,-0.020875897,0.019273328,-0.009754233,0.06611243,-9.419404e-36,-0.043074414,0.07955968,-0.018714696,0.008658971,0.012432437,0.0019190738,0.008594148,0.032558467,0.06774081,0.12297758,-0.14101554,0.0855926,0.037611775,0.058974672,-0.038837906,-0.06924549,0.0023937295,-0.06747846,-0.0018586351,-0.06350625,-0.032943673,-0.034230053,0.013662909,-0.0333185,0.029435068,0.028925646,0.033367395,-0.058660835,-0.041475754,-0.016621057,0.07896048,-0.09839004,0.0343936,-0.064990126,-0.011031176,-0.046025254,0.0094922725,0.014083463,0.025098944,0.006949063,0.029212527,-0.056989234,0.0017473232,0.019326743,-0.009079937,-0.0303115,-0.031932212,-0.09503774,0.07524636,-0.004383801,0.018447787,-0.023939626,-0.051032394,-0.028990602,-0.13978295,0.08935906,0.052011758,0.0077143004,0.13601546,-0.026257135,-0.033017773,-0.0170931,-0.021200916,0.03413894,-0.023287369,0.00436604,0.03685428,-0.028501863,-0.027246943,0.0020266392,-0.080180265,0.026863856,0.10362005,0.0037056322,0.0021324558,0.08006003,-0.005927932,-0.013114475,0.04114331,0.029295163,-0.10256704,-0.027688026,0.017173793,-0.028155006,-0.015342453,-0.058556974,0.077969655,-0.055024114,-0.022839865,-0.050796323,0.023374235,0.05743468,0.017871007,-0.095405824,-0.077851735,-3.431887e-08,-0.009812207,0.00048590652,-0.0030820658,0.057624087,0.0051824516,0.064196505,0.057848725,-0.055558838,-0.018463628,0.03244026,0.011779633,0.0037946287,-0.0025677085,-0.05312439,-0.02262198,-0.00032088178,-0.00038196042,-0.11683196,-0.02077005,0.04165624,0.039689843,0.04212373,-0.0027586746,-0.0081595,-0.013389652,0.0014792986,0.07242918,0.10978914,-0.03580263,-0.03245067,0.06424747,0.047259193,0.000143183,0.0453038,0.016841535,0.0076140785,-0.07004261,-0.04876826,-0.0070521417,0.06241128,-0.021361912,-0.07889094,-0.082361095,0.018340876,0.05429398,0.039409395,-0.08027522,-0.08288615,-0.055162184,-0.05113929,0.036928453,0.0017664393,0.02609963,0.017743105,0.08209036,-0.049156606,-0.021119334,0.018097298,0.048651863,-0.0095769875,-0.07151704,-0.038503252,-0.120957814,-0.04202102,16.0
QID119,0.025654478,0.088188976,-0.039323833,-0.053708527,-0.07504794,-0.032981608,0.12360202,-0.017539263,0.04929842,0.039574962,0.047477446,-0.014998904,-0.009014645,-0.015783807,-0.025815928,0.020482551,0.0274708,0.035764832,-0.097071104,-0.0026005001,0.025134856,-0.13741213,-0.029813126,-0.027577946,0.078605026,-0.08434891,-0.031125383,-0.07682937,0.004221547,0.024318114,-0.02489781,0.02685412,-0.021258852,-0.014301843,-0.03699636,-0.026351484,-0.0071277195,-0.0067510013,-0.02816214,0.07323405,-0.04532366,0.013149304,0.000446773,0.0012292449,-0.03686973,0.034276336,0.041976467,0.1529498,0.041805238,-0.02420409,0.04890898,0.021138992,-0.0889821,0.12089677,0.020798413,-0.0053961645,-0.10511643,0.050961684,-0.021463593,0.08874611,-0.053879116,-0.041367244,-0.026580736,-0.004300073,0.035798546,-0.0009735384,-0.094127275,0.015641678,-0.064029105,-0.03265206,0.03108961,0.03831718,0.023513881,-0.048214015,0.03637915,-0.05624113,0.031929612,-0.03936615,0.013543612,0.115611956,-0.048857484,-0.039236963,0.014421831,-0.072867624,0.044088982,-0.03084305,0.054029882,-0.025032403,0.01596402,-0.029975899,0.045761887,0.014247925,0.022883255,-0.028875364,-0.083883494,0.038806587,0.004258688,-0.03711234,0.020010974,0.047387853,0.007985605,0.027959397,-0.058143858,-0.05184229,0.065351486,0.03303416,0.013603955,0.024659539,-0.028615398,-0.018565413,-0.06996514,-0.010459887,-0.016243365,0.036023147,-0.01190523,0.0599205,-0.007896119,0.04114473,-0.023942612,-0.040443935,-0.038997475,0.018889837,0.025469137,-0.060756955,-0.10721173,-0.07704544,0.047181066,-3.4133755e-33,-0.03268088,0.078943975,0.04295698,-0.002184314,0.07261184,-0.021837547,-0.008020172,0.05824911,-0.0065921983,0.015086146,-0.03445257,-0.0886126,0.11790424,0.124861054,-0.08290664,-0.005274326,0.020158356,-0.02443297,0.07504955,-0.025131041,-0.012099322,-0.00016555567,-0.02108893,0.03292014,-0.016518684,0.058987357,-0.04016306,-0.0050523197,0.16087782,0.00725166,-0.00060189085,0.02314801,-0.031297233,0.00996632,-0.031472262,0.0281445,0.06394711,-0.017088708,0.10259626,-0.11551651,-0.061382726,-0.021257529,-0.044763654,0.049249116,-0.038932584,0.060477607,0.07339097,-0.062380284,0.020419208,0.023529364,-0.040160537,0.019009616,0.037378002,0.03463951,-0.0042757704,-0.06521572,0.026765823,-0.016227342,-0.021524327,0.008719556,0.042342607,-0.019261269,0.010399814,0.063375145,0.031526007,-0.06934661,-0.0021620428,-0.058152705,0.0010536595,-0.0036322998,0.043184638,0.1313492,0.024891065,0.02431451,-0.012548594,-0.03731201,0.03455144,0.019741248,0.09071892,0.041780166,0.009891864,0.05042348,0.011900895,0.069648385,0.05868177,0.063093066,-0.02296959,-0.022494843,-0.005295457,0.06776801,0.024496986,-0.06645644,0.035961036,0.023926362,0.041019477,1.0692221e-33,-0.042604744,0.111270495,-0.042800535,0.03147087,0.01005421,-0.008698064,0.10296508,0.0046023056,0.075687625,0.093010284,-0.092244074,0.051655106,0.02090817,0.017522104,0.024421744,-0.015752671,-0.05317615,-0.05423862,-0.0057653035,-0.032543212,-0.053262208,0.011010427,-0.044010323,0.03334033,0.020519141,-0.009490716,0.12525617,-0.08234809,-0.04967285,0.038098007,0.078972824,-0.07811423,-0.05773722,-0.00952767,-0.06423461,-0.033272438,-0.020974291,0.043242186,0.0046707294,0.060848217,0.04517786,0.0034079032,0.05501014,-0.02361939,-0.079658836,-0.09386487,0.014841121,-0.030419268,0.032126825,0.074079946,0.0031697182,-0.0067132125,-0.011154292,0.025593827,-0.10579087,0.030889567,0.012693363,-0.036841445,0.06708858,0.01910429,-0.03637395,-0.07420024,0.046883177,0.02656573,7.5444244e-05,-0.01897149,-0.014605106,-0.007434473,-0.024865068,0.00050934067,0.04520286,-0.0052775885,-0.041936148,-0.040733036,0.0050295745,0.04429917,-0.006877347,0.019861689,-0.023159245,-0.044973936,-0.06784694,-0.037075184,0.06499495,-0.031856444,-0.017676089,-0.08853879,0.10086473,0.010345521,0.0126559,0.022663143,0.024441633,0.05027092,0.06808273,-0.055931326,-0.12916465,-1.8901774e-08,-0.031022053,0.00771261,0.05508012,0.02996221,0.005294475,0.062260963,0.002602659,0.010734923,-0.06689742,-0.045539822,0.002669761,0.024748234,-0.05289644,-0.09425957,0.01207624,-0.03166192,-0.01686892,-0.117333144,-0.06658195,-0.030533489,0.009596493,0.054227833,-0.015022435,0.027204085,-0.03143299,-0.0115910685,0.061796203,0.10046102,-0.0014790826,-0.06300813,0.03748002,0.03805279,-0.024384016,-0.055624634,-0.05147216,0.03407135,-0.08099181,-0.071640536,-0.011755437,0.021929955,0.0024813118,-0.0480906,-0.11747583,0.01634193,-0.0038115548,0.019333795,-0.10014196,-0.14722627,-0.038365293,-0.03663449,0.011219108,0.01811482,0.030688915,0.08989843,0.07927166,-0.059794042,0.017900478,0.011894382,0.05764926,0.053233188,0.01460257,-0.029317003,-0.093019284,-0.010348684,13.0
QID12,-0.006246693,0.10795394,-0.043861263,0.09752031,-0.03284187,0.0338444,0.029984023,-0.03051995,-0.009469068,0.06551999,0.02343958,-0.048889782,-0.059389025,-0.02308846,-0.0007692502,-0.011785407,0.04215147,-0.029036883,0.008480049,-0.02043751,0.0352648,-0.045520276,0.033945087,-0.040339552,0.027652107,0.013771372,-0.056998253,0.06790245,-0.00069181994,-0.0418464,-0.0048361844,0.020925334,0.07264994,-0.04542384,-0.10510313,-0.047651183,-0.026581027,-0.017979404,0.11379231,0.0060602976,0.03777869,-0.038241994,0.01420057,0.05915289,0.035409115,0.044410754,0.027001644,-0.0022491633,-0.027815228,-0.004137693,0.0635714,-0.03171324,-0.034616016,0.14075966,-0.011913992,-0.0027375408,-0.06346026,-0.033272684,0.005430195,0.013517729,-0.11569344,0.010359612,0.0335254,0.026894817,-0.02218888,0.0033838307,-0.00039911532,-0.11161492,0.055957824,-0.03257734,0.01561611,0.090034224,0.017875006,0.07167548,-0.020755209,0.010314573,0.107705355,0.045564648,0.018358694,-0.051489618,-0.12707539,-0.013904006,-0.051816292,0.09604635,-0.022315433,-0.038454942,0.06553431,0.10115514,-0.042832162,0.005382736,-0.04691759,-0.016800864,0.010745688,0.013986518,0.01342826,0.017803015,-0.016357768,-0.012297282,-0.040208247,0.035401106,-0.04629377,-0.015695142,0.06650363,0.13245104,-0.0024677368,-0.027680831,-0.047030192,-0.04992645,-0.06562977,-0.029547686,-0.04922069,-0.047647495,0.034237105,0.08043055,0.014354301,-0.009251964,0.0047633983,0.04604276,0.04339799,0.009216412,-0.014531573,0.052260336,-0.01635027,0.009620048,-0.1460539,-0.06207882,0.057490915,-5.8730817e-33,-0.017471045,-0.085019596,0.03774058,0.124097206,0.016719,0.09183528,0.041602712,-0.029049503,0.019827582,0.012856613,-0.022717392,-0.02712087,0.01018946,-0.03900857,0.03868589,0.08602791,-0.06652991,0.020457108,-0.027485097,0.09550626,-0.0026651372,0.14184566,-0.07797419,-0.07736962,0.0967651,0.060961597,0.012689235,-0.06479457,-0.035138294,0.013448469,0.029568318,0.04355942,0.06746534,-0.057260744,-0.022311833,-0.0057804305,0.003599164,-0.012329932,-0.033750013,0.023206102,0.029002152,-0.045902476,-0.026662905,-0.017989838,-0.08749827,-0.023916129,0.076789625,-0.0042136014,-0.022677748,0.011889848,-0.08291473,-0.0053350865,-0.0063111847,-0.041161254,-0.026849698,0.0473173,0.06444097,-0.034229998,-0.122185245,0.008976594,0.0236059,-0.047199495,0.034046028,-0.009377126,-0.09073081,-0.10089291,-0.0014915454,-0.03278401,0.07429661,-0.050920527,-0.052394062,-0.005014999,-0.06127505,-0.009690508,-0.024063034,0.100028865,0.06289071,-0.036050852,-0.044661544,-0.04114589,0.07291775,0.09343634,-0.007134563,0.025426729,0.016567798,-0.0911787,0.021346528,0.009084576,0.014534343,0.047510166,-0.006233111,-0.030389143,0.032022253,-0.05264819,0.030585267,2.7986355e-33,-0.059054896,-0.027526125,-0.020934679,0.0055515645,0.020252053,-0.09032838,0.06976894,0.0023188547,-0.058278818,0.07510099,0.060133,-0.043190803,0.042951867,-0.03535155,0.05819254,0.0509104,-0.11258557,0.04604547,0.029086206,0.015281491,-0.05117352,0.10753502,0.024702141,0.009300464,0.016112858,0.052283127,0.07440244,-0.0069759097,-0.030157909,-0.0002597499,-0.056251507,-0.0051596537,-0.0649157,-0.004134646,0.015539535,-0.005826167,-0.022705356,0.054740135,0.022847371,-0.030270545,0.03717499,-0.006675306,-0.064950176,0.15089548,-0.03182207,-0.037810817,0.05867187,0.024618398,0.06068651,0.056691855,-0.10274135,0.0014933931,-0.06121214,-0.06673993,0.02194961,-0.035853975,-0.027464163,-0.031585462,0.06822434,0.0791807,0.028349632,0.056288447,-0.09057655,0.014625209,-0.091293186,-0.010560749,-0.01002065,-0.051646553,-0.12579112,0.021163058,0.039200313,-0.03277816,0.02968664,0.015875675,-0.016794775,-0.09929454,-0.024966745,0.034333065,-0.020908214,-0.003194811,-0.027666384,-0.03091258,0.062051076,0.042226978,-0.07339584,-0.09609359,0.0505668,0.039079078,0.020768318,-0.07446465,0.025980875,0.045564827,-0.13519815,-0.029440112,-0.032955784,-1.6564185e-08,-0.017982261,0.080491364,-0.07975996,-0.04554181,0.040989622,-0.042477984,0.032784656,0.014441268,-0.006644236,-0.012902755,-0.053405717,0.043510526,0.041660707,0.033906862,0.06540649,-0.04433688,0.063092455,0.08144569,-0.0026839187,-0.035538092,0.04054874,0.020590058,0.0015922828,-0.033037465,-0.042875104,0.008191254,0.09882974,0.027363515,-0.028868914,0.032430645,0.06431404,0.036528192,-0.049259357,-0.016071027,-0.07411882,0.052674137,-0.054103423,0.007962511,0.04221717,-0.04029012,0.030705879,-0.008832326,0.027718617,0.058615156,0.017627766,0.05272266,-0.061356332,-0.027430974,-0.057772085,-0.026467862,0.004328983,0.05247769,0.025135752,-0.005693851,0.022824071,-0.031474054,-0.0028189777,-0.022619663,-0.0391387,0.05607768,0.001655074,-0.0058247936,-0.026229871,-0.03642218,2.0
QID120,-0.044769164,-0.011819824,-0.049491912,-0.050141927,-0.023239145,-0.02949401,0.14370248,-0.014692859,0.042942017,0.016129201,0.035376623,-0.094213344,-0.01660527,-0.016152795,0.02854692,-0.030625585,0.015664699,0.043023527,-0.067400284,-0.022791022,0.07044509,-0.06200414,-0.00833062,-0.010151151,0.09081084,-0.04756226,-0.040355273,-0.0591209,-0.01935666,0.0053324383,-0.053731102,0.0042774123,-0.009660758,0.0374564,-0.052079994,-0.032911077,-0.07895697,0.022709185,-0.091679566,0.11515604,-0.016881807,-0.021633938,0.008242087,-0.025377572,-0.06758185,0.025790093,0.03753194,0.14253294,0.024853174,-0.00035984025,0.0017261598,-0.0453219,-0.075585924,0.10326234,0.010749607,-0.05810125,-0.003711677,0.047744323,-0.04047571,0.049984064,-0.060997814,0.020833531,-0.022774681,-0.03530246,0.105056815,-0.009911746,-0.11628848,-0.06304847,-0.06498466,-0.0011806944,0.03713905,0.028007025,-0.024077453,-0.05801131,0.039643124,-0.028740887,0.051083047,-0.038496524,-0.04365775,0.0967127,-0.045220006,-0.036665224,0.0511089,0.003453948,0.013083896,-0.040115822,0.02253508,0.04790821,-0.009319966,-0.010735689,-0.016787555,0.0483939,0.040023033,-0.0055033206,-0.079792105,0.088808164,-0.038835354,-0.003045596,-0.04233658,0.06193675,0.008702733,0.05433012,-0.029786488,0.016871013,0.093185134,0.037922107,-0.0052703805,0.026716633,-0.07246682,-0.022968637,-0.06792064,-0.026242992,-0.025424896,-0.004260179,-0.07996992,0.086274594,0.0010687162,0.044011798,0.0060330792,-0.029210834,0.0052954755,0.0024434244,0.028471584,-0.07656235,-0.13793701,-0.054985654,0.058073204,-3.1657767e-33,-0.09855731,0.053616658,0.00013840772,0.0029095686,0.02886971,-0.021799967,-0.076152034,0.050800283,0.0012963838,0.012128893,-0.058745597,-0.05800086,0.14255333,0.14104708,-0.043700334,0.016847208,-0.040642336,0.019179117,0.030459344,0.0020001882,0.03318275,-0.035090815,-0.014251011,0.009438816,0.0049318457,0.01745208,-0.03126337,0.012220602,0.13972856,-0.046560284,0.028246861,0.029874148,0.0014110837,-0.029139295,-0.0041052476,0.057154644,0.07158326,-0.055569302,0.05670961,-0.02122865,-0.07244991,-0.035587586,-0.012419897,0.018966964,-0.022230757,0.0644892,0.042907078,-0.07674271,0.0016472309,-0.0117503265,0.032377575,0.03303173,0.045861106,0.076070204,0.0203606,-0.10437911,0.044627167,0.060142566,-0.0058127358,-0.025802188,0.045009762,-0.06567613,0.048816964,0.04879773,-0.032113653,-0.039086062,-0.034128327,-0.0062332777,0.081012234,-0.014943041,0.008871278,0.07265469,0.021542605,0.047967765,-0.0049640574,0.0053267917,0.025834136,0.054555923,0.111883126,-0.004159753,0.03836241,0.011849292,-0.00030374737,0.11247411,0.056004763,0.07669026,-0.02768251,-0.050241828,-0.052995857,0.0116564175,0.065431185,-0.025046242,0.0470545,0.01935413,0.03408097,1.289751e-33,-0.06777786,0.09135011,-0.043604527,0.0032469293,-0.008694378,-0.020816809,0.06801432,0.0059286687,0.048498444,0.06270178,-0.09892652,0.00049407396,0.06338545,-0.029310174,0.05316895,-0.05265127,-0.025478367,-0.064025834,-0.014798279,0.012585174,0.010972192,0.005463169,-0.050717577,0.029757284,-0.009452343,-0.029791044,0.09639895,-0.0785909,-0.042762164,0.00037308206,0.024771784,-0.06752882,-0.06146658,0.00847059,-0.0371559,-0.039867353,0.01528674,0.027734512,0.03963437,0.05372457,0.041825514,-0.013371733,0.05677279,-0.0021503558,-0.06401625,-0.010922705,0.00028025845,-0.060201053,0.022517588,0.068796024,-0.0056436295,-0.027266344,0.007803687,0.013310329,-0.08976167,0.06781452,0.04175985,-0.07458049,0.1454421,0.01920353,-0.039918054,0.015554872,0.06894406,0.005012328,-0.024905352,0.00092139986,-0.0006350176,0.032688223,-2.6641299e-05,-0.038641278,0.034502983,0.0053873383,-0.013096841,-0.038304202,0.025245372,0.0005072106,0.024279539,0.0848303,0.029483603,-0.019418057,-0.009178392,-0.027011985,0.076303564,-0.03460872,0.009541953,-0.08960782,0.103088,0.013383894,0.017718,-0.047288205,0.023407254,0.087391354,0.07100479,-0.04836483,-0.09869374,-1.9466903e-08,0.019671848,-0.02019661,0.06396878,0.047825683,-0.00378325,0.048977423,0.040724933,0.03192678,-0.08050069,0.007413466,0.009493409,-0.0281543,-0.04167509,-0.07838867,0.056371175,-0.025641348,0.049939707,-0.08620175,-0.050287206,-0.024446642,-0.048314977,0.0586341,0.01958189,0.024163108,-0.031136688,0.034715895,0.034983482,0.107342236,0.010691653,-0.038841777,0.02186044,0.04078881,-0.020656843,-0.0038414171,-0.051880363,-0.02041665,-0.09097089,-0.07088393,0.0006696979,-0.011330117,0.003678235,-0.016784802,-0.12003701,0.021144927,-0.006150588,0.012030868,-0.10265711,-0.09755122,-0.055305276,-0.07707873,0.018520558,-0.016226077,0.022669954,0.09048271,0.032052033,-0.14073901,-0.012242494,0.00326346,-0.00219349,0.07944481,0.03667034,-0.036572143,-0.069349356,-0.041145615,10.0
QID121,-0.017414726,0.022670718,-0.0061925855,0.0044653965,-0.058214124,-0.038673528,0.09839407,-0.004706693,0.040821716,0.036111522,0.018800072,-0.058824904,-0.021013295,-0.079055406,0.023347037,0.029789802,-0.018049404,0.009625037,-0.08110623,0.023919785,0.048642047,-0.0832648,-0.038105,-0.021219803,0.08317907,-0.06988201,-0.057598274,-0.021322487,-7.9384525e-05,0.010679669,-0.017543878,0.054066435,-0.04497537,0.043610778,-0.058943566,-0.028694734,0.025929475,0.048147216,-0.070313126,0.041179705,-0.016031502,-0.037021186,-0.0113327205,-0.04461533,-0.03599851,0.02899017,0.051385812,0.17813352,0.052748606,-0.02161483,0.009963898,-0.047219295,-0.05602847,0.07847846,0.042274185,0.0013067375,-0.04675659,0.05927625,-0.0050671105,0.06984708,-0.062024213,-0.010556298,-0.04196093,0.010813121,0.08978162,-0.04095824,-0.092164144,-0.02840515,-0.05366806,-0.035780776,-0.025314162,0.01440297,0.026043551,-0.037463635,0.052341703,-0.08697978,-0.008816378,-0.08368476,0.009651537,0.062380075,-0.063657835,-0.069871806,0.02941964,-0.02996704,-0.002830509,-0.031675298,0.07623183,0.03436843,0.014945397,-0.009397721,0.05229261,0.040474378,0.06933724,-0.04233543,-0.089505404,0.08058238,-0.045072224,0.04515555,-0.006349566,0.05601215,-0.0075360886,0.015689656,-0.061588,-0.026525697,0.13009761,-0.0024688104,-0.036470104,0.0140282335,-0.019440377,-0.039757196,-0.03478063,0.017054675,-0.010517215,0.037248306,-0.030303536,0.11847542,-0.0046076705,0.07532918,-0.014274333,-0.054781213,0.014522075,0.039792016,0.020757252,-0.04947187,-0.14497992,-0.08424034,0.08200266,-3.7338182e-33,-0.116331495,0.05332322,0.04990617,0.023067353,0.034110148,-0.032528378,-0.033594925,0.01878972,-0.0074210004,0.02509069,-0.060403097,-0.07678793,0.13603364,0.15665467,0.016152674,0.01038318,0.022629788,-0.0011056088,0.06928408,0.011945631,0.017464235,0.009772744,0.0034645468,0.021613013,0.010420196,0.026054805,0.0039679906,-0.031029163,0.13686568,-0.0194835,-0.014638494,0.03563337,0.030239927,0.02311987,-0.01814449,0.024390033,0.04321502,-0.007666748,0.045934994,-0.05421681,-0.018591702,-0.004260489,-0.074262716,0.063316055,-0.05932197,0.001747577,0.06859604,-0.0835375,0.0057392158,0.0136458445,-0.040853832,0.013274961,0.029615952,0.075544916,0.04611572,-0.06045086,0.039064858,0.044300154,0.009356285,0.012292459,0.029200953,-0.04401001,0.034191247,0.07347821,-0.026160479,-0.08756068,-0.03912359,-0.026647922,0.0012499583,0.031310864,0.01642637,0.08528258,0.04987029,0.041621953,-0.021094136,-0.024814619,0.053895053,-0.0015485708,0.07830214,0.011682054,0.01696264,0.012957118,0.029838411,0.061957065,0.040417563,0.08353769,-0.07027787,-0.04200245,-0.055286992,0.04648414,0.047548737,-0.04904468,-0.015711298,0.022841696,0.08786177,9.404655e-34,-0.06455349,0.10560279,-0.004101043,0.016637148,0.014061501,-0.0138514945,0.11043128,-0.008160706,0.062104493,0.050407372,-0.080181226,0.05363192,0.049412303,0.032131873,0.038579434,-0.08284649,-0.01801721,-0.04229716,0.02935413,-0.025484994,-0.04025307,-0.01744853,-0.06085604,0.015115267,0.032124165,-0.010680017,0.11862466,-0.10833354,-0.04585437,-0.01614852,0.05588731,-0.046705525,-0.03817731,-0.01527884,-0.004341829,-0.04158874,-0.0181103,0.015053339,0.0030422364,0.085712254,-0.00733966,0.009716053,0.06333161,0.0020259635,-0.039095223,-0.105196476,0.022841334,-0.075073496,0.0023280813,0.0154205635,0.0056168768,-0.018012838,-0.016956776,0.034084264,-0.10118282,0.00041432245,0.0178884,-0.06409695,0.11528791,-0.0026164954,0.0038269046,-0.035816856,0.01232999,-0.0113108335,-0.010165045,-0.031124514,0.0077244495,0.048912615,-0.035798512,-0.016084801,0.06569885,-0.008184245,-0.037016224,-0.078404136,0.0034275425,0.032465097,0.013394919,0.0586827,0.037142754,-0.033322256,-0.047306053,0.011499159,0.046635836,-0.010546536,-0.0063012796,-0.093992755,0.1385307,0.0038227455,-0.047687717,-0.028292032,0.0055052405,0.035056327,0.043302238,-0.074534036,-0.12172427,-2.0218735e-08,0.0055514625,-0.10086633,0.07266566,0.015323554,0.042653393,0.0484319,-0.014468276,0.047983635,-0.1049634,-0.024782607,-0.021987632,0.015300023,0.019411003,-0.10055092,0.016209755,-0.00638074,0.021327358,-0.07126334,-0.078811675,-0.009636338,0.018157875,0.023014843,-0.041452616,0.02807626,-0.050628003,-0.01302388,0.06099214,0.10164926,-0.001398578,-0.09271264,0.0034288818,-0.010886583,-0.012558264,-0.0016176888,-0.0274795,0.02825555,-0.09772657,-0.124075085,-0.025353434,-0.007449159,0.014754055,-0.04669123,-0.059290882,0.025034364,0.017592425,0.045063473,-0.04236865,-0.09141209,-0.07352368,-0.053360786,0.0045747566,-0.018220289,0.031632453,0.06498452,0.04489571,-0.06391172,-0.007142232,0.020829111,0.029558929,0.044686407,0.04021537,0.0007448932,-0.05081386,-0.02677449,7.0
QID122,-0.056929212,-0.010510629,-0.050239746,-0.02676993,-0.050341077,-0.086269274,0.16190071,-0.06675887,0.08311307,0.03260761,0.03105955,-0.10176067,0.028513065,-0.036639515,0.028264392,0.005548586,-0.00012910912,0.009359385,-0.041671816,-0.00534427,0.063679375,-0.092209,-0.020521943,0.029704165,0.07043195,-0.0737341,-0.044833954,-0.04423741,-0.01588092,-0.0116236545,-0.039424043,0.008766414,0.006643833,0.015621351,-0.036390085,-0.029740835,-0.042357787,0.0028639475,-0.08435697,0.10643986,-0.0030889397,-0.019243939,0.0011107004,-0.026251096,-0.08720779,0.015080866,-0.0123039875,0.17188345,0.03494489,-0.028726395,0.025061114,-0.019794328,-0.06292236,0.10854064,0.014406375,-0.043940473,-0.0286055,0.08951552,-0.038618695,0.06786598,-0.06702753,-0.014484635,-0.03140192,-0.04883995,0.1332551,-0.030824305,-0.10423827,-0.064317115,-0.054868,0.015748577,-0.02779663,0.0052710567,-0.030343665,-0.038899083,0.046035774,-0.041510936,0.030043758,-0.018036628,-0.011822641,0.07731393,-0.0734105,-0.06844454,0.030320182,-0.0012971656,0.022281414,-0.018114634,0.009174979,0.030249301,0.037773333,-0.008615144,-0.015984196,0.039760612,0.05979049,0.0072140116,-0.046986293,0.09461291,-0.0327446,0.014382453,-0.014701818,0.05826114,-0.011538136,0.052585535,0.0023295963,-0.005609258,0.07200096,0.040604062,-0.030982519,-0.009516163,-0.040779237,-0.0075591914,-0.07287966,-0.03683845,0.0041900733,0.020263167,-0.099777035,0.09872426,0.009950024,0.054249454,0.012270927,-0.059242032,0.023771022,0.00013933175,0.026502375,-0.07054895,-0.13717908,-0.089159586,0.08251738,-2.9524699e-33,-0.07951827,0.077063665,-0.0059182704,0.0076653305,0.01666372,-0.0034640478,-0.03026169,0.040051933,-0.0047331327,0.011856857,-0.054157443,-0.027410874,0.16186355,0.13148783,-0.0846412,0.027123068,-0.017510926,-0.0077775745,0.038432244,0.0030479103,0.04344979,-0.02384485,-0.021206403,0.0051905364,0.011545914,0.00014456503,-0.026795087,-0.025010267,0.14556703,-0.03091181,0.03362325,0.040288564,-0.015564458,-0.030640936,-0.028218634,0.06225204,0.06665805,-0.035358272,0.051140945,0.0023264843,-0.07345419,-0.011323376,-0.011398222,0.03057735,-0.06680544,0.046919286,0.04973513,-0.038945537,-0.0154198455,0.021273475,0.0070540677,0.02548144,0.01955135,0.03866038,0.022057502,-0.05844314,0.033691645,0.05979741,-0.0076342085,-0.041833885,0.02110861,-0.054484434,0.055552673,0.06879801,-0.020126991,-0.04578914,-0.055948365,-0.0030919292,0.0571532,0.013148005,-0.013663698,0.09428753,-0.001367904,0.029553937,-0.023553068,-0.021522744,0.021473285,0.030740798,0.080352455,0.023110447,-0.024342611,0.0019946226,0.016670577,0.108363695,0.045407567,0.09304746,-0.016300274,-0.07342202,-0.046702407,0.0017514403,0.07281556,-0.011872814,0.068192005,0.03134834,0.027423348,9.337833e-34,-0.07265151,0.08662925,-0.016155614,0.0039831875,-0.0012666031,-0.00847068,0.07577831,0.01572137,0.064728625,0.0824268,-0.08522853,0.02839341,0.010153585,-0.0015868791,0.05637188,-0.047400013,-0.0151177775,-0.07646374,-0.025600364,0.013124423,0.004968263,0.006060839,-0.06259294,0.050466456,-0.035376035,-0.010074138,0.09751435,-0.09298459,-0.030287186,0.011519114,0.04704459,-0.05388785,-0.022696164,-0.010701772,-0.014659891,-0.028512863,0.0006727087,0.027227819,0.055105444,0.08504912,0.0007758844,-0.007036769,0.07979746,0.016910724,-0.03889246,-0.043592513,0.010827916,-0.05179832,0.019002113,0.045306403,-0.031123852,-0.0063745934,-0.0007157796,0.008386496,-0.059814148,0.037777003,0.04178848,-0.06582061,0.13142756,0.015973544,-0.025669338,-0.0018975664,0.06481902,0.027205575,-0.020288523,-0.021865299,-0.013578239,0.018351255,0.011340909,0.007002047,0.07366611,0.013540208,0.0017184708,-0.07046473,0.026082018,0.035472248,-0.011469085,0.05503263,0.0034339589,-0.028741658,-0.00803147,0.019381683,0.031941317,-0.0397307,0.003587842,-0.08976787,0.1393979,-0.0038817169,-0.024550771,-0.061223153,0.0010412027,0.07502984,0.04087317,-0.03141868,-0.119431384,-2.0699854e-08,0.0071682227,-0.013774169,0.032360088,0.048709434,-0.00096819026,0.07358158,0.011793227,0.015394303,-0.078492165,-0.012610362,0.0010437561,0.0029189405,-0.013093391,-0.08001532,0.07161284,0.004228846,0.008567605,-0.099473886,-0.065277,-0.036285866,0.0032598693,0.053220693,-0.015406125,-0.03530235,-0.027690465,0.013974416,0.0323416,0.11326235,-0.012638062,-0.062141616,0.010169644,0.027742505,0.0392575,0.026620498,-0.041698325,-0.0047773365,-0.12670374,-0.062223673,-0.009971449,-0.0032217545,0.013472672,-0.01375213,-0.111912265,0.0041144537,0.007394873,0.022576027,-0.06345677,-0.10952276,-0.09000006,-0.09084598,-0.007967707,-0.028084746,0.03336297,0.086705394,0.057443332,-0.08625278,-0.028046178,0.025379324,0.030291554,0.03871959,0.0005075768,-0.028772693,-0.08280992,-0.015464405,4.0
QID125_r1,0.050686896,-0.11360662,0.069678,0.114945255,0.062107224,-0.00018157746,0.047735747,0.042431768,-0.02801132,-0.050333697,-0.0495863,-0.055060502,-0.00046937424,0.06326442,-0.032026995,-0.015433606,-0.013045755,-0.09298426,-0.020177368,0.06476964,-0.04868953,0.042686976,-0.006405102,0.0040036174,-0.0021759141,0.07052809,-0.0010721114,-0.024658628,-0.021348713,-0.058853697,-0.09382337,0.06704691,-0.07640392,-0.013526887,0.03017319,0.036714062,-0.0055128406,-0.06630364,-0.034864455,-0.02279294,0.020474233,-0.06017884,0.039315663,-0.04050571,0.035982683,-0.03472109,0.0062915306,-0.00063879084,0.014573545,0.04448902,0.014609564,-0.09857826,0.02854785,0.040725313,-0.0048629986,-0.045428924,-0.061390202,-0.011668558,-0.01711992,0.020684347,-0.05353049,0.07493797,-0.0137620885,0.0056612436,-0.02548527,0.050192963,-0.02309256,-0.08013167,0.08183892,0.08091238,-0.039561585,-0.03424662,0.022982104,-0.09510664,-0.015220716,-0.035849776,0.032439236,-0.009590857,0.022895033,-0.03250604,0.013072659,0.15835415,-0.044144966,0.039984047,0.048344556,-0.026454857,0.052884106,0.088349506,-0.061474945,0.015846463,0.07047569,0.014518262,0.0322986,-0.018616159,-0.03680047,0.048024286,-0.04682252,0.0018316233,-0.10481632,0.030796586,0.0032004248,0.003755125,-0.043584023,0.059483588,0.049158327,0.06331048,-0.073015355,-0.082275674,-0.11732266,-0.019130528,-0.009636412,-5.8497404e-05,-0.018672269,-0.03210991,-0.036648005,-0.054865938,0.0525803,0.08918874,0.104131125,0.0960099,0.017111652,-0.041422483,0.034109645,-0.021502072,-0.020452397,0.06279897,-0.10094461,-8.7518e-34,0.12029143,-0.0032686808,0.032965705,0.067015156,-0.041903745,-0.02796821,0.006627629,0.10399886,0.057802726,0.06514908,0.03029288,0.093717955,0.018362256,-0.0009124778,-0.08101838,-0.03555102,0.01595479,-0.04550271,-0.014920458,-0.025860658,0.030069174,0.024581835,-2.5192874e-05,0.107889935,-0.06213273,-0.05413631,-0.07282905,0.018237168,-0.014268563,-0.01923579,-0.029235225,-0.022293648,0.06631453,-0.046388414,-0.041887395,0.06575271,0.099096656,0.09172429,0.019875245,-0.10522127,0.039091177,0.04251248,0.0083837835,-0.009849377,0.054082543,7.463165e-05,0.0031706644,-0.09239468,-0.010923957,-0.015550988,-0.038246483,0.035644077,0.014308027,0.04978297,-0.033497766,0.019579886,-0.0166081,-0.031063074,-0.0018733237,0.046892554,0.02221625,0.00028843255,-0.011918196,-0.119520426,-0.03673668,0.036052234,-0.00037076796,-0.040998716,-0.06719279,0.06602048,-0.0085041635,0.029691013,0.0829746,0.009681589,0.0049571334,0.04519928,-0.10999937,0.00096817437,-0.06400716,-0.050487846,0.024110781,0.018453812,0.06535579,0.055264734,0.029474642,-0.029308083,-0.02430581,0.028696606,-0.03551964,0.016484475,0.0035009529,0.061197627,0.06962786,-0.0655537,-0.04732781,-1.5811246e-33,-0.06434902,0.06690261,-0.00037470422,-0.0059317546,-0.05731316,-0.09317152,0.023393843,0.089939125,-0.05754129,-0.05668248,0.058356766,-0.056477256,-0.011715995,0.01566472,-0.059119117,0.0568188,-0.04438805,-0.024512636,0.07079562,0.02008077,-0.04405409,0.073494926,-0.015878238,-0.01612791,0.05852331,0.02037931,0.029765591,-0.0012339114,-0.07039748,-0.015912274,0.032327723,0.021470772,-0.014632244,0.011464456,-0.04318727,0.027862752,-0.0024778403,0.020622605,-0.010928673,0.0024561798,0.014312554,0.01897139,0.07406325,0.099782094,0.0914032,0.000724982,-0.088106245,-0.045385156,-0.020489065,0.07229905,-0.012685753,-0.019356979,-0.08483285,-0.04775405,0.057080574,0.021466007,-0.04371991,-0.08683724,-0.038906284,0.029481135,-0.008299637,-0.065208815,-0.08679274,-0.12703304,0.08570354,0.023717681,0.03951635,-0.09565522,0.105539255,-0.02115614,-0.01791125,-0.039919063,-0.02391536,-0.13780768,-0.009468265,0.06214417,-0.009786138,-0.010432619,0.019641375,-0.062821954,-0.088826194,-0.028341273,0.040852103,-0.05264611,-0.050220825,0.055842075,0.006680806,-0.028096093,0.02482921,0.010543378,-0.005294186,0.02727355,-0.08758337,-0.002973446,0.02188923,-2.4094222e-08,0.024388013,-0.00025879772,-0.08979469,0.016362589,0.05895036,-0.05538868,0.025751326,0.018483466,-0.04657084,-0.012752854,0.022288086,0.0046669804,-0.04147721,-0.027077453,-0.015482157,0.026737068,0.0029674417,0.09721769,-0.01707526,-0.04981727,0.04528885,0.062492993,-0.02344499,0.005058328,0.0069516003,0.027820654,0.01839044,0.053004652,-0.025268342,-0.016920313,0.020879583,-0.030178158,0.02327812,-0.026537778,0.0162762,-0.07869613,0.0028302672,-0.0016276408,0.0093525695,0.03755218,2.17985e-05,0.018333146,-0.082935244,0.04338896,-0.007587533,-0.057578936,0.026676595,0.036354046,0.09605555,-0.032301277,0.039024826,0.020662218,0.042386808,0.06201413,-0.0045205127,0.03191786,-0.0001450762,0.10624072,0.0049025007,-0.010222745,-0.048101127,-0.13847084,-0.13079192,-0.0023781864,4.0
QID125_r10,0.09691854,-0.08506023,0.014114539,0.05024941,0.06272518,-0.032351036,0.022994462,-0.0034841571,-0.026765926,-0.06199177,-0.009698563,-0.08034765,-0.01579771,0.061418276,-0.021389509,-0.022954654,-0.035913628,-0.069200695,-0.06772096,0.08019046,-0.05479149,0.026756383,0.040561344,0.032468818,0.005460971,0.07759687,-0.014563816,-0.0725514,0.009986975,-0.057592075,-0.04446072,-0.088805184,0.00954541,-0.037556812,0.01498876,-0.012007363,0.01977588,-0.020273106,-0.042946797,-0.0390934,0.013152989,-0.026957335,0.012485317,-0.062653765,-0.02753912,-0.015274276,-0.05105994,0.08193908,0.0052340296,-0.01991189,-0.057157192,-0.1186391,0.02185739,-0.0027781073,-0.0014019058,-0.051437456,0.018206462,0.03164772,0.026337225,0.06720191,-0.088376135,0.054399148,-0.055362593,0.058621228,-0.029073916,0.10755444,0.0087852,-0.025153816,0.10118497,0.13351433,-0.0061152545,-0.057624646,-0.0025797049,-0.09518273,0.028408611,-0.01909938,0.02569894,-0.08123896,0.0036658118,0.044556934,0.0067100907,0.07764267,-0.025634458,-0.00620431,0.017415881,-0.027006017,0.030825654,0.07946327,-0.08573537,0.015872216,0.084846884,-0.073261715,0.08156974,0.027742974,0.048954293,0.039826196,-0.063335046,0.0054616006,-0.08646806,-0.00047634833,-0.024892919,0.017298706,-0.030393872,-0.012164313,0.035169493,0.07991287,-0.08106973,-0.056358587,-0.08193387,-0.0042486764,-0.065724365,0.063267596,0.045735847,-0.07366455,-0.03140782,-0.035130728,0.035757776,0.024416858,0.09230832,0.042955123,0.0070968643,-0.031275313,0.003786787,-0.04486571,0.026066612,-0.014746174,-0.17379682,-2.7453285e-33,0.10127225,-0.021879721,0.024270644,0.06369053,-0.05204243,0.025614941,-0.021077907,0.04326303,0.06822196,0.07169585,0.08574206,-0.0380497,-0.0888385,-0.05873711,-0.043850545,-0.05400272,-0.062822215,0.030848015,-0.11158197,0.1131367,-0.025666324,0.020354887,-0.030956905,0.08164125,0.0046181087,-0.034533653,-0.050771244,0.00076924753,-0.013973491,-0.0072561414,-0.020738367,-0.04776298,-0.00071076927,-0.009073436,-0.10042296,0.017350402,0.07669026,0.045241825,0.016958667,-0.11745342,0.00839562,0.06346588,-0.0756212,0.02048996,-0.020567391,-0.036986966,-0.012087215,-0.022285298,-0.011154871,-0.018145513,0.051837385,0.02207471,0.02654783,-0.020313531,-0.0086481245,-0.0253617,0.029881353,-0.05615717,-0.010880635,0.009706006,0.06297388,-0.0047777602,0.011660564,-0.069463775,-0.045480657,0.022244047,-0.03022954,-0.0109222885,0.0055272495,0.01147126,-0.08095972,-0.031814102,-0.008376572,-0.057714116,0.040311627,0.047346093,-0.021836102,-0.079392105,-0.013040115,-0.047908157,0.046489645,-0.008614883,0.07685581,0.064107895,0.0014000447,-0.02693945,-0.072817154,0.016474064,0.00913198,0.04424809,0.051290166,0.0043922905,0.07967639,0.018846521,-0.019891739,-7.2996137e-34,-0.072812684,0.024215698,0.01891753,0.011664315,-0.066756986,-0.023786386,-0.0211104,0.08010515,-0.02695847,-0.07470688,0.005337544,0.010917951,0.0049774493,0.02980932,-0.022065219,0.039773487,0.066077426,-0.02915189,0.046318945,-0.036709145,-0.07822146,0.0077509335,0.008549292,-0.034042507,0.0010945132,0.067386575,0.038239647,-0.043956995,-0.00045690426,-0.072925694,0.026610255,0.070223235,0.045351725,0.050212014,-0.0040589753,-0.014658214,-0.0042012827,0.037754223,-0.040279113,-0.08719095,-0.057418723,0.04418988,0.052507516,0.088144474,0.027548404,0.010745267,0.04118931,-0.08830558,-0.051692218,0.064312086,-0.02229956,0.07186263,-0.07028666,-0.018562585,0.04476302,0.058210887,-0.004257067,-0.14874466,0.0030866705,-0.0051385094,-0.08297362,-0.001751179,-0.06856063,-0.08614882,0.05751676,0.03128464,0.023913728,-0.06775769,0.040582113,-0.0243216,-0.03465428,-0.07168582,-0.0031321645,-0.04498698,-0.004165845,0.05390454,-0.046245027,-0.011635833,0.03524321,0.01989513,-0.05791588,0.058055326,0.06403253,-0.014813972,-0.03569101,-0.0010589993,0.019954082,0.03367532,0.018131232,0.053846635,0.02881313,0.074211925,-0.072008364,0.024553617,0.06439924,-2.3542137e-08,0.013904638,-0.015372909,-0.060759608,-0.020394739,0.047319178,-0.06397604,-0.032517236,0.06279078,-0.09907941,0.027554918,0.0531493,0.031718157,-0.09268016,0.014342255,-0.021823937,-0.03718994,-0.012365259,0.09027393,0.0097167315,-0.017279787,-0.02385869,0.059018422,-0.059949245,-0.0028708824,-0.055345714,0.042392205,-0.050210007,0.12838241,0.024394706,0.007205832,0.05974843,0.052907646,-0.009327487,-0.056136012,-0.11008963,-0.058415934,0.023781031,-0.012427645,-0.00594843,0.020682449,0.063457415,-0.017607806,0.055344418,0.055321794,-0.0015100611,-0.0008338641,0.019301156,0.05377095,0.06241989,-0.02002982,0.031931885,0.03908538,0.06801446,0.115720056,0.022644516,0.05167791,-0.047241073,0.061261695,0.050188135,0.00788969,0.03433758,-0.08685957,-0.07973815,0.07736611,4.0
QID125_r11,0.06529158,-0.0713976,0.06642194,0.080590405,0.053942204,-0.03547397,0.038555697,3.8800372e-05,0.0012677902,-0.11224054,-0.049233172,-0.04446244,-0.0004245063,0.0013574965,0.006362162,-0.024459127,-0.059769757,-0.08262451,-0.048831306,0.12586933,-0.10805853,0.019441565,-0.023434725,0.0360777,-0.004641831,0.124992535,-0.029010328,-0.03610716,0.037567284,-0.033231832,-0.10414315,0.039052587,-0.06051066,-0.0125055425,0.018225629,-0.002044306,0.0064083184,-0.040233187,-0.04720233,-0.033318672,0.019609634,-0.059769623,0.056096584,-0.06124142,0.011437385,-0.010517781,0.018784808,0.0789694,0.027192941,0.027729679,-0.023661299,-0.123609774,0.06822657,-0.021452041,0.02750648,-0.016564475,0.03458356,-0.0029067544,0.050688174,0.06877202,-0.027134623,0.095866606,-0.07229231,0.059948526,-0.003639772,0.07491143,0.03533805,-0.056232482,0.100983426,0.13153937,-0.018555239,-0.028273772,0.0076106144,-0.03136555,0.03926947,-0.019321242,-0.03321761,-0.063171506,0.051253155,0.039612964,0.0142102,0.028043628,-0.06588716,0.02872968,0.010994559,-0.044939782,0.06697074,0.06397477,-0.045873534,0.029022094,0.03314172,0.0056104334,0.016874414,-0.008113086,-0.01726763,0.039180193,-0.050873112,0.008179219,-0.10697532,0.047555108,-0.023182292,0.028736513,0.0748459,0.04125721,-0.008095377,0.053620555,-0.04490726,-0.09687068,-0.11245788,-0.008445007,-0.07670604,0.01177163,-0.005033938,-0.04684952,-0.015720848,-0.09145857,-0.0028677012,0.03539899,0.010288247,0.08861112,0.012165816,-0.026266417,-0.028227452,-0.051369146,0.019681243,0.06325055,-0.17528209,-1.9268005e-33,0.108920746,-0.0233769,0.022205532,0.08209951,-0.049636085,0.034733236,-0.02141521,0.016840931,0.09196997,0.013284395,0.081458636,0.026673477,-0.0008161705,-0.04155461,-0.05539699,-0.027444115,0.02323439,0.020577535,-0.019355917,0.053334728,0.025188673,-0.00997954,-0.049429018,0.09040032,-0.0031045077,-0.056531925,-0.009111979,0.029643213,0.0487317,-0.018050663,-0.0073266043,0.014138686,-0.0047892598,-0.035038486,-0.09968321,0.04380333,0.07908946,0.023647923,0.021584436,-0.14289704,0.0030280435,0.07731295,-0.0013126493,-0.0018412523,0.022895372,-0.008449319,-0.013526501,-0.05779542,-0.07269844,-0.016222702,-0.05471844,0.05604289,-0.00640787,0.027747588,-0.013139273,-0.04834809,0.0067051323,-0.06595309,-0.04917469,0.07760301,0.04153192,-0.012874746,-0.032061692,-0.03943408,0.022566266,0.033763763,-0.07265229,-0.042288274,-0.036758497,0.053276744,-0.047849644,-0.029629858,0.03831731,0.046524197,0.031180827,-0.031128656,-0.05155896,-0.040327784,-0.08809707,-0.00010654238,0.00801262,-0.019664627,0.089343145,0.08461751,0.0048823487,-0.05512586,-0.03177933,-0.028857216,-0.052832745,0.036287133,-0.0077362475,0.0021081106,0.037910886,0.022424707,-0.06431175,-1.3037342e-33,-0.054766368,0.07446882,-0.033141572,0.030413017,-0.026061649,-0.001995976,0.029260114,0.07901178,-0.022914276,-0.11281169,0.05697617,-0.03505844,-0.05424466,0.0033259448,-0.047013175,0.04449611,0.017336939,-0.024029728,0.05860165,-0.029421106,-0.022422524,0.058949925,0.022975484,-0.027705219,0.04106783,-0.02081221,0.056778274,-0.06096882,-0.057290472,-0.030044923,0.020022018,0.032972626,0.03404337,0.059054308,-0.012547755,-0.0048128213,-0.0019512192,-0.012987878,0.0077906824,-0.02084658,0.013711193,0.08384277,0.06234941,0.059123844,0.061253276,0.04388696,-0.047403432,-0.06719024,-0.033155825,0.08638863,0.012747595,0.0018611123,-0.057863172,-0.034358967,0.061600544,-0.008131559,0.01901602,-0.13894524,-0.007057653,0.019940218,-0.06148674,0.037544552,-0.08580031,-0.10629517,0.06565946,0.024969438,0.03152282,-0.006179263,0.12169822,-0.010435155,-0.022728331,-0.08468252,0.026774684,-0.053650234,0.017349608,0.07033416,-0.014467122,-0.017055571,0.042499557,-0.08266597,-0.060929272,0.002444346,0.058562513,0.021522239,-0.05122969,0.039596718,0.01665231,0.0067981197,0.043353457,0.10581968,0.026844572,0.025579816,-0.041511755,-0.006898912,0.11892328,-2.3529585e-08,0.008166415,-0.016285544,-0.013255059,0.006130535,0.08401433,0.011008969,0.019045021,0.031777564,-0.052513298,0.00056174764,0.033252288,-0.017135115,-0.022341982,-0.0387139,-0.036684692,-0.017755741,0.023923863,0.07872128,-0.045360267,-0.052874926,-0.011317159,0.024847899,-0.0008029525,0.020426983,-0.016120141,0.006090352,-0.016625628,0.0542239,-0.06434761,0.029604558,0.0073901513,-0.0020257614,-0.053687703,-0.104919285,-0.082892135,-0.03285231,-0.03179604,-0.04908292,0.042363793,0.037528224,-0.04391538,0.0040956126,-0.01796473,0.026175234,0.0033516895,-0.07850363,-0.015097202,0.036083393,0.08672877,-0.06773321,0.016613862,0.0593485,0.09019344,0.053677674,-0.010055214,0.05831486,-0.013682865,0.08935535,-0.0021490508,-0.022046087,0.024331875,-0.097580165,-0.1349299,0.015463056,4.0
QID125_r12,0.06012811,-0.096787885,0.062115543,0.088878594,0.04964183,-0.03438543,0.03481124,0.061344422,-0.047449436,-0.090039425,-0.06508658,-0.021365004,0.00093927066,-0.018646684,-0.016934404,0.0021002241,-0.04875309,-0.076606736,-0.032967784,0.11305173,-0.10084423,-0.0075228545,-0.019128885,0.055537447,-0.031755313,0.12182782,0.00015915884,-0.010758569,-0.007774416,-0.07531294,-0.08001563,0.08389051,-0.03154884,-0.034124307,0.005871053,-0.008068028,0.013490135,-0.034643255,-0.04084413,-0.03744908,-0.012672406,-0.06278581,0.0130615365,-0.050167426,0.005968692,-0.046721045,0.008136153,0.09065018,0.014322781,0.08239753,-0.042792644,-0.09836172,0.056844067,0.019158969,0.019541793,-0.012288923,0.018085001,0.029786464,0.034894694,0.046276238,-0.032019436,0.062990405,-0.035530664,0.023979878,-0.0051600016,0.10158395,-0.017761772,-0.10280245,0.084555864,0.12604798,-0.04363426,-0.018257022,0.03988966,-0.05790858,-0.014701582,-0.053761255,-0.0011667119,-0.03824522,0.018460998,-0.018229863,0.027337102,0.07114103,-0.034346245,0.02358359,0.083730705,-0.036037408,0.04410026,0.08999142,-0.04317043,0.023858301,0.04662723,0.02529261,0.068244986,-0.04892995,-0.009439938,0.018958025,-0.018637262,-0.02019258,-0.09123684,0.017344734,-0.015504824,0.0563212,0.08685296,0.0466415,0.02614915,0.0544392,0.0032373618,-0.079474844,-0.061487455,0.014291903,-0.06950862,0.013780646,0.017565886,-0.012640976,-0.030864187,-0.053368498,0.021265483,0.020608157,0.0062611233,0.060223483,-0.0010301847,0.00048369996,0.01439341,0.013266711,-0.018322494,0.06619143,-0.1622032,-2.692696e-33,0.11909998,0.02050464,0.020086426,0.09090391,-0.060303275,-0.013245693,-0.022040345,0.03290889,0.0681713,0.018053504,0.057435177,0.04645254,-0.01265023,-0.03151111,-0.04902716,-0.033937037,-0.005693108,-0.0059405076,-0.009921649,0.05714117,0.0033595725,-0.04381687,-0.04194884,0.068042904,-0.012474496,-0.017556079,-0.004017809,0.040649083,0.0024191733,-0.005509008,0.0026284948,0.016419861,0.045369573,-0.0757696,-0.05478061,-0.016420303,0.06933986,0.021303218,0.029198272,-0.076588325,-0.0077192388,0.086975925,0.038704287,-0.001926979,0.010543069,-0.046752103,-0.04384987,-0.05237014,-0.06905826,-0.02501801,-0.056162275,0.07377325,-0.0005411487,0.028286334,-0.038011294,-0.03686288,-0.013162239,-0.07103011,-0.035449114,0.118711405,0.054307148,0.014282545,-0.029809993,-0.117403485,-0.037223615,0.016590461,-0.047670275,-0.0077000866,-0.04720341,0.059638113,-0.018646674,0.014580556,0.04300431,0.0012364043,0.048392307,0.02161993,-0.082724944,-0.07210358,-0.06680527,-0.007401992,0.016614523,-0.006872159,0.046131894,0.094950266,0.0062272055,-0.035182234,-0.035074625,-0.028349292,-0.08115437,0.04646576,-0.03492378,0.0034117072,0.033864297,0.03609024,-0.0534508,-7.2230386e-34,-0.04701783,0.05289409,-0.036311787,0.0420164,-0.0431104,-0.028477028,0.034103658,0.06504021,-0.028381579,-0.06789925,0.063768044,-0.031774174,-0.055672787,-0.03074231,0.018812,0.0363967,0.019951915,-0.02637082,0.06797369,0.0122685535,0.012364077,-0.023612829,-0.021350844,-0.013276229,0.03836258,0.04544672,0.05699218,-0.051199313,-0.055655226,-0.009007952,0.018829431,0.040866945,0.023285469,0.0087398775,-0.022172824,0.023615425,-0.043352205,-0.033465046,-0.0021274502,-0.057446413,0.036269303,0.059370074,0.07080397,0.06983061,0.07163416,0.0229888,-0.023809947,-0.03665077,-0.068876706,0.063950635,0.022836985,-0.026130967,-0.0835965,0.020494541,0.083450735,0.024127753,0.031686094,-0.10463118,-0.025237229,0.029325051,-0.08663872,0.01350572,-0.11158129,-0.111762166,0.05593945,-0.0077204453,0.06840113,-0.061951444,0.10732054,-0.026417447,-0.03882824,-0.120463,0.024402326,-0.07187297,0.020755487,0.05777131,0.012472674,-0.01631682,0.05153793,-0.07979305,-0.07196259,0.017591994,0.063462466,-0.059746176,-0.044026863,0.017660124,-0.021252392,-0.0026959567,0.05635247,0.090203844,0.03583616,-0.00025296936,-0.07742775,-0.032900628,0.083924055,-2.1557433e-08,0.019481707,-0.016240185,-0.03457037,0.041273374,0.0774008,-0.045309696,0.005870599,0.077871665,-0.07128991,-0.013668838,0.06522245,0.021251632,-0.04828459,-0.04029256,-0.048735615,0.038963098,-0.0057383417,0.13393377,-0.0394607,-0.037415236,-0.043524664,0.026029887,-0.05417727,0.010572083,-0.03457689,-0.005057286,0.009942864,0.04370174,-0.007357276,0.0040618875,0.0038498645,0.02755519,-0.054181088,-0.0775571,-0.06796729,-0.081896916,-0.0062171635,-0.030467018,0.049187813,0.032705072,-0.042546667,0.04718228,-0.035222687,0.034694422,0.017962856,-0.04997395,-0.025688596,0.06368548,0.08519441,-0.074712075,0.007408134,0.040003743,0.121268205,0.07437571,-0.041760664,0.05853758,-0.012305351,0.053820707,-0.005566707,-0.031167567,0.0026377474,-0.09934565,-0.120177604,-0.0091852015,4.0
QID125_r13,0.11354052,-0.06429364,0.040045064,0.13215113,0.11594745,0.03734631,0.063447125,0.0272979,-0.02471223,-0.03285593,-0.051513687,-0.066646054,0.03664416,-0.025121959,-0.027708529,0.009543695,-0.08089962,-0.07809131,-0.06382798,0.09100774,-0.108826414,0.013844075,0.029087698,0.063416034,-0.07687469,0.1015196,-0.02615336,-0.021400215,-0.035344284,-0.07102125,-0.055231255,-0.016008116,-0.029772464,-0.03778788,0.00358108,-0.033536263,0.012759432,-0.060229555,-0.0022603518,-0.02101635,-0.0012710933,-0.03384825,0.039333556,-0.045443363,-0.0366369,-0.05351436,-0.012766268,0.054550406,0.024323197,-0.010631421,-0.007980765,-0.12512903,0.046542995,0.0058705388,0.04448823,-0.03581997,0.0043989774,0.02570778,0.011592008,0.07414132,-0.062817335,0.10390304,-0.09371664,0.045873683,-0.02924659,0.08118063,-0.048427995,-0.038838718,0.08212341,0.15672433,-0.07668474,-0.039940417,-0.0250863,-0.076480955,0.03951657,-0.013453829,-0.0051303264,-0.06027053,0.017041711,0.01672632,0.0530833,0.12086697,-0.014586713,0.05742698,0.054163232,-0.06540141,0.016889824,0.07024285,0.026276952,0.0054591256,0.04713356,0.006725327,0.08442939,-0.05311547,-0.001958671,0.030009525,-0.062404662,0.007787044,-0.08995614,0.005999065,-0.008697969,0.004644541,0.039804187,0.052571744,-0.0066774525,0.048157882,-0.04831554,-0.050649524,-0.08449208,0.02418238,-0.06847804,-0.03642051,0.002211452,-0.034985058,0.005684168,-0.02845868,0.010214258,0.015737683,0.062051494,0.1088617,0.013513203,-0.018614786,0.038254667,-0.024116395,0.0030766146,0.0846152,-0.123481,-1.6802817e-33,0.11130186,-0.004389698,-0.007956249,0.09770898,-0.0434775,0.035911165,-0.0050263624,0.02906314,0.085917935,0.028779287,0.09434906,0.053186487,-0.04467821,-0.041436706,-0.030155107,-0.027615536,-0.0012480556,0.014840773,-0.022211676,0.040729042,-0.043913554,0.04489112,-0.020267267,0.051128786,0.012279415,-0.057788957,-0.0015589821,0.030999519,0.0012055038,0.0011070909,-0.01671729,0.00064524205,0.0023928753,-0.023025138,-0.087056994,0.049403872,0.014594431,0.037230924,0.039123848,-0.13818084,-0.018102447,0.04526723,-0.007818399,0.012439595,0.021153009,-0.018038483,-0.017161477,-0.07524857,-0.10407749,0.0026905031,-0.027984861,0.06799153,0.0040662177,0.021229446,-0.012376689,-0.032982778,-0.016784683,-0.06282397,-0.011291209,0.035003625,0.048829183,0.017011281,0.0025705951,-0.090250485,-0.026673328,0.010330364,-0.009527868,-0.06873994,-0.06629314,0.09300585,-0.027874077,-0.035936676,0.015110235,-0.001152035,0.0607062,-0.002533522,-0.084180444,-0.07254006,-0.07114994,-0.009883828,-0.035837706,-0.016329167,0.0579285,0.08337906,0.008232913,-0.048495688,0.0005100903,0.02983392,-0.02791139,0.04939466,0.053831108,-0.01819578,0.080149524,0.060136456,-0.04733845,-1.4771138e-33,-0.07203077,0.0050785104,0.03185088,-0.013708205,-0.09177744,-0.031360257,0.0076049566,0.06195088,0.004379373,-0.049476184,0.034496024,-0.018481396,-0.010402114,-0.035251535,-0.04269902,0.017373111,0.03642435,-0.07449552,0.048069324,-0.07043811,-0.0745135,0.04336844,0.0020227095,0.012585515,-0.009007187,0.0043535624,0.060678627,0.016565941,-0.0105038015,-0.0511198,-0.008849753,0.015873507,0.057864226,0.07272821,-0.008088764,-0.0008380849,0.003503115,0.008733035,0.00049174204,-0.055795655,-0.03010839,-0.017688511,0.057156842,0.058367416,0.09752852,0.03341872,-0.0389767,-0.028957803,-0.01720762,0.06747684,-0.016948968,-0.028917523,-0.06631515,-0.031211397,0.040761206,0.01386191,0.03913057,-0.08145992,-0.01389248,0.038033526,-0.09232106,0.010745686,-0.06064099,-0.09113231,0.04575713,0.026693556,0.03405411,-0.0321815,0.124316216,-0.0006413886,-0.03369032,-0.08486147,-0.0061800736,-0.10362328,-0.011354773,0.0058291066,-0.051096827,-0.0016347272,0.0042993557,-0.017400432,-0.066584796,0.010033172,0.08883407,-0.035958227,-0.038150802,0.024961721,-0.028359566,0.03036869,0.031356696,0.07837306,0.033344124,0.04178015,-0.10129978,-0.02236492,0.04864543,-2.4299691e-08,0.053203218,-0.026909566,0.004929298,0.013350913,0.098385915,-0.057784818,-0.008303824,0.038289104,-0.060485452,0.03335898,0.043077283,0.02142892,-0.0376986,0.006358544,-0.05785144,-0.007051679,0.04572516,0.08707772,-0.01474024,-0.07926894,-0.015061378,0.045434315,-0.054498337,-0.007993513,-0.033557307,0.013341756,0.018855175,0.07863774,-0.02691586,0.015380503,0.0424452,-0.007396374,-0.05144551,-0.03301479,-0.05508868,-0.07169482,0.041178405,-0.054286085,0.042301655,0.042095836,-0.0077193878,0.033599846,0.0051942086,0.04707244,-0.026949653,-0.03372556,-0.03645978,0.06577481,0.07792311,-0.080999516,0.049438506,0.03431977,0.09591832,0.08817095,-0.020398509,0.020277513,0.017240971,0.10553942,-0.0008408763,-0.010217096,-0.005407926,-0.09545884,-0.12539633,0.045774236,4.0
QID125_r14,0.11430426,-0.05280516,0.03627678,0.08835824,0.118364275,-0.027698414,0.0070634154,0.015217461,-0.0797536,-0.0422608,-0.031132007,-0.0669416,-0.011181431,0.081170805,0.016493488,0.011025002,-0.047423247,-0.06407139,-0.080782786,0.078522846,-0.05548596,0.05222646,0.009660244,0.010763872,0.026757255,0.09165071,-0.020356417,-0.051391374,-0.006942222,-0.02457531,-0.031864412,-0.00076563604,-0.008952866,-0.007593591,0.023088405,-0.003936912,0.019945627,-0.00060411094,-0.07736461,-0.043101452,-0.022850139,-0.03965123,0.010035951,-0.033108912,-0.037882272,-0.018705608,-0.04586433,0.0773385,0.008040755,0.016801024,-0.0109453695,-0.0906115,-0.010557672,0.008207455,-0.01339091,-0.05736562,-0.036957882,0.022599822,0.03807954,-0.003897496,-0.08598628,0.047169868,-0.056928243,0.020841518,-0.054935813,0.08817303,-0.020899944,-0.05830585,0.07398204,0.1407752,-0.05240511,-0.04751698,-0.028406058,-0.08621792,-0.0036821985,-0.003525882,0.020551773,-0.13028783,0.029910201,-0.020755494,0.05626262,0.081681415,-0.028577343,0.07749712,0.094972126,-0.033667825,0.0009288388,0.06850242,-0.09734198,-0.0009854473,0.08133641,-0.030041005,0.085284665,0.0014992912,0.045450773,0.019164152,-0.0204307,0.0354166,-0.068620905,0.015160865,-0.020234521,0.0029849159,0.00056014507,0.021420253,-0.0037123847,0.056645397,-0.03322425,-0.09349839,-0.059984133,0.03271745,-0.062093336,0.017380614,0.0070449533,-0.04991264,0.003886894,-0.0004805239,0.021276534,0.022115242,0.039642084,0.09333195,-0.008940615,-0.021981861,0.014581854,-0.05654525,0.0027695491,0.031088095,-0.13327765,-1.9559903e-33,0.08350381,0.002327054,0.06185163,0.11415705,-0.048947547,-0.032134842,0.0063242987,0.0344851,0.116521515,0.041996293,0.053706195,0.053753912,-0.08244572,-0.06594198,-0.047870602,-0.031096933,-0.016447432,0.013060242,-0.064132445,0.06530155,-0.0064041377,0.012494315,-0.033851445,0.041948892,0.036475122,-0.07343544,0.0027018553,0.03190661,-0.02814611,-0.0076663033,0.018882642,-0.047177777,-0.013095789,-0.040462982,-0.06673759,0.04788307,0.07908487,0.07202272,-0.0039485567,-0.10441719,-0.04154018,0.061935164,-0.024625324,0.017965823,0.040168528,-0.030035185,-0.013957244,-0.007189441,-0.03335257,0.011018656,-0.0026754627,0.042760707,-0.020252498,0.007816628,0.0020100966,-0.036128327,0.020718582,-0.071280785,-0.025964238,0.05192077,0.07439405,0.029602112,0.014975362,-0.06352541,-0.047728937,0.011023764,-0.03935833,-0.023367193,-0.012201194,0.073696464,-0.009146481,-0.029425155,0.04085814,-0.05620491,0.044172,0.042844735,-0.054950867,-0.03231509,-0.09378724,-0.003963139,0.012890852,5.6277688e-05,0.05458071,0.07452619,-0.029469615,-0.06485779,-0.054966565,0.07768588,-0.04119312,-0.011558047,0.062372256,0.0039908243,0.036659323,-0.012938304,-0.014418317,-2.8587619e-34,-0.055147164,0.05562461,0.064729996,-0.01578071,-0.057970196,0.027450625,0.010274177,0.08802182,-0.0014127764,-0.061036937,0.020481199,-0.03135077,0.022025041,-0.023860881,-0.0056904475,0.05174425,-0.008625447,-0.061886262,0.05013438,0.031347573,-0.059850793,0.03044336,-0.025162652,-0.0119579965,0.0064472277,0.055776253,0.042887308,-0.020172449,0.039480414,-0.08562874,0.047813587,0.03924716,0.0055262786,0.07515454,0.01415692,-0.013983195,-0.019953033,0.048887376,-0.032005396,-0.097777605,-0.03169804,0.039346416,0.08017975,0.08528802,0.057755165,0.0042634746,-0.02420564,-0.1441255,-0.05179966,0.034768473,0.008889314,0.003731738,-0.09706956,0.007436813,0.07537614,0.07654116,-0.04275533,-0.079814866,-0.030694881,0.022112528,-0.023352468,0.015389313,-0.053691167,-0.12646335,0.009244422,0.013986096,0.026405085,-0.06946979,0.107601225,0.0033256542,-0.05690985,-0.102550216,-0.029532708,-0.09375943,-0.013147099,0.041549362,-0.021822052,0.019071905,0.0134240445,-0.0038163927,-0.08740017,0.024593253,0.036326893,-0.07190254,-0.030442594,-0.0017174387,-0.0017161177,0.007700151,0.06553863,0.08574219,0.0067685107,0.07751378,-0.0965195,0.0020153949,0.046144858,-2.2204027e-08,-0.014442707,-0.07094339,0.0166574,0.023784181,0.020856205,-0.0609217,0.022716712,0.08059222,-0.07844802,0.04899642,0.0372772,0.011939111,-0.01384819,-0.031355686,0.0033898356,0.021375855,-0.022217117,0.07885308,0.0048370846,-0.067788854,-0.02400106,0.06496379,-0.054960627,-0.016081385,-0.046617154,0.02414172,-0.022383608,0.08327289,0.0121001685,0.02974669,0.004509629,0.04894773,-0.034479532,-0.08447638,-0.10833025,-0.091914654,0.060473107,-0.042044196,-0.035939284,0.015743537,0.03446271,0.03217035,-0.013721439,0.065367945,0.028783321,-0.037548505,0.023998484,0.047932483,0.05101609,-0.057342075,0.06608014,0.02014501,0.07287154,0.06258502,-0.048584342,0.09361273,-0.035100847,0.079625316,0.03617371,-0.00051288714,0.0015371426,-0.09768436,-0.113837816,0.039713744,4.0
QID125_r15,0.14304252,-0.03609782,0.02060434,0.08787663,0.17452504,0.026767341,0.039403208,0.043104995,-0.031655807,-0.024874207,-0.058408096,-0.070037365,0.041072857,-0.019209817,-0.03372766,0.029922765,-0.09365223,-0.078081176,-0.080278836,0.13835752,-0.10126639,0.03500976,0.034605745,0.028691033,-0.023332853,0.06728983,-0.005774761,-0.0134450495,-0.022523353,-0.015700083,-0.043385237,-0.002530146,-0.055509914,-0.019229762,0.028793234,-0.0076388167,0.045451287,-0.07063178,-0.032808267,-0.010841184,-0.0044055055,-0.013015236,0.044770684,0.017158683,-0.004980133,-0.0681048,-0.058059264,0.033375148,0.036024198,-0.014585692,-0.010781568,-0.11196437,0.0066240174,0.0048990813,0.025839694,-0.05679463,-0.011085368,0.024668707,-0.024263347,0.04995293,-0.06313637,0.08692432,-0.031723466,0.030606056,-0.04452899,0.04093144,-0.015092546,-0.078244716,0.05260706,0.1703072,-0.12009795,-0.049737986,-0.043421455,-0.07287355,-0.02896267,0.00990744,0.025035866,-0.09706617,-0.0054347157,-0.021707866,0.082148634,0.08544903,0.042191554,0.044941653,0.065951414,0.0009708731,0.01255197,0.05411048,-0.011678631,0.03333185,0.04595723,-0.009682442,0.05098203,0.0005121827,0.029540615,0.07093814,-0.06362778,-0.013701361,-0.085330136,-0.0076598204,-0.03439113,-0.048182443,0.028020307,0.03935427,-0.0038477469,0.076865785,-0.10800599,-0.043750763,-0.07380764,8.996648e-05,-0.061134364,-0.06549451,0.003618908,-0.06496226,-0.015843047,0.005000565,-0.0107204355,0.0054150545,0.08092337,0.121239804,0.058357067,0.016529594,0.049420625,0.020276895,0.013187915,0.09693971,-0.09284583,-2.5901649e-33,0.14094995,-0.063746326,0.025687305,0.06718925,-0.021586284,-0.011476894,-0.025893077,0.03513397,0.09848573,0.0117539065,0.10057158,0.03207534,-0.028255148,-0.055225194,-0.059777923,-0.024137631,-0.014278939,0.0068752994,-0.048012957,0.029059058,-0.05538282,0.010027189,-0.0048477654,0.085141376,0.023664732,-0.052162252,-0.0043779667,0.04409626,0.008103127,0.010828133,-0.079396576,-0.01703088,0.02124989,-0.06736639,-0.07153246,0.06085077,-0.004410233,0.0782299,0.010928288,-0.13264011,-0.019999906,0.041353516,-0.0138446465,0.005897476,0.040399026,-0.01759109,0.013164755,-0.058817264,-0.08082032,0.009459796,-0.029925698,0.0014733056,-0.03095192,0.04491013,-0.007959345,-0.009915253,0.021702474,-0.031385742,-0.008445753,-0.000895755,0.013503375,0.028453637,0.012967057,-0.08043663,-0.009165391,-0.027161928,-0.002138935,-0.13220087,-0.0069153095,0.036350887,-0.031683043,-0.028710615,0.02293614,-0.022345735,0.0071908114,0.010403165,-0.06324756,-0.02769626,-0.029510964,-0.014318887,0.022659248,-0.007172036,0.033090785,0.043987792,0.0423442,-0.010945066,-0.017976439,-0.026879441,-0.058530737,0.008749122,0.06254441,-0.0067839515,0.092392854,-0.00933281,-0.060868263,-9.515552e-34,-0.07046556,0.008288046,0.05829068,0.025322273,-0.10804092,-0.05560484,-0.0072493185,0.042099506,0.018319158,-0.05302148,0.052518107,0.04347091,-0.0034156179,0.041043784,-0.04192427,0.02303721,0.02933509,-0.051369928,0.04997378,-0.07064915,-0.09476837,0.045974124,-0.050001733,0.013531196,0.0074515603,0.029911472,0.08193693,-0.015323891,-0.007652502,-0.10323057,0.051154792,0.042305503,0.076127194,0.06412021,0.010709832,0.010891176,0.050427083,-0.008851406,-0.003142265,-0.09198007,0.014282549,-0.021311227,0.0675224,0.012013043,0.03923644,-0.011473441,0.0031514268,-0.016972588,-0.0076442235,0.021864664,-0.02017865,-0.029127568,-0.07252988,-0.0035932076,0.022450238,-0.020570941,-0.034176696,-0.098718785,-0.0047970247,-0.0049688756,-0.04673007,0.02621375,-0.027650792,-0.078413054,0.026501773,-0.00078801974,0.0208831,-0.030979877,0.047413565,-0.010661268,-0.015339466,-0.06505048,-0.0677449,-0.07575708,-0.035490155,-0.0038636161,-0.020162033,0.023059374,0.020389257,-0.018076448,-0.07766369,0.0070124594,0.05515455,0.0105105005,-0.04042361,0.0015610835,-0.028722854,0.05622138,0.040333822,0.058024913,-0.012392299,0.06435505,-0.08929101,-0.025561444,-0.010198719,-2.3337652e-08,0.06073084,-0.028073896,-0.020519802,-0.050643604,0.06348072,-0.074879944,0.037657123,0.09366645,-0.05547522,0.04624171,0.041003548,0.069864556,-0.07171419,0.011846385,-0.034672476,0.026280899,-0.010056805,0.053372394,-0.0164725,-0.07584507,-0.040238276,0.050318785,-0.040699776,-0.055454582,-0.0035126307,0.03148157,0.02162791,0.030844059,-0.035882223,0.028970905,-0.013264459,-0.0010093668,-0.048336975,-0.0002368983,-0.06825833,-0.075185604,0.09055283,-0.030359918,0.005540275,0.011714562,0.054585475,0.017517893,-0.0020371233,0.023513813,0.018663773,-0.04288791,-0.010851045,0.045931548,0.03957706,-0.054192584,0.047113527,0.040080845,0.08265839,0.114051655,0.017053867,0.018587273,0.0042541195,0.15765138,0.03828005,-0.031577453,0.04489946,-0.092665225,-0.08069873,0.08784466,4.0
QID125_r16,0.095788255,-0.06562218,0.038489934,0.11599481,0.108994804,0.007202387,0.037439577,0.021806797,-0.031661507,-0.06600344,-0.06638224,-0.06868593,0.038175244,0.022567024,-0.047039885,0.017562691,-0.07038656,-0.090727605,-0.038157526,0.10081546,-0.10744634,0.012319178,0.012436144,0.04395222,-0.007919815,0.07684494,-0.0045135003,0.0008479253,-0.03208261,-0.04537108,-0.08323205,-0.0084056165,-0.031052243,-0.021160765,-0.0005242628,-0.03443174,0.02302047,-0.055355486,-0.004237407,-0.022768179,-6.811611e-05,-0.031685434,0.03892302,-0.039689355,-0.02906981,-0.062525325,-0.0016325141,0.032262154,0.003839401,-0.009460627,0.00028243038,-0.12481036,0.03413116,0.024633449,0.018372608,-0.033452872,-0.014842888,0.0055123917,0.02652312,0.049365096,-0.089380056,0.076773435,-0.05178832,0.05170149,-0.045840137,0.07677409,-0.032024946,-0.06486428,0.1067904,0.15495704,-0.08523425,-0.02423518,-0.010723589,-0.08959025,0.012845717,0.011464901,0.027509937,-0.033765018,0.014154996,0.0031822422,0.039794013,0.09516786,0.031101698,0.046694465,0.059769195,-0.034168024,0.01677823,0.06789804,-0.029989846,0.027493006,0.08083446,-0.018643262,0.065915264,-0.003819318,0.0132106645,0.011932655,-0.06790132,0.007178658,-0.08470307,0.0014071153,-0.045851327,0.007724998,0.06086241,0.042366426,-0.006366129,0.068870746,-0.06593281,-0.062725306,-0.094686516,0.008928392,-0.07002162,-0.021527208,-0.0014914094,-0.04817395,-0.036614146,-0.046410386,0.05605798,-0.0019393247,0.06281628,0.102086484,0.03505551,-0.0019496377,0.04395479,-0.0066150944,0.0036943478,0.106319375,-0.104260094,-2.6198309e-33,0.119862124,-0.0058795596,0.005218463,0.09269226,-0.036889736,-0.0049282215,-0.0012023661,0.020998603,0.09680638,0.02612618,0.0976795,0.08564688,-0.018887969,-0.03146028,-0.06053823,0.006285848,-0.005976711,-0.0106156375,-0.045434214,0.041817497,-0.034305427,0.01461904,-0.026162684,0.07145113,0.016691582,-0.04404189,-0.013091935,0.010333977,0.008305388,0.0022231794,-0.031791463,-0.00023407939,0.020187002,-0.04009438,-0.07235604,0.031606007,0.021181405,0.014046569,0.026213424,-0.14525409,0.017730223,0.04918557,-0.011713584,-0.0050542983,0.03873116,0.025468523,-0.044248104,-0.054776873,-0.1002222,-0.019047786,-0.012917976,0.0673678,-0.011973998,0.032933347,-0.008682643,-0.046433493,0.014127269,-0.0499687,-0.018140256,0.03647306,0.031124845,0.026024539,0.028482717,-0.1117832,-0.03812878,-0.006725173,-0.020260202,-0.07224044,-0.033590306,0.08320925,-0.03232784,-0.0063882177,0.028523961,0.004863398,0.049034003,0.026191046,-0.096943885,-0.06693667,-0.05983008,-0.012037178,-0.02568683,-0.03126836,0.07392945,0.08352854,0.015627915,-0.02811924,-0.02245308,0.008369157,-0.029241495,0.025588358,0.07713074,-0.0032026733,0.08383336,0.034543186,-0.047074836,-1.0529137e-33,-0.08178127,0.034488562,0.012101917,-0.023148479,-0.11560109,-0.034710694,0.030388545,0.12561241,0.030312994,-0.058180794,0.017458022,-0.014285797,0.024774918,-0.028470447,-0.02645504,0.057168964,0.032205082,-0.05475628,0.059146944,-0.037855048,-0.0709765,0.030261358,-0.020503798,0.016207408,0.012424146,0.0077253077,0.08773278,-0.014402323,-0.036524188,-0.07701828,-0.0052439054,0.025567245,0.07432248,0.045919575,-0.013794318,-0.00072914484,0.0020889405,-0.005456605,0.039174728,-0.086966656,-0.007345361,-0.0025708603,0.051059246,0.023599101,0.04389838,0.05358185,-0.019184327,-0.032337755,-0.03390949,0.052605312,-0.0056991307,0.0053708646,-0.0637845,-0.04114687,0.04414836,-0.011415105,-0.0036149635,-0.1105762,-0.028719492,0.069793075,-0.073580965,0.019931845,-0.057995066,-0.10261092,0.023287445,0.038372517,0.0006114622,-0.042697396,0.09602731,-0.033733014,-0.028427714,-0.07766551,-0.011315447,-0.0657877,-0.032710325,0.0017316907,-0.019051908,-0.025165224,0.019400908,-0.0028061823,-0.10165774,-0.0017113747,0.07149192,-0.042643707,-0.005110805,0.006658688,-0.0044036107,0.015209369,0.014700632,0.056445036,0.020567331,0.060746808,-0.10183229,0.0091776615,0.027797073,-2.2273507e-08,0.07478829,-0.03790944,-0.005755965,0.012825908,0.09220208,-0.059078306,-0.006275546,0.06228237,-0.07266021,0.003508092,0.058748785,0.02830881,-0.05605417,-0.003737168,-0.037746,0.043590635,0.0006578607,0.0855502,-0.020780712,-0.103073284,-0.041229703,0.070129536,-0.073597565,-0.01235769,0.0015743821,0.03784118,0.0026085938,0.063362226,-0.017353572,0.0037517815,0.017971033,-0.023719616,-0.036019374,-0.015779119,-0.09144481,-0.065394275,0.06363924,-0.058355488,0.055400506,0.020928366,0.030040156,0.0033298263,-0.0041153096,0.029583018,-0.037223283,-0.052692477,-0.046510328,0.038697816,0.07156781,-0.061303962,0.03378438,0.03771607,0.09350108,0.105942845,0.007913774,0.023517115,0.014135101,0.063160814,0.04512469,-0.023272892,0.009026306,-0.14389203,-0.089598775,0.067010485,4.0
QID125_r17,0.11371169,-0.084590815,-0.0022295138,0.0716837,0.06437009,-0.052471135,-0.020558966,0.031155936,-0.021122381,-0.090054415,-0.022870246,-0.061248746,-0.024209883,0.024778927,0.0058445022,-0.026575372,-0.010262449,-0.09409524,-0.05211639,0.02540918,-0.07508009,-0.00030382467,-0.00012530883,0.03827228,0.015535734,-0.0007783852,0.09352223,-0.013707301,-0.03551855,-0.065807045,-0.015075613,-0.018291615,0.031448506,-0.025445359,0.019129217,-0.07091973,0.04009013,-0.016538171,0.026006836,-0.08213736,-0.017900933,-0.06942182,-0.0151317995,-0.038558483,0.04230383,-0.030790782,-0.028737899,0.0743803,-0.019018149,0.07414937,-0.07256079,-0.14024676,-0.011086487,0.036381807,0.022288555,-0.099087976,-0.062075026,0.014649559,0.0051653627,-0.037069432,-0.0821741,0.030169427,-0.015336621,0.057640057,-0.059228957,0.06526258,-0.030286297,-0.06150978,0.07150599,0.13842809,-0.056148298,-0.038983587,0.02242667,-0.091458976,-0.006074236,-0.02185823,0.026118288,-0.014865107,-0.020886103,-0.016774038,0.050238457,0.10217946,-0.002392737,0.024802253,0.047626905,-0.012670188,0.009246011,0.13482335,-0.033742547,-0.036102053,0.11175059,-0.0009049856,0.09870999,-0.0058828127,0.0016105724,0.004424348,-0.042265218,-0.04952376,-0.05158132,0.006684456,-0.037961688,0.022916235,0.009178165,0.06466908,-0.011079911,0.05601245,-0.042873282,-0.041819327,-0.0399028,-0.014701319,-0.03593366,-0.022593867,-0.0067565297,-0.022164222,-0.0306799,-0.034232154,0.08831205,0.012578302,0.0654767,0.070533976,-0.07072736,-0.030956864,0.049066134,0.050074488,-0.040086605,0.0730517,-0.10978815,-7.848292e-34,0.0360028,-0.022623368,0.0071898596,0.062451623,-0.029513655,-0.023994919,0.03523329,0.046443835,0.09989374,-0.041407343,0.093570925,0.027553432,-0.017407581,-0.04417123,-0.04516302,0.007658556,0.009538067,0.051773895,-0.03705658,0.047054272,-0.0214891,0.0046357075,-0.05593004,0.018807672,0.029502304,-0.016198598,-0.013681423,-0.007964405,-0.053452652,-0.026143117,0.037541874,-0.049702685,0.04937359,0.016095394,-0.07188483,0.053880006,0.030173134,0.06969437,0.046733405,-0.067653276,-0.020697799,0.027084585,0.052697204,0.0035819013,0.04939337,-0.054622818,-0.044564154,0.051242158,-0.01626515,0.0030012322,-0.004608758,0.053942457,0.01696797,0.020367533,0.0046808794,-0.07379517,-0.005490682,-0.041282438,-0.001361066,0.04996563,0.067409955,0.03227622,0.021176316,-0.09205729,-0.10288813,0.0080462415,-0.08141336,0.027969085,-0.026420549,0.123296656,-0.031109596,0.057060387,0.06270376,-0.00957217,0.026917709,0.028132036,-0.076005474,-0.037357416,-0.066844836,-0.0013618375,-0.008131683,-0.03819711,0.08468614,0.03943892,0.011816386,0.013799226,-0.07990396,0.04718281,0.058907423,0.07658555,0.01929889,0.057271607,0.011893052,0.0840971,0.018221866,-1.8835903e-33,-0.043284897,0.052766755,-0.03625893,0.06429214,-0.073116384,-0.04146761,-0.029114226,0.080209106,0.011100655,-0.04081626,0.0009339383,-0.006816356,-0.013954949,-0.0798795,-0.0011260145,0.09312874,0.05651158,-0.085766435,0.08348446,-0.021239392,-0.12715766,-0.0031588455,-0.0068657654,-0.04367379,-0.0023104402,0.083235934,0.11812039,-0.048998337,-0.03297254,-0.041122563,0.018404318,0.02812979,0.008862091,0.008345396,-0.0123256035,-0.021493362,-0.037829228,0.033484068,0.020663891,-0.015793702,-0.02866836,0.0479868,0.030660355,0.065427564,-0.00011874598,-0.02129855,0.029944623,-0.082472816,0.0009543367,0.042445306,0.047638595,-0.05306624,-0.03400405,0.013710393,0.054204814,0.10233746,-0.02544938,-0.065357104,-0.03311101,-0.0195422,-0.047793943,-0.024648214,-0.033946063,-0.14077593,0.010098084,0.007822171,-0.035993602,-0.027936246,0.049161572,0.005558083,-0.0485355,-0.14955074,-0.05844318,-0.060748633,-0.00093322387,0.060402118,0.0042668306,-0.050339688,0.025842918,-0.03820393,-0.12954642,-0.008619109,0.045180686,-0.085920565,-0.03247175,0.0285787,-0.04686751,0.019390337,0.00854574,0.022870025,0.088305995,0.060394213,-0.061728127,-0.031863965,0.042233143,-2.4992438e-08,0.0069620265,-0.06627247,-0.056044143,0.045262363,0.03234158,-0.106944636,0.040821575,0.052806966,-0.04011847,0.0069203805,-0.00996824,0.030392982,-0.05906735,-0.002094257,-0.058155518,0.02447111,-0.04428381,0.055471946,-0.013301016,-0.045277186,-0.087620504,0.012404405,-0.060352933,0.015459776,-0.01406572,0.0622401,-0.020285467,0.10939274,0.040592376,0.022589745,0.018128082,-0.0005684722,-0.0063760034,-0.05161418,0.0039019976,-0.065321855,-0.0024261994,-0.036825072,-0.025843369,0.014806801,0.023635253,-0.053319532,0.019216277,0.028089961,0.0026871872,-0.043866638,-0.0061278534,0.08596113,0.023890363,-0.033928275,0.030407965,-0.019356804,0.10962434,0.10099069,0.045663748,0.031050889,0.027795222,0.05145166,0.084700964,0.054574676,0.06345704,-0.08529823,-0.046141427,0.017447468,4.0
QID125_r18,0.11696189,-0.024383938,0.040269386,0.10316916,0.14092202,-0.022672342,0.021893008,0.039682772,-0.019255582,-0.10890918,-0.015804794,-0.07981812,0.027353577,0.009940938,0.038307842,0.008040761,-0.014049631,-0.03298706,-0.0709348,0.06526159,-0.12021095,0.023597825,-0.01459903,0.07364713,-0.02491538,0.0930088,-0.0070863953,-0.055260297,-0.038027003,-0.038456596,-0.06988477,0.005557544,-0.042077433,0.0026462534,0.00789191,0.017376289,0.017027933,-0.013392422,-0.06814445,0.031538464,-0.0095393,-0.03719918,0.0193291,0.026060583,-0.0152236195,0.0026562542,-0.03802215,0.045992054,0.003768754,0.037942763,-0.0068363813,-0.08496182,0.052396357,0.006435538,-0.03868171,-0.059536133,-0.075437054,0.02167066,0.016642176,0.024038201,-0.091051735,0.053239208,-0.01720224,-0.009466756,-0.020870749,0.065568544,-0.0037221625,-0.098820016,0.124495305,0.13273303,-0.036195006,-0.021670345,-0.030705867,-0.100279026,-0.048121136,0.010017101,0.03833557,-0.04275834,-0.013414673,-0.026181722,0.042391557,0.08369782,-0.097932674,0.038209956,0.10453021,-0.00085287285,-0.0008524621,0.12795517,-0.10045851,-0.030610073,0.044544253,0.0013374321,0.017487345,-0.027237736,0.036182594,0.017595133,-0.02579516,-0.020060642,-0.09385533,0.046980325,-0.010273179,0.034701705,0.045398653,0.043479476,0.014992567,0.057623867,-0.028533746,-0.051286437,-0.05303352,-0.017428564,-0.0029554155,-0.03624548,0.037074067,-0.018594189,-0.020247808,-0.026104974,0.035915233,0.014041334,0.0508068,0.11569185,0.01082525,0.03141129,0.029657302,-8.5881176e-05,0.0021495526,0.023005823,-0.112663135,-2.785985e-33,0.09684356,0.008300496,0.007948802,0.12832104,-0.01013824,-0.07373176,-0.0022813564,-0.03719727,0.08712883,0.019620847,0.05792549,0.031394664,-0.032913763,-0.0014745676,-0.09551496,-0.033864833,0.030872876,0.012013451,-0.03204945,0.097424366,0.017775172,0.02902847,-0.042077128,0.04419598,0.0062615736,-0.008426488,-0.015745329,0.044187658,-0.04603948,-0.0039279973,-0.034960136,-0.015651476,0.04574751,-0.054653797,-0.078376554,0.008232967,0.057673458,0.06471009,0.07363392,-0.09179997,-0.021802168,0.065008275,-0.036810115,-0.030566948,0.03837971,-0.016111532,0.039854605,-0.061376862,-0.0023887078,0.004242701,-0.04319261,0.023487106,-0.035597675,-0.012259252,0.005188358,-0.053739358,-0.023485279,-0.020896632,0.004049129,0.039898977,0.08220328,0.06944352,-0.075136356,-0.10541276,-0.022566024,-0.031029766,-0.018664997,-0.03224728,-0.044946823,0.041608877,-0.024337986,0.009478742,-0.026046582,0.02435798,0.044856485,0.02660159,-0.059557226,-0.070003,0.007723562,-0.093157694,0.031578824,-0.034671932,0.08033327,0.08778113,0.0005422324,0.015991539,-0.018733457,0.025232896,-0.11429228,-0.03957354,0.030629037,-0.009691383,0.05480332,-0.0458842,-0.015804887,-4.663775e-34,-0.06074557,0.05784694,0.005774155,0.039663,-0.07551207,-0.015422417,0.022319078,0.056877527,-0.057446823,-0.013636002,0.003148621,0.004958168,-0.04735803,-0.025191633,-0.03352823,0.04951989,0.03575006,-0.056290142,0.048653614,0.023006879,-0.039247926,0.042116567,0.03411769,-0.06781263,-0.0055435034,0.03194077,0.08654832,-0.040322747,-0.05028287,-0.1142089,-0.0043018935,0.03710838,-0.025719035,-0.002134227,-0.014746285,-0.023135992,-0.028275121,0.04285398,-0.07455702,-0.061890353,-0.01839137,0.018778056,0.04846665,0.028084282,-0.011144484,0.06772184,-0.046551794,-0.06572781,-0.039743043,0.050000302,-0.0036721881,-0.028307686,-0.03929004,0.013638862,-0.013728828,0.005449196,0.008188192,-0.076324984,-0.051100966,0.06689939,-0.06955708,-0.015445196,-0.04064024,-0.12369262,0.044455152,0.04604563,0.045922466,0.009910033,0.1142396,-0.030543534,0.018437745,-0.08736871,-0.0505209,-0.07282174,0.01833596,0.032685187,-0.0418742,0.021225575,0.04082305,-0.02796269,-0.06299643,-0.0071001537,0.03223994,-0.08514519,-0.0017606328,0.02282288,-0.049665604,-0.012354935,0.009969522,0.047435753,0.02445638,0.056235343,-0.03146273,0.034561947,0.023836927,-2.2138037e-08,-0.021474872,0.018915482,-0.055495203,-0.021512548,0.034666706,-0.11175564,-0.02380285,0.07579119,-0.04502769,0.028471943,0.0030865245,-0.04212278,-0.031472474,-0.006548703,0.00029474884,0.03999343,-0.007176682,0.09041237,-0.0070992634,-0.057811115,-0.029275108,0.08276045,-0.062700495,0.019815484,0.06940302,0.03856228,0.02101016,0.10232072,-0.016230822,0.012740485,0.07274567,0.028391404,-0.012025632,-0.031986516,-0.080240645,-0.050598823,0.08487727,-0.014292702,0.023164053,-0.001709717,-0.04101585,-0.014365617,0.020848414,0.03310423,0.023579307,-0.0891315,0.0009267991,0.019769758,0.038296774,-0.10260414,0.05570897,0.011475938,0.09153192,0.14375895,-0.0040682647,0.026290037,0.0016619292,0.070723295,0.028907403,-0.08315004,0.03593767,-0.11096725,-0.11567528,0.036290724,4.0
QID125_r19,0.061121553,-0.06047628,0.06793296,0.11061055,0.081991374,-0.03328672,0.039669055,-0.0031877463,-0.06383032,-0.045421433,-0.0518384,-0.08434616,-0.0068061207,0.017110607,-0.015560424,-0.011012634,-0.06650101,-0.083076514,-0.008197311,0.061417755,-0.10651908,0.005261111,-0.021186266,0.014217908,-0.0319714,0.08122939,0.031252537,0.001251426,-0.059401155,-0.052182797,-0.044912204,0.01659777,-0.026639389,-0.02378243,-0.041387316,-0.024130065,-0.013038151,-0.037680008,0.00063104206,-0.022055736,-0.0104752295,-0.045210723,0.035788972,-0.03685288,0.024702178,-0.019670978,-0.010630207,0.05242901,0.0041306117,-0.0001677901,-0.024595471,-0.08290429,0.027606517,0.022651965,-0.03065934,-0.038854044,-0.057647802,-0.046336085,0.037429713,0.02757863,-0.12366621,0.05349271,-0.06973488,0.033975136,-0.05923622,0.06818118,-0.045412265,-0.07966005,0.08210696,0.16547626,-0.09283372,0.014353953,-0.028666468,-0.09620064,-0.00896369,-0.03347971,0.012373904,-0.024010526,0.007495973,0.025640097,0.06450881,0.090382084,-0.005175212,0.0558402,0.095590785,-0.060878944,-0.007290605,0.075132556,-0.05472301,0.010549679,0.07231752,0.048949447,0.12584807,-0.021136735,0.003265832,0.020353826,-0.007112929,0.005078339,-0.07338674,0.036981754,-0.062928855,-0.031945717,-0.010000727,0.025666378,0.041543297,0.053631738,-0.03825138,-0.028663332,-0.07608119,-0.0070264605,-0.034463584,-0.016046839,-0.011064799,-0.06373709,-0.00130044,-0.04994529,0.072153896,-0.007745082,0.07894393,0.089312285,-0.013138278,-0.018116103,-0.0045544663,-0.021362072,-0.014866778,0.069194704,-0.09223143,-2.3232428e-33,0.059393857,0.035043433,0.028989453,0.112860985,-0.028516782,0.005964773,0.033157647,0.06119847,0.10496029,-0.0015121736,0.058275975,0.101577595,-0.046928294,-0.00023472826,-0.070636466,0.014137484,0.024310626,0.04915737,-0.04630975,0.033798173,-0.0064991405,0.016655583,-0.02740072,0.06815084,-0.005592898,-0.011308915,-0.013322624,-0.0003585761,-0.03753329,0.0030644431,-0.029931612,-0.012383657,0.10359849,-0.026879206,-0.055023763,0.03564462,0.05030919,0.023954164,0.013901463,-0.11653809,-0.03799,0.05246098,-0.031259537,-0.010802083,0.03843932,0.0133121135,-0.081369534,-0.017309446,-0.021959765,0.018991567,0.0003615984,0.09678973,-0.046701424,0.027240966,-0.040002804,-0.03153496,0.004905063,-0.036166567,-0.0020236198,0.07714443,0.056456015,0.02750299,-0.0038991296,-0.1041168,-0.054691184,0.03265645,-0.025265578,-0.03113662,-0.028365187,0.08152901,-0.0106503,0.030465819,0.018651834,-0.011805251,0.04428039,0.040818118,-0.040199313,-0.03523487,-0.048399817,-0.009240254,-0.004783262,-0.031073067,0.030666322,0.06773417,0.01704919,-0.025905231,-0.019010812,0.055212542,-0.030188397,0.027575491,0.06565285,0.022186387,0.043703277,0.020158304,-0.044849698,-1.0619374e-33,-0.06239883,0.010505824,-0.030525526,0.01009219,-0.08628657,0.024012282,0.05162318,0.117961,0.021710895,0.00048389076,0.024070678,-0.04617856,-0.017420229,-0.062825054,-0.027763711,0.07892575,0.08054853,-0.07500382,0.043904025,0.034644652,-0.095168,0.03594822,0.07135972,0.0039008358,0.0033918214,0.011010862,0.10009262,-0.0626572,-0.033055093,-0.008179373,0.012596101,0.01746648,0.025522145,0.02514798,-0.024237083,-0.0031108675,-0.038129054,0.009314151,-0.014598143,-0.00864233,0.00041515555,-0.069006935,0.025143998,0.10489635,0.054519285,0.025482556,-0.07544466,-0.075695306,-0.06025125,0.053488053,0.026105152,-0.03292327,-0.027716938,0.0043004975,0.003930017,0.0011189296,-0.015251708,-0.08162667,-0.01538577,0.08016454,-0.031029953,-0.030976351,-0.08500397,-0.09991826,0.028866189,-0.0154025555,0.037175175,-0.08349403,0.095951386,-0.048305962,-0.03585394,-0.12863228,-0.027429232,-0.12194365,-0.017050453,0.06902501,-0.041937917,0.032876287,-0.03310037,0.024279816,-0.13676248,0.00587038,0.083446056,-0.072232686,-0.041616656,-0.045017805,-0.009603714,0.0010925791,0.023845594,0.080252685,0.021439254,0.058070753,-0.12902068,-0.021863814,0.03512826,-2.227446e-08,0.016042884,-0.072888225,-0.0015427958,0.028789168,0.0469227,-0.05047497,0.008646963,0.081303954,-0.058160227,0.0018392346,0.039815422,0.08693613,-0.005976951,0.00038292765,-0.019647915,0.043888643,-0.021352021,0.038690526,-0.009028937,-0.058037776,-0.048941996,0.07035289,-0.046368815,0.03105191,-0.0261945,0.04124127,-0.0121491905,0.105017744,-0.042234436,0.0032320493,0.06860977,-0.021610336,-0.03667042,-0.023547983,-0.025776492,-0.05792125,0.07554505,-0.039541937,0.0065209037,0.014586321,-0.04108853,0.018542266,-0.04307872,0.041576058,-0.017031388,-0.022591736,-0.029008918,0.075777896,0.053924426,-0.08145516,0.019064065,0.036152244,0.0138397785,0.11036617,-0.010775648,0.039767973,0.024105608,0.056649398,0.009178955,-0.063716434,0.05473094,-0.10176573,-0.07213325,0.06143252,4.0
QID125_r2,0.047018286,-0.094905674,0.049102016,0.13179746,0.11833209,-0.040713582,0.062163513,-0.02644629,-0.061751757,-0.024040412,-0.05049803,-0.10971356,0.019227916,0.057838824,0.022933107,-0.023772303,-0.0031366274,-0.09360188,-0.051964276,0.08326644,-0.10662842,-0.005727451,-0.046120875,0.021511737,0.0071407543,0.06441882,0.008041744,0.03324915,-0.096897624,-0.038630053,-0.0840528,0.022810262,-0.043127183,0.0068689743,0.013520511,0.0048411936,-0.027093342,-0.08906014,-0.05433201,-0.020422285,-0.00701284,-0.04213507,0.031002307,-0.03409513,-0.005554584,-0.044135626,-0.025251547,0.033978578,0.02524563,0.008184193,0.010532614,-0.06153118,0.061399844,0.06056627,-0.013024837,-0.010280474,-0.04725829,-0.03109044,0.042794317,0.0060996967,-0.0643288,0.12443951,-0.08509369,0.03047444,0.0058243987,0.05138361,-0.020071374,-0.042938896,0.073959336,0.12181579,-0.05297094,0.014193192,-0.016772622,-0.119454466,0.021157391,-0.023259254,-0.012589569,-0.06890576,0.01788344,-0.01384096,0.05784735,0.10015351,-0.0044505512,0.03756303,0.034366384,-0.03543782,0.051988564,0.07717616,-0.032669235,0.01992368,0.020088263,-0.007499401,0.06505251,-0.027788213,0.0025515272,0.022980113,-0.06964735,0.020136338,-0.087842904,0.022317303,-0.04039124,-0.0050837435,-0.026822183,0.08069186,0.030213498,0.09346785,-0.035914075,-0.043658018,-0.070392266,-0.033340823,-0.04536904,-0.024590842,0.015623689,-0.06608772,0.007321241,-0.09193173,0.08488112,0.050133087,0.08655762,0.07967352,-0.004190616,0.011843233,0.04286663,0.003671647,-0.03288409,0.040185634,-0.069833755,-1.7615154e-33,0.046594936,0.042252168,0.0339742,0.103816964,0.010806596,-0.027989974,-0.010691929,0.050057612,0.086472,0.017647048,0.0882593,0.088306844,-0.0468852,-0.0002928184,-0.023977457,-0.010686717,-0.0133844325,0.041145787,-0.02935525,0.09187682,-0.061474957,0.037727226,-0.0051485347,0.066593595,-0.03028711,-0.009963867,-0.018051606,-0.0035320134,-0.06188467,0.009299154,-0.037033767,-0.05856398,0.07749317,-0.013812662,-0.06260814,0.015542153,0.070708595,0.039604623,0.07649848,-0.10629694,0.01555949,0.012187966,0.00015610637,-0.014155747,0.02884351,0.0446487,-0.058749907,0.011779128,-0.06433777,-0.019339247,-0.01575866,0.0626033,0.042941604,-0.008498174,-0.029992428,-0.028954454,-0.027977258,-0.019611133,0.0050308895,0.07138336,0.04650749,0.04489989,0.0051527894,-0.12616748,-0.032896988,-0.022437692,-0.0486333,-0.06313155,-0.032969333,0.08306767,-0.01198587,0.05463134,0.03746982,-0.009196175,0.07083388,0.043535396,-0.052218463,-0.060384393,-0.08484016,-0.02478547,-0.017328825,-0.029659558,0.06420551,0.04376544,0.016775992,-0.05976022,-0.029063983,0.01939293,0.0011234741,0.009284017,0.04045787,-0.024356259,0.038641777,0.050849315,-0.04915712,-3.5781908e-34,-0.04166971,0.031388998,0.020205725,-0.0041319155,-0.10861049,-0.009588399,0.02088741,0.08453245,-0.03807543,-0.008389838,0.06448598,-0.093034185,-0.027325807,-0.06951319,-0.010882445,0.06559526,0.020932639,-0.04462022,0.0523734,0.01734914,-0.08696421,0.021053096,0.013345821,0.004389168,-0.010353638,0.019784888,0.08832631,-0.05094464,-0.028128503,-0.011831669,0.0069781374,0.031968735,-0.011740285,0.021193378,0.012074341,0.01568166,0.023136964,0.054131143,0.05441841,-0.05399161,0.0147965355,-0.0068976777,0.053143214,0.07536748,0.035072003,0.030477334,-0.06366477,-0.055236742,-0.03506247,0.068335116,0.019413542,-0.04076179,-0.09322292,-0.0044238465,0.0029373437,-0.023565423,-0.011832916,-0.06910562,-0.0033881078,0.00079316285,-0.05847557,-0.04058561,-0.031478293,-0.061295424,0.034920115,0.022621533,0.017716087,-0.05899649,0.09759717,-0.01902155,-0.008784284,-0.12519999,-0.03153016,-0.09739841,0.0019762102,0.040190727,-0.03621157,-0.0034207988,0.02317994,-0.0014530488,-0.15199547,-0.011343565,0.036368486,-0.0531938,-0.020819692,-0.012310684,0.01270789,0.0075851628,0.009111761,0.016073618,0.026228486,0.06912448,-0.08395469,0.025435999,0.0031411194,-2.0851003e-08,0.026653137,-0.055426884,-0.022030106,0.014342499,0.08853766,-0.054144565,-0.019721542,0.055807497,-0.011016892,0.012113947,0.055571202,0.07635227,-0.0024868664,0.030821567,-0.032602966,0.039117716,0.01444552,0.08314455,-0.0029890733,-0.088146165,-0.029036624,0.08523864,-0.05399586,0.010103281,-0.023117442,0.06281825,-0.0035039021,0.078534506,0.04722543,0.013882589,0.031936634,0.021818629,-0.05104256,-0.06982575,-0.041687652,-0.07788176,0.06564022,-0.00754832,0.008635474,0.009837487,-0.01334197,0.009951857,-0.042579427,0.026793903,-0.011168711,-0.08752448,-0.022842152,0.06094031,0.06586288,-0.03571907,0.05045734,0.045922443,0.06258349,0.10100096,-0.059291776,-0.013158339,0.0039086957,0.0854613,0.06335746,-0.023884669,0.050665684,-0.10423893,-0.16164513,0.053531345,4.0
