question_id,qemb_pca_0,qemb_pca_1,qemb_pca_2,qemb_pca_3,qemb_pca_4,qemb_pca_5,qemb_pca_6,qemb_pca_7,qemb_pca_8,qemb_pca_9,qemb_pca_10,qemb_pca_11,qemb_pca_12,qemb_pca_13,qemb_pca_14,qemb_pca_15,qemb_pca_16,qemb_pca_17,qemb_pca_18,qemb_pca_19,qemb_pca_20,qemb_pca_21,qemb_pca_22,qemb_pca_23,qemb_pca_24,qemb_pca_25,qemb_pca_26,qemb_pca_27,qemb_pca_28,qemb_pca_29,qemb_pca_30,qemb_pca_31,qemb_pca_32,qemb_pca_33,qemb_pca_34,qemb_pca_35,qemb_pca_36,qemb_pca_37,qemb_pca_38,qemb_pca_39,qemb_pca_40,qemb_pca_41,qemb_pca_42,qemb_pca_43,qemb_pca_44,qemb_pca_45,qemb_pca_46,qemb_pca_47,qemb_pca_48,qemb_pca_49,question_num_options,block_Cognitive tests,block_Demographics,block_Economic preferences,block_Personality,qtype_MC,qtype_Matrix,qtype_TE
QID11,0.34018895,0.19476293,-0.14123933,-0.051482383,-0.018924639,0.011490382,-0.25742215,0.14626816,-0.42103875,-0.09850007,-0.15863198,-0.1673408,0.15009454,0.036087923,-0.06452443,0.11569863,0.0077627613,0.016799591,0.13807838,0.20780492,-0.0834016,-0.18094434,-0.12349933,-0.03942816,0.1878966,-0.09891765,-0.053693462,-0.05176425,-0.11623011,-0.07094507,0.021570208,-0.118893124,0.05787354,-0.06894288,0.17885993,-0.05001873,0.032528203,0.03038259,-0.16089861,-0.0042232154,-0.16336413,-0.008144429,-0.012050718,0.05828462,0.12092496,-0.06714542,0.02010805,0.1912102,0.0069624977,-0.03502846,5.0,0.0,1.0,0.0,0.0,1.0,0.0,0.0
QID117,0.6348335,-0.20120391,-0.19625734,0.42553076,0.36064506,0.15391201,0.027456647,-0.1473606,0.1177387,-0.16352212,0.024800962,0.047050446,-0.08155688,-0.079863906,-0.09678268,-0.06601622,-0.09367803,-0.054274295,-0.044144172,0.045168247,-0.0031244028,0.071486875,-0.02877147,-0.033106584,0.07328724,-0.08939686,0.08019724,0.06575924,-0.08730176,0.029945478,-0.03284404,-0.0045505716,-0.050829012,0.05678756,-0.1599916,-0.006196821,0.003676108,0.07165365,-0.018343212,-0.032247048,0.025043117,-0.024401862,0.014067536,0.007850295,-0.043183148,-0.041928243,0.010715298,0.067765705,-0.029328452,-0.06685919,6.0,0.0,0.0,1.0,0.0,1.0,0.0,0.0
QID118,0.6259531,-0.19951774,-0.20705278,0.3375874,0.36367998,0.23917848,-0.009512274,-0.16884871,0.045231085,-0.015881363,-0.013264761,0.0775249,-0.012982292,-0.05094838,-0.09270976,-0.02599791,-0.0676982,-0.1315646,0.005216898,0.044655696,-0.053374417,-0.0022526023,-0.02936214,-0.040802687,0.09637,-0.15414697,0.0633885,-0.12457335,-0.05205027,0.055926293,-0.07018297,0.11113539,-0.095804565,-0.033741433,-0.13551565,-0.05582024,-0.11792279,0.065087155,0.00973721,-0.00990036,0.022240128,-0.015738651,0.04814764,-0.029941894,-0.06524304,-0.058358107,0.056953132,0.007187013,-0.01179587,-0.036701493,16.0,0.0,0.0,1.0,0.0,1.0,0.0,0.0
QID119,0.5920023,-0.10952916,-0.119949944,0.42250273,0.41861778,0.28253323,0.06763687,-0.101580776,0.112633914,-0.08161606,-0.077039465,-0.030691255,0.15536119,0.020016719,0.1325778,-0.08614552,-0.018717075,-0.030736754,0.10404724,0.06285948,0.03034551,-0.022003256,0.012548737,0.04000352,-0.03528837,0.011115517,-0.1087929,-0.046278194,0.0346927,0.08723087,0.004003225,0.06410036,-0.023907386,0.020495497,0.06119621,0.014377517,-0.111161776,-0.050169665,0.05198444,0.03955327,0.054085642,0.05745403,0.025847163,0.03602157,-0.013254037,-0.13415904,-0.037563484,0.014776108,0.002345816,0.14956269,13.0,0.0,0.0,1.0,0.0,1.0,0.0,0.0
QID12,0.41256404,-0.050957568,-0.12773885,0.0045702467,0.08332055,0.0458505,-0.0027695645,0.21823312,-0.31886452,-0.13502553,-0.16652474,-0.05217302,0.25973606,0.24033196,-0.19791625,-0.016175391,0.12889865,-0.033080105,0.09523475,-0.03683364,-0.20305191,0.1880836,0.1749038,0.07081583,0.009076066,0.105755866,0.2492012,0.0061612185,0.16366848,-0.15919724,-0.09050099,0.091956474,-0.08583495,0.12816526,-0.14243942,-0.109009035,0.10871454,-0.0807591,0.015824819,-0.060779504,0.14940427,0.019764628,-0.07350355,0.093359664,-0.031811394,-0.02839207,-0.03323479,0.11859061,0.07260397,0.07021867,2.0,0.0,1.0,0.0,0.0,1.0,0.0,0.0
QID120,0.598759,-0.13255401,-0.08715468,0.3847182,0.41858068,0.23617949,0.111139335,-0.121542715,0.10640563,-0.11379263,-0.079404965,-0.06599377,0.17946513,0.03364077,0.13051344,-0.10391799,0.009385106,-0.03853475,0.05836679,0.030600574,0.101226926,0.038227152,-0.017824465,0.0751029,-0.019536356,0.03580911,-0.070106894,-0.04902139,0.05251988,0.032557044,0.00582791,0.1048019,-0.07636461,-0.012475067,0.012615929,0.0531258,-0.064219214,-0.076501206,-0.01690739,0.04913947,0.017881073,0.0019564948,-0.036419585,0.10158466,0.054949444,-0.023934267,0.07663342,0.017984048,0.028611824,0.033777036,10.0,0.0,0.0,1.0,0.0,1.0,0.0,0.0
QID121,0.58641344,-0.10106795,-0.10242722,0.4259305,0.42348996,0.27536157,0.085602306,-0.111361496,0.11146776,-0.11716951,-0.07186826,-0.039440054,0.16339374,0.023424488,0.14137036,-0.0906086,-0.04726028,-0.010330742,0.04612422,-0.0039532846,0.0695382,-0.0080412375,0.03926509,0.087183945,-0.01584827,0.0368406,-0.057684604,-0.06403078,0.0060058283,0.028316818,-0.038855,0.051119223,-0.07514127,-0.007848299,-0.01851821,0.028029274,-0.043170262,-0.057235222,-0.022355076,0.035792995,0.020083152,-0.008785347,0.03577943,0.059752993,0.026588231,-0.051438585,-0.010571361,0.066031575,0.017197743,0.1058908,7.0,0.0,0.0,1.0,0.0,1.0,0.0,0.0
QID122,0.5735389,-0.12081695,-0.105257444,0.42850164,0.42502958,0.27631375,0.09333788,-0.13399234,0.12270319,-0.14007077,-0.09804597,-0.063055746,0.14249161,0.027723696,0.120106496,-0.11832119,-0.00031461744,-0.042834915,0.047979653,0.04986054,0.09970498,0.016185783,-0.022644317,0.092852436,-0.032027256,0.08095756,-0.06619881,-0.06644084,0.05254978,0.036441702,-0.030359196,0.078431964,-0.06779589,0.012242953,0.012435675,0.018921303,-0.060387768,-0.059516687,-0.022482833,0.035197273,0.011955403,0.012678938,-0.018837538,0.03812015,0.06594038,-0.010171821,0.056773692,0.06175832,0.0050042537,0.02519859,4.0,0.0,0.0,1.0,0.0,1.0,0.0,0.0
QID125_r1,0.5086926,0.45611346,0.04469978,-0.4886832,0.09710537,0.07137499,0.0011858788,-0.025894184,0.016550567,0.06890688,0.06222461,0.105946556,0.065339535,0.036492787,0.0135178035,0.051030226,-0.04586085,-0.09489307,0.0032161793,-0.02569277,0.017608814,-0.048939392,-0.053793184,-0.08529104,0.018001312,0.013839967,0.051040366,-0.06288651,0.05453517,0.061687674,-0.060212493,0.07158667,0.02527155,0.015620834,0.0022046985,0.0107640615,0.060354043,0.057815667,-0.12765925,0.10619476,-0.0012892536,0.075502396,-0.052266687,-0.0239432,0.018271746,-0.03196322,-0.058903586,0.056086343,0.07141741,0.052448355,4.0,0.0,0.0,0.0,1.0,0.0,1.0,0.0
QID125_r10,0.50198084,0.44041446,-0.00022141845,-0.46100596,0.12158733,0.039931346,0.04108825,-0.006776509,0.08176101,0.010666532,0.037054956,-0.045039758,-0.022584058,0.099294774,-0.05898831,0.035536423,0.08540712,0.020374166,-0.028009366,-0.037815627,0.021617055,0.02872149,0.05308819,-0.03249832,-0.11012304,-0.007859028,-0.07437558,0.019060727,0.00044520188,-0.09301229,-0.0067701605,-0.017531967,-0.055027913,-0.19992104,-0.0029080664,-0.08266924,0.061646547,0.10532411,0.0148923425,-0.0077216653,-0.03700404,0.0673496,0.06469103,-0.04429837,-0.05241281,-0.02918675,-0.01549103,-0.0726685,-0.05482057,-0.13611667,4.0,0.0,0.0,0.0,1.0,0.0,1.0,0.0
QID125_r11,0.47495416,0.503494,0.016573718,-0.47423795,0.10364731,0.04751233,-0.0065620835,-0.057046827,0.054014534,-0.03206129,0.03667068,0.060120404,-0.04509313,-0.031141743,0.05320935,0.010182713,0.05628209,-0.00966169,-0.06318217,0.018472787,-0.0023916734,0.044211656,-0.01282726,0.10403577,-0.007281079,-0.09066439,-0.04274872,0.07611608,0.135746,-0.021264423,-0.030579133,-0.044940297,0.021394568,-0.0924811,-0.009288928,0.062174372,-0.015597406,0.06536966,-0.059104588,0.16907348,0.08175269,0.013510043,0.0118346885,-0.08901458,0.0024542813,-0.0007656147,0.008178741,-0.029032849,-0.019728702,0.05173265,4.0,0.0,0.0,0.0,1.0,0.0,1.0,0.0
QID125_r12,0.4837112,0.49510765,0.054813664,-0.51625466,0.102186225,0.05105056,-0.021148993,-0.029542455,0.033987585,0.017834635,0.057332892,0.10152238,0.012492702,-0.051354457,0.020063818,0.00084640126,-0.057980634,-0.03367484,-0.10370424,0.02017455,-0.05934728,-0.0034593767,0.006855977,0.046646528,0.014477078,-0.033981655,-0.062886745,0.11833235,0.06871705,-0.0029003154,0.047506355,0.010029196,-0.026504302,-0.0010102916,0.01954428,0.070101745,0.044206448,0.033365004,-0.06294935,0.12632969,0.07682049,-0.043188266,-0.0031484452,-0.07175426,-0.019632932,-0.02602147,0.048604034,-0.031412043,-0.077095814,0.03503369,4.0,0.0,0.0,0.0,1.0,0.0,1.0,0.0
QID125_r13,0.43269038,0.46598768,-0.013018446,-0.58055407,0.12164697,0.019262953,-0.00074049603,-0.11608268,0.029740954,-0.018723385,0.10022676,-0.036222454,-0.0683294,-0.060482614,-0.016410576,0.027946906,0.067725636,0.047868982,-0.073512584,-0.019377476,0.017925894,0.04994657,0.003928515,0.035787582,-0.0025876982,-0.05863765,-0.016318737,-0.047805864,-0.05256856,-0.03098076,-0.04490384,0.020607667,0.021082234,-0.0013493393,-0.042751964,-0.03630424,-0.064918585,0.0014456363,0.037336253,-0.019323839,0.021276731,0.0052187094,0.016222782,-0.08790223,0.020648398,-0.03268686,0.014000788,-0.02043429,0.054301605,0.03678376,4.0,0.0,0.0,0.0,1.0,0.0,1.0,0.0
QID125_r14,0.48035076,0.4343124,0.06199369,-0.5574207,0.10512848,0.010649503,0.0087737255,-0.042556006,0.03337782,-0.007155325,0.10283916,0.015465391,0.023645839,-0.026785819,-0.0013771487,0.009007362,-0.0019317996,-0.01890464,0.008002011,-0.027229413,0.023266358,-0.020307587,0.018033013,0.0019999954,-0.06261277,0.05613489,-0.004054462,0.01859387,0.009458567,-0.055502612,0.033476967,-0.037987478,-0.06908977,-0.04645009,-0.009723836,-0.09541894,-0.022045054,0.018548185,-0.014762048,0.021036012,-0.10803307,-0.019725153,0.07552191,0.029200705,-0.08478657,0.02096901,-0.01481684,-0.047630623,-0.04573185,-0.06246994,4.0,0.0,0.0,0.0,1.0,0.0,1.0,0.0
QID125_r15,0.44777504,0.41743463,-0.017367007,-0.52800894,0.09452433,0.004091758,-0.0041110567,-0.026168983,0.037712015,0.009894852,0.050999872,-0.11084827,-0.14235568,0.029718475,-0.031691056,0.005190821,0.14312571,0.020564074,0.06590695,-0.059550997,0.10270703,0.08512103,-0.009169435,0.0055594957,-0.073505156,0.052827355,-0.0017951393,-0.17329574,-0.1140495,0.01503272,0.015386883,-0.0839958,-0.020416236,-0.08935982,0.0061843027,-0.0478529,-0.0459233,-0.017238138,0.02433896,-0.05763417,-0.011605143,-0.0325874,-0.034350213,-0.016478643,0.011837667,-0.049318258,0.0049264617,0.033223823,0.0056608682,0.042970266,4.0,0.0,0.0,0.0,1.0,0.0,1.0,0.0
QID125_r16,0.49780583,0.50817466,0.0056635365,-0.59571135,0.12879589,0.057310566,0.03063406,-0.053748608,0.023672713,-0.019742452,0.033841405,-0.110906065,-0.08069387,0.008840375,0.016992467,-0.035365902,0.06375744,0.029592285,-0.033478085,0.027263531,0.058595944,0.06678231,-0.040748898,-0.02781268,-0.00086090906,0.031458426,0.04169803,-0.061150867,-0.07044231,0.0016070146,-0.011859872,0.0123536,0.03625557,-0.006702024,0.0029164972,0.022625918,-0.068627626,-0.018683732,0.028232757,-0.01901545,0.025281604,-0.015223279,-0.0019532912,-0.044452302,-0.0003499584,-0.0022307292,0.050194245,0.018120565,0.02765192,0.014170628,4.0,0.0,0.0,0.0,1.0,0.0,1.0,0.0
QID125_r17,0.4888871,0.42159486,0.062287133,-0.4278966,0.07208272,0.011891475,0.00468295,-0.03200897,0.015969053,0.0065976135,0.09587886,-0.018024419,0.09886823,-0.064451344,0.001733786,-0.042362034,-0.10793377,-0.089424476,-0.006259322,-0.015352293,-0.024056893,-0.08077874,0.07237019,-0.057458505,-0.12652701,0.040106744,-0.05341104,0.08502912,-0.14607593,0.004834393,-0.038550485,0.09790033,-0.046958752,-0.095732234,0.005952889,-0.03389969,0.078710176,0.020193426,0.0052148737,-0.022830296,-0.04939699,-0.074263245,0.1161445,0.054592106,0.0035998197,0.022764288,-0.0029223564,0.04371632,-0.105591334,-0.06774059,4.0,0.0,0.0,0.0,1.0,0.0,1.0,0.0
QID125_r18,0.498443,0.44785115,0.08796962,-0.4789662,0.14825742,0.052643847,-0.021705743,0.044287942,0.083619654,-0.0071848943,0.09921834,0.008027751,-0.034808587,0.015265,0.06253149,0.017585779,-0.053301938,0.009382815,0.0059496597,0.024041107,0.045229454,0.053984195,0.15504104,-0.06426243,-0.06299136,-0.0057308767,0.047043618,0.06800306,0.1065302,0.04074252,0.013703675,-0.028462883,-0.0278595,0.022208286,0.07452989,-0.055948917,0.07288475,0.0037867092,-0.01945494,-0.013848229,0.006659479,0.09137319,-0.013501273,0.060633793,-0.050187316,0.12997827,-0.017220197,0.0019015647,-0.07161371,0.0140870325,4.0,0.0,0.0,0.0,1.0,0.0,1.0,0.0
QID125_r19,0.48371175,0.47446835,0.08270933,-0.5005939,0.12822767,0.026121601,0.045620307,-0.026675416,0.015747689,0.04089234,0.041909963,0.03668614,0.114794716,-0.061568227,-0.010988173,-0.016312798,-0.13248935,-0.038400315,0.015219119,0.040065188,0.025380265,-0.07274574,0.02304269,-0.006369058,-0.037357304,0.021512637,0.059357278,0.009256936,-0.078282945,-0.012719788,-0.04232713,0.024079844,0.01880927,0.024984403,-0.04549799,-0.033699486,-0.06156391,-0.04521978,0.040358957,-0.07006142,-0.012707687,-0.061609663,-0.066710964,-0.037350446,0.013586178,0.029374633,0.05457142,0.005649953,0.0049296943,0.004875581,4.0,0.0,0.0,0.0,1.0,0.0,1.0,0.0
QID125_r2,0.48201853,0.48453698,0.04644841,-0.50995857,0.094625846,0.063860536,0.040796157,-0.016735485,0.019813826,0.025638793,0.07469106,0.06633037,0.08558498,0.03632473,0.014849825,-0.04730837,-0.0737822,-0.030878896,-0.015886184,-0.04102444,0.102089226,-0.033741668,-0.03421069,0.0055002905,-0.025222896,-0.046396703,0.03809512,-0.047343172,-0.044825163,-0.0581022,-0.043096256,0.09127691,0.027250933,0.14737812,-0.0071557215,0.028105658,-0.010657093,-0.07729967,0.03685929,-0.116615295,-0.07174826,0.0011764606,-0.0354432,0.055089656,0.04071292,0.039092325,-0.036672167,0.03994913,0.068366654,-0.03084938,4.0,0.0,0.0,0.0,1.0,0.0,1.0,0.0
QID125_r20,0.5128881,0.48880163,0.10328528,-0.42689136,0.14521974,0.008078723,-0.011198437,-0.03274089,0.0005665647,0.016828137,0.10002284,0.013791148,0.069686465,-0.037683707,0.024811672,-0.052113656,-0.10807034,0.027519125,0.0029148303,-0.019098582,0.11282326,-0.0026603409,-0.022223054,0.0041659274,-0.026446799,-0.013501957,0.042618625,-0.05252419,-0.033956252,-0.052448418,-0.016702829,0.03023139,0.049011372,0.21312782,-0.04455126,0.003672106,-0.06497198,-0.0027015826,0.015250959,-0.1302656,-0.0741483,0.019571599,-0.022071399,0.13907246,0.02549383,0.096937716,-0.053233095,0.014884026,0.07039845,-0.023877999,4.0,0.0,0.0,0.0,1.0,0.0,1.0,0.0
QID125_r21,0.47071838,0.49397737,0.06418759,-0.5348853,0.10930201,0.024430344,0.00971236,-0.012706487,0.020126263,0.06087548,0.051283926,0.027984584,0.00904534,-0.031109232,0.023981702,0.0413491,-0.018096799,-0.028436227,-0.079618424,-0.03424145,-0.030326819,-0.03152301,0.0026613667,0.08041085,-0.046172872,-0.071642995,-0.021408148,-0.023154125,0.05724906,0.01873866,0.03645906,0.019281635,-0.04985158,-0.04183577,0.014157762,-0.01092833,0.06267752,-0.05492522,-0.014607805,0.0297851,0.0020295857,-0.01333735,0.07073488,0.0787459,-0.009767604,-0.03701949,-0.046445265,-0.07948886,0.06972522,-0.056281265,4.0,0.0,0.0,0.0,1.0,0.0,1.0,0.0
QID125_r3,0.4490433,0.48141873,0.09516412,-0.46931377,0.057771195,-0.015417681,0.002024104,-0.07892528,0.038962282,-0.005600468,0.036081035,0.032208797,0.08052879,-0.020177176,0.04362831,-0.06012425,-0.049957592,-0.0387268,0.005542809,-0.04211473,-0.0034267895,-0.0065860962,0.0139098,0.013620619,0.028829584,-0.041251894,0.084942944,0.052738383,0.0774367,3.235895e-07,-0.050893024,0.062434692,-0.054414928,0.09620594,0.024560023,0.06696234,-0.065296456,-0.051116906,-0.05445689,0.09331124,0.024178501,-0.0744974,-0.05292286,0.10093704,-0.02058545,-0.007338105,-0.002664169,0.047830384,-0.025197692,0.009321537,4.0,0.0,0.0,0.0,1.0,0.0,1.0,0.0
QID125_r4,0.49610263,0.4831795,0.046166334,-0.56938475,0.06949411,0.038808305,-0.0048588417,0.0015235759,0.07000924,0.009128647,0.08232252,0.106414184,0.023240874,-0.023235697,0.042202823,0.024717195,-0.031927697,-0.022797095,-0.019458134,-0.046645578,0.011943785,-0.013868303,-0.0045142425,0.007825386,0.04407167,0.042349923,-0.021297354,0.008520763,0.05973141,-0.05680546,0.03301849,-0.05401913,0.01169216,0.022235379,0.002821352,-0.026314327,0.08933539,0.07627526,0.023015965,0.004479862,0.005622068,0.048968762,0.02673124,-0.09867576,-0.009526523,0.049955584,-0.0014852411,-0.00027235268,-0.018016253,0.03542002,4.0,0.0,0.0,0.0,1.0,0.0,1.0,0.0
QID125_r5,0.4522599,0.46984005,0.01968865,-0.5719302,0.06768607,0.039918624,0.019296432,-0.050677203,0.06771458,-0.030549763,0.026603775,-0.14735933,-0.066126116,0.0055612144,-0.036499634,-0.050503764,0.043530855,0.10563954,-0.010342208,-0.010410879,0.05631017,0.046281647,-0.019297967,0.0008972994,-0.012533339,0.046205346,-0.0063841306,-0.08202528,-0.07847774,0.027843751,-0.02905249,0.020231368,0.067652486,-0.049811296,-0.032140333,0.007937979,-0.08535368,-0.05178917,0.039396368,-0.049452536,-0.015329661,-0.0083856275,-0.030647492,-0.032282155,0.054351587,-0.048137452,0.011129906,0.028666474,0.034330852,0.08800176,4.0,0.0,0.0,0.0,1.0,0.0,1.0,0.0
QID125_r6,0.47460526,0.43511808,0.067435116,-0.48997793,0.1522034,0.03915795,-0.024509631,-0.005427868,0.04640898,0.036217,0.14148135,0.038756523,0.012845023,0.025845494,0.0096359085,0.005929829,-0.09561869,-0.047630917,-0.06360997,0.018743807,-0.02170404,-0.06591185,0.030068977,0.02686638,0.009067827,0.0140977865,0.04069737,0.09941756,0.010697121,0.007913,0.06749261,0.032523777,-0.027907463,0.059028167,0.022429917,-0.036751907,0.0400578,-0.012869568,-0.018411843,-0.0741594,-0.048417322,0.0044632275,-0.019345703,0.0865652,-0.07097873,0.00799762,-0.019297237,-0.024089849,-0.03700921,-0.08288373,4.0,0.0,0.0,0.0,1.0,0.0,1.0,0.0
QID125_r7,0.47805136,0.5028493,0.10006052,-0.51435375,0.1379994,0.02878987,0.02308419,-0.039933395,0.050975364,0.007011329,0.06360597,0.07466646,0.027753545,-0.06624435,0.026252119,0.001996566,-0.08999631,-0.020184102,-0.05679997,0.04545357,-0.03567994,-0.00052412413,-0.005740333,0.06719489,0.005220895,-0.0019336453,0.016985988,0.06402721,0.0022806944,-0.025365574,0.010854492,0.03416408,-0.041734137,-0.019716104,0.01102768,0.041278828,0.062762186,-0.011091592,-0.039227415,0.05548261,0.061342042,-0.078466296,0.02803603,-0.002808704,0.014327061,-0.008904396,0.011658104,-0.044544995,-0.073087625,-0.00042011222,4.0,0.0,0.0,0.0,1.0,0.0,1.0,0.0
QID125_r8,0.5106313,0.5162949,0.008511598,-0.5808156,0.11575571,0.0649753,0.025424842,-0.030598117,0.0112923905,-0.019092599,0.046788894,-0.08185672,-0.09715631,0.023560658,-0.007442764,-0.04300246,0.061733596,0.03572545,-0.03443438,0.0040151086,0.09274534,0.07394171,-0.044428054,-0.007057361,-0.0021147102,0.012532463,0.036055565,-0.06561719,-0.06441885,-0.0011563428,-0.014706125,-0.008442498,0.031306267,-0.031304613,-0.0017995926,0.034923133,-0.072719336,-0.0071512233,0.04332241,-0.015096577,0.019316562,0.026397334,-0.008139023,-0.03472201,-0.011455162,-0.012859775,0.049785685,0.033281676,0.033034835,0.03211413,4.0,0.0,0.0,0.0,1.0,0.0,1.0,0.0
QID125_r9,0.50720227,0.5130378,0.02697221,-0.56358516,0.11798511,0.042342886,0.032042388,-0.03218116,0.045847684,-0.025298258,0.07023048,0.028766373,-0.025690848,0.009297319,0.002264474,-0.013484445,-0.017228361,0.024181983,-0.0681383,0.02884008,0.041068546,0.064572036,-0.013859575,-0.006158672,0.03322205,0.0027050646,0.030963967,-0.03713381,0.026771106,-0.003767348,0.03754733,0.015082107,-0.017679835,-0.011509141,-0.025763823,3.105696e-05,-0.03883308,0.0318158,0.017407713,0.0052887285,0.0011187636,0.059368216,-0.012524322,-0.031625025,0.0374212,0.0035762663,-0.007608605,-0.038236562,0.0091899475,0.02889784,4.0,0.0,0.0,0.0,1.0,0.0,1.0,0.0
QID13,0.42106515,0.13387859,-0.19398457,-0.0033448974,0.108996965,0.09809939,-0.17086785,0.11630018,-0.33397144,0.045332007,-0.10229762,-0.0862743,0.13153212,0.17153762,0.026273597,0.10005786,0.0876801,0.030747078,0.099598736,0.12794335,-0.16905834,0.01875098,0.017243937,-0.027639078,0.059813634,0.02625562,-0.0068199732,0.086979784,0.063626766,-0.19197193,-0.15774924,0.09994064,-0.14531174,-0.06455552,0.15820193,-0.16098902,-0.08436182,-0.1802222,0.13983802,-0.032341268,0.23400156,-0.04440619,-0.06896376,-0.118802056,-0.16123433,0.11431634,-0.106550634,0.04850937,-0.14439085,-0.011200459,4.0,0.0,1.0,0.0,0.0,1.0,0.0,0.0
QID14,0.3487352,-0.055693258,0.02691195,-0.008918398,-0.050852474,-0.012890057,-0.22760387,0.3370717,-0.33375463,-0.23167375,-0.25606114,0.12692375,0.15535468,0.13804616,-0.0030088206,0.12606716,0.031224202,0.081464745,-0.0786316,0.10721758,0.0076598795,0.101803206,-0.16110575,-0.035109717,-0.06525664,-0.011021407,0.015570803,0.009461745,-0.1694592,-0.12496239,-0.1567931,0.002399024,-0.08248979,-0.18327469,-0.08621303,0.09001739,-0.072877154,0.095261894,-0.080100626,-0.084544584,-0.0012090541,0.14733951,-0.070302226,0.08776431,-0.09674188,-0.05007409,-0.24451974,-0.051089134,0.2102664,0.016714612,6.0,0.0,1.0,0.0,0.0,1.0,0.0,0.0
QID148,0.4646177,0.051025882,0.045583844,0.1428562,-0.12696946,-0.07331827,-0.07106629,0.011593045,-0.09973273,-0.034804158,0.12585455,0.10223307,-0.020155286,0.01645216,0.26248774,0.22050114,0.08584561,0.115567975,0.15791795,-0.059324924,-0.26190314,-0.046589077,0.40742818,-0.12655723,-0.24256516,-0.28742525,-0.19168475,0.06995186,-0.18330286,0.055297066,0.105272345,0.12645684,0.056728546,0.08536664,0.11620822,0.08070163,-0.11432536,0.10413093,-0.020138234,-0.047938235,-0.050327107,-0.100373805,0.14497958,0.122501954,-0.14565368,-0.070632905,0.0036793414,-0.030848198,0.0030929688,0.16797644,2.0,0.0,0.0,0.0,1.0,1.0,0.0,0.0
QID149,0.58323586,-0.10459842,-0.053188063,0.24910653,0.10706914,0.10450404,-0.19375631,0.08771223,0.1125327,0.14372504,-0.21821707,0.1289167,-0.010993869,0.1646479,-0.3316063,-0.17928866,-0.070852965,0.20883493,-0.23796393,-0.16047895,-0.029758349,-0.06973608,0.0926685,0.13853481,0.041997608,-0.08935689,0.06934139,-0.09985207,0.011413425,0.054283418,0.16753076,-0.04456618,-0.037237756,0.016559197,0.12250991,-0.05560068,-0.06315873,0.018165344,0.05717658,0.017534094,-0.07243517,-0.045419946,0.013131897,0.0016328808,-0.05467093,0.022119176,0.0051905094,0.006663726,0.026495159,0.033771247,2.0,0.0,0.0,1.0,0.0,1.0,0.0,0.0
QID15,0.26878548,0.09529547,-0.08223402,0.10608635,-0.04290919,0.12471518,-0.1243543,0.22119237,-0.42964503,0.07423621,-0.077946216,-0.2685049,0.20319332,0.114336565,-0.0636124,0.052277066,0.055693608,-0.037189085,-0.018574368,0.0959631,-0.060015157,0.11765966,0.03533556,0.20048375,-0.10307341,-0.17931634,0.059575714,0.024376478,0.11064668,-0.01961732,-0.022420324,-0.011331282,0.16323714,0.10389623,-0.0023712101,0.033913147,0.2016814,0.0045354753,-0.18298365,-0.04703023,-0.0025996799,-0.16393568,0.058957815,0.01353607,0.02813386,-0.2324772,-0.04900623,-0.21844313,-0.031820018,-0.022127261,5.0,0.0,1.0,0.0,0.0,1.0,0.0,0.0
QID150,0.52252734,0.099047326,0.11582931,0.19882858,0.18194067,0.07572762,0.0016370433,0.13081415,0.16400935,0.13502572,-0.22531486,-0.020792864,0.16965222,-0.027029587,-0.38946018,-0.08649296,-0.2002764,0.18852119,-0.0796572,-0.07735382,-0.1543089,-0.0758682,0.104631975,-0.05423136,-0.010252244,0.14976451,-0.029306492,0.09199298,0.045377985,0.09365466,-0.06676395,0.022128908,0.09791005,0.06480059,0.13009231,0.12687807,0.04408475,0.045766905,-0.034576677,0.029768385,0.048895694,0.122994006,0.050787933,-0.18800297,0.053195756,-0.103193626,0.08441878,0.042109273,0.025164038,-0.02193211,2.0,0.0,0.0,1.0,0.0,1.0,0.0,0.0
QID151,0.5591959,-0.06275565,-0.09111972,0.23739736,0.18063012,0.08094532,-0.15669969,0.07430685,0.05313117,0.16080204,-0.23216432,0.033428777,0.023439707,0.20264284,-0.3492485,-0.15970983,-0.03148308,0.36453038,-0.19438733,-0.146669,0.019434145,-0.019648511,0.087505475,0.11617757,0.087915234,0.01433832,0.034406744,-0.022448475,-0.04701965,0.01029056,0.13469003,-0.11905429,-0.034258213,-0.03241615,0.16213296,0.045700617,-0.008747046,-0.035425477,0.02771304,0.048915263,-0.11684028,-0.06242531,-0.010401264,0.01386847,-0.028681567,0.046534494,0.0013699373,0.033205368,-0.0051397937,0.037166946,2.0,0.0,0.0,1.0,0.0,1.0,0.0,0.0
QID152,0.57657146,-0.0015141639,0.07124768,0.21237691,0.14778551,0.07821908,-0.1624429,0.11997276,0.14629728,0.23132814,-0.11642641,-0.008265896,0.051308762,0.031829268,-0.4019404,-0.21392903,-0.045684338,0.32713783,0.019181147,-0.052032303,-0.1191318,-0.07896666,0.032994036,0.10127682,0.04067541,0.060916957,0.013476492,-0.037575494,0.053091805,0.056690834,-0.08714406,-0.053497765,0.10359919,-0.04107094,-0.083506964,-0.060835425,-0.046967514,0.027608054,0.050048955,0.0042450055,0.09717707,0.019347578,0.25354514,0.03421894,0.035905406,0.07177774,-0.02809566,-0.009602463,0.039018407,-0.012761853,2.0,0.0,0.0,1.0,0.0,1.0,0.0,0.0
QID16,0.24994497,0.13174044,-0.18451549,0.0889427,0.10139738,0.10621827,-0.25480282,0.24634676,-0.36997974,-0.0064522666,-0.071874134,-0.24799916,0.2536192,0.03732121,0.13274573,0.03579999,0.08555667,0.17364891,-0.004268949,0.09512882,0.031587556,-0.2168282,-0.07293862,-0.088176526,-0.11607922,-0.11791521,0.019513365,0.06628462,0.14553097,-0.09919269,0.15291783,-0.021407925,-0.15051559,0.028298289,-0.0067242575,0.033717267,0.005575418,0.14038779,-0.118261755,0.024862707,-0.10940232,0.053902574,-0.08748311,-0.010748624,0.09002624,0.03251457,0.10523154,0.15577134,-0.09048428,0.045056563,2.0,0.0,1.0,0.0,0.0,1.0,0.0,0.0
QID17,-0.08552099,0.023076693,0.012120466,-0.05470874,-0.07730586,0.08016222,0.056605972,0.084857784,-0.01779232,-0.06070136,0.014488745,0.107136734,0.043252207,0.12105455,-0.103536576,-0.20481336,0.0017776948,-0.12226618,0.21514806,-0.10146091,0.073578544,0.07317021,-0.15074234,-0.011156458,-0.027507987,0.04050831,-0.02731665,0.011467936,-0.08942443,-0.06525774,0.1152465,0.0016056605,0.022881633,-0.02134836,-0.029986085,0.0042695273,-0.07325719,0.0067121265,-0.01066875,-0.17619851,0.07855056,-0.057809718,0.12042099,-0.06440717,-0.0053459383,-0.10001877,0.04239425,0.07047337,-0.022309277,0.04164704,6.0,0.0,1.0,0.0,0.0,1.0,0.0,0.0
QID18,0.22806358,0.16617356,-0.11486319,0.08023553,-0.08174677,0.086134285,-0.23685427,0.20422694,-0.30585644,-0.08134728,-0.14382106,-0.21117678,0.093342096,0.11234924,-0.041953854,0.23486665,0.17575438,-0.31402037,0.030773444,-0.048904844,0.0745009,0.16298416,-0.05192958,0.23132034,0.017250976,0.013756926,-0.04470736,0.062086064,-0.062018447,0.21707144,0.018820178,-0.13918975,0.014561224,0.08702846,0.058063477,0.064878784,0.08934755,0.0055496236,-0.096758984,-0.107818104,0.025575675,-0.041148487,0.23256315,-0.13648799,0.0153358495,0.12399706,0.014234563,-0.06802654,0.027849672,0.0950953,12.0,0.0,1.0,0.0,0.0,1.0,0.0,0.0
QID19,0.38904685,0.043218847,-0.1582285,-0.04781766,-0.011403223,0.088375285,-0.16884315,0.08847231,-0.20743962,-0.06918437,-0.29061696,-0.05494318,0.021285482,-0.0990925,0.06923271,0.15387657,0.24779603,-0.25173324,0.11136635,-0.15002608,0.13869794,-0.08849443,0.14257199,0.22520141,0.20707946,0.14287102,0.09853417,0.05596629,-0.073151164,0.41875648,0.08027595,-0.046205055,-0.12804668,-0.07406677,0.004889259,-0.008170667,-0.113876365,0.108850196,0.06553368,-0.012745665,-0.0540804,0.13927737,-0.085398,0.0919864,0.0025393812,0.17534137,-0.12419398,-0.044964902,-0.015371988,-0.0071578952,6.0,0.0,1.0,0.0,0.0,1.0,0.0,0.0
QID20,-0.018760612,0.043198414,-0.18109617,0.076193735,0.031927392,0.22417173,-0.123278946,0.28576708,-0.1664257,-0.021115301,-0.049480688,-0.20424634,0.06420318,-0.009699593,0.10617259,0.0173427,-0.027878884,0.13339478,-0.08482596,-0.12810706,-0.016420325,-0.1939642,-0.08784747,-0.11231567,-0.1657408,-0.052280806,0.0830461,0.14913537,0.17771457,-0.023999682,0.24342652,0.11378102,-0.017346248,-0.08608757,-0.14558335,-0.053700622,-0.11348543,-0.01293147,0.16329451,-0.08189825,0.0026025868,0.03398832,-0.022620717,-0.03203665,0.085591994,0.0035695178,0.08642532,0.0032811598,0.03149644,0.029146433,4.0,0.0,1.0,0.0,0.0,1.0,0.0,0.0
QID21,0.55694616,0.011801959,-0.12242768,-0.021386597,0.07098152,-0.03408374,-0.14226803,0.17686607,-0.38339245,-0.063532926,-0.19689219,0.037565872,0.127467,-0.05811454,-0.31249788,0.17984174,-0.1492181,0.01837028,0.05670206,0.14689834,-0.007937912,0.09359762,0.053341907,-0.10353417,0.029424256,0.0538784,-0.10816288,-0.14938647,-0.0026406243,0.13063553,0.17689282,0.14930977,0.11231744,0.14920504,-0.083576165,0.14518721,0.047125515,0.07500858,0.11431079,0.07421354,0.005143645,0.010761757,-0.03751314,-0.10322563,-0.15354696,-0.0067414506,0.07961531,-0.036995728,-0.03187319,-0.060676266,5.0,0.0,1.0,0.0,0.0,1.0,0.0,0.0
QID217,0.3592824,0.11776789,0.1403837,0.29557976,0.2045602,-0.4903206,-0.14500117,0.32746986,0.24143197,-0.038167235,0.08074443,0.0399499,0.15488672,-0.006982631,0.10108486,-0.02954455,-0.13302685,0.015730402,0.009981428,0.028291393,0.045109317,0.009212596,-0.016223637,-0.050389867,0.11984594,-0.11098068,-0.010825765,0.033730704,-0.11661456,0.0026220286,-0.10310249,-0.1563468,-0.04401362,0.038779303,0.060999084,0.053824592,0.06611587,-0.047096953,0.03601562,0.05407257,-0.07810135,-0.02405208,0.0124828555,0.049444307,0.10665695,0.030887064,-0.09104886,0.009641998,-0.050866183,0.018507807,2.0,1.0,0.0,0.0,0.0,1.0,0.0,0.0
QID218,0.39012548,0.1361463,0.17283414,0.27183065,0.12762415,-0.4725358,-0.21748899,0.3912699,0.20336069,0.1200772,0.10408569,-0.12877055,-0.035384133,-0.09730696,0.15855062,-0.1544809,0.049095307,-0.052339435,0.07887057,-0.03578243,0.017005328,-0.029364185,-0.033999905,-0.006987118,0.119258195,0.033237793,0.008250497,-0.023324488,-0.010642043,-0.078732565,-0.03745652,0.04618771,0.08848499,0.004217349,-0.10035549,0.16593769,-0.009210469,-0.0670916,-0.08708539,-0.13716185,-0.045481693,0.01134164,-0.067420535,-0.03535322,0.07287598,0.0077310833,0.038278464,-0.09806573,0.098596916,0.07647637,2.0,1.0,0.0,0.0,0.0,1.0,0.0,0.0
QID219,0.36597,0.050099712,0.1274367,0.40247056,0.16931656,-0.53388906,-0.200815,0.26813012,0.12082005,0.1714909,0.2283618,-0.09878283,-0.01988053,-0.011361083,0.07231033,-0.099833325,-0.020394268,0.037411768,-0.036914844,0.05892835,0.10112281,0.010214003,-0.04171735,0.0446589,0.05504101,0.06620204,-0.03311243,0.01285721,-0.031044425,-0.051897615,0.025921356,0.092678376,0.0118258735,-0.028436346,-0.0851701,-0.07010541,0.025176475,0.024642522,-0.076304294,-0.02807241,0.032938488,0.018704377,0.051218677,0.019507447,-0.019550567,0.05319371,0.047915004,-0.042522818,-0.0020646665,-0.043219693,2.0,1.0,0.0,0.0,0.0,1.0,0.0,0.0
QID22,-0.026879348,0.032052137,-0.03332211,0.025237037,-0.04874609,0.11713046,-0.20074789,0.0650352,-0.036897432,0.0068296664,-0.017441738,-0.27840397,-0.025080975,0.07558683,-0.012371154,0.1363173,-0.049047068,-0.107480116,0.02347286,-0.11733902,-0.07365202,-0.20155916,-0.1321716,-0.029239945,-0.15392259,-0.115281396,0.15645404,0.13965748,0.06744373,0.0905644,0.2805272,0.13571404,0.024405614,-0.120731756,-0.14142615,0.036519065,0.05679426,-0.02896743,0.24545898,-0.054776866,0.021983374,-0.010163102,-0.04990213,0.050692543,0.07223374,-0.14827012,0.010117698,-0.012085029,-0.04213224,-0.02860873,5.0,0.0,1.0,0.0,0.0,1.0,0.0,0.0
QID220,0.28484792,0.07708876,0.086600125,0.32665357,0.13114053,-0.486723,-0.15151942,0.36416095,0.12444177,0.17210302,0.09873177,-0.18053497,-0.00775131,-0.006757324,0.09342999,-0.14382029,0.079571895,0.015230983,0.030483799,-0.09746217,0.00847523,0.032643415,0.09182829,0.0022909136,0.0063875085,-0.08358681,-0.04683072,-0.041492075,-0.17783232,0.03304705,-0.020286908,0.09542571,-0.05582223,-0.0822809,0.01673526,0.08288079,0.013317318,0.14330287,0.026393294,-0.09985195,0.011478277,0.066376485,-0.011240179,-0.012654922,-0.021042353,-0.13052353,0.045392174,-0.034040455,-0.010885937,-0.0723907,2.0,1.0,0.0,0.0,0.0,1.0,0.0,0.0
QID224,0.58628654,-0.122075,-0.24184711,0.43872118,0.27148595,0.1351717,-0.019392755,-0.19893228,0.1352096,-0.090094954,0.063949645,0.025704019,-0.085425675,-0.09511081,-0.09408803,0.06049558,-0.03436929,-0.16576608,-0.039823,0.094562136,-0.07966245,0.0024544208,0.049534623,-0.1498793,0.04343426,-0.14585756,0.224902,0.049705867,-0.08094826,-0.009521459,-0.06251939,-0.07872354,-0.017785355,-0.059294987,-0.07108153,0.05001263,0.034540135,0.040494896,-0.08489253,0.015769308,0.08224498,-0.023685612,0.012286963,0.00042983107,-0.020212157,0.08755844,0.04775,0.008831436,0.022080282,-0.036249474,6.0,0.0,0.0,1.0,0.0,1.0,0.0,0.0
QID225,0.5134255,-0.03189788,-0.22111101,0.47092745,0.25460735,0.1915324,-0.012141727,-0.26077136,0.1521433,0.041989133,-0.07282365,-0.026148181,0.017786335,-0.016816793,0.025822848,0.06657978,-0.0770392,-0.09266037,-0.031437565,-0.14215107,-0.11394936,0.05276218,-0.07615731,-0.054305546,0.02823838,-0.14118105,0.22192736,-0.1335584,0.014280639,-0.026065694,-0.074702695,0.019848946,-0.042770665,-0.099595726,0.010663423,-0.03506398,-0.013522142,0.025074834,-0.016280118,-0.017451117,-0.038249608,0.009225051,-0.029681068,-0.05187558,-0.10333319,0.05358156,0.12428267,-0.0884002,0.07713515,-0.020021608,2.0,0.0,0.0,1.0,0.0,1.0,0.0,0.0
QID226,0.5630442,-0.12698056,-0.24505848,0.4564762,0.4026591,0.2971583,0.100478284,-0.16505083,0.073559985,-0.04894517,0.092098095,-0.040852804,0.038345773,-0.0702942,0.14808425,0.024737759,0.027579594,-0.016511926,0.052249134,-0.0043680402,0.061186846,-0.03022836,-0.061801035,0.07300641,-0.11630007,0.02801982,-0.100707464,0.0035327533,0.039093852,-0.059738524,0.03575693,-0.09088668,0.098144986,0.008320385,0.13613644,-0.032288104,0.028106637,0.0008010063,0.04644756,-0.02394406,0.014017208,0.049022347,-0.033017136,-0.034302916,-0.032960612,-0.003129554,-0.04177308,-0.060138937,-0.014541296,-0.038877968,2.0,0.0,0.0,1.0,0.0,1.0,0.0,0.0
QID227,0.56033534,-0.1187348,-0.21641007,0.45552936,0.40075848,0.2738598,0.12982784,-0.19811024,0.073464185,-0.04767748,0.074204326,-0.047263876,0.085178375,-0.06956176,0.15385538,0.013835752,0.03561376,0.004985029,0.07336378,-0.03394475,0.08040434,0.039981417,-0.052454375,0.09896072,-0.098906316,0.07653986,-0.09622588,0.018329563,0.003896865,-0.09091155,0.034455653,-0.04690006,0.05307008,-0.02596499,0.06881501,-0.008692524,0.045446508,0.0060174535,-0.00836532,-0.0055703344,-0.034741733,0.022954289,-0.027611798,0.044734586,0.032241926,0.03346194,-0.05644098,-0.027974194,0.005402,-0.07334251,2.0,0.0,0.0,1.0,0.0,1.0,0.0,0.0
QID228,0.5579123,-0.1223402,-0.21296273,0.44128957,0.39986446,0.26667586,0.12747456,-0.19691704,0.08093648,-0.05875656,0.06659165,-0.051696472,0.08342928,-0.06696559,0.15752904,0.0033863073,0.039901163,0.007612886,0.07320684,-0.026885783,0.08790326,0.04278626,-0.060931873,0.0967525,-0.09788234,0.08176975,-0.094141155,0.01647591,0.009592797,-0.091875814,0.033935647,-0.035485797,0.053419687,-0.030344523,0.07062073,-0.0073009985,0.040640045,0.0026210332,-0.009623994,-0.0012479613,-0.031992745,0.02242793,-0.030689573,0.05337847,0.035608817,0.034555033,-0.048298262,-0.025657909,0.0017988578,-0.08198442,2.0,0.0,0.0,1.0,0.0,1.0,0.0,0.0
QID229,0.56133777,-0.12313129,-0.2482215,0.45180863,0.40106034,0.2892351,0.10488016,-0.15671559,0.06305864,-0.040403705,0.09923419,-0.032850485,0.041328687,-0.068599924,0.16134848,0.028988482,0.025897505,0.0014713332,0.059912074,-0.01119562,0.05609017,-0.029522374,-0.060061906,0.05853517,-0.12096379,0.015390571,-0.1105726,0.019804124,0.03772274,-0.057337075,0.052376162,-0.08609558,0.110024616,0.010344649,0.13852932,-0.034522735,0.026743945,-0.0030706127,0.053327613,-0.017477797,0.026548428,0.06102443,-0.028008075,-0.022370113,-0.049480844,-0.017925967,-0.053213708,-0.06050484,-0.016969262,-0.027608737,2.0,0.0,0.0,1.0,0.0,1.0,0.0,0.0
QID23,0.3006299,0.053206757,-0.24338982,-0.08887626,0.068224706,0.033588413,-0.15578206,0.14079848,-0.43004638,-0.041966647,-0.17846625,-0.032872956,-0.0010033076,-0.18425879,-0.06519117,0.058875553,0.013321396,0.06567626,0.19111106,0.28601074,0.08531533,-0.07496839,0.14393719,0.02900341,0.15374902,-0.024707139,-0.096809015,-0.18194118,-0.09051916,-0.031323656,0.11518196,0.02427616,0.025660213,0.023249367,-0.030655287,0.014748006,-0.028525416,-0.0407615,0.036827806,0.0980474,0.03675397,-0.039786253,-0.016598405,0.04304413,0.06480193,0.06620272,0.071678914,0.035757985,0.062247537,-0.15886405,5.0,0.0,1.0,0.0,0.0,1.0,0.0,0.0
QID230,0.5590627,-0.12237767,-0.23150393,0.44855848,0.3609045,0.25215766,0.08281468,-0.17903629,0.08005461,-0.048780542,0.039184865,0.00052883883,0.052582305,-0.065459326,0.1222267,0.035146285,-0.0018442089,0.0026874156,0.01245295,-0.012539226,-0.011691572,0.014986093,-0.04418416,0.029485751,-0.06157514,-0.034928877,0.030962504,-0.016470512,0.026612291,-0.06060811,0.06579762,-0.035167918,0.07916775,-0.030348815,0.048016284,0.007924435,0.04941951,-0.0079588415,0.0045337677,-0.06636733,0.028774185,0.036469694,-0.047107868,-0.022649493,-0.099977836,-0.0017984924,0.03140217,0.008024199,-0.01582697,-0.079019815,2.0,0.0,0.0,1.0,0.0,1.0,0.0,0.0
QID231,0.65099454,-0.13351315,-0.26136672,0.41137338,0.30001298,0.20930363,0.015513227,-0.15077466,0.09581552,-0.08284169,0.03848787,0.051761087,-0.10043662,-0.09405103,-0.14061922,0.009183362,-0.0955618,-0.10393138,-0.051138256,0.08168069,-0.052909616,0.0063938005,0.02074311,-0.11838781,0.051317755,-0.12200708,0.16689707,0.059550393,-0.120350584,-0.02092021,-0.06626424,-0.107658036,0.018459156,0.0054516103,-0.17020687,-0.007802768,-0.0083976295,0.0744666,-0.048100173,-0.05303449,0.030160824,-0.015787665,-0.009926524,0.0010764659,-0.01963838,0.01967912,0.0017888867,0.031391893,-0.0050351163,-0.07698806,6.0,0.0,0.0,1.0,0.0,1.0,0.0,0.0
QID232_r1,-0.057470288,0.19387028,-0.29334754,0.048924785,-0.17030035,-0.073289745,0.2219177,0.0047803596,0.16478348,0.28540012,-0.20034263,0.055668436,-0.029466614,0.017104764,-0.057312142,0.06763319,-0.040457364,-0.0010365826,0.11619193,0.19022787,-0.01817624,-0.025452495,-0.09115102,0.025191411,-0.09061452,0.03591554,0.07078723,0.041584995,-0.041110877,-0.072309405,-0.0065304986,0.0076150033,-0.043790568,-0.010119005,0.044982746,0.053738497,-0.093433455,-0.04086249,0.02065551,0.025153212,-0.026594337,0.05053137,0.092276305,-0.048389174,-0.0010157886,-0.060832154,-0.018833658,-0.033338506,0.07366382,0.010170193,5.0,0.0,0.0,0.0,1.0,0.0,1.0,0.0
QID232_r10,0.10606882,0.22039595,-0.34798658,-0.013349288,-0.20567153,-0.11239902,0.10943769,0.009142951,0.17266722,-0.13827763,-0.18324265,-0.12893483,-0.22059825,-0.00781565,0.1574936,-0.09802507,0.28657064,0.109927505,-0.05658593,0.1382098,-0.06425668,0.2044427,-0.06175973,-0.07811721,0.036184963,-0.012709823,0.090025485,-0.015154651,0.0033658072,0.03705339,0.10351043,-0.023600945,0.03945529,0.043512397,0.055694584,0.054550175,-0.04817283,-0.023778247,0.03525909,-0.021437526,-0.009557357,-0.041101623,0.08123669,0.05421567,-0.104737535,0.04901098,0.061399482,0.1037163,-0.015012224,-0.0033587378,5.0,0.0,0.0,0.0,1.0,0.0,1.0,0.0
QID232_r11,-0.020132694,0.21250433,-0.2777969,0.007820264,-0.23195302,-0.06940735,-0.006780277,0.106431715,0.062720306,0.22600673,-0.11723784,0.1005477,-0.04011345,0.09274326,-0.01496515,0.05769912,-0.0015133048,0.06641556,0.16115741,-0.15915184,0.05609335,-0.031715393,0.091677375,0.026745625,-0.031348605,-0.019888455,-0.17930754,-0.011786574,0.06761299,0.059949014,0.051992908,-0.1801324,-0.023250498,-0.09831823,-0.21833107,-0.10922914,-0.09241545,-0.06308763,-0.07578357,0.008290086,0.08704511,0.010942471,-0.14866106,0.033556703,-0.011975143,-0.027896414,-0.011846507,0.00066037,-0.053640515,-0.044172887,5.0,0.0,0.0,0.0,1.0,0.0,1.0,0.0
QID232_r12,-0.16281568,0.23717062,-0.36309257,0.022114674,-0.23699477,-0.050192334,0.088199615,0.013011885,0.052056227,-0.01389288,-0.027055454,0.033144414,0.020889733,0.019597216,0.02306593,-0.01837208,-0.10993377,-0.020970965,-0.016635483,0.03870684,0.050401088,0.022553042,-0.04607894,-0.051026683,-0.03459315,-0.049202833,-0.049192715,-0.0691774,0.017879345,-0.0048405873,0.03456649,0.009505028,0.02330936,0.03189358,-0.028919274,0.003634554,0.065055735,0.026110645,-0.021191746,0.007880034,0.0472321,0.022804633,0.0034972942,0.05178062,0.015009737,0.03311494,0.018572256,0.053606182,-0.012514973,-0.04271496,5.0,0.0,0.0,0.0,1.0,0.0,1.0,0.0
QID232_r13,-0.008919652,0.26627427,-0.19288853,0.10350554,-0.11412541,0.08978715,0.08126599,0.04024752,0.17363355,0.30048528,-0.10650853,0.025583446,0.0031294632,0.0043378,-0.061931472,0.09191493,-0.06484501,-0.042098094,0.12526551,-0.09245475,-0.0041365274,-0.10686211,-0.02139532,-0.012592256,-0.09110668,-0.028541472,-0.058921963,0.1365029,-0.043252565,0.15504807,-0.16623017,-0.022193238,-0.10456385,0.0147793265,0.0033631355,0.10004613,0.008062211,-0.15238027,-0.01902559,0.057931088,0.059029993,-0.11902497,-0.022604585,0.11012187,-0.039290655,0.016335726,0.0132773435,0.037207626,0.11130245,-0.13981262,5.0,0.0,0.0,0.0,1.0,0.0,1.0,0.0
QID232_r14,0.009368678,0.14928997,-0.32457352,-0.028141981,-0.22763254,-0.10663551,0.023305606,0.029553566,0.11635001,-0.07364055,-0.042853188,0.21571682,0.070122436,-0.06738578,0.21425182,-0.052080955,0.035855275,0.024924576,-0.0062898463,-0.062338986,-0.10309032,0.021395585,-0.0359872,0.07886471,0.11757241,-0.14300014,-0.01782737,0.011329105,0.1278732,0.09158441,0.17292449,-0.080656976,0.0402705,0.11982253,-0.013000355,0.08032944,0.016447961,-0.030825682,0.0067431545,-0.032854155,0.035724726,-0.0143978195,0.053495876,0.057255577,0.014140117,0.106537774,0.029735137,0.07369088,-0.014475776,-0.040465657,5.0,0.0,0.0,0.0,1.0,0.0,1.0,0.0
QID232_r15,0.065374754,0.25208816,-0.3453009,0.012338146,-0.1936435,-0.026776256,0.13093895,-0.016612425,0.114122085,0.005765016,-0.21838747,-0.2171524,-0.29176772,0.039461423,0.10068738,-0.15509303,0.27833673,0.08050469,0.007023205,0.1839603,0.0020483774,0.15359634,-0.07004347,-0.11200868,0.016885675,0.018761825,0.09360846,-0.104743525,-0.012290817,0.04515685,0.014733871,-0.023040712,0.04018153,0.011385234,0.039895568,0.04917315,-0.031540636,0.049476407,-0.000307017,-0.010401133,-0.037286967,-0.008471999,0.049837742,-0.008534363,-0.04992664,0.013993472,-0.010414528,0.0466774,-0.0140587455,-0.022500675,5.0,0.0,0.0,0.0,1.0,0.0,1.0,0.0
QID232_r16,-0.023655295,0.20103355,-0.22068809,0.14643662,-0.19603741,-0.010075878,0.15162644,0.036644295,0.21166258,0.16251609,-0.10347309,0.1207644,0.020767927,-0.04079296,-0.040390994,0.07201827,0.107885085,0.023748111,0.005998254,0.1978401,-0.11899791,-0.040103283,-0.06475055,0.046567664,-0.016364688,0.08083688,-0.11636187,0.24041899,0.022691086,0.014635203,0.016653853,0.0668168,-0.039716795,-0.07061236,-0.048831176,0.08887751,-0.03224751,-0.08492379,-0.058780648,-0.015417664,-0.008932559,-0.12598102,0.015483771,0.0096644,-0.034647975,0.02631411,-0.0093648415,-0.031090047,0.12956241,-0.039524794,5.0,0.0,0.0,0.0,1.0,0.0,1.0,0.0
QID232_r17,-0.08503259,0.18600114,-0.33070698,0.10854361,-0.28627184,-0.062573805,0.16362926,0.0005975644,0.0881898,0.16719206,-0.14934202,0.062187485,-0.016608076,0.021196263,0.014239857,0.0075543597,0.03963945,-0.054175284,0.007465278,0.19079445,-0.0003789523,-0.063050576,-0.016828168,-0.025428113,-0.035481013,-0.028364496,0.044933163,0.07994175,-0.057500906,0.02435964,0.01873782,0.115420595,-0.070617,-0.011377431,0.022815246,-0.0050568683,0.003705413,-0.065365106,0.018817985,-0.01978891,-0.04639197,-0.019935522,0.019654427,-0.07781515,0.08345251,0.004883743,0.0062526506,-0.047918085,0.039417394,0.015837094,5.0,0.0,0.0,0.0,1.0,0.0,1.0,0.0
QID232_r18,0.0026131037,0.21333082,-0.181904,0.06313652,-0.18959656,-0.067719124,0.1113315,-0.021573337,0.23554157,0.26645607,-0.2285763,0.24726914,0.053683754,-0.16362369,-0.024964394,0.027547387,0.050594836,-0.026010374,0.11619596,0.08299159,-0.040861305,0.049566012,-0.04240418,-0.00063753745,-0.05083678,0.031693555,0.03473677,0.12444232,-0.1435471,-0.07366335,0.07000434,0.055284478,0.030737294,0.018093435,0.085724995,-0.09202653,0.093851194,-0.05278991,0.04298357,-0.013782411,-0.027430857,0.0036732042,-0.0720856,-0.0041838447,-0.04005057,0.033811733,0.026401702,-0.033944357,0.0406051,0.024637105,5.0,0.0,0.0,0.0,1.0,0.0,1.0,0.0
QID232_r19,-0.059724323,0.2138063,-0.33686227,0.083791524,-0.26805738,-0.05384655,0.20327118,0.007721378,0.06665286,0.18089613,-0.1542661,0.022188496,0.008251716,-0.009699962,0.028468374,0.028923497,0.044899505,-0.05390713,0.057930525,0.23635797,-0.003962657,0.0017538259,-0.02860648,-0.0983835,-0.07065676,0.041042686,0.09307816,0.07345554,-0.04841736,0.05831517,0.0576643,0.12971327,-0.06953277,0.0048885304,0.03381535,-0.056350295,0.006650649,-0.020586682,-0.03030095,0.03427119,-0.08390462,-0.0052899374,-0.01699768,-0.05531484,-0.003633003,0.015252306,-0.05092797,0.015965033,0.07187428,-0.0072946674,5.0,0.0,0.0,0.0,1.0,0.0,1.0,0.0
QID232_r2,0.022880204,0.22540514,-0.31231165,0.09309384,-0.23350033,-0.03296694,0.16534895,0.027615083,0.1708715,0.2995263,-0.15632322,0.1926977,0.029821953,-0.031969603,-0.08772069,0.029084658,0.11760286,-0.028198807,0.14053215,0.10042721,-0.030279115,0.055610005,0.015319518,-0.05446902,-0.10720572,0.040196918,-0.06000109,0.08246128,-0.021638557,0.017854977,0.13517234,-0.06757589,0.008616812,-0.04812297,-0.09603125,-0.11680207,-0.06868207,-0.04399583,-0.0946425,-0.010521944,-0.046735864,0.07244755,-0.081431516,0.02375858,-0.005476385,-0.0020889116,-0.064689405,-0.013175648,-0.013167166,0.033999804,5.0,0.0,0.0,0.0,1.0,0.0,1.0,0.0
QID232_r20,-0.032833602,0.16056533,-0.39918536,0.04238735,-0.25078705,-0.15238054,0.031754848,-0.0038663028,0.076743476,0.12671122,-0.21346892,0.17868376,0.10394648,-0.08124261,0.027387178,-0.035836823,0.07223785,-0.028092986,-0.01552232,0.1378743,-0.059405655,0.09633749,-0.084951766,0.06273688,0.038055714,-0.007169443,0.035247944,0.018769864,-0.024742069,-0.07158977,0.119545944,0.030541215,0.0019582529,-0.004123016,0.08679035,-0.073558785,0.017471945,-0.07999882,0.08808552,0.02403781,-0.038148068,-0.027706526,0.045123197,-0.01146786,-0.009416728,0.023989206,0.08428876,-0.03709311,0.013202921,0.0107566165,5.0,0.0,0.0,0.0,1.0,0.0,1.0,0.0
QID232_r3,-0.07721739,0.012407848,-0.29070127,0.0804892,-0.19085854,-0.11847057,0.08771432,0.0065093916,0.14259876,0.20713033,-0.19634447,0.35707325,0.052371573,-0.10229441,-0.014200949,-0.017987153,0.09610909,-0.009909028,-0.01936292,0.009665534,-0.030217137,0.062094588,-0.090899326,0.08603563,0.0008348797,-0.06545976,0.026151035,0.093133554,-0.031199047,-0.024979286,0.0409822,0.036593057,-0.017407963,0.0103850495,0.04337284,-0.12097563,0.047456127,0.034770124,0.0141205415,0.028704353,-0.05811845,0.021440111,0.01326401,0.023415823,-0.049321275,-0.08113595,-0.031582415,-0.0041258577,-0.06420917,-0.0040917117,5.0,0.0,0.0,0.0,1.0,0.0,1.0,0.0
QID232_r4,0.029508924,0.21581922,-0.20676073,0.057793427,-0.10226788,-0.00034821368,0.06538707,0.08756849,0.04181989,0.009398896,-0.13382475,-0.30014145,-0.358306,0.26974872,0.105159044,-0.18274572,0.11370659,0.11851625,0.06233891,-0.0758376,0.1046751,0.05545239,-0.03236051,-0.020058753,0.077560484,0.012778784,0.015827192,-0.0817226,0.085236184,0.021957625,-0.086109005,-0.037266325,-0.037377544,-0.010684457,-0.033104658,0.12044047,-0.016155818,0.016536485,0.0010016651,-0.026638303,0.050723795,-0.031874206,-0.057864364,0.021811368,-0.06311809,-0.036890037,0.05641216,-0.009113772,-0.15033914,-0.124474585,5.0,0.0,0.0,0.0,1.0,0.0,1.0,0.0
QID232_r5,-0.14656441,0.17973675,-0.30961353,0.114399225,-0.24839878,-0.023468478,0.1309234,0.0025237105,0.060684204,0.03807509,-0.059635993,-0.013810179,0.055712853,0.042939477,0.01748559,0.036742523,-0.10188938,-0.003748145,-0.07109099,0.064836524,-0.010120458,-0.07589286,0.008448848,-0.05924114,-0.00083226524,-0.048331667,-0.040514965,0.016182797,-0.010871676,0.06775768,-0.11623297,0.056763582,-0.07539541,0.07021101,-0.026515141,0.01051559,0.04162174,0.02850347,0.06120603,-0.070588134,-0.0057535945,-0.084321894,-0.06303801,-0.033647865,0.069050804,0.034985792,0.03588615,0.03488611,0.019609708,-0.049006216,5.0,0.0,0.0,0.0,1.0,0.0,1.0,0.0
QID232_r6,-0.0038215416,0.23942399,-0.32950726,0.050318163,-0.20268579,-0.051384915,0.17413244,0.016338898,0.08425559,-0.04253367,-0.18091123,-0.22294638,-0.27384526,0.07584718,0.090662494,-0.15439458,0.20819321,0.1285464,-0.014144493,0.17561015,0.051193744,0.11762261,-0.012574656,0.0047390903,0.022663519,0.026598442,0.0749477,-0.02512278,0.044452455,-0.011801493,0.025804756,0.031466857,-0.04974903,-0.00792477,0.016466506,0.07843062,0.0056365016,0.024851717,-0.035537787,0.01398817,-0.011486537,-0.039364643,0.01997749,-0.009328383,-0.04255846,0.0068047834,-0.0008850775,-0.023138575,-0.031446103,-0.010847556,5.0,0.0,0.0,0.0,1.0,0.0,1.0,0.0
QID232_r7,-0.030588519,0.27335805,-0.25637126,0.08315105,-0.21382403,-0.04879493,0.086911686,0.13468629,0.06479445,0.23543486,-0.11534563,0.06626155,0.0379544,0.03763174,-0.10918649,0.04920207,0.005685963,0.011853785,0.17133358,-0.057292517,0.06600057,0.011995111,0.044636976,-0.00029994966,-0.15579373,-0.03286317,-0.1839774,-0.11666223,0.020878248,-0.013679138,0.020323047,-0.23354022,0.030569436,-0.07575362,-0.22046489,-0.050136637,-0.120308354,-0.06393901,-0.054337382,-0.028088808,0.027079945,-0.010745815,-0.050765723,-0.012189343,-0.0044141794,0.07593157,0.006487001,0.0148329465,-0.046019334,0.005396324,5.0,0.0,0.0,0.0,1.0,0.0,1.0,0.0
QID232_r8,-0.15468454,0.19514826,-0.3408386,0.024762543,-0.26363325,-0.0070848763,0.16829434,-0.035499673,0.0802968,0.1199396,-0.040807515,-0.0083550215,0.07823685,0.019855462,-0.034060616,0.027211031,-0.15513605,-0.01954664,0.05301748,0.053063452,-0.00021698937,-0.061710004,-0.027504282,-0.059698552,-0.082752995,-0.036400773,0.046368763,-0.050409675,0.0052496083,-0.0016204882,-0.07467727,0.03797488,0.026031222,0.018825758,0.059088226,0.049798924,0.020987492,0.010901542,0.019592933,-0.016105598,0.000384375,-0.022173563,-0.018266993,0.00024402564,0.017983625,0.03131859,-0.012854104,0.049062464,0.04487134,-0.05257323,5.0,0.0,0.0,0.0,1.0,0.0,1.0,0.0
QID232_r9,0.012042445,0.23682034,-0.26758847,0.054269988,-0.14406553,0.0061434614,0.12382741,0.06757795,0.18586396,0.14177908,-0.09036592,0.10937071,-0.02152064,-0.018555976,0.10338343,0.097564556,-0.008425685,-0.03544849,0.09047806,-0.012275233,-0.063054934,0.05239835,0.03220245,-0.17673554,0.020783542,-0.11249463,-0.057421654,-0.042354356,0.17419876,-0.02692666,0.028528985,-0.032683954,0.095946305,0.006401667,0.028612815,0.027212529,0.054113615,0.095671624,-0.04319054,0.034735885,0.09124448,0.15476373,0.049637325,0.13680789,0.04196842,0.035862274,-0.008691065,0.012622828,-0.120976165,0.09947415,5.0,0.0,0.0,0.0,1.0,0.0,1.0,0.0
QID233_r1,-0.4114117,-0.0172165,0.06559418,-0.030538075,-0.0005651788,0.0009175575,-0.058739632,-0.015163337,0.05574881,-0.04381659,-0.008303322,-0.053722866,-0.00071453355,-0.10347786,-0.09835112,-0.036616072,-0.043370258,-0.06765528,0.0076686377,0.020285727,0.0111801075,0.055922482,0.015367913,-0.0028313973,-0.030572657,-0.008445956,-0.016111353,-0.03740813,0.03500047,-0.030017205,0.004502348,0.010508985,0.024628622,0.0068399166,0.020069642,0.035581827,-0.049714804,-0.0054748063,-0.054740377,-0.05171604,-0.03787656,0.032350972,-0.010482888,-0.0075356658,-0.024898114,-0.02293154,-0.013933351,0.009126798,0.012120838,-0.06049097,5.0,0.0,0.0,0.0,1.0,0.0,1.0,0.0
QID233_r10,-0.3219917,-0.11651319,0.103775576,-0.13599731,0.03667066,-0.04940177,-0.062515445,-0.014239633,0.1087287,-0.027759684,-0.12744446,0.0943436,0.09236596,-0.13341556,-0.05215298,-0.063294455,-0.013341408,-0.053438954,0.0068121986,-0.010928611,0.0774535,0.047725644,-0.018702231,-0.066098385,-0.02950324,-0.015125991,0.06325899,0.01490143,0.026496584,0.030160587,0.03455427,-0.059318528,0.017389609,0.014147414,0.0174984,0.025985658,-0.06882198,0.0290385,-0.010066609,0.022248598,-0.02035305,-0.012873413,0.017831497,0.0035721976,0.00025883756,-0.05724399,-0.0058828644,-0.003455762,-0.027126847,0.035925355,5.0,0.0,0.0,0.0,1.0,0.0,1.0,0.0
QID233_r11,-0.21156387,-0.015500869,0.08633396,0.022195203,-0.06950201,0.018615218,-0.03965076,-0.1654105,0.074954264,0.114041634,-0.09054388,0.19412585,0.12284883,-0.032211956,-0.017265063,-0.03217779,0.10323843,-0.10192594,0.11359279,-0.06524539,0.07159177,0.034658458,-0.025136016,0.046094928,0.022059027,-0.05971631,0.04530089,-0.123743415,0.07407707,0.030865025,-0.06808419,0.1083126,-0.08002336,0.14953043,0.041931618,-0.026135135,0.077356145,0.008493603,-0.0007489342,-0.06408802,-0.050650574,-0.007958771,-0.08612711,-0.12285618,0.07375967,-0.04441892,-0.105082594,-0.024895472,-0.022969782,-0.04050915,5.0,0.0,0.0,0.0,1.0,0.0,1.0,0.0
QID233_r12,-0.31819403,0.002630439,0.08559467,-0.043044943,0.0029786315,0.020380562,-0.062575966,-0.07318765,0.16867541,0.020576514,-0.10453427,0.04806908,0.14717019,-0.1434105,-0.032789264,0.008717748,0.08244727,-0.0829777,-0.015201074,0.043804638,0.026744088,0.07651827,-0.0812631,-0.06638988,0.010554237,-0.098798156,-0.036262143,-0.0501021,0.100702435,0.035936978,-0.008504031,-0.012130982,0.030146869,-0.008940531,-0.0021883834,0.039402325,-0.030004006,0.0031232617,-0.007411093,-0.01803143,-0.07579663,0.0072618914,-0.02156519,-0.058891445,0.0029530332,-0.01634701,-0.015510511,0.07191692,-0.08741925,0.021227052,5.0,0.0,0.0,0.0,1.0,0.0,1.0,0.0
QID233_r13,-0.18207125,-0.07693868,0.13171943,-0.041255433,0.042444002,-0.14003034,-0.10769349,-0.013097734,0.07112907,-0.015812753,-0.050972644,0.027587239,-0.0010489927,-0.21514982,-0.20516461,-0.0104440525,0.115798496,-0.24639559,0.04031029,0.08828535,-0.0061728293,0.0551336,0.12909713,0.07105807,-0.01002958,-0.058562156,0.122076854,-0.06565744,0.0789712,-0.15861577,-0.053293552,-0.06401829,0.0088295285,0.007953173,-0.0060577546,-0.049644426,0.04080447,0.04816207,0.07691631,0.042243585,0.029294282,-0.01542968,-0.07178718,0.12056923,-0.048026297,0.0106333215,0.0024993052,-0.032448184,-0.05291839,-0.0033516062,5.0,0.0,0.0,0.0,1.0,0.0,1.0,0.0
QID233_r14,-0.1585656,-0.15835586,0.028436003,-0.056179438,0.011424583,-0.12495817,-0.02366236,-0.031208988,-0.034911606,-0.09536325,-0.009909569,-0.064946555,0.074806646,-0.20350833,-0.15864941,0.099912465,0.18978511,-0.08688178,0.20305121,-0.19869296,0.12353684,0.041928995,0.08143541,-0.02664238,-0.08027459,0.0028334965,0.0044362177,-0.04539102,0.09826713,-0.058687743,-0.02921948,0.012186261,0.010203351,-0.04233404,-0.07902886,0.05753673,0.08455679,0.014566119,0.022266109,0.0053477674,-0.05848309,-0.0028716973,0.0553067,-0.032088935,0.018787151,-0.021776356,0.061413515,0.07595512,-0.019342816,-0.015448895,5.0,0.0,0.0,0.0,1.0,0.0,1.0,0.0
QID233_r15,-0.17006697,-0.12844361,0.02993684,-0.039529767,0.016994445,-0.08088059,-0.0239884,0.03975509,0.035658177,0.014176852,-0.022603529,-0.04542817,-0.0007385514,-0.2490521,-0.23482342,0.027643992,0.13865866,-0.21506888,0.13326569,-0.020858316,0.08907917,0.12306197,0.19605373,0.06215329,-0.08692792,-0.015418835,0.05638864,-0.06941753,0.05637604,-0.04004921,-0.035520166,0.002855064,0.029935744,-0.019202894,-0.020781916,0.010862812,0.115892515,0.01822763,0.07106294,0.070685074,-0.024479216,-0.049261246,-0.0043497426,0.036552604,-0.00010455923,0.04973457,0.070640884,0.01665588,-0.070638455,0.0039251433,5.0,0.0,0.0,0.0,1.0,0.0,1.0,0.0
QID233_r16,-0.2894747,-0.12166396,0.10719142,-0.04536563,-0.046511784,-0.06548199,-0.039506063,-0.06360753,0.13839844,0.008240672,-0.012280532,-0.1313319,0.0779488,-0.13030128,-0.12126686,0.010482139,-0.010254263,-0.16444556,0.0067012426,-0.047409374,-0.025187925,0.051662385,-0.035311397,-0.05746328,-0.093643576,-0.036653858,0.087698616,-0.005887001,0.06941396,0.040769625,-0.031262085,-0.041087423,-0.07004949,-0.04950403,0.08291171,0.018115716,-0.044369694,-0.017039446,-0.029835608,-0.025719369,-0.08371839,-0.023745408,0.05721715,0.011364348,0.00049750187,0.024849873,0.024934137,0.017922007,-0.029501542,0.036932062,5.0,0.0,0.0,0.0,1.0,0.0,1.0,0.0
QID233_r2,-0.33028367,-0.028867641,0.023913777,-0.07311602,0.027024154,0.05087984,-0.051773936,-0.012528092,0.0077252504,-0.043613676,0.084804624,-0.008098351,-0.06767713,-0.12043221,-0.04637802,-0.027765859,-0.014854671,-0.04081769,-0.045451675,0.037963904,0.013971896,0.035480116,0.07232583,-0.008427927,0.010775858,0.042036843,-0.04471165,-0.012286135,0.07516741,0.047406755,0.009289712,0.00755404,0.028921816,0.02423417,-0.014157813,-0.03724751,-0.051335145,0.0027116623,-0.11559631,-0.06696942,-0.052753,0.009633042,-0.007629472,-0.09152022,-0.054612022,-0.08923703,0.026074128,0.05119558,-0.015165261,-0.09231358,5.0,0.0,0.0,0.0,1.0,0.0,1.0,0.0
QID233_r3,-0.33477944,0.0059521645,0.08411766,0.0078075435,0.00604462,-0.07470982,0.010867634,-0.10498546,-0.0046693454,-0.031689033,0.052182563,-0.023354596,0.048075944,-0.09893121,-0.08875749,0.026631363,0.035162788,-0.044902425,0.007142155,0.04252343,-0.042659335,0.048718672,0.016074765,0.08285149,0.002033307,-0.10729359,-0.04326929,0.030275926,0.04619666,0.052879695,-0.009630964,-0.0239676,-0.0025346272,-0.06273195,0.041615028,0.01071773,-0.0908931,-0.0470481,-0.0029949455,-0.0028970044,-0.036205098,0.100884356,-0.02818358,-0.077783495,0.07059625,0.025033988,-0.038668126,0.0025335678,-0.058942933,-0.13954623,5.0,0.0,0.0,0.0,1.0,0.0,1.0,0.0
QID233_r4,-0.36137608,-0.038576957,0.03138478,-0.030970292,0.021255564,-0.0034420372,0.0266042,-0.024030862,-0.03354661,-0.051817227,0.041797895,-0.085066475,0.025153087,-0.019128585,-0.117329605,-0.05186521,-0.05819889,-0.10183307,-0.0004643557,0.087401934,0.03565578,0.019399358,0.0029649679,0.01729106,-0.10263115,-0.033480503,0.01212888,0.019209135,0.026081186,0.010498013,-0.019525275,-0.05864605,-0.0006505725,0.06907592,0.022447927,-0.04965547,-0.047844395,0.029249365,-0.062096715,0.021235304,-0.04615818,0.01821581,-0.05672826,0.0041989298,0.025254099,0.016572062,0.09891927,0.04544083,0.033569872,-0.009219646,5.0,0.0,0.0,0.0,1.0,0.0,1.0,0.0
QID233_r5,-0.31771708,-0.17010407,0.1678099,-0.08236582,-0.01495499,-0.07536214,-0.08423792,-0.030961094,0.112637125,-0.14774773,-0.08676001,0.025603913,0.13688146,-0.08724285,-0.034750354,-0.046672076,0.013001477,0.03891212,-0.0015014986,-0.043589555,0.056391705,0.017085223,-0.013371444,-0.115715675,-0.086087495,-0.0017068898,0.02611489,-0.025790986,0.07174181,0.034685113,-0.048741568,-0.017187586,0.01621189,-0.010774138,0.020401824,0.034562167,-0.107918024,-0.009478962,-0.017208407,0.0029309005,-0.08045828,0.01697007,0.019868994,0.001539902,0.0076355776,-0.034028742,-0.057289142,-0.032737523,-0.065130495,0.020794073,5.0,0.0,0.0,0.0,1.0,0.0,1.0,0.0
QID233_r6,-0.23839748,-0.091323525,0.19520694,0.037798762,0.005474863,-0.07356851,-0.1531058,-0.025457298,0.096330956,-0.017633937,-0.14792746,-0.019704733,0.024928873,0.06814631,-0.09584191,-0.0411726,-0.047162417,-0.02740251,-0.14366706,-0.04306204,0.008821123,0.1439046,-0.118730895,0.0415131,-0.12853694,-0.19725591,0.017262185,-0.09309477,0.047022205,-0.004732447,0.08390557,-0.012162452,-0.051561516,-0.06641567,0.024662042,-0.036658365,-0.10799259,-0.018258695,-0.028137065,-0.03882992,-0.012770785,-0.08001842,-0.012210185,-0.012931617,0.0052145114,0.045095153,0.08646916,-0.0583169,0.0069289412,-0.004032926,5.0,0.0,0.0,0.0,1.0,0.0,1.0,0.0
QID233_r7,-0.15590233,-0.07250357,0.2691392,0.13470982,-0.0276049,-0.18882145,-0.19127953,-0.12383373,0.03508619,0.044390384,-0.08335157,-0.112873726,-0.034835253,-0.031801615,-0.0011517152,-0.11680459,0.023781052,0.03640963,-0.055600718,-0.027517164,-0.08199089,0.07042056,-0.1642873,0.107635036,-0.10656027,-0.22105153,0.06793837,-0.1173153,0.09919463,-0.043093946,-0.017461255,-0.015986567,-0.07418143,0.0322108,-0.088636264,-0.03687349,-0.025192762,-0.044035465,-0.13635951,0.043270208,-0.02998826,-0.016844066,-0.07487779,0.008805011,-0.079136394,0.040449403,-0.058001045,-0.1652259,0.03305451,0.05553224,5.0,0.0,0.0,0.0,1.0,0.0,1.0,0.0
QID233_r8,-0.1662446,0.0091833,0.14585224,1.0126472e-06,-0.014570607,0.025755635,0.04756255,0.024803266,0.14858162,0.016575472,-0.1027037,0.09619074,0.06636039,0.14471729,-0.029312849,0.012471334,-0.0033639686,-0.017808713,-0.015115399,-0.09657703,-0.04449119,0.06261017,-0.014928285,-0.05443105,0.040459685,-0.14747949,-0.13397539,-0.051854376,0.16817883,-0.04701565,-0.14859614,0.14194809,-0.02702173,0.083154745,-0.021978803,0.09002827,-0.049812045,-0.038281377,-0.037560012,-0.04817502,0.015984492,0.010908095,0.013159382,-0.040988088,0.061283574,0.027901394,-0.17790605,0.038993575,-0.10872313,-0.013508467,5.0,0.0,0.0,0.0,1.0,0.0,1.0,0.0
QID233_r9,-0.22149839,-0.05992249,0.096273094,0.03989627,0.074260235,0.047863062,-0.054425355,-0.040800225,0.090224855,-0.014517437,-0.14130923,0.15146706,0.13829741,-0.0061921654,-0.0496474,-0.106040426,0.041970138,0.04309263,-0.11588546,-0.022953354,0.13961904,0.05464756,-0.0015745566,-0.04639629,-0.05900203,-0.06640956,0.06567919,0.037580635,0.020503014,0.064729206,-0.051064808,0.016533168,-0.022630233,0.019760372,0.04604051,0.029922646,-0.12991248,-0.0142749585,-0.051136166,-0.06726614,-0.013069155,0.0052407808,-0.04747639,0.00261136,0.07705984,0.028886016,0.07408812,-0.079574645,0.012596622,-0.0005110491,5.0,0.0,0.0,0.0,1.0,0.0,1.0,0.0
QID234_r1,-0.1574785,-0.069012515,0.0567508,0.074273854,0.08404519,-0.029074788,-0.00021090452,-0.18422607,-0.14673376,0.04410406,0.09844722,0.08567518,-0.07234789,0.12247843,-0.20396514,-0.07213903,-0.008909931,0.001254932,0.06240915,0.05665331,0.15376778,-0.04714679,0.08070668,0.14228322,-0.02430408,-0.14899577,-0.014196395,0.09837778,-0.014690337,-0.07160696,-0.020686544,0.01458148,0.08909833,0.018289536,0.07341122,-0.01791464,-0.01826383,0.041081462,0.06521309,0.025609996,-0.051820382,0.09240228,-0.10299023,0.0022610307,0.009062359,0.079285,-0.011301202,0.1604859,-0.039250597,0.0028750887,5.0,0.0,0.0,0.0,1.0,0.0,1.0,0.0
QID234_r10,-0.18570639,-0.017802507,0.19159193,0.0025644626,0.07952982,-0.11442237,-0.1634065,-0.3650632,-0.20539711,0.2935538,0.033567324,-0.1396476,0.058731467,0.0401889,0.08366466,-0.06533689,0.04020292,0.024997715,-0.08121978,0.016434642,-0.062794566,0.049556404,0.08287781,-0.09306896,0.02106809,-0.0034495217,-0.08609862,-0.054370612,-0.069475025,0.024303807,0.07532067,-0.054427706,-0.0070550786,-0.0037039085,-0.027749266,-0.012010028,0.016900413,0.049565665,-0.024308158,0.016921787,-0.031596966,-0.0074805375,-0.045237817,0.010306929,-0.018612418,-0.019435115,-0.026932834,0.032863453,0.063573144,-0.004277195,5.0,0.0,0.0,0.0,1.0,0.0,1.0,0.0
QID234_r11,-0.14561926,-0.018438669,0.14177956,0.026069552,0.035642132,0.0030857464,-0.119392365,-0.39240593,-0.19220114,0.3858249,0.018872248,-0.12716734,0.08008307,0.07078865,0.04248317,-0.025113985,-0.01961587,-0.04114931,-0.089940056,-0.05015705,-0.11083223,0.13617551,0.11002346,-0.10752836,0.005436556,0.08554675,-0.0340495,-0.047243066,-0.03257712,0.0022933693,0.042273264,-0.037266605,0.008152202,0.017857647,0.040077582,0.026739776,-0.03525256,-0.054326802,0.010984682,-0.007025431,-0.050285872,0.07193178,-0.00014361626,0.02252632,0.02852206,-0.020297868,0.01754042,-0.010578218,0.0036678603,-0.050087318,5.0,0.0,0.0,0.0,1.0,0.0,1.0,0.0
QID234_r12,-0.14331205,-0.03007937,0.16736417,0.015128449,0.06136457,-0.03832687,-0.21535388,-0.40084413,-0.17525078,0.32011244,0.021004803,-0.096682,0.024422094,0.08429235,0.089241885,-0.0392978,-0.019910788,-0.047497794,-0.03765519,0.07397405,-0.05047672,0.008268151,0.07408167,-0.14133443,0.0036932616,0.029737763,-0.03812957,-0.052217226,0.005764754,-0.030577336,0.053978406,-0.005602001,0.024532368,-0.05129093,-0.036776237,0.01905193,0.0570742,-0.011046387,-0.041827567,0.038705215,0.0049340054,0.030722275,0.00012425089,0.05050004,0.03638545,-0.0047520986,-0.03187444,-0.0047925995,0.05006837,0.0058885524,5.0,0.0,0.0,0.0,1.0,0.0,1.0,0.0
QID234_r2,-0.16431727,-0.05677124,0.17475452,0.01885783,0.032051686,-0.08418471,-0.28999138,-0.26957738,-0.13026664,0.12569116,-0.0070330817,0.047507603,0.018072793,0.109402955,0.11767251,-0.021516448,-0.035073105,-0.017946392,-0.11766332,-0.022470508,-0.03837203,0.074178085,-0.00023322047,-0.05724359,-0.07764389,0.0007765763,-0.053565133,-0.027775792,-0.06966455,0.087943666,-0.0076701283,-0.10190583,0.14440726,0.044124518,-0.027613554,-0.002083633,0.03263508,-0.09749555,0.07680915,0.040444072,0.1708475,0.0028344074,-0.011638123,-0.008060007,-0.048345312,-0.023552693,-0.035608966,0.0347035,-0.038966764,-0.07722807,5.0,0.0,0.0,0.0,1.0,0.0,1.0,0.0
QID234_r3,-0.2513209,-0.07453427,0.04334845,-0.04722085,0.04349386,-0.01863056,-0.13214536,-0.28325018,-0.24439967,0.13006221,0.05602872,0.054419246,0.080042966,0.17231968,0.1035719,-0.1155057,0.057426453,-0.060660835,-0.07206841,0.006760735,-0.009891535,-0.029199716,-0.001271528,-0.033115134,-0.108366884,0.0026390534,0.030643765,-0.011064534,-0.15143268,0.00074515847,-0.00093309005,-0.103710115,-0.044386763,0.04183556,-0.06659726,-0.011647669,0.039372623,-0.004563629,-0.07630261,0.08430564,-0.0012232278,0.03287936,-0.04099366,-0.029880019,0.0013577668,-0.03882155,0.058445282,0.027045451,0.045503963,-0.03258976,5.0,0.0,0.0,0.0,1.0,0.0,1.0,0.0
QID234_r4,-0.20360178,-0.085754514,0.18110177,-0.062401574,0.08139681,-0.020964017,-0.13575456,-0.27557462,-0.11818253,0.16914116,0.008133084,0.018021045,0.018212445,0.3123051,0.104973145,-0.1313367,0.04571176,-0.05011365,-0.0030058918,0.009920654,0.058657415,0.022548018,0.00060272875,0.008736887,-0.017987343,0.04374732,0.019479176,0.09796679,-0.039054453,0.061948936,-0.051173963,-0.029806018,0.028779337,0.07709995,-0.02581564,-0.029391302,0.022143787,0.02000036,0.021769054,0.093111865,-0.06786766,0.021652194,-0.1194194,-0.0051327604,-0.06382617,-0.055902444,0.10977148,0.057311375,-0.031443752,0.022012766,5.0,0.0,0.0,0.0,1.0,0.0,1.0,0.0
QID234_r5,-0.19035351,-0.033411097,0.14089057,0.02425556,0.120742194,-0.12490346,-0.12889865,-0.34927687,-0.10628306,0.23871595,0.007969562,-0.16335663,0.19025452,0.004850841,0.014999359,-0.07943652,0.053652406,-0.05423407,-0.08376623,-0.004404777,-0.059815094,0.063432306,-0.0020717918,-0.042216443,0.03769234,-0.0061936188,0.01409775,0.10858882,0.011376132,0.017140782,0.026734065,-0.06514976,-0.026823398,0.0004834656,-0.10202246,0.075492054,0.039932653,0.012606432,0.044548344,0.0064810803,0.007851626,0.04656741,0.015347299,0.0008052066,-0.047011465,-0.03563501,-0.01776792,0.047179483,-0.08520191,0.015832797,5.0,0.0,0.0,0.0,1.0,0.0,1.0,0.0
QID234_r6,-0.20397915,-0.057000805,0.069163896,0.03584651,0.14819168,-0.056645848,-0.11994057,-0.33833578,-0.16804466,0.25436106,0.07357532,-0.1086622,0.044170965,-0.020885535,-0.093137115,0.02671504,0.06974705,-0.0011369315,-0.085962586,0.010026281,-0.011806209,0.087352395,0.020594688,-0.013722469,0.08289837,-0.019660195,-0.04887979,0.089461505,0.014013389,-0.11515023,0.0830866,-0.0045409426,-0.017710943,-0.07765525,-0.014998779,-0.006336195,0.0061303205,0.016000522,0.001531608,0.0037343507,0.019704929,-0.00029000593,0.03199384,-0.013714906,0.03492433,0.029983817,0.011345499,0.007467975,0.03801643,0.042650767,5.0,0.0,0.0,0.0,1.0,0.0,1.0,0.0
QID234_r7,-0.27363792,0.010965494,0.18041915,-0.056135688,0.12946521,-0.07998583,-0.11473399,-0.30152166,-0.08192898,0.21460092,0.009608423,-0.07431539,0.12093787,0.019136423,0.059597164,-0.025961572,0.024979236,-0.06100022,-0.046344727,0.032421023,-0.063083574,0.060201045,0.025135892,-0.081246406,0.05864387,0.0068182955,-0.028281266,0.052407775,0.0020326893,0.07188098,0.03193773,-0.057930693,-0.004761139,0.0038665903,-0.062207974,0.043452434,-0.024132561,-0.0032091097,0.07712857,-0.008125805,0.043573298,0.009466444,0.031307917,-0.014176516,-0.050857667,-0.0046582366,-0.042687286,0.048036575,-0.07138097,0.02999543,5.0,0.0,0.0,0.0,1.0,0.0,1.0,0.0
QID234_r8,-0.21971081,-0.022473272,0.117748946,0.05554189,0.07403671,0.08087906,-0.14564127,-0.30034435,-0.023706354,0.2911197,-0.0044432855,-0.037597418,0.01844881,0.11366417,0.038509782,0.07062242,-0.032511234,-0.041182954,-0.10493399,-0.086464494,-0.051662084,-0.008135311,0.027204204,-0.003562146,0.08896721,0.01862491,-0.01233171,-0.0051989798,-0.04114454,-0.073504515,-0.027660742,0.0027287528,-0.034473844,-0.11326683,0.05117144,0.08941599,0.057082858,0.039118003,-0.039678268,-0.0708074,-0.0005932086,-0.0715684,-0.0130125815,-0.012917204,0.0324142,0.021218104,0.078662336,-0.058981795,0.03289768,0.02507839,5.0,0.0,0.0,0.0,1.0,0.0,1.0,0.0
QID234_r9,-0.1970758,-0.09860906,0.16579878,0.020647964,0.019229725,-0.08868015,-0.21022956,-0.3140516,-0.14583425,0.26795888,0.016375875,-0.05715654,-0.025172133,0.0220411,0.06715068,0.020464819,-0.039036594,-0.0010504731,-0.04213216,0.111927636,-0.016036963,0.007992372,0.09628868,-0.059697133,-0.017395988,-0.06265746,-0.09293354,-0.06015694,0.010401695,0.014081766,0.0247937,0.028094264,-0.0037398825,-0.029894128,-0.048058398,0.002434511,-0.061303727,-0.09479772,-0.04272566,0.028290497,0.039901875,0.01748885,-8.868437e-05,-0.027906217,0.025687492,0.0634984,-0.01686794,-0.025425008,-0.018123677,-0.02283987,5.0,0.0,0.0,0.0,1.0,0.0,1.0,0.0
QID235_r1,-0.16487902,-0.012049129,0.22990555,-0.09652601,0.01691049,-0.18025833,-0.122667186,-0.2767972,0.0011768974,0.19226116,0.021930616,-0.185653,0.02833861,-0.07646046,0.036137797,-0.019645976,0.020201933,0.14186357,0.19242199,-0.020264221,-0.09689055,-0.060713977,-0.14367749,-0.070939675,-0.009621133,0.056624535,0.020999234,-0.047006574,-0.07666596,0.09087164,-0.011667263,-0.072419696,-0.015663113,0.13182877,0.017665012,-0.0287501,-0.07308592,-0.014520814,0.012834405,0.055856396,0.011104278,0.0026323155,0.00573017,0.013615339,-0.1281538,-0.03222049,-0.061190657,0.050447904,-0.04626521,0.054049294,5.0,0.0,0.0,0.0,1.0,0.0,1.0,0.0
QID235_r2,-0.2553266,-0.091270536,0.12294127,-0.08442362,0.06422591,-0.0828631,-0.072784334,-0.13281412,0.0986459,-0.0375248,0.0032958295,-0.13851659,-0.09888078,-0.06629942,-0.13372217,0.05707895,-0.021884361,0.087497674,0.10884283,-0.07965858,-0.088850655,-0.13884458,-0.19824404,0.0035556152,0.0009899558,-0.016200146,0.06853128,0.031676367,-0.038447015,-0.0106328055,0.0066431523,0.0082417205,-0.08957566,0.06955798,0.06692707,-0.0116417045,-0.010624924,-0.04125006,-0.016799513,0.06191342,0.008308617,0.04995971,-0.017098349,0.027405763,-0.012135507,-0.05647257,-0.022016611,-0.058974586,-0.025429115,0.010235775,5.0,0.0,0.0,0.0,1.0,0.0,1.0,0.0
QID235_r3,-0.12880562,-0.003933177,0.14440861,-0.17979291,0.089693725,-0.15177736,-0.16305009,-0.30631036,-0.019043902,0.16293906,0.027378581,-0.15567389,-0.010322632,-0.17942353,-0.029023891,-0.086260244,0.0566892,0.10457986,0.15347992,-0.0253173,-0.10105918,-0.13416797,-0.10155935,-0.026800908,0.0627174,0.016332995,-0.007580415,-0.046624202,-0.010847102,0.014290027,-0.017429218,0.011502742,-0.07217409,0.032879412,-0.0017771198,0.013475504,0.031097017,-0.0052512903,-0.012990945,0.055288937,0.012508601,-2.6040509e-05,0.042732585,-0.04087322,0.0009456641,-0.010473714,-0.055653717,0.0043080654,0.04600141,0.00899536,5.0,0.0,0.0,0.0,1.0,0.0,1.0,0.0
QID235_r4,-0.1444435,-0.010199039,0.11018085,-0.018789032,-0.025679287,-0.08624104,-0.21592923,-0.15699886,0.065467626,-0.012975001,0.092390105,-0.036461737,-0.043344025,-0.13378981,-0.046487533,0.07374006,0.074960284,0.088912606,0.21250303,0.007456511,0.069682114,-0.1032101,-0.16627626,-0.025219858,-0.1129112,0.032870755,0.03533002,-0.06866741,0.092660315,0.11103529,0.022221863,0.102145076,0.06745528,0.10693504,0.03459373,-0.050935574,0.043897577,0.10168743,-0.08422053,-0.060246512,0.092482515,-0.171939,-0.09375397,-0.055668402,-0.0234934,0.024287248,0.024150556,-0.017870337,0.0034790642,0.008811527,5.0,0.0,0.0,0.0,1.0,0.0,1.0,0.0
QID235_r5,-0.21531066,-0.07085029,0.06427431,-0.071942665,0.031884186,-0.019450115,-0.075525545,-0.033490196,-0.052650567,0.014862133,0.12413462,-0.1172776,0.0126866475,-0.21226357,-0.10789972,-0.029584197,0.07187433,0.17458773,0.23902638,-0.07707675,-0.053351276,-0.09195148,-0.2573738,0.030861711,-0.014989903,0.07676085,0.04402,0.054712377,-0.0573145,-0.014045919,-0.015344197,0.023711935,0.013012374,0.1319001,0.020921342,-0.12146544,-0.0465226,0.10379264,-0.003977149,-0.0064401412,0.05506305,0.038455267,-0.0074788807,0.016365314,-0.054654222,-0.041369025,0.016900333,-0.087199934,-0.04269988,-0.0037982746,5.0,0.0,0.0,0.0,1.0,0.0,1.0,0.0
QID235_r6,-0.17636149,-0.021790273,0.14166233,-0.020670712,0.018285252,-0.038932364,-0.11974661,-0.18686178,0.05805067,0.053799774,0.053659085,-0.2230308,0.02023225,-0.17720039,-0.024069365,0.038056932,0.08433893,0.19302319,0.20972197,-0.042506754,-0.07325184,-0.14033827,-0.21604553,-0.009456851,0.043763112,0.09755513,0.108720005,0.021492157,-0.06214295,-0.0010203117,-0.045148846,-0.033187922,0.03270877,0.18218754,0.10036731,-0.046287008,-0.034120027,0.048884626,-0.069752894,-0.013581578,0.02063422,-0.008055276,0.020145023,0.074627645,-0.025329128,0.06082359,-0.029611554,-0.046031464,-0.018150575,0.015226078,5.0,0.0,0.0,0.0,1.0,0.0,1.0,0.0
QID236_r1,-0.24685416,0.051415544,0.159164,-0.01217157,0.20212416,0.0461185,0.24419922,-0.053455163,0.069876105,0.0021100114,-0.22414505,-0.08868216,-0.04493832,0.08203213,0.030724125,0.12050779,0.07579067,0.027729679,0.03524997,-0.09728205,-0.053720195,-0.08599974,-0.027290685,0.021345265,0.06806767,-0.10116286,-0.029198864,0.056687925,-0.029092938,-0.06265432,-0.035237446,0.05217155,0.015000314,0.0627251,-0.098675705,0.0014304372,-0.011868956,0.029154776,-0.038180165,0.074349575,-0.071470246,0.054344643,0.037659265,-0.07739458,0.0025563976,-0.008951742,-0.0062413453,0.026835132,0.026570847,-0.012669605,6.0,0.0,0.0,0.0,1.0,0.0,1.0,0.0
QID236_r10,-0.1531758,-0.0469861,0.10326289,-0.0633266,0.1862711,0.0021847605,0.15159668,0.024581872,0.12005775,0.03931373,-0.1405858,0.03219751,-0.1571099,0.23472321,0.06574348,0.13741118,-0.035332948,-0.03463593,-0.02530313,0.028257998,0.12707455,0.0037730285,-0.13867912,0.07660725,-0.045498166,0.036947545,0.0024863372,0.029844217,-0.021599466,-0.0112496605,0.018947063,0.062134612,-0.015176306,0.054059636,-0.058195956,0.048562266,0.10767153,0.013838748,-0.01143236,0.061173663,0.008708871,0.055643376,0.11874113,0.02763631,0.0100952145,-0.14871882,0.01734929,0.12840268,-0.029581416,-0.05458456,6.0,0.0,0.0,0.0,1.0,0.0,1.0,0.0
QID236_r11,-0.10659951,0.024513474,0.1655794,0.06232146,0.17832348,-0.026656892,0.16774556,0.027218148,0.01381991,0.18436283,-0.24075058,-0.056674372,-0.017788343,0.19916852,0.058227118,0.036004893,-0.044978973,-0.04956815,0.028344527,-0.10591661,0.028896483,-0.041849867,0.08480139,-0.028910458,0.09211727,0.038360845,-0.121883154,0.09253567,-0.035695773,-0.08506425,0.062070962,0.041857235,0.03069962,-0.072916314,0.11498332,0.05296781,-0.02881805,0.05311147,-0.030082889,-0.10828388,0.10454502,-0.18239668,-0.14225125,-0.033723667,0.007412872,-0.01034275,0.045594636,-0.12191675,-0.135543,-0.093818426,6.0,0.0,0.0,0.0,1.0,0.0,1.0,0.0
QID236_r12,-0.22424883,0.09745142,0.22522794,-0.049730353,0.21167995,-0.07280709,0.24479422,-0.0017566077,-0.0055658286,-0.018505344,-0.20689882,-0.07436539,-0.07141978,0.156507,0.010022711,0.036696635,-0.023202704,-0.08446937,0.067109585,-0.04523122,-0.009178886,-0.056801002,0.03347953,-0.11222391,0.15268846,0.03256758,-0.020851621,-0.0007870155,0.06266154,0.011652306,-0.012641236,0.016285915,-0.0028513311,-0.018928321,0.061695736,-0.04136395,-0.015695069,0.08247903,-0.03304753,-0.038425535,0.054993127,-0.057402708,-0.017491546,-0.004338192,0.004184272,0.029140474,-0.025398614,-0.067147344,-0.04820971,-0.013182284,6.0,0.0,0.0,0.0,1.0,0.0,1.0,0.0
QID236_r13,-0.16544911,0.07773306,0.21270983,0.09351126,0.29351383,-0.06804489,0.24142216,0.061642602,-0.032662123,-0.09628864,-0.16207796,0.030633591,-0.042520877,0.106731385,0.017247174,0.0388469,-0.026016535,-0.109858796,0.0023173217,-0.0038401664,0.0798584,-0.057954855,0.032548733,-0.09786056,0.067786485,0.03772287,-0.12444163,0.027217079,-0.067844376,-0.005115163,0.012812357,-0.0010171126,0.081287764,0.013191292,-0.018887565,-0.17533952,0.010508723,0.061724488,-0.05441934,0.03998102,-0.009654655,-0.025429523,0.042668708,0.004420392,0.022089915,0.0070774932,0.043484565,0.003145542,-0.049014978,0.036691844,6.0,0.0,0.0,0.0,1.0,0.0,1.0,0.0
QID236_r2,-0.33085018,-0.02464286,0.17015807,-0.033231374,0.21507475,0.013614769,0.15398242,-0.023311695,0.012571447,-0.06362804,-0.12476878,-0.06624796,-0.056501433,0.09768753,0.033097364,0.061655737,-0.010982578,-0.03280201,-0.030539583,-0.027398506,0.071765095,-0.028788535,-0.025209965,0.030164575,0.080371454,-0.055332568,-0.014132535,0.031422753,-0.03213737,-0.06823587,-0.026674513,0.0340817,0.04861726,0.036362756,-0.039783776,-0.01159575,-0.013887753,0.10222125,0.0030253287,0.015877543,-0.029938467,0.0004255299,0.07029853,-0.052097507,-0.017097998,-0.004962825,0.008545001,0.014090405,-0.0029415048,-0.007987221,6.0,0.0,0.0,0.0,1.0,0.0,1.0,0.0
QID236_r3,-0.24209066,0.06896407,0.25829953,0.006221282,0.17691047,-0.13633995,0.027698189,-0.0057781576,0.037299536,-0.059748735,-0.107015446,0.011380104,-0.052766565,0.15893957,0.026185175,0.011938956,-0.09591806,-0.036701396,0.13497211,-0.0062975623,0.06542341,-0.038252417,0.029828496,0.06806857,-0.035650454,-0.04462532,-0.042526636,0.090295605,0.025639031,-0.042317457,-0.04496364,-0.032866556,0.12981412,0.048629116,0.013999498,-0.01054245,0.02821867,-0.06776225,0.107753776,0.027621953,-0.0518982,0.002159499,-0.023376627,-0.00024146718,-0.095416665,0.014107689,0.05502702,0.05879535,0.010973125,0.08716012,6.0,0.0,0.0,0.0,1.0,0.0,1.0,0.0
QID236_r4,-0.2663413,0.0490762,0.12128143,0.00039471945,0.2017523,-0.07111061,0.18958382,-0.10085813,0.047094107,-0.0881861,-0.1970082,-0.10284511,0.011985355,-0.028326973,0.012652911,0.057489682,-3.113402e-05,0.030502269,-0.010390495,-0.07203272,-0.009335155,-0.090862125,0.052209955,0.072906554,0.093280576,-0.0948306,-0.038383637,0.032859683,-0.06400511,-0.06964392,-0.02215317,-0.03297289,0.024771726,0.053780116,-0.04317455,0.023517309,-0.007913751,-0.03987523,0.015291479,0.033907905,-0.07222592,-0.006214761,0.06294671,-0.05207998,-0.016283857,0.025646664,-0.00031783947,-0.03073279,-0.0075480137,0.016872104,6.0,0.0,0.0,0.0,1.0,0.0,1.0,0.0
QID236_r5,-0.26105276,0.059834942,0.10973515,-0.04905406,0.1952765,-0.05600654,0.17770103,-0.08976139,0.04684495,-0.1337942,-0.19984949,-0.053932972,-0.025312534,-0.032014508,0.050904006,0.12502852,0.051006332,0.09829894,-0.014405505,-0.08924605,-0.044412646,-0.07997395,0.031359453,0.04434631,0.10939681,-0.09438323,-0.044666205,0.06015976,-0.05880602,-0.07776158,-0.036295872,-0.03338841,-0.0024100896,0.031464778,-0.079043046,0.0026195124,0.030622171,-0.026741322,0.037967496,0.052126832,-0.08963092,0.034382317,0.03450952,-0.052243732,-0.046693403,0.0053648744,0.005786764,-0.029728688,0.025890352,0.005761579,6.0,0.0,0.0,0.0,1.0,0.0,1.0,0.0
QID236_r6,-0.27217767,-0.05069283,0.21392797,0.002898861,0.14726597,-0.17585762,0.042363904,-0.08820679,0.051872656,-0.13343391,-0.15606429,-0.036386307,-0.07514837,0.02256939,0.002203619,0.0693401,-0.035381127,0.038782034,-0.0886598,0.032400027,0.048928965,0.00308201,-0.07104448,0.033358358,-0.0067157764,-0.042797945,-0.0072991406,-0.028431313,0.026545526,-0.0051382966,0.029995833,0.011516191,0.026943864,0.012698268,-0.03848082,-0.03935134,0.030530239,-0.032905966,-0.018915344,0.018591864,-0.065759316,-0.05167786,0.033175286,-0.00918301,-0.0007108079,-0.013776257,-0.032702133,0.032266874,-0.04883836,-0.00446446,6.0,0.0,0.0,0.0,1.0,0.0,1.0,0.0
QID236_r7,-0.17426212,0.08490164,0.069606885,-0.055343848,0.16559398,-0.13554958,0.18009312,-0.09074903,0.061995056,-0.13886414,-0.13550387,-0.1518699,0.0011897853,-0.073376626,-0.05014102,0.1818569,0.059452973,0.061367013,0.018486278,-0.11782877,-0.042132966,-0.08979531,0.02086299,0.02751542,0.046775818,-0.11486788,-0.12101501,0.1628431,-0.009203276,-0.07151983,-0.09074932,-0.06107657,-0.04380667,0.038455624,-0.10494668,0.00353267,0.013137404,-0.07405549,0.055718154,0.05201826,-0.057088185,0.038744316,0.039988127,-0.041316856,0.016284084,-0.027774826,0.04631238,0.015709892,0.009187225,-0.027273567,6.0,0.0,0.0,0.0,1.0,0.0,1.0,0.0
QID236_r8,-0.20954771,0.05333433,0.15957515,-0.037775513,0.19469023,-0.043341465,0.22338025,0.108863,0.068880625,0.1123803,-0.21565793,0.081552275,-0.09404532,0.22467478,0.010949859,0.03323904,-0.060869124,-0.09039044,0.07905072,0.011525795,0.076986685,-0.055083893,-0.059670765,0.014159936,0.042621896,0.030943861,-0.052250784,-0.00569808,-0.009242179,-0.009545436,-0.03543223,-0.15370469,-0.009660447,-0.042458944,-0.044837415,-0.049178943,0.011452264,0.04832841,0.028223416,-0.0025935664,0.0008037638,0.04344012,0.03882878,0.05458612,0.028462695,-0.041529596,0.058247574,0.08106081,-0.0035130256,-0.06094539,6.0,0.0,0.0,0.0,1.0,0.0,1.0,0.0
QID236_r9,-0.17567913,0.19691297,0.122717634,-0.034219168,0.11663226,0.05278117,0.2608793,-0.0024652355,0.014574026,0.029761083,-0.25158563,-0.043087654,-0.06394966,0.16657183,0.053756222,0.006885901,-0.07684244,-0.09979373,0.07660648,0.01383213,0.035681523,-0.18592471,0.0020828834,-0.0648624,0.0927654,0.018093517,-0.013398017,-0.001426298,0.036632676,-0.022480357,-0.13705298,-0.036725167,0.104568325,0.021497432,-0.041055318,0.013453794,-0.046564505,0.12412804,-0.028133674,-0.016021425,0.04327605,-0.020825125,-0.0012590227,-0.017422091,0.005166316,-0.02413368,0.029787587,-0.05311357,-0.02086771,0.054626625,6.0,0.0,0.0,0.0,1.0,0.0,1.0,0.0
QID237_r1,-0.13131925,0.18605854,-0.38791698,0.09607675,-0.24111563,-0.06414439,0.055569235,0.0026482726,-0.008646464,-0.0511887,0.102993645,-0.16816379,-0.011359946,-0.054088827,-0.117364086,0.08180119,-0.065465845,-0.1339589,-0.12631199,0.016167708,-0.01827082,-0.03810082,-0.021986904,0.14468516,-0.03661535,-0.015399808,-0.050700273,0.0006703378,-0.024661832,0.007658416,-0.04691506,-0.060330726,0.005310655,0.043135524,0.008662058,-0.020919897,-0.041694164,-0.019973204,-0.017527165,0.00022891542,-0.02571661,0.06427033,0.05261581,-0.003728588,-0.035537463,-0.045570813,-0.023471443,0.0005730556,0.011075507,0.019807864,5.0,0.0,0.0,0.0,1.0,0.0,1.0,0.0
QID237_r10,-0.169163,0.15294962,-0.35606945,0.13794716,-0.2262389,-0.015065532,0.110273376,-0.041686147,-0.08208231,-0.08014817,0.010775632,-0.02486688,0.055395264,0.16335283,0.060237516,-0.052143384,-0.08130659,-0.12440944,0.008736856,-0.07270489,-0.05940773,-0.044577632,-0.0072279167,-0.099353336,0.024187353,-0.027192026,0.030887399,-0.0125333285,-0.09783281,-0.0314847,-0.013915434,0.04090907,0.08689789,0.0885195,-0.020320933,-0.023748342,-0.053708643,0.04689558,0.06488643,-0.01601106,0.042181805,0.0023056376,0.015542689,-0.05177269,0.061796285,0.084256776,-0.0031136388,-0.03320519,0.022599326,-0.00023393368,5.0,0.0,0.0,0.0,1.0,0.0,1.0,0.0
QID237_r11,-0.22260214,0.1670575,-0.34999228,0.123912685,-0.19655783,-0.061524607,0.053016707,0.030136168,-0.06816409,-0.10520211,0.102553755,-0.11104714,0.047506936,0.050723474,-0.0027134581,-0.08223341,-0.10713993,-0.08855646,-0.014133988,0.029855084,0.016303562,-0.015657807,-0.04775677,-0.009554347,-0.012649115,-0.009587074,-0.034330398,0.0044329623,0.06704028,0.011463065,0.010072182,-0.020050557,-0.010599241,0.0016291845,-0.0049982574,-0.020120816,0.033643585,0.053656314,0.036515553,0.050013565,0.04709412,-0.0013137546,0.021990322,-0.01617949,-0.01896684,0.04328902,0.06006196,-0.014435634,0.003604131,0.049185127,5.0,0.0,0.0,0.0,1.0,0.0,1.0,0.0
QID237_r12,-0.16816373,0.053915765,-0.35930097,0.082841635,-0.21471082,-0.074332155,0.020991482,-0.11623915,0.0024089678,-0.12341672,0.074773245,0.0176652,0.0048524933,0.22236106,0.0055807643,0.07619522,-0.0303901,-0.044232238,-0.023377318,-0.022890216,-0.045746546,-0.0024773746,-0.02292137,-0.026347246,7.333903e-05,0.06344854,-0.003347045,-0.055567577,-0.012850447,-0.048571758,0.019682098,0.08413475,0.045236193,0.025114542,-0.045683157,-0.07515588,0.0748033,0.018643534,0.021567997,0.0061454987,-0.005903438,0.06479313,0.048061743,0.007408295,0.06616308,-0.02821524,0.03797639,0.05399931,0.08022591,0.07693725,5.0,0.0,0.0,0.0,1.0,0.0,1.0,0.0
QID237_r2,-0.09610289,0.15446866,-0.37978002,0.08732606,-0.2097888,-0.0018440945,-0.042604018,0.008772533,0.042573903,-0.025017891,0.14327736,-0.050452318,-0.013628517,-0.037471533,0.0030575339,-0.0345792,-0.106437586,-0.0692703,-0.10013888,-0.0504211,-0.06526347,-0.12456622,0.024562972,0.008132055,0.008862102,-0.005137028,0.059224736,-0.022905655,-0.059312403,0.012117882,0.019576928,-0.0377643,0.0017324392,0.03862763,0.10997217,0.0397998,-0.08518691,-0.026232464,-0.07072798,0.019599145,-0.01457783,0.0144874975,0.032865506,0.029264336,0.023948526,-0.018690683,-0.11973849,0.013635966,-0.06359064,-0.062461928,5.0,0.0,0.0,0.0,1.0,0.0,1.0,0.0
QID237_r3,-0.26494986,0.15779252,-0.31382173,0.09324129,-0.16770588,0.01845365,0.082798615,0.025143972,-0.07078005,-0.07877411,0.097657755,-0.044993732,0.012080763,0.012694019,-0.025698919,-0.06377476,-0.04870052,-0.051325236,-0.045517005,-0.07048526,0.040956464,-0.063020244,-0.024637278,0.028621355,0.022291332,0.0459734,-0.07023728,0.006088533,-0.032476433,-0.019747349,0.07737083,0.035078343,0.035446487,0.07032382,-0.036596127,-0.028273111,-0.009127277,0.022697965,-0.024644567,0.07607742,0.05012781,-0.038069945,-0.0061962,0.004021147,-0.0037637006,0.03845136,0.01842505,-0.05139662,0.019978797,0.029052462,5.0,0.0,0.0,0.0,1.0,0.0,1.0,0.0
QID237_r4,-0.25507364,0.21874022,-0.27329332,0.11939372,-0.16817723,0.048154652,0.08561576,0.038539898,-0.040380813,-0.025229912,0.10053879,-0.053590883,-0.009994217,0.011161181,0.044729404,-0.10036166,-0.13577436,-0.078205995,0.02124859,0.0049642525,0.015475474,-0.048709884,0.021000285,-0.05840239,-0.029469984,-0.0012149416,-0.04109806,-0.01642231,0.01446595,0.044955675,0.00033204473,0.013611671,0.04996165,0.04723904,-0.057056908,-0.015169269,0.030013563,-0.01451783,0.0016355136,0.12410276,-0.013837721,0.0063040648,-0.04803643,0.02057404,-0.0646412,0.043522492,0.07068931,-0.009882112,0.0119157,0.07192765,5.0,0.0,0.0,0.0,1.0,0.0,1.0,0.0
QID237_r5,-0.20045657,0.15312,-0.307858,0.087270536,-0.13202175,0.1203684,0.08046455,0.062078495,-0.021175392,0.017426558,0.09421745,-0.008845036,0.0043933536,0.15191442,-0.11144823,-0.0335206,-0.03534706,-0.10287192,-0.032585453,-0.090160996,-0.0071910853,-0.031235594,-0.037187774,-0.05262734,0.07547084,0.040312674,-0.027102996,-0.017498894,-0.064599924,0.009965347,0.123041525,0.07698621,0.0071388623,0.097111516,-0.05093561,-0.0115690725,0.008593998,-0.031711165,0.054639112,0.10405779,-0.0016041666,0.041396625,-0.06632097,0.02798964,-0.029077454,0.08400074,-0.012592567,-0.065552436,-0.022940302,0.04133759,5.0,0.0,0.0,0.0,1.0,0.0,1.0,0.0
QID237_r6,-0.2169567,0.14828178,-0.27225578,0.024804605,-0.19284257,-0.03825115,0.1449842,-0.042307116,-0.018956803,-0.0569494,0.03512747,0.015551454,-0.040469076,-0.00845162,-0.018680573,-0.079461366,-0.11903487,-0.057850134,-0.1020604,0.0037769624,-0.07138584,-0.0776791,0.01000277,0.11980958,0.05382906,0.012401479,0.05005591,0.013205967,-0.0014222974,-0.051149547,-0.017541286,-0.0059123645,0.028909532,-0.016496254,0.006863452,-0.008671362,-0.0415081,0.03840248,-0.03785481,0.057102285,-0.03500691,0.056010175,-0.066461146,-0.061778158,-0.033620216,-0.05954086,-0.07826642,0.028701225,-0.046415076,0.06641338,5.0,0.0,0.0,0.0,1.0,0.0,1.0,0.0
QID237_r7,-0.13157038,0.088728264,-0.33217177,0.17017378,-0.24548674,0.032828607,0.06827776,0.07951382,-0.005172196,0.004683388,0.012816423,-0.025657425,0.081744604,0.0054180757,0.024547933,-0.041672084,-0.07319395,0.05842795,-0.108305626,0.15708771,0.04379186,-0.025904868,0.030869825,-0.05138606,0.011466213,0.05625356,-0.11860693,-0.011742034,-0.0019186017,0.045499746,-0.02418934,0.059410695,-0.024142366,0.03683301,-0.09721964,-0.06029073,-0.10466193,0.052987628,-0.011558364,-0.028140938,-0.04598868,0.005226231,0.03172203,-0.032204617,-0.06488319,-0.09772348,-0.14673784,0.044288848,-0.03856322,-0.016068872,5.0,0.0,0.0,0.0,1.0,0.0,1.0,0.0
QID237_r8,-0.1592356,0.20253026,-0.35883126,0.064411126,-0.199871,-0.056615103,0.033971082,0.0077038975,-0.06459458,-0.10894486,0.12423007,-0.16265386,-0.05253013,-0.0444003,-0.028207025,0.032952037,-0.088284336,-0.1261154,-0.09377974,-0.027117783,-0.008907661,-0.028541993,0.010817411,0.102584705,-0.054930873,-0.019324029,-0.09151652,-0.031121396,-0.058404714,0.05822234,-0.0004751461,-0.062387466,0.0139980875,0.09339977,0.00788008,0.013768406,-0.061128747,-0.043908708,0.01773661,0.0018419542,0.020663662,0.08964178,0.09503032,-0.0422439,-0.043032728,-0.007925515,0.01945475,-0.039706755,0.035102945,0.037615426,5.0,0.0,0.0,0.0,1.0,0.0,1.0,0.0
QID237_r9,-0.18594773,0.13832563,-0.21856122,0.0067375815,-0.116764575,0.010431043,0.16714486,0.041543815,-0.11708837,-0.100739904,0.059059326,0.09732759,-0.040045384,0.056193937,-0.006652319,-0.19735485,-0.13638358,-0.112574056,0.030141043,-0.09662725,-0.07646035,-0.07898318,-0.031106176,0.07591954,-0.01202287,0.033234816,0.08266314,0.05306571,-0.04641178,-0.08723862,0.06881766,-0.007679579,0.054734185,0.07164001,-0.015672797,0.00874368,-0.09638275,0.021072835,-0.032851383,-0.013787425,0.032633133,0.0819871,0.006259409,-0.037986204,-0.054595903,-0.024666376,0.018921146,-0.0012928627,-0.060605988,0.03815218,5.0,0.0,0.0,0.0,1.0,0.0,1.0,0.0
QID238_r1,-0.13020942,0.20030746,-0.30657336,0.08127318,-0.2300211,-0.11538411,0.06608935,-0.098557964,0.087107785,-0.19667754,-0.055833947,-0.12013245,-0.026051257,-0.004732023,-0.045049373,-0.04431395,-0.053399447,0.04941327,-0.06097196,0.008239879,-0.07857464,-0.016521318,0.06360967,-0.02854702,0.052250583,0.029302482,0.030070934,0.011034012,-0.03684437,-0.0054185423,-0.030107459,-0.019274937,0.06920535,-0.061573315,0.089814186,-0.037411805,0.080765955,0.00095155754,0.026284404,-0.013264524,0.04301284,0.10936882,-0.05761785,0.07532324,0.02607945,-0.010422192,0.043822516,0.011414964,0.0018982142,0.009261504,5.0,0.0,0.0,0.0,1.0,0.0,1.0,0.0
QID238_r10,-0.18569557,0.21134785,-0.28140193,0.11717995,-0.17572385,0.0077840197,0.09734877,-0.07017832,0.09620498,-0.12551263,-0.037347298,-0.21568297,-0.03253343,0.020948462,-0.03269248,0.019569555,0.096873276,0.08615313,-0.0418727,-0.09418968,-0.050517328,0.012641418,0.044210754,-0.035885997,-0.019994736,0.034198545,-0.04305658,0.021490254,-0.053632636,0.057779815,-0.12787418,0.06003941,0.023909666,-0.027417863,0.09046563,0.030063681,0.07598682,-0.056157675,-0.015457533,0.01150246,0.015865466,0.043411892,-0.04790743,0.0023435312,0.035116807,0.011676452,0.07984005,-0.003520839,0.0012449189,-0.049280852,5.0,0.0,0.0,0.0,1.0,0.0,1.0,0.0
QID238_r11,-0.23006009,0.13251682,-0.2789769,0.1508534,-0.21138029,-0.019006345,0.15587753,-0.050561175,-0.021338193,-0.038423937,0.031956382,-0.064850174,0.01311798,-0.00709253,-0.055880975,-0.04820175,-0.08210608,-0.026856326,-0.0064310436,0.032093916,-0.044300552,-0.018475333,0.1033434,0.015072333,-0.05972064,0.0123740295,-0.0069408654,-0.06948279,-0.008263793,-0.041969948,0.013450157,0.03447101,0.04299302,0.031736746,0.08569938,-0.0063202,-0.07502182,0.022856558,-0.02875114,-0.01797042,0.025659915,0.059529133,0.0047002602,0.017608318,0.07465136,-0.0154619785,-0.05216924,-0.0412486,-0.05233435,-0.061340004,5.0,0.0,0.0,0.0,1.0,0.0,1.0,0.0
QID238_r12,0.03878254,0.067314595,-0.33190292,-0.062380567,-0.25203982,-0.22971682,-0.06526331,-0.042178806,-0.033797428,-0.20052357,-0.021741617,0.23243625,-0.023651239,-0.119914174,0.18611416,-0.060014706,0.13362262,-0.064352915,-0.0074716527,-0.1828037,-0.15991355,-0.010012595,0.06833415,0.12765194,0.09737203,-0.14829564,-0.08597787,-0.003320772,-0.090286486,0.037830014,0.0042630048,0.01926189,-0.056571007,0.15783833,-0.026470954,-0.016710838,-0.031191325,0.04538335,0.031897027,0.06807498,0.0002946395,0.046092138,-0.031744495,-0.040577132,0.0029535743,-0.08967209,0.044959523,0.0039499365,0.045829613,-0.067147896,5.0,0.0,0.0,0.0,1.0,0.0,1.0,0.0
QID238_r13,-0.16388342,0.10306699,-0.36946335,0.051492706,-0.2716241,-0.15283693,-0.05155851,-0.08125012,-0.04822798,-0.14048983,0.0039879004,0.11855188,0.07298886,0.03867556,0.058756556,-0.022776421,0.045436513,-0.067293756,0.042744838,-0.13692304,-0.049970403,0.020805229,-0.018915612,0.02710515,0.046862792,-0.058155563,0.043464232,-0.0447868,-0.02012918,-0.09703705,0.028960757,0.0009927658,0.006953295,-0.0031657012,0.019784048,0.023723112,0.0123150395,0.046191394,0.0722258,0.030314857,0.023080897,0.010056877,-0.050133333,-0.065581605,0.025512157,-0.046468828,0.030312845,-0.017709704,0.029739384,-0.025840392,5.0,0.0,0.0,0.0,1.0,0.0,1.0,0.0
QID238_r14,-0.22677071,0.121919535,-0.3155911,0.06678554,-0.26788583,-0.10145556,-0.07882239,-0.028117074,0.014502631,-0.09848438,0.039827492,-0.111327104,-0.024018647,-0.11486009,0.007864057,0.07484399,-0.05915336,-0.08231652,-0.08012155,-0.056394137,0.08844571,-0.010862414,-0.008275007,-0.013634859,-0.046693496,0.057416447,0.03267871,-0.0035022295,-0.016198758,0.030118637,0.05296709,0.025278287,-0.028967874,-0.019196874,-0.013872681,0.058648836,0.025597444,0.025350666,0.03153954,0.016406298,0.035274297,-0.03536723,-0.0040546576,0.067392096,-0.05022253,-0.072862536,-0.08997692,0.012557766,-0.032304544,-0.013944019,5.0,0.0,0.0,0.0,1.0,0.0,1.0,0.0
QID238_r15,-0.13927639,0.21911378,-0.3046818,0.059755407,-0.21683754,-0.02600467,0.06680384,-0.12195021,0.057795696,-0.1964237,-0.052736778,-0.16295221,-0.048264567,-0.004224621,0.009999821,-0.098403804,-0.013934571,0.07443943,-0.08002779,-0.046711754,-0.10909611,0.0064089857,0.08102753,0.03685877,0.109634966,0.056703318,0.017548032,0.030529365,-0.035022188,0.030300187,0.0026114872,0.06681184,0.04890107,-0.07074438,0.029437982,-0.007674919,0.038553715,-0.027500674,-0.013550794,-0.05345527,0.012170577,0.07552381,-0.060623325,0.056455795,0.057825733,-0.052274574,0.007846641,-0.029548762,-0.04026237,-0.03771698,5.0,0.0,0.0,0.0,1.0,0.0,1.0,0.0
QID238_r2,-0.18576951,0.1949684,-0.31786624,0.05441698,-0.2085065,-0.032331333,0.005742094,-0.044125665,-0.01630244,-0.09240865,0.07621754,-0.08548439,0.079739876,0.02409192,-0.022662172,0.03272205,-0.09786124,-0.008543966,-0.032403514,-0.0153520545,-0.066916026,0.04816743,0.03448771,0.014622473,-0.026198149,0.057621036,0.039502986,-0.12484676,-0.038621366,-0.06523644,0.014371689,0.034491293,0.025330944,-0.012148649,0.04693428,-0.044953376,-0.08372827,0.05992287,-0.015873792,-0.045195676,-0.0041538635,-0.043507,-0.0043605915,-0.035441227,0.079291336,-0.016983768,-0.032586012,-0.041186363,-0.06602239,-0.03529847,5.0,0.0,0.0,0.0,1.0,0.0,1.0,0.0
QID238_r3,0.05123334,0.027366854,-0.24319528,-0.06664693,-0.14341262,-0.073961996,-0.06667669,-0.027405811,-0.08812815,-0.066723436,-0.12972823,0.19495837,0.034258053,-0.17940217,0.13646026,-0.051938627,0.048457418,0.022145081,-0.052003447,-0.32572025,-0.046618924,-0.03264326,0.048674975,0.08643584,0.1816701,0.1612621,0.087424606,0.039025143,0.024505578,-0.1069476,0.16815946,-0.10173521,-0.020517394,-0.021405496,-0.07877185,0.09370677,-0.051129267,-0.10649871,-0.024949562,0.07987176,0.0057276664,-0.10210843,-0.07661712,0.019750925,-0.15014255,-0.2083331,-0.024131741,0.044544592,0.0389403,-0.025249897,5.0,0.0,0.0,0.0,1.0,0.0,1.0,0.0
QID238_r4,-0.03551856,0.26692712,-0.26642877,0.0098022,-0.15737672,-0.09324584,0.07455798,0.067774296,0.060968976,-0.0033938836,-0.13220787,-0.1984771,-0.06662274,0.14110826,-0.14762792,-0.071618475,0.04725547,0.05980622,0.04363331,-0.08051885,-0.043255623,-0.0017346251,0.110403575,0.050079495,-0.1266939,0.04172324,0.061954983,-0.09458003,0.020254897,0.1352559,-0.11360615,0.012443222,-0.027267652,0.06758762,-0.07162526,-0.008183154,0.13359728,0.03915031,0.021483669,0.06356396,-0.07486521,0.13658208,-0.049775276,0.11766244,0.10386525,-0.10266658,-0.035445333,-0.09195202,-0.05851681,0.036228288,5.0,0.0,0.0,0.0,1.0,0.0,1.0,0.0
QID238_r5,-0.16635345,0.2175111,-0.27597958,0.13620998,-0.20983137,0.0139327925,-0.026006933,0.061639328,0.103543155,0.08777261,0.07630239,-0.11412712,0.08795991,-0.039378222,-0.07791122,0.03763008,-0.0904494,-0.13322747,-0.096925214,0.036501456,-0.03531087,-0.026584862,0.026139792,0.067719504,-0.034185313,0.003910058,-0.06617739,-0.021875631,0.079644434,0.07824338,-0.023671033,-0.01811182,0.05837434,0.017249614,0.04590874,0.05040093,-1.3967881e-05,-0.070877984,-0.037783403,-0.03142695,-0.04513708,0.025508637,0.06293611,-0.08671909,-0.01603831,0.07420772,0.02518781,-0.008687423,0.035043627,-0.091880396,5.0,0.0,0.0,0.0,1.0,0.0,1.0,0.0
QID238_r6,-0.118610896,0.21997279,-0.33258638,0.086662844,-0.24071912,-0.100221395,0.08707147,-0.09093681,0.08408376,-0.14290568,-0.07251993,-0.16572966,0.0063107726,0.0080136955,-0.05298724,0.068140656,-0.028192544,0.053860724,-0.093777105,-0.046373643,-0.058710203,0.018148035,0.06630246,-0.08088179,0.057622787,0.017992908,0.05492318,0.012505231,-0.056392845,0.0033208136,-0.04356214,0.055024423,0.052835733,-0.015385176,0.025725601,-0.015227059,0.1035344,-0.03765345,0.005222248,-0.010693909,0.043495055,0.025390733,-0.11582445,0.069058545,-0.040364943,0.036463156,-0.019962942,0.0029216115,-0.005318103,0.026238594,5.0,0.0,0.0,0.0,1.0,0.0,1.0,0.0
QID238_r7,-0.055546615,0.20743708,-0.34472445,0.017878056,-0.29587522,-0.11957037,-0.018078396,-0.028460948,0.087068096,-0.062895305,-0.046907485,0.0030045297,0.08041163,-0.029644193,-0.047688372,0.024351967,-0.06368452,0.02515217,-0.037414175,-0.10914847,0.02502951,0.035268694,-0.09569941,-0.12493682,-0.08182052,0.049754966,0.06653671,-0.029566707,-0.0039710472,-0.04215592,0.012549319,-0.089254454,-0.0699394,-0.031890605,0.038491394,0.06649543,0.117685385,-0.021430157,-0.0027585002,0.011341675,0.06457205,0.0043755663,0.039386462,0.06763128,-0.0088511575,0.052156944,0.05224608,0.015153028,0.002100305,0.021352813,5.0,0.0,0.0,0.0,1.0,0.0,1.0,0.0
QID238_r8,-0.08170951,0.14300011,-0.21406892,0.09477062,-0.22619867,-0.111467294,-0.023999657,-0.07343305,0.11627187,-0.1734678,0.10473163,-0.043443777,0.10845273,-0.013404596,0.056540683,0.012140876,-0.010574071,0.07909596,-0.06500573,0.101292916,-0.10709388,-0.05434741,-0.012629213,0.15765284,-0.091633655,0.055715706,-0.07716436,-0.066468455,-0.045529775,0.021529367,-0.11561994,-0.078674465,-0.004134141,-0.0632908,-0.122930646,0.0020160545,0.01219109,0.07045412,0.023180503,0.026664346,0.037247475,-0.20046088,-0.063662246,0.040171597,0.04211277,0.061287224,0.033693723,0.011625663,-0.0027782393,0.11778716,5.0,0.0,0.0,0.0,1.0,0.0,1.0,0.0
QID238_r9,0.11731174,0.2343681,-0.1818056,0.15055393,-0.18051404,0.0020299128,0.007169655,-0.1300564,0.10888863,-0.19784938,0.0909208,-0.0004639085,0.14520508,-0.0768593,0.17118976,-0.024824487,0.01749971,0.20861906,-0.06084944,0.07204278,-0.20564623,-0.08706185,0.033424836,0.1309774,-0.03615426,0.19671105,-0.08344811,-0.04427576,0.04061029,0.120168395,-0.095482774,-0.07737386,-0.021378674,-0.088752165,-0.122742586,0.054020297,0.1391966,0.07846949,-0.051672693,0.036575954,-0.024649763,-0.19453736,-0.12657344,-0.030662684,0.029864334,0.009813457,-0.0248287,0.07265796,0.029717032,0.014233534,5.0,0.0,0.0,0.0,1.0,0.0,1.0,0.0
QID239_r1,0.115268424,0.0468006,-0.116669685,0.007114732,-0.14015788,-0.08204397,-0.11512965,-0.08372668,0.026129844,0.05102744,-0.06073472,0.0016591784,0.068020344,0.09443625,0.2035504,-0.04806845,-0.068452895,-0.051842853,0.012833802,-0.12892726,-0.04505998,-0.21048643,-0.055137675,-0.012204819,0.19612609,-0.086206906,-0.021485925,-0.14381364,0.24156152,0.19452225,-0.031406313,0.1245423,-0.030113865,-0.14908904,-0.048979226,-0.38285565,0.11271458,-0.013937762,-0.012567382,-0.11223383,-0.0032134713,-0.01088195,0.18351574,0.0022318868,-0.094843246,0.068806164,0.018592188,-0.0019807217,0.09800058,-0.025257582,5.0,0.0,0.0,0.0,1.0,0.0,1.0,0.0
QID239_r2,-0.08428998,0.021563541,-0.16005237,0.06657582,-0.25558722,-0.14734057,-0.12962021,-0.08542946,-0.026751533,-0.16695955,-0.12465532,0.19642521,0.1417777,-0.028694224,0.15918997,0.03334925,-0.070245236,0.13081734,-0.08137434,-0.13802059,0.13146052,-0.02360428,-0.11062738,-0.17823482,0.019837415,4.2371532e-05,0.05737763,-0.14743921,-0.019935323,0.08363787,-0.1302909,-0.016714316,0.07066838,-0.059883732,0.09891795,-0.081956424,0.11568259,-0.07620339,0.023721596,0.079922915,-0.0055682263,-0.03372485,-0.00015935971,-0.05272277,-0.030089123,-0.06022415,-0.025330672,-0.046656426,-0.014526264,0.079008944,5.0,0.0,0.0,0.0,1.0,0.0,1.0,0.0
QID239_r3,0.07407258,-0.0034546664,-0.24236226,0.25662652,-0.05076436,0.018381504,0.012268156,-0.29940826,-0.057433434,0.26832217,-0.07065105,0.1571318,0.022737805,-0.0049664606,0.029525986,-0.07543824,0.16510856,0.040841777,-0.06800187,0.08929838,0.048277736,0.037635915,0.09248985,0.04391559,0.04303368,0.24589303,0.047777988,0.18756518,0.0766713,-0.06856288,-0.0014997937,0.12566647,-0.08309161,-0.0005288093,-0.01637708,0.085292175,0.049928796,0.1103102,-0.019390117,-0.04962091,-0.058318473,0.028626258,0.068028025,0.0028702952,0.026629288,0.0065689175,0.02983628,-0.09210656,-0.014030091,0.19120091,5.0,0.0,0.0,0.0,1.0,0.0,1.0,0.0
