person_id,emb_0,emb_1,emb_2,emb_3,emb_4,emb_5,emb_6,emb_7,emb_8,emb_9,emb_10,emb_11,emb_12,emb_13,emb_14,emb_15,emb_16,emb_17,emb_18,emb_19
00a1r,2.7762125362167986,-0.936191302404488,-2.203102099966905,-1.1760474456794983,-0.4822596870499496,0.3808710498678296,1.3485805541840707,-1.092223986559222,-0.6530020872750192,-3.416253582911723,-0.08916647884568095,-0.8509301745426847,-1.8090881920596886,-1.3759495313725656,1.6540678666420634,-0.9055803014460206,-1.3978757595472078,0.7410194349487893,-0.14151520179005747,-0.3540869435555552
0cy1x,-0.6751504191540362,-6.2763427754585255,-5.523292507204367,-3.6304140116350596,-0.440379666209993,-0.6618592117236961,1.462162008329541,1.472474918246292,0.6921715307768429,-0.6364668756179358,1.2035217374074272,-1.3820628595463076,-3.331179350284768,-3.3440762128012897,2.6797275136235847,2.465363338660085,3.6111210718463442,-1.050058229208311,1.227257179450467,0.7241490583997643
0di48,4.941614074160089,-0.443686692071771,5.688268790831289,2.36623440174989,0.20874803777464895,2.138575293814547,2.9520027984806627,0.3867227131225496,-0.9309650415722069,2.2977747707099745,-1.107261384121961,0.12185494568065751,4.511952855981801,1.448448020138763,-0.8493867848930365,1.5826372265711106,-0.5612265034412975,-1.6979529356449568,-1.3193013181279085,0.6862503646374659
0ifq6,-18.42836063605721,-14.072054686961183,-1.7399343131085363,5.533204125354816,3.9151472355889108,-0.9335219608760557,-2.4280401939544634,4.6628264951985905,-1.437225942831286,0.6766817458115711,-0.04137399885995429,1.0266351474493671,-0.08757654854122524,-1.2150582011595439,-1.9482936657175967,-1.5942017859188164,0.4332520791455616,0.9271263023002488,-1.1349212777481237,-1.552374199603829
0ldjp,-7.20440882900701,10.455589190726062,-0.8715685007001264,5.186994609800638,-4.109417500533375,4.0232880104736095,-1.1881246796246854,6.408816131500844,2.4039902010222916,1.3993586729373761,1.2442090210436239,-1.5111724889853981,-3.980414126442353,0.38077415561166933,-3.094243200324869,3.7124359619147875,2.837251614678817,-1.4423127807225942,-1.4268028094452498,1.7279602627043085
0xhxd,-4.480620225969813,0.6817158475936735,5.688809125894861,0.033213093499937965,6.24673189260617,-3.836508302939142,-1.0606332613692395,-0.6213629519894139,-1.1875726918193166,0.07248216220897154,4.4127669328759485,-0.3364415061286407,-2.129091278167185,0.5346964729618904,3.7228197587762426,3.163726837945977,1.3786265888254055,1.3034789143605021,-4.4500663487547625,0.14076525935655337
17cwz,-0.27634059781305514,5.882725447626275,-5.932376109789391,1.696118586993509,1.0164372148521947,2.3937248697184144,-0.2239560684951777,0.7697389575768928,-3.024073600699856,-4.312530287193006,-0.8618825903804846,1.5087631436234084,0.9005793892995302,0.2695404400777576,2.5054775351132017,4.785946417190128,1.0894602324339084,-0.8147420805730521,0.7800928919262817,-4.517331117661927
1b3hy,4.512572800841191,-4.138489039956293,0.9765910500261278,-6.201604130189483,0.8983940150499387,-0.09138957866374274,1.2368543892730663,-2.4225674494510856,-0.4676842231162234,0.8887388293150233,1.1598656780384287,0.6816571756781107,-1.5658576521779353,-1.9748535607580637,-2.8487533721703797,-0.5099420782038785,-1.5470728160331912,-1.4174671743808103,0.9619101613800444,0.040612994829006314
1njfu,-4.055800820506553,1.613072624371767,-4.931104055072667,-2.39852401025462,0.8657698516331624,-2.5400652918199835,1.5951716456501417,0.9226507435508076,-0.1997377693367152,0.3881153094565424,-1.2480591786062605,-1.6741769615951965,0.9711084293247187,0.21679792102107714,0.6455876939852243,0.5710981262853582,0.38275324498060453,-0.7113888253575706,-0.5315710582622948,-1.6276378731666852
1o3dm,-2.1102447594828626,1.774992107599428,-7.695753761852048,-2.7106045822925062,-1.4900283017781293,-0.8953648877074825,2.0427409996833927,-0.4201097858034511,-3.567349725808228,1.1130307022385448,1.4067769289604248,-2.4023311812874852,5.296306071484042,1.3957766091384827,-0.47722451499971225,-0.4313198715071008,-1.1341537828419705,-1.8999547518265996,1.3104935946575988,0.47499493482071053
1vec3,-8.908622884952639,-2.7282525156527986,2.319568026072302,1.2978552310880207,-7.436669153877581,0.7276527459776907,2.321000458982737,-4.929418312595087,0.7357292367384296,-3.7267992362790845,6.131021795681139,-1.9637667473672014,-5.222843508946439,1.8720043770767103,-0.894249235919928,-1.0859097634153143,-1.5222202590930227,-2.1132830608119355,-4.074325108749319,0.11134691286516477
1z7bb,3.5664063470013527,0.8838488549589056,-5.7954449650970465,-1.3482065416653979,4.5707067800497905,-3.407606666786116,1.3663127399856312,-0.42428330879046255,0.5264135978867894,1.1315331822965942,3.939080329368798,-0.3206844009533524,-3.3186589239621145,1.9500015800938593,-0.051186754005557035,-1.5354090244246597,-2.0099334212724767,0.4065412648253143,1.6483021701600393,0.5934914497636767
212kx,2.3570046349415104,0.9458838264981397,0.5414656873072002,-1.123297556107911,5.349272693479118,-0.890414520531082,-4.212878625211114,-2.631638537813465,5.318510557802851,-1.172755694115801,0.05773537428036959,-0.2667307831251012,-5.448483402199209,2.525335672113135,0.414525106080076,-1.1555746586756714,-2.1119024135314546,-1.0683307171505803,-0.8246259282455146,-1.5483282469120785
293vr,-4.208172650322416,2.140792347093774,2.947429234517444,-6.497633629915265,-2.1651143402365927,4.774916748227054,1.1360158778106064,-1.4328667152192598,1.7463452948774054,-0.5009059801176087,0.19177830392515896,-0.6684056888451443,0.25787094727600474,-1.7197453517884567,0.17550444649324662,0.30436391797287304,-7.6410610354601305,-2.309239396130327,4.3564861327919635,-1.9855622559819692
29g1r,-0.35794926528182924,-4.5756436785477375,-1.146209190795919,-2.0265254257722964,-2.128616882673098,5.383065984329473,0.2495762182461704,-3.383236373979677,2.6045087634642248,0.46552225972907274,-1.3101019605369446,-0.289695648845333,1.3312923625468682,-2.886281119019509,0.05603197779872309,-1.0601472653415425,-0.195542803139804,-0.7957055239239411,0.35550866813750254,1.4217808844219413
2bpor,-10.0067094151055,-4.585016023197145,0.05631804622956168,-4.262532513192666,6.964711486859512,2.742228978228156,3.9848262688432112,0.4665063809409727,0.3353573785719355,0.810803486081237,-1.490382928364879,-0.3231778604480976,-0.1801388223466221,0.2661062885224336,0.7121828727754809,-0.9085143686655597,0.7609838696662685,0.5100723435192509,0.7278088107924081,1.1235768668301427
2ea2g,-3.6980764867611122,-1.5045041115942974,1.6881621626773449,2.6364442178372167,4.137196724379163,-0.7168804803533021,-1.1999448942722515,0.36674850951832855,3.121259525789122,-3.7947842428009526,-0.1768332515241179,0.8337999411821613,0.5183166915185162,-0.25685323160191237,1.8648358437999026,-0.8991619821765225,0.2164251902123793,-0.1206192977194054,-1.2553314856538131,0.11063690868004061
2g6k8,5.8820727792846315,7.401528451723161,-2.7321076629256624,-1.2377582522542179,0.13556224066515832,4.909460384168731,-4.772698023369589,3.907461121171117,2.8738187770895425,5.923458977021046,-2.35516990931167,-0.6086546443652688,-1.7176264402348222,2.1358654171367473,0.1687030212133576,-2.775648410864836,-0.18799738291611423,-0.029472045111342035,0.5066630424289679,4.107915239884983
2vz3n,4.521383516439022,-0.26885176129541705,4.807103063817569,-0.9422172760780896,-2.087468001997267,2.7023013461432264,2.8969523883331285,-5.287681734667104,0.12713540638244095,1.6918061138434177,2.163478479683011,0.9948976588874886,-1.4959063670218844,2.338534781067693,0.27359053548359613,1.5242687084040052,1.3927723103843608,2.783056017128473,1.5621526354150828,1.0625142986182732
33a05,-8.033685633998655,-1.622304067644256,6.469279536198266,-3.2786483679643323,-3.120892143568114,-0.9738058168151639,-2.7557016887230557,1.2275866163732874,0.06685697935336397,-4.026166901952572,-2.0128340031275638,-0.5214112964442205,4.12960718284332,4.0341477315884555,1.4813100845830858,-1.2981696411468437,3.932740034701879,-2.9728589968938923,3.9994876541057227,1.8288844268252369
3biuj,7.7723635032904435,-3.8397315730056967,-2.231702474061881,-1.1854116415275506,2.224060968372092,-0.9811818405606951,-1.488190598158719,-2.48737625822888,-3.0790691850368748,1.4070505078449147,1.9139451448018312,4.368861402990804,-0.42969247259826876,-2.807151858036052,1.7088517550706404,0.008251031407732748,1.1343814862551402,-0.027695947597469225,2.368326906956134,2.244767456018863
3d56s,9.897105945430123,0.16082501562937265,1.0370768764309564,1.9216271802034806,3.0038437889813228,-3.196604035399084,-1.659720019398895,-1.5966289967302176,-0.5607835464324701,2.6745892190903797,-1.236242234378522,-0.8999929820570183,-3.630426193668095,-0.6885739486390747,-0.3457222574407051,-1.0051732078406603,1.7010252162352246,-0.2541715302098443,2.919820222027152,2.3928037413401997
3uy58,0.6258221308755362,-2.602706421102678,3.735389272231258,-3.4795051744675174,-5.395711842878496,-1.266106564466999,-1.2383569614538508,-1.1985988125122407,1.5947917848762638,-3.316225059881487,-1.0679852352337649,1.6283883013591454,2.8823224946670023,1.0258661085554948,1.6838142943963421,3.716839745839157,-0.33232567243614947,1.938207810876222,0.006980672263044352,-0.1987794098634465
3wglb,-2.1246779820529342,-1.336782017193057,10.306814497901732,-6.206615126997987,0.8704200473492757,-3.7835857721475272,-0.016064193122394117,5.351734282502031,2.3222412516989563,-1.1974847371759425,-0.7911101603807645,-0.524248636239721,-1.2137252829746252,1.0047362611853707,0.8866842524776265,0.5194413703376414,-0.8900666268178667,-2.442219250053218,-1.3521651849558756,1.1504515072078978
4kx6v,1.007504924056532,-5.488647346907127,-2.383480024516506,-1.9735117450960142,-9.586641437238963,1.2120043484526115,0.09757120966400788,-2.382371634905593,-4.3834579244098775,-2.7517120336018777,-4.033122904706645,-4.620939070340276,-1.6090919615095685,2.2084892009735113,-0.08270353327783624,2.230453666583766,-1.4007953265485014,-1.1772706151042334,2.6969955514077735,-0.00036043763320073275
4p3l9,4.190927206783837,-5.238691000248467,-2.064100004692954,-2.0297860399460688,4.363716707472136,2.9214681628871304,1.35859118912511,1.0254732488276521,-1.524403142601657,-0.5780572368591533,-0.25968896253151763,1.3483819903414647,-0.7772602150556085,-0.17179699437983986,-0.29225320530371246,0.7966178734931848,-2.8113973175818274,-2.0403578282392663,-2.1422456888509087,0.10581266413558463
4th4n,3.6358778973794843,8.356120828458772,4.526128001943916,4.621683641834446,-0.019419187361657403,-0.7239057029188904,4.661102357115083,1.897885919313639,2.799833855019577,1.2533297308448839,1.8862329220163991,0.5482958412254939,-1.7377425766489043,0.030074257602883722,1.9783059793204874,-1.9097876298186756,-0.565849303988999,-0.9913359329273477,0.24392718742722738,-1.325887048668983
4wbsc,4.539519113207368,-1.113501108906109,-1.9535746179573708,-4.926045337491765,-2.6750778099786268,-0.7627035815719573,2.084322024834943,3.9927419791153613,4.113272452191561,-0.7391687142091061,-0.025013410955732077,-1.0969399953132266,-1.3559366579526029,-0.09843793300699548,1.412594512966074,-0.013544966867453243,1.0587931858933803,1.7632148691745342,2.0191011542475095,-2.094559272241507
4wcis,1.2235354667075744,-0.9794431656792743,-4.360858500822074,2.2643658276581218,2.5191861248468683,-1.9873299870812433,-4.104804043543226,-1.3542382463001397,0.10541965411684054,2.112671860007073,-1.4646018919548551,-3.2528276023879976,-0.3866120132403252,1.7003732907577818,3.167458823370948,-0.7105863870098224,-0.4744457432078218,0.1877967347234985,2.5243080487601266,1.1952423248912112
56vwl,0.8264925959373202,5.523439729605959,-0.1402432802328799,1.1366108049491364,0.8368371113889591,0.06342425093335526,-0.5962552148556152,0.28986139432162233,2.956012042583089,-0.9979491991848899,-1.6377304983018373,1.8358707431492183,4.19959389743108,-0.11567010877835007,2.9769952691720674,-3.012993149324783,-0.9340611989676852,3.839745956392121,0.439074624618834,2.6828449073240463
5puzl,4.355501280523742,-2.58501365227603,-6.629662428325896,0.44823576788289876,4.309804129131424,-0.24542790094942163,-2.008140942947408,0.5224901046635214,0.7466030168010633,2.7334608377722938,-0.5878880556259215,-2.9293547807821447,-1.9865480929866102,1.2971347600048795,3.570683767921988,0.6993429703308356,1.3081002228678082,-2.096585163607595,-0.873971147883193,-1.3974343784590917
6qe7v,1.2825704545526473,-2.6811515789900735,-1.1088212706427147,-0.5636310494924794,-0.3196635749467502,-0.22642692904167144,1.558381493092953,0.30137958536369097,1.3305088143959312,-2.2797422865163797,-2.0788268728243136,-3.1844428072474043,1.9174318145257865,-1.857963188801088,0.4338590475570458,-1.2721291491398778,0.009607930125000434,1.1431505012268037,0.5721360802616382,0.3104821814765642
6rxfs,-14.068051522063389,-0.6433749109318401,-2.015941263075622,-6.196064968665424,2.432072855013283,-3.523647678451475,2.6338139617858642,4.564384865164727,1.5218635500494695,2.9759634304767038,4.422556723153782,1.1730658857773046,1.6593534716104414,2.59631348597056,-0.46175981171504843,-0.8577818655987726,2.420631101836792,0.2023499142160534,0.7116502914360026,0.27962423705595246
70l1y,-3.1652938328575138,5.584094608171605,-0.5291047002196613,6.6377593773075985,3.4226896811228364,-4.351009106271851,-3.460588911080204,-2.086118839416168,-1.7165458888698197,-1.6406258331620498,0.3738939980340832,4.165844423916252,2.1934767313263523,1.652062360038304,0.471059149732272,-1.9724992205033707,-0.06318363264562904,-2.0730041337455742,1.5813466428740217,2.19175239488112
76ux4,5.280265291741887,-1.5019035533718748,-1.8065491155790607,0.6127799308099967,1.3992861911554832,1.9754988909609397,-0.15895161493016957,1.1257274521762068,2.642871432772987,-0.7849263793054752,1.5805084149462956,-4.392114089182875,-2.9862699328028923,2.4238540419240047,-2.199285197248236,2.4145043723573516,1.044779689380826,1.4617554726979574,-3.150356925456873,-1.429405822850656
7e5rr,0.932024873610322,-3.3272113702676593,2.104461117068953,0.8709390566592378,1.8792376343782695,1.9455010448496877,-3.9315428876300986,0.1291240849977386,-2.968538786145058,-3.376198069962328,-0.06975634688592708,-2.057522238400334,0.16551842213644125,-0.9410265616927279,-0.7741039214624387,-2.5752351234689974,1.8438884759118286,-1.1225260452268424,0.05219890330582895,-0.30775164957278983
7ftdk,0.0697811368822236,-3.582405346121067,1.8593552399827618,1.2098106574858465,-3.8882460874816336,2.4729001104549932,0.984386785282367,-1.7632595840856777,3.3751769104273874,-0.08611563481101167,0.46317004493942526,-2.618002619424707,1.3980561429013787,-0.32064136331288867,3.9816456714889314,0.6160510385121967,-2.716551831932484,1.0075279060737266,-2.4728869043739854,1.3417011319212637
7ge54,-3.105162736779924,-2.9426014848895923,-5.103233479775528,-1.4927476145106933,2.4950526746742248,-1.5594602482252775,1.6478364373978625,0.6911324249959511,-2.430570617103386,2.620237395006809,-0.7756561425342248,1.2274089088089606,-1.0458321837628752,0.9136258057914738,0.6744735275965386,-1.0581871892146182,0.4216948885481074,1.7114154336303624,-0.09285142265403364,1.7618667877539238
7hiu4,-3.1135444433970396,3.804576406105797,-2.8706103186070138,2.146147561083325,-2.9888365849249148,-3.546772901317327,-2.321355695119065,-1.8642568053431061,1.1177936261522645,-2.6869817642439253,-0.9864651777033852,-2.050435466534018,6.394241464654929,-3.744565100627934,0.5401710658560732,2.6536877974207456,1.0037578926545,4.176268293451666,0.17544569463517024,-0.5474237634994149
7k50n,-5.287185290805505,0.8299492665327015,-7.323642889761451,3.5557100203502405,4.153485365042144,0.05396309892739471,0.9269876403517752,-2.3593321254188573,-1.52653708695478,-1.4145414549323594,0.15927028451938943,-0.16899980388180533,0.20359940152663128,1.9141981298615272,-0.8181332248739275,-3.166571585032537,0.14836405650877454,1.7893933016707864,0.027532345512520744,-1.011770464534398
7o17s,-3.2876713294230573,1.6323373169167554,-3.9051061528198288,0.31530344826095114,2.088936327152317,-1.5707246122884304,-0.45694246576668596,-1.8345721968884374,-1.9622657904397978,2.000427528640714,-4.533890221249687,1.126658351838561,-3.3168978883466362,-1.2227151292985323,-0.7456948581938473,1.9301828040718874,-2.842388230444198,-0.21235377277441528,1.801353811135056,-1.2341406640735424
7ub3z,4.031273039873423,6.352616168049973,2.60480790663526,3.0086850415959003,1.2895962876209317,-1.6489073406996548,1.7882953090538267,-2.4291197256693358,-5.719453262432053,0.41706158579993097,1.814331750019095,-0.7895242292088399,-1.1959275422589843,3.0083444745202037,0.09315859770669585,2.4927007542069277,-0.5910093350721475,0.9627473711047924,4.416901843474242,0.650055341974222
7vnea,-0.47398757694727484,-0.22696922991619342,3.981784147166014,4.454059278007729,4.926544921582788,-2.112209382087783,-0.13283307315428355,-0.37695388246282663,-0.5411800100954611,1.1021511670682727,1.7429336918531968,2.1575885089735136,0.19645109165404137,0.2980959005978903,-2.955309671768575,-0.48084352968398447,0.6370806752995309,0.17010943995835706,0.8543784079609669,-0.07263700966264025
89ro6,4.353444036243154,-5.68271683562756,5.401316439231726,-4.950159957621808,-2.6828759392032504,1.7772770527189363,1.4553606895988689,-2.6003780603438336,0.07680293203254812,2.054790404449648,-0.2776297573761629,0.9482328275035825,-2.9823189227996125,-1.3498398122323132,0.1729937017515642,0.7657159320244903,-0.497710020323598,-0.6645913286523814,1.116021230600163,-1.8217165180742256
8bg18,-0.6724443315180182,1.2085226891798757,-2.9068938578967787,-0.9630582933735803,0.7522710691320723,-3.6055600026166523,2.319215430981096,1.3190846782302734,2.1359085112200256,-2.6894793916810182,-1.3449371566633463,0.04098856453259316,0.8911929628271652,0.8809890594335712,-1.0795711726687274,-2.2830697903085575,1.8143404349786547,-1.1873905301078174,-1.6904512826882465,-0.5463369940713242
8fkgi,2.0603864184256087,-2.4459477749447993,-0.4562776534418426,1.877042178781397,-2.37415046630805,-3.616797065521494,-0.7201162971773623,-0.8594253008630959,1.6847774337809391,-1.8522286719681849,3.0257515859282313,2.306035710559458,0.5790074922288982,-0.32507187164088824,0.2215138299220715,1.2421671884918886,-0.0014159364131724622,-1.8667498481171347,-1.1765301551898335,1.1709926313576067
8ij30,1.485321934570521,-1.6676150977691924,-1.119175257152914,0.9718074706438354,-0.8051096048996026,1.1856112288014748,0.1337331623225896,-3.8551202019757422,0.9335420292913424,-0.5612688194189976,-1.9747135983048214,-1.4954940786819182,-2.420697423605743,1.3347007638798656,-1.237448273836177,1.1865940662409702,-1.1333685530245283,3.6862963384383276,-1.3491788736875292,-0.4544967788113292
8ka4n,-2.099728440746118,2.6744937095677987,0.6460977670041024,6.3188958591616124,-0.33014744146067676,-0.5097594971234337,-0.636706152302442,1.1399670622332883,5.976772854729295,-3.7187994722557955,-0.4656003576040405,0.836774670212018,0.8789042142471734,-0.8364753311982037,2.3427864423542872,0.5830391667766762,1.2081116234850935,-0.09967401429937452,0.2703763158915773,2.2362015566755273
8r5lt,-3.316440129611111,0.39254096178871173,-1.7673311892654056,1.328112960808859,0.7680303308625015,-3.29721587384261,-1.9878344450980108,2.504960921451819,-1.547657371543026,-0.7089947057245793,0.4120725462474676,-3.3973401882757264,4.569698679197928,1.2477198679690578,-3.038568456423801,-0.45600945321414404,-0.5026175159912527,-0.5530519200740978,0.5326871415144422,2.6875948527271776
8tr2p,-4.151833839694492,-0.4124391639838092,7.166271612510761,-1.1459973725280914,0.3800288992887427,2.6810401157052364,-2.328229299077495,0.8322646973534136,1.8150229102338074,-1.3826430980691073,-3.1408074904520342,-0.8616638092334565,3.0518366709301725,1.3198483074067935,-0.5920034556578389,0.6979650690129223,0.4928116614657751,3.5061646599067533,0.40857830835328995,0.2378388499031684
906gx,-5.224681602550236,9.109538159531336,0.6218570041402717,5.294121038840091,-4.116486014418058,5.911543872850694,-2.0417748445411696,3.700611294122858,0.47198609455463447,0.9598545445462666,-0.7111171090572331,-1.3523721371921682,-2.2359857873293754,-2.357707730041264,-3.3562554718351727,2.3219277410169843,2.461498282946583,-1.1797534373279566,-0.5664720023987904,-0.38038171575988544
9duy2,4.387408054468776,2.1824275531349753,-2.459347684381509,3.2694468160723957,0.9973297044489403,-0.19410702070912644,1.0933141825041055,0.020610502635369864,-1.9511103769425675,0.9469453888564927,-1.0843419978393964,-1.089351068426432,-0.5215211498209986,-1.7336104441399867,-2.177499326698751,-4.6432978044866,0.9001978152518038,0.058192202235039694,1.2092701049830934,-3.111499772431424
9o70p,-8.159003009893606,6.251381278521886,-5.855051680053797,-4.613567107215467,-0.08623457532495342,0.8003751554978684,-1.0248895546698136,-2.322528314391616,-0.6159185426131026,4.3671196595919755,-1.386784076017868,1.665916887833436,-3.6020275119960536,-3.9136182090078773,3.0991808802492646,1.2551497395742688,-0.5541390765685004,-3.799008695537648,-0.6501907884294157,1.1248376041656323
9vwzo,-1.157458489711216,-0.06764213293142486,-2.8334831879697253,-4.060625434588776,3.5711187840141116,-0.22792597296277203,-0.17139049337207962,2.6767358179871032,2.282348712184079,-0.8113164980050409,1.2920545201391316,1.6846607461532417,-0.15384532624304964,0.6028418377154457,-1.223725916097528,1.2799434110759929,-1.1060028459123457,-2.2515438534197387,2.097729733174411,0.42579199231915627
a53lx,8.567876215667495,-0.9789170501817017,0.7282303519607596,-2.3383591301615643,3.6313528464885185,0.07280442355999807,0.8870224183876277,2.0605360785294295,-1.439064371342894,-2.447523317722856,0.1891664666982109,2.810066035276408,-2.741056035260826,-0.05376528185714738,-0.7528881789823478,2.008129361197244,-0.36416340125643915,2.5986050459689882,-0.25517006175761464,0.2855458679892559
a6adz,-0.20061760052736355,0.46816388379017926,2.909925774013069,3.3434584927284154,0.4161333656153484,-1.0754876543852303,2.4028053487685113,0.9900321313036009,-1.5284717422506453,1.9455213595887628,-0.586715091206427,2.213464762362928,-0.554058146491245,0.5072411773233717,1.6915381155732725,-2.0031953017722954,0.09170183450404445,-0.5880532457276605,2.2346439541371357,-1.5925205702027287
a8aho,4.418962788466535,-0.46711069762615637,-4.075490795413961,-5.162367571352585,-0.600194940945123,-0.9079637591280626,3.0082695677348004,0.33109788780858757,1.5183090576248348,0.6650238809431052,2.3370051981647064,0.6061278972144682,3.765643300631861,-1.0122133816341148,0.108867498558059,-1.1509419727559598,-1.2513743311571581,2.565164535129527,1.2478492942933523,-0.988918506037274
aev6a,-6.238294538055284,-6.705998945116881,5.4054130340797375,-7.811542530543657,3.2571815207798998,1.2264003679022981,3.6438851162365222,3.1494970921468943,-2.9959985910949025,1.3121657272728202,0.500097593061165,-2.54119276971626,1.4824117813580195,-1.993701977311179,-0.7742028151888577,0.6689765748186606,-1.375370188902973,-1.7018063297355712,1.6890738733620578,0.7585422194208419
afrls,-2.0577600670670098,-5.586272286881668,1.1126660011058838,1.4303020404145321,-0.8403160903598745,0.22748907014317518,-2.557672705388291,-2.75254464591136,1.6129780629580488,-2.122460785661387,-0.40171143139932924,0.39374493999928256,2.2490151541959165,-0.33872093230749706,-1.7497152311329707,-0.9597320636022421,0.028823727141571887,0.09489683101901904,0.5602943138511629,0.008494166716357656
aht1w,-8.133583525442434,10.449186482918122,-3.76208625442028,-6.180454946873589,-3.7532595619104425,2.3326718821984715,2.0328377782439766,-5.022196554832582,2.2191179765756313,4.6502133315630845,4.240328003133048,-1.0821871562089416,3.0211515490028007,-0.4835589673920116,-0.028444833769706558,-3.692598837587866,-0.39554931894397205,1.6373276602124403,-0.5226120741892255,-0.4359676967954285
ahyp7,3.5985081162599815,0.6048576643031749,8.077200332777847,4.787910879383077,-2.4125309065102343,0.5025411640799295,2.695950033042562,-5.593463080604257,-1.5640229746983567,2.5959923433056,1.0439140124275341,-3.831708499333273,2.0047145478401016,5.55069341170117,-5.588288226104848,3.8476156976838967,4.052701694125471,3.3390190820593104,-1.8736553989290792,1.087689794423202
amf2x,-9.198934480756783,0.5980588764872635,10.782294994868913,-4.788063246306426,3.889305503603003,4.837568006452268,1.0636745554721159,2.373961478962964,0.09565176371601954,0.1916888886297237,-0.41073944157899817,0.654300616222477,-2.4598211423152736,7.110499565191044,0.2814527314370722,4.922782871562219,3.242699738331098,-3.3130825267351516,-0.724846150818558,-1.2266323286395624
anjsc,-4.107451288581522,10.090650820248594,4.9964518344588,10.288105019475026,2.729581997711178,3.3632132845129994,4.310449892027197,-1.1352304160151645,-0.2924933226634371,-0.7232088057945072,1.69199328557157,0.6768256464958068,-2.286177540730049,-1.0823405686230334,3.450247797310189,2.777371606933677,-6.130862531719202,-1.9699564304912816,1.350977783000793,8.445499821398348
arxcr,1.2268663892572753,-4.087926474005933,-0.4554037211636743,4.1485467840749894,1.4081304531359071,-0.6793599912277021,-0.5077247163851123,0.9616079304542154,1.8235291271528646,1.4340045863856878,0.8130784585175691,2.5620370518843103,1.471680593610072,0.30268539251763515,1.810979413860395,1.3348877795104066,2.9536085808668604,0.13082124680679333,1.57959008985763,-0.35045728741942234
axvvp,-0.3613402824091621,4.23477920410029,-5.754677870861123,-2.774532982319444,-3.7173972664670076,-6.007997444825637,2.0211578827102725,-3.6830667143026194,-4.119457183663455,1.745216420408453,-0.7187433828408939,0.48011104208299366,-1.9409632177731524,1.188886818133848,-2.9227984512496135,0.3054672658708609,-1.098685056121786,4.0757179466715385,-1.4464836229157279,1.3486722517840506
ayss6,-2.712628085349818,1.270086328221971,1.6380410676747479,3.5634120859046035,-2.0072768980044104,-2.6603257933647413,-2.499628383589272,0.25652260545137584,4.74828478797302,-2.333367799576953,-1.8670222351407328,2.093354391324621,-1.3443108467352354,0.14308424284571256,1.1361871183719343,-0.0853653919313529,1.4290705233925771,-2.6678061380208318,-1.5249732527667113,2.983589660652284
b8zaq,0.9591357589397437,-3.230517604986187,2.269760138240822,-3.8805751635753283,1.0663027665111733,0.22922202077645293,0.619748701947116,-3.8163633248204576,-3.488994453969628,-1.4818311959994603,0.9708015050824489,-0.07640111861353902,-0.9516493533335445,0.23093771688698228,-0.22871502836977525,2.5633026427415353,-1.5922466684516223,1.3847229874585114,1.3923754288667662,0.4614751808484931
b9jzt,-6.42919791383458,10.565697634657573,-10.288068147759901,-3.099567151453963,-3.0191423904610515,-1.7802648349998023,0.7338035284045707,0.8069414020743289,-1.171480751854151,-0.15085772736546998,-0.6212416447651818,2.472903302068966,2.3162909669330447,2.417177333328709,-0.8529466690103455,-0.3651978008000313,2.13291439191773,-2.284651413740338,-0.5059484843362303,1.619260051666304
bbrrv,-5.440457786581633,4.182829635298043,-0.7786905383868641,-1.6988302880673487,0.6659145713237251,-0.6371448828997172,1.2576938823175166,4.933204432252931,-3.2675066787063036,-0.6642965284902835,1.5858942675458505,-1.9776443736355398,0.05909263609370606,-3.9183004233642618,-2.9339484680188965,-0.8374737840105853,-1.100662253036764,-2.2869026775547088,-0.4860651157766722,2.761038855400923
bc0tc,2.0163185329599234,2.027705576837009,-4.7523904062917754,1.8659203116996588,2.390888312810953,-0.13034886301402807,3.2168369813897324,1.4006919836307836,0.470483567197445,1.3823528646754422,-0.9765988698213008,0.6214501260136508,-0.3053752767369981,1.5972529468681964,2.6960486578776943,-0.901306533248488,0.4527302535328411,2.1061526562562918,-0.9816809208921619,-0.34795360263912034
bc89d,0.0454647931708159,0.7958221610853888,-1.1254802545341125,-1.486665898756662,-0.3754045854066432,1.3034713393034572,-1.020077893543108,-1.8223761269961596,1.408376401451443,3.1562674337326038,0.7073244402796787,1.0392864367580004,2.8593433484527653,-0.8362768827958625,-4.111072949908711,0.22122121756985588,1.5500428272207234,1.735531622147185,0.6284066016716874,1.415800997389232
bc9lg,1.0433800529446615,-1.5547708924899208,-3.6764479110353308,3.1995887758169874,2.10973521876286,-2.08273497290257,-1.4628441209788556,1.6058675838538785,-1.031821561473147,-2.1913246220175964,-1.5466316121233992,0.7426685908286679,-1.9586794546979853,-2.0746395032693217,-0.15043316874150695,1.2919138171005462,-0.30308838917997666,1.7771033632301216,1.1495895362793886,0.5459676289287761
bf785,6.298333349949851,-3.828364855077899,-4.56549741866514,0.1398411595985488,-1.0774699403034513,1.0727019950652121,3.6749169094755776,0.04076101651123914,1.6786507906626986,-0.42802420493525317,2.2615625484490125,-1.3118695285261355,4.790283875560945,-1.315158506700535,-1.0126970525278614,-0.41029531640015143,2.4702039516787306,-0.16992692088834152,-0.9495746618378854,1.0996579216386726
bhiml,7.839917059915972,-1.2026522645678792,0.15862671376765233,2.803592534432544,-3.567468426602238,-1.1617538470336766,1.1803233672323539,3.2020394679832984,1.2534498897644668,-0.18806744640506146,0.3308394126958407,-0.27281486514757125,0.5362181497874104,0.041687443617480384,-0.818825141048256,-1.2378572872305205,-4.689475905388114,-1.9638454560871124,-0.5531107967505315,-1.5513904017971751
bicf2,-3.2774455917757677,7.05133533359783,0.7733004763530954,6.465463242390427,6.314501808154052,0.4754130893716453,2.534080141341682,-1.6262403738519815,3.3351456226996508,-1.8118671668895883,0.6309472486349904,-1.2153610995725934,-1.4141287046763282,-1.4361988143075721,-0.3139378510037936,-1.5906790279936904,2.2240747231244575,0.10541510804334607,2.049367139569586,-0.21876316157393602
bm5ba,7.627198788555448,2.7625913471069854,0.585384732909183,1.223461656868957,1.6519417014441782,-2.501956036973597,1.8317732313594177,-2.103584348041801,-0.18972167760334027,-0.1526784503857504,1.0312881693460314,-0.8286774341630966,0.15854409116520002,-0.5237608034846952,-2.721064083582715,-3.4040850016646553,-0.9531527486548115,0.3437525423507276,2.318742954997945,-1.7309244343985002
bnxw1,-2.332148794238624,3.11046795455296,-2.363610247920513,1.668617587726341,-5.620314666116841,-3.5656019000493346,-4.666447016389481,1.4761916287679133,-3.549591582379881,3.4504719791058456,1.2122797094523563,-2.375604410142589,-1.1634222722768597,1.495158172387463,0.2999434241206279,-0.23541120652752234,0.9690484647018086,-2.010110121989515,-0.4792165970960784,-3.3155566890071357
byr2v,5.652904512170952,-1.7513177353424343,2.7114730243408522,6.088431565938916,-0.7809993919605038,-0.15199956951544977,0.6349887791786435,2.0110301372001325,-0.6876721229041737,4.698509163962617,-2.110809891229246,-2.032577561589144,2.1527074773923034,-2.614549908338866,0.521089868868261,1.8311424530302718,-0.2745512695298933,-1.4531388078170324,-2.120930190798703,-0.0906418872830565
c0p1j,1.1751816555146257,7.422437750161476,-4.910426216931267,-5.040014462855911,3.2264249832677208,3.1086911410035665,-0.41821289492667857,1.3090966868520262,0.6095941930829875,-3.563773855044252,2.2990556336454087,1.3763427990256558,2.6138994253004326,1.8622298572622416,0.2721194808708414,1.4134874255021654,-1.4502886622750903,-1.7201809113376705,-1.4259831517957473,-3.3660555348710433
c42r9,2.847797745954489,-0.19069761963897008,-6.177938623610131,-1.6849003190891938,-2.335119937462982,0.14624227393477662,-1.9212762817056679,0.322673753299606,0.39114872412518875,-2.1824448871104707,3.105381249786411,1.858946448755873,2.862750418992419,0.9197404897419843,-2.6526185403261464,1.4297728848242317,0.5316204371936941,-4.240680366592847,0.3936201728838306,1.9628174246688304
c9e9n,4.438760623023871,4.234328509964075,6.942153568272873,5.910528289248621,-0.08057211403424144,-0.38554587607021285,1.8075591729028049,0.1697151450372993,0.3966647953474374,2.4975394322335673,1.573975957326301,0.5251342526850269,5.076140827035419,-2.2618076134725174,1.587001445823327,0.10154346046566516,-1.3179991953290706,-3.0533929015001906,0.3707067005476905,-2.6871572252325664
cmjtd,4.979825773251834,-5.174790451164998,-6.959183970505303,0.9655527177426683,4.3722858165448075,2.144726980442927,-1.4176222311921836,3.4143042991206505,-0.6627648589979631,-2.608941654909525,3.130999751610488,-4.933719049717201,1.4315744828780868,0.8233627144139626,-0.04640776283652784,0.4036051056845613,-1.2437159592139921,1.0051765249938707,1.997516593540939,1.9735758504139347
cmmpb,-5.363240953162949,-1.1453799061784484,2.1363423084468782,2.827372081305113,-1.4396588898140328,3.5500020658179645,0.19235614285069277,-0.33842542954969984,-3.4889469507214166,-3.2429957422741422,2.0989909021879587,1.1257872046250152,-1.3883925662420356,1.4914106154926294,0.48969755662306197,3.2453190357590627,-0.509906234360554,4.133079586428133,4.3630127802807435,-2.9374967613769627
cnx9d,7.420150825136215,-1.9186358473757616,-0.6341982876092027,-1.3452307066299185,-1.8181260188903086,-1.3827792748338767,0.7088856437770258,1.4934247292892435,-0.44343115473784883,1.984562096833709,2.8582881986178763,-0.9838498702993403,-1.900256265912052,-0.2558227563800377,1.4960297470853017,-2.779456906892919,-0.7125824996643556,2.9598957304728617,-0.4806967547249259,-2.150588474791875
d3vke,5.143185896893777,-3.219832610817987,6.408642852427771,-2.205855636494261,-6.673278051774896,-8.072659603472188,-2.3348092558258866,-1.5294632608054983,-1.140691767987907,2.201168607074613,2.2519894136887455,0.4582197993590505,4.161077552720762,0.33226222178738013,3.785291992834301,5.342054768841053,0.14793690183766506,-0.13586539153867097,-2.7231357935092655,3.487079909044172
d5yrm,7.024330107459742,7.46752043861812,-2.2210053502568985,-3.667712984977746,-0.2856771168584426,4.317116803662553,-3.695474387939509,3.4943043333177113,2.3123332953732563,3.7900634282963286,-1.0427095276519,0.5762677569061477,-1.9200914963224744,1.1758997594761131,-0.3269926811772094,-1.5455463974043706,0.23805778756938784,0.6863044548723828,0.3989755204823279,4.950577149671963
d8l9i,0.7374635253328242,-3.4199707475218535,0.37394623761788714,9.44282005238947,0.16650066647531633,4.169111217450093,-2.8807370249060114,-5.766940741785398,-1.226855218087163,-2.4919966536833944,0.696247312010226,2.630073214760964,2.8039811808626287,2.9949764653925333,-1.3612492965417813,0.28469999471907825,1.4690804500281915,0.8745450891473221,-3.187793628720426,0.8429442206424725
dg0ss,-8.770901691100029,-4.290524996113392,-0.8621682723048608,-2.6014719268893365,4.677878892768271,2.327265106368356,4.50131900980205,-1.546857401867164,-1.0495433135328338,-1.299287239672034,-0.6420543127698434,-1.2802645609413525,-0.9301111076029346,-3.359968467015643,-3.162293928798415,1.4276325003312844,1.46484714205993,1.0970114174617214,0.7660817163340435,2.4340125629130167
dtsui,4.414465854241148,0.7094672064450225,4.367988843880281,2.5877492106456947,-3.7437898109969003,1.9876154322185509,2.0990285678302967,0.15381660851922904,-2.221518775693523,0.006188545763581505,2.167174051643154,-1.1198548750682042,1.8443584295325577,0.9608043618208731,0.05670396126862249,-2.7668743653081593,0.47835268765201666,0.32004313567744647,-0.3495270888987747,0.7828837871867058
dw6oq,3.8531522645472993,-0.9835860769262982,-2.7569369342296812,-1.653248566775726,2.241340637021434,-1.3269856474420227,2.156095029237812,1.014656585186699,0.42255546860554793,1.3811023082778775,-1.287834098369512,0.405007427782815,-2.8194320695112465,1.4984286383989882,-0.8155744166788306,-0.09413911937494837,-0.4814567227518835,0.14603096101832444,0.08034456921564637,0.45940302669588656
dy25d,-4.198657459471176,1.2914329955397978,1.736908425725464,0.43395371131766475,0.7248542607493079,0.8827941541600722,2.8402038601698556,-0.030875220553338883,1.5775796353715528,-1.3251294153527922,-1.6059966138892299,-0.6975094542535373,1.2904806828661708,-0.21171340088405388,1.126941268204327,4.22330680298533,0.3378221820922981,1.979126618134814,-0.2552558347840916,-3.846985117812133
e8ihk,0.42117544326530154,2.647487929909765,-7.046070020439972,-2.987371835096043,0.3867272263693975,4.584717267492986,3.122484922552564,-5.822397500805829,1.0326943526367287,2.0725010518090996,-5.444000937371852,-2.0610613853523554,-2.542453980817521,1.622226509955627,2.051769950020047,-0.8096959709105799,1.676483014911447,-4.404548531638234,-0.7469341489065134,0.6754574451551044
eels5,3.8568039570226667,-0.7248258143488859,0.8240699532002569,0.2814412921977415,-5.612604453456752,2.5179078232891965,2.559679583411262,-4.534410395289132,-4.097986647631023,-2.8774703982365715,1.5068594411122058,-0.8878789706651471,-1.5661649469644978,5.203391410779104,1.4236634439382634,1.2461304956980765,0.09564144535180694,0.3263416709636207,-4.431602013804287,-2.444106763587022
egrrg,-16.8270117189978,-1.5404761765249717,-2.771548681351918,6.801558672683309,-2.700314532518694,1.4389474831492284,-1.6936138315906701,-2.8377501221002395,2.1508051047308,4.839483362980916,3.3299751924778005,-1.1614079322356365,-0.03840078694054789,-1.7970783195766262,-5.285935871828773,-1.4855284367732953,-1.8166601884549083,-2.8182298985331062,-2.519445795931693,-2.088120235611986
ek9iq,-1.6238065843669216,0.872258594997809,-3.3834609438335432,-1.740008272068924,0.5545430428019106,-0.0028046860598256508,0.07859310456602567,-4.569671396060147,0.9819537336452697,2.386128350605988,-1.4800309612411164,2.0426238722421517,0.6116424124434149,1.2229649986058182,2.7847900293166457,1.2031851009210466,1.5084952973107815,1.2687189195323687,0.5493534291425217,-0.8795553716073792
evqeq,2.072846674233461,-1.9711598887066832,-5.091760243223183,0.207364918821368,-0.7318440432780674,-1.7644921374133178,-2.518451054739712,2.129249792470528,1.418312177165877,1.5971820106120296,-3.463505910654336,0.20698666423746948,0.4378293221555848,1.8914270245058582,0.29908843653749856,0.07018319095312942,0.4231540162609465,-1.1344849864922197,0.3470342900501328,0.25809178795555293
ez9fl,-1.3062761979146813,2.534685334271778,-4.120046664794653,1.906955752392404,-0.4297225873820847,-3.1578985435062825,2.72377257357255,-0.8643179743420282,-5.9254073219541175,0.26358707046565566,-1.182774305378798,7.057219609496291,0.025488742258571284,2.5473968592503695,-0.27431891484632026,-2.3885805599125116,-1.5940055252914176,-2.240095174127934,-7.3705138088078,-0.7209463776281557
f5cp3,6.3731458924176145,0.8236503426415566,-5.016225811284135,2.3599756552274336,-0.5425022239154355,-1.8585616134269625,-1.0862955227295867,0.26171374717876794,2.7993668190329375,1.9939510908724194,-0.8271732566465559,-2.0220673856151823,-3.119579029864875,1.1215395808137074,0.7842278283227463,0.2548849260949665,0.3500132849433443,-1.3309510664033062,-0.352778422295514,-0.9862049867516421
f60ro,4.024590510234828,10.604241932192945,6.251741216087428,5.354217722941385,1.1738242924273328,3.4599589223755722,-2.4401583452198436,2.7330160479210988,0.7585773249273777,3.858531069822157,0.6142797161812377,3.4063093518243046,-0.13504188172931228,-2.749457074764123,0.7320251781304759,-1.2813003779486318,1.3885577529340294,1.6677491401030655,-2.004730394558756,-0.7319075533320766
f76v0,-5.183816514810463,-6.138768493728118,2.305172812428379,3.9734904297169757,-3.9983983682923636,-2.3364039414172253,-3.4514533691682856,-1.0828336339153084,2.530250561871895,2.8370703015327603,0.6938826175729238,3.540485136335332,0.8957866975150052,-1.2834363246703924,-5.211146174085768,2.5564570676667655,0.8163287619322672,1.1974437966556333,-0.20477212107987142,-0.5200188811486822
fz8wa,-2.778399495941041,4.053885545252209,-5.334674411799766,-5.644350062221131,1.2331397609644734,-5.9033122735870736,1.1133294790454493,-0.04936742147375236,2.7564467450643404,1.117320412791388,-0.12762918526530273,-4.230196663425282,-4.487189385443275,-3.517253078822625,0.7099655571174602,3.880620044303419,1.6027031129093947,0.6400875859055194,-1.9777510658148472,1.4563127351453728
g00ic,1.3465474022779749,3.846438408200029,-0.6939659805303233,-0.5563268523176491,-2.585729582944853,3.114009529765049,3.0067926544403236,-1.4718803670158678,2.5233409617935645,-1.2293420008244476,0.17073387694756192,0.5700848556713791,3.044001065524694,-1.7407828147291708,3.897107349931335,-0.8417611434027664,-3.492840063422941,1.5792727178745907,3.2217606737458104,1.805382466610726
g0rj9,-2.946135586692892,4.895426663423685,3.489577023043791,2.1876711853220474,0.8160617893513562,-2.3912211798068554,4.014954414024986,-0.5326835059185973,-0.5209717398715662,-5.443655934629642,-2.96285592617284,2.284187895625664,-3.741891688913689,0.068270769003962,-0.18480949511516215,2.6111985140218703,2.5491963631254655,1.5902035023839185,1.3844291355341156,2.0572295010851493
g24p8,-0.8885169971678432,-5.846943436575313,8.327614718388137,-2.7694666524121785,1.767633979698831,-2.344840998955686,-0.45643583259999837,0.9708551918681668,0.4197560329872156,-3.066578240994121,0.18938537359356283,0.47436395587909275,-0.7883779331905305,-3.152046860937478,-2.4921438574233465,-1.4131732739265792,1.090832594112322,-0.0048748889908980676,-1.7460211769670706,1.8618424198660704
g89mx,-8.291770819712527,-1.7050198376233772,-3.1120813888995245,7.729367837222452,-1.5385034880836383,-3.012260680687802,1.8346590550813686,2.10408615077726,1.020213649291347,1.1204567020478449,2.0121396342693636,2.9547399477176537,-0.221983157418941,-0.7670113970523199,1.963073197055369,-0.08212960991197064,-1.175252503727336,0.12363015431812233,-0.08048389745146782,-1.7208462370475606
gozwq,-2.6386641645911455,4.76757669837726,3.814062075282908,-1.6809112909730333,-2.354497138476305,-3.6435870406584603,-5.17857248963932,-2.0399321312624097,-3.7546219036901007,-0.8819824228035428,4.7569073876054,0.1461164576947971,-3.8595964178330173,-0.5313433823424675,3.753622143698328,-0.11371495908102004,3.4289322728177845,-2.055242855912097,3.5968362126612736,-4.880035740739848
ha6bv,4.027529869075958,-2.914168484120817,-4.504323895228303,4.079846590124388,-2.6431317423090075,1.6956147065503449,2.1651913627435397,0.5978840947040965,0.9209940891139997,1.4339419511163902,-1.9925592446742173,-1.9521479675043083,-0.6832343753033379,-0.1831110250750171,2.1249024701596486,-0.3275244038249643,-0.31081575675871254,0.25285680529296806,2.3892292838290885,-2.2417603153695844
hetd5,6.700914703258784,-7.4244000962290615,-6.247077470127538,1.8713790420736875,-2.9045492112124474,1.4159239520654328,-1.2727441367634995,4.540362105512117,0.08076838575949236,-3.1293229760326304,1.2120002556271365,-1.3265288199277465,-1.2401861740292484,1.2448963512033142,-1.6660551990529178,4.005923385588117,-5.232051639931326,-1.2165506513426905,1.3787024244116806,1.4922441828088702
hfvpz,4.646970271280593,-3.849281893901953,4.965593543923504,-3.779276350748271,-2.996329419048263,-2.3881644875473587,1.322063715105769,2.2511281991971557,-6.459135410415803,-3.1274638280596707,-1.4533333969168607,-1.5471063065935442,-2.284233685464726,-2.214533232873262,-0.010442342368139373,0.22389778980509875,-0.6619977257706819,-0.18689288368783064,0.8621294757904623,1.611234235449735
hpbis,-0.8563660791272703,-4.067417220613175,5.8323560520729725,-4.468547590468749,2.5325248716721953,-0.7969293647453579,1.3617799578852312,3.1842040082260272,4.1077514644645445,1.6253722770610903,-3.1293645212388355,0.9699310164906411,-1.3466915944373044,2.7218990680266524,-1.2383281190198547,-0.927731888043227,2.3051130450042394,-0.217150706768138,0.10656071351903156,-1.3706392519538184
hwot5,-12.321695390521544,2.2449412581690016,3.0090145897710467,-1.1813944217980559,-1.426191536535722,-1.3842401711345278,1.5988888322172787,-1.462997964236993,-0.4160663658045204,2.044519553954185,0.8527368146425454,-2.076312435087993,0.9549678693130182,-1.0549835950881463,1.510191312175484,-1.1094171629375793,-5.955671062301533,2.6191265022390438,0.7346621545607774,2.9557815308812088
i2m95,-6.394998755446229,10.289917062180818,-5.163603375269846,-5.916672519704848,-7.2250196841056304,-0.011733805886142316,-7.320030982265315,3.4120223698176946,-5.090994842557959,1.147729741924682,-0.40352199936261274,3.038939716768149,-2.4037306703047547,-3.3725820737317154,-3.2176648590831824,0.1177551838551378,0.6738292003335933,4.73655591952436,-0.17175769786699768,1.306163981327008
i89x5,-7.966566970307909,-1.8448164201299684,3.344711497396562,-1.0933154859035583,2.8287906440991857,-0.5085916030534916,-5.373315196356284,1.4919352769690228,-0.6260654186935544,-3.2278200975670885,3.067498887136731,-3.571305468116983,1.7683960879256078,0.6148961694453837,5.803655608469449,0.4755666634854402,-2.1498830497664843,2.5159046413025865,-2.0778936510504074,0.4491945143943941
ibsjm,4.024726394273926,-2.855699633267075,1.7448217569703177,-0.5550426904241801,3.1909963926368676,1.2684275897496387,-1.1581479255703293,-1.1252038268313667,2.171557107359398,1.006295924554538,-1.8176895584434196,-0.4217915112881202,1.7973774712025643,-0.1547119772072172,-1.6427088679134452,0.5784219126254744,0.05708391996219358,1.3961304819930354,-0.9690860727298092,1.3120463009372874
ighhg,-13.127560456215791,-0.20796295893297137,-4.729272025359736,-6.4225677207140865,1.76351055934434,-1.6809239856246234,3.2623185227267135,-3.0151388303889024,-3.9351566906968403,2.9831752762670636,-3.2224530987164948,-4.98598667458231,0.779230704607292,-1.6596450682035968,1.9817833368523026,-1.2009481579103058,5.869532688690872,1.1629163218652543,-1.4286065985183276,-0.3443826826452525
ilhrp,-6.772281294192713,-1.6789542038541427,-0.8335909204898458,3.792554145910862,1.3346614914264867,1.9464029019032922,1.4519832614387636,-0.22811729801782202,1.6391580330684605,-2.6901599220431383,-3.7062589300579303,1.181328056137266,-0.8923727372761369,0.623775176723726,0.28623881247194866,-1.0217374395051508,-1.0048539741360771,0.7882294242242076,-2.3040743091814915,-2.364076960486671
ir48j,2.822027586061032,-3.943733773131647,1.446714551661374,3.4438786376165686,5.029150469247873,-2.1529058881743106,-6.296297765049821,-0.424836219965374,2.6367467688787127,1.0678729925947499,3.1295298554713407,-2.2189266039120334,-3.25042620459474,-1.0995013178993815,-0.4363016831906296,0.39397722966667303,-0.3994173923933037,1.0176102908936595,1.2293023988481728,-0.2664823512113991
iueq4,4.883379751115772,0.8657231419144472,1.5448987095642364,2.8594916070709777,-2.0992697767984816,1.4509144203694004,0.35508183726821013,-0.025534393561910496,-0.10121674912576475,3.273913569454221,0.37174213319503524,-2.275843330942319,0.7698923838987813,-0.48010149390943613,1.7646252783670973,-0.9074886939868346,1.3784936218505208,0.6787480462834187,1.6832233445518687,-2.47937809504115
iyz57,0.3224520529144408,-3.0696179795136103,11.674647721691803,-5.4803996366700245,-2.3748914531111796,-4.157379540479459,0.10717475747196503,2.0008742377968427,-1.2446220621273343,-1.0096389583475063,0.13711769282068773,-0.43602107922744465,-2.576480981161594,-0.9372609745897783,-1.27457995374405,0.5968380819719031,-0.9958031096322588,1.3187140096836707,-1.1518125345589225,1.766375435343757
j0fnu,4.422797198418517,-2.122474786501462,1.0103229959239197,2.259643352283315,0.4828836799531921,-1.568280975014899,1.070565795364639,4.226387160533243,2.830943971764937,0.5664335091299609,-1.0709247011895195,-3.1325713291333876,0.6569170610529438,-0.48566399888050765,-0.7173415252067734,-1.6960900599708215,2.5165503119985138,-0.07670550506122487,-0.13289326993519554,-1.76563893077148
j8yub,-2.0275390795232395,-5.513278789988402,8.170060719359451,2.067007118586021,1.2754185252559673,1.548633899070352,2.1833569842248814,-2.309663998860151,-0.6876484403851375,1.2337619964033664,2.913499808308452,5.958262673173897,2.3224102938714246,-4.959755874665285,-2.231445621943816,0.4007026552418758,2.298097113186982,-3.6961325151396265,-2.032210135065271,0.0337849636603507
j9t67,-2.4521536412100318,2.636441976108857,-0.9371874290863226,1.707876109014918,-1.5344717706957183,-1.4192414572739531,-1.1808537043953022,-4.1712836986767465,2.410204223329209,-4.4329593855655425,-1.9929509832322114,0.9981504868901091,-2.7173876043022487,-3.3624851801994824,-0.38942150862050157,-2.2287337777775003,1.157216677914673,0.44374722222524277,-3.1975691183431296,-1.4476159072584012
j9v1n,-5.097373108654734,3.2266658465202034,-3.369378587850996,-5.459543697830405,-1.3600072429278425,2.024956004878591,-0.2132610365979921,-2.509456848076557,1.3082606778874264,-0.37413889184286697,-1.5792847607521143,0.6315030925093137,2.144690650917533,0.7374117351674967,-1.023737337935707,2.5938089435165637,-1.1514218917606187,-3.4269925599155657,2.2464422674573052,-0.4331009243221739
jex85,-6.357178591333579,2.1199460312057514,-1.833118665066339,0.6577548391309671,-3.442644765840855,3.3991135789287172,-5.244142623121154,-0.1450100938019234,1.6055286808895999,1.5812206935917688,-0.7705348457648812,1.261735667647547,-1.7749174987246337,-1.5541855167734755,-1.9739601397427309,1.5337531842246241,1.0500888950364469,1.9706534824426476,-1.7043584295202934,-1.0220645189321043
jqodr,1.4139321724192433,-3.895353276270656,0.7737851917474984,0.16179946721531932,2.753188756888089,-0.9363464554231677,-2.962704017613775,1.2947366712528163,-0.1755611112270047,-2.957284749599563,2.0330916983675067,0.5984586474535747,-3.1975668308837193,-1.9730655564292467,-1.3365949613808359,-0.92160862506378,2.9596619880238726,1.9558384983093509,-0.20335874930650116,-1.1273866947417093
k7iif,-3.7823768859312366,0.9530876310895421,3.740399846321727,-4.075184582293947,0.6480048785133314,0.8787583679099571,1.5829845405499885,-0.3282813565696931,0.5165925448948456,-4.297483802998867,-2.804554872542029,3.2005166228020703,2.0169091885207995,-2.3367339213360605,2.7031306569685682,2.3435798506120813,1.649331836444003,-0.609614092127293,-1.9004515493008283,0.5704362694442863
k8gd7,-8.41097965035373,-2.478700762393391,-2.582116497540927,4.950867280796276,-9.065814759153254,-1.4392861841999007,-1.1211357691934598,4.3079188090562175,0.5623641518800022,3.384281439126537,-7.693044965502711,5.32898246058721,-4.47115178673991,4.961754690631871,2.024694879890171,-3.80786943457597,-3.5652968614775897,2.5588850735171014,0.8873754523442796,1.503280081724141
kficb,4.037447652044354,5.575282025584596,4.612535590909354,8.105990939232491,-6.3990459025519435,3.5467808821326026,-0.53149137261437,4.65165237460957,1.4328997688288758,-0.893118499882663,-3.1899786463957502,-3.9686600762017843,0.6301471796773701,-3.9725415391467345,1.7084841410726772,0.025669224633461916,1.426441510403138,1.513563382593204,-1.9887176303094012,0.21503593445500083
kms82,-4.582880583274699,5.978669281778855,-5.933695315844931,-4.989765727256566,-1.65598015316827,0.7487236829242998,5.411824127736927,0.7593112262274851,0.5339893906185292,-2.1182592280559533,-0.4027223689128854,3.8202157394930385,2.825476337244018,2.5875888911273237,2.219160724167859,-1.0913874734232913,1.5888184524341837,-1.4375682335409776,2.561486589122307,0.3419082228092858
kvy1a,-1.5869787511765674,5.755109321299114,-3.4659940710449915,0.22044011065133493,-0.4531871375737981,0.4281815726384516,1.3339040168502,-2.0979937250240783,-1.2047461317188988,-1.81993107203069,-1.1621532053415968,-1.5174633538902724,0.8222193967345773,1.4577721952695963,-3.0534902267624524,0.7066158306504545,-0.20214329021494473,-1.6039788929869736,-1.1705608343339118,-1.9096349585809527
kww3y,-7.244709280079571,4.338126493135206,0.583712793922388,1.6344604561001028,3.9507258524141333,-3.958072595277334,4.4162314923791,0.4043736523444103,-3.286581509070757,0.8578884394268411,-3.8083767966404194,-4.076599987242185,1.4638317640187695,1.1786322147502606,1.649271259056657,-2.462392487091467,2.9623955712455396,0.47831672684015,-0.9758070121937881,0.43775213038910743
kzigb,-0.3126904763332572,0.15204585057023276,-0.3697541787113406,-1.6928048120966415,0.8061837062760133,1.2083304947492353,0.40453918442496667,-0.13902591461015207,0.2820102655434243,-1.2320573561649883,-1.4991135203264179,1.151420770074885,-4.181149524167608,-0.24188903874973294,-0.37579708252758526,-0.09155916596405383,-0.9494650194396729,-0.4572203542691781,-0.7439182124715671,0.32187694126398103
l3bok,-1.5645458645164487,-7.298064490018485,4.313526171679574,1.5649248173401378,-4.398731282925144,-1.104047520650063,0.40987645335514744,1.341259136468914,5.216377891431272,4.098445935839043,-2.340291600603185,0.5573062634897389,0.37770356851481474,0.10070952846434424,-0.6398179385238527,-3.22843291059306,0.7376803670246447,0.047083301466223595,2.2704924054836884,0.7376991474685951
l7xza,0.2937819692686117,-1.3896249963223857,6.53530894615443,2.3166300805085065,9.212992735438359,1.2687373079767341,-2.604452420812478,-0.22778317114605517,-2.651393676381443,-2.815024996217863,-2.199255226359718,-2.460418104286971,2.3806576884035766,1.276857589835917,-2.8903191994300705,-3.03613666167041,0.1993952244003025,0.8812510824675356,-1.265705909389343,-1.1074428567164334
l8eqt,11.935803016923956,-0.5501911526076683,-2.9939033921729927,1.540540128099425,-2.1664076902913054,-0.6335174120218909,0.7804789129188539,1.3900958338597214,3.205844366255039,-3.1528086314638983,-1.5836408315456982,1.753799592050375,-1.6992468901383841,-1.025566846975552,0.4799916056468734,-0.7865052953694459,0.37662180654022603,2.043135114168592,-0.9814251994229527,1.1055779264613512
lclop,5.690998759926711,1.4066652639636317,2.48415263573029,-4.156558675438785,2.201653329940873,-1.7897553852142494,-1.1139270304805342,-1.706783621494373,-1.7286176057198175,-0.5177334390095031,0.3579881426366918,0.0596457953165747,-0.18356548322781238,1.143693159077191,1.6767879481057688,1.1520284634331293,1.218105477540513,-0.5763844800461471,-1.861035944957129,0.9644081965520457
lfhm6,6.384145145933945,3.063086224512432,2.2575790165338208,-3.1019864445446865,-2.183120098663289,1.4107624142584803,-4.273462431355514,0.9612188957494354,-1.0589333802837926,4.063116510226748,1.6585978088885636,-0.5903672988713237,0.38205925709836647,-2.131591370583029,-1.5340094169402385,-3.172811145379414,0.012589318801607885,-0.05622335775088899,0.5123931277163464,-2.477246517202827
ln91z,5.351226109367422,-1.6642382506856475,-4.854070094534808,-2.881916695240381,3.055500216063535,-2.978455251366045,-1.0143705833512047,1.7554722452874287,-0.8951978829011693,1.9673838231354432,-1.7208530135146967,0.927939974055662,3.2259828886957496,3.675997271298344,0.034866006836146206,1.1849135785531677,-1.380610551196923,-1.8753541502688391,-2.374116384130551,0.7567068777943013
lspv3,3.30865605510518,4.920544542531658,4.2097273900417695,-0.6213965770725307,0.27672402467994356,0.15974441090046262,1.5818347772097074,0.877258042132185,0.6223656816484084,-1.031632488559032,0.4817254321702325,1.6528008664136904,-1.9252376651384637,-2.1527374988529693,-2.1492172265252285,0.5815875868004804,-1.8141324214570154,-1.8636712910326536,-1.3812152221560097,-2.3628470697791553
ltop8,-0.43768893595761066,5.3222485395604195,0.8177437331651513,-1.726094724414306,0.6015615903160062,4.500008104409898,-5.778408093408138,0.444527876334084,-0.12487659109152231,3.5049071989457183,-0.06560978317360626,3.1728849512330926,2.022510766797274,1.0323141019570614,-1.6299453668815973,3.1260640983554056,0.3853790108984161,3.139183313711995,1.7215323646342113,-2.2783355582501326
lwvjc,5.1236256593474305,-0.9418765339467192,4.779549360217261,-5.091058495122976,1.1051016125486461,0.7236229316548233,1.96116139660301,-0.35117520653548123,-0.9842658185016766,0.29096476678384753,-0.3470555703299951,3.976842932102804,-0.18522821254585525,-0.425616474488743,2.2128274128941348,-1.2572218136988567,-1.6339051853418525,0.40873299213693287,-0.3792524540971377,-0.9281164003630232
lx6ix,8.844246746931196,-0.6265279944422942,1.2598020144799702,0.598391335094549,2.5314856416703218,0.5409860058984565,1.1322083890960273,-1.7214314620918667,-2.8545253620471343,1.3334194134838555,0.772382928719024,1.6825224255751858,-1.8420886390442075,-0.972636794756881,-1.4152218975027744,-2.0421908470103594,1.083498192198465,-1.0327671430320882,0.07027557643801742,2.236997115059627
meqhr,0.12225065860281556,7.901205500568002,0.054886674431462466,-1.9063307231170081,-0.7309232461748589,-3.545784278087818,-0.7699160354083401,-0.23535854372712034,-0.940293654346719,-2.245379915405038,-1.587424163676175,-3.689479006358531,1.40801865749186,-0.6269412106182851,2.334871799821155,0.08614666521704188,-1.7574541523118556,-1.3424943935871618,-0.08409599783988037,0.34193502637352263
mfgtj,7.265753685291939,-1.753772449565648,-0.023074924556340252,-2.3355711131119583,0.12792322006358414,0.20639534553981742,-0.18982117907929433,1.9403762994829914,3.4154575080767824,-1.3239526687258714,-0.7127558312590285,-0.16428935834963862,0.5326838383931564,-0.4360728776142426,-0.9832047466904443,2.1860102059947404,0.3771968800217731,-1.0212537320941046,-0.06626480599073599,0.7532691972598988
mi5r8,0.3429282583706862,-3.5902012342998817,-1.5387739440537458,-1.5492513360273943,-0.8432010908799586,16.542030389187588,-2.00856451871966,2.859144942418364,-4.52494334745155,1.7261211372435858,6.403120002693832,-5.1716885084023625,-2.355381512419774,3.1003682796387197,1.10441387168481,-2.2946156152028387,0.2389028302690691,2.9299021665557503,-4.0153187121075415,1.3785746400994336
mtom9,-3.6419098348217647,-2.7561964090828854,-5.648010423495176,-0.5001292998431319,2.0455252556017345,-1.8058402815006085,-3.361423012113989,-8.369861680302673,-0.38449378571262055,4.214712971587986,-3.4091633674771176,-1.4608257673850717,-2.065870436875338,-3.388810877294577,-0.9239435671109646,2.8421571947237303,-2.7538469287143603,-0.028050894224206698,0.1247957306492779,-1.8069424400987124
mxuqf,1.4927410277520066,-2.0676711513661825,5.098905912095827,-4.19675284375392,0.1977889247436527,-0.5656802622710819,-2.628795243271466,-0.1567417673777754,2.6854457577691893,-1.3984781729434925,-3.1038552096396086,-1.1070114979096142,-1.1728251522735789,0.27092020218337826,0.9609240547373303,-1.6012917605332895,-1.508193487609946,-1.7141424649362893,-0.3185219384143664,-0.843246517409807
n0s0f,11.814350370723005,2.8364873959962136,3.124010613923266,0.9611395160161624,-1.7969055914309868,-1.1669828767832906,1.1207737046656017,0.3160459522494279,-4.047555985965954,3.186827619418956,-2.8753452591926156,1.9113873546743512,3.044952165345805,0.14832914653539964,2.4557640110981724,-1.3269641620640267,1.9251521807728165,0.6776102506717007,-1.5948868236510143,-0.5453114935595669
n2pn8,-7.590148203655843,-3.6649441819213013,-7.435613878174234,-1.3636520736444844,3.9102724460681286,5.638423950445393,-0.7845152263984516,0.20273062583034393,0.9993313122280856,-0.0452519113445262,1.756188528573947,0.20514069100763568,2.2650464665906807,1.6216759830291414,0.24749549336170337,1.1158519992167337,-2.842558971822802,-1.50448314712615,1.5567731874839945,-2.084950681521632
n6xqr,-5.095390437105647,1.9046191906379788,-1.6676007185215138,-0.20862170641912603,1.5934813733704178,1.524336456401864,1.4875247421006739,0.6351154952014336,0.41342088541853345,-0.4187383909362845,0.30301303893736037,0.48884023124083653,0.9138946884820329,-0.034288554496101645,-0.13499158985291837,0.6254379632402809,-0.0464785709974694,-0.2228804981182716,2.2491203706749117,-1.2180269320699568
ncyc2,2.455440928590469,-0.2727941921575956,2.619000298848825,-0.10522595106227273,-4.621960430206844,-2.5990999224543447,-0.3172875297338906,-1.3481006685097523,2.0349137338932715,-2.75452020045319,-1.06907535174233,-0.7646143481653473,0.4090501385609936,-0.09862527208262768,-3.1152420388571502,-2.8941880922251744,0.458020221838363,-1.5338575319805348,-0.6549859694862856,-0.9122173583722268
nhhpr,0.009572040658066362,1.2515947787791075,1.9679062504497293,-5.4919734407132506,7.19474165767776,-4.456984614466948,-1.128586489234363,-3.721823045859708,-0.513464206732318,5.368124909776238,0.4823356560732359,0.09491311105507957,2.5033762808086535,0.04554428796835582,-0.47647443787868443,0.02682562104026834,-0.48324133178407097,-1.5811877054183197,-1.0483549952125137,-3.20809497046722
njkpj,2.6817191872644277,-9.279201594783924,-4.243294858488886,6.381707816363803,1.5860714082881247,1.6194734369223824,-6.579560018773334,-4.244223852284057,-0.007296139518818606,-1.7322463719114345,3.4389834337177936,0.1287515663840145,1.4437489197836197,-2.829944880889255,1.9804470642789624,1.6362709728195697,1.732435297161762,0.45936528323100795,-0.6734923776150273,-0.18334448536608006
nuaiw,-0.09760958302059282,-4.117645241605335,-3.2150062345548416,-0.8626859724143962,3.2379537446767777,1.4329150574238911,1.54009012996176,2.4097370717297655,2.286977983571786,-0.16346696534641003,-2.042062481550955,-3.8884394814460386,2.36005329328356,-1.8779626660370214,0.029245703099146442,1.981255113499804,0.8025508539116445,1.1994745991918914,-1.3416944857374273,-0.30604257327025447
nz9w1,3.930032307183582,-2.5468169132858094,3.2642957493368585,5.11790938254977,-1.6327169181721248,-1.4760409617776753,-1.728229675173705,2.2913780121556298,-1.443365699490459,5.1667806734708,-5.589725740956333,-0.7588004654529746,2.3107624977705585,-1.1939183426099913,0.746055554314024,1.7919220920519183,-0.4790005735087753,0.21431627130728736,-2.04700729791586,0.499913605338628
o1zc3,6.719772298266594,-3.4811957446271373,0.2805360603182209,-1.5537728607906378,-3.2060468792856076,-1.3230269657516296,0.9075045900287115,-0.14187801346146403,2.2699530791766698,1.5845745662725017,-1.9824457507823783,-1.6995547884736466,1.9963018230945133,-2.1108199407860146,-0.07454465334365484,-0.8117447208309556,3.5807327810451133,0.29252651409932134,0.23538409707510033,-0.3810947485603726
o33bd,-17.355076254910422,-1.1811664154223138,-0.4308807666866435,0.6081468084908533,-1.3874663034790298,-1.9401025307279873,-0.4802844013064073,3.5726104988100187,0.017741012844072576,-4.623893826652964,3.0774838034824055,-2.4217737751757586,3.526695448153811,-0.23503753781354841,-4.6896520041443015,-3.3964246135603484,-6.103612247348569,-0.15534469081750285,-2.5175279042609215,-0.13751540686822197
o3a2p,-1.2035540641801625,-2.2919618681573213,3.889712588515941,-0.14386836569133601,-1.9026809315096476,1.7290714988977451,-0.13164255113413736,-0.840429943102803,0.2194179094646765,-4.4373607004267495,-0.22288807486470857,4.5909941953395785,-3.823793594826552,-0.14630136266087923,-0.7230607121809511,-5.541060732886181,0.5682587553957515,0.45867286004378643,0.4938098819849749,-1.2319301349199474
o3lxf,-7.052762632814354,-4.417781461335376,3.4580517569727682,3.0741139871422094,3.703660399544994,-0.5410449695252126,-2.3820347489600118,-1.134537614109503,-1.6389834777289454,0.44747983464318375,2.533331627894177,0.8819250872015674,-1.2283706428985963,-0.5263828044876736,-1.6105280423935446,-2.4345196720149085,1.6318494685813498,-1.619447550786023,-0.027796253474431334,2.6797160505844477
o9a24,4.615881007055982,-0.7093518822173744,1.196862892206761,-0.08074495582646284,-4.248434453447311,-1.2296551833514044,-1.5944894002232366,-1.5029558110572807,0.47384968110810854,-1.3529949619923514,0.19113501016560056,0.1752589936131853,-1.0689177830105756,4.168927859097806,-1.0710952002684326,1.018421531655221,1.343040596137817,-1.5023606028115237,2.46778715024094,-0.21158632071836017
o9fsx,-2.77063353934646,8.019903004654568,2.6343103416366893,2.7119764642201445,0.7631059734891082,1.3740344222302756,-0.07110338122652997,-1.0033447675587677,1.969802889848809,2.398983744821061,3.9295939322778533,-4.569685282452509,-2.750861779803033,-2.627676234853271,2.4966697209902953,-2.5893408847820254,-0.5033035737496935,-3.83916708206343,-2.6254477054214633,2.4316345160029726
oct5j,3.6516263268377323,-4.619668767361666,1.30755582788816,-2.269882291585179,-4.767860574378225,-0.07971386111193891,-0.3644074539144227,-1.4917278848657998,0.6590887328026751,-0.3921108427819154,-0.018296479797386415,0.4974098478046925,0.6391381866858078,1.732628966947216,-0.4952417147696386,-1.7163889043243203,-0.43633570680588174,-0.8674613765930935,1.024510276359535,1.1024490687145825
ofe7w,1.4633996271200003,2.3452308027860154,-5.120018703858576,2.4088198117601807,1.5110403810675421,-0.18763985111175382,-0.6077632547957127,-1.5488833453954083,0.39501881453316695,-0.6015839812851583,-1.8580792004776892,-3.8041299866039746,-0.9343812576264001,3.8812661034484814,2.090971735860114,-1.2455090909066444,1.8190640384263483,-0.8331665470528302,-3.2371183272796404,-1.8773299505461496
oscdf,1.0363520128849228,-1.1633458402774193,1.028168714409593,-2.761953427033893,2.595002671654069,-0.9130065276068589,-2.551769499322329,2.691512436296627,-0.9940618961942183,2.4811809049710685,3.137676255062813,1.3843855456679075,0.49269131480722866,1.941344592626023,-0.8764188161462898,-0.5115966623917575,1.6172490542121645,0.0038971329348199244,1.203561629492766,-0.9403588397245316
oyp87,1.223616552692896,8.952846194610736,1.7382964034110753,-7.404111164817505,-2.9608342405213453,7.138926706263074,-3.7579652662638723,-0.9627398794922127,-2.7247327205439693,-0.8055151488348256,0.7022345683009222,2.046373054773247,1.4915014313630737,1.4876124096704053,1.9224607398796243,-3.237524345770219,0.7802445451788672,3.421976013340549,-0.47612823817229366,2.2574571832462054
pqdwo,-0.530955284418833,-0.7227416545182328,3.5071198140030804,0.9652249898576954,-0.7837287149876875,-4.19851690625671,1.4167909535208052,-2.1548084939035674,-0.47329782070339876,4.384446074592033,2.5506861449370932,-0.8197464436873791,-1.9344980463198747,0.9740051718771983,-4.73669781803877,3.2905040328238364,-0.8808520790561956,-0.9455046014080579,-0.3053829170695379,3.1274223822479077
pw1a2,3.9760432181159997,-6.428422486595352,-4.8729727535582,-2.6796732991045937,-2.7975571259104743,2.407673285185586,-1.0927441986848248,-3.2821698456619637,0.374680512486346,-0.11226305971908246,3.8920676588681875,1.6516471480372108,1.2483177958751919,-0.3621694661103492,-0.0857700993080313,-3.3696648477872913,2.0179397505730488,0.4929403267168305,-1.5872735693243276,0.9998599546649553
pzttc,-7.218072173191732,9.593150790327071,1.429844477806824,-3.653080316571937,0.4603159408957862,0.45744032960880987,0.2283362243787342,-1.70723211018129,-1.0239149097754345,-1.8960629941909257,-0.5599486198943137,-0.3196351220544549,-1.1890732744104662,-5.65433300665301,1.250181758573308,-2.0728089809983032,2.4948511858998104,0.24922842625306174,1.2832371008485493,0.5675242874608142
q2hse,-3.9914528736573436,-2.100583255156492,-4.625131850052946,0.2460143533621864,-1.3702353114171117,-1.3449252895303854,2.9347151647686878,-3.0081341675229663,0.6215164798342844,2.3940286056277236,0.09195319381618142,2.864476661252473,-0.43096113155251636,-3.2942636567532966,-0.6884743716136349,3.4118900257064744,-0.7229035296400891,1.9473275632048674,2.008253689721984,-1.048153048654929
q31p6,2.4325739914979017,-3.5477828981793116,-2.5548972806646595,3.065864670853526,1.778112282710345,-2.8636233714936226,0.16742585000013382,2.97805620010857,1.4721951507218856,1.5513400571860543,2.5207763104258056,-0.4615757155160994,-0.3774087720935117,1.1139271901464702,0.3436475120188731,1.196209399097438,0.24736070636208393,-0.22702640356646103,0.5924447110616983,-0.1820702819698847
qe5iw,2.2235099398290377,4.038888206764877,-2.777808284047509,0.7368153148239418,3.118614634338883,-1.1312944085460372,3.393617129865833,-2.272801345106224,4.071025964048539,0.07528053098314286,-2.533090549943837,0.3753804626599988,-1.2672513471612126,-1.1731246804688609,-4.088039309376545,0.20967150970622153,0.6349333508375694,0.2136005455276501,-0.9038519331599499,2.1545409555492636
qn6ki,0.12424262798512788,1.49805484490182,-5.354662595434596,-3.0214798318010834,1.450951268596516,-1.1931463274474083,4.274623750491401,1.7828568221867713,2.3247200271523516,2.249859966131852,0.371283623716714,0.6069423661312803,1.7603182896455485,2.9610292364308495,-1.7950593227270109,1.0748242228368996,-0.6249082790338619,-1.5827030183243376,-2.5381409877275853,1.636458788043492
qu2by,2.786810232992198,2.3650297423197126,-3.159239225462756,-1.026714894630283,5.390704062458177,-1.6047825416732548,2.4290761377011933,-0.39861135405182596,3.4183622116811367,1.1926404394690904,1.0477726607454774,-0.8817549338523359,-0.853425671112022,3.96980800470985,-3.360202367034913,-2.3990975646864405,-2.430210874058665,0.19273367677262723,1.37732297475786,0.5275597692197244
qw4hl,-0.195328833344913,-2.70043211535142,-0.8285836725695331,-1.3130170878777165,4.529492400438662,-2.247433738176591,-0.5683986881473977,-1.862548553855751,3.9810046512161112,3.6610780569762067,1.5484367908384897,3.008912113965597,2.45513000974364,-1.2606404224060217,-1.0635980360141055,0.1642781684853461,-1.9495641308130465,2.2748755447175086,-0.030430923955601707,-1.7921008697845826
r11kw,-6.5355575729398945,7.242850703951935,8.848657880640017,-2.141249694562013,4.4417555557044945,1.4200769035350727,-0.3411979495261876,4.97710953324214,-1.920048856580748,-1.8588304317303455,-3.792540611815123,2.149371707289605,1.1317505086364548,-0.3093656072611169,-0.4653801467089941,2.271539777030491,-5.116737515758929,-0.2596279462798245,0.08168777588335087,-3.8137282163538724
r82fi,-2.8662135122392907,-2.939375825724529,4.394167962169285,6.776170626133689,0.41691133822379733,-0.9523506076370325,-4.467388621287483,-1.2790673859859474,-3.8539985619017885,2.0332645179080453,-6.3133160980782215,-2.9299251482794335,1.167778541779374,0.0665710355921725,-3.3559350075399625,2.28665006496591,-2.0530960121125554,-1.977205429130879,0.9413392476897594,-1.0892894187152296
rf2g7,-10.693916499358894,3.5283444885663844,4.380581845524651,-2.2547162779812955,-1.3209927716402823,-1.9253954385601655,-2.2736449682080013,-2.3081214231064684,0.44547171423542603,-0.23748003525167644,1.3035451265049574,-1.3088852921410685,1.7421732673739618,-4.047226395872617,3.775642816113274,0.6379860911671278,-1.5603329711841398,1.5596866934540952,-1.1249832632740064,2.9547139572388863
ridfr,4.6134840181894665,5.90902466090837,-1.0495437942610029,-3.9443302638549302,2.0653380631081677,4.175442505190791,-4.020831632583342,3.6794572308864164,-1.3161011021153142,-1.2456868951313544,1.4813216072013364,-1.760680071592482,1.5443890138676313,-1.7223176841277372,-2.6954400288293154,2.3150167160341963,-0.12948601392346293,-1.8209064339405787,1.6143073781702064,-3.772127353912121
rkkav,-0.5215644253857674,-1.2679744818187026,-1.309368078223189,-3.5533715315464915,3.682570853070797,-1.3143025493361518,-3.766279999547772,-3.2337498764366805,2.3369446949540804,-0.29903833537222435,0.9893580828298535,-0.6680078378856292,1.7929728362268236,0.509264330983964,1.198558168085599,-1.054107618302091,-1.090000493206261,2.62987664982951,0.22562384990595277,-2.1874019615518385
rlkzv,0.1097070286787021,-1.0616089310272594,-1.0990589220348925,3.55976449831563,1.04497906330694,-2.0783264989613985,-2.0373039996712294,-0.6038381815429996,1.4460586580316013,0.749094851299419,-3.383173218142804,1.589251496598875,0.5267155152134222,1.639641393025081,-2.457423307955856,-0.5321196507599988,-0.8833998910715556,1.3828520851009718,-1.2883892101872338,1.3440109395730329
rzj8b,-0.42199397762269103,-6.375933344434528,6.091033616990354,-3.3662955731055018,-1.0899698942903315,-1.162760983833513,1.5145357296985633,1.6926246328839742,1.156664564176466,0.33267045877128665,-0.5837855598282663,-1.429569745865393,2.0160617017650355,-1.094485774759406,-0.5215590277149085,-0.02289252222023492,0.8261582016622017,0.0799886515145063,1.3976172271801406,-1.592583841061735
s6avc,-0.45347093371279973,1.185684071812218,2.8160630627628094,1.9349034083240515,-0.9556109960132845,-1.3233599103839824,-1.9354971757405026,2.000406305474534,-3.6040472218802857,-2.4521421229762264,-1.7026650592635901,2.472688897871911,-0.24289113396589185,1.1196579183523316,-3.29325377759443,-2.932031273206264,-0.6357559772142146,-0.03437873564826185,3.799724771363105,-0.02969777961239675
sa9ho,4.749154764273913,-1.9058029245608683,-3.932303882344573,-2.457788814905143,-1.8934521600498628,2.2257704092322896,0.6488993327838011,-2.818767176346297,-5.855267144006824,-3.7236306731873263,-6.256147939881033,1.4456890992416982,0.016208960020261967,0.6037125921066202,-2.569131576929961,-1.6141310411572611,0.6476607723994816,-1.0788808845748712,0.03823867954743847,2.8530854077438264
sh3z4,-5.584237966040964,-1.587311325197307,-0.1991344028368189,2.8749334145118266,2.737841135445347,0.4357580720496642,-3.5487800911660012,-3.0086250306445894,0.38221623447625647,-0.008879912724976222,-0.3289420613162846,-1.2133651469572264,0.2623823902741723,2.633170314065924,5.0288622636099145,-0.9056029927510011,-0.6524863215569511,-2.2216975475056104,-0.18276626385000255,1.0328416092329542
slp0x,4.850682155321488,0.008747611851473179,5.0639294004412125,7.145228999598171,-4.203468159070313,0.34944987396328875,3.1530943338328714,-0.38833199007220925,-0.04409532798221756,1.4778195560499354,0.9126184763788484,-1.2542734064416592,0.44902853298692674,-0.8043140498968637,-0.21088764838627647,-0.6355614733398385,2.812594479477101,-1.0014205010905353,3.655702616027083,0.3959920472838252
ssiwx,10.203101957528698,-1.9440193862158688,-1.5640407741858768,-0.43473304398086615,3.463242910752056,0.21653446807141208,2.0172601830414387,1.662421415291708,0.018018243955644705,0.21731030941010732,0.5324375696004152,1.4430678559570338,-2.02694917473683,-0.6918358709020828,-0.6666549422798022,0.722312000944792,0.7106152589020014,1.7248423710033682,0.7994715856753516,0.9217608239290858
stahe,5.524149879103011,7.9699442913107355,-3.4284441642978947,4.171281636194075,2.3896205315133834,-2.7789099933758616,1.7200631476234063,-0.6220225476152371,-1.448764640841811,-5.358272199778353,0.8895682300568136,0.39267278350595347,-0.8764062195847498,-1.2362523897693858,-1.125056104177746,-1.0656031467968798,1.5449111849486115,-0.694123464205,0.7739864848371762,0.620057796934135
sv357,-6.869158129274241,4.361514877288775,6.726359342149791,-1.0880877121683332,-2.791924700914678,0.29172338464172376,4.92492829995783,-4.984054691215815,7.683305697378367,-3.8446099645162803,1.4845627855754422,-0.6671531884535598,-2.2138319161447892,1.5726542158214647,-1.049829236617391,-0.5356628424372653,-1.2171335635935059,0.3618661715340223,2.172068708372393,-0.4659478224816446
sw55g,0.04473305930409768,9.09043732439317,-3.5399955006652353,-4.932747955790618,-5.590953146927038,2.1165720712979588,-4.9973890793879505,1.746390041416969,-0.6531608092700647,-1.0572531146860022,1.4115565944404174,2.786611281664998,0.8300585290988156,-1.9555488119937694,-3.342689208692503,1.1290989343288387,2.46353130209515,-0.98034795392198,1.660242906047892,-1.448334238839656
t2677,-3.1002602164882034,-6.906938309740516,5.1096136053233705,-7.661376369470837,-0.8342149296727971,-4.165046699572356,1.5556157611740475,4.678650640756169,1.776886960318001,2.2592713960679065,-1.3856050722455495,1.3897510862227371,-0.6615131113891833,1.308344317731104,0.6571020346851288,1.0643283390635356,0.6260389182929246,1.4717719735241763,0.29737125118712787,0.803572231337876
t3mwb,2.274615836645831,2.7270415176917577,6.180913898784196,-6.498333671300742,1.4213203313568517,0.2267688991732231,-6.957106431745026,-1.8827940343773637,2.628040814243615,-0.26746655564953936,2.355336198127948,-0.22273297464200953,-1.5224710371511092,0.7442412428117654,0.44801029104001044,-1.8955765453994133,-2.3813281089603224,0.4654207456952594,0.3704658506096725,0.3827662043563539
t3qe4,-1.6641130479004982,-5.569084861782049,4.023162467897315,-5.074527699246854,-2.236975764750062,0.6672277171336901,4.379187535607113,1.4655583276541309,1.2109891007414357,1.5063900266833667,1.591918642834139,0.8534944828330229,1.5696228061880828,0.11474693285925436,-1.2479157373121696,-0.9534484051160453,1.4798209855973574,2.4907324669404827,-0.8276261528367815,1.0401757938173173
t4ldc,2.889250942289535,3.225538707506952,-0.5077095421711946,1.7774869190391274,-0.29695698623227285,-1.8596755831196274,4.05729707402161,1.236420046564893,-2.403250645163372,-2.559772521216143,-0.5232399546761757,1.1918551909743176,-0.1668228821876035,-2.422192164089561,0.8876241860119481,0.05959764050390039,-0.6240936866401293,-1.0239230720293848,-1.4487912558009997,-2.3469404823650657
t65ti,-11.799974907311908,-9.010855828200128,-7.357108068432185,5.3261931562895075,-8.23073653427445,-5.118021718477357,0.6224608970961192,4.923890710013617,-0.3761581305876499,2.898404979476274,4.887111558538782,4.894210300067555,0.28050171508342714,2.723420496030425,4.244803015083256,-1.472248990980062,-0.8406786593518665,0.3112007351786543,0.7790593078454958,-1.127403758898474
t67m6,1.0961520462607781,0.13189621786448547,-3.4333802128266586,-1.0264150177762086,-0.8652646025580961,-3.4727088537117154,-2.0777480010016394,0.9707389404792033,-0.2310236602605055,-2.534677816793137,0.6398580012408343,1.6773854130258858,-0.2957241890343205,0.0706734425102416,1.5438304316282583,0.8864080882589856,1.6675795001601368,-3.244583354715223,-2.301185679500485,0.6856148772764651
t6mgm,1.4647064901901956,4.912697147822031,8.608137179732937,4.293491521524545,-0.7249916588722779,2.2240360018246146,1.9618418024511775,2.639957134734958,-1.9418704537066231,5.784637070248144,-2.67450742420474,0.4928577796910377,-0.6278379714220832,-0.12435654355837752,1.1978552802249147,0.44532957532911116,-1.293126315572818,-2.6659209404007354,0.3835163298873929,-1.8198439482355642
t8dkc,-1.2031152984827767,-3.413478405231481,-0.7453479175407677,2.377454930078379,1.9215388492932302,2.9288410829315246,-2.4815896024847457,-2.2286761204000505,2.641780249000764,-1.5730406238442132,-1.7051779200337907,-1.646526599584145,1.3270704424509134,-1.1363177790084984,0.6502624190512536,1.5864793102959744,-0.6839165718813724,1.3958138888048912,1.405766683864964,2.8367437634002264
tcget,-4.838138297515779,2.333141862624208,1.3086436864468565,8.629315789076397,-1.380794500107221,-1.501198688539091,5.8333031710219805,-0.8741994243417035,1.3397140913990024,-1.8181619461098064,5.2627395457467205,-2.117709926541288,-0.8396410554110392,2.454890891016346,-0.9041329025036892,-0.7586878899654566,3.478858749366366,-0.35991481252562724,5.2849053089642934,-1.8669231504868542
tv81i,4.7337301216160474,1.1156793016432391,-3.433089980102963,-3.02148091690347,0.8722225019941195,-0.9805925520381998,0.022962458791198525,4.165255942793473,0.2100728179167856,0.642544413448683,1.7105618829242573,0.4573934522323082,-3.5520092423418705,1.8371355105036993,-1.3671534593512666,2.347042735273849,0.21589031664437922,0.7646764868682727,0.5944056725912654,-1.1113089282761037
twpda,5.374085496943132,-1.4730674811380247,1.3226845418763618,7.895032796188365,-0.9371075435373701,0.8295298101052242,1.913764456768254,1.5465301027838534,-1.4177327765689283,-0.47071759066485913,0.7139778789690822,-3.239039176127864,0.03839038405676763,0.694581458667082,0.29789374806787206,-3.329193956097661,1.1994696853728932,-1.027009002203782,2.2736339610956624,0.9111339502987922
u41kq,9.245017105915146,-4.563425945556692,-2.800620354389763,0.10243203870072336,-2.87091186705389,-0.10646883283444145,-1.8217268386782233,0.08705052201423977,-2.2865082343250327,-3.371379674772189,2.5102922727383903,-1.0102244146927242,0.6621829861975163,-3.3807345581616444,0.9425959462155573,-2.333549276739969,-0.8738922814524142,-0.6681554939379916,-1.2783465903356357,-3.309517009759192
uir5g,6.067366271532861,1.5079950816756624,2.934125158225515,-0.6542159824755907,0.10251556703003582,-2.180159586840396,-0.3835230851379901,-0.328578543473567,2.2016366245125027,-0.11905721837194226,-0.16443566654608044,-1.1930596670861167,-1.0011606376756852,-1.1763954560804561,-0.6854312746077671,0.9623513020996054,-2.4967238177935407,0.09898001488294167,-0.6271574394126406,-1.1085687832150524
uk2vf,8.248465263159895,-0.23882776217741514,0.21159834377168757,-0.27567327659404983,0.023394697604810895,-1.3781058641623134,0.40128983811111,1.6953006087719866,-0.7032000085713362,-2.414254961516751,-2.097949747086144,-0.4748932355231781,0.015214938784570607,-0.6646926439415061,-1.88768929187274,-0.10766066707706624,-1.3844834047089185,1.5847110552808004,-0.3283484136963712,-0.6213104025095756
uo96e,-0.9766431974642464,-1.4325868118526497,-3.8792127710826163,3.972699743776438,5.624863499219184,-0.5997449694872433,-1.9662139975901272,0.5688983115028847,-2.4394812866446065,0.36469342753473216,0.1005344734855779,2.0974887824705943,1.9587792676594928,-0.18545980158945052,-1.0891295309259241,0.39685635146289233,-1.1975936518444805,3.043087570946884,-0.459306658393882,0.414629951308857
uv0ng,-10.050183448051035,-4.134337610129115,-5.119279087996561,2.706760990158445,-2.4309920986300475,-0.7362907801686494,2.4133434083520218,1.848135096292875,-1.073591979426493,0.9596002794989523,-1.135888177708531,-0.5927395537723429,-0.45909614322679737,-1.9429627275370747,-0.5154901960721409,-1.4921565394912732,-2.6432599815323794,2.499836474337666,-1.9020872357574419,-0.6117910196779762
uy2vm,-0.9478837749345508,-2.352382473068199,3.383213224716949,3.0023027508219733,-1.8020882360907322,-2.3607822938539136,-4.985956583669185,1.5689504812082555,2.785105387756803,-0.06149570009410342,-1.2220864570110748,-2.4730344125870443,-0.14590947736263118,6.332932522059946,2.831186191747433,0.8297042367004598,-1.5306556525623396,1.1975468186121565,-1.7808243296715616,-0.8169387074095726
v1vbi,4.115189423700122,1.269202943256762,-3.510929079210606,2.1601441044285914,-0.9845576756641877,-2.639076329619636,3.1868506100729124,0.7940897747122477,-1.3281916726233145,-2.522050174358859,0.8360431839683559,0.4935081746732569,1.6360735890785234,0.3560295766256585,-2.0401896689148367,1.8314331486324344,-2.641573363241794,-1.1312261685762468,-3.5235319877453968,-0.08067960732248673
v20pc,0.479933306970808,-1.523082168748518,-2.2623025950251026,1.1021325149516843,-1.4631432287911692,1.7647767470009943,-3.308710761301435,0.0024593089455516325,2.6795585639652404,-1.1423206023424188,-0.554243187264911,1.2966997945581902,-3.94455519945265,-0.5724870593510487,-0.561286484371898,0.8677467999160392,0.5136286763556781,-0.7726916353759045,2.082309513334404,-0.9893661678715799
v2zfr,-8.345489083882827,0.8608644775075014,4.065414260568887,-1.171557024005017,-5.19022301351725,-4.527588552346654,4.8869401551798015,-0.833437285405366,0.16681057846519967,-0.7070972667530272,2.010389068972869,-1.3262331448447833,-2.7278149729554277,3.5153768351286607,0.23265698718111763,1.1315451683295235,0.09809441216903524,5.238719770318672,0.5779327528969043,-2.0767994836152295
v4cye,4.549438717108614,-2.0370371065193944,5.672741442622235,-1.0665026253122576,-1.01909176255671,-2.0565304467636163,0.37467617444637025,-2.3422336949611533,-3.27027444899948,2.3340431348184203,-1.2157538606325053,-1.2399388899907646,0.9797702809001108,-2.6747886286277933,1.6086959907002338,0.5418693830626296,0.012660206120206938,-2.3393772496518923,-0.6097108286078793,-1.097805299578823
vlxvq,12.296784607690412,-0.17223196183265815,-0.04903492841564959,-2.3145719115386503,0.6057341994939323,1.3270554147800577,2.7209717091194165,0.6136441196027472,-3.122923909239258,-0.9941497412738273,0.3606190889821663,1.2030709073226975,-2.8692345409270796,1.1122858911524458,-0.11156274053685643,-0.015589502353794114,-2.8080132289148594,4.275336210676369,-3.0572770229730812,-1.5526745577001397
vqz6r,0.8564400357166945,2.06682868066058,-1.4201656021832512,5.162016544105609,1.9604047306184993,5.149648791468869,-0.28317347658781233,-2.0931463870123435,0.9500148959206268,0.5531283934743864,-0.3326558554849245,2.416325705240789,1.9717876828250962,1.476507582275801,-1.3850612357547665,3.1132138494826647,-1.34446630750118,1.0172214577605458,2.0212514866154123,1.7668194276537093
wdfyy,-1.1217668646716559,3.55027412695366,-0.6746639165203677,4.097377009143743,1.1700371631750053,-2.078521762730796,-0.3316612881226088,-1.5162567128482136,-1.0370809949975963,-1.1714750451418423,-1.3062709497772733,2.017489714553628,0.6723996991983381,-0.09111132226991135,1.0478141871642808,-1.548178940701079,1.3320338987096227,0.5053548198990924,1.0017372097225814,-2.1782925215710156
we66f,4.54002747128639,-6.491632156088953,3.816432861049733,-7.159896679874258,-2.1149158401155947,6.595513626722839,2.452035324306465,-1.4461171078178023,4.019199919305021,4.840136195064752,-0.4328687184035187,1.7705174980981004,1.2866694498859979,-0.1591367122089957,0.24980783623403988,-2.1151463457684043,0.1596674829420898,-2.0675524859624415,-0.10405133845089384,-2.093374181274691
wfreb,1.3208639819864014,-3.1006708058369084,0.46846933402785157,-4.547068659765796,1.446630708706983,-0.18027658679105682,-1.9152238974238136,3.370659602005237,-1.7081506456998585,-4.824378554357856,-0.13385941823377015,-0.8341505312931742,0.8110110586169255,0.19630818655111873,0.8991969347657668,-1.4284754580943588,1.9681407527492947,-2.0095840294744414,0.40223656214642417,1.6089291022046255
wrvfk,-3.2094041637168638,9.093214285474868,3.286419583360677,-2.1529914421854173,0.6426306661710465,-1.0316578921542328,-0.9576848452997588,-1.6930294519170344,0.8671515705636907,-0.7304415495537069,1.9000289803148258,-2.209890869275674,0.10891021289753508,0.06377953117370545,-1.6507335248141874,1.8557510192800828,1.9063556985685732,0.0729658622341123,0.38841800868617693,3.120272735478186
wsyy4,2.665146952813159,-6.558265533393744,-5.876594590748053,-0.7712167090450036,-4.802787509957827,-2.560265827363593,-0.7497672625724321,1.1657583187058642,-1.7143675274747636,2.763900408979311,3.4582769787571963,-0.9595958421411827,-2.5111508756110728,-3.7029734864317003,2.978092284501262,2.6785937032021687,-0.04873919720434291,-3.8640364993469123,0.005357878438590888,0.37512406748141697
wwm84,-2.230985989391263,2.0874150699664344,-5.393035831025831,-1.535379870810829,-4.423634368151342,4.085155774936036,2.5695744044799467,3.850080719830164,1.8823977509395342,-3.715380543463909,-1.412933619756048,0.17771748345946756,0.4649996822107503,-3.0997244470154115,0.11320088291457107,-1.047627217580645,1.3334355485292586,0.6590940036292166,-3.775430851180545,-1.1825675956696406
wxbai,1.7375526806614687,0.6902065728110205,0.9607667362496981,4.854748379567618,2.081089554482049,-0.3897976185178664,3.2923347239052645,1.8596387144366262,-3.239547468931701,-0.7678829836824117,-0.1911279249432911,-2.7418440566667446,-0.6958269675542399,-1.15432914285896,0.7385044159307312,1.309225979970521,-1.1665964433009777,0.2504340990908579,1.9652779847913595,-1.8475935676809818
wz6dl,-3.1371147441205682,7.773833865824456,5.6575433134510735,2.7318783562955664,3.944775810633125,2.990830127136061,-0.7026276408524623,1.3831498134781366,-3.5505228088776404,3.2428591526014325,2.9010106560933804,4.514684141676613,1.7571354422164445,2.410737809513206,2.333099321476632,2.8924306229449233,0.32708473395364807,0.6156222697432921,-0.7080733985587798,-0.11132987491440621
x23wu,6.724227035659159,-1.5354280193867036,-3.1848980110274137,4.554809799887994,3.5753864281112206,4.332237286873235,1.8917248017317572,2.0939814677232578,-0.5312954354747725,0.5692324392495808,0.45843502381293133,-1.7532906823874836,1.606491877808919,-1.2501509430080067,1.3367237627172321,-0.47059096405906803,-2.1355738798638613,1.0376791949321846,1.9000710858640528,0.5425802824692071
x8lvd,2.181668394732054,1.0600419553749691,3.4382139751446448,-5.214767480584504,-0.8593883777288535,-0.27781593716368813,-4.331651024378048,-2.6323913388322917,3.2591441153161624,-0.23792527141286707,0.5015832657201377,0.740062019889891,2.0607173318150185,0.4702063306915502,2.482884461711032,-1.5670160494983547,1.0094684625031363,-0.11997422310037208,-0.1207026880537527,-2.0655077544841935
xhlgi,-5.7308634416259165,-0.23604971186837106,3.7713351920415636,-5.780752400403852,1.3477304511486992,-0.29045925144912904,-2.2298465195332984,2.477194957435079,-8.433681748993699,0.31804597630987663,0.032429599123806024,-3.708482192118883,-0.431940218030201,1.8127181215600447,0.39570776370238825,-3.679655289191116,1.015041194542003,0.2032716150685141,1.047143727077533,2.502146130224273
xj2yb,-7.219725709352181,-8.543126901271723,-0.06499483505937222,1.6225799504218148,6.779851066152116,8.229584929365904,1.8502322473641606,-0.5323283215710751,-0.42550638648791533,-1.586539660898512,-2.9699583160876504,5.315816922449941,-2.0455206080284882,-0.833892594884278,3.477563792815401,-0.043920406843290315,2.293638319014091,-1.0741162121741559,-2.047605907089578,-1.2263866984747236
y2eke,-17.894649360835494,-14.69157706878505,2.204966550644117,3.0870150221116175,-1.49464466126823,3.8190016606325115,0.6681274449665712,-0.7716459455762388,-4.884286078288404,2.2310589938072307,-2.4747123156770248,-0.4528450106122103,-1.8685656188469861,-1.8270677225119558,1.55296740842762,-1.6642698127813498,0.4419294588313623,-0.732401084384774,2.927409617237214,0.1628705363879217
y2ysu,4.655510610529755,-6.394643238485161,-3.4200090955992195,1.170959202176294,-3.5754711228732567,2.2499402830425206,-2.236771549750093,-2.023355023194166,1.1452636359410133,-4.128133148327223,-0.33460562583855036,0.11579597537269841,3.4343786675117296,4.077317306967236,-1.316730037700204,1.0415106407412513,1.045369499936188,-4.939761648638836,1.7418990455491659,0.7117777525501595
y78ay,3.8928364129663073,1.9944341842528253,-5.288637488655838,-2.0474801787612966,2.4661227990515786,-2.8906647470542413,1.7448668212250065,-1.0696074355669036,1.067964981344523,1.1755301003672767,-0.9801857999515732,-1.9231802457459861,1.8878478677276982,0.941126675743964,-1.147082313623796,0.037024315425106875,0.8550406683896824,1.451905595879505,-0.1159441295623016,0.35743188160275347
yfl6g,13.951956830229795,-0.6328984051922049,-1.7238146781513282,2.701743762745543,2.120376075945571,-2.0406195689790807,2.16245903115379,4.062955692010591,-1.4243823303357899,-1.0712685828406485,6.160555334212335,3.373720542495527,1.518229954669772,-2.2160220306874363,2.624877411260208,0.07579616845092013,0.02509394538559266,1.316988690651175,0.17513515035206398,2.0378085967316886
z2bfu,7.092932997633543,-3.453939920570557,2.2353115349064323,-3.635019328875102,-2.3893440972835194,2.7677737973206,3.141348306768496,0.4626857588289683,0.28194130048490806,-0.005012739876865616,0.6428936449542884,2.099849826251894,-0.4597431908403079,-0.48163988245380923,-2.0586772657776318,-0.7150478683555297,-0.023032174982613052,-0.9434806683673029,-2.3174471958179987,0.5408555564148229
zenjf,0.1652712692412963,-9.605956020634453,-8.368164649369406,1.7308958451481142,-2.0589702054031602,6.365607590790951,3.6197495756264813,1.811882785010266,-1.2493989237213479,0.5842102836165859,-0.0355592536221136,2.196284454915507,0.08678049282255725,-1.7280815061006745,0.9552274401834003,4.721765229802322,2.3722650957893947,0.9796579165940392,0.9491665484516442,2.591520787675528
zgz4t,4.06944856610235,7.588822176248403,-1.050945036260162,-1.2137397303504054,-0.3296894624901343,-3.4143831085550422,-2.2413858565436753,0.5833631859186961,0.06927744882787078,-1.4693333006243987,-2.5444647176041046,-1.941301571527769,2.7484627121794807,-1.2666923298239658,0.42410312236529574,0.5321091867120806,-0.8550628506790026,1.642005119188648,0.569655112904107,-2.26109606024328
zlfti,6.312680606913275,-4.703124330940537,-1.469466439922561,-1.0129831103094584,-0.057815821095311616,-2.197155399524477,-6.435058509354896,-4.030945138043524,-1.0546077138562178,-1.873545853188542,-1.300448588829097,2.132738672600577,-1.6027406789040692,0.20344419778188666,0.7694567671663545,-1.9973527955127515,-2.30382937235044,-1.2638037481288056,1.2916153116609956,2.7779968256165453
ztc36,10.975975137169787,1.7217578506175595,4.560297504710789,1.9170171094471529,-1.0171259622595983,2.1127950439918086,3.5372550456748852,-3.593584830276766,-3.022463209021449,2.3784953434958713,-0.06274406730293018,-0.6111324187295916,0.9812647377198489,0.16336435237215666,0.8283533167768408,-1.5098422140463472,-2.8027061872837318,-1.8489624155790116,-1.642857636231515,-0.9751877746366292
