person_id,emb_0,emb_1,emb_2,emb_3,emb_4,emb_5,emb_6,emb_7,emb_8,emb_9,emb_10,emb_11,emb_12,emb_13,emb_14,emb_15,emb_16,emb_17,emb_18,emb_19,emb_20,emb_21,emb_22,emb_23,emb_24,emb_25,emb_26,emb_27,emb_28,emb_29,emb_30,emb_31,emb_32,emb_33,emb_34,emb_35,emb_36,emb_37,emb_38,emb_39,emb_40,emb_41,emb_42,emb_43,emb_44,emb_45,emb_46,emb_47,emb_48,emb_49
00a1r,2.7762125362167986,-0.936191302404488,-2.203102099966905,-1.1760474456794983,-0.4822596870499496,0.3808710498678296,1.3485805541840707,-1.092223986559222,-0.6530020872750192,-3.416253582911723,-0.08916647884568095,-0.8509301745426847,-1.8090881920596886,-1.3759495313725656,1.6540678666420634,-0.9055803014460206,-1.3978757595472078,0.7410194349487893,-0.14151520179005747,-0.3540869435555552,0.2809546985225692,0.6552494723878597,0.5413104896279324,0.21978810263968943,0.5740302003599594,-1.3967264018114305,-3.4218101852329417,0.7519550551233136,-0.4260857930419449,-2.81350954266517,-0.8155314262715271,0.8256098134556255,-0.5763714140140314,1.4684730565859507,-0.3908378936730445,0.7517688786109927,-1.1104344421521157,-1.2446284826224208,1.3644432209246484,0.7736727229060086,-0.24729637230259283,0.43307124481853176,-0.4843632570734285,-0.7029357829869906,1.8251917610572723,-0.6761649495272131,-3.419737369075255,0.02064440189896654,1.3636541450638089,-0.5691160598359664
0cy1x,-0.6751504191540362,-6.2763427754585255,-5.523292507204367,-3.6304140116350596,-0.440379666209993,-0.6618592117236961,1.462162008329541,1.472474918246292,0.6921715307768429,-0.6364668756179358,1.2035217374074272,-1.3820628595463076,-3.331179350284768,-3.3440762128012897,2.6797275136235847,2.465363338660085,3.6111210718463442,-1.050058229208311,1.227257179450467,0.7241490583997643,-1.4929866898067017,-0.9828565869124091,-0.8359574727138683,2.457278435007396,0.21552040731702907,0.843238892870446,0.9005082087368682,-0.5061080510970879,-0.9377658185436708,1.3810392255903754,-0.7298310499294208,0.4203334888564162,0.5557491957185726,0.6743466345570175,-0.2050774890235584,1.403145932784411,-2.504597872524688,0.6025674333147739,0.46759663258020306,-0.8895000194748268,-0.7905446754970787,0.20104271008509958,-0.08569525229630183,1.3720356642372609,0.9592224278941458,0.9578893221966537,1.0330538335629218,1.233254343258812,0.4811238125425872,-0.38043605171622147
0di48,4.941614074160089,-0.443686692071771,5.688268790831289,2.36623440174989,0.20874803777464895,2.138575293814547,2.9520027984806627,0.3867227131225496,-0.9309650415722069,2.2977747707099745,-1.107261384121961,0.12185494568065751,4.511952855981801,1.448448020138763,-0.8493867848930365,1.5826372265711106,-0.5612265034412975,-1.6979529356449568,-1.3193013181279085,0.6862503646374659,2.041434773566263,2.1816933281307325,1.758456911363662,-1.7559791974634908,-0.3682596693137585,1.7923716780703194,-1.1416906945566816,0.4729107555778522,0.9737549982262157,-2.509870661626476,2.2626744876382987,-0.7458947171454662,-1.7307717772394318,1.9787339275266782,-1.716933576780854,0.4499370846606582,1.0209285106522326,0.23748871236841337,2.3201867293054175,-1.972352518140898,0.14738267315520728,-1.5571541434357952,1.1261089532447919,0.5303473414927085,-1.6512705700832258,-0.20760998712349346,2.108438905615361,1.839049209592521,-0.0023700822835243285,-1.8069883001249607
0ifq6,-18.42836063605721,-14.072054686961183,-1.7399343131085363,5.533204125354816,3.9151472355889108,-0.9335219608760557,-2.4280401939544634,4.6628264951985905,-1.437225942831286,0.6766817458115711,-0.04137399885995429,1.0266351474493671,-0.08757654854122524,-1.2150582011595439,-1.9482936657175967,-1.5942017859188164,0.4332520791455616,0.9271263023002488,-1.1349212777481237,-1.552374199603829,-1.494528972097608,-1.983014455171143,-0.970631609632169,-0.4749892594235268,3.7823041437259333,1.8090772186508102,-2.0246012877713273,-2.245013436037148,-1.0973235625483955,2.103229992275038,0.3097252104998652,0.5629366921615394,3.1986911643185234,0.8187806794084005,-0.32704582577943936,-1.0340656031475757,1.3041486380623653,-0.3461200026689435,1.0029184959813517,0.8996919014758212,0.060471604703588956,0.5577761818884134,2.9465129699812915,-1.4476092241182443,-0.3557892707006165,-0.5541806756772988,-1.5924983377962654,-0.15395340228523777,-1.677633758965368,0.11891310656118678
0ldjp,-7.20440882900701,10.455589190726062,-0.8715685007001264,5.186994609800638,-4.109417500533375,4.0232880104736095,-1.1881246796246854,6.408816131500844,2.4039902010222916,1.3993586729373761,1.2442090210436239,-1.5111724889853981,-3.980414126442353,0.38077415561166933,-3.094243200324869,3.7124359619147875,2.837251614678817,-1.4423127807225942,-1.4268028094452498,1.7279602627043085,-2.876180729114868,-2.176100676191744,-1.2261807137768777,-2.630316951069147,-1.8225233291739258,2.137301039514093,-3.3226140433716105,3.4310754514692388,0.9789791784055114,0.4014463419742712,-1.1549553533326418,0.7025631485622494,-5.086326651233521,1.3501519002349793,-2.850187352697333,3.0672162240759704,-2.9787258036995006,1.7105496274405823,1.7909218141559269,1.9834758252365328,0.30850419993193723,3.191934049220129,2.442585057815995,-1.9764322878257636,1.786356587322476,-1.4312915860283373,0.6704903989593869,0.9259563197867973,-1.462016258516384,1.0069663001575149
0xhxd,-4.480620225969813,0.6817158475936735,5.688809125894861,0.033213093499937965,6.24673189260617,-3.836508302939142,-1.0606332613692395,-0.6213629519894139,-1.1875726918193166,0.07248216220897154,4.4127669328759485,-0.3364415061286407,-2.129091278167185,0.5346964729618904,3.7228197587762426,3.163726837945977,1.3786265888254055,1.3034789143605021,-4.4500663487547625,0.14076525935655337,1.7485690500948898,0.3979395908703069,-1.774749476093197,1.1371065786988792,-2.6507127633771157,1.484224648470197,-1.127979792793331,0.29675511324882436,-1.589069981269142,0.4803302175393294,-0.07478357909451849,2.09534932823075,-3.1247768037706196,-2.208901559078233,-1.137262002230007,4.087703957889055,0.9541241873701881,0.81944680783781,0.8800175506236656,-0.28542429013268095,-1.030515621906628,-0.07627696820909953,-4.1607572703330025,0.9827523929588382,-2.9914080282768136,-1.8686212830093383,-1.3918787018599488,1.0451927187801444,-1.9573232581753182,-1.0155367011878207
17cwz,-0.27634059781305514,5.882725447626275,-5.932376109789391,1.696118586993509,1.0164372148521947,2.3937248697184144,-0.2239560684951777,0.7697389575768928,-3.024073600699856,-4.312530287193006,-0.8618825903804846,1.5087631436234084,0.9005793892995302,0.2695404400777576,2.5054775351132017,4.785946417190128,1.0894602324339084,-0.8147420805730521,0.7800928919262817,-4.517331117661927,1.200161958400197,2.077228719320495,-0.9560473763803513,-2.396651916250788,0.7066583152618318,2.196848207182757,-2.171424772007038,2.155377149506432,-0.1191077623055157,-1.6582366718181698,0.7253597560917098,-3.064669860352291,0.645452672914908,-1.04637358254002,-0.552189879855424,-0.41623858602786995,0.15367538108193413,0.6352811318581322,1.6057444993168983,-0.5643358671296922,-0.12385975050314535,-0.5739671816620976,-1.282803271978889,-1.4819429634463808,1.2823413848636729,1.404508882862444,-0.029584008344491288,-3.953094240729639,1.1083823060017015,-0.9380129882912036
1b3hy,4.512572800841191,-4.138489039956293,0.9765910500261278,-6.201604130189483,0.8983940150499387,-0.09138957866374274,1.2368543892730663,-2.4225674494510856,-0.4676842231162234,0.8887388293150233,1.1598656780384287,0.6816571756781107,-1.5658576521779353,-1.9748535607580637,-2.8487533721703797,-0.5099420782038785,-1.5470728160331912,-1.4174671743808103,0.9619101613800444,0.040612994829006314,-0.06659377532439463,2.3723931376777445,-0.6868404597308596,0.29885920406668165,-0.02614794474667952,0.17529745209489378,0.07288044436742674,-0.39308618086442854,0.31839529133351624,0.08622420404252659,-1.6324130094711908,-3.016940707532461,-0.08159773967032893,0.5171250456454722,0.8707745571890514,1.0047743733180654,2.0980732916236526,-0.43048704335515764,1.1670784592632255,0.003788138277656759,0.48108874846203786,0.8411293607756136,-0.3274860314827898,1.5422839371256252,0.17768875147108165,-1.269603380278028,-0.30681655234413585,-1.4908761032543145,1.2253977654809216,-1.8386970133863756
1njfu,-4.055800820506553,1.613072624371767,-4.931104055072667,-2.39852401025462,0.8657698516331624,-2.5400652918199835,1.5951716456501417,0.9226507435508076,-0.1997377693367152,0.3881153094565424,-1.2480591786062605,-1.6741769615951965,0.9711084293247187,0.21679792102107714,0.6455876939852243,0.5710981262853582,0.38275324498060453,-0.7113888253575706,-0.5315710582622948,-1.6276378731666852,-1.5388401506967861,-2.9803014200502562,0.729340882722328,0.11782124577490619,1.6464742011289817,-1.6503057637749545,-0.45422852358643245,0.7126654485237778,0.6956663602800961,1.6295965329414273,-0.282802360693989,-0.3392234537312817,-0.715559592372279,0.815766922238417,3.4288267239018033,2.2075263159990013,1.6590559148145534,-0.08893970275166663,0.5336098129939794,-0.19472384753017338,0.49120191943315583,-3.301617186014716,1.579594073336302,-2.9900758915469763,-2.131444125899651,1.2828478502062568,0.7309380425147207,-0.49994235899447076,-1.0742086179065482,-1.9955100269518928
1o3dm,-2.1102447594828626,1.774992107599428,-7.695753761852048,-2.7106045822925062,-1.4900283017781293,-0.8953648877074825,2.0427409996833927,-0.4201097858034511,-3.567349725808228,1.1130307022385448,1.4067769289604248,-2.4023311812874852,5.296306071484042,1.3957766091384827,-0.47722451499971225,-0.4313198715071008,-1.1341537828419705,-1.8999547518265996,1.3104935946575988,0.47499493482071053,-2.715453416460278,-0.9985194624552999,-1.1552099152637612,-3.147039928898245,-0.9180810268024666,0.03486640323857121,1.476174633249757,0.6930675174320816,-0.8237231905060661,-0.6378615239483445,-0.7286233018249171,0.21431756114692846,1.1114664098559028,-2.47598348101813,-1.2731741029405153,-0.6472259990338398,1.15996985957605,-0.2013875893633766,-0.24438918399620754,-0.23219707619209215,0.5306077970545892,-0.11343391260319922,0.6086860212320669,-0.6058190611171441,0.1825685899790332,0.08946659536842627,-0.5313123205685626,-1.0577193588700309,-2.740433593790458,0.38629595734124317
1vec3,-8.908622884952639,-2.7282525156527986,2.319568026072302,1.2978552310880207,-7.436669153877581,0.7276527459776907,2.321000458982737,-4.929418312595087,0.7357292367384296,-3.7267992362790845,6.131021795681139,-1.9637667473672014,-5.222843508946439,1.8720043770767103,-0.894249235919928,-1.0859097634153143,-1.5222202590930227,-2.1132830608119355,-4.074325108749319,0.11134691286516477,0.2502198786558739,-0.47435940576096725,6.530987089608949,-0.6618851851729883,1.4235214255266782,1.8130408600925292,1.340377005769476,-1.8898778770075257,1.4716285082268437,0.26501530342829754,0.8934699849628962,-0.7922720521110258,-3.395602548862422,-5.6223578136600505,2.7267070639032935,0.8542016229579348,-1.2730897444485794,-1.1468586563349197,3.4092558307160834,-0.6522294909500207,1.260953724958485,0.19660771145011105,-1.402639319754706,-1.6524966435425201,1.2978886582711928,2.955010295771881,-0.3687680703347157,1.404617863670579,-2.846115749659234,-0.6867262384171048
1z7bb,3.5664063470013527,0.8838488549589056,-5.7954449650970465,-1.3482065416653979,4.5707067800497905,-3.407606666786116,1.3663127399856312,-0.42428330879046255,0.5264135978867894,1.1315331822965942,3.939080329368798,-0.3206844009533524,-3.3186589239621145,1.9500015800938593,-0.051186754005557035,-1.5354090244246597,-2.0099334212724767,0.4065412648253143,1.6483021701600393,0.5934914497636767,-1.0225507203110782,-2.597801855825094,0.6994987157744729,-1.715036449800949,-1.5477855818628632,-1.3507931079630788,1.3260932406572126,0.11523763346979501,-1.0270576600636119,0.46157563967804693,-2.4968429756351833,1.3354700324563096,0.7250584180811134,0.8296782933764586,0.7583081759337541,-1.034676943202841,1.5030748352759151,2.935450752688134,-0.90628706127296,1.1912271743637666,-1.9468009691194128,-1.2131591435622215,0.8723583780673201,-0.27936905615767627,0.9604323104787976,-0.15004030451145858,1.389209780038887,0.2978704991556492,0.505090116961341,0.6851981217400481
212kx,2.3570046349415104,0.9458838264981397,0.5414656873072002,-1.123297556107911,5.349272693479118,-0.890414520531082,-4.212878625211114,-2.631638537813465,5.318510557802851,-1.172755694115801,0.05773537428036959,-0.2667307831251012,-5.448483402199209,2.525335672113135,0.414525106080076,-1.1555746586756714,-2.1119024135314546,-1.0683307171505803,-0.8246259282455146,-1.5483282469120785,1.5328963555615633,1.580230243296501,-0.6724356508951755,-2.8356147121088675,0.7373882639853515,0.9747606466834906,-0.6975561330763017,-1.1273595307032456,2.49976422724755,0.8992497800654075,0.4955203227421169,0.38564200348172417,0.8586655956348833,0.9950146943199779,-0.6881393067715879,1.3587565204172423,-0.05786780774617377,0.2759673890743889,0.19895673362533609,-0.6519842990668979,-1.4551415056295631,-2.4453427111272976,-1.3124412502629308,1.2697411188634207,1.8857125275538762,0.7848452089991796,1.3595201435546287,-0.2328642733969978,0.7509198250845595,1.5269956143034775
293vr,-4.208172650322416,2.140792347093774,2.947429234517444,-6.497633629915265,-2.1651143402365927,4.774916748227054,1.1360158778106064,-1.4328667152192598,1.7463452948774054,-0.5009059801176087,0.19177830392515896,-0.6684056888451443,0.25787094727600474,-1.7197453517884567,0.17550444649324662,0.30436391797287304,-7.6410610354601305,-2.309239396130327,4.3564861327919635,-1.9855622559819692,2.7392451052945814,-0.8295612209710196,2.3816864021721953,3.565549409906332,-1.5888538718027267,1.1693767248931395,0.2224899583669144,-3.379462973171151,1.567741088572753,2.8820719867988016,-2.3153187948099485,3.781071580349389,-0.32184759498746157,1.9771636348280481,0.036794925284242164,1.4710624479346048,-1.9910505844568334,0.5402632970481978,1.953925442735733,-1.4130961335921506,-3.707428182581562,-0.976660727325688,2.170355324706023,0.7171783235117285,1.003502783192453,-0.06719267608286589,-1.001142549637412,-0.8674913585236346,-1.5223358928998545,-0.5378816234265505
29g1r,-0.35794926528182924,-4.5756436785477375,-1.146209190795919,-2.0265254257722964,-2.128616882673098,5.383065984329473,0.2495762182461704,-3.383236373979677,2.6045087634642248,0.46552225972907274,-1.3101019605369446,-0.289695648845333,1.3312923625468682,-2.886281119019509,0.05603197779872309,-1.0601472653415425,-0.195542803139804,-0.7957055239239411,0.35550866813750254,1.4217808844219413,-2.3927060786757792,0.15515246701158192,1.25346034877646,0.4997631292469064,-1.082328816829463,0.052614922327832624,1.2326213648552735,1.7448712061677691,-0.09222478790568517,0.5773580337268182,-0.44206953938448956,0.9710375263705378,-0.12055754787905022,0.23391425241460467,-1.1212195023277347,2.4712515125776195,-1.8660228151747624,-0.6365066920396066,-0.5666808968731805,-0.0940770983526769,-1.228598950152797,1.994959700003147,0.8087708554243039,-0.23209513966738896,-0.7143302824836623,-0.48819258462324566,1.4880454722632324,0.08144182644989416,1.4229631422701945,-0.04887361101063498
2bpor,-10.0067094151055,-4.585016023197145,0.05631804622956168,-4.262532513192666,6.964711486859512,2.742228978228156,3.9848262688432112,0.4665063809409727,0.3353573785719355,0.810803486081237,-1.490382928364879,-0.3231778604480976,-0.1801388223466221,0.2661062885224336,0.7121828727754809,-0.9085143686655597,0.7609838696662685,0.5100723435192509,0.7278088107924081,1.1235768668301427,1.9911221281947242,-0.7712279100779039,0.7498161460729905,-0.8192708876695111,-0.2761813056580598,0.6934692020515234,-1.423754896382047,-0.14825494184767243,-0.27400734445581965,-0.2731217166741623,-2.710784193272602,0.9610437192143249,-0.9257432069776677,-0.04354700338811567,-0.10879655412838578,0.6053353024494038,0.1179223568422947,1.3908531557665735,-0.47423079981649785,1.4272871455036262,0.6526103018916265,-1.8449991035419409,-0.523269460251806,-0.33402198952206924,-1.106643783047299,0.07843183756868616,0.3459667844385326,-1.2290197039203978,1.2685427275443202,1.853112965098629
2ea2g,-3.6980764867611122,-1.5045041115942974,1.6881621626773449,2.6364442178372167,4.137196724379163,-0.7168804803533021,-1.1999448942722515,0.36674850951832855,3.121259525789122,-3.7947842428009526,-0.1768332515241179,0.8337999411821613,0.5183166915185162,-0.25685323160191237,1.8648358437999026,-0.8991619821765225,0.2164251902123793,-0.1206192977194054,-1.2553314856538131,0.11063690868004061,-0.5492492752938658,0.4503710768734145,-0.5975756071704976,-0.6444282240292144,0.023321604176554347,-0.8884378655136552,1.3887753128083657,0.6916434457734459,4.112250670095512,0.01966553106223101,0.3015437838883949,-2.376947884707502,0.06753038763605661,1.338272027701927,1.3137531857908913,0.23391197526172747,0.04449722527060071,0.6199957025563915,-0.10500688407553121,0.8951659301911868,-0.7751863441163421,-0.12440117238617185,-0.2724415144508376,1.6819246258205398,1.9790841927610574,3.788167258805494,-0.5141890267136752,2.5005042582966173,0.6710811671195303,2.6174985485032813
2g6k8,5.8820727792846315,7.401528451723161,-2.7321076629256624,-1.2377582522542179,0.13556224066515832,4.909460384168731,-4.772698023369589,3.907461121171117,2.8738187770895425,5.923458977021046,-2.35516990931167,-0.6086546443652688,-1.7176264402348222,2.1358654171367473,0.1687030212133576,-2.775648410864836,-0.18799738291611423,-0.029472045111342035,0.5066630424289679,4.107915239884983,0.4636059560504047,-1.2346027701265538,1.0549686812496162,-0.32274300080945406,0.22542051477141892,-1.3035348096179546,-0.8656575307187137,-1.5562457009769537,0.3595908808498692,-1.1001971677081839,-0.7982035445786267,-2.1378231349495143,0.9847477072876368,-2.367071160809487,2.1394286040044443,1.56310052400631,0.23502447602691498,-2.2532742042510625,1.2089561114231835,-1.0146907279717137,-1.1457404115842234,-0.13504134265609585,-1.4007400037085311,0.2786956529718452,0.8621283463697071,0.48379363769475997,1.504646100066047,0.49174817184951314,0.5040371260275308,-0.8725142849674563
2vz3n,4.521383516439022,-0.26885176129541705,4.807103063817569,-0.9422172760780896,-2.087468001997267,2.7023013461432264,2.8969523883331285,-5.287681734667104,0.12713540638244095,1.6918061138434177,2.163478479683011,0.9948976588874886,-1.4959063670218844,2.338534781067693,0.27359053548359613,1.5242687084040052,1.3927723103843608,2.783056017128473,1.5621526354150828,1.0625142986182732,-1.663688553704184,-0.6124811992063465,-2.1008675094636815,2.441047884007092,-1.4914121297326923,-1.7326748206017817,-0.33535593294632704,0.7221769733513703,-0.7571802165655569,-1.7678386542402196,-1.0150353260764793,2.3711769409892667,2.110684140271267,2.788181273475549,0.6072350904469818,-0.48151207765379345,-0.3332112690135155,-2.102602828298781,0.3421741606393314,0.7332917521970793,-0.9527288027308974,-2.871163461331748,-0.349915331795463,0.9579581904347485,-0.521063611295436,1.8804294623802176,3.087581281861121,-1.3903922831107143,-1.1808826564414172,-0.9082683553808847
33a05,-8.033685633998655,-1.622304067644256,6.469279536198266,-3.2786483679643323,-3.120892143568114,-0.9738058168151639,-2.7557016887230557,1.2275866163732874,0.06685697935336397,-4.026166901952572,-2.0128340031275638,-0.5214112964442205,4.12960718284332,4.0341477315884555,1.4813100845830858,-1.2981696411468437,3.932740034701879,-2.9728589968938923,3.9994876541057227,1.8288844268252369,-3.6995945577405926,-1.3332512414354223,-3.281312084942901,1.632064295955134,3.103972475855046,0.20460773999557844,-1.5289380740872855,-0.7328160975581596,1.0497205857602034,-1.3142130306283715,-1.3772438581708941,-0.7739413096500156,0.6794492763563593,-0.7391989137669305,-0.3317005477619671,0.6105837624565479,0.21825332030371178,0.48723264116100995,-0.14818024907861432,-1.4714855094728725,0.5724147619955383,-1.2435575201886642,-1.1901373838141174,-0.7503023532832088,-2.0488766198241635,-1.4462635935099335,1.2834041618352547,-0.6913626575264911,-1.1565111240800579,2.2206491865497457
3biuj,7.7723635032904435,-3.8397315730056967,-2.231702474061881,-1.1854116415275506,2.224060968372092,-0.9811818405606951,-1.488190598158719,-2.48737625822888,-3.0790691850368748,1.4070505078449147,1.9139451448018312,4.368861402990804,-0.42969247259826876,-2.807151858036052,1.7088517550706404,0.008251031407732748,1.1343814862551402,-0.027695947597469225,2.368326906956134,2.244767456018863,0.29486299708672353,-1.2527699098785525,1.5455988621797006,-0.1952584456740288,1.0040643915446386,-0.2227840115754305,-1.2246197652496964,-0.4013930522373117,0.4749418880811421,1.8057298091344747,-0.16897220372732624,0.2253647367554687,1.905416020655833,1.9686507697919136,1.2920232320754004,0.19068363749978445,0.8348423777472515,-0.032600884237933656,2.2204865308233117,0.06416747983114912,-1.1462597693447323,0.2954793727172038,0.35251174216012077,0.05765365171322249,-0.28981923923138386,0.33804986645778207,-0.3397175657445846,-0.7949112371408877,0.2632965723413508,-0.357604555590955
3d56s,9.897105945430123,0.16082501562937265,1.0370768764309564,1.9216271802034806,3.0038437889813228,-3.196604035399084,-1.659720019398895,-1.5966289967302176,-0.5607835464324701,2.6745892190903797,-1.236242234378522,-0.8999929820570183,-3.630426193668095,-0.6885739486390747,-0.3457222574407051,-1.0051732078406603,1.7010252162352246,-0.2541715302098443,2.919820222027152,2.3928037413401997,-2.0130097094016794,1.0649974517007044,-0.2350816781763782,2.1094855530240064,-0.9582793343143562,4.2907824905634975,-1.1757600519210591,-0.8524810195637913,-2.3373546993254273,-0.9005458445046775,0.18731617191228844,-0.7140402260083107,0.559582460526472,-0.7083953818179491,0.10329199398433461,-1.0872433189383697,-0.8688961127500646,-1.6167200041446514,-0.1477918993911903,-0.9927428303954094,-0.7082549762177023,-0.1944291013487715,1.0722012866857558,-0.16235286536728077,1.4577249263310839,0.2700044432321435,0.06617234443514565,-0.4155128306734436,-0.6840405739854196,0.9488362169255948
3uy58,0.6258221308755362,-2.602706421102678,3.735389272231258,-3.4795051744675174,-5.395711842878496,-1.266106564466999,-1.2383569614538508,-1.1985988125122407,1.5947917848762638,-3.316225059881487,-1.0679852352337649,1.6283883013591454,2.8823224946670023,1.0258661085554948,1.6838142943963421,3.716839745839157,-0.33232567243614947,1.938207810876222,0.006980672263044352,-0.1987794098634465,0.4441664191697892,0.21037718416421514,-1.921460715737221,0.5641982318800612,0.7530376228191088,-0.5723422844264735,0.998251500938917,1.2834551454465815,-3.8278792652452225,-1.365990806958771,-0.12655442699109415,-1.1512675567175992,0.8417038944830663,0.04151148426004765,-0.9752349843611647,3.0559765729416806,1.3650929407046797,1.857691047169795,-1.2302497805861528,0.6376237445434779,1.9920960023778085,-2.7345424624201966,1.16124405976517,-0.9652739634484779,-0.11935764829966054,-1.6553097275293054,1.4843774550557551,1.6639564458685787,-1.3589427423367375,-1.0512363553857287
3wglb,-2.1246779820529342,-1.336782017193057,10.306814497901732,-6.206615126997987,0.8704200473492757,-3.7835857721475272,-0.016064193122394117,5.351734282502031,2.3222412516989563,-1.1974847371759425,-0.7911101603807645,-0.524248636239721,-1.2137252829746252,1.0047362611853707,0.8866842524776265,0.5194413703376414,-0.8900666268178667,-2.442219250053218,-1.3521651849558756,1.1504515072078978,0.2130645799133331,0.38420230273455663,1.666252075642402,0.025119570767303902,2.3021646728125598,-1.9146594367295493,-0.2758070759773601,1.38388489033898,-2.2840281509805913,-0.9942984231308664,1.0770435671949232,0.25988211986664067,-0.038953151184931215,-1.1352142751043632,-1.2898755940662439,-1.5248674287052781,0.9743833714740394,-0.8441103082023581,0.33607858597663653,-0.8687178626462343,2.5435326047661113,-0.9714912306980528,1.8105417815984894,-0.21175892202879057,-1.2605028221699246,1.1586443669347375,2.9080100959539514,-3.0441405402998853,0.1897998310156925,-0.36323341392668734
4kx6v,1.007504924056532,-5.488647346907127,-2.383480024516506,-1.9735117450960142,-9.586641437238963,1.2120043484526115,0.09757120966400788,-2.382371634905593,-4.3834579244098775,-2.7517120336018777,-4.033122904706645,-4.620939070340276,-1.6090919615095685,2.2084892009735113,-0.08270353327783624,2.230453666583766,-1.4007953265485014,-1.1772706151042334,2.6969955514077735,-0.00036043763320073275,0.25095802771048703,1.5953682023740339,1.2315868066399474,-1.2248398431670102,0.11979871828352537,1.58119265442526,-0.2651798482752718,-2.020203457087029,-1.5823807741393319,-0.0361260366307502,2.6108236025121325,0.10338227879810424,0.30679784278226413,0.11886576969013112,-0.8859512570087547,2.6403633857536826,-1.2766302627183739,0.24206348802718727,-1.0583026061660425,0.20808724040404303,-0.5367904263613156,-1.3309208605751779,1.5720017681412748,1.7017884696782772,-2.694189883581542,0.9832516881150151,-1.4236016480033502,2.389842243367742,1.191847487401352,0.7821214367992818
4p3l9,4.190927206783837,-5.238691000248467,-2.064100004692954,-2.0297860399460688,4.363716707472136,2.9214681628871304,1.35859118912511,1.0254732488276521,-1.524403142601657,-0.5780572368591533,-0.25968896253151763,1.3483819903414647,-0.7772602150556085,-0.17179699437983986,-0.29225320530371246,0.7966178734931848,-2.8113973175818274,-2.0403578282392663,-2.1422456888509087,0.10581266413558463,1.318875867602881,-0.25411531806514054,0.5822822699438777,-0.9432187422810053,3.4680175015782275,1.3306937972169128,-2.073858316827531,1.0568587559567797,0.5937366234077976,1.2348150950013421,1.7482325176624471,-1.3283598273046995,-2.2887701684783215,1.2209096336564265,2.596415771339073,0.3228736821188984,-1.8042821010222878,-1.2504470967827896,0.9456531124031791,2.4179775526240226,1.6304275289746502,0.37166680825741705,-0.7764499219120592,0.7603381912001719,-0.516246378354347,-1.1103111638766812,-1.4531591347690476,-0.08128743819914062,1.1647881603360535,-2.1785867255269977
4th4n,3.6358778973794843,8.356120828458772,4.526128001943916,4.621683641834446,-0.019419187361657403,-0.7239057029188904,4.661102357115083,1.897885919313639,2.799833855019577,1.2533297308448839,1.8862329220163991,0.5482958412254939,-1.7377425766489043,0.030074257602883722,1.9783059793204874,-1.9097876298186756,-0.565849303988999,-0.9913359329273477,0.24392718742722738,-1.325887048668983,1.0344966864051561,-0.3724246447324233,-0.04237743454644794,-0.9000945748550737,0.6648846485543445,1.061349031592046,1.009045495212345,2.1351705460253543,-0.9712017040327467,-1.289430329757272,1.1094078983969098,3.5847687494395477,1.8326677838111705,-1.4308788888730934,-0.8004164800107729,-2.1285680060413403,-1.0794842115433216,1.502677671831551,-0.4670945836078533,-0.14618324235204683,-1.2101710757216855,1.744209565274708,2.7207687088505144,-1.092671469399789,-1.642906929001183,0.8461564591110725,-0.2304790330799006,-1.1833036796968135,0.837414913322128,1.0293827329993739
4wbsc,4.539519113207368,-1.113501108906109,-1.9535746179573708,-4.926045337491765,-2.6750778099786268,-0.7627035815719573,2.084322024834943,3.9927419791153613,4.113272452191561,-0.7391687142091061,-0.025013410955732077,-1.0969399953132266,-1.3559366579526029,-0.09843793300699548,1.412594512966074,-0.013544966867453243,1.0587931858933803,1.7632148691745342,2.0191011542475095,-2.094559272241507,-0.8232193186944744,2.7877755943381723,0.5265248515794143,0.6056786495947911,-0.023714976845502448,0.3878542511822513,0.18307537843215826,0.38633658029503415,2.192489161410211,-0.7307293944761593,0.04129607543626124,0.9261398464687409,0.3553965090196873,1.0863215610985015,-1.4168757280133097,-0.7845626525674076,1.2258647209891407,-3.3252720143584775,0.44982539272116273,-0.0023361288080530223,-0.5596321358899381,0.8220224822587667,-0.4607601660795295,-0.8796247132995704,-0.11362477303671013,-0.45629134642942953,-0.715516923136127,0.3718206347958954,-1.1925639417681384,-1.3476377528072363
4wcis,1.2235354667075744,-0.9794431656792743,-4.360858500822074,2.2643658276581218,2.5191861248468683,-1.9873299870812433,-4.104804043543226,-1.3542382463001397,0.10541965411684054,2.112671860007073,-1.4646018919548551,-3.2528276023879976,-0.3866120132403252,1.7003732907577818,3.167458823370948,-0.7105863870098224,-0.4744457432078218,0.1877967347234985,2.5243080487601266,1.1952423248912112,-0.338964472265449,-0.8435262614294985,2.1525137398282572,2.4008186846653845,0.8102227496229362,0.7733361801055275,-0.16156601562259743,-0.22205520085911837,1.040800547647593,-1.1134433893382616,0.3602520023780172,-0.30225015198610256,-1.398742904605136,1.2845579282452195,0.5534745279941409,0.82454155509924,-0.08947462965804824,0.8682957429934152,-1.3188240439515293,-0.5032994460449742,2.5122623645559132,-0.8890713434394568,-0.7119020156223141,-0.5885447195795693,-0.6275049181653835,1.2001712882209719,-0.10450255722449306,-1.2588740336076105,-0.5679977961979785,1.5520251752711804
56vwl,0.8264925959373202,5.523439729605959,-0.1402432802328799,1.1366108049491364,0.8368371113889591,0.06342425093335526,-0.5962552148556152,0.28986139432162233,2.956012042583089,-0.9979491991848899,-1.6377304983018373,1.8358707431492183,4.19959389743108,-0.11567010877835007,2.9769952691720674,-3.012993149324783,-0.9340611989676852,3.839745956392121,0.439074624618834,2.6828449073240463,2.3042116702243427,-0.6738328624687766,0.042928507034229076,-1.6509173541749147,2.44417742611176,3.626492862608418,1.181733993215554,-4.282811257354107,-2.604731234690812,-1.4078187549946908,0.09171186129745934,-0.966326531177243,-0.4341110625696225,0.8803048674782279,0.44453479384925504,-0.9022525230654054,-1.7710674166476217,-1.2854348405038505,1.8251602660368897,-0.5851343201549779,-1.4239393235913893,1.5370574213609245,-0.34436897252735793,-0.29620696443563455,1.676544388190534,1.4775649662368537,0.31328197866932184,-0.8500937029067744,-0.47633746935431875,1.243458615820441
5puzl,4.355501280523742,-2.58501365227603,-6.629662428325896,0.44823576788289876,4.309804129131424,-0.24542790094942163,-2.008140942947408,0.5224901046635214,0.7466030168010633,2.7334608377722938,-0.5878880556259215,-2.9293547807821447,-1.9865480929866102,1.2971347600048795,3.570683767921988,0.6993429703308356,1.3081002228678082,-2.096585163607595,-0.873971147883193,-1.3974343784590917,-1.5555606113103324,-1.3392581969824957,-0.7270645849953788,-1.0187186613826065,1.3262966265114602,0.804307831354391,0.9121194353355238,-0.12780525196857162,0.46729152087855447,0.0418729705594866,-0.8306906796594075,0.19184008123794252,1.001711004208638,0.430982014440045,0.3923348719316987,2.5347721746454757,0.43335356838438893,-0.4634791559047834,-1.9744589507047754,-1.1637405665128886,0.9615172363165034,-0.4395578307356265,1.6358177089462735,0.060473018374790535,-0.7516710307860129,0.8257280838571406,-1.8843768569650627,0.5123234517287918,-0.46881652131265317,0.3022342442410289
6qe7v,1.2825704545526473,-2.6811515789900735,-1.1088212706427147,-0.5636310494924794,-0.3196635749467502,-0.22642692904167144,1.558381493092953,0.30137958536369097,1.3305088143959312,-2.2797422865163797,-2.0788268728243136,-3.1844428072474043,1.9174318145257865,-1.857963188801088,0.4338590475570458,-1.2721291491398778,0.009607930125000434,1.1431505012268037,0.5721360802616382,0.3104821814765642,-1.6518730920596372,1.770288741584101,-0.5342716746355499,0.13038824110728517,-2.425144025098389,-2.9000769664651127,-0.40333919266417056,0.49217500447746154,-0.05585565647252888,0.11010100663494281,0.9479163872921266,0.5244328222069614,-0.2972256650181106,-0.009524025868128908,-1.612485421407066,-0.11861545884330633,1.4318171845015188,0.1085041947895287,0.15705468577560883,1.9464495432719868,2.201389093562261,0.009187963906468583,1.0923761566449834,-0.8563565565255146,1.4171623176872459,0.8816889079957444,0.36383158393342735,-0.3955599021362568,1.4530223013282655,-0.062056609446593095
6rxfs,-14.068051522063389,-0.6433749109318401,-2.015941263075622,-6.196064968665424,2.432072855013283,-3.523647678451475,2.6338139617858642,4.564384865164727,1.5218635500494695,2.9759634304767038,4.422556723153782,1.1730658857773046,1.6593534716104414,2.59631348597056,-0.46175981171504843,-0.8577818655987726,2.420631101836792,0.2023499142160534,0.7116502914360026,0.27962423705595246,-0.5851818563001121,-0.9799837213527718,-0.36614616107163356,-2.101233419816869,0.7725154541529585,0.6766433217308059,-1.0519030177220088,-2.156344433386391,0.24841060206935628,0.5997024234525623,-0.2315871091286811,1.1313686792838762,0.8397242843825221,0.09995492713725225,0.6538784168359167,0.7050282206924194,-0.6376348999331983,0.08967967487039168,-0.7492028387170174,2.247755839203584,0.3160377945212358,-0.6127789732513954,-0.1533903530172503,0.17031219688128782,1.1231347766384379,-1.9423680782178467,-0.1338590227762496,0.6393746946558069,0.8511175593921083,0.16092218508339207
70l1y,-3.1652938328575138,5.584094608171605,-0.5291047002196613,6.6377593773075985,3.4226896811228364,-4.351009106271851,-3.460588911080204,-2.086118839416168,-1.7165458888698197,-1.6406258331620498,0.3738939980340832,4.165844423916252,2.1934767313263523,1.652062360038304,0.471059149732272,-1.9724992205033707,-0.06318363264562904,-2.0730041337455742,1.5813466428740217,2.19175239488112,-1.263364314710688,-2.8088940966437295,-1.6369330241004274,3.73868187067874,-1.0225228448781476,-3.1237655897199557,-2.5372203250555807,-1.7862009931817253,-0.2656937388168211,-1.3933536319472597,-3.411324727367773,0.8365028384848954,-2.8295929733982637,-0.7995847176706834,0.8916455202702754,-1.5915263728640474,0.19039038670870764,1.8358105547965622,1.6504092841798415,-0.8156834319764253,0.9752107848917655,0.6740077174605389,0.7817744968893783,0.8186818471219277,-2.410101914381565,0.3960989205294583,-2.246284099968586,0.4931649577983789,-0.16213502026580545,0.4972414899415384
76ux4,5.280265291741887,-1.5019035533718748,-1.8065491155790607,0.6127799308099967,1.3992861911554832,1.9754988909609397,-0.15895161493016957,1.1257274521762068,2.642871432772987,-0.7849263793054752,1.5805084149462956,-4.392114089182875,-2.9862699328028923,2.4238540419240047,-2.199285197248236,2.4145043723573516,1.044779689380826,1.4617554726979574,-3.150356925456873,-1.429405822850656,1.2416256741505975,2.552018308262902,-4.145145860167237,1.7614935089943722,-0.2869796522866418,-1.2369526452923374,-2.45094693766167,-0.9013251481930861,-1.0348832092868057,0.6307112234595487,-0.3375808981089936,-0.7809084644577062,0.9055669002631335,-1.6378288583041318,1.2053580202184255,-1.9100279864557337,0.7451908955080757,0.5192563355948588,2.183806622969293,1.044278157248405,-0.6187803016648942,0.6030218101760902,-1.4905156419193293,-0.4080917442601592,-1.3772297353959766,-1.1761281059594397,-2.6951730655263275,-0.21563777407202214,0.7640593744590499,0.7881414549691149
7e5rr,0.932024873610322,-3.3272113702676593,2.104461117068953,0.8709390566592378,1.8792376343782695,1.9455010448496877,-3.9315428876300986,0.1291240849977386,-2.968538786145058,-3.376198069962328,-0.06975634688592708,-2.057522238400334,0.16551842213644125,-0.9410265616927279,-0.7741039214624387,-2.5752351234689974,1.8438884759118286,-1.1225260452268424,0.05219890330582895,-0.30775164957278983,-0.3790418177109186,1.4627991857940772,0.6532888264449883,-0.3501347740740015,-3.6755124191458095,1.579265410855689,-0.013502612021305867,0.5168935484639414,-1.573256206879868,1.7354453055693637,-1.6558656749398002,-1.553264661389216,0.8080202262495881,-0.1869832146651293,-0.15919181613805394,0.7112203242888816,-2.438101135862084,-0.9763423682889671,0.23083720875738092,1.3013338502603315,0.7408965436643065,-1.460394336489303,-1.1343174773452696,-0.20611401924462408,-1.1344025421100452,0.27061733996698295,2.252625463102382,-1.171427995497472,-1.821759956514799,-1.780958187926567
7ftdk,0.0697811368822236,-3.582405346121067,1.8593552399827618,1.2098106574858465,-3.8882460874816336,2.4729001104549932,0.984386785282367,-1.7632595840856777,3.3751769104273874,-0.08611563481101167,0.46317004493942526,-2.618002619424707,1.3980561429013787,-0.32064136331288867,3.9816456714889314,0.6160510385121967,-2.716551831932484,1.0075279060737266,-2.4728869043739854,1.3417011319212637,-2.4350362036710997,0.8923015916143814,-1.1636260252726451,-3.5590897596181232,-1.9642534472040218,-1.2162235253759808,-0.8368204515241372,-1.6936354418328423,-3.68455064411735,-0.9449994888825313,-0.808007429810162,0.725817882987641,-2.5245207209277005,3.237499345880517,-0.6799550592332877,-1.0155208418551236,2.0254627212575596,-0.6538776300928612,1.055271460226494,-1.1803802427446293,1.4214573281507341,1.369426249672396,-0.8128548644670295,-0.04900813168058956,1.4194406715530508,-0.11736967837206967,-1.915027197764911,-1.5293052701563596,0.9358684946808999,-0.6424386974989398
7ge54,-3.105162736779924,-2.9426014848895923,-5.103233479775528,-1.4927476145106933,2.4950526746742248,-1.5594602482252775,1.6478364373978625,0.6911324249959511,-2.430570617103386,2.620237395006809,-0.7756561425342248,1.2274089088089606,-1.0458321837628752,0.9136258057914738,0.6744735275965386,-1.0581871892146182,0.4216948885481074,1.7114154336303624,-0.09285142265403364,1.7618667877539238,-0.733098808878924,-1.2366309090065937,1.5064961810011812,-0.753679781685279,-2.1785944062302223,0.11451310706494583,-0.5250048487389729,0.5262442234631746,0.6663095168597275,0.5166773951363951,1.152488186173248,-0.2707362615342902,-0.5218546547185351,-0.012289106845903196,0.4581754286209126,0.7670768207934389,1.2309196970991738,-1.3620421116490908,-0.08216230384138341,-0.8953924235528167,-0.2537006536449214,0.6652788511977163,1.7362976417074014,-0.2081589158325386,0.19483328922886708,1.0629219393295368,-0.11736013359808115,0.025456646015749512,-0.8451690500107092,-1.0261589427315403
7hiu4,-3.1135444433970396,3.804576406105797,-2.8706103186070138,2.146147561083325,-2.9888365849249148,-3.546772901317327,-2.321355695119065,-1.8642568053431061,1.1177936261522645,-2.6869817642439253,-0.9864651777033852,-2.050435466534018,6.394241464654929,-3.744565100627934,0.5401710658560732,2.6536877974207456,1.0037578926545,4.176268293451666,0.17544569463517024,-0.5474237634994149,-4.2488689106678725,-1.16896090047371,-3.145235982944792,-0.8098052562245198,0.7346845665611611,2.1914075793332444,0.22557119219914337,2.810698742954088,2.6350130953831647,3.056483670169953,-0.7828466847700828,-1.9080477687243136,-1.8149983715785842,-1.482731075870984,0.08421854577306274,0.46706269613837126,-0.22442040714338993,-2.6334349836082436,0.13035421602094344,-1.92011578007068,-1.364035943466875,2.0002107286700648,0.47547279253887365,0.2559605299307132,-0.8439898504218452,1.4708954704071713,0.49349626515439243,1.1925939644717183,-0.9046910331021256,1.5151566350806458
7k50n,-5.287185290805505,0.8299492665327015,-7.323642889761451,3.5557100203502405,4.153485365042144,0.05396309892739471,0.9269876403517752,-2.3593321254188573,-1.52653708695478,-1.4145414549323594,0.15927028451938943,-0.16899980388180533,0.20359940152663128,1.9141981298615272,-0.8181332248739275,-3.166571585032537,0.14836405650877454,1.7893933016707864,0.027532345512520744,-1.011770464534398,-0.17422042472437788,2.803717442605462,-1.0407444023800085,-1.7979803049091565,0.14949658114991562,0.5253266471562746,-2.420672438968133,-2.4470574058719703,-1.5393146816921195,-0.20054328572510732,0.38650605436376334,1.2402751105837333,1.077357144862737,-0.3976653259541804,1.610958218379775,-0.5350982874172242,-0.42242166311250456,0.7234012667070538,1.4414376189106477,-0.5143120805838098,-0.2027024804472287,-0.10485287564541394,-0.9864626832835997,-1.7962318710915746,-0.8497245393016297,-0.9164266549563473,2.494564391412169,1.0058504937474289,-1.0739388558789282,1.4426920274808626
7o17s,-3.2876713294230573,1.6323373169167554,-3.9051061528198288,0.31530344826095114,2.088936327152317,-1.5707246122884304,-0.45694246576668596,-1.8345721968884374,-1.9622657904397978,2.000427528640714,-4.533890221249687,1.126658351838561,-3.3168978883466362,-1.2227151292985323,-0.7456948581938473,1.9301828040718874,-2.842388230444198,-0.21235377277441528,1.801353811135056,-1.2341406640735424,-0.6032781014171288,1.3404984491321357,-0.848707194093921,-1.0507708077357374,1.8140598178197418,2.394935682167152,1.654475026662503,0.7866337313349737,-0.19736631699300916,-0.9043579103286858,-1.1171236054595663,-1.051924554538774,-1.5646391569984666,0.9795255510804975,-0.1549959631345156,-1.9241456189945265,-0.13722498852857232,1.0203660673663102,1.0159723569797765,-0.5540522749106894,0.891202585272213,-0.16543153283086232,1.6657545655320711,-0.19417603513801912,0.7446385544897272,3.7476697602266045,0.5946576746039278,1.6881124228509605,-0.7362119029617813,1.0028817060354194
7ub3z,4.031273039873423,6.352616168049973,2.60480790663526,3.0086850415959003,1.2895962876209317,-1.6489073406996548,1.7882953090538267,-2.4291197256693358,-5.719453262432053,0.41706158579993097,1.814331750019095,-0.7895242292088399,-1.1959275422589843,3.0083444745202037,0.09315859770669585,2.4927007542069277,-0.5910093350721475,0.9627473711047924,4.416901843474242,0.650055341974222,-1.7481086608636498,-3.3203036748967554,-1.0346749944942633,2.084947511542257,0.30769857491799657,-1.8092528701348902,0.4366121780139887,1.6104539590257247,-1.6721486305030637,1.1677146824503377,3.492512992824654,0.9523618323036914,-0.3965318089051182,-1.9456259753872096,0.8721670530101566,-0.9060847617363542,-1.0828103526645028,-2.6142547162555045,2.6877630963036636,-0.36683421083983464,0.24841601587203163,1.1877640256034003,0.7035520621693137,-1.285529142660913,-0.3863629374203365,1.8074823046773116,0.12786754057482635,0.9885722317425283,0.5913491622731282,-1.4714616945226
7vnea,-0.47398757694727484,-0.22696922991619342,3.981784147166014,4.454059278007729,4.926544921582788,-2.112209382087783,-0.13283307315428355,-0.37695388246282663,-0.5411800100954611,1.1021511670682727,1.7429336918531968,2.1575885089735136,0.19645109165404137,0.2980959005978903,-2.955309671768575,-0.48084352968398447,0.6370806752995309,0.17010943995835706,0.8543784079609669,-0.07263700966264025,-0.2374302213367073,0.8038361286683183,-1.5372741791520157,0.6138039587680383,-2.0742140579914863,1.8137935750502736,-0.611154954654407,1.4795082737584968,-0.15467305595114758,2.2404443347193137,-0.12240262210034653,-1.4694042229788749,-0.23524527880227653,0.31646794730613403,0.0105748162850341,0.7189892352319304,0.2341397771349093,-0.09025258412417675,-1.5097539790573025,-1.6866366875926948,1.462282049090054,-0.16783341929665108,-0.4230819974504251,3.154102821442759,-0.2548043155801508,1.144787233025652,1.4785047008913055,-0.26390930061471696,-1.7062869396466864,1.3220669138961612
89ro6,4.353444036243154,-5.68271683562756,5.401316439231726,-4.950159957621808,-2.6828759392032504,1.7772770527189363,1.4553606895988689,-2.6003780603438336,0.07680293203254812,2.054790404449648,-0.2776297573761629,0.9482328275035825,-2.9823189227996125,-1.3498398122323132,0.1729937017515642,0.7657159320244903,-0.497710020323598,-0.6645913286523814,1.116021230600163,-1.8217165180742256,0.5923859806718134,-0.060510643719599994,-0.7864362961869285,0.8420312382163907,-1.992087091811243,0.5559148629948595,-0.20497792011965107,1.0245966860928755,-0.6263837690416741,0.09418903828043544,0.6682959217027347,-2.4132464464248407,2.3863433924519706,-3.255248501053211,-0.39620324751294883,-0.49814645862740614,0.4902514199352888,0.7081123569402756,1.1738880964854441,1.3497454972635485,-0.2868108336524453,0.1713776303287637,-1.9086051873927552,-1.833403739454459,0.3822270310989109,0.769871371473282,0.1117803205053007,1.0945082716194214,-0.28563102144118957,1.1461606832780182
8bg18,-0.6724443315180182,1.2085226891798757,-2.9068938578967787,-0.9630582933735803,0.7522710691320723,-3.6055600026166523,2.319215430981096,1.3190846782302734,2.1359085112200256,-2.6894793916810182,-1.3449371566633463,0.04098856453259316,0.8911929628271652,0.8809890594335712,-1.0795711726687274,-2.2830697903085575,1.8143404349786547,-1.1873905301078174,-1.6904512826882465,-0.5463369940713242,0.5000821091650383,1.114786562249396,-1.1469505552489319,-0.3150071428311863,1.7042866373261858,-0.26094472560674703,1.2140634135809698,0.1508597720386963,0.1688796605883744,0.6717836715112024,2.067094021847629,2.480803751553461,-0.35294433540631526,2.283922106605372,0.8872710172706212,-0.16209103143982037,0.2858240808793451,-0.2764866596121034,-0.42300290382359873,-0.8585268704527348,2.5217447344774966,1.032580665421076,-1.674472289479882,-0.8428601841510857,-1.5218128805828888,-0.32217506861643563,-0.04874023179165479,-2.6099754094605974,2.096094790030008,-1.9294486139411269
8fkgi,2.0603864184256087,-2.4459477749447993,-0.4562776534418426,1.877042178781397,-2.37415046630805,-3.616797065521494,-0.7201162971773623,-0.8594253008630959,1.6847774337809391,-1.8522286719681849,3.0257515859282313,2.306035710559458,0.5790074922288982,-0.32507187164088824,0.2215138299220715,1.2421671884918886,-0.0014159364131724622,-1.8667498481171347,-1.1765301551898335,1.1709926313576067,2.6077318029204584,-0.08235707334333889,-0.27916649115577147,-1.1180729475957425,0.9461615222912443,0.5952346098819478,-0.10156645359218583,-2.7478284758625686,0.2623385548325815,1.0242780011880468,-2.238325061035974,1.4157702384112107,1.249671379048753,1.2940712680117814,0.559951226049533,0.8762550300297747,0.6600063289635169,-0.5620879239140273,1.9944484164234775,-0.49490943187507114,0.4075794266885995,-0.6405035896712687,-1.176397601990521,-0.3272231395291524,0.3038493204497621,-0.37325732688972724,1.6947342716184681,0.5690950003429676,-2.180902789077775,-0.8388554205472474
8ij30,1.485321934570521,-1.6676150977691924,-1.119175257152914,0.9718074706438354,-0.8051096048996026,1.1856112288014748,0.1337331623225896,-3.8551202019757422,0.9335420292913424,-0.5612688194189976,-1.9747135983048214,-1.4954940786819182,-2.420697423605743,1.3347007638798656,-1.237448273836177,1.1865940662409702,-1.1333685530245283,3.6862963384383276,-1.3491788736875292,-0.4544967788113292,-1.2470376085778092,0.6111579076994772,-0.40688118278607954,4.384552848429483,-1.410040674505332,0.036447641882471606,0.459691505351753,1.8148081394670212,-1.0847959418933144,-1.9995673081526026,-1.492989812799435,2.020239831963266,1.217930535111627,-0.8299142031154332,2.0380670906466607,-2.239635609820247,0.3732970927170283,-1.5805699081780895,1.1776807289981612,-0.6581225089355739,-1.8399366804405557,0.4554158774597705,1.8253759631212023,-0.555526522344838,-0.263923286059739,-0.03589686533874163,-0.0551046756164434,1.9082692499844727,-0.23900846833902362,0.8554055945192433
8ka4n,-2.099728440746118,2.6744937095677987,0.6460977670041024,6.3188958591616124,-0.33014744146067676,-0.5097594971234337,-0.636706152302442,1.1399670622332883,5.976772854729295,-3.7187994722557955,-0.4656003576040405,0.836774670212018,0.8789042142471734,-0.8364753311982037,2.3427864423542872,0.5830391667766762,1.2081116234850935,-0.09967401429937452,0.2703763158915773,2.2362015566755273,1.4712968330679796,-0.6665767489758856,-0.24284150859779186,0.9487414276130512,-3.4049566900246737,-1.2242640447602462,-0.6951987179726561,1.2696776375301897,0.6538334674409985,-0.45497971370880913,-0.9170428330928372,-1.479117634466555,0.10030415092127953,-1.1706767205047983,-0.11211470974202133,1.005259326446797,-0.11045809871213226,0.8232174513634677,-0.3611182029758363,-0.6906153421933465,-1.6728844706144577,0.8715988901706946,3.5080245952830564,-0.8668968712831833,-1.0012904632773616,-0.4099389697542686,0.14303980205637903,0.7260212098741047,1.2225986932370387,-0.4829900177594281
8r5lt,-3.316440129611111,0.39254096178871173,-1.7673311892654056,1.328112960808859,0.7680303308625015,-3.29721587384261,-1.9878344450980108,2.504960921451819,-1.547657371543026,-0.7089947057245793,0.4120725462474676,-3.3973401882757264,4.569698679197928,1.2477198679690578,-3.038568456423801,-0.45600945321414404,-0.5026175159912527,-0.5530519200740978,0.5326871415144422,2.6875948527271776,-0.07166777177798954,-2.4418984307386453,-0.09122371571390951,2.502445800082179,0.5812794157623092,-1.7791427165914302,1.2903855663774515,1.0643528833296798,-2.93800120178857,-0.06290670307155112,0.7121704733884534,-0.8764325495004175,0.335712533835539,-0.10846827955839643,1.8599555207765668,2.240245190936284,1.2445451403168657,1.449622658802375,-0.46656860705053255,1.5774974306543055,-0.42295415409468456,0.7697808138409536,-1.6872243568651375,1.3333048929663474,-1.7772964705237664,-0.33696599422434625,1.302500792681333,0.16087785310914682,-1.9217437663166332,-1.17112308832092
8tr2p,-4.151833839694492,-0.4124391639838092,7.166271612510761,-1.1459973725280914,0.3800288992887427,2.6810401157052364,-2.328229299077495,0.8322646973534136,1.8150229102338074,-1.3826430980691073,-3.1408074904520342,-0.8616638092334565,3.0518366709301725,1.3198483074067935,-0.5920034556578389,0.6979650690129223,0.4928116614657751,3.5061646599067533,0.40857830835328995,0.2378388499031684,0.2745737570851339,1.9475874236467063,0.7532298214942685,-1.3181633753544226,1.6903218639697422,0.7019360284594948,-0.8778853116911014,-0.9181472896728252,2.378255675787254,1.799309495888848,0.8147288737776025,0.5575874350983128,0.345733680941042,0.9328744893662514,-0.8475465541394459,-0.3767512480721772,-1.486270421544333,-0.6406623829616173,0.9779701699366329,0.29480035995555853,-0.8196419286192632,0.1566302804982967,-0.613911052032787,1.3593199623700274,-0.5912288336701397,-0.801365065433452,0.28137481856508423,0.2300095766681747,-0.7482965173571877,0.44786672783467374
906gx,-5.224681602550236,9.109538159531336,0.6218570041402717,5.294121038840091,-4.116486014418058,5.911543872850694,-2.0417748445411696,3.700611294122858,0.47198609455463447,0.9598545445462666,-0.7111171090572331,-1.3523721371921682,-2.2359857873293754,-2.357707730041264,-3.3562554718351727,2.3219277410169843,2.461498282946583,-1.1797534373279566,-0.5664720023987904,-0.38038171575988544,-0.6284816549887132,-0.4873380440543707,-0.11352852524055916,-4.302156842387543,-1.351650784120898,-0.9672774885141509,0.6573373131748761,-0.1607321636240571,-0.39192793652164043,0.3405184784029487,-0.2590306615442254,0.44343508737657666,-0.47610853626204297,-0.9060443925089483,1.5727769605624144,1.05021274130658,-0.15559273453442468,-3.4776719309805384,0.3863868359704182,-0.04135156198709695,0.5348485069822833,-1.6871475517578904,-0.17077402046730317,-1.1263999579424708,2.569874908728315,-2.7584624838462477,2.023859872551492,-3.9219737934112247,-2.1436902186772295,0.8769237999043111
9duy2,4.387408054468776,2.1824275531349753,-2.459347684381509,3.2694468160723957,0.9973297044489403,-0.19410702070912644,1.0933141825041055,0.020610502635369864,-1.9511103769425675,0.9469453888564927,-1.0843419978393964,-1.089351068426432,-0.5215211498209986,-1.7336104441399867,-2.177499326698751,-4.6432978044866,0.9001978152518038,0.058192202235039694,1.2092701049830934,-3.111499772431424,0.6337930152912031,-0.4789395433526483,-2.2081169118300235,-0.7885938804702571,1.7859392055840906,-0.9598486332497305,2.037370773087781,0.1772313927421444,-2.05435040408959,0.21133767309843968,2.1862069412901746,0.5142484102630814,-1.119677935638796,0.5721217800751696,0.4056065150321277,2.3052128488217387,-0.823005022097066,-0.7854567035906768,-0.5103326127733897,1.2321270245195877,-2.2981602018052967,-0.6759327882723686,1.024598242667912,-1.3158423286975331,-0.9782966400473702,2.1035264774049907,-0.15402440402380083,-0.9230699875427769,0.5578445092450574,-0.8614431190208814
9o70p,-8.159003009893606,6.251381278521886,-5.855051680053797,-4.613567107215467,-0.08623457532495342,0.8003751554978684,-1.0248895546698136,-2.322528314391616,-0.6159185426131026,4.3671196595919755,-1.386784076017868,1.665916887833436,-3.6020275119960536,-3.9136182090078773,3.0991808802492646,1.2551497395742688,-0.5541390765685004,-3.799008695537648,-0.6501907884294157,1.1248376041656323,2.2162483130845043,-3.620525779434007,-3.9943984543999305,-1.4483875711862138,2.9912132199518546,-1.5598004585948504,0.33237451233517656,0.9673579873314843,-0.9709267412461168,2.3302732489832887,1.0048011810088093,1.2186168974850742,-0.7516836218004391,1.1697905965055668,1.5664321518600481,-0.44181753910968286,2.7881696483552036,-2.6008770977783566,0.2785670543452291,0.5042149781218893,-0.37065626199052737,2.546740158834491,-4.702217411339863,2.700900940824523,1.220381710727886,-1.1583692189653707,-0.8730529271800881,-0.47137350072303486,0.42296534256953566,-3.287787882263884
9vwzo,-1.157458489711216,-0.06764213293142486,-2.8334831879697253,-4.060625434588776,3.5711187840141116,-0.22792597296277203,-0.17139049337207962,2.6767358179871032,2.282348712184079,-0.8113164980050409,1.2920545201391316,1.6846607461532417,-0.15384532624304964,0.6028418377154457,-1.223725916097528,1.2799434110759929,-1.1060028459123457,-2.2515438534197387,2.097729733174411,0.42579199231915627,-0.5534860379280792,0.5699453742751186,1.2619385541086823,-0.08095651507302065,-0.6847440886800792,-0.7659600397553216,-0.9936022802422464,0.324458887824803,-1.9670410052510212,1.4583270072598586,1.2966877340048324,-0.7264640280273066,-0.804045541919542,-0.4635682566181332,0.9555213279609344,-1.4701224560772828,0.2039877224564423,1.1745407152505043,0.9048693080955336,0.37556673495635406,-2.4318933502180995,-1.4337887083476033,1.3342964970019104,-0.9321030057048195,2.367894374703542,0.45892147194365046,0.25022219066769885,-0.6348123768239755,2.2777250581204993,0.3301745199920967
a53lx,8.567876215667495,-0.9789170501817017,0.7282303519607596,-2.3383591301615643,3.6313528464885185,0.07280442355999807,0.8870224183876277,2.0605360785294295,-1.439064371342894,-2.447523317722856,0.1891664666982109,2.810066035276408,-2.741056035260826,-0.05376528185714738,-0.7528881789823478,2.008129361197244,-0.36416340125643915,2.5986050459689882,-0.25517006175761464,0.2855458679892559,-0.5012893234958402,-0.2145276762893265,0.9469547991179745,0.139234834530827,1.6448266930646274,-0.018106332189311822,-0.24367275458495852,-1.481279207531188,-2.1690617502236718,-0.020756490894043963,1.0161125862322724,-1.5913776612119361,-0.23914007725705028,1.3965509278794157,-0.7686391468809174,1.2028923996048493,-0.38402409887417494,1.4029357693861693,-1.0374178279447561,1.5300579408156545,0.21612560557637353,0.8429632485278934,1.1132000636165718,0.8043529390294334,-1.0967871413727937,0.9834749491843292,2.2815919244315572,-1.6104710346986764,1.1961549049125597,-0.0009324968444498804
a6adz,-0.20061760052736355,0.46816388379017926,2.909925774013069,3.3434584927284154,0.4161333656153484,-1.0754876543852303,2.4028053487685113,0.9900321313036009,-1.5284717422506453,1.9455213595887628,-0.586715091206427,2.213464762362928,-0.554058146491245,0.5072411773233717,1.6915381155732725,-2.0031953017722954,0.09170183450404445,-0.5880532457276605,2.2346439541371357,-1.5925205702027287,-1.5672720253386119,2.707841232857434,-0.9705486740230685,-0.21230222031290547,-1.3504650024164555,0.06861024984259494,0.35557083597851213,0.4506979255986496,0.25920532009153574,0.21978911045533042,-0.37290301741540977,-0.8530064141442054,-1.0179806399667277,-3.286198889200879,0.15111434479133706,0.22785645905424312,2.205795406131206,1.5327412786671473,0.6330584639784813,0.3569270715546507,1.9932010378298464,-0.3783979347023481,0.7452737790996893,0.5828883744398053,0.13653573862618934,-0.5864011753157062,-0.18076118788907072,2.0011727007746427,-0.07072214802118444,1.6457305981571155
a8aho,4.418962788466535,-0.46711069762615637,-4.075490795413961,-5.162367571352585,-0.600194940945123,-0.9079637591280626,3.0082695677348004,0.33109788780858757,1.5183090576248348,0.6650238809431052,2.3370051981647064,0.6061278972144682,3.765643300631861,-1.0122133816341148,0.108867498558059,-1.1509419727559598,-1.2513743311571581,2.565164535129527,1.2478492942933523,-0.988918506037274,-0.7570487424294661,0.08779688278328585,1.193920564987934,0.8942438622906632,-1.8814350229944146,0.22236922078689395,-0.1561838173035398,-0.3645390109516656,-1.134495175144456,0.4844263901898859,-0.7803269271894773,-2.3292378117797807,-1.265385582465497,-1.7744028655969901,-1.4933637518650211,1.9098770599442079,0.007181921589314225,0.0082261755508017,-0.9667136676561543,0.5395631854218936,0.35226274090414383,2.035468090831903,0.5238499801454456,0.8905869564463872,0.3341556658196807,-1.0488389385921963,0.4227992840887245,1.3780986728477644,-0.3318989297626585,-0.05335876418105819
aev6a,-6.238294538055284,-6.705998945116881,5.4054130340797375,-7.811542530543657,3.2571815207798998,1.2264003679022981,3.6438851162365222,3.1494970921468943,-2.9959985910949025,1.3121657272728202,0.500097593061165,-2.54119276971626,1.4824117813580195,-1.993701977311179,-0.7742028151888577,0.6689765748186606,-1.375370188902973,-1.7018063297355712,1.6890738733620578,0.7585422194208419,-2.315707041268043,2.776799855338779,-0.4015185062043955,1.9135474738703317,0.8428954925995824,-1.1572003932659845,1.6091385371176037,-2.1209475489046583,-0.7017457797687903,0.2192568236285662,0.5284307855543883,-0.708446121305203,1.4346636202935177,2.674805448089379,-0.7305014747796501,-0.1402229419257946,0.23593844422212118,0.7047629889849097,-1.5691362069958765,-1.5650573114026316,-1.7914362642136608,-0.6343258617929476,0.9290441545586078,0.7795745265740653,1.2118348953457745,0.2449240068861057,-3.131084667140115,0.609321709621364,-2.087127226345476,2.283790952655322
afrls,-2.0577600670670098,-5.586272286881668,1.1126660011058838,1.4303020404145321,-0.8403160903598745,0.22748907014317518,-2.557672705388291,-2.75254464591136,1.6129780629580488,-2.122460785661387,-0.40171143139932924,0.39374493999928256,2.2490151541959165,-0.33872093230749706,-1.7497152311329707,-0.9597320636022421,0.028823727141571887,0.09489683101901904,0.5602943138511629,0.008494166716357656,0.35544471782937,-4.208480444004297,1.9836700648090226,-1.5020742987084694,-1.9430636991344739,-1.0533894572900069,2.085794058010226,1.4330358626082869,1.90613923330557,-1.0478167539459353,0.5245946175105093,1.593895010798227,1.0302543678941987,-1.460531317482951,-0.8031425491215632,-2.733321446684263,0.7857272138135598,0.942503114070338,0.40633785666059347,1.8897225365452361,0.16465864287352325,2.4828985458630366,-1.0614812278230181,-0.5286760873509592,3.510649553033623,-0.1993132210554397,0.26009120514924366,1.2443537701842677,0.5859315171865477,1.201808065102654
aht1w,-8.133583525442434,10.449186482918122,-3.76208625442028,-6.180454946873589,-3.7532595619104425,2.3326718821984715,2.0328377782439766,-5.022196554832582,2.2191179765756313,4.6502133315630845,4.240328003133048,-1.0821871562089416,3.0211515490028007,-0.4835589673920116,-0.028444833769706558,-3.692598837587866,-0.39554931894397205,1.6373276602124403,-0.5226120741892255,-0.4359676967954285,0.45630466190586555,2.2488767217495895,-3.431766992397926,0.1648678818259232,3.54061693600375,-1.5122732773436631,-0.9955072310929628,1.075882694140765,-3.031890828293535,3.1125163226782075,0.17896549066857353,-2.8865000574501214,2.3722151494654513,-1.231922218082329,0.8147502134395286,-2.0255717751753326,0.26188820068910873,0.5349092504758882,3.1625947008962423,-2.4047317546484153,2.723178541173428,1.4702841367299027,0.5320054364044101,2.0527387950269804,1.797579742067298,0.5712549245481345,0.40190373381088096,-0.07491821523269887,1.9812667313458308,0.2533750659632313
ahyp7,3.5985081162599815,0.6048576643031749,8.077200332777847,4.787910879383077,-2.4125309065102343,0.5025411640799295,2.695950033042562,-5.593463080604257,-1.5640229746983567,2.5959923433056,1.0439140124275341,-3.831708499333273,2.0047145478401016,5.55069341170117,-5.588288226104848,3.8476156976838967,4.052701694125471,3.3390190820593104,-1.8736553989290792,1.087689794423202,-0.06268527464447064,-5.2894625535484705,1.5280489430677737,2.748025688966372,1.529529340407104,0.07728221267215968,1.5642198645241583,-1.5492995458157797,1.5899912339049378,0.4593708245596965,-4.0364014486916275,-2.17115936404544,-0.9521615075944669,2.1028195957462246,-0.3678226733516697,-1.4939633469974183,0.034973041389116444,-1.619627215724169,1.4126419257880556,2.814041797922111,-1.0281915154798649,-2.4153040586691694,-0.2668586211783387,-0.7489817735554035,1.315891844270245,-1.5623327515883076,-3.4857834244101733,-1.35354045980265,-0.22441065609664748,0.49322288937988434
amf2x,-9.198934480756783,0.5980588764872635,10.782294994868913,-4.788063246306426,3.889305503603003,4.837568006452268,1.0636745554721159,2.373961478962964,0.09565176371601954,0.1916888886297237,-0.41073944157899817,0.654300616222477,-2.4598211423152736,7.110499565191044,0.2814527314370722,4.922782871562219,3.242699738331098,-3.3130825267351516,-0.724846150818558,-1.2266323286395624,2.7678810095855297,0.7308293471782278,1.6375962612495456,-5.678683507194576,-1.6151145776765705,-3.0164725825085767,-0.19405415349251762,-3.4522842422798683,-1.0322106816925316,1.3379645621983605,1.1905744126557412,0.1914268138057058,-0.6632912590549987,-0.5103534908211227,0.007017678675900935,-1.7022829825186325,1.3841539953810151,-1.9883137604427579,-1.1779869545779897,-0.5123890159986636,-0.021375077555876976,4.540174688950675,0.8579702070061791,0.8501919666403706,-3.6310530865882047,0.9844583467669369,0.4411957813806791,0.4351958504952641,-0.09286517919181597,0.6339804102424706
anjsc,-4.107451288581522,10.090650820248594,4.9964518344588,10.288105019475026,2.729581997711178,3.3632132845129994,4.310449892027197,-1.1352304160151645,-0.2924933226634371,-0.7232088057945072,1.69199328557157,0.6768256464958068,-2.286177540730049,-1.0823405686230334,3.450247797310189,2.777371606933677,-6.130862531719202,-1.9699564304912816,1.350977783000793,8.445499821398348,-4.374750478007073,5.578940308730255,0.008037888663189963,-4.747436978880602,-0.39331982838985546,-0.6707508283998839,3.001778783897498,2.7082794513343478,1.1345293895432693,1.010359600929772,-0.5874699137822038,1.520185082338848,3.9113592473627103,0.03750808071763654,2.624172966728156,0.6875531859724375,1.0882833386381943,0.08349286127885086,-2.1294716110808958,4.555517797174765,-1.0421817400237787,-2.374331609718198,-1.12378228047198,-1.70134012054038,-1.7885994968954915,-2.09523255925662,-2.912161652237274,-0.5829862309433314,0.7830976070953479,3.3048825229611265
arxcr,1.2268663892572753,-4.087926474005933,-0.4554037211636743,4.1485467840749894,1.4081304531359071,-0.6793599912277021,-0.5077247163851123,0.9616079304542154,1.8235291271528646,1.4340045863856878,0.8130784585175691,2.5620370518843103,1.471680593610072,0.30268539251763515,1.810979413860395,1.3348877795104066,2.9536085808668604,0.13082124680679333,1.57959008985763,-0.35045728741942234,-0.02397106643041745,1.415981456386263,0.3597739857301781,0.9122971466839551,1.095737004737615,1.1204271673486697,-0.5314313126962042,-0.6620185511185567,1.6959831689422076,-0.04001694775773459,-1.6768380120351323,1.805812085497375,1.243940905683567,-1.7705023045166561,-0.6354050157607487,0.06264488435135492,-0.48689970080200573,-0.43689424558323464,1.7599045345817323,-1.561621388275067,-0.010698114946330233,-0.26336563223284265,-1.8121634388216805,-0.13236995842423158,-0.7806396799636386,-0.732639203231025,1.1337434724276507,-0.010877076990113223,-0.5594278513217142,-0.4361628117048661
axvvp,-0.3613402824091621,4.23477920410029,-5.754677870861123,-2.774532982319444,-3.7173972664670076,-6.007997444825637,2.0211578827102725,-3.6830667143026194,-4.119457183663455,1.745216420408453,-0.7187433828408939,0.48011104208299366,-1.9409632177731524,1.188886818133848,-2.9227984512496135,0.3054672658708609,-1.098685056121786,4.0757179466715385,-1.4464836229157279,1.3486722517840506,0.5689019598021283,-2.4939993534025144,3.140362648439054,-1.3014128872555917,0.8755803734901197,-0.7864304025140821,-0.7320794268525935,-0.4127298919427506,1.3728244027849184,4.695077803842341,-1.2046385463317713,3.8154978926169467,-2.015811696974879,0.03560232496332472,-2.8582899807694853,-1.2569465346075228,-2.8167980210834793,-2.709349989171175,-0.4652272761513167,0.48054783747460766,3.0946326862315297,-2.3860602215194637,-1.2965283424298197,1.8831223012431482,0.19234055296746394,-1.070040979791751,0.16031383046557013,2.2241993750054894,0.08847428155324981,2.1166486267750684
ayss6,-2.712628085349818,1.270086328221971,1.6380410676747479,3.5634120859046035,-2.0072768980044104,-2.6603257933647413,-2.499628383589272,0.25652260545137584,4.74828478797302,-2.333367799576953,-1.8670222351407328,2.093354391324621,-1.3443108467352354,0.14308424284571256,1.1361871183719343,-0.0853653919313529,1.4290705233925771,-2.6678061380208318,-1.5249732527667113,2.983589660652284,2.171068660631902,0.30017077163618494,-0.46376309347839545,3.6684907556941933,-3.6181897590896113,2.0819590674482753,0.645963020212789,1.794589084621582,0.7760819952511671,-0.7721135877253856,-0.3972410339479877,0.7669759415379561,-1.833148059782633,1.5109527788458657,0.8863231739224057,-0.8373247364484666,2.715371631199842,-0.2814737345140406,-4.302676071390766,1.8793791348356947,1.605056795120219,1.1746965812990793,2.4900980659507,0.31696137202309743,1.4950274713530078,1.0327319609770222,1.2619570499640917,1.9574967513424568,4.261062438491335,0.9156111139785993
b8zaq,0.9591357589397437,-3.230517604986187,2.269760138240822,-3.8805751635753283,1.0663027665111733,0.22922202077645293,0.619748701947116,-3.8163633248204576,-3.488994453969628,-1.4818311959994603,0.9708015050824489,-0.07640111861353902,-0.9516493533335445,0.23093771688698228,-0.22871502836977525,2.5633026427415353,-1.5922466684516223,1.3847229874585114,1.3923754288667662,0.4614751808484931,0.7326808032442483,-2.746171522993055,0.5186550760982508,0.3888955066102267,-2.9342389738514982,0.025503188775760046,-0.7019267725154639,-1.1630124039419936,-0.024192715415417728,-1.971241950982197,1.0908424429829244,3.029453158408914,1.8154749953818292,-0.23502629907687314,0.8927213962162277,1.914227259092003,0.14377551110461492,-0.10312472556070283,-1.1322166731670424,-1.2607045854721812,1.736268960431028,2.726735769024818,1.8638768227726294,0.5189559847273946,3.1966921415435303,-0.5875679797956196,1.1903846353185887,-2.0950454106602368,-2.17608210286957,4.030804949110262
b9jzt,-6.42919791383458,10.565697634657573,-10.288068147759901,-3.099567151453963,-3.0191423904610515,-1.7802648349998023,0.7338035284045707,0.8069414020743289,-1.171480751854151,-0.15085772736546998,-0.6212416447651818,2.472903302068966,2.3162909669330447,2.417177333328709,-0.8529466690103455,-0.3651978008000313,2.13291439191773,-2.284651413740338,-0.5059484843362303,1.619260051666304,3.0555239847006805,2.2917847154872675,-1.7011420238795778,-0.639861806018147,-0.5271629124137889,-0.3271832588568458,1.5268196053895209,1.1238016506835644,1.109893002479442,-0.7656725750969974,0.8824306311031067,-0.045711142551191256,0.42732052867031634,-0.9561993934944074,-1.281614612716423,-1.1235402216682273,-2.1276332306867167,-0.7138493522193844,0.2245362212391465,1.0268100600961705,-0.13346843133563738,-1.8239858672059137,1.500119291082724,0.1688961896381914,-0.12367457648913717,0.24166293360976474,0.15353593145582145,0.13724163588698216,-0.08782502319003029,2.9077153372908366
bbrrv,-5.440457786581633,4.182829635298043,-0.7786905383868641,-1.6988302880673487,0.6659145713237251,-0.6371448828997172,1.2576938823175166,4.933204432252931,-3.2675066787063036,-0.6642965284902835,1.5858942675458505,-1.9776443736355398,0.05909263609370606,-3.9183004233642618,-2.9339484680188965,-0.8374737840105853,-1.100662253036764,-2.2869026775547088,-0.4860651157766722,2.761038855400923,-1.1627694920195566,-0.6924933855513928,-0.6697629043327629,3.343260524239656,-1.7082922322487513,-0.6502176652584004,-0.5208926279405036,1.7849828652411903,0.9689292438360252,1.8479242200128503,-2.5784141261075004,-0.9134722922746329,-2.2649275348800444,-0.2268691255118306,-1.2785454969125853,0.5992450919622773,-1.6176739935705162,0.2070809156067521,1.42020739463086,-1.934783492338396,-0.8811067772255126,-1.2449141715927416,-0.49261369625917234,-0.22638237760814411,-3.1843146419020605,1.5354107876800205,-3.571163416378023,1.1828687191880667,1.085049138097274,-2.2616257116732577
bc0tc,2.0163185329599234,2.027705576837009,-4.7523904062917754,1.8659203116996588,2.390888312810953,-0.13034886301402807,3.2168369813897324,1.4006919836307836,0.470483567197445,1.3823528646754422,-0.9765988698213008,0.6214501260136508,-0.3053752767369981,1.5972529468681964,2.6960486578776943,-0.901306533248488,0.4527302535328411,2.1061526562562918,-0.9816809208921619,-0.34795360263912034,-2.9690186380838446,0.1438881461334172,1.239241931223857,-0.30359180631307764,-0.5651220656567775,-1.3818570639920407,1.4241871812705897,-0.5906492161699787,3.235876366934799,0.7719765752639394,1.0680258798807767,1.1612213662190307,-0.7341590223564733,0.2687847114097377,-2.048501460299559,0.3638250283623788,0.3375214843227754,-0.468472279382265,-0.22751605667086758,-2.0441759603798477,-1.196335166788416,1.3117846399556319,-2.0018637910944137,2.435535709558684,-0.8004845739694003,0.07483883036479982,0.7910123479138603,2.036814601394335,0.48435101425179167,-2.158352957102602
bc89d,0.0454647931708159,0.7958221610853888,-1.1254802545341125,-1.486665898756662,-0.3754045854066432,1.3034713393034572,-1.020077893543108,-1.8223761269961596,1.408376401451443,3.1562674337326038,0.7073244402796787,1.0392864367580004,2.8593433484527653,-0.8362768827958625,-4.111072949908711,0.22122121756985588,1.5500428272207234,1.735531622147185,0.6284066016716874,1.415800997389232,-0.7572614531502914,-0.08648068974124667,-2.060977616643555,-0.9119364421176898,-0.23924194293052264,0.33890707187056107,0.21311164868549345,0.9076008282924705,-1.5658541758789397,-1.6450245167454094,0.1316263082435407,2.4303787564496018,1.5582418534032203,-0.9022750204181283,-0.7351871711495499,0.9234065637711748,1.352010619910625,-0.29625558064134416,-1.5150668891442678,1.1562117559211993,-0.8002655319961226,0.9199329414769404,0.963590842882793,0.6303076064113388,-1.245766738850665,1.5066234881412817,-0.0007210071494175537,2.908211713524873,-1.0701333285941632,-1.2891247320834385
bc9lg,1.0433800529446615,-1.5547708924899208,-3.6764479110353308,3.1995887758169874,2.10973521876286,-2.08273497290257,-1.4628441209788556,1.6058675838538785,-1.031821561473147,-2.1913246220175964,-1.5466316121233992,0.7426685908286679,-1.9586794546979853,-2.0746395032693217,-0.15043316874150695,1.2919138171005462,-0.30308838917997666,1.7771033632301216,1.1495895362793886,0.5459676289287761,-0.39361484474428526,-2.1277448430168073,-1.4198315520406275,0.4408089513622094,-1.1751330903426502,1.0208314142648793,0.7513242168702771,0.7135051397953573,-0.18783205016070612,-1.190688908409554,0.08157150952357053,-1.1873126814386292,0.14889661132211274,-0.583604393291014,2.0564017144207667,-1.5983382516658977,1.0743529263087117,-0.03961197668578567,0.1433118090542819,-0.5480085323553857,-0.883027581864182,-2.64036651382508,-0.7163629313988202,0.7888013953941171,-1.4044712744844554,-0.4316348682861323,1.0352665199495183,-0.9631077376715835,0.4731950332895797,-1.0184143523221298
bf785,6.298333349949851,-3.828364855077899,-4.56549741866514,0.1398411595985488,-1.0774699403034513,1.0727019950652121,3.6749169094755776,0.04076101651123914,1.6786507906626986,-0.42802420493525317,2.2615625484490125,-1.3118695285261355,4.790283875560945,-1.315158506700535,-1.0126970525278614,-0.41029531640015143,2.4702039516787306,-0.16992692088834152,-0.9495746618378854,1.0996579216386726,0.8630459596182575,2.7146104900107524,-0.7513910999997414,-0.6166721110558228,1.6698107636345711,-0.44779069369965974,-1.617125067614392,-1.0250709194948973,-1.8352987531157507,-2.4163528947835924,-2.1248124612894297,1.628494437890276,0.5618815178464868,-1.4529765565735133,0.14942359831233898,1.7451503523664023,0.8543307780234446,-1.3959855899420412,0.41233639163241464,0.663939208117289,-0.8503022366921681,0.7842052243466187,0.5140423786048973,1.7001774655332633,0.5306354169516015,1.8615297860112845,0.5317676792619966,0.11684133330369414,-0.9550489799340433,-0.47043992608762103
bhiml,7.839917059915972,-1.2026522645678792,0.15862671376765233,2.803592534432544,-3.567468426602238,-1.1617538470336766,1.1803233672323539,3.2020394679832984,1.2534498897644668,-0.18806744640506146,0.3308394126958407,-0.27281486514757125,0.5362181497874104,0.041687443617480384,-0.818825141048256,-1.2378572872305205,-4.689475905388114,-1.9638454560871124,-0.5531107967505315,-1.5513904017971751,0.5436872849802042,-0.9203177257254412,0.3667720384368546,-1.754451117590334,2.9221000151571213,0.4138949970145698,-0.37583967484396863,-0.6409628435285731,1.2332840834703336,-1.5265148002489937,-1.2447779402447845,-0.6083418967318512,3.192636547930488,-3.378969215662021,1.5502848116310322,0.047091775977599455,0.38113179483469806,-0.40946165883699814,-2.590484276826763,0.6611612989292885,-0.3338583400235852,1.8570500128970207,-1.7357134620406898,-0.02782902873921434,-1.5587298319184943,0.3035512185515051,1.2803804645804286,1.5324181159227146,0.04293678785382489,0.583827261386632
bicf2,-3.2774455917757677,7.05133533359783,0.7733004763530954,6.465463242390427,6.314501808154052,0.4754130893716453,2.534080141341682,-1.6262403738519815,3.3351456226996508,-1.8118671668895883,0.6309472486349904,-1.2153610995725934,-1.4141287046763282,-1.4361988143075721,-0.3139378510037936,-1.5906790279936904,2.2240747231244575,0.10541510804334607,2.049367139569586,-0.21876316157393602,1.784651240669407,-3.5492616689404435,-1.862819521314646,0.15550047864311126,-1.3095211738212622,-0.3934586956885159,-0.8978470452243652,1.6242508934051796,2.5665508498265757,-0.04904006765036656,1.09017109671891,-0.4593742022540682,-0.5005285478107102,-2.002504740027396,1.2467366265812414,0.9100302819668709,0.06482621095115396,0.6105704307127987,-2.8403496030865223,-0.6267733702988153,-1.5086519019353073,0.5907833813195366,0.2973553273764394,1.20142168985692,1.1751709820765093,1.5339796443649834,0.06670223540683094,0.8827130500270735,-0.7212730157502469,-1.1976574612715054
bm5ba,7.627198788555448,2.7625913471069854,0.585384732909183,1.223461656868957,1.6519417014441782,-2.501956036973597,1.8317732313594177,-2.103584348041801,-0.18972167760334027,-0.1526784503857504,1.0312881693460314,-0.8286774341630966,0.15854409116520002,-0.5237608034846952,-2.721064083582715,-3.4040850016646553,-0.9531527486548115,0.3437525423507276,2.318742954997945,-1.7309244343985002,0.2596263821188925,0.5289488436766212,-1.2865796434483356,-0.977638508078907,2.2598508761591165,0.808555973248374,-1.6177091277331972,1.8287849419071494,-1.1077089668483793,0.695518767932547,-3.150885826691243,-0.47676616012615464,-2.0282080890400005,-1.2149012433641988,-0.972920743631873,-0.1781450984714573,0.10048623549029945,1.761181539220117,1.0643179458317114,-0.22092667582403996,-1.7162782581946205,0.4597944202539815,0.2469663724325625,0.3437520133628408,1.3824691017729858,-0.04341788774009841,-0.8535740782181226,0.3592397928712928,-1.212749727647539,0.04917706998948494
bnxw1,-2.332148794238624,3.11046795455296,-2.363610247920513,1.668617587726341,-5.620314666116841,-3.5656019000493346,-4.666447016389481,1.4761916287679133,-3.549591582379881,3.4504719791058456,1.2122797094523563,-2.375604410142589,-1.1634222722768597,1.495158172387463,0.2999434241206279,-0.23541120652752234,0.9690484647018086,-2.010110121989515,-0.4792165970960784,-3.3155566890071357,1.2524909320601212,3.5275611780138285,-1.1962962272383104,-1.9472583336730285,-1.139024123016947,-1.5980079749487823,0.9140764367950613,2.4748412227178025,1.6169237199598832,0.9512205389136122,-0.15569941455069644,2.1157802845745604,1.669326676651132,0.7736036173508926,-1.535276896742223,-0.9908245901076788,-4.363229605651207,2.1886991044884927,-1.498937317420501,-0.18774739529833448,-1.6555071886346335,-0.5810755628958583,-2.407133710523736,2.138272345034862,0.39621042347388946,2.3153620644308517,1.120548990362858,0.3666282385656394,-0.5211951883324178,-1.660073811046589
byr2v,5.652904512170952,-1.7513177353424343,2.7114730243408522,6.088431565938916,-0.7809993919605038,-0.15199956951544977,0.6349887791786435,2.0110301372001325,-0.6876721229041737,4.698509163962617,-2.110809891229246,-2.032577561589144,2.1527074773923034,-2.614549908338866,0.521089868868261,1.8311424530302718,-0.2745512695298933,-1.4531388078170324,-2.120930190798703,-0.0906418872830565,0.5546970775951515,-2.6845183059802733,-0.7508483526030293,0.8725325390826512,-2.2785653903264884,-1.0586288023867105,-1.8055050521838354,-4.329158407915391,-0.7525485310395552,-2.1763608040047306,1.3260705452897832,0.8125297355440876,0.6190911865383577,-0.3731605820079399,-1.3178609015442697,-1.7585553913596037,-0.3151340753517147,-0.295137670619899,-0.019033178299796963,0.48813662019912435,-0.557754818022655,-1.2874058806388813,0.05419397768031546,1.7972436254345692,1.1573475409010268,-0.2444597800842781,-0.45272589788802975,-1.3158125308982025,1.5213747267670328,0.06521213452438612
c0p1j,1.1751816555146257,7.422437750161476,-4.910426216931267,-5.040014462855911,3.2264249832677208,3.1086911410035665,-0.41821289492667857,1.3090966868520262,0.6095941930829875,-3.563773855044252,2.2990556336454087,1.3763427990256558,2.6138994253004326,1.8622298572622416,0.2721194808708414,1.4134874255021654,-1.4502886622750903,-1.7201809113376705,-1.4259831517957473,-3.3660555348710433,1.7584828782071193,2.36392967546621,0.6849277522164454,1.6310665783682603,0.21862240694009774,3.7210138525082166,-5.136514663025034,-3.194140361604913,1.0616343923537808,-0.4692709945662821,-0.186521816246297,-1.181513259876348,-1.239009715164122,0.7976819770094492,1.145720156998474,-2.2449404827531905,-1.994986242917454,2.386511371169257,-5.194729959652343,0.5009814359165263,-1.121283735851826,-0.7050984629805855,-1.0708337278569076,-0.24074853694972423,1.0776769637163393,-0.22040301756608469,0.2885594465830742,1.2182006795992242,-0.47673865793090886,0.054526348367969546
c42r9,2.847797745954489,-0.19069761963897008,-6.177938623610131,-1.6849003190891938,-2.335119937462982,0.14624227393477662,-1.9212762817056679,0.322673753299606,0.39114872412518875,-2.1824448871104707,3.105381249786411,1.858946448755873,2.862750418992419,0.9197404897419843,-2.6526185403261464,1.4297728848242317,0.5316204371936941,-4.240680366592847,0.3936201728838306,1.9628174246688304,-1.8252092030272986,-1.34571474254799,-0.3333150623494637,0.1636782629475027,-1.8849699332777536,1.3031870211094083,0.6860726571379258,-0.7105778339165326,-0.9620786355698895,-1.128383445314565,0.8285605307688103,-0.5891995010868517,-0.8680016800588766,-0.19383268581964389,-0.014984401940338319,-0.6574430167626251,-0.23109163022605006,0.2909994569211926,-0.48277389544743876,-0.5685092084697799,-0.23407513633740773,0.39584654590363527,2.668267336427961,2.188195720952484,1.546807236891346,0.35867536209198275,-0.49384921211412997,-0.38221657249585417,-1.125117921385985,1.088341745436583
c9e9n,4.438760623023871,4.234328509964075,6.942153568272873,5.910528289248621,-0.08057211403424144,-0.38554587607021285,1.8075591729028049,0.1697151450372993,0.3966647953474374,2.4975394322335673,1.573975957326301,0.5251342526850269,5.076140827035419,-2.2618076134725174,1.587001445823327,0.10154346046566516,-1.3179991953290706,-3.0533929015001906,0.3707067005476905,-2.6871572252325664,0.03803824987650727,-3.298335428493494,2.962982892424931,0.38481906739314076,-1.9846700380000366,-3.857061932498126,-1.834854139901808,1.8687564990747325,3.960136058126721,2.7858760252709587,-0.6472678755134939,-1.9546580745337665,2.110928697512271,-0.31711540229144836,-0.29863278121229997,1.9028628266153738,-1.2813566584537597,1.469891771818278,1.0556526687499195,1.105919250356541,-0.09601981092679038,1.7308806875695286,-1.7947832658793215,-0.5402649126577431,-2.8534952758013525,0.5134423460662694,0.18073717594584898,-0.38332396778872824,2.5106484360558645,0.7175030145129279
cmjtd,4.979825773251834,-5.174790451164998,-6.959183970505303,0.9655527177426683,4.3722858165448075,2.144726980442927,-1.4176222311921836,3.4143042991206505,-0.6627648589979631,-2.608941654909525,3.130999751610488,-4.933719049717201,1.4315744828780868,0.8233627144139626,-0.04640776283652784,0.4036051056845613,-1.2437159592139921,1.0051765249938707,1.997516593540939,1.9735758504139347,2.0438928658590734,-2.173183652932978,-0.4647280904650483,-1.5961575201477736,1.5553211447402815,-1.8291256798871385,1.5044765456707905,0.00958310156383169,-0.8269401418221957,0.9385097261634393,1.1031094990665073,-0.5023868344181545,-0.23515999042827868,-0.7740942139860394,-2.409783207972071,0.030454222668451405,0.09047373144492146,1.7919645917436273,0.3188776536541056,0.3633365755638255,1.9937701049331835,0.08434524250964492,-1.7019990816511812,-0.7422292082849523,1.035067528650839,0.20559705757244298,-0.09678943680121081,-0.5427699188621808,1.0129811108964915,-0.9476125929305609
cmmpb,-5.363240953162949,-1.1453799061784484,2.1363423084468782,2.827372081305113,-1.4396588898140328,3.5500020658179645,0.19235614285069277,-0.33842542954969984,-3.4889469507214166,-3.2429957422741422,2.0989909021879587,1.1257872046250152,-1.3883925662420356,1.4914106154926294,0.48969755662306197,3.2453190357590627,-0.509906234360554,4.133079586428133,4.3630127802807435,-2.9374967613769627,-2.2026944184875785,-2.2474642912413327,-0.7986117710329935,-2.8930666413425814,-0.7696018558298011,2.417882550805663,-0.9484393046308283,-1.5140006445534218,0.596097335542238,-1.1208045593554699,0.966569583886348,0.28770883726585056,-2.9497357318794344,-2.9212255411439423,-0.8835082847940988,-2.7012698637485437,2.5020421693449775,-1.8262284208388788,-2.1024341162929123,-1.0806804579494222,-0.6150208011108893,-2.1840031643304547,-1.8175802726117458,2.354064863516823,0.2708527724962747,3.145219107156757,1.3250401313966698,-1.7937227123162527,1.9731937107717457,-1.198134177645461
cnx9d,7.420150825136215,-1.9186358473757616,-0.6341982876092027,-1.3452307066299185,-1.8181260188903086,-1.3827792748338767,0.7088856437770258,1.4934247292892435,-0.44343115473784883,1.984562096833709,2.8582881986178763,-0.9838498702993403,-1.900256265912052,-0.2558227563800377,1.4960297470853017,-2.779456906892919,-0.7125824996643556,2.9598957304728617,-0.4806967547249259,-2.150588474791875,-2.407237169859684,0.350915191219638,1.0395705803408637,-0.6974181089481157,-0.8855526170229632,-2.7405105053952945,-3.1766805281995274,-0.5030613902412491,2.5401172327728667,0.3145523988595505,2.7284569441767967,-0.5265974174019915,-1.1140525036190951,2.78297335196311,1.315313435639923,-1.1475853640381932,-1.2865499548695136,-0.36793437736152973,-1.6772906750163432,-1.5503242337320908,-0.9740756637024354,-0.8340015051129576,-0.580538587337911,-0.7569881609825851,0.47644722355080843,-0.044867256341394136,2.4596316270696508,-1.371397395899899,0.5416532897294891,0.6052534301033724
d3vke,5.143185896893777,-3.219832610817987,6.408642852427771,-2.205855636494261,-6.673278051774896,-8.072659603472188,-2.3348092558258866,-1.5294632608054983,-1.140691767987907,2.201168607074613,2.2519894136887455,0.4582197993590505,4.161077552720762,0.33226222178738013,3.785291992834301,5.342054768841053,0.14793690183766506,-0.13586539153867097,-2.7231357935092655,3.487079909044172,5.1321249525506545,0.766712052161895,-4.80500718607196,-1.5149281120839377,-2.5938514839110796,-3.626684973475251,1.2799773077737666,0.6042216725862681,-0.1390893131735782,-0.5058165953850025,-0.34712704187753424,-0.44976026990270435,-2.2999664165177602,2.0410378419204744,2.729383889678899,-0.6110801727603231,-0.9976716526760782,2.285958295355987,0.198191390001937,-3.542031345667362,0.8521822043889957,-1.4267218235240036,0.23963107907659567,-0.8637738634566472,1.6219105907387523,-0.6348808143100739,0.40379782176512763,-0.22513317883716913,1.4945132071328482,0.37348886262433667
d5yrm,7.024330107459742,7.46752043861812,-2.2210053502568985,-3.667712984977746,-0.2856771168584426,4.317116803662553,-3.695474387939509,3.4943043333177113,2.3123332953732563,3.7900634282963286,-1.0427095276519,0.5762677569061477,-1.9200914963224744,1.1758997594761131,-0.3269926811772094,-1.5455463974043706,0.23805778756938784,0.6863044548723828,0.3989755204823279,4.950577149671963,1.1019006477761586,-0.9671369968450015,1.5726346713034547,-0.6424818062005091,-1.7534877398438982,-1.0480999006497491,-1.1409458815809654,-0.6873079689417999,0.06294557849201274,0.30577762447521684,0.6414291248298727,-1.7838643562419132,2.393932307155973,-2.3463134926186404,0.9295503351887966,1.5063972849461174,1.0629285737706842,-2.1863075578796933,1.7700520114383038,0.43782999237392656,-1.1083131558446404,0.04764242967641739,-0.713922717076082,-0.2345003757111841,0.4020076423894175,0.3136485795304834,1.417418356356547,0.7646135848465266,0.4117413992774173,-0.5516613042452362
d8l9i,0.7374635253328242,-3.4199707475218535,0.37394623761788714,9.44282005238947,0.16650066647531633,4.169111217450093,-2.8807370249060114,-5.766940741785398,-1.226855218087163,-2.4919966536833944,0.696247312010226,2.630073214760964,2.8039811808626287,2.9949764653925333,-1.3612492965417813,0.28469999471907825,1.4690804500281915,0.8745450891473221,-3.187793628720426,0.8429442206424725,-1.9138517950669385,0.393775883764487,2.25991044300034,0.4583295489947381,0.40135744056749245,-2.282788412887637,1.4330614663000092,-2.023104219312881,1.2925850442847135,1.6481477757883687,-1.1194929465782952,-1.215562726148718,1.5877540288455925,-0.37106446265943116,0.6430582750956607,1.961826465990009,-1.3015936423201289,1.9116094478724026,0.2105790612522272,1.2164903354462766,1.2574041716679019,-2.4098976848512064,2.340803309412217,3.3399878507128786,1.1324558036675947,-1.6173810372071942,0.26943395567233913,-0.4031723462193291,0.9485832235287386,-4.299926792107062
dg0ss,-8.770901691100029,-4.290524996113392,-0.8621682723048608,-2.6014719268893365,4.677878892768271,2.327265106368356,4.50131900980205,-1.546857401867164,-1.0495433135328338,-1.299287239672034,-0.6420543127698434,-1.2802645609413525,-0.9301111076029346,-3.359968467015643,-3.162293928798415,1.4276325003312844,1.46484714205993,1.0970114174617214,0.7660817163340435,2.4340125629130167,1.1936732286303442,0.7243023915567953,-0.48856488204970805,-0.7313163310186351,-1.7282563390069323,-0.02119213043621034,-0.3235183097680728,0.5809807941599873,-1.7369761939968145,1.8890914321174108,0.7220170601430798,0.7833098947737047,1.6058925976634084,0.2775963091673853,-2.208312776636638,-1.229215417850935,-2.113705921583264,-0.0069996846948997115,0.4857867562131941,-0.2338275398928474,-1.03591225959299,1.0835060716794007,0.9969013096347553,-0.7090070149634778,0.3143280055975601,0.46105435932570904,0.2418017848493883,-0.7262093928243901,0.7399166026314183,-1.0945837505518972
dtsui,4.414465854241148,0.7094672064450225,4.367988843880281,2.5877492106456947,-3.7437898109969003,1.9876154322185509,2.0990285678302967,0.15381660851922904,-2.221518775693523,0.006188545763581505,2.167174051643154,-1.1198548750682042,1.8443584295325577,0.9608043618208731,0.05670396126862249,-2.7668743653081593,0.47835268765201666,0.32004313567744647,-0.3495270888987747,0.7828837871867058,1.0268459502414085,-2.5901900063282763,1.620979175921703,1.4609538092103465,-1.358100012610058,3.727361084332872,1.3547314614993904,1.934613464347223,-2.0573056172567465,-1.341377236521679,2.695818803065752,-2.4313716818816333,1.601587083353264,2.8382286317704697,4.480861373768108,1.0830592581889689,2.2932848043382488,-0.7220544395187569,-0.4067854253485962,-3.4970913549270755,1.5401906014585014,2.4630437459415093,-2.292547976782232,-2.024887207294089,-4.179738366245614,2.090437549950215,-0.6770863277569528,1.6051093215083783,0.9431185263714408,2.2162716412819194
dw6oq,3.8531522645472993,-0.9835860769262982,-2.7569369342296812,-1.653248566775726,2.241340637021434,-1.3269856474420227,2.156095029237812,1.014656585186699,0.42255546860554793,1.3811023082778775,-1.287834098369512,0.405007427782815,-2.8194320695112465,1.4984286383989882,-0.8155744166788306,-0.09413911937494837,-0.4814567227518835,0.14603096101832444,0.08034456921564637,0.45940302669588656,-1.1460494973804878,-0.8131746388049645,-1.4960963669164287,0.521239086894365,-1.3267582562528608,1.003423376716727,-0.8417903200184315,-1.356562161769338,0.6869486736578302,-0.0794330309491343,-0.5317236006103884,-0.2861904248159804,-0.07769302493106711,1.3184801219621058,0.6580062294112963,-1.3253050018541512,0.7711398596891924,-0.5018135103754585,-1.3328666495724109,0.27359652691049635,-0.01744812856567041,0.1411671523644464,-1.2923731812840056,0.45211193550754036,-0.35202245688472644,-0.3537921624410663,-0.1427532334246671,-1.0841247006540016,-1.662798307808636,0.13871044414057085
dy25d,-4.198657459471176,1.2914329955397978,1.736908425725464,0.43395371131766475,0.7248542607493079,0.8827941541600722,2.8402038601698556,-0.030875220553338883,1.5775796353715528,-1.3251294153527922,-1.6059966138892299,-0.6975094542535373,1.2904806828661708,-0.21171340088405388,1.126941268204327,4.22330680298533,0.3378221820922981,1.979126618134814,-0.2552558347840916,-3.846985117812133,0.555393648571385,1.9737745104010376,1.615648261559407,2.831115810694004,-1.5708822857596136,-0.06172563071319306,-1.7124268139385206,1.564177715432443,-0.2958043102253291,2.7134953769678813,0.48829885538040263,0.28711050530996823,2.059491938107688,-3.2735578367574893,-0.6636280492118376,0.30940318380172743,-0.1090375746206841,0.45762360769731436,0.8079540192862292,1.2967577921347595,1.9352239190231704,1.45811286965214,-0.48137586998486254,0.41143377703575607,2.0054187789906512,1.0051040838237812,1.0669942909982582,0.9134659031223666,0.9878216500288326,-0.8328879870410305
e8ihk,0.42117544326530154,2.647487929909765,-7.046070020439972,-2.987371835096043,0.3867272263693975,4.584717267492986,3.122484922552564,-5.822397500805829,1.0326943526367287,2.0725010518090996,-5.444000937371852,-2.0610613853523554,-2.542453980817521,1.622226509955627,2.051769950020047,-0.8096959709105799,1.676483014911447,-4.404548531638234,-0.7469341489065134,0.6754574451551044,3.2115927477521846,-2.022595226579317,0.6499751064965203,-0.8140409131060704,-1.294451551813612,-1.4880501856564814,-0.13505863253813893,0.7440234158500016,0.042663872578984845,-1.566060915724267,-1.208151879183716,-2.885720567781569,0.8559068616566458,0.735946427445116,-1.833468872714305,-0.09527358845378359,-1.167636745807751,-0.3394565878290185,1.077786860779376,-1.9443061716961727,-0.8371268717500869,-2.152973649497541,-1.204603521529809,0.8724058836246618,0.20837057827731137,0.8141758044488757,-2.7564746757131666,-0.20976465236782785,0.1098230526017641,0.6778555374088441
eels5,3.8568039570226667,-0.7248258143488859,0.8240699532002569,0.2814412921977415,-5.612604453456752,2.5179078232891965,2.559679583411262,-4.534410395289132,-4.097986647631023,-2.8774703982365715,1.5068594411122058,-0.8878789706651471,-1.5661649469644978,5.203391410779104,1.4236634439382634,1.2461304956980765,0.09564144535180694,0.3263416709636207,-4.431602013804287,-2.444106763587022,0.9027093078196247,0.8002000013801824,0.19893564285070328,2.863910046577599,0.4827433859920392,1.8450617829576859,1.561507839404703,1.5462293739803648,-2.052356448254499,-3.013524357698397,-1.651606832396134,1.8671922683695363,-1.3762087599156143,1.35157871554097,-1.6425099705263446,0.12763787683414493,0.6668348598298118,-0.9733506115460752,-0.6078298346389348,3.3002907447668863,-2.6316878424889274,1.1794398262666086,-0.8571180940169436,-0.27370452476524354,-1.127844219115751,-0.8405410893589002,0.32518108366107795,-1.6609358794456077,0.9872060214852509,1.800236294791392
egrrg,-16.8270117189978,-1.5404761765249717,-2.771548681351918,6.801558672683309,-2.700314532518694,1.4389474831492284,-1.6936138315906701,-2.8377501221002395,2.1508051047308,4.839483362980916,3.3299751924778005,-1.1614079322356365,-0.03840078694054789,-1.7970783195766262,-5.285935871828773,-1.4855284367732953,-1.8166601884549083,-2.8182298985331062,-2.519445795931693,-2.088120235611986,2.0186549511948266,2.675995211742376,1.3994073849460873,1.5563007652593472,0.827000409323221,-4.6491489283880085,-2.128081120899125,-4.0556653239559095,-3.8676156794031913,0.25332492648620275,1.2311518391160943,-0.3461186837149043,-1.086751972029841,2.087270977334995,2.063849072753579,-0.7026300779466254,1.0734683772339433,-2.130922815662045,-3.4531327372416363,-1.0299391386538286,-0.5591710247659798,0.5862103173909464,-0.8779592666053917,-0.5261730539816286,1.064667575422672,-0.2956432511224351,2.1779306141417902,3.6167136947935767,-1.0455874571591466,0.32163999325956555
ek9iq,-1.6238065843669216,0.872258594997809,-3.3834609438335432,-1.740008272068924,0.5545430428019106,-0.0028046860598256508,0.07859310456602567,-4.569671396060147,0.9819537336452697,2.386128350605988,-1.4800309612411164,2.0426238722421517,0.6116424124434149,1.2229649986058182,2.7847900293166457,1.2031851009210466,1.5084952973107815,1.2687189195323687,0.5493534291425217,-0.8795553716073792,3.134122576738432,0.6203925566349923,3.243443225261618,-0.5621762958789318,-0.17212896551553533,1.601872934875384,-0.4594304135014775,2.156622156348903,0.37851656502876146,0.3154192687747338,-1.5239771361194734,-1.0368047080187153,-0.7176146229411268,0.7507857506955308,0.5510848608497189,1.8563104110307973,-0.12632243262408135,0.11635451250175038,-0.4783520705789233,0.5392164665560689,0.31057552872138444,1.1923124991046181,1.373963455641295,1.9790625298260258,-0.5410250921232295,-0.0406088120143884,-0.239749017394721,-2.007139738379983,-1.9520747665150213,1.8323081736810067
evqeq,2.072846674233461,-1.9711598887066832,-5.091760243223183,0.207364918821368,-0.7318440432780674,-1.7644921374133178,-2.518451054739712,2.129249792470528,1.418312177165877,1.5971820106120296,-3.463505910654336,0.20698666423746948,0.4378293221555848,1.8914270245058582,0.29908843653749856,0.07018319095312942,0.4231540162609465,-1.1344849864922197,0.3470342900501328,0.25809178795555293,0.05866737531397735,-1.8892651632091313,1.0494701001164803,0.7381393969811253,0.38751406918995157,0.6657283382925898,2.818457811896759,0.615566868788048,0.4194794396624501,-0.7275921757897725,0.8294661035096139,0.19222621161081183,0.4707429714483232,1.505163736732038,-0.05929805446349415,-0.2602662855121278,-0.2967025138569033,-1.6190442409727965,1.263666563125112,-0.05872578345694197,1.3507231728434703,-1.874242038589039,-0.09586992055967654,1.5339408302340731,-0.6897789037790795,-1.3566240571591708,-0.0948498661257358,0.3195928163886868,1.26522467916118,-1.1529937203601015
ez9fl,-1.3062761979146813,2.534685334271778,-4.120046664794653,1.906955752392404,-0.4297225873820847,-3.1578985435062825,2.72377257357255,-0.8643179743420282,-5.9254073219541175,0.26358707046565566,-1.182774305378798,7.057219609496291,0.025488742258571284,2.5473968592503695,-0.27431891484632026,-2.3885805599125116,-1.5940055252914176,-2.240095174127934,-7.3705138088078,-0.7209463776281557,-2.750749071796429,0.2359849956017903,-0.5313528128898235,1.1344316789496018,-1.0158490211949258,0.6088418554843669,1.3938638835340538,1.3838500632708302,-3.3627871401566325,2.4702521417510384,-0.01550047177150767,3.079911831336972,1.132698891877926,-1.8273777251302128,-2.3774692721867106,0.6542849096135764,1.5776881629666866,-0.9488622904054305,-0.1559728304232281,-0.9586382515544442,2.3436286572360014,1.0014033046510669,-0.21096668836363527,-2.386417859616433,1.0525187054660103,0.263300794397059,1.3670454266481775,-3.217746714826127,-0.68626670960746,1.1863143937357499
f5cp3,6.3731458924176145,0.8236503426415566,-5.016225811284135,2.3599756552274336,-0.5425022239154355,-1.8585616134269625,-1.0862955227295867,0.26171374717876794,2.7993668190329375,1.9939510908724194,-0.8271732566465559,-2.0220673856151823,-3.119579029864875,1.1215395808137074,0.7842278283227463,0.2548849260949665,0.3500132849433443,-1.3309510664033062,-0.352778422295514,-0.9862049867516421,2.6876396585968174,-1.0102226984986247,-0.9568666152713017,0.032161668560479216,-0.10456849093318772,2.3772605578591266,4.83945207538423,-2.3841138017054777,0.6833826196431434,-1.3495074572615011,0.10797153965816371,-1.5362257015064509,-1.174152106155612,-2.3524293731436186,0.9945980297625181,3.0137241371485137,0.27601221728398184,1.2378442140549195,-0.8662356905179639,1.1705299976379737,1.8506448223131973,1.947365432426158,0.8284589541166199,-1.0032608087697097,0.41590308173873153,1.5738225518215492,-0.9998421929219468,-0.8548810524328094,-1.0061734248135619,0.2205589344148521
f60ro,4.024590510234828,10.604241932192945,6.251741216087428,5.354217722941385,1.1738242924273328,3.4599589223755722,-2.4401583452198436,2.7330160479210988,0.7585773249273777,3.858531069822157,0.6142797161812377,3.4063093518243046,-0.13504188172931228,-2.749457074764123,0.7320251781304759,-1.2813003779486318,1.3885577529340294,1.6677491401030655,-2.004730394558756,-0.7319075533320766,-0.2413917214416624,-1.0273677265395882,1.06154891262408,-1.067616403691284,-0.1034977871905255,0.9674961206983461,1.3531865778479881,0.22642395042644972,1.313770228938709,1.261577109812522,0.36440930568632174,1.2968601566374085,1.1595822458045486,3.174164652717551,-2.9383573487893346,0.012505850289503694,1.9047067537603577,0.8081407560102631,0.1831302842766565,-0.9062654396486528,0.008039862363096967,-2.4815983012316334,-0.022203437180725663,-1.2436686302977042,0.7471795531676522,-0.03381469222554277,-0.7228199567431558,2.804262452364327,-2.369289734639762,0.9769468287323451
f76v0,-5.183816514810463,-6.138768493728118,2.305172812428379,3.9734904297169757,-3.9983983682923636,-2.3364039414172253,-3.4514533691682856,-1.0828336339153084,2.530250561871895,2.8370703015327603,0.6938826175729238,3.540485136335332,0.8957866975150052,-1.2834363246703924,-5.211146174085768,2.5564570676667655,0.8163287619322672,1.1974437966556333,-0.20477212107987142,-0.5200188811486822,1.3969064623860683,2.0746538950080913,-0.7272429109278966,-1.2043854961021725,1.9014188731291297,0.28389932493746667,-0.6868309351484264,2.1017876934455666,-0.8243111272332573,0.6576679580442704,0.5512484381029038,0.7366304285065851,0.7024042109639066,-0.47593579623935184,-0.7100181782062945,1.4242278460140574,-0.4096133446663445,1.3397544115891342,0.4712240819430961,-1.3929066796279617,-0.49141888760129415,0.3321672955533235,-0.3029226018938575,-0.9802433402832919,-0.2135245540676701,1.5140643140090062,-0.4548645883282892,-0.17558332963972795,0.19164831425213058,2.250883830226128
fz8wa,-2.778399495941041,4.053885545252209,-5.334674411799766,-5.644350062221131,1.2331397609644734,-5.9033122735870736,1.1133294790454493,-0.04936742147375236,2.7564467450643404,1.117320412791388,-0.12762918526530273,-4.230196663425282,-4.487189385443275,-3.517253078822625,0.7099655571174602,3.880620044303419,1.6027031129093947,0.6400875859055194,-1.9777510658148472,1.4563127351453728,2.0831181940980734,0.26402419506698627,3.759275607689716,0.6318273720595781,1.9895864904696208,0.4349028575658014,-0.913421053519643,1.0807906928479096,-2.129696119584672,0.5317168573736508,-1.8980271878992239,0.22914816716931818,0.35350112157588687,0.9528659256359568,3.4466759020174793,1.84930676365142,0.317937252211764,-0.7317677904854868,-0.8608040053057489,-2.1473724941272025,-0.8778005776442531,-2.5461759926693652,0.7827816324848466,-3.275547145487936,0.08687676005639046,-1.8334429817578366,0.8247416621445779,-0.0733461335613706,1.6686455796548683,0.02579943861415586
g00ic,1.3465474022779749,3.846438408200029,-0.6939659805303233,-0.5563268523176491,-2.585729582944853,3.114009529765049,3.0067926544403236,-1.4718803670158678,2.5233409617935645,-1.2293420008244476,0.17073387694756192,0.5700848556713791,3.044001065524694,-1.7407828147291708,3.897107349931335,-0.8417611434027664,-3.492840063422941,1.5792727178745907,3.2217606737458104,1.805382466610726,-1.1338021784156638,2.477292223259435,1.1031693645667655,2.220280595086148,-0.3383613285424498,0.23599109284600842,-0.11252091428033645,1.0239704634759113,-0.07832270250501046,0.11714929072303094,-0.9747991134027346,2.271819772313534,-0.9813389757059818,-0.2500166888320207,1.426282310955443,2.2081010414366062,0.5842322014905645,-3.128752807108628,-0.3040263120261225,1.5106177567890227,2.824723957778537,1.112722233407731,-1.702057893917855,2.607092517473676,0.27673482157887536,-0.605538965875886,-1.7534959005940853,-0.7209291229291487,-0.22252899421952152,-0.43330265705511667
