tree
version=v4
num_class=1
num_tree_per_iteration=1
label_index=0
max_feature_idx=168
objective=binary sigmoid:1
feature_names=n_total_answers n_missing_answers n_answered_personality n_answered_economic n_answered_cognitive n_answered_demographics n_ordinal_items n_categorical_items n_text_items n_multi_select_items ordinal_mean_normalized ordinal_std_normalized ordinal_midpoint_rate ordinal_extreme_rate ordinal_acquiescence straightlining_max_repeat_rate bfi_44_mean_norm bfi_44_n_items bfi_18_mean_norm bfi_18_n_items autonomy_cognition_mean_norm autonomy_cognition_n_items personal_values_mean_norm personal_values_n_items self_monitoring_mean_norm self_monitoring_n_items self_monitoring_binary_mean_norm self_monitoring_binary_n_items regulatory_focus_mean_norm regulatory_focus_n_items bai_anxiety_mean_norm bai_anxiety_n_items bai_sum_score self_concept_mean_norm self_concept_n_items need_uniqueness_mean_norm need_uniqueness_n_items need_closure_mean_norm need_closure_n_items personality_traits_5pt_mean_norm personality_traits_5pt_n_items maximization_mean_norm maximization_n_items uncertainty_beliefs_mean_norm uncertainty_beliefs_n_items risk_sensitivity_personality_mean_norm risk_sensitivity_personality_n_items self_regulation_mean_norm self_regulation_n_items spending_scale spending_difficulty spending_anxiety shopper_type weight_loss_intention dictator_game_position ultimatum_offer_position trust_game_send_position trust_return_mean_position ultimatum_reject_rate hedonic_framing_mean loss_aversion_risky_choices loss_aversion_risky_rate crt_score crt_total_attempted numeracy_score numeracy_total_attempted financial_literacy_score financial_literacy_total vocabulary_synonym_total vocabulary_antonym_total spatial_n_attempted wason_correct wason_n_selected forward_flow_word_count demo_region demo_sex demo_age demo_education demo_race demo_citizenship demo_occupation demo_religion demo_religiosity demo_political_party demo_income demo_political_views demo_household_size demo_employment emb_0 emb_1 emb_2 emb_3 emb_4 emb_5 emb_6 emb_7 emb_8 emb_9 qemb_pca_0 qemb_pca_1 qemb_pca_2 qemb_pca_3 qemb_pca_4 qemb_pca_5 qemb_pca_6 qemb_pca_7 qemb_pca_8 qemb_pca_9 qemb_pca_10 qemb_pca_11 qemb_pca_12 qemb_pca_13 qemb_pca_14 qemb_pca_15 qemb_pca_16 qemb_pca_17 qemb_pca_18 qemb_pca_19 qemb_pca_20 qemb_pca_21 qemb_pca_22 qemb_pca_23 qemb_pca_24 qemb_pca_25 qemb_pca_26 qemb_pca_27 qemb_pca_28 qemb_pca_29 qemb_pca_30 qemb_pca_31 qemb_pca_32 qemb_pca_33 qemb_pca_34 qemb_pca_35 qemb_pca_36 qemb_pca_37 qemb_pca_38 qemb_pca_39 qemb_pca_40 qemb_pca_41 qemb_pca_42 qemb_pca_43 qemb_pca_44 qemb_pca_45 qemb_pca_46 qemb_pca_47 qemb_pca_48 qemb_pca_49 question_num_options block_Cognitive_tests block_Demographics block_Economic_preferences block_Personality qtype_MC qtype_Matrix qtype_TE person_construct_mean_loo person_construct_std_loo person_construct_percentile_loo construct_answers_available has_multi_item_construct cat_verbal cat_finlit cat_logical cat_games cat_framing cat_selfconcept cat_demographics cat_other
feature_infos=[536:537] [0:6] none [178:179] [64:65] none none none [21:22] [20:21] [0.44838592410087585:0.73608267307281494] [0.16133671998977661:0.34511783719062805] [0.02760736271739006:0.64417177438735962] [0.1840490847826004:0.81901842355728149] [2.2638037204742432:3.8282208442687988] [0.53846156597137451:1] [0.22272726893424988:0.80909091234207153] none [0.24444444477558136:0.86666667461395264] none [0.3571428656578064:0.91428571939468384] [9:10] [0.25462964177131653:0.9861111044883728] [18:24] [0.25:0.7638888955116272] none [0.5:0.92307692766189575] none [0.26666668057441711:1] none [0.25:0.82142859697341919] none [0:48] [0.43000000715255737:0.77999997138977051] none [0.26249998807907104:0.96249997615814209] none [0.20000000298023224:0.93333333730697632] none [0.20000000298023224:1] none [0.3333333432674408:1] none [0.20000000298023224:0.91666668653488159] none [0.3333333432674408:0.98666667938232422] none [0.23333333432674408:0.96666663885116577] none [1:11] [1:5] [1:5] [1:5] [1:2] [1:6] [1:6] [1:16] [1:8.5] [0:1] [1:2] [0:9] [0:1] [0:4] [3:4] [0:8] none [2:8] none none none none [0:4] [1:4] [7:20] [1:4] [1:2] [1:4] [1:6] [1:5] none [1:6] [1:12] [1:6] [1:4] [1:5] [1:5] [1:5] [1:7] [-18.468034744262695:13.981993675231934] [-14.723208427429199:10.627040863037109] [-10.310186386108398:11.699763298034668] [-7.8283696174621582:10.310257911682129] [-9.6072807312011719:9.2328338623046875] [-8.0900363922119141:16.57765007019043] [-7.335780143737793:5.8458571434020996] [-8.3878936767578125:6.4226036071777344] [-8.4518289566040039:7.699770450592041] [-5.4553799629211426:5.9361748695373535] [0.21435566246509552:0.58323585987091064] [-0.15548835694789886:0.13614630699157715] [-0.34417185187339783:0.17283414304256439] [0.0045702466741204262:0.47092744708061218] [0.083320550620555878:0.4026590883731842] [-0.57982844114303589:0.29715830087661743] [-0.27898731827735901:0.1298278421163559] [-0.26077136397361755:0.39126989245414734] [-0.36997973918914795:0.24143196642398834] [-0.21559526026248932:0.23132814466953278] [-0.23216432332992554:0.40355625748634338] [-0.2479991614818573:0.18549348413944244] [-0.48715069890022278:0.25973606109619141] [-0.1673416942358017:0.24033196270465851] [-0.40194040536880493:0.16134847700595856] [-0.21392902731895447:0.2151462584733963] [-0.20027640461921692:0.12889865040779114] [-0.20013804733753204:0.36453038454055786] [-0.23796392977237701:0.09523475170135498] [-0.16047894954681396:0.11906126141548157] [-0.20305190980434418:0.13814705610275269] [-0.21682819724082947:0.18808360397815704] [-0.076157309114933014:0.2234845906496048] [-0.23186540603637695:0.13853481411933899] [-0.17238546907901764:0.1644359827041626] [-0.14118105173110962:0.20116718113422394] [-0.12256676703691483:0.24920119345188141] [-0.30680257081985474:0.11630620807409286] [-0.17783232033252716:0.16366848349571228] [-0.16517330706119537:0.13596674799919128] [-0.10310249030590057:0.16753076016902924] [-0.15634679794311523:0.16742327809333801] [-0.25024592876434326:0.12192543596029282] [-0.1349065750837326:0.16817319393157959] [-0.14243942499160767:0.16213296353816986] [-0.14811775088310242:0.16593769192695618] [-0.15439772605895996:0.10871454328298569] [-0.10846822708845139:0.14330287277698517] [-0.13608324527740479:0.14471122622489929] [-0.1566297709941864:0.28332358598709106] [-0.11684028059244156:0.14940427243709564] [-0.1206505298614502:0.12299400568008423] [-0.11430462449789047:0.2535451352596283] [-0.18800297379493713:0.093359664082527161] [-0.10333319008350372:0.10665695369243622] [-0.13052353262901306:0.071777738630771637] [-0.091048859059810638:0.12428267300128937] [-0.12087934464216232:0.1637197732925415] [-0.10313361138105392:0.098596915602684021] [-0.081984423100948334:0.07647637277841568] [0:2] [0:1] [0:1] [0:1] none [0:1] none [0:1] none none none none [0:1] none [0:1] [0:1] [0:1] [0:1] [0:1] [0:1] none
tree_sizes=3407 3418 3419 3450 3428 3432 3450 3442 3455 3441 3436 3444 3450 3454 3449 3432 3451 3444 3454 3446 3446 3435 3453 3473 3448 3452 3434 3463 3453 3452 3455 3449 3438 3463 3463 3451 3448 3456 3456 3439 3458 3467 3449 3476 3457 3356 3023 3434 3456 3451 3444 3342 3456 3424 3439 3131 3468 2616 3446 2921 2273 3111 3030 2274 3442 3452 3439 3454 3132 2171 3443 3460 2925 2829 2087 3255 3251 2085 1871 2293 3008 2291 3465 1436 3450 3236 3457 1954 3474 3463 2061 3462 3457 3461 2092 3460 2191 3453 2603 2945 3456 3260 2944 3424 2613 2190 2704 3452 2267 2615 2709 3443 3225 3439 2940 3470 3448 2837 3009 2937 2933 3437 2841 3404 2841 3458 3450 3464 3482 3459 3470 3473 2310 3477 3470 2941 3482 3450 2840 2815 3192 2611 3451 3453 3451 3135 3036 3445 2501 2821 3459 3428 2836 3462 3451 2404 3472 3461 2731 2735 2841 3239 3451 2943 2204 2501 2510 3267 1759 3159 3485 2691 3461 3260 3265 3270 2205 3272 3445 3450 3437 3368 2514 3467 3360 3461 2187 3434 3468 3470 3469 3456 3370 3353 2733 3163 2574 1664 3444 3456 3452 2409 3145 3053 2598 3482 3464 3241 3483 3469 3426 3119 2633 3439 3443 3495 3445 2081 3460 3489 3444 3142 3449 2723 2848 2845 3473 2416 3496 3367 3010 2186 3473 3473 3452 2064 3462 3455 3456 3498 3455 3441 3447 3463 3458 3433 2415 3476 3143 3459 3461 3032 3434 3452 3134 3261 3339 3381 3462 3471 2817 1986 3481 3477 3437 2693 3471 3491 3450 3457 3459 3253 3457 3440 3460 3443 3464 3464 3477 3428 3446 3464 3459 3494 3239 3423 3462 3457 3448 3483 3467 3446 3455 3468 3461 3483 3480 3470 3486 3474

Tree=0
num_leaves=31
num_cat=0
split_feature=142 135 112 58 100 98 113 107 98 119 75 98 58 99 98 58 90 92 90 97 58 124 100 64 66 98 64 90 66 96
split_gain=776.271 567.428 348.187 114.055 84.018 76.8697 60.5178 66.666 58.9946 57.8915 86.9819 119.566 72.3889 129.228 54.4911 41.595 38.8015 38.7561 34.468 32.1431 31.5125 33.5103 31.0282 30.8387 30.5085 26.0205 35.7814 25.6471 21.7222 25.6927
threshold=-0.023044350557029244 -0.0055147270904853931 -0.25937110185623163 0.25000000745058065 -0.24663998931646344 0.56980782747268688 0.16413297504186633 0.17239796370267871 0.57990366220474254 0.09015956893563272 1.5000000000000002 0.41136051714420324 1.0000000180025095e-35 -0.074648797512054429 0.41136051714420324 0.41666667163372045 1.7413526773452761 1.4067299365997317 0.56380629539489757 3.3362609148025517 0.41666667163372045 -0.077553775161504732 -0.072153892368078218 5.5000000000000009 5.5000000000000009 0.55848750472068798 6.5000000000000009 1.2309752106666567 7.5000000000000009 -1.0685092806816099
decision_type=2 2 2 2 2 2 2 2 2 2 2 2 2 2 2 2 2 2 2 2 2 2 2 2 2 2 2 2 2 2
left_child=1 9 5 8 -5 23 7 20 -3 12 11 24 13 -1 16 22 -12 19 -19 -9 -4 -22 -6 -2 -11 26 -14 -10 29 -8
right_child=2 3 6 4 15 -7 28 17 27 10 14 -13 25 -15 -16 -17 -18 18 -20 -21 21 -23 -24 -25 -26 -27 -28 -29 -30 -31
leaf_value=-0.98976787976425529 -0.87265511132432994 -0.98861119302389289 -0.98060218838569191 -0.78689860645070353 -0.98341600398350881 -0.82635083456816261 -0.89496922195411599 -0.96271695431557047 -0.93598106564997074 -0.94235310566075059 -0.79634698400634385 -0.99000491163872772 -0.84389677841430744 -0.81005920876416071 -0.7459722715903242 -0.85121356443410334 -0.93118132194110925 -0.77773257465448453 -0.94666072741227048 -0.82232302008345093 -0.88305569259086181 -0.96375397530866191 -0.88828343822131739 -0.92995596460204832 -0.81016651619832869 -0.77012549924184182 -0.77192122121623674 -0.82828360652874922 -0.84458664378804138 -0.95302862827210877
leaf_weight=14.056063324213026 41.96447890996933 87.188334822654724 463.44266757369041 15.889462888240812 22.611927956342694 46.853544414043427 27.704704523086548 27.297282397747043 17.51915138959885 5.2964876294136074 11.000397384166719 21.797083705663681 41.557056784629822 34.019747465848923 20.371106266975403 16.093173950910568 10.1855531334877 8.1484425067901594 4.6853544414043418 4.6853544414043418 16.70430713891983 54.59456479549408 13.648641198873522 52.964876294136047 23.223061144351959 72.31742724776268 30.35294833779335 7.9447314441204062 7.1298871934413901 60.298474550247192
leaf_count=69 206 428 2275 78 111 230 136 134 86 26 54 107 204 167 100 79 50 40 23 23 82 268 67 260 114 355 149 39 35 296
internal_value=-0.920523 -0.868968 -0.949892 -0.938175 -0.887217 -0.878695 -0.964861 -0.970928 -0.969069 -0.824915 -0.857743 -0.902085 -0.809285 -0.862688 -0.804288 -0.917908 -0.861034 -0.912416 -0.839323 -0.94183 -0.975837 -0.944787 -0.947549 -0.904628 -0.834793 -0.791554 -0.813317 -0.902248 -0.92786 -0.934714
internal_weight=1281.55 465.072 816.474 180.895 68.2432 141.783 674.691 579.558 112.652 284.177 91.8737 50.3166 192.303 48.0758 41.5571 52.3537 21.186 44.8164 12.8338 31.9826 534.742 71.2989 36.2606 94.9294 28.5195 144.227 71.91 25.4639 95.1331 88.0032
internal_count=6291 2283 4008 888 335 696 3312 2845 553 1395 451 247 944 236 204 257 104 220 63 157 2625 350 178 466 140 708 353 125 467 432
is_linear=0
shrinkage=1


Tree=1
num_leaves=31
num_cat=0
split_feature=113 119 138 119 59 99 58 98 59 98 58 147 113 58 98 99 90 75 98 11 90 10 43 95 15 10 98 93 43 64
split_gain=448.91 381.303 380.454 257.069 125.923 124.842 96.5319 74.1049 104.55 73.4794 60.2339 44.6889 37.3479 37.3254 90.1676 37.4635 34.4851 40.8822 131.895 22.2966 21.8575 23.8031 21.7138 20.7459 19.1098 18.5945 17.134 17.089 21.3832 15.9563
threshold=-0.15709536522626874 0.075942635536193862 0.020282818004488948 0.012600047979503872 1.3750000000000002 -0.13400589674711225 1.0000000180025095e-35 0.57990366220474254 1.6250000000000002 0.45765201747417456 0.41666667163372045 0.01018887374084443 0.19663163274526599 0.25000000745058065 0.56083655357360851 0.088068041950464263 1.7162218093872073 1.5000000000000002 0.41136051714420324 0.30381332337856298 1.5948995351791384 0.63664966821670543 0.42499999701976782 -3.7104227542877193 0.80476191639900219 0.60830169916152965 0.56980782747268688 -1.1673799753189085 0.5416666865348817 5.5000000000000009
decision_type=2 2 2 2 2 2 2 2 2 2 2 2 2 2 2 2 2 2 2 2 2 2 2 2 2 2 2 2 2 2
left_child=4 2 5 13 26 20 -5 23 -9 16 12 -12 -7 15 -15 -4 17 18 -3 24 21 -2 -22 -6 -18 -10 -1 28 -11 -8
right_child=1 9 3 6 7 10 29 8 25 27 11 -13 -14 14 -16 -17 19 -19 -20 -21 22 -23 -24 -25 -26 -27 -28 -29 -30 -31
leaf_value=0.038794205037013321 -0.024362444389972995 0.10784904385401393 -0.055427453024931662 0.0058671272744271197 0.039460745083103196 -0.060369781596940356 0.092717303558813788 -0.040132187308156 0.056165509139664171 0.088861955985273106 0.034581607428949439 -0.040016840143442152 -0.011024781724898146 -0.0147612749655793 0.12019749627022336 0.00075963244021637257 -0.010168949762225689 0.12906617842053206 -0.067934209104085375 -0.046789340312105625 0.025255105647706416 0.071663384330317478 0.13479962276951274 0.13583660234338585 0.067854824407201503 0.16441414511609409 -0.051974822094451749 -0.022661734871560618 -0.029370071893005611 0.14117476820575525
leaf_weight=7.5483068376779583 19.808808535337452 40.199462190270424 57.218302473425865 24.923963457345963 6.1981102228164664 491.12871772050858 31.748228281736374 18.461138099431992 6.2321995347738293 9.3729779124259931 32.769389539957047 51.430487707257271 41.783731862902641 46.332335606217384 16.767602473497391 61.312404051423073 9.9425550103187543 38.304174646735191 14.418834015727041 6.5928921997547141 9.8775218725204486 9.4419339895248395 8.4474053084850294 78.66272234916687 35.822113677859306 12.033921808004377 16.061712101101875 30.863602295517921 6.3059405684471121 40.547582238912582
leaf_count=35 97 189 289 122 29 2477 149 90 30 46 159 256 206 228 78 300 48 178 73 32 48 46 41 368 171 58 77 152 31 188
internal_value=-5.79185e-05 -0.010649 -0.0237165 0.0252905 0.0826909 -0.0442804 0.0908666 0.103199 0.043602 0.0535934 -0.0502988 -0.010948 -0.0565083 -0.00982671 0.0211953 -0.0263663 0.0710986 0.0894043 0.0613585 0.0384541 0.0336744 0.0066874 0.076346 0.128882 0.0508641 0.128124 -0.0228086 -0.00103006 0.0412667 0.120087
internal_weight=1280.56 1135.36 943.538 278.85 145.198 664.688 97.2198 121.588 36.7273 191.823 617.112 84.1999 532.912 181.631 63.0999 118.531 145.28 92.9225 54.6183 52.3576 47.5757 29.2507 18.3249 84.8608 45.7647 18.2661 23.61 46.5425 15.6789 72.2958
internal_count=6291 5604 4684 1354 687 3330 459 575 178 920 3098 415 2683 895 306 589 691 440 262 251 232 143 89 397 219 88 112 229 77 337
is_linear=0
shrinkage=0.05


Tree=2
num_leaves=31
num_cat=0
split_feature=142 135 98 99 139 59 105 59 119 75 98 98 98 130 96 64 98 88 66 96 16 97 93 12 93 33 94 22 88 10
split_gain=622.451 421.561 241.072 108.757 83.289 69.4202 67.8325 74.5073 39.5017 64.035 96.4447 40.413 39.2913 29.2005 26.1762 25.1745 26.962 26.4709 23.9821 19.9682 18.7457 16.266 21.5221 16.8137 15.1342 14.9052 14.7881 24.219 15.746 14.6404
threshold=-0.023044350557029244 -0.0055147270904853931 0.56980782747268688 -0.12235893681645392 0.067537292838096633 1.3750000000000002 -0.16088321059942243 1.6250000000000002 0.09015956893563272 1.5000000000000002 0.41136051714420324 0.41136051714420324 0.57990366220474254 -0.15102855861186978 -1.8282814025878904 5.5000000000000009 0.559129297733307 1.4922366142272951 5.5000000000000009 -4.0815398693084708 0.7022727131843568 1.9606945514678957 1.2888743877410891 0.14263803511857989 -4.5019626617431632 0.66500002145767223 1.0694221854209902 0.67824074625968944 -0.92017698287963856 0.66511425375938427
decision_type=2 2 2 2 2 2 2 2 2 2 2 2 2 2 2 2 2 2 2 2 2 2 2 2 2 2 2 2 2 2
left_child=1 8 3 26 13 -4 19 -8 15 10 18 14 -9 25 -11 16 17 -1 -10 -3 -7 23 -23 -6 -15 -5 27 -2 -29 -17
right_child=2 6 5 4 21 20 7 12 9 11 -12 -13 -14 24 -16 29 -18 -19 -20 -21 -22 22 -24 -25 -26 -27 -28 28 -30 -31
leaf_value=0.080458617523439122 0.0069995433587876259 0.047530974629791348 -0.047530973064789803 -0.028380541410680388 -0.026223101945666051 0.12254983772913158 -0.026938408046654306 0.017273199125551267 -0.023179433079551323 -0.038266518007490022 -0.067458347933623306 0.14444028230107958 0.1158540006290761 0.0098082900158234492 0.082232310969418521 0.11263031864858669 0.11727557798107313 0.015871797749600604 0.092475621365864041 -0.053957670211687229 0.037856456855963082 0.075653752872805 -0.028887447607427237 0.025696353485218759 -0.055515928088415004 0.059506502333226678 -0.0064002418307566372 0.020476856244068961 0.11317093854744564 0.02662614283304636
leaf_weight=43.42378032207489 32.964173972606659 5.0500969737768164 8.9168246984481794 89.508599117398262 48.197773456573486 33.08800320327282 50.217159613966942 21.483777984976768 5.3693845123052624 6.1172754764556911 20.743963062763214 22.573409527540207 19.176700219511986 8.9488386511802656 16.279163673520088 108.53442583978176 25.567942813038826 25.225054144859314 25.101923227310181 81.894681960344315 8.3922694921493513 14.273774370551111 7.3794574290513983 22.897440254688263 453.52919812500477 4.9897076785564414 42.258517190814018 7.6284204125404385 11.864413782954214 5.3405704796314231
leaf_count=200 161 25 43 453 237 149 249 105 26 29 107 100 88 46 75 489 114 117 114 421 38 69 36 112 2339 25 206 37 57 24
internal_value=-0.000105259 0.0447113 -0.0272935 -0.0344632 -0.0417603 0.0784222 -0.0164331 0.0137467 0.0804465 0.0537895 0.0154474 0.0972698 0.0639984 -0.0490645 0.0491848 0.0927243 0.0733596 0.0568201 0.072005 -0.0479863 0.105607 0.00208189 0.039942 -0.00945382 -0.0542447 -0.0236555 0.0155577 0.0332727 0.0773128 0.108646
internal_weight=1276.94 482.099 794.837 744.44 649.725 50.3971 177.822 90.8776 304.277 96.1851 51.2153 44.9698 40.6605 556.976 22.3964 208.092 94.2168 68.6488 30.4713 86.9448 41.4803 92.7484 21.6532 71.0952 462.478 94.4983 94.7155 52.457 19.4928 113.875
internal_count=6291 2283 4008 3778 3317 230 888 442 1395 451 247 204 193 2863 104 944 431 317 140 446 187 454 105 349 2385 478 461 255 94 513
is_linear=0
shrinkage=0.05


Tree=3
num_leaves=31
num_cat=0
split_feature=142 135 107 99 58 138 59 100 100 59 96 58 101 58 99 92 113 100 74 64 100 16 43 91 111 92 91 45 35 47
split_gain=560.339 367.468 217.142 101.112 96.5415 78.4807 60.03 59.6922 50.1325 65.2495 36.6252 34.6463 32.0643 36.8544 82.0771 30.7466 28.1403 20.594 20.1125 18.6974 18.5803 15.5456 15.2794 16.0458 15.0621 14.9076 14.136 13.4185 17.5497 12.7223
threshold=-0.023044350557029244 -0.0055147270904853931 0.20201052725315097 -0.12235893681645392 0.25000000745058065 0.040917091071605689 1.3750000000000002 -0.24663998931646344 -0.072153892368078218 1.6250000000000002 -1.8282814025878904 0.58333334326744091 0.22488713264465335 1.0000000180025095e-35 -0.074648797512054429 -3.6542853116989131 0.19663163274526599 -0.072153892368078218 2.5000000000000004 5.5000000000000009 1.0000000180025095e-35 0.7022727131843568 0.27500000596046453 -1.6865255832672117 -0.066212456673383699 -4.7050197124481192 -0.093186315149068819 0.68666666746139537 0.70624998211860668 0.51666668057441723
decision_type=2 2 2 2 2 2 2 2 2 2 2 2 2 2 2 2 2 2 2 2 2 2 2 2 2 2 2 2 2 2
left_child=1 10 3 25 8 15 -4 -6 -3 -10 18 17 26 14 -14 20 -17 -9 -1 -15 -5 -8 -7 -24 -20 -2 29 -27 -29 -12
right_child=2 4 6 5 7 22 21 11 9 -11 12 -13 13 19 -16 16 -18 -19 24 -21 -22 -23 23 -25 -26 27 -28 28 -30 -31
leaf_value=0.079682040956429889 0.095465043860629609 -0.064982786007013585 -0.046111162479708617 -0.05365956774373612 0.10981166571796391 0.079209676857219857 0.11204524190785498 -0.034612024487086661 -0.046612097465065616 0.11628744516119545 0.0048486302986269362 0.13389830453747284 -0.06943971272486564 0.079944154192859787 0.086943707777890761 -0.055573593331302788 -0.012478680045566279 0.033706286668747511 -0.049143089972899699 0.11420156884601207 0.0062372838451175416 0.035529382855473239 -0.036421877298444011 0.010567065260670491 0.032238851453952014 -0.014710962694647167 0.0022177283942242552 -0.0116671265525657 0.046374668756812523 0.094066291441642899
leaf_weight=20.055149868130684 5.2964290231466284 80.880461022257805 8.739443972706793 19.157459869980812 17.45858570933342 5.8914415985345832 34.354517564177513 30.045747011899945 16.208705842494965 9.7609177678823489 5.8490527123212841 4.5149196386337271 10.878068491816519 68.11059096455574 35.495661079883575 443.85958315432072 41.654654338955879 17.275666415691379 6.7722133994102469 103.44706907868385 39.287023961544037 8.4985441863536817 25.707664266228676 61.195066928863525 32.534998312592506 34.332769691944122 15.550461202859877 20.506895422935486 35.153360232710838 13.019550830125807
leaf_count=89 25 428 43 101 78 28 149 155 82 43 29 21 53 303 158 2348 209 81 32 448 205 38 127 299 148 168 77 100 168 58
internal_value=-0.000138437 0.0419224 -0.0263289 -0.0333211 -0.0157876 -0.0405099 0.0727063 0.0301295 -0.0455897 0.0147305 0.0745362 0.00308443 0.0828616 0.0899562 0.050136 -0.0477589 -0.0518847 -0.0095998 0.0390229 0.10067 -0.0134117 0.097047 0.00196272 -0.00333041 0.018065 0.0146827 0.0377374 0.00979988 0.0249629 0.066713
internal_weight=1271.49 487.858 783.635 732.042 176.145 636.753 51.5925 69.2949 106.85 25.9696 311.713 51.8363 252.35 217.931 46.3737 543.959 485.514 47.3214 59.3624 171.558 58.4445 42.8531 92.7942 86.9027 39.3072 95.2895 34.4191 89.993 55.6603 18.8686
internal_count=6291 2283 4008 3778 888 3317 230 335 553 125 1395 257 1126 962 211 2863 2557 236 269 751 306 187 454 426 180 461 164 436 268 87
is_linear=0
shrinkage=0.05


Tree=4
num_leaves=31
num_cat=0
split_feature=142 101 112 120 75 98 59 98 113 107 98 59 96 66 92 89 100 95 59 92 98 66 96 95 95 96 100 50 84 94
split_gain=505.794 322.557 248.471 51.9903 75.1697 52.0643 51.7417 52.2061 47.4154 54.5214 40.7681 65.4423 39.0163 34.0705 29.9317 28.1766 27.1942 26.6783 25.0969 23.9815 20.2081 19.5077 22.6969 19.2013 18.9467 17.8173 17.0921 16.5778 15.7099 15.1201
threshold=-0.023044350557029244 0.45018355548381811 -0.25937110185623163 0.092248395085334792 1.5000000000000002 0.57990366220474254 1.3750000000000002 0.56980782747268688 0.16413297504186633 0.17239796370267871 0.57990366220474254 1.6250000000000002 -1.8282814025878904 5.5000000000000009 -3.6542853116989131 2.5911346673965459 -0.24663998931646344 0.37754458189010626 1.6250000000000002 1.4067299365997317 0.55848750472068798 7.5000000000000009 -1.0685092806816099 -2.4076422452926631 -4.7597756385803214 -4.0815398693084708 0.027318941429257396 2.5000000000000004 2.5000000000000004 1.2499597072601321
decision_type=2 2 2 2 2 2 2 2 2 2 2 2 2 2 2 2 2 2 2 2 2 2 2 2 2 2 2 2 2 2
left_child=1 3 6 12 10 -6 -2 17 9 14 -5 -12 20 -11 26 -14 -3 27 -7 -15 23 22 -10 -1 -16 -18 -4 -8 -17 -19
right_child=2 16 8 4 5 18 7 -9 21 13 11 -13 15 19 24 28 25 29 -20 -21 -22 -23 -24 -25 -26 -27 -28 -29 -30 -31
leaf_value=0.091790463466151925 -0.030441194004438635 0.0022993162961560216 -0.052406751215637697 -0.066658683430735513 0.12720765285001026 -0.037970982081902659 0.012872495439782167 0.089882794870436447 0.023709390275611059 -0.060921700271394409 -0.043841692191512974 0.11424435430826506 0.092455111076987617 0.00269753102995611 0.0039077775084916241 0.10693698458666973 0.043632956412246633 0.02260550978067255 0.077930881463618873 0.092855626416452008 0.07647335048364301 0.071289841078071112 -0.030832038697123657 -0.0073690603824004206 -0.056211336394528168 -0.05146613978766415 0.0071269458908631419 0.071965457041894818 0.033277876612011592 -0.047698471180161406
leaf_weight=5.8713006228208533 26.664709091186523 46.276133075356483 18.65001018345356 20.2808748036623 23.801500141620636 10.030729845166206 22.090213239192963 43.934852138161659 28.027432784438133 12.847669243812559 14.400807648897171 11.826233625411987 177.42273162305355 20.635744750499725 13.436166405677794 9.049487963318823 5.1552199423313132 14.26441538333893 8.5524185448884964 11.436242207884787 18.332050800323486 7.3021872490644446 59.006610408425331 26.53443543612957 418.16918085515499 77.771401539444923 33.55838006734848 25.985951364040375 36.646970689296722 16.207770854234695
leaf_count=26 131 230 101 107 100 51 107 187 136 64 73 51 763 102 72 39 25 68 37 54 80 35 296 120 2276 421 176 123 160 80
internal_value=-0.000166673 0.0394512 -0.0254109 0.0636113 0.0302921 0.0783829 0.0325332 0.0462769 -0.0392883 -0.0451143 -0.0135556 0.0275103 0.0744024 0.00751552 -0.0500065 0.083412 -0.0283583 0.0217715 0.0153677 0.0351125 0.0346474 -0.00659484 -0.0132324 0.010747 -0.0543335 -0.0454787 -0.0141516 0.0449482 0.0481212 -0.0147402
internal_weight=1264.17 491.952 772.218 362.75 88.8926 42.3846 149.148 122.483 623.07 528.733 46.5079 26.227 273.857 44.9197 483.814 223.119 129.203 78.5484 18.5831 32.072 50.7378 94.3362 87.034 32.4057 431.605 82.9266 52.2084 48.0762 45.6965 30.4722
internal_count=6291 2283 4008 1607 419 188 696 565 3312 2845 231 124 1188 220 2625 962 676 378 88 156 226 467 432 146 2348 446 277 230 199 148
is_linear=0
shrinkage=0.05


Tree=5
num_leaves=31
num_cat=0
split_feature=142 101 98 58 99 139 100 59 118 58 64 98 58 92 90 59 98 98 90 89 100 10 97 93 13 16 92 10 94 61
split_gain=457.609 286.266 177.406 101.331 89.0234 68.927 60.3753 46.67 44.3299 41.4781 35.0474 33.0471 35.9928 28.1388 26.5005 21.3844 42.0316 23.0419 21.2371 19.054 16.1391 14.1247 13.8836 17.2919 14.6521 13.1485 12.57 14.5564 17.7219 14.1676
threshold=-0.023044350557029244 0.45018355548381811 0.56980782747268688 0.25000000745058065 -0.12235893681645392 0.067537292838096633 -0.24663998931646344 1.3750000000000002 -0.018747185356914994 0.41666667163372045 6.5000000000000009 0.559129297733307 1.0000000180025095e-35 -3.6542853116989131 7.0694007873535165 1.6250000000000002 0.57990366220474254 0.57990366220474254 5.9745090007781991 0.8472304940223695 1.0000000180025095e-35 0.60830169916152965 1.9606945514678957 1.2888743877410891 0.38190183043479925 0.7022727131843568 -4.7050197124481192 0.63017901778221141 1.0842711925506594 0.5000000149011613
decision_type=2 2 2 2 2 2 2 2 2 2 2 2 2 2 2 2 2 2 2 2 2 2 2 2 2 2 2 2 2 2
left_child=1 8 4 -3 26 13 -5 -4 15 -8 11 12 -10 20 -15 16 -1 -17 -12 -11 -6 -19 24 -24 -7 -9 -2 29 -29 -28
right_child=2 3 7 6 5 22 9 25 10 19 18 -13 -14 14 -16 17 -18 21 -20 -21 -22 -23 23 -25 -26 -27 27 28 -30 -31
leaf_value=0.049301886914263224 0.086249976074026569 -0.063382118914159916 -0.043851471390933032 0.10073883145125635 -0.051204234698706191 0.022813540327273653 -0.057520741326399984 0.097095204244590907 -0.0010591012378874929 0.11272248084835164 0.095806145781888535 0.097152147195635197 0.058589663788596119 -0.052205030913992936 0.0023089196045542521 0.01179281630385403 -0.040425699169461496 0.033375449417539109 -0.0087156409492942961 -0.012322132592329636 0.0055915375278522582 0.12153245920164052 0.066507743869589145 -0.027120894878070748 -0.02537276908234198 0.028160493245814849 -0.021532564283233992 0.06498804756766334 -0.0023978071998776774 0.043507929190176153
leaf_weight=28.400303319096565 5.5134765654802314 77.022214442491531 8.444896996021269 18.051612883806229 18.14875403046608 23.473364010453224 19.990988940000534 35.996649116277695 34.157796233892441 6.9567782133817655 107.05810460448265 36.094444066286087 96.389826908707619 437.29444172978401 23.38978698849678 15.584265217185019 23.963597312569618 7.0112933516502407 5.0282828509807578 5.2710257768630981 39.515490740537643 13.865555629134176 14.930660143494608 7.2264228016138068 47.443788647651672 8.8194952607154828 41.192677855491638 19.882499843835831 18.91850808262825 10.389386162161825
leaf_count=131 25 428 43 78 101 114 111 149 154 33 447 150 415 2429 128 76 124 30 22 26 205 58 69 36 235 38 202 93 91 50
internal_value=-0.000190113 0.0372284 -0.0245402 -0.027364 -0.0311711 -0.0381963 0.0277881 0.0633661 0.0596064 -0.0131927 0.0694158 0.0547756 0.0429746 -0.045309 -0.0494319 0.0287535 0.00819289 0.0581102 0.0910913 0.0589541 -0.0122983 0.0923452 0.00139449 0.0358742 -0.00937838 0.0836779 0.0135882 0.00903766 0.0321462 -0.00832524
internal_weight=1255.43 494.846 760.58 127.293 707.319 611.423 50.2704 53.261 367.553 32.2188 278.728 166.642 130.548 518.348 460.684 88.825 52.3639 36.4611 112.086 12.2278 57.6642 20.8768 93.0742 22.1571 70.9172 44.8161 95.8965 90.3831 38.801 51.5821
internal_count=6291 2283 4008 676 3778 3317 248 230 1607 170 1188 719 569 2863 2557 419 255 164 469 59 306 88 454 105 349 187 461 436 184 252
is_linear=0
shrinkage=0.05


Tree=6
num_leaves=31
num_cat=0
split_feature=142 101 112 58 100 113 121 59 101 118 75 99 99 59 58 64 96 58 124 58 99 66 97 89 92 66 96 99 95 92
split_gain=414.722 254.868 211.555 94.6544 52.9179 43.6186 48.9862 43.1902 39.0875 38.652 65.7714 43.9103 37.9196 52.4087 37.8561 31.9881 31.9713 31.5817 32.0568 27.5973 69.8297 23.7247 25.3985 20.4784 18.819 17.7316 20.294 16.7582 16.9222 16.5024
threshold=-0.023044350557029244 0.45018355548381811 -0.25937110185623163 0.25000000745058065 -0.24663998931646344 0.16413297504186633 0.10433546826243402 1.3750000000000002 0.20560274273157123 -0.018747185356914994 1.5000000000000002 -0.056856609880924218 -0.056856609880924218 1.6250000000000002 0.41666667163372045 5.5000000000000009 -1.8282814025878904 0.41666667163372045 -0.077553775161504732 1.0000000180025095e-35 -0.074648797512054429 5.5000000000000009 -1.2160703539848325 -0.96246856451034535 -3.6542853116989131 7.5000000000000009 -1.0685092806816099 0.056420171633362777 -2.4076422452926631 1.4067299365997317
decision_type=2 2 2 2 2 2 2 2 2 2 2 2 2 2 2 2 2 2 2 2 2 2 2 2 2 2 2 2 2 2
left_child=1 9 7 -3 -5 6 17 -2 21 10 12 23 13 -1 -6 29 27 24 -19 20 -18 -9 -23 -12 -4 26 -7 -11 -29 -8
right_child=2 3 5 4 14 25 15 8 -10 16 11 -13 -14 -15 -16 -17 19 18 -20 -21 -22 22 -24 -25 -26 -27 -28 28 -30 -31
leaf_value=-0.04134702711620767 -0.029055710988052427 -0.062364319853233902 -0.022104093774444833 0.093309438380650242 -0.056414975987154274 0.022589474794755472 -0.064590129065525123 0.062756040740182206 0.07838398010946572 0.066783079525831471 -0.055990253846165142 0.11537184014926211 -0.066075556754050205 0.099812815694901982 0.054796820420620854 0.044874537126093822 -0.070460199031112572 0.046760750870658202 -0.035257448688402797 0.081997105744109719 0.071914768201879864 0.051032732637238655 -0.020638010913682205 0.052656822017272731 -0.056866089713379024 0.067945134010163832 -0.029072592077764151 0.082378904536464279 -0.0093033217621750659 0.041223527837698358
leaf_weight=13.836828649044037 26.186117887496948 74.432621404528618 44.25157667696476 18.509713649749756 19.381167843937877 28.203765332698822 15.483118042349817 23.056162521243095 45.443001538515091 18.955461874604225 6.690859884023669 24.509452953934669 19.935638293623924 12.33742293715477 12.49142564833164 24.805370345711708 11.068155065178869 15.699659481644629 48.206996634602547 181.98760667443275 37.490824311971664 18.189180687069893 38.015564277768135 11.871465370059012 351.63453520834446 7.4277388602495185 57.628254383802414 6.0820648074150077 26.865295827388763 4.7194910347461692
leaf_count=73 131 428 240 78 111 136 79 107 187 80 33 100 107 51 59 119 53 82 268 751 158 86 185 55 2035 35 296 26 120 22
internal_value=-0.00020892 0.0352243 -0.0237009 -0.0265643 0.0262944 -0.0370497 -0.0428534 0.0291806 0.041443 0.0559847 0.027197 0.0715605 -0.0142545 0.0252212 -0.0127159 0.00686747 0.0650526 -0.0477263 -0.0150278 0.0730428 0.0393334 0.0201599 0.00256137 0.0132704 -0.0529933 -0.0055963 -0.0120612 0.0294405 0.00774358 -0.0396668
internal_weight=1245.4 496.446 748.951 124.815 50.3823 598.061 504.801 150.89 124.704 371.631 89.1817 43.0718 46.1099 26.1743 31.8726 45.008 282.449 459.793 63.9067 230.547 48.559 79.2609 56.2047 18.5623 395.886 93.2598 85.832 51.9028 32.9474 20.2026
internal_count=6291 2283 4008 676 248 3312 2845 696 565 1607 419 188 231 124 170 220 1188 2625 350 962 211 378 271 88 2275 467 432 226 146 101
is_linear=0
shrinkage=0.05


Tree=7
num_leaves=31
num_cat=0
split_feature=142 145 112 58 104 113 107 58 118 89 58 132 99 64 96 96 92 93 71 98 33 90 89 95 71 92 28 88 12 95
split_gain=376.852 228.166 194.727 88.5439 46.7057 41.3711 46.2735 34.6225 33.5051 30.6246 30.447 29.0343 28.9541 28.8126 22.8592 21.6155 18.3791 17.4034 17.2111 25.9939 16.6768 16.5642 15.983 15.6039 15.5982 15.3807 15.3451 15.3184 14.5019 14.0709
threshold=-0.023044350557029244 -0.025157573632895943 -0.25937110185623163 0.25000000745058065 0.10267922282218934 0.16413297504186633 0.17239796370267871 0.41666667163372045 -0.018747185356914994 2.4551398754119877 0.41666667163372045 0.062773270532488837 0.088068041950464263 5.5000000000000009 -2.5509369373321529 -3.3950814008712764 -3.6542853116989131 -1.1673799753189085 2.5000000000000004 0.25019858032464987 0.54500001668930065 -0.72120463848114003 0.8472304940223695 0.32005196809768682 2.5000000000000004 1.4067299365997317 0.60833334922790538 2.5658059120178227 0.078220859169960036 -3.7104227542877193
decision_type=2 2 2 2 2 2 2 2 2 2 2 2 2 2 2 2 2 2 2 2 2 2 2 2 2 2 2 2 2 2
left_child=1 3 12 -1 7 6 10 -5 21 14 16 -12 29 25 -10 -14 -4 24 19 -11 -17 26 -9 -22 28 -8 -3 -15 -7 -2
right_child=2 8 5 4 -6 17 13 22 9 18 11 -13 15 27 -16 20 -18 -19 -20 -21 23 -23 -24 -25 -26 -27 -28 -29 -30 -31
leaf_value=-0.061414146530532288 -0.020748862551900154 0.041317603293640981 -0.021246916777874582 -0.055360417675801826 0.086970967177553926 0.12076522234053583 -0.063331795242980382 0.098311876248001251 0.024900722579811449 -0.030828570877571446 -0.034150731837328488 0.043443616113606573 0.10215626354904575 0.070724340504728825 0.076322681867688855 0.071929981776419349 -0.055834551483178743 -0.021061217793225312 0.065715194289773057 0.046211723826662061 0.0027619113020862524 0.045139270350822241 -0.014173362516242356 -0.060455690784687127 -0.015419578070783153 0.038640244177658614 -0.022845111356362181 -0.01021310807039158 0.024200591670450501 0.047839360533007996
leaf_weight=71.871531173586845 8.0048926025629026 14.972339555621145 43.752018839120865 18.780052900314335 18.8632592856884 5.63426545262337 15.015090227127077 7.3799934387207013 24.67034500837326 18.923108071088791 47.30721826851368 16.051624953746796 4.2303500920534125 16.255843967199329 191.40557299554348 4.8074486255645743 340.50941941142082 60.851429626345634 24.465944603085518 25.650833249092102 21.492392033338547 49.490547612309456 5.3664878308773041 17.662142962217331 13.849935069680212 4.7881052047014228 24.29677602648735 8.9850838333368284 12.584916919469832 95.390110462903976
leaf_count=428 36 69 240 111 78 27 79 33 107 83 268 82 20 76 788 23 2035 309 102 108 103 226 26 88 69 22 124 43 62 426
internal_value=-0.000229192 0.0334551 -0.0229045 -0.0258099 0.0249444 -0.0359802 -0.0417516 -0.0122465 0.0528438 0.0612025 -0.0466124 -0.0144157 0.0275811 0.00649212 0.0704774 -0.00437588 -0.0519095 -0.00534109 0.0320783 0.0134538 -0.0148925 0.0259273 0.0510174 -0.0257725 0.024383 -0.0384807 0.00159785 0.0418875 0.0546958 0.0424902
internal_weight=1233.31 496.137 737.172 122.261 50.3898 585.585 492.664 31.5265 373.875 285.116 447.62 63.3588 151.587 45.0441 216.076 48.1923 384.261 92.9205 69.0399 44.5739 43.962 88.7597 12.7465 39.1545 32.0691 19.8032 39.2691 25.2409 18.2192 103.395
internal_count=6291 2283 4008 676 248 3312 2845 170 1607 1188 2625 350 696 220 895 234 2275 467 293 191 214 419 59 191 158 101 193 119 89 462
is_linear=0
shrinkage=0.05


Tree=8
num_leaves=31
num_cat=0
split_feature=142 101 112 58 100 59 139 107 98 58 131 58 99 66 58 121 95 97 64 98 94 95 92 89 41 51 71 94 93 99
split_gain=342.376 204.06 179.286 82.9115 41.4635 37.7732 36.9024 46.4693 33.4365 31.7543 29.9349 49.5927 72.2416 27.9347 22.1637 23.1634 20.8672 20.1591 17.7286 30.8782 15.4237 14.984 14.6379 13.8714 12.9759 12.8888 19.3412 12.5901 11.9935 11.7831
threshold=-0.023044350557029244 0.45018355548381811 -0.25937110185623163 0.25000000745058065 -0.24663998931646344 1.3750000000000002 -0.086043756455183015 0.17239796370267871 0.56980782747268688 0.41666667163372045 -0.024595419876277443 1.0000000180025095e-35 -0.074648797512054429 5.5000000000000009 0.41666667163372045 1.0000000180025095e-35 0.37754458189010626 1.1641748547554018 5.5000000000000009 0.41136051714420324 3.5862126350402836 0.064047573134303107 -3.6542853116989131 0.8472304940223695 0.66025641560554515 3.5000000000000004 2.5000000000000004 1.2499597072601321 -0.91244557499885548 -0.074648797512054429
decision_type=2 2 2 2 2 2 2 2 2 2 2 2 2 2 2 2 2 2 2 2 2 2 2 2 2 2 2 2 2 2
left_child=1 10 5 -3 -5 -2 20 14 16 -6 11 12 -1 -9 22 -16 21 -15 24 -20 25 -7 -8 -11 -12 26 -4 -18 -27 -13
right_child=2 3 6 4 9 8 7 13 -10 23 18 29 -14 17 15 -17 27 -19 19 -21 -22 -23 -24 -25 -26 28 -28 -29 -30 -31
leaf_value=-0.07170643616177888 -0.028671604535388973 -0.060524576315674455 -0.0085534567487498044 0.081483779543167198 -0.054351153261991317 0.027127666959939858 -0.023544740810976655 -0.058424745093949848 0.071217821118372146 0.090763643389834628 0.043641915943371516 0.10240074645869093 0.065165338440579743 0.00027367133369214858 -0.045003665249619754 0.019100788571186082 0.018359555962643628 0.081520731548808012 0.073749853934081011 0.019389326493731308 0.050029305688700211 0.11026976661515001 -0.056144710829481997 -0.013558100072901778 0.0056584472819757453 0.066354117708701185 -0.054737973996854088 -0.045842818789538844 -0.0097964759452719638 0.06971711950485901
leaf_weight=14.644146680831907 26.048971593379974 69.347003683447838 67.985975742340088 19.126271158456802 18.189247772097591 43.904545098543167 39.486402899026871 12.109207838773726 46.136388406157494 7.5963908880949003 37.2608263194561 41.400348484516144 27.725325286388397 20.928135022521019 34.315118074417114 23.721821337938309 14.612774938344957 11.976714134216307 61.311061814427376 45.88447193801403 9.2458008676767331 6.1419926285743704 297.40055270493031 5.3348789811134338 57.014153152704239 8.0321574062109011 34.071094706654549 15.720864430069922 14.023038327693937 91.381905302405357
leaf_count=69 131 428 358 78 111 202 220 64 187 33 162 167 114 102 200 126 68 54 250 219 48 28 1839 26 255 41 185 80 75 371
internal_value=-0.000244588 0.0317581 -0.0221272 -0.0251124 0.0237345 0.026021 -0.0349471 -0.0419327 0.0373154 -0.0118248 0.0498255 0.0649695 0.0177421 0.00613861 -0.0474185 -0.018771 0.0177608 0.0300791 0.0366216 0.0505442 -0.011869 0.0375807 -0.0523392 0.0477594 0.0207277 -0.0165369 -0.0240348 -0.0148734 0.0179979 0.0799958
internal_weight=1222.08 496.216 725.862 119.594 50.2468 152.566 573.296 439.938 126.517 31.1205 376.622 175.152 42.3695 45.0141 394.924 58.0369 80.3802 32.9048 201.471 107.196 133.358 50.0465 336.887 12.9313 94.275 124.112 102.057 30.3336 22.0552 132.782
internal_count=6291 2283 4008 676 248 696 3312 2605 565 170 1607 721 183 220 2385 326 378 156 886 469 707 230 2059 59 417 659 543 148 116 538
is_linear=0
shrinkage=0.05


Tree=9
num_leaves=31
num_cat=0
split_feature=142 101 112 58 100 59 112 98 58 145 92 66 131 58 100 43 96 66 66 98 58 100 33 88 98 75 64 57 13 98
split_gain=311.635 183.141 165.157 77.7167 36.9859 33.9515 31.5192 29.9734 29.1858 28.8301 30.8126 30.1405 27.0981 43.9691 65.6878 20.6223 19.4768 19.4389 18.3424 17.7128 15.2606 22.7692 14.5348 13.5322 13.459 38.5464 19.8874 13.3869 12.347 11.7926
threshold=-0.023044350557029244 0.45018355548381811 -0.25937110185623163 0.25000000745058065 -0.24663998931646344 1.3750000000000002 0.09725742414593698 0.56980782747268688 0.41666667163372045 0.055855277925729759 -4.7050197124481192 7.5000000000000009 -0.024595419876277443 1.0000000180025095e-35 -0.10942928493022917 0.60833334922790538 -1.182067275047302 5.5000000000000009 5.5000000000000009 0.45765201747417456 0.41666667163372045 -0.18828493356704709 0.53499999642372142 1.4781901836395266 0.41136051714420324 1.5000000000000002 5.5000000000000009 6.8750000000000009 0.46472392976284033 0.51797643303871166
decision_type=2 2 2 2 2 2 2 2 2 2 2 2 2 2 2 2 2 2 2 2 2 2 2 2 2 2 2 2 2 2
left_child=1 12 5 -3 -5 29 9 17 -6 10 15 18 13 14 -1 -4 22 -7 -11 -12 -8 28 -14 -10 26 -26 -18 -19 -22 -2
right_child=2 3 6 4 8 7 20 -9 23 11 19 -13 16 -15 -16 -17 24 27 -20 -21 21 -23 -24 -25 25 -27 -28 -29 -30 -31
leaf_value=-0.070158580949716734 0.01870254397363777 -0.059689390467380449 0.061658062208833478 0.076673608117344541 -0.053381952624662381 0.054427047806231969 -0.056415842462424093 0.067259301440639949 0.0015503834198204187 -0.044614353954202088 -0.043640468204498087 0.10243193398765774 0.06581527496419802 0.075576776728320708 0.06139249607286789 -0.05515313731804429 0.027918075087781626 0.011479928554207354 0.0063531861635120479 -0.0083840674084233579 0.085945631701269801 -0.050636933691146649 -0.00083610119863931204 0.10463865239658315 -0.011591456974312049 0.066507429183615269 0.078598818208126947 -0.054244129580377956 -0.015873869929178063 -0.052118692888436173
leaf_weight=14.231535091996191 8.8721168041229266 66.865799427032471 13.333089590072634 19.310958862304688 17.61008042097092 23.983084067702293 162.75406418740749 46.407350912690163 7.6657922565937024 25.041163414716721 214.89811165630817 6.4602721333503714 9.7031784951686841 133.51113526523113 27.95745313167572 5.1484253853559485 33.016609519720078 47.644845575094223 59.007173627614975 42.98362123966217 6.0431054532527941 20.045498922467232 48.955064535140991 5.4099313914775848 31.83632493019104 31.127548769116402 47.923898458480835 9.1471638381481153 5.6600962579250336 16.840783953666687
leaf_count=69 43 428 69 78 111 107 1030 187 35 134 1336 30 41 538 114 28 137 227 294 213 30 120 220 24 161 134 193 44 28 88
internal_value=-0.000256966 0.0302222 -0.0213896 -0.0244578 0.0226362 0.0246589 -0.033938 0.0352588 -0.0114276 -0.0252859 -0.0333048 -0.000763245 0.047124 0.0615184 0.0168965 0.0288615 0.034602 0.0167824 -0.00883723 -0.0377792 -0.0502234 -0.0183231 0.01024 0.0448622 0.0445011 0.027023 0.0580163 0.000773449 0.0367729 -0.0276075
internal_weight=1209.4 495.125 714.27 116.863 49.9968 152.895 561.375 127.182 30.6858 366.872 276.363 90.5086 378.263 175.7 42.189 18.4815 202.563 80.7751 84.0483 257.882 194.503 31.7487 58.6582 13.0757 143.904 62.9639 80.9405 56.792 11.7032 25.7129
internal_count=6291 2283 4008 676 248 696 3312 565 170 2104 1646 458 1607 721 183 97 886 378 428 1549 1208 178 261 59 625 295 330 271 58 131
is_linear=0
shrinkage=0.05


Tree=10
num_leaves=31
num_cat=0
split_feature=142 145 112 58 139 107 104 59 58 98 92 97 118 75 98 98 59 64 98 90 58 147 92 59 50 10 92 94 58 96
split_gain=284.043 164.879 152.15 72.9271 33.9483 42.2106 33.1232 30.5601 27.1756 27.021 25.091 23.9595 23.8095 52.4289 39.4002 34.567 45.9156 25.7084 27.4945 22.6352 21.2825 22.8911 20.7677 18.3595 18.1871 21.2937 14.4151 13.9246 13.787 12.5905
threshold=-0.023044350557029244 -0.025157573632895943 -0.25937110185623163 0.25000000745058065 -0.086043756455183015 0.17239796370267871 0.10267922282218934 1.3750000000000002 0.58333334326744091 0.56980782747268688 1.4067299365997317 3.3362609148025517 -0.018747185356914994 1.5000000000000002 0.57990366220474254 0.57990366220474254 1.6250000000000002 5.5000000000000009 0.55848750472068798 0.56380629539489757 0.41666667163372045 -0.057805195450782769 1.0329263806343081 1.6250000000000002 2.5000000000000004 0.61094185709953319 -3.6542853116989131 3.5862126350402836 1.0000000180025095e-35 -2.440239310264587
decision_type=2 2 2 2 2 2 2 2 2 2 2 2 2 2 2 2 2 2 2 2 2 2 2 2 2 2 2 2 2 2
left_child=1 3 7 -1 27 20 8 -2 -5 24 11 -7 13 15 -15 -3 -17 18 22 -12 26 -22 -14 -16 -9 -26 -6 -4 -20 -19
right_child=2 12 4 6 5 10 -8 9 -10 -11 19 -13 17 14 23 16 -18 29 28 -21 21 -23 -24 -25 25 -27 -28 -29 -30 -31
leaf_value=-0.058903099986876033 -0.026622446524106336 -0.065480482617429739 -0.015287310586400536 -0.028755476357815064 -0.021527690169479509 -0.038972107884556413 0.072410608561170306 -0.0071229773574456347 0.11489356195835848 0.063691693867154328 0.10582324669022934 0.079106470045115382 0.0019858905378403882 0.10230840225789717 -0.03894767148908005 -0.040917067468145329 0.09082340258961516 0.022756131090018211 0.018004847379501636 -0.027377447067224392 0.026839163678400193 -0.040037741269625886 0.062203728413825592 0.058434013050681403 0.092809369039097547 0.014411726872198168 -0.054422836807045641 0.047556011055116386 0.078236481931083318 0.069976537895403104
leaf_weight=64.433492138981819 25.353264883160591 19.543264970183372 121.99338901042938 26.624897941946987 38.326622813940048 25.764724850654606 19.427994817495346 41.69509656727314 3.6522988826036444 46.557638332247734 9.3339205980300886 5.0457191467285147 59.844708532094955 24.946908339858055 10.145060420036316 13.718528583645821 12.572688043117523 15.98320350050926 12.803858876228331 4.7269358187913886 19.378758370876312 37.085877627134323 18.762833446264267 9.0626377016305923 12.839811682701109 26.639779597520828 278.72184105217457 9.388120621442793 38.948434710502625 142.53177638351917
leaf_count=428 131 107 659 155 220 134 78 200 15 187 40 23 251 100 51 73 51 67 58 23 100 226 78 37 57 121 1839 48 156 578
internal_value=-0.00026729 0.0288231 -0.020677 -0.0238278 -0.0329536 -0.0399174 0.0216175 0.0233878 -0.0110238 0.0333468 0.0058423 -0.0193605 0.0446937 0.0221526 0.0609857 -0.0152541 0.0220931 0.0516969 0.035162 0.0609906 -0.0454215 -0.0170344 0.0164518 0.00693446 0.0158548 0.040142 -0.0504622 -0.010745 0.0634465 0.0652484
internal_weight=1195.85 493.003 702.852 114.139 549.766 418.384 49.7052 153.086 30.2772 127.732 44.8713 30.8104 378.864 89.9891 44.1546 45.8345 26.2912 288.875 130.36 14.0609 373.513 56.4646 78.6075 19.2077 81.1747 39.4796 317.048 131.382 51.7523 158.515
internal_count=6291 2283 4008 676 3312 2605 248 696 170 565 220 157 1607 419 188 231 124 1188 543 63 2385 326 329 88 378 178 2059 707 214 645
is_linear=0
shrinkage=0.05


Tree=11
num_leaves=31
num_cat=0
split_feature=142 101 112 58 113 107 100 58 58 64 131 58 100 132 100 92 95 41 66 71 45 13 95 92 26 45 11 28 77 15
split_gain=259.319 148.982 140.241 68.5159 34.5658 37.3197 29.7583 27.6522 26.0801 23.4018 22.0488 38.231 59.4166 21.9738 21.3834 17.4923 16.893 16.4338 17.2381 16.5374 16.1963 14.055 13.4436 12.9891 12.9004 12.7419 11.904 11.8078 11.6003 11.5729
threshold=-0.023044350557029244 0.45018355548381811 -0.25937110185623163 0.25000000745058065 0.16413297504186633 0.17239796370267871 -0.24663998931646344 0.41666667163372045 0.41666667163372045 5.5000000000000009 -0.024595419876277443 1.0000000180025095e-35 -0.10942928493022917 0.062773270532488837 0.10893473774194719 -3.6542853116989131 0.32005196809768682 0.80128204822540294 7.5000000000000009 2.5000000000000004 0.63333332538604747 0.41167531907558447 4.0365211963653573 1.4067299365997317 0.78846153616905224 0.75333333015441906 0.31441338360309606 0.77500000596046459 3.5000000000000004 0.95346319675445568
decision_type=2 2 2 2 2 2 2 2 2 2 2 2 2 2 2 2 2 2 2 2 2 2 2 2 2 2 2 2 2 2
left_child=1 10 14 -3 5 7 -5 15 -8 23 11 12 -1 -9 24 -4 20 18 19 -6 -16 -11 26 -7 27 -10 28 29 -12 -2
right_child=2 3 4 6 17 9 8 13 25 21 22 -13 -14 -15 16 -17 -18 -19 -20 -21 -22 -23 -24 -25 -26 -27 -28 -29 -30 -31
leaf_value=-0.069617335028059141 0.024687935555387414 -0.058160807576392394 -0.01752673477927447 0.068596047689823206 -0.00057670448386286193 -0.061012256971382434 -0.051951681408892093 -0.029939815807471393 0.084825244955962609 0.078265266893627838 0.020941451986515144 0.068606651042568786 0.055813237230262297 0.037275205334913943 0.0996756546991448 -0.052286082364598745 -0.040598924418233616 0.068364407747477526 0.060577027162048207 -0.049520605877732195 0.0015373234720110242 0.0038082310846605186 -0.021511032131108963 0.032875639752550902 0.059185267147131015 -0.013359499848146543 -0.017118937293259265 0.052112383599946535 0.047236224325645337 -0.028574299740730738
leaf_weight=14.065630495548247 32.077597722411156 62.054659426212311 41.56281490623951 19.486736804246902 50.44660510122776 13.999538630247118 16.73999130725861 43.816687360405922 7.3936504870653135 11.2329268604517 67.918456315994263 133.66362544894218 28.182234913110733 16.696505442261696 5.0460034757852581 300.054603561759 19.862821698188782 7.1261577308177939 7.7024503052234641 26.219620808959007 23.291632056236267 14.575831413269041 11.288498386740683 4.8765190392732611 35.902465626597404 5.7991750240325928 10.490773051977156 22.166583716869354 112.58748638629913 14.806250944733618
leaf_count=69 142 428 240 78 257 79 111 268 32 51 299 538 114 82 23 2035 102 35 35 140 109 68 52 22 156 27 49 96 486 68
internal_value=-0.000273769 0.027561 -0.0199901 -0.023208 -0.0320016 -0.0377346 0.0206595 -0.0425512 -0.0105893 0.00555378 0.042534 0.0555045 0.0139287 -0.011322 0.0222055 -0.0480708 -0.00531211 -0.00396696 -0.0101797 -0.0173906 0.0193895 0.0364882 0.0312204 -0.0365797 0.03486 0.0417022 0.0343597 0.0221087 0.0373733 0.00778912
internal_weight=1181.13 489.671 691.464 111.474 538.31 446.815 49.4196 402.131 29.9328 44.6848 378.197 175.911 42.2479 60.5132 153.153 341.617 48.2005 91.4948 84.3687 76.6662 28.3376 25.8088 202.285 18.8761 104.953 13.1928 190.997 69.0504 180.506 46.8838
internal_count=6291 2283 4008 676 3312 2845 248 2625 170 220 1607 721 183 350 696 2275 234 467 432 397 132 119 886 101 462 59 834 306 785 210
is_linear=0
shrinkage=0.05


Tree=12
num_leaves=31
num_cat=0
split_feature=142 145 112 58 113 121 100 58 58 66 96 90 118 60 57 100 96 92 97 100 93 90 33 88 57 95 11 95 33 18
split_gain=236.502 134.35 129.307 64.3791 32.7766 35.2226 26.828 26.6414 24.0346 22.3611 22.1317 21.9453 20.1335 21.7229 20.9584 19.1154 17.2118 17.1252 16.7174 16.6355 14.8185 14.7487 13.6938 12.9153 16.2834 12.5128 12.0144 13.3713 12.005 13.1667
threshold=-0.023044350557029244 -0.025157573632895943 -0.25937110185623163 0.25000000745058065 0.16413297504186633 0.10433546826243402 -0.24663998931646344 0.41666667163372045 0.41666667163372045 5.5000000000000009 -1.1987504363059995 6.6451084613800058 -0.018747185356914994 6.5000000000000009 5.3750000000000009 0.10893473774194719 -3.3950814008712764 -3.6542853116989131 2.873898029327393 -0.072153892368078218 -1.1673799753189085 -0.40118123590946192 0.54500001668930065 -0.4647273570299148 6.8750000000000009 0.32005196809768682 0.22308289259672168 -3.7104227542877193 0.53499999642372142 0.60555556416511547
decision_type=2 2 2 2 2 2 2 2 2 2 2 2 2 2 2 2 2 2 2 2 2 2 2 2 2 2 2 2 2 2
left_child=1 3 15 -1 5 7 -5 17 -8 -7 19 -9 21 14 -14 26 -17 -4 -11 -3 23 -12 -18 24 -6 -24 -2 -28 -21 -30
right_child=2 10 4 6 20 9 8 11 -10 18 12 -13 13 -15 -16 16 22 -19 -20 28 -22 -23 25 -25 -26 -27 27 -29 29 -31
leaf_value=-0.057458142086236411 -0.045958611430276075 0.045807658065348637 -0.016818655122986487 0.065153499080727595 -0.043750723912855005 -0.055566194026981708 -0.051064650839628224 -0.023591000563224652 0.039310302782230425 0.009883071928088627 -0.0031297621193683077 0.060752662615641363 0.045609932785708407 -0.023761252964967332 0.078802993271561039 0.086831427570893072 0.061819270832639023 -0.051428116660135928 0.10486983945805535 0.054674251423382295 -0.018676614093966076 0.045185413391090543 -4.9243920270540114e-05 0.052290710416506229 0.073100978754656362 -0.057651328774897218 -0.024744372405465391 0.041888856423757476 0.016352613631010562 -0.033620567729810161
leaf_weight=59.732961609959602 4.508200377225875 40.40671968460083 41.161672979593277 19.495402932167053 10.587646976113318 11.177004784345625 16.194861024618152 51.036117926239967 13.295062720775602 27.897852897644043 29.0343958735466 8.9735662937164289 123.79236078262329 8.2514038383960706 78.612151443958282 4.5014156997203818 5.0328625440597525 290.06340189278126 5.4815225452184668 10.060341894626616 59.044149219989777 34.2723218947649 21.867156490683556 17.529279708862305 4.0286815911531439 16.590654149651527 8.0785629302263242 92.952656298875809 31.341882437467575 22.570036053657532
leaf_count=428 21 174 240 78 55 64 111 300 59 133 144 50 508 34 319 20 23 2035 23 42 309 153 103 84 19 88 36 405 134 99
internal_value=-0.000281962 0.0263123 -0.0193209 -0.0226452 -0.0310859 -0.0367895 0.0197856 -0.0415862 -0.0102409 0.00527176 0.0403893 -0.010857 0.0478612 0.0553011 0.0585467 0.021039 -0.00507283 -0.0471411 0.025823 0.0207267 -0.00379064 0.0230172 -0.0148199 0.0234471 -0.0110953 -0.0250486 0.03293 0.0365169 0.00479906 -0.00454571
internal_weight=1167.57 487.06 680.512 108.718 526.981 435.791 48.9853 391.235 29.4899 44.5564 378.342 60.0097 273.963 210.656 202.405 153.532 47.9921 331.225 33.3794 104.379 91.1898 63.3067 43.4907 32.1456 14.6163 38.4578 105.539 101.031 63.9723 53.9119
internal_count=6291 2283 4008 676 3312 2845 248 2625 170 220 1607 350 1158 861 827 696 234 2275 156 449 467 297 214 158 74 191 462 441 275 233
is_linear=0
shrinkage=0.05


Tree=13
num_leaves=31
num_cat=0
split_feature=142 101 112 58 139 107 59 100 98 58 64 96 58 147 118 95 100 58 99 90 91 64 90 93 89 74 71 13 95 16
split_gain=215.755 121.239 119.172 60.538 30.4631 35.8029 26.337 24.2502 22.7061 22.1525 20.3991 20.0371 19.3424 20.1229 18.402 15.8621 14.9188 14.6395 42.1569 13.4898 13.3727 13.2953 12.8167 12.7458 12.5495 15.2663 17.386 12.0028 11.9322 11.6358
threshold=-0.023044350557029244 0.45018355548381811 -0.25937110185623163 0.25000000745058065 -0.086043756455183015 0.17239796370267871 1.3750000000000002 -0.24663998931646344 0.56980782747268688 0.41666667163372045 5.5000000000000009 -1.1987504363059995 0.41666667163372045 -0.057805195450782769 -0.018747185356914994 0.37754458189010626 -0.072153892368078218 1.0000000180025095e-35 -0.074648797512054429 1.2864352464675906 5.0452234745025644 5.5000000000000009 -3.5330380201339717 0.068259671330451979 -1.1568520069122312 2.5000000000000004 2.5000000000000004 0.35736197233200079 0.064047573134303107 0.7022727131843568
decision_type=2 2 2 2 2 2 2 2 2 2 2 2 2 2 2 2 2 2 2 2 2 2 2 2 2 2 2 2 2 2
left_child=1 11 6 -3 24 12 -2 -5 15 -9 -7 16 -6 -14 19 28 -1 18 -16 27 22 -19 -18 -12 -4 -26 -27 -13 -8 -10
right_child=2 3 4 7 5 10 8 9 29 -11 23 14 13 -15 17 -17 20 21 -20 -21 -22 -23 -24 -25 25 26 -28 -29 -30 -31
leaf_value=0.043361130408686555 -0.026605706189864398 -0.056791175549157608 -0.027515516620520417 0.062022905939268957 -0.047806983464845049 -0.035323634543044012 0.020709407050078957 -0.050203312526376553 0.069608184209890053 0.036983442584809421 0.061157931402381682 0.041552647956937888 0.025174693200704007 -0.037858188147484186 -0.068214272290523112 -0.015495918552788774 0.039565421749980345 0.042604122522255546 0.052651312800948182 0.048829952171181357 0.083051181577772623 0.071262180791915805 -0.015071257486812834 -0.01006518210157293 -0.026557534599697497 0.043423156980013949 -0.018440160141022413 -0.018366379457925117 0.092770505014140803 0.0070025706263034341
leaf_weight=40.55382776260376 25.261077046394348 57.471280127763748 53.373411163687706 19.461223155260086 288.62532699108124 18.281532302498817 45.343012034893036 15.664312094449999 37.065189823508263 13.427694678306578 15.942182049155237 12.611701250076292 19.580890774726868 35.297654569149017 9.1655786484479886 30.18753470480442 13.975606039166449 71.46211177110672 32.402914062142372 26.641481831669807 4.9041461944580069 97.324490964412689 45.049423471093178 10.194424033164976 26.111063554883003 30.853747189044952 17.799880385398865 24.277518644928932 6.5363337695598593 9.4175871759653074
leaf_count=174 131 428 297 78 2059 101 202 111 149 59 71 60 100 226 46 148 59 289 131 116 20 395 196 48 144 166 100 121 28 38
internal_value=-0.000287721 0.0251283 -0.0186711 -0.0220959 -0.0301853 -0.0371681 0.019939 0.018953 0.0291184 -0.00988695 0.00501344 0.0383702 -0.0426297 -0.0153174 0.0454843 0.0132343 0.0196719 0.052616 0.0258415 0.0217861 0.00456119 0.0591759 -0.00204738 0.03335 -0.00901383 0.00417996 0.0207478 0.00210813 0.0299976 0.05702
internal_weight=1154.26 484.393 669.871 106.025 516.06 387.922 153.811 48.5532 128.55 29.092 44.4181 378.369 343.504 54.8785 273.886 82.0669 104.483 210.355 41.5685 63.5307 63.9292 168.787 59.025 26.1366 128.138 74.7647 48.6536 36.8892 51.8793 46.4828
internal_count=6291 2283 4008 676 3312 2605 696 248 565 170 220 1607 2385 326 1158 378 449 861 177 297 275 684 255 119 707 410 266 181 230 187
is_linear=0
shrinkage=0.05


Tree=14
num_leaves=31
num_cat=0
split_feature=142 112 101 58 113 107 92 90 59 100 58 92 101 97 131 58 99 90 100 66 97 96 93 77 90 88 57 94 33 99
split_gain=197.091 109.855 109.747 56.9606 29.9744 31.419 25.8253 27.4409 23.8229 21.9679 21.2699 20.9978 20.7383 19.4608 19.0602 32.1686 51.6543 18.304 16.4351 15.556 18.9986 14.1446 13.2951 11.4774 11.7584 11.3899 14.2355 11.1398 10.981 10.4774
threshold=-0.023044350557029244 -0.25937110185623163 0.45018355548381811 0.25000000745058065 0.16413297504186633 0.17239796370267871 -3.6542853116989131 6.6451084613800058 1.3750000000000002 -0.24663998931646344 0.58333334326744091 1.4067299365997317 0.20560274273157123 3.3362609148025517 -0.024595419876277443 1.0000000180025095e-35 -0.074648797512054429 0.56380629539489757 0.027318941429257396 5.5000000000000009 -1.2160703539848325 -1.182067275047302 -1.1673799753189085 2.5000000000000004 -0.84971070289611805 -0.4647273570299148 6.8750000000000009 -2.4959756135940547 0.53499999642372142 -0.0031395811238326128
decision_type=2 2 2 2 2 2 2 2 2 2 2 2 2 2 2 2 2 2 2 2 2 2 2 2 2 2 2 2 2 2
left_child=2 8 14 -4 5 6 18 -8 29 -5 -11 13 19 -7 15 16 -1 -13 -3 -10 -21 28 25 -24 -25 26 -6 -23 -16 -2
right_child=1 4 3 9 22 11 7 -9 12 10 -12 17 -14 -15 21 -17 -18 -19 -20 20 -22 27 23 24 -26 -27 -28 -29 -30 -31
leaf_value=-0.068686299974460727 0.0174252728812423 -0.046175846362314643 -0.056156375242037662 0.059156438365612241 -0.042006989840101053 -0.037450715238454869 -0.04855003070040164 0.010395238061930462 0.045542016427857414 -0.026376094402494211 0.10002036791154006 0.093344822181324852 0.05442345241746447 0.068200271017490974 0.053384755278534757 0.060851191555916444 0.049190002578356887 -0.026259269205447827 0.016409093127372532 0.038585311798686461 -0.022169057736494833 0.064906698544257957 0.044399768574505998 0.0042601375869380535 -0.044475845884109064 0.04914105390530208 0.066444405864485509 0.028103382326396694 -0.0041978255083797338 -0.049754668500344615
leaf_weight=13.726918190717695 8.9395846277475375 15.782456919550894 55.271792978048325 19.390555024147034 10.283987432718275 24.81904731690884 303.39061512053013 21.010360211133957 24.813166484236717 24.959198027849201 3.7349732965230933 9.6716750115156156 46.280437633395195 5.1749191433191291 9.8402726352214795 131.94320595264435 28.220273688435555 4.6592344045639029 30.747252449393272 19.273155406117439 38.201398894190788 25.048085108399391 6.5294079929590216 20.18848979473114 31.462407663464546 17.825898766517639 4.1631219536066046 119.41813758015633 49.190615370869637 16.006456315517426
leaf_count=69 43 101 428 78 55 134 2212 136 107 155 15 40 187 23 41 538 114 23 176 86 185 106 33 107 169 84 19 519 220 88
internal_value=-0.00029025 -0.0180454 0.0240501 -0.0215682 -0.0292919 -0.0349726 -0.0397265 -0.0447226 0.0189816 0.0181718 -0.00954667 0.00475355 0.0276657 -0.0189734 0.0365528 0.0487288 0.0104848 0.0543737 -0.00481904 0.0125384 -0.00172102 0.0261172 -0.00317526 -0.0174671 -0.025407 0.0224866 -0.0103415 0.0345423 0.00543279 -0.025607
internal_weight=1139.97 659.223 480.744 103.357 505.709 415.256 370.931 324.401 153.514 48.0847 28.6942 44.3249 128.568 29.994 377.388 173.89 41.9472 14.3309 46.5297 82.2877 57.4746 203.497 90.4533 58.1803 51.6509 32.273 14.4471 144.466 59.0309 24.946
internal_count=6291 4008 2283 676 3312 2845 2625 2348 696 248 170 220 565 157 1607 721 183 63 277 378 271 886 467 309 276 158 74 625 261 131
is_linear=0
shrinkage=0.05


Tree=15
num_leaves=31
num_cat=0
split_feature=142 112 135 58 112 98 59 59 116 20 98 93 90 93 89 100 94 98 94 90 90 50 10 58 98 98 30 16 13 30
split_gain=180.112 101.314 99.6417 42.4161 28.1691 24.6795 37.0329 21.5703 20.5308 21.813 18.9138 18.173 17.6429 17.5607 17.2994 16.197 15.9821 15.345 16.9365 14.8424 14.6363 14.4436 17.357 13.5111 17.745 12.6622 15.1105 10.7959 10.6678 10.6432
threshold=-0.023044350557029244 -0.25937110185623163 -0.0055147270904853931 0.25000000745058065 0.09725742414593698 0.57990366220474254 1.6250000000000002 1.3750000000000002 0.037128395400941379 0.89285713434219371 0.56980782747268688 -1.1673799753189085 1.4990235567092898 1.9858239293098452 2.4551398754119877 -0.24663998931646344 1.0694221854209902 0.559129297733307 1.2926501631736758 -0.40118123590946192 -4.1906771659851065 2.5000000000000004 0.61094185709953319 0.41666667163372045 0.54021981358528148 0.41136051714420324 0.55357143282890331 0.7022727131843568 0.46472392976284033 0.39880952239036566
decision_type=2 2 2 2 2 2 2 2 2 2 2 2 2 2 2 2 2 2 2 2 2 2 2 2 2 2 2 2 2 2
left_child=2 7 14 5 8 -4 -7 -2 9 11 21 -3 -10 -14 16 -5 -1 18 -18 -17 -16 29 -23 -6 -25 26 -22 -12 -26 -9
right_child=1 4 3 15 23 6 -8 10 12 -11 27 -13 13 -15 20 19 17 -19 -20 -21 25 22 -24 24 28 -27 -28 -29 -30 -31
leaf_value=0.054910392230666183 -0.024698251198128632 0.005367274664486635 -0.055550540549277674 0.056515558997704607 -0.052133162161795712 -0.045147597349928181 0.075058236966764044 -0.018105180676692072 -0.053920635549832702 0.095517981616842329 0.064196504553128891 -0.024409426191329749 -0.028165067506135424 0.057353338147922144 0.068321115718965375 -0.028046669644124278 -0.055766098175849745 0.071254657638593621 0.026360984547275996 0.027675561832675652 -0.026746728880432183 0.079557195193543845 0.0099708269380099409 -0.046563530430857258 0.075871684349817586 0.031840033569703309 0.052305129159902014 0.00394408868247217 -0.017319252172596968 0.058306005449802203
leaf_weight=152.63836251199245 24.592686086893082 79.117889955639839 53.136098831892014 19.28899884223938 134.47474564611912 15.704817458987236 10.67271001636982 36.809175595641136 66.338582426309586 4.5485186874866477 36.636065915226936 144.535165771842 29.013144105672836 7.4531621485948554 12.36089153587818 21.802765011787415 6.7741876840591422 17.258813142776489 71.083670347929001 26.183266371488571 29.552222087979317 13.379243940114973 27.14676821231842 17.712377429008487 6.3548265993595106 33.160175785422325 7.4823401421308509 9.45055243372917 5.7334622740745544 5.0911503583192816
leaf_count=642 131 456 428 78 1030 82 43 177 484 25 149 886 204 49 51 128 28 71 305 129 124 57 121 120 30 143 31 38 28 23
internal_value=-0.000293129 -0.0174519 0.0230195 -0.011239 -0.0284416 -0.0359519 0.0034947 0.0180777 -0.0200176 -0.0116349 0.0262957 -0.013867 -0.0385714 -0.010509 0.0382502 0.0179426 0.0448627 0.0286717 0.0191209 0.00230014 0.0183453 0.0118868 0.0331449 -0.0453779 -0.0147388 0.00942461 -0.0106102 0.0519305 0.0316868 -0.00864451
internal_weight=1125.49 648.388 477.099 146.789 495.282 79.5136 26.3775 153.106 331.006 228.202 128.513 223.653 102.805 36.4663 330.311 67.275 247.755 95.1167 77.8579 47.986 82.5556 82.4263 40.526 164.275 29.8007 70.1947 37.0346 46.0866 12.0883 41.9003
internal_count=6291 4008 2283 888 3312 553 125 696 2104 1367 565 1342 737 253 1395 335 1046 404 333 257 349 378 178 1208 178 298 155 187 58 200
is_linear=0
shrinkage=0.05


Tree=16
num_leaves=31
num_cat=0
split_feature=145 142 99 58 130 99 96 92 75 100 100 110 139 20 92 59 90 66 59 58 98 96 66 24 94 22 72 97 90 97
split_gain=164.518 125.566 55.2881 56.1483 50.9623 29.2314 31.1066 24.6813 19.5926 63.4171 32.9863 19.2508 18.9407 15.9658 15.2942 28.1122 14.5917 14.5384 14.2486 14.0449 25.6601 12.787 12.4667 10.4981 10.3879 18.4286 19.6837 12.0934 10.1883 9.97214
threshold=-0.025157573632895943 0.036079049110412605 -0.13400589674711225 0.41666667163372045 -0.03574798442423343 0.11365895718336107 -1.0685092806816099 1.1400214433670046 1.5000000000000002 -0.072153892368078218 -0.072153892368078218 -0.0093725894112139923 0.051291529089212425 0.69920635223388683 -1.4545246362686155 1.6250000000000002 2.1249608993530278 7.5000000000000009 1.6250000000000002 0.25000000745058065 0.56083655357360851 -1.7191421985626218 5.5000000000000009 0.43055555224418646 1.0694221854209902 0.60879629850387584 1.5000000000000002 1.437034606933594 5.5433831214904794 -0.72840231657028187
decision_type=2 2 2 2 2 2 2 2 2 2 2 2 2 2 2 2 2 2 2 2 2 2 2 2 2 2 2 2 2 2
left_child=2 4 24 12 8 6 14 13 10 -10 -2 28 23 21 -3 -16 -12 18 -8 -14 -21 -6 -15 -4 25 -1 -27 -28 -5 -26
right_child=1 5 3 11 7 -7 17 -9 9 -11 16 -13 19 22 15 -17 -18 -19 -20 20 -22 -23 -24 -25 29 26 27 -29 -30 -31
leaf_value=-0.018997912701726863 -0.066668282457500908 0.081929835592301159 0.044993063282294181 -0.04178084690708668 0.006206571991287861 -0.049632899321497032 -0.051912569974423589 0.057050369332317885 0.089775791725879642 -0.0073351901258268196 -0.0081052762461007854 0.031140590354794263 -0.035989592277869305 -0.0078448564663176883 -0.05572406566138384 0.073838550972870856 0.042418309006053839 0.051536592908354495 -0.0010079467573463909 -0.03778402626204129 0.059760344833619972 0.051215159876472349 0.027305101663181737 -0.051656865549930903 0.031596525039837405 0.09407770823401744 0.040933638695510276 -0.034030640335656386 0.050186693285859896 -0.023269808083883198
leaf_weight=16.88449364900589 20.178531497716904 11.574055552482607 2.7493116259574881 18.563849762082103 19.564258456230164 64.010518290102482 35.760551512241364 119.73010632395744 24.644417405128479 52.275479942560196 53.041381061077118 39.728946104645729 57.891035407781601 37.454449072480202 8.5342757701873779 8.0211911648511887 19.429856836795807 5.5559668391942969 22.463090062141418 14.349838122725487 12.527455151081085 85.092353150248528 76.335766851902008 202.50866846740246 11.134041056036947 12.718035906553267 17.107915505766872 7.7056068778038016 3.4803757667541495 31.238866806030273
leaf_count=82 107 53 19 127 82 497 193 500 100 284 289 186 443 158 45 38 99 27 116 111 51 358 320 1605 52 58 78 37 22 154
internal_value=-0.000293359 0.0155132 -0.0236823 -0.0328891 0.0275665 -0.0237142 -0.00560154 0.0387819 0.00517493 0.023822 -0.0102883 0.0103469 -0.042107 0.028736 0.0380798 0.00696588 0.00544566 -0.0249354 -0.0323515 -0.0221334 0.00764154 0.0428392 0.0157167 -0.0503288 0.00975531 0.0242034 0.0437039 0.0175107 -0.0269869 -0.00875364
internal_weight=1112.25 663.666 448.588 351.799 507.747 155.92 91.9091 338.177 169.57 76.9199 92.6498 61.7732 290.026 218.447 28.1295 16.5555 72.4712 63.7796 58.2236 84.7683 26.8773 104.657 113.79 205.258 96.789 54.4161 37.5316 24.8135 22.0442 42.3729
internal_count=6291 3266 3025 2564 2297 969 472 1418 879 384 495 335 2229 918 136 83 388 336 309 605 162 440 478 1624 461 255 173 115 149 206
is_linear=0
shrinkage=0.05


Tree=17
num_leaves=31
num_cat=0
split_feature=145 146 99 58 139 99 90 120 139 71 95 110 41 89 59 98 98 66 99 62 89 24 54 93 71 94 22 30 91 24
split_gain=150.953 131.152 51.7548 53.0726 29.4452 19.4293 18.999 18.4499 18.2744 18.2638 17.6837 17.3743 16.3881 15.0304 14.4602 25.2611 15.6234 14.2623 19.3947 14.0381 15.5519 12.9222 12.5034 11.7495 10.9064 14.662 19.604 11.3366 10.2705 9.89254
threshold=-0.025157573632895943 -0.01639811601489782 -0.13400589674711225 0.41666667163372045 0.067537292838096633 0.11365895718336107 -2.2168065309524532 0.092248395085334792 0.051291529089212425 3.5000000000000004 -3.6461640596389766 -0.0093725894112139923 0.78846153616905224 -0.98128375411033619 1.6250000000000002 0.57990366220474254 0.57990366220474254 7.5000000000000009 1.0000000180025095e-35 2.5000000000000004 3.0934218168258671 0.46527777612209326 3.5000000000000004 3.2455766201019292 3.5000000000000004 1.0694221854209902 0.60879629850387584 0.27976191043853765 -2.3300772905349727 0.43055555224418646
decision_type=2 2 2 2 2 2 2 2 2 2 2 2 2 2 2 2 2 2 2 2 2 2 2 2 2 2 2 2 2 2
left_child=2 5 24 8 7 10 -6 19 29 13 -2 -5 -10 -8 15 -9 -16 23 -19 21 -21 -3 -14 -12 25 26 -1 -28 -13 -4
right_child=1 4 3 11 6 -7 9 14 12 -11 17 28 22 -15 16 -17 -18 18 -20 20 -22 -23 -24 -25 -26 -27 27 -29 -30 -31
leaf_value=-0.013930064228672004 0.078826417673931934 0.081310295742672206 0.041650624327128044 -0.026119237270483677 0.032765625450572239 -0.048860000864772782 0.012765769070301598 0.029143725989203246 -0.029747762593756874 0.075622333033768252 -0.032198643758934338 -0.015457378458460111 -0.048461078117808913 -0.027844182858849577 -0.00013018149590950009 -0.040595054051451307 0.065245630202768135 0.13217477555274523 -0.031031642111984687 0.059823105917905232 0.010702541530645477 0.025685600709489439 0.073853506280177575 0.03345271480172908 -0.054191991232612126 -0.0079375453536024571 0.11110487503995206 0.038641595758533022 0.043533719963627218 -0.050946467422928202
leaf_weight=15.50564271211624 4.9753350168466559 11.284548342227934 2.8273647576570502 21.654311254620552 50.391707479953766 61.82905925065279 39.454416140913963 28.300727412104607 72.953169479966164 6.4746982157230368 59.690586313605309 9.5960851162672025 2.8422185853123647 53.501981854438782 15.565754830837248 23.813684791326523 21.772375285625458 3.4711204022169104 3.6122957915067673 109.82118506729603 19.089109465479851 138.1421106159687 7.0723438188433647 7.5733558088541022 6.2226342856883994 41.952213317155838 6.8469300121068946 26.394659340381622 30.463771373033524 195.25173933058977
leaf_count=76 26 47 19 149 230 497 185 131 534 28 366 45 21 255 76 124 88 15 26 464 81 582 50 45 31 205 29 120 141 1605
internal_value=-0.00029684 0.0148418 -0.0229877 -0.0321117 0.0264939 -0.0278577 0.00778084 0.0341058 -0.0413333 -0.00487653 -0.0114148 0.0098274 -0.021527 -0.0105856 0.0142873 -0.00269225 0.037997 -0.0175851 0.0493238 0.0404588 0.0525826 0.0299546 0.038406 -0.0247311 0.00924345 0.013678 0.0323098 0.0539307 0.0293372 -0.0495918
internal_weight=1098.35 658.764 439.583 342.661 517.612 141.152 149.823 367.789 280.947 99.4311 79.3227 61.7142 82.8677 92.9564 89.4525 52.1144 37.3381 74.3474 7.08342 278.337 128.91 149.427 9.91456 67.2639 96.9221 90.6994 48.7472 33.2416 40.0599 198.079
internal_count=6291 3266 3025 2564 2291 975 698 1593 2229 468 478 335 605 440 419 255 164 452 41 1174 545 629 71 411 461 430 225 149 186 1624
is_linear=0
shrinkage=0.05


Tree=18
num_leaves=31
num_cat=0
split_feature=142 112 101 112 145 143 92 133 60 96 145 93 99 96 22 95 92 33 26 96 95 47 37 89 10 64 64 30 94 100
split_gain=139.556 79.5581 76.1526 25.3275 21.6406 19.1554 16.9473 18.8033 14.9932 13.005 12.7306 12.5827 12.4685 12.764 12.3871 11.5848 14.1275 11.3081 10.9049 10.8449 10.7501 9.19622 9.17404 9.14027 11.8138 10.0349 8.83981 7.36843 11.8662 6.45188
threshold=-0.023044350557029244 -0.25937110185623163 0.45600278675556188 0.09725742414593698 0.0073439625557512054 -0.075159557163715349 -4.7050197124481192 -0.053500633686780923 6.5000000000000009 -1.1094973683357237 0.055855277925729759 6.4945137500762948 0.088068041950464263 -3.3950814008712764 0.59339773654937755 -1.7461012005805967 -3.8289798498153682 0.54500001668930065 0.78846153616905224 2.2895740270614628 0.32005196809768682 0.45000000298023229 0.81666666269302379 1.6806547641754153 0.65453127026557933 5.5000000000000009 5.5000000000000009 0.29166667163372045 2.6073027849197392 -0.10942928493022917
decision_type=2 2 2 2 2 2 2 2 2 2 2 2 2 2 2 2 2 2 2 2 2 2 2 2 2 2 2 2 2 2
left_child=2 12 4 5 8 15 10 -8 9 21 -7 -4 18 -14 29 16 -3 -15 19 26 -19 -1 -11 25 -25 -16 -2 -20 -29 -6
right_child=1 3 11 -5 14 6 7 -9 -10 22 -12 -13 13 17 23 -17 -18 20 27 -21 -22 -23 -24 24 -26 -27 -28 28 -30 -31
leaf_value=-0.068437371727363069 0.027856216512307908 0.090727595150628171 -0.038638255785261491 -0.043031849161070231 0.033892842061073951 0.073897117599274628 -0.031802357029217292 -0.0013770170923031351 -0.059427203028602854 0.022212349997243849 -0.021594419241817153 0.074482085762856351 0.071242972898587095 0.054032422025434526 0.021096975201741055 -0.047005887665329531 -0.021949619359974748 -0.0012315845732265417 0.085187587338573928 0.063228076804194427 -0.055552142929697249 0.0011527434237011747 0.097889924764156797 -0.0024638686679651252 0.037636203600580037 0.050322723152941728 -0.011054777850393714 0.049626195542554076 -0.03523626315948352 0.065467745663189539
leaf_weight=5.4388884827494612 25.259939417243004 3.1595349013805416 54.743348479270935 149.60605830699205 26.251534178853035 9.8985497802495939 86.056151144206524 124.14605435729027 6.866680994629859 91.652297109365463 5.252217009663581 2.4689174070954314 4.7352737933397284 5.1757084578275672 51.15504615008831 70.818488031625748 18.795400656759739 21.833789959549904 9.5303546935319883 9.33891314268112 15.652701020240782 32.7565031722188 4.1243335157632819 40.293291851878166 33.470325067639351 70.886625617742538 34.199939116835594 21.500712841749195 4.9781824201345435 45.810968264937401
leaf_count=27 107 19 435 1208 119 51 652 643 34 450 28 11 20 23 217 563 148 103 41 40 88 158 17 173 141 309 159 92 23 192
internal_value=-0.000297109 -0.0158379 0.0203746 -0.0260563 0.0279415 -0.0180544 -0.0101585 -0.0138541 0.0120361 0.0157592 0.0407052 -0.0335916 0.0155437 -0.00568601 0.0362873 -0.0371754 -0.00528304 -0.0144298 0.0251646 0.0134118 -0.0240674 -0.00884419 0.025596 0.0297082 0.0157241 0.0381202 0.00545256 0.0474508 0.033505 0.0540629
internal_weight=1085.86 619.938 465.919 467.732 408.706 318.126 225.353 210.202 140.839 133.972 15.1508 57.2123 152.206 47.3975 267.868 92.7734 21.9549 42.6622 104.808 68.7988 37.4865 38.1954 95.7766 195.805 73.7636 122.042 59.4599 36.0092 26.4789 72.0625
internal_count=6291 4008 2283 3312 1837 2104 1374 1295 686 652 79 446 696 234 1151 730 167 214 462 306 191 185 467 840 314 526 266 156 115 311
is_linear=0
shrinkage=0.05


Tree=19
num_leaves=31
num_cat=0
split_feature=145 146 100 58 108 139 105 92 14 90 43 120 58 98 98 92 59 39 54 49 93 43 59 98 98 92 20 59 147 95
split_gain=128.046 109.353 44.6389 38.1542 26.5554 23.8848 18.1708 18.0488 23.3745 17.3373 21.4776 16.1367 15.7191 19.5366 15.6967 18.8295 16.8248 15.4414 14.6788 14.2466 17.9838 13.967 12.9727 22.2306 14.5987 12.9581 13.1462 11.4682 11.3699 15.9671
threshold=-0.025157573632895943 -0.01639811601489782 -0.24663998931646344 0.41666667163372045 0.40124195814132696 0.067537292838096633 0.23418534547090533 -1.3784735798835752 3.1321047544479375 -1.5073690414428709 0.27500000596046453 0.092248395085334792 0.25000000745058065 0.56083655357360851 0.51797643303871166 -0.29194550216197962 1.6250000000000002 0.55000001192092907 5.5000000000000009 7.5000000000000009 -0.94637787342071522 0.4083333313465119 1.6250000000000002 0.57990366220474254 0.57990366220474254 1.0880445837974551 0.69920635223388683 1.6250000000000002 0.01018887374084443 -3.9515172243118282
decision_type=2 2 2 2 2 2 2 2 2 2 2 2 2 2 2 2 2 2 2 2 2 2 2 2 2 2 2 2 2 2
left_child=2 6 12 4 -4 11 7 8 -2 14 -11 25 13 18 15 -7 -16 -12 -1 20 -6 -14 23 -13 -24 26 -3 -9 29 -5
right_child=1 5 3 28 19 9 -8 27 -10 10 17 22 21 -15 16 -17 -18 -19 -20 -21 -22 -23 24 -25 -26 -27 -28 -29 -30 -31
leaf_value=0.028859315832716677 -0.018417843948248979 0.042874545052670764 -0.044220526214468606 0.10387305548488156 0.05832276336703468 0.0073616263543417951 -0.047435819788205588 -0.04646631839295056 0.075918466770417442 0.086761122279395461 0.02340045559311112 0.026031997159470705 -0.0054363959483522285 -0.049564348189190498 -0.04312450208954452 0.075894515201165136 0.067968951864492852 -0.02488230967154437 -0.064636777223512618 -0.060900086216372933 -0.017052931200958004 0.057056028411701293 -0.0016474699875758975 -0.039597501229948637 0.061428957829195198 0.051701495527618394 0.015574232406432532 0.0017478163942036481 -0.021818927847813977 0.0097938379867591671
leaf_weight=27.808384343981743 14.805523321032526 86.801355510950089 235.928138487041 5.1719214469194403 13.490374609827994 18.130816102027893 57.891467191278934 31.410150341689587 11.614472568035124 5.7249111831188193 22.189669251441956 28.437230333685875 14.046083241701124 18.316961891949177 12.027170151472093 22.621817097067833 4.6331757754087439 64.010344535112381 4.8330206274986258 7.6799259334802619 18.792151495814323 24.097101897001266 15.692699685692785 23.439256936311722 21.709980398416519 98.107209339737892 90.696643128991127 20.094257518649101 22.370759442448616 32.04453332722187
leaf_count=124 87 371 2026 24 62 83 497 205 62 24 103 131 63 152 65 94 21 308 22 40 99 101 76 124 88 420 383 124 151 161
internal_value=-0.000293001 0.0136527 -0.0216482 -0.0300034 -0.0378387 0.0241941 -0.0262289 -0.0104012 0.0230889 0.00732178 -0.00612062 0.0310888 0.00978037 -0.00834853 0.0288613 0.0455581 -0.0118595 -0.0124116 0.0147844 -8.32829e-05 0.0144511 0.034024 0.0125536 -0.00359229 0.0349641 0.0370773 0.0289555 -0.0276404 0.00623485 0.0231782
internal_weight=1074.62 650.038 424.579 335.478 275.891 514.222 135.816 77.9244 26.42 149.338 91.9249 364.884 89.1016 50.9584 57.413 40.7526 16.6603 86.2 32.6414 39.9625 32.2825 38.1432 89.2792 51.8765 37.4027 275.605 177.498 51.5044 59.5872 37.2165
internal_count=6291 3266 3025 2563 2227 2291 975 478 149 698 435 1593 462 298 263 177 86 411 146 201 161 164 419 255 164 1174 754 329 336 185
is_linear=0
shrinkage=0.05


Tree=20
num_leaves=31
num_cat=0
split_feature=145 146 100 58 131 113 105 58 100 100 92 14 58 98 96 54 24 43 110 90 101 91 43 59 11 59 109 75 59 75
split_gain=117.488 99.6833 41.4606 36.006 26.4512 25.3847 17.4525 17.4104 53.5514 16.6916 16.4574 20.3602 14.2202 18.2285 13.7116 13.5558 13.7128 12.6269 12.1515 13.0451 11.1592 11.1531 16.0716 10.9711 10.9458 10.8343 10.7162 23.6126 13.8038 10.5696
threshold=-0.025157573632895943 -0.01639811601489782 -0.24663998931646344 0.41666667163372045 -0.024595419876277443 0.16413297504186633 0.23418534547090533 1.0000000180025095e-35 -0.10942928493022917 -0.10942928493022917 -1.3784735798835752 3.1321047544479375 0.25000000745058065 0.56083655357360851 2.6219089031219487 3.5000000000000004 0.5486111342906953 0.4083333313465119 -0.0093725894112139923 5.5433831214904794 0.24325194209814074 -2.3300772905349727 0.4083333313465119 1.3750000000000002 0.28598134219646459 1.6250000000000002 -0.046876849606633179 1.5000000000000002 1.6250000000000002 1.5000000000000002
decision_type=2 2 2 2 2 2 2 2 2 2 2 2 2 2 2 2 2 2 2 2 2 2 2 2 2 2 2 2 2 2
left_child=2 6 12 5 7 -4 10 8 -3 -9 11 -2 13 15 26 -1 -17 -14 19 -5 29 -20 -23 -11 -13 -12 27 -6 -28 -16
right_child=1 4 3 18 14 -7 -8 9 -10 23 25 24 17 -15 20 16 -18 -19 21 -21 -22 22 -24 -25 -26 -27 28 -29 -30 -31
leaf_value=0.053256058327859561 -0.017678734684931859 -0.071014908602053048 -0.043424405903799174 -0.034465334113301098 -0.0026694631853933885 -0.00010029259584515725 -0.046700913492000867 0.073058579458374753 0.041005957330194964 0.003104582021405307 -0.045447820776045381 0.035517832906233851 -0.0051712045987433878 -0.048859186303079685 -0.050567104476261282 -0.05797698523304684 0.025446044338792641 0.054267233710089791 -0.022486703506039686 0.064003015038520947 0.054940884300572916 0.10762368522841621 0.017674526411847632 0.042119275004709376 0.13800238453542388 0.0016592358502570067 -0.011593861463370663 0.050798516909289937 0.017400271655925986 0.043660057792821297
leaf_weight=13.082546427845953 14.661222241818907 14.338009014725683 228.43405332416296 22.183439671993259 42.220656991004944 39.817577421665192 55.914296671748161 38.705640941858292 40.713680684566498 21.937074288725853 30.533036723732948 8.12395992875099 14.033536940813063 17.670155845582485 5.705752953886984 8.8695676624774951 10.794468253850935 24.074269816279411 8.7091706395149213 3.8529552370309821 31.077246874570847 6.839597404003146 17.982728138566017 105.00705721974373 3.8847706466913214 20.1134984344244 91.96989780664444 40.14006994664669 73.954640030860901 6.0012302547693253
leaf_count=57 87 69 2026 153 197 201 497 167 170 100 205 44 63 152 29 41 48 101 42 24 137 30 87 445 18 124 452 166 332 27
internal_value=-0.000293482 0.0130689 -0.0209987 -0.029198 0.0231002 -0.0370054 -0.0254333 0.0361584 0.0117093 0.0442567 -0.00998005 0.0217051 0.00933479 -0.00804668 0.0131813 0.0139815 -0.0121588 0.0323568 0.00592235 -0.0196089 0.0393083 0.0258204 0.042892 0.0354046 0.0697435 -0.0267243 0.00865505 0.0233889 0.00131682 -0.00209199
internal_weight=1061.35 645.002 416.344 327.82 511.771 268.252 133.231 220.701 55.0517 165.65 77.3165 26.67 88.5245 50.4167 291.069 32.7466 19.664 38.1078 59.5679 26.0364 42.7842 33.5315 24.8223 126.944 12.0087 50.6465 248.285 82.3607 165.925 11.707
internal_count=6291 3266 3025 2563 2291 2227 975 951 239 712 478 149 462 298 1340 146 89 164 336 177 193 159 117 545 62 329 1147 363 784 56
is_linear=0
shrinkage=0.05


Tree=21
num_leaves=31
num_cat=0
split_feature=142 101 138 133 124 95 92 33 96 96 90 22 92 60 144 91 57 92 60 114 94 96 92 136 49 111 22 10 98 57
split_gain=107.993 59.5733 56.6107 35.3838 21.7689 31.9069 29.5695 21.4054 17.1081 16.6586 14.6693 13.7605 13.4285 13.3234 15.8345 13.3349 13.2989 12.9825 19.6769 28.9898 12.648 10.8531 10.8355 10.6933 10.4143 9.22404 9.0356 8.21197 7.26325 6.88318
threshold=-0.023044350557029244 0.45600278675556188 1.0000000180025095e-35 -0.016894265078008171 0.010430846363306047 -5.1660509109497061 -5.0072648525238028 0.69999998807907116 2.8585882186889653 -1.182067275047302 7.0694007873535165 0.88194444775581371 -4.7050197124481192 6.5000000000000009 -0.019620945677161213 -0.093186315149068819 5.3750000000000009 -3.3315074443817134 5.5000000000000009 0.031596677377820022 -1.0000000180025095e-35 -3.4965269565582271 1.7114055752754214 0.028052476234734062 1.5000000000000002 0.022608296945691112 0.63194444775581371 0.60750499367713939 0.55848750472068798 4.8750000000000009
decision_type=2 2 2 2 2 2 2 2 2 2 2 2 2 2 2 2 2 2 2 2 2 2 2 2 2 2 2 2 2 2
left_child=1 9 3 7 5 -4 20 10 11 23 12 22 -2 14 15 -11 -16 18 -5 -20 -7 -8 -6 26 -3 -15 27 -1 -28 -10
right_child=2 24 4 17 8 6 21 -9 29 13 -12 -13 -14 25 16 -17 -18 -19 19 -21 -22 -23 -24 -25 -26 -27 28 -29 -30 -31
leaf_value=0.015058272808781909 0.039492214946162077 0.045550624755428225 0.14673704450509636 -0.031241748171029267 0.0041094312202845738 0.0076204744966440535 0.032911876073777199 0.10978430512135562 0.013449936813551 0.030012017036812163 0.06309056124458412 -0.069758977454985868 -0.019970855930578041 -0.075701474415047598 0.02941080817884072 -0.019306479207004738 0.05473600754357083 -0.046898434121208796 0.18658500820875137 -0.039579511025479075 0.13636121408975474 -0.031797926411453792 0.036014211260101771 -0.012418217688961333 -0.037917906937782797 0.016308718699308264 -0.01357219926349097 0.063328562450981785 0.032264718045294301 0.08921819313741744
leaf_weight=19.191241651773453 10.123385921120642 3.9333432912826529 2.8924901112914077 20.820239834487442 91.259270489215851 3.7368080168962479 6.89906121790409 3.5771508291363707 4.384614869952201 32.603320933878422 6.0692382082343093 5.0597732365131369 130.14643669128418 4.6340014785528165 136.21523666381836 23.448276862502098 84.974276468157768 166.30840416252613 2.740992695093154 2.7404139041900635 3.9206887334585181 84.597136840224266 37.616739243268967 39.923386342823505 49.258583270013332 6.274505540728569 24.451060116291046 16.603294521570206 13.22410401701927 10.295499265193937
leaf_count=82 51 24 15 155 429 21 39 20 21 175 35 23 837 22 589 136 376 1510 19 21 19 584 165 198 422 27 105 70 57 44
internal_value=-0.000291959 0.0180358 -0.0143468 -0.0275583 0.00370028 -0.0140605 -0.0189196 -0.00931216 0.0159137 0.0246268 -0.0123134 0.0102497 -0.0156365 0.0310173 0.0331546 0.00933826 0.0391716 -0.0417348 -0.00893582 0.0743835 0.0747669 -0.0268607 0.013462 0.00835254 -0.0316249 -0.0228833 0.0196749 0.0376321 0.00249335 0.0670012
internal_weight=1047.92 454.735 593.188 342.526 250.662 102.046 99.1537 149.916 148.616 401.543 146.339 133.936 140.27 288.15 277.241 56.0516 221.19 192.61 26.3016 5.48141 7.6575 91.4962 128.876 113.393 53.1919 10.9085 73.4697 35.7945 37.6752 14.6801
internal_count=6291 2283 4008 2648 1360 678 663 943 682 1837 923 617 888 1325 1276 311 965 1705 195 40 40 623 594 512 446 49 314 152 162 65
is_linear=0
shrinkage=0.05


Tree=22
num_leaves=31
num_cat=0
split_feature=145 146 166 131 64 16 139 93 66 132 64 92 14 100 131 91 91 71 18 91 41 92 62 95 106 91 138 28 146 20
split_gain=98.9161 83.976 36.5641 29.3189 19.3499 14.9965 16.2397 15.6472 14.0686 15.5281 15.4337 12.3997 14.4737 19.7202 11.8419 10.7504 10.4766 9.82326 9.72822 9.29102 12.215 12.6743 8.53764 10.7853 10.5746 9.10354 8.20218 8.78254 8.10691 10.6097
threshold=-0.025157573632895943 -0.030657398514449593 1.0000000180025095e-35 -0.024595419876277443 6.5000000000000009 0.59772729873657238 0.05746350251138211 0.49002654850482946 7.5000000000000009 0.019655191339552406 5.5000000000000009 -1.4098579883575437 3.1748466491699223 0.027318941429257396 0.13130489736795428 2.5036638975143437 3.5073302984237675 3.5000000000000004 0.60555556416511547 5.7341763973236093 0.78846153616905224 -2.513760924339294 2.5000000000000004 -3.7104227542877193 0.076807297766208663 5.7341763973236093 0.020282818004488948 0.55833333730697643 -0.012713616713881491 0.56428572535514843
decision_type=2 2 2 2 2 2 2 2 2 2 2 2 2 2 2 2 2 2 2 2 2 2 2 2 2 2 2 2 2 2
left_child=2 11 4 22 5 28 7 -7 9 10 -5 12 -2 -14 -10 -15 -11 19 -8 20 21 -4 23 -3 -25 -24 -6 -28 -1 -30
right_child=1 3 17 8 26 6 18 -9 14 16 -12 -13 13 15 -16 -17 -18 -19 -20 -21 -22 -23 25 24 -26 -27 27 -29 29 -31
leaf_value=-0.035706991615800654 -0.03303225485565963 -0.029599332215082749 0.052176076426546383 0.0021094408521938747 -0.051144414704050234 -0.048138737911385523 -0.022942987583566964 -0.013710278933811888 0.022926612132713256 -0.0097198146880076233 0.035137026425011535 -0.047770471582325509 -0.055418217705324617 0.024398652067096575 0.096341157682581863 0.15226854014265301 0.022788799990021921 -0.05399155757461277 0.026275895441142283 -0.03812779874144321 0.072869544469623113 -0.00030465057070976954 0.047370982402983111 0.057176041691177772 0.019543362974972861 -0.019432075694049578 0.06607458897692324 -0.028793704333431674 -0.033983500518770679 0.068764375136393566
leaf_weight=4.0410794541239765 19.231765449047092 8.5711418241262418 14.10643568634986 69.926144987344742 91.710240662097931 67.896082632243633 17.715114690363407 64.842682622373104 19.106772869825367 133.82753105461597 71.863930389285088 56.261679358780384 3.4301701933145505 3.3267849981784821 7.7460617572069159 3.3531624972820282 30.286781549453735 6.0754304230213156 22.855267904698849 8.5454106181859952 8.4690784215927106 59.996416762471206 97.912431597709656 24.427898555994034 80.838960289955139 5.2731100767850867 2.6759669035673168 19.615743614733219 3.2097599729895583 10.286840081214903
leaf_count=27 158 37 64 302 871 614 126 516 88 693 315 506 30 22 33 21 147 31 150 42 36 288 435 105 351 23 16 154 25 65
internal_value=-0.00028786 0.0119903 -0.0196966 0.0191667 -0.0282101 -0.018436 -0.0229036 -0.0313623 0.0098264 0.00676311 0.0188795 -0.0340384 -0.00755015 0.0405266 0.0444757 0.0902539 -0.003695 0.00698203 0.00471936 0.0111297 0.0162976 0.00970889 0.0334653 0.0239391 0.028346 0.0439174 -0.0445203 -0.0170495 0.0254513 0.0440748
internal_weight=1037.43 635.384 402.042 549.781 304.849 190.847 173.309 132.739 332.757 305.904 141.79 85.6036 29.3419 10.1101 26.8528 6.67995 164.114 97.1928 40.5704 91.1173 82.5719 74.1029 217.024 113.838 105.267 103.186 114.002 22.2917 17.5377 13.4966
internal_count=6291 3266 3025 2529 2564 1523 1406 1130 1578 1457 617 737 231 73 121 43 840 461 276 430 388 352 951 493 456 458 1041 170 117 90
is_linear=0
shrinkage=0.05


Tree=23
num_leaves=31
num_cat=0
split_feature=142 112 101 58 93 103 59 58 99 105 58 13 90 89 111 74 122 24 101 50 54 99 88 16 116 90 16 99 18 122
split_gain=90.7234 53.7708 49.1961 27.9068 24.4878 20.1869 17.9133 16.4357 56.258 28.0408 16.3756 15.2489 14.3389 20.6791 20.2745 13.2281 12.8302 12.1684 10.6537 11.8253 14.392 10.3644 10.3256 10.2155 9.92184 8.90077 8.66614 8.51096 8.23979 8.04284
threshold=-0.023044350557029244 -0.25937110185623163 0.45600278675556188 0.41666667163372045 -4.1907851696014395 1.0000000180025095e-35 1.3750000000000002 1.0000000180025095e-35 -0.11166660860180853 -0.16088321059942243 0.41666667163372045 0.69478526711463939 7.0694007873535165 -0.42900213599205012 1.0000000180025095e-35 3.5000000000000004 0.064153974875807776 0.56250000000000011 0.20560274273157123 2.5000000000000004 5.5000000000000009 -0.095570180565118776 1.4781901836395266 0.7022727131843568 0.028565353713929657 -4.5446767807006827 0.68409091234207164 -0.0031395811238326128 0.62777778506279003 -1.0000000180025095e-35
decision_type=2 2 2 2 2 2 2 2 2 2 2 2 2 2 2 2 2 2 2 2 2 2 2 2 2 2 2 2 2 2
left_child=2 6 7 -4 17 12 27 8 -1 -9 -7 15 14 -14 -6 -11 25 24 19 26 -21 -12 -5 -20 -3 -10 -8 -2 -18 -19
right_child=1 4 3 22 5 10 18 9 16 11 21 -13 13 -15 -16 -17 28 29 23 20 -22 -23 -24 -25 -26 -27 -28 -29 -30 -31
leaf_value=-0.066066318824145667 0.011299422724285161 0.04476146346181567 -0.051913157465429786 -0.0057210446040938017 -0.029245194061478075 -0.055555701416868553 -0.025694314273416688 0.068903356403638621 0.055999830598116945 0.029358921741396843 0.025373480831615336 -0.052983260341537212 -0.043605051046788905 0.073897179933047952 -7.2478806437365663e-05 -0.0011300317484608708 0.069620268881770503 0.023215291765656967 0.05246004588805514 0.041714532585801586 -0.037809906076757355 -0.050220099728158968 0.082222682990010287 -0.0060610125603778328 -0.057049189255890691 -0.00048083069889088051 0.022535288664155551 -0.049032763648479701 0.0050906647136561376 0.12395668043989538
leaf_weight=21.759572871029377 9.2015531063079852 4.9170287624001521 37.362083747982979 7.7015491425991041 217.27663391083479 75.801432609558105 27.583258107304573 37.083646416664124 8.3793525844812375 216.95478171110153 11.732689991593363 6.4205729141831389 6.0481177866458884 9.4479365274310094 82.270832881331444 42.353296995162964 19.536757692694668 3.72208122164011 34.378908827900887 33.877094745635986 6.7195643335580817 7.2439624145627013 5.7105511724948883 9.3959367871284467 4.4694013595581055 38.843738779425621 13.899239167571066 15.509020298719404 6.7498195916414252 4.4682655185461027
leaf_count=137 43 27 387 35 1797 766 136 167 37 990 56 30 46 56 416 194 82 24 149 147 31 61 24 38 37 172 64 88 28 26
internal_value=-0.000286438 -0.0133853 0.0165738 -0.0297135 -0.0224379 -0.024922 0.012293 0.0224898 0.0043402 0.0281884 -0.0451668 0.0224733 -0.0188112 0.0278902 -0.0212439 0.0243709 0.0252766 0.0351527 0.0199468 0.00926228 0.0284296 -0.00346381 0.0318697 0.0398568 -0.00354307 0.00958553 -0.00945892 -0.0265109 0.0532273 0.0793088
internal_weight=1026.82 577.963 448.856 50.7742 427.398 409.822 150.565 398.082 95.2692 302.812 94.7781 265.729 315.044 15.4961 299.547 259.308 73.5097 17.5768 125.854 82.0792 40.5967 18.9767 13.4121 43.7748 9.38643 47.2231 41.4825 24.7106 26.2866 8.19035
internal_count=6291 4008 2283 446 3312 3198 696 1837 456 1381 883 1214 2315 102 2213 1184 319 114 565 378 178 117 59 187 64 209 200 131 110 50
is_linear=0
shrinkage=0.05


Tree=24
num_leaves=31
num_cat=0
split_feature=145 146 58 99 131 139 41 58 99 99 97 66 132 59 64 100 90 92 47 88 131 22 94 62 72 51 16 91 10 57
split_gain=83.6147 70.8758 32.0702 42.5007 25.6569 16.5381 15.9117 14.8215 45.3445 14.9766 17.7419 12.7071 12.7718 24.4389 14.1234 12.5059 21.2109 12.1873 13.2355 12.0018 11.13 10.2934 15.7689 14.7263 11.2579 9.75851 9.08992 9.02433 11.6106 8.28001
threshold=-0.025157573632895943 -0.030657398514449593 0.41666667163372045 -0.13400589674711225 -0.024595419876277443 0.051291529089212425 0.78846153616905224 1.0000000180025095e-35 -0.074648797512054429 -0.074648797512054429 4.5270283222198495 7.5000000000000009 0.019655191339552406 1.6250000000000002 5.5000000000000009 -0.20250855386257169 4.0529837608337411 -1.4098579883575437 0.75000000000000011 4.0621747970581064 0.13130489736795428 0.60879629850387584 0.15090285986661914 3.5000000000000004 1.5000000000000002 2.5000000000000004 0.68863636255264293 -2.3300772905349727 0.63371893763542186 4.1250000000000009
decision_type=2 2 2 2 2 2 2 2 2 2 2 2 2 2 2 2 2 2 2 2 2 2 2 2 2 2 2 2 2 2
left_child=2 17 3 21 7 -5 -7 8 -3 -9 -11 12 14 -14 -6 27 -17 18 29 -8 -13 25 24 -24 -23 -1 -10 -4 -29 -2
right_child=1 4 15 5 11 6 19 9 26 10 -12 20 13 -15 -16 16 -18 -19 -20 -21 -22 22 23 -25 -26 -27 -28 28 -30 -31
leaf_value=0.031780776796689579 0.063106419643623332 -0.069327246216812535 -0.010788037148362468 -0.045414624925087507 0.00091538122394255032 -0.025445688924986939 0.091270784724567358 0.067041225969526858 0.049734871761330429 0.034540419896144203 -0.055184601257441485 0.020987095959949947 -0.020163350852800511 0.018942196591998507 0.03256226538899433 -0.041906441166382848 0.041366865097012574 -0.046610264070152799 0.089545042933651453 -0.02410024759834585 0.092367869274638303 0.086043606036991543 -0.023880424450969651 0.06955341434874493 0.019968294047582699 -0.038480886788924355 -0.0042919060568132822 0.086763683654159582 0.020634412034259884 -0.028057759986362819
leaf_weight=6.4436523765325573 2.6885387822985711 13.834923833608626 9.4431422501802427 159.05863450467587 69.983873337507248 64.420579351484776 5.4497351944446546 36.232404589653015 29.238665327429771 117.34001433849335 5.672538384795188 19.127833813428882 94.258262410759926 69.158930152654648 71.298974439501762 20.379643552005291 12.088179655373095 52.96653313934803 3.1164272129535666 3.6909300833940506 7.6742811799049369 9.8431303948164004 25.692634224891666 4.9356794953346244 18.984107360243797 19.883128300309181 10.464926049113272 10.561705693602564 18.191379711031914 22.624890394508839
leaf_count=31 19 69 44 1624 302 534 39 167 126 521 24 88 505 335 315 145 74 506 20 32 33 42 127 22 86 99 44 45 81 192
internal_value=-0.00028573 0.0110292 -0.0184865 -0.0252504 0.0175407 -0.0363408 -0.016652 0.0310916 0.00825417 0.0387439 0.0303411 0.00882845 0.00590847 -0.00359695 0.0169155 0.011948 -0.0107942 -0.0324501 -0.00591029 0.0446576 0.0417859 0.00480219 0.0163449 -0.00856508 0.0428357 -0.0211341 0.0354569 0.0313224 0.0452285 -0.0180666
internal_weight=1014.75 625.682 389.066 318.402 544.286 232.62 73.5612 212.783 53.5385 159.245 123.013 331.502 304.7 163.417 141.283 70.6641 32.4678 81.3964 28.4299 9.14067 26.8021 85.7823 59.4556 30.6283 28.8272 26.3268 39.7036 38.1962 28.7531 25.3134
internal_count=6291 3266 3025 2636 2529 2229 605 951 239 712 545 1578 1457 840 617 389 219 737 231 71 121 407 277 149 128 130 170 170 126 211
is_linear=0
shrinkage=0.05


Tree=25
num_leaves=31
num_cat=0
split_feature=145 146 100 58 131 99 58 99 99 49 93 30 64 92 90 142 94 43 98 92 99 33 126 95 89 147 43 94 16 90
split_gain=76.6539 64.9848 30.3153 29.8938 23.6939 20.6868 13.4997 41.8738 14.3473 13.0572 15.0005 11.9216 13.0091 11.8436 11.3167 12.0995 12.1067 11.4745 10.8293 10.343 10.2887 10.0751 16.6653 9.67571 8.46545 8.60315 12.6398 10.6394 8.35398 8.00173
threshold=-0.025157573632895943 -0.030657398514449593 -0.24663998931646344 0.41666667163372045 -0.024595419876277443 -0.13400589674711225 1.0000000180025095e-35 -0.074648797512054429 -0.074648797512054429 7.5000000000000009 -0.94637787342071522 0.25595238804817205 5.5000000000000009 -3.6542853116989131 -4.9313466548919669 0.015844889450818304 1.0694221854209902 0.29166667163372045 0.57990366220474254 1.1400214433670046 0.12475416436791421 0.48999999463558203 0.0090110236778855341 -4.1099331378936759 0.86514276266098034 0.01018887374084443 0.42499999701976782 2.5523537397384648 0.68863636255264293 1.7162218093872073
decision_type=2 2 2 2 2 2 2 2 2 2 2 2 2 2 2 2 2 2 2 2 2 2 2 2 2 2 2 2 2 2
left_child=2 13 11 5 6 9 7 -3 -8 10 -4 -1 29 20 18 16 -16 -17 -6 -10 -2 22 -7 -15 25 27 -27 -5 -9 -13
right_child=1 4 3 24 14 21 8 28 19 -11 -12 12 -14 23 15 17 -18 -19 -20 -21 -22 -23 -24 -25 -26 26 -28 -29 -30 -31
leaf_value=-0.030963898535059205 0.050385469095742076 -0.067992335019400524 0.053037085198940216 0.01391832705914705 0.043249988426297778 0.11121587717191683 0.06531849253301579 0.047772334413606121 0.016685446818701818 -0.059731072030534987 -0.015822465723833657 0.015442605820967721 -0.0029228449697878229 0.036958765881263053 0.023510006191133543 0.050034782368312436 -0.0034457596790678732 -0.011947765481665254 -0.035500261207713407 0.046318057695919179 -0.054745027676714519 -0.04197500877550208 -0.056141592271471731 -0.043801816311024769 -0.015705533927760154 -0.052351943107909783 0.056753566762085587 0.085494950100695591 -0.0040776587107618943 0.065147707231850358
leaf_weight=15.903825268149374 7.2956398874521238 13.413863658905028 13.655266180634497 14.084168523550035 34.792969614267349 2.7697391584515563 35.353597119450569 28.929853156208992 71.471358776092529 7.4149259328842154 18.450827062129974 16.818714700639248 38.440711058676243 3.8256278783082953 108.91658966243267 7.916334554553031 67.137013986706734 107.05795513093472 4.8781244307756415 50.690861627459526 3.2849434837698936 191.86657276004553 2.9787678942084312 64.958363495767117 24.477593913674355 7.1872536540031415 4.0657494738698006 8.2694577723741514 10.46917352080345 15.968673028051851
leaf_count=95 44 69 62 70 162 18 167 126 314 40 99 89 202 28 485 37 300 570 24 231 30 1983 25 635 149 55 25 37 44 76
internal_value=-0.000282115 0.0105676 -0.0178912 -0.0255399 0.0167694 -0.0334133 0.0298909 0.00793544 0.0372267 -0.000324454 0.0134608 0.00799497 0.01676 -0.0316464 0.00840991 0.00497924 0.0132203 -0.00761858 0.0334388 0.0290297 0.0173047 -0.0400146 0.0245898 -0.0392266 0.00656331 0.0228556 -0.0125589 0.0407714 0.0339559 0.0398513
internal_weight=1002.74 620.392 382.352 295.22 541.028 237.136 210.329 52.8129 157.516 39.521 32.1061 87.1319 71.2281 79.3646 330.699 291.028 176.054 114.974 39.6711 122.162 10.5806 197.615 5.74851 68.784 58.0842 33.6066 11.253 22.3536 39.399 32.7874
internal_count=6291 3266 3025 2563 2529 2227 951 239 712 201 161 462 367 737 1578 1392 785 607 186 545 74 2026 43 663 336 187 80 107 170 165
is_linear=0
shrinkage=0.05


Tree=26
num_leaves=31
num_cat=0
split_feature=145 146 99 58 120 59 75 102 92 71 118 96 45 98 81 90 98 58 92 14 99 71 90 33 98 45 92 22 39 33
split_gain=70.2641 59.5947 28.2164 27.1812 20.0121 32.1687 33.7625 42.3879 30.1092 19.9433 23.996 15.0186 14.4351 13.7222 13.3416 12.1674 11.7979 12.7876 11.4322 12.3645 16.4512 10.9766 10.8235 10.0799 9.34984 14.5519 9.3337 8.40804 8.05969 7.55267
threshold=-0.025157573632895943 -0.030657398514449593 -0.12235893681645392 0.41666667163372045 0.092248395085334792 1.6250000000000002 1.5000000000000002 0.10194295272231103 1.1400214433670046 2.5000000000000004 0.067427782341837897 0.017881222069263462 0.65999999642372142 0.51797643303871166 4.5000000000000009 -1.7356192469596861 0.5621909797191621 0.58333334326744091 -1.4098579883575437 3.1748466491699223 0.12475416436791421 3.5000000000000004 7.638141632080079 0.48999999463558203 0.49098905920982366 0.78000000119209301 -2.6973927021026607 0.55324074625968944 0.983333319425583 0.53499999642372142
decision_type=2 2 2 2 2 2 2 2 2 2 2 2 2 2 2 2 2 2 2 2 2 2 2 2 2 2 2 2 2 2
left_child=2 18 16 23 8 6 29 -8 9 10 -3 15 -11 14 -7 -10 21 -18 19 -2 -21 28 24 -4 26 -26 -5 -15 -1 -6
right_child=1 4 3 22 5 13 7 -9 11 12 -12 -13 -14 27 -16 -17 17 -19 -20 20 -22 -23 -24 -25 25 -27 -28 -29 -30 -31
leaf_value=0.012455091315975386 -0.030313126244721902 0.01440321247700202 0.028477577395611978 0.037127863868845506 0.02072945498769499 -0.024539637153649142 0.077970934651577506 -0.018954683077922224 0.053525186524289628 0.062479037542912563 -0.028273474341563982 0.062197961221530554 0.016080967259038171 -0.012593443039121044 0.039092291877070945 0.01043047640019194 -0.044879446277324736 0.085582736993671985 -0.045278069742235715 0.081190445687628982 -0.054597283701774149 -0.053463661776579831 0.065606384216330554 -0.040085310073464178 0.049673574094450973 -0.056004893566918651 -0.040725183401596442 0.055629104003078647 -0.032045236345327452 -0.049356802083507872
