tree
version=v4
num_class=1
num_tree_per_iteration=1
label_index=0
max_feature_idx=160
objective=regression
feature_names=n_total_answers n_missing_answers n_answered_personality n_answered_economic n_answered_cognitive n_answered_demographics n_ordinal_items n_categorical_items n_text_items n_multi_select_items ordinal_mean_normalized ordinal_std_normalized ordinal_midpoint_rate ordinal_extreme_rate ordinal_acquiescence straightlining_max_repeat_rate bfi_44_mean_norm bfi_44_n_items bfi_18_mean_norm bfi_18_n_items autonomy_cognition_mean_norm autonomy_cognition_n_items personal_values_mean_norm personal_values_n_items self_monitoring_mean_norm self_monitoring_n_items self_monitoring_binary_mean_norm self_monitoring_binary_n_items regulatory_focus_mean_norm regulatory_focus_n_items bai_anxiety_mean_norm bai_anxiety_n_items bai_sum_score self_concept_mean_norm self_concept_n_items need_uniqueness_mean_norm need_uniqueness_n_items need_closure_mean_norm need_closure_n_items personality_traits_5pt_mean_norm personality_traits_5pt_n_items maximization_mean_norm maximization_n_items uncertainty_beliefs_mean_norm uncertainty_beliefs_n_items risk_sensitivity_personality_mean_norm risk_sensitivity_personality_n_items self_regulation_mean_norm self_regulation_n_items spending_scale spending_difficulty spending_anxiety shopper_type weight_loss_intention dictator_game_position ultimatum_offer_position trust_game_send_position trust_return_mean_position ultimatum_reject_rate hedonic_framing_mean loss_aversion_risky_choices loss_aversion_risky_rate crt_score crt_total_attempted numeracy_score numeracy_total_attempted financial_literacy_score financial_literacy_total vocabulary_synonym_total vocabulary_antonym_total spatial_n_attempted wason_correct wason_n_selected forward_flow_word_count demo_region demo_sex demo_age demo_education demo_race demo_citizenship demo_occupation demo_religion demo_religiosity demo_political_party demo_income demo_political_views demo_household_size demo_employment emb_0 emb_1 emb_2 emb_3 emb_4 emb_5 emb_6 emb_7 emb_8 emb_9 qemb_pca_0 qemb_pca_1 qemb_pca_2 qemb_pca_3 qemb_pca_4 qemb_pca_5 qemb_pca_6 qemb_pca_7 qemb_pca_8 qemb_pca_9 qemb_pca_10 qemb_pca_11 qemb_pca_12 qemb_pca_13 qemb_pca_14 qemb_pca_15 qemb_pca_16 qemb_pca_17 qemb_pca_18 qemb_pca_19 qemb_pca_20 qemb_pca_21 qemb_pca_22 qemb_pca_23 qemb_pca_24 qemb_pca_25 qemb_pca_26 qemb_pca_27 qemb_pca_28 qemb_pca_29 qemb_pca_30 qemb_pca_31 qemb_pca_32 qemb_pca_33 qemb_pca_34 qemb_pca_35 qemb_pca_36 qemb_pca_37 qemb_pca_38 qemb_pca_39 qemb_pca_40 qemb_pca_41 qemb_pca_42 qemb_pca_43 qemb_pca_44 qemb_pca_45 qemb_pca_46 qemb_pca_47 qemb_pca_48 qemb_pca_49 question_num_options block_Cognitive_tests block_Demographics block_Economic_preferences block_Personality qtype_MC qtype_Matrix qtype_TE person_construct_mean_loo person_construct_std_loo person_construct_percentile_loo construct_answers_available has_multi_item_construct
feature_infos=[536:537] [0:6] none [178:179] [64:65] none none none [21:22] [20:21] [0.44838592410087585:0.73608267307281494] [0.16133671998977661:0.34511783719062805] [0.02760736271739006:0.64417177438735962] [0.1840490847826004:0.81901842355728149] [2.2638037204742432:3.8282208442687988] [0.53846156597137451:1] [0.22272726893424988:0.80909091234207153] none [0.24444444477558136:0.86666667461395264] none [0.3571428656578064:0.91428571939468384] [9:10] [0.25462964177131653:0.9861111044883728] [18:24] [0.25:0.7638888955116272] none [0.5:0.92307692766189575] none [0.26666668057441711:1] none [0.25:0.82142859697341919] none [0:48] [0.43000000715255737:0.77999997138977051] none [0.26249998807907104:0.96249997615814209] none [0.20000000298023224:0.93333333730697632] none [0.20000000298023224:1] none [0.3333333432674408:1] none [0.20000000298023224:0.91666668653488159] none [0.3333333432674408:0.98666667938232422] none [0.23333333432674408:0.96666663885116577] none [1:11] [1:5] [1:5] [1:5] [1:2] [1:6] [1:6] [1:16] [1:8.5] [0:1] [1:2] [0:9] [0:1] [0:4] [3:4] [0:8] none [2:8] none none none none [0:4] [1:4] [7:20] [1:4] [1:2] [1:4] [1:6] [1:5] none [1:6] [1:12] [1:6] [1:4] [1:5] [1:5] [1:5] [1:7] [-18.468034744262695:13.981993675231934] [-14.723208427429199:10.627040863037109] [-10.310186386108398:11.699763298034668] [-7.8283696174621582:10.310257911682129] [-9.6072807312011719:9.2328338623046875] [-8.0900363922119141:16.57765007019043] [-7.335780143737793:5.8458571434020996] [-8.3878936767578125:6.4226036071777344] [-8.4518289566040039:7.699770450592041] [-5.4553799629211426:5.9361748695373535] [-0.45041906833648682:0.51288807392120361] [-0.68818861246109009:0.51629489660263062] [-0.39918535947799683:0.34074655175209045] [-0.595711350440979:0.25662651658058167] [-0.30449989438056946:0.30002698302268982] [-0.26794335246086121:0.33597484230995178] [-0.33094456791877747:0.48840698599815369] [-0.40084412693977356:0.25145360827445984] [-0.27771484851837158:0.26659488677978516] [-0.24749058485031128:0.38582488894462585] [-0.25158563256263733:0.21607595682144165] [-0.30014145374298096:0.35707324743270874] [-0.35830599069595337:0.19921086728572845] [-0.24905210733413696:0.31230509281158447] [-0.23482342064380646:0.2624877393245697] [-0.22648842632770538:0.26324465870857239] [-0.15513604879379272:0.28657063841819763] [-0.24639558792114258:0.22212052345275879] [-0.17947927117347717:0.33270791172981262] [-0.32572025060653687:0.23635797202587128] [-0.26190313696861267:0.20939898490905762] [-0.21048642694950104:0.20444269478321075] [-0.25737380981445312:0.40742817521095276] [-0.17823481559753418:0.1576528400182724] [-0.25615939497947693:0.19612608850002289] [-0.28742524981498718:0.24589303135871887] [-0.19168475270271301:0.18010798096656799] [-0.17329573631286621:0.24041898548603058] [-0.1833028644323349:0.24156151711940765] [-0.15861576795578003:0.19452224671840668] [-0.16623017191886902:0.17292448878288269] [-0.23354022204875946:0.15895016491413116] [-0.11709881573915482:0.15873731672763824] [-0.19992104172706604:0.21312782168388367] [-0.22046488523483276:0.11620821803808212] [-0.38285565376281738:0.17608319222927094] [-0.13804246485233307:0.13919660449028015] [-0.15238027274608612:0.13173738121986389] [-0.13635951280593872:0.10775377601385117] [-0.16318625211715698:0.16907347738742828] [-0.17573530972003937:0.17084750533103943] [-0.20046088099479675:0.15476372838020325] [-0.1486610621213913:0.18351574242115021] [-0.12285617738962173:0.1596672385931015] [-0.16242615878582001:0.14086709916591644] [-0.20833310484886169:0.12997826933860779] [-0.17790605127811432:0.12301091849803925] [-0.16522589325904846:0.1604858934879303] [-0.15033914148807526:0.12956240773200989] [-0.13981261849403381:0.19120091199874878] [2:9] none none none none [0:1] [0:1] none [0:1] [0:0.5] [9.7541946161072701e-05:1] none [0:1]
tree_sizes=2907 3032 3042 3085 3039 3081 3072 3065 3077 3058 3068 3066 3054 3061 3053 3068 3072 3052 3039 3073 3059 3059 3097 3083 3100 3040 3110 3088 3056 3099 3089 3058 3076 3101 3094 3077 3058 3081 3045 3091 3037 3106 3062 3001 3064 3098 3101 3089 3098 2999 3062 3084 3062 3071 2981 3091 3003 3094 3077 3008 3089 3073 3089 3094 2974 2986 3033 3089 3000 3089 3035 3036 3086 2992 3057 3084 3010 3044 2960 3094 2983 3012 3032 3062 2966 3083 3031 3064 2980 3060 2939 2932 3052 2944 3042 3024 2980 2981 3063 3072 2999 2733 2993 2976 3071 2692 3061 3019 2522 3030 3042 2639 3019 2946 3103 3028 2958 2976 2970 2939 3000 3053 3088 2974 2597 3032 3032 2994 2923 3030 3019 3064 2949 2981 2663 3007 2981 2996 3037 3040 3003 2542 3024 2969 2994 3004 3014 3001 3052 2967 2520 3026 3011 2987 2985 2066 3011 3013 2946 3044 3021 2982 2536 3017 2994 3003 2937 3063 2948 2974 3051 2989 3013 2894 2938 2951 2883 2700 2935 2623 2994 3003 2987 3022 2825 2981 3048 3004 2978 2947 2987 2968 2526 3011 2941 3034 3046 2974 3027 3021 3003 2997 2968 2934 2626 2962 2981 2970 2932 2956 2857 3030 3009 2954 2966 3035 2932 3031 2993 3003 2934 3000 3056 3019 2991 2902 2940 3056 2996 3012 3053 2963 3076 3032 2994 2952 2992 2996 3016 2950 2956 3045 2995 3012 2914 2999 3055 2782 2986 3010 3027 2961 3030 2938 2967 2930 2983 3021 3010 2999 2986 2924 2989 3004 3006 2955 2946 2949 2725 2950 2944 2999 2938 3012 3010 3044 3019 3013 2921 3022 2959 2944 2973 2977 2910 2995 2970 2991 2952 3062 2966 2999 2937 2981 2970 3056 2993 2960 3007 3030 2911 2941 2935 2964 3033 3042 3036 2979 3007 2985 2986 2994 2881 3046 2984 2994 3041 2946 3003 3026 2973 2992 2968 2976 2981 2985 3095 2992 3011 2980 3003 2984 3001 2904 2969 3049 2981 3003 3018 3033 3006 2975 2998 2977 2932 3012 3006 2946 2966 3056 3017 2988 2928 2964 3008 2954 3007 2976 3006 3013 3021 2970 2920 2999 3072 2990 3025 2910 2980 3027 3003 3029 2894 2976 3010 2994 2916 3046 2936 3027 3005 2995 3023 3016 2920 3092 3000 3003 2676 2926 2977 3056 3017 2982 2964 3049 3003 2940 3029 3010

Tree=0
num_leaves=31
num_cat=0
split_feature=156 156 140 134 110 156 141 144 122 118 109 156 107 114 116 98 135 158 107 113 123 108 156 129 135 115 107 139 43 157
split_gain=1294.26 275.977 97.8101 91.306 75.0111 66.1139 52.384 50.0371 60.121 54.0334 49.7793 37.8924 36.0506 31.2784 28.0995 26.3969 27.611 23.9283 23.866 19.3309 19.3208 17.8709 17.6764 13.3873 14.059 12.8889 11.8685 11.8369 11.4217 8.28444
threshold=0.3000000268220902 0.68257576227188121 0.00067048959317617129 -0.019142988137900826 0.087689563632011427 0.10000000521540643 0.0094055552035570162 0.026615653187036518 -0.042947642505168908 0.010252465028315784 -0.15377189218997953 0.85791924595832836 0.0164258535951376 0.05229937098920346 -0.0088461921550333483 -0.28861694037914271 -0.014396394137293099 0.19481207430362704 -0.052894946187734597 -0.064555823802947984 -0.10530196875333785 -0.029750629328191277 0.24537037312984469 0.0043175651226192721 0.030402026139199737 0.013093217276036741 0.24358551949262622 1.0000000180025095e-35 0.27500000596046453 0.36620321869850164
decision_type=2 2 2 2 2 2 2 2 2 2 2 2 2 2 2 2 2 2 2 2 2 2 2 2 2 2 2 2 2 2
left_child=5 2 7 6 10 18 12 8 13 -10 -5 14 -4 -2 20 -9 -17 23 19 28 -3 -8 29 24 -7 -26 -16 -22 -1 -19
right_child=1 11 3 4 -6 17 21 15 9 -11 -12 -13 -14 -15 26 16 -18 22 -20 -21 27 -23 -24 -25 25 -27 -28 -29 -30 -31
leaf_value=0.5046897584389648 0.50651822733235741 0.51189158198280071 0.51469851751370643 0.50377577316327415 0.50430890887177793 0.50767024304240893 0.52997946838209464 0.53044668657243588 0.51389315706064764 0.52092909625375261 0.52454499363937657 0.53483911352113833 0.50261689467731907 0.51797993189912728 0.52970562699323198 0.51231839233036347 0.52122096134070195 0.50019935427501883 0.49351728470026213 0.4951177905685154 0.52185317789139274 0.51902028155188407 0.50701738001260732 0.50263506400245128 0.53017677852338574 0.51004261273158757 0.50174473222194604 0.52732413865727934 0.53907484026297259 0.49272673753115254
leaf_weight=38 2812 325 2187 295 499 508 441 569 7864 4178 12453 1592 861 754 3944 1152 3564 1999 3679 95 2004 2384 895 527 175 145 38 1962 65 462
leaf_count=38 2812 325 2187 295 499 508 441 569 7864 4178 12453 1592 861 754 3944 1152 3564 1999 3679 95 2004 2384 895 527 175 145 38 1962 65 462
internal_value=0.517194 0.520281 0.518434 0.521018 0.523319 0.499266 0.51583 0.51607 0.514646 0.516335 0.524064 0.527771 0.511283 0.508943 0.52641 0.520274 0.519045 0.50325 0.494428 0.511378 0.5236 0.520734 0.500984 0.508867 0.512843 0.521039 0.529437 0.524561 0.526341 0.498793
internal_weight=58466 49878 40013 19120 13247 8588 5873 20893 15608 12042 12748 9865 3048 3566 8273 5285 4716 4711 3877 198 4291 2825 3356 1355 828 320 3982 3966 103 2461
internal_count=58466 49878 40013 19120 13247 8588 5873 20893 15608 12042 12748 9865 3048 3566 8273 5285 4716 4711 3877 198 4291 2825 3356 1355 828 320 3982 3966 103 2461
is_linear=0
shrinkage=1


Tree=1
num_leaves=31
num_cat=0
split_feature=156 156 140 111 103 100 146 114 133 134 138 131 139 103 156 134 156 99 156 156 110 116 100 116 20 30 98 157 101 136
split_gain=1169.12 244.502 87.741 87.9431 68.5516 66.3547 65.7208 64.7822 50.3818 47.1987 51.185 43.6244 42.8168 41.9016 35.3051 29.9025 28.5308 26.2154 25.9056 21.2522 15.924 14.7448 14.7929 14.7373 13.2313 12.1285 11.7971 9.41161 8.82631 8.42713
threshold=0.31941699981689459 0.68257576227188121 0.00067048959317617129 -0.040770683437585824 -0.02046941593289375 -0.3255100399255752 -0.0059988799039274445 -0.105129886418581 -0.018982887268066403 -0.015338231343775986 -0.010636137798428534 0.068331770598888411 -0.0012224914971739052 -0.073304008692502962 0.78333333134651195 -0.033183768391609185 0.24537037312984469 0.27014258503913885 0.41666667163372045 0.13883399218320849 0.017363716848194603 -0.0090949963778257353 0.11951518803834917 -0.0088461921550333483 0.82142856717109691 0.32738095521926885 -0.16334954649209973 0.36792066693305975 0.095423683524131789 0.026272728107869629
decision_type=2 2 2 2 2 2 2 2 2 2 2 2 2 2 2 2 2 2 2 2 2 2 2 2 2 2 2 2 2 2
left_child=4 2 6 5 7 28 17 26 11 13 -11 -8 -10 -5 23 -7 25 18 -2 -9 -21 22 -16 29 -24 -6 -1 -22 -4 -3
right_child=1 14 3 9 16 15 8 19 12 10 -12 -13 -14 -15 21 -17 -18 -19 -20 20 27 -23 24 -25 -26 -27 -28 -29 -30 -31
leaf_value=0.013763703928436274 -0.0044619739698540687 0.0038790730994421804 -0.015358321874811036 0.0051478163653120371 -0.02257645462642574 0.0019806328461068712 -0.010011441546441943 -0.020230271728483792 -0.0049457094284391951 -0.0025282541550112354 0.0060368586195774891 0.006317349290375366 0.0018529255204539055 -0.0063023309062489917 0.012886098082031712 0.011088024290309445 -0.011319827899568334 -0.011090624917810474 0.0045060364494151758 -0.014940173261607115 -0.0076995200464111237 0.016657730975559722 -0.0053661369833584594 0.010218275317228773 0.012636617685918708 -0.017237556712798831 -0.012180661734964815 0.0059620242637936915 0.00243376246413358 0.01030245336369532
leaf_weight=298 923 2451 313 1092 3709 1089 3319 728 4164 2531 5606 466 5216 2973 1463 5270 888 328 6280 856 749 2053 242 2833 176 1512 51 151 89 647
leaf_count=298 923 2451 313 1092 3709 1089 3319 728 4164 2531 5606 466 5216 2973 1463 5270 888 328 6280 856 749 2053 242 2833 176 1512 51 151 89 647
internal_value=0 0.00300437 0.00125202 0.00370897 -0.0166392 0.00828333 -0.000998973 -0.0102057 -0.00313019 0.00117386 0.00337208 -0.00799953 -0.00116465 -0.00322509 0.0100485 0.00952925 -0.0196215 0.00272594 0.00335608 -0.0130406 -0.0100551 0.0137229 0.0105155 0.00761002 0.00220443 -0.021032 0.00995328 -0.00540105 -0.0114076 0.00522275
internal_weight=58466 49524 39659 18963 8942 6761 20696 2833 13165 12202 8137 3785 9380 4065 9865 6359 6109 7531 7203 2484 1756 3934 1881 5931 418 5221 349 900 402 3098
internal_count=58466 49524 39659 18963 8942 6761 20696 2833 13165 12202 8137 3785 9380 4065 9865 6359 6109 7531 7203 2484 1756 3934 1881 5931 418 5221 349 900 402 3098
is_linear=0
shrinkage=0.05


Tree=2
num_leaves=31
num_cat=0
split_feature=156 156 118 129 109 108 156 156 119 125 99 113 99 156 126 103 114 116 104 123 147 99 104 110 100 156 104 157 121 98
split_gain=1055.15 220.671 78.945 96.4322 71.4492 69.4689 61.9987 58.8023 53.2243 57.5238 45.717 43.9699 37.3329 32.0577 31.5466 28.9579 32.2615 22.903 19.8601 16.6178 16.1456 15.6553 14.1566 12.8039 12.1959 11.8324 10.955 9.93739 9.23576 8.9156
threshold=0.31941699981689459 0.68257576227188121 0.011591962072998287 -0.012210955843329428 0.026739027351140979 -0.19667633622884748 0.10000000521540643 0.50562438368797313 0.0018639607587829234 -0.042923148721456521 0.2382973060011864 0.031457928009331233 -0.67568367719650257 0.85791924595832836 0.040504483506083495 -0.02046941593289375 -0.105129886418581 -0.0088461921550333483 0.050289629027247436 -0.10530196875333785 0.048249026760458953 0.025321759283542637 0.18483847379684451 0.017363716848194603 -0.33237907290458674 0.25000001490116125 0.47877834737300878 0.36792066693305975 0.030142605304718021 -0.16334954649209973
decision_type=2 2 2 2 2 2 2 2 2 2 2 2 2 2 2 2 2 2 2 2 2 2 2 2 2 2 2 2 2 2
left_child=6 2 3 8 11 -6 18 21 14 -10 12 -5 -9 17 -2 16 29 19 -1 -3 -20 28 -21 -18 -23 -17 -19 -25 -4 -8
right_child=1 13 7 4 5 -7 15 10 9 -11 -12 -13 -14 -15 -16 25 23 26 20 22 -22 24 -24 27 -26 -27 -28 -29 -30 -31
leaf_value=-0.021433771313453875 0.0010677022583517248 -0.0051013642867344354 0.0039344982614435827 -0.0094851784040706644 -0.014204358213088453 0.0027875034651724676 0.013183732859606884 -0.010857194561671361 -0.0035533903998800896 0.008432930285440933 -0.012681796248367773 -0.0015936021622203181 0.0070243785122403105 0.016047166730666217 -0.0086991940606442886 -0.017305684258024728 -0.014340215337050669 0.011248424818813628 -0.01811303783037941 0.0074530336541930005 0.0094571557802122994 0.0056993811874359868 -0.0044338667030480268 -0.0082235141728093167 -0.0058870941042058512 -0.0099295259665260101 -0.019977236724068936 0.0056643176005867421 -0.0033539020576405353 -0.011024998089306669
leaf_weight=3663 4057 325 1538 4831 682 5084 211 300 1257 4902 319 2784 10319 1592 1038 2160 907 3954 118 3698 96 262 268 857 1681 733 28 151 605 46
leaf_count=3663 4057 325 1538 4831 682 5084 211 300 1257 4902 319 2784 10319 1592 1038 2160 907 3954 118 3698 96 262 268 857 1681 733 28 151 605 46
internal_value=0 0.00285419 0.00118941 -0.000552531 -0.00342157 0.000776423 -0.0158075 0.004046 0.00285831 0.00598578 0.00595789 -0.00660084 0.00651854 0.0095462 -0.000921381 -0.0121617 -0.00779263 0.00829423 -0.0205683 0.00575706 -0.00572448 -0.00107086 0.00664834 -0.0100262 -0.00432174 -0.0154393 0.0110266 -0.00613742 0.00187442 0.00882601
internal_weight=58466 49524 39659 24635 13381 5766 8942 15024 11254 6159 10938 7615 10619 9865 5095 5065 2172 8273 3877 4291 214 4086 3966 1915 1943 2893 3982 1008 2143 257
internal_count=58466 49524 39659 24635 13381 5766 8942 15024 11254 6159 10938 7615 10619 9865 5095 5065 2172 8273 3877 4291 214 4086 3966 1915 1943 2893 3982 1008 2143 257
is_linear=0
shrinkage=0.05


Tree=3
num_leaves=31
num_cat=0
split_feature=156 156 140 141 156 103 114 106 146 129 133 108 156 139 131 105 134 99 103 144 107 156 131 137 156 116 126 131 110 139
split_gain=952.936 203.256 73.6399 75.8697 54.5801 52.2286 52.3421 51.3117 48.4348 40.9769 40.0327 31.1452 30.3572 29.03 28.0603 22.8814 27.065 20.4544 20.5191 19.159 17.321 17.2907 16.0629 15.9997 15.5835 14.2109 14.0917 13.735 13.4983 12.833
threshold=0.3000000268220902 0.63333335518836986 0.00067048959317617129 0.0056777766440063724 0.75271740555763256 -0.02046941593289375 -0.105129886418581 0.075848869979381575 -0.0059988799039274445 0.0075845215469598779 -0.018982887268066403 0.031133936718106273 0.45620204508304601 -0.0012224914971739052 0.068331770598888411 0.058871215209364898 -0.0028553173178806897 0.27014258503913885 -0.075035978108644472 -0.02177136484533548 -0.016932522878050801 0.24537037312984469 -0.00050375147839076806 -0.015375731978565453 0.13883399218320849 -0.009712059982120989 0.15196241438388827 0.045152833685278899 0.017363716848194603 -0.0039944874588400117
decision_type=2 2 2 2 2 2 2 2 2 2 2 2 2 2 2 2 2 2 2 2 2 2 2 2 2 2 2 2 2 2
left_child=5 2 8 7 15 6 -1 12 17 -9 14 19 -4 -12 -10 26 20 18 -2 -5 -17 -7 -13 -18 -8 27 29 -6 -26 -3
right_child=1 4 3 11 25 21 24 9 10 -11 13 22 -14 -15 -16 16 23 -19 -20 -21 -22 -23 -24 -25 28 -27 -28 -29 -30 -31
leaf_value=0.0090247286142272985 -0.0018816021350733553 0.005262703255608344 -0.0040777887051473716 0.0033469147898627111 0.010528020483846252 -0.018992465454321157 -0.018285332949342502 0.0017578102113097916 -0.010123828928311721 -0.010892109711997874 -0.0051202283042561273 0.0061746340295003085 0.0043820653548624642 0.00082104078049973308 0.00406436780805269 0.012785216349287904 0.00061025468058537328 -0.010242342559652874 0.0043538867915599794 0.011095854425039796 -0.0054345473251821656 -0.010590779145996014 -0.00049368137217861859 0.009629644647279046 -0.014202895002362288 0.014579406740524556 -0.0089037862555660634 -0.0011932056897597089 -0.0050264089762158855 0.0095074471821651966
leaf_weight=331 1911 3689 1404 1050 2036 5221 728 1037 2818 1670 3680 1885 4326 4656 397 146 872 336 4254 3349 1202 698 1731 1131 776 2419 136 284 834 3459
leaf_count=331 1911 3689 1404 1050 2036 5221 728 1037 2818 1670 3680 1885 4326 4656 397 146 872 336 4254 3349 1202 698 1731 1131 776 2419 136 284 834 3459
internal_value=-2.47354e-10 0.00264868 0.000517947 0.00293765 0.00743032 -0.0153835 -0.00957167 -0.00037123 -0.00168702 -0.00604455 -0.00363011 0.00642129 0.00230824 -0.00180124 -0.00837012 0.00544059 0.00201901 0.00176471 0.00242023 0.00924763 -0.00345588 -0.0180029 0.00298124 0.00570603 -0.0122071 0.0118941 0.0070139 0.00909105 -0.00945368 0.00731769
internal_weight=58466 49878 34504 16452 15374 8588 2669 8437 18052 2707 11551 8015 5730 8336 3215 10635 3351 6501 6165 4399 1348 5919 3616 2003 2338 4739 7284 2320 1610 7148
internal_count=58466 49878 34504 16452 15374 8588 2669 8437 18052 2707 11551 8015 5730 8336 3215 10635 3351 6501 6165 4399 1348 5919 3616 2003 2338 4739 7284 2320 1610 7148
is_linear=0
shrinkage=0.05


Tree=4
num_leaves=31
num_cat=0
split_feature=156 156 118 139 119 109 144 156 156 145 99 125 114 156 103 114 116 124 104 123 99 147 104 109 100 104 43 121 156 98
split_gain=860.643 180.614 66.5432 64.1166 69.0332 62.3753 72.5877 51.816 51.0256 43.0001 38.5177 34.4747 34.2523 27.3228 23.2788 26.7527 19.581 18.0757 16.5718 14.4498 13.7451 13.2171 12.1415 10.7984 10.2987 9.68052 8.30331 8.27046 8.18993 8.0573
threshold=0.31941699981689459 0.68257576227188121 0.011591962072998287 0.019627070985734466 0.012018702924251558 0.026542088016867641 0.023371286690235141 0.10000000521540643 0.50562438368797313 -0.03259285353124141 0.2382973060011864 -0.042923148721456521 -0.052721710875630372 0.85791924595832836 -0.016516553238034245 -0.105129886418581 -0.0088461921550333483 0.069659255445003523 0.050289629027247436 -0.10530196875333785 0.025321759283542637 0.048249026760458953 0.18483847379684451 -0.056915456429123872 -0.33237907290458674 0.47877834737300878 0.27500000596046453 -0.01959558296948671 0.25000001490116125 -0.16334954649209973
decision_type=2 2 2 2 2 2 2 2 2 2 2 2 2 2 2 2 2 2 2 2 2 2 2 2 2 2 2 2 2 2
left_child=7 2 3 5 17 6 -2 18 20 -7 12 -6 -10 16 15 29 19 -5 -1 -3 27 -20 -21 -17 -22 -18 -23 -4 -16 -9
right_child=1 13 8 4 11 9 -8 14 10 -11 -12 -13 -14 -15 28 23 25 -19 21 22 24 26 -24 -25 -26 -27 -28 -29 -30 -31
leaf_value=-0.019419424096824081 -0.0072850038748537797 -0.0049950874895199459 0.0053838188960796396 0.00033823690067688036 -0.0083689367951425703 -0.0082368035809615905 0.0048450487693763224 0.012103140374793757 0.0013403499136621071 0.0034211487696117616 -0.011633586665652788 0.0088614028774912004 0.0077251194158975099 0.01463377125336157 -0.015608444547788142 -0.01326722570783829 0.010211124966016859 -0.0070496986775583489 -0.016277652826985935 0.0067064288648125527 0.0050893594655062662 -0.011055907585293229 -0.0043014651840854101 -0.0059378601883056503 -0.0055569059716379385 -0.019139595741921284 0.019561893742088336 -0.00091958126824101842 -0.0092563483357408667 -0.010910109828077096
leaf_weight=3663 7408 325 887 5020 314 951 1479 211 2887 4692 319 3780 7732 1592 2078 895 3954 991 118 3698 262 34 268 1156 1681 28 62 1256 679 46
leaf_count=3663 7408 325 887 5020 314 951 1479 211 2887 4692 319 3780 7732 1592 2078 895 3954 991 118 3698 262 34 268 1156 1681 28 62 1256 679 46
internal_value=0 0.00257768 0.00107155 -0.000527716 0.00253075 -0.0026551 -0.00526566 -0.0142764 0.00369418 0.00145536 0.00547518 0.00753831 0.00598981 0.00863192 -0.0109432 -0.00723293 0.00747604 -0.000879133 -0.0186288 0.00512995 -0.00107227 -0.00506714 0.00596114 -0.00913961 -0.00411838 0.0100025 0.00866567 0.00168736 -0.0140466 0.00795932
internal_weight=58466 49524 39659 24635 10105 14530 8887 8942 15024 5643 10938 4094 10619 9865 5065 2308 8273 6011 3877 4291 4086 214 3966 2051 1943 3982 96 2143 2757 257
internal_count=58466 49524 39659 24635 10105 14530 8887 8942 15024 5643 10938 4094 10619 9865 5065 2308 8273 6011 3877 4291 4086 214 3966 2051 1943 3982 96 2143 2757 257
is_linear=0
shrinkage=0.05


Tree=5
num_leaves=31
num_cat=0
split_feature=156 156 140 111 100 156 156 117 146 106 105 129 138 126 103 114 105 114 103 124 107 117 126 116 100 20 116 110 157 156
split_gain=776.751 164.316 63.1861 67.4157 52.8617 46.76 45.2282 42.5418 44.9875 72.9445 46.0584 33.0327 42.1399 22.0841 21.0378 23.6657 19.7943 15.5333 15.8437 15.3511 14.7731 12.7109 12.3046 11.6255 13.6876 11.8983 11.0807 10.4581 8.68762 8.31615
threshold=0.31941699981689459 0.63333335518836986 0.00067048959317617129 -0.040770683437585824 -0.3255100399255752 0.10000000521540643 0.76006442308425914 -0.099761873483657823 0.035408196970820434 -0.037349639460444443 0.11883830651640893 0.015414371620863678 -0.02629518415778875 -0.0029448244604282077 -0.02046941593289375 -0.105129886418581 0.058871215209364898 -0.061452966183423989 -0.12628268450498578 0.07733215764164926 -0.052894946187734597 0.0037588834529742603 0.15196241438388827 -0.0088461921550333483 0.11951518803834917 0.80714285373687755 -0.0088461921550333483 0.017363716848194603 0.36792066693305975 0.25000001490116125
decision_type=2 2 2 2 2 2 2 2 2 2 2 2 2 2 2 2 2 2 2 2 2 2 2 2 2 2 2 2 2 2
left_child=5 2 7 4 -4 20 16 -2 10 -10 -9 12 -5 -13 15 -7 22 -18 -19 -6 21 -1 26 24 -8 -26 -3 -17 -29 -16
right_child=1 6 3 11 19 14 23 8 9 -11 -12 13 -14 -15 29 27 17 18 -20 -21 -22 -23 -24 -25 25 -27 -28 28 -30 -31
leaf_value=-0.016896796723950409 0.0075081221774082677 0.0048930230611573273 -0.010959967623782617 -0.0040441457013031526 0.0092428149204069401 0.0075604250044800916 0.010480296230009992 0.00015358738865384181 0.0034330565538651988 -0.011052529803041229 -0.011479765872049699 0.00032364823786687442 0.0045679581637998517 -0.0079578127993319755 -0.014755528875774158 -0.012483628693581238 -0.0082712376942638399 -0.0055286579165760782 0.0044794998902235404 0.00097983412809111059 -0.018413945047254087 0.0084001050962328652 -0.0084605776240554119 0.013339567798659264 -0.0057144840695338836 0.0092622980573341656 0.0088193099688277429 -0.0070209610916181324 0.0059646929769466318 -0.0085680865028182601
leaf_weight=100 1211 3929 381 1948 4872 257 1712 11585 1240 2901 918 1591 5239 1627 2160 907 344 467 2563 637 3679 98 136 2363 283 249 3328 857 151 733
leaf_count=100 1211 3929 381 1948 4872 257 1712 11585 1240 2901 918 1591 5239 1627 2160 907 344 467 2563 637 3679 98 136 2363 283 249 3328 857 151 733
internal_value=-2.55913e-08 0.00244879 0.000516204 0.00276762 0.00704208 -0.0135628 0.00674122 -0.00153823 -0.00219682 -0.00671374 -0.000700331 0.000347391 0.00223295 -0.00386209 -0.0103963 -0.00667163 0.00496626 0.00179062 0.00293508 0.00828835 -0.0176975 -0.00435504 0.00641478 0.010888 0.00830326 0.00128678 0.00669447 -0.00858482 -0.00506993 -0.0131902
internal_weight=58466 49524 34150 16295 5890 8942 15374 17855 16644 4141 12503 10405 7187 3218 5065 2172 10767 3374 3030 5509 3877 198 7393 4607 2244 532 7257 1915 1008 2893
internal_count=58466 49524 34150 16295 5890 8942 15374 17855 16644 4141 12503 10405 7187 3218 5065 2172 10767 3374 3030 5509 3877 198 7393 4607 2244 532 7257 1915 1008 2893
is_linear=0
shrinkage=0.05


Tree=6
num_leaves=31
num_cat=0
split_feature=156 156 140 141 156 103 134 124 146 113 118 107 137 111 107 120 123 144 115 125 99 105 141 109 156 26 156 26 157 100
split_gain=701.539 152.519 51.9982 60.131 48.7183 38.5205 36.5867 37.1597 33.3427 29.8234 29.6766 41.5244 28.1111 27.2906 25.6128 36.2525 23.5835 22.1251 19.8884 18.9365 18.2837 17.4842 14.6107 14.1721 13.2019 12.7522 12.3061 12.9396 20.8024 11.2636
threshold=0.3000000268220902 0.61078807711601268 0.00067048959317617129 0.0094055552035570162 0.75271740555763256 -0.02046941593289375 -0.016322446055710312 0.034992357715964324 -0.0059988799039274445 -0.079448942095041261 0.010252465028315784 -0.017663883045315739 0.034503538161516197 -0.040770683437585824 0.10072889178991319 0.016693453304469589 0.018145361915230755 -0.02083261031657457 -0.057689955458044999 -0.045247493311762803 -0.67568367719650257 0.003714316058903933 -0.0269832219928503 -0.017566051334142681 0.10000000521540643 0.71153846383094799 0.22970779240131381 0.63461539149284374 0.41543419659137731 0.021671325899660591
decision_type=2 2 2 2 2 2 2 2 2 2 2 2 2 2 2 2 2 2 2 2 2 2 2 2 2 2 2 2 2 2
left_child=5 2 8 6 10 9 21 -8 19 18 11 -3 -13 23 15 -10 -15 -12 -1 25 -19 -4 -21 -5 -7 -2 -11 -28 -29 -16
right_child=1 4 3 13 -6 24 7 -9 14 26 17 12 -14 16 29 -17 -18 20 -20 22 -22 -23 -24 -25 -26 -27 27 28 -30 -31
leaf_value=0.011282102451585929 -0.0086416515840949341 0.0068346825814853147 -0.0022403873326869565 0.0036027636173589423 0.010267169146740404 -0.017619034420395644 0.0041153309185770065 -0.0050517084565515329 0.00063354829258283063 -0.013742530241069388 0.0021758121394509127 -0.003619103024025648 0.0058763426151460466 0.0061021065207484864 -0.011862531517084971 -0.0058374807323697455 -0.0017061909880552737 -0.007537483078999898 -0.0089084458914005012 0.0074641424580152091 0.0090838926196365102 -0.010902406233681376 0.0010907076954915092 0.01150585544973419 -0.012864118800928515 0.00018626944843191118 -0.016950609871568517 -0.0054246746363559991 0.025230815592739316 -0.0040627083393448074
leaf_weight=290 661 2702 1418 776 4739 3216 3994 1528 4801 1329 1933 3013 1051 2474 1131 3939 1586 171 210 1289 4710 991 2981 2132 2703 1070 204 575 61 788
leaf_count=290 661 2702 1418 776 4739 3216 3994 1528 4801 1329 1933 3013 1051 2474 1131 3939 1586 171 210 1289 4710 991 2981 2132 2703 1070 204 575 61 788
internal_value=-2.46321e-08 0.00227257 0.000165876 0.00231216 0.00590156 -0.0131993 -0.000664634 0.00157771 -0.00175325 -0.00820752 0.0043776 0.0020308 -0.00116207 0.005701 -0.00343171 -0.00228235 0.0030507 0.006707 0.0027919 0.00122723 0.00850027 -0.0058064 0.00301611 0.00939903 -0.015449 -0.00318248 -0.0107455 -0.00599555 -0.00246958 -0.00866305
internal_weight=58466 49878 31559 14899 18319 8588 7931 5522 16660 2669 13580 6766 4064 6968 10659 8740 4060 6814 500 6001 4881 2409 4270 2908 5919 1731 2169 840 636 1919
internal_count=58466 49878 31559 14899 18319 8588 7931 5522 16660 2669 13580 6766 4064 6968 10659 8740 4060 6814 500 6001 4881 2409 4270 2908 5919 1731 2169 840 636 1919
is_linear=0
shrinkage=0.05


Tree=7
num_leaves=31
num_cat=0
split_feature=156 156 118 129 109 108 139 156 111 156 110 120 126 131 141 103 114 156 99 109 135 120 111 133 158 99 156 26 100 43
split_gain=633.631 134.911 54.7033 70.6754 51.4551 47.1259 45.1262 42.8974 41.5123 38.7014 33.4268 30.493 26.2684 26.1894 24.3182 23.5646 29.288 20.7928 11.356 10.0408 9.93832 12.8017 14.8319 9.97385 9.51683 9.51848 8.7812 8.60413 8.24142 7.47646
threshold=0.31941699981689459 0.68498390913009655 0.011591962072998287 -0.012210955843329428 0.026739027351140979 -0.19667633622884748 0.02493469882756472 0.50562438368797313 0.00094262036145664762 0.067424245178699507 -0.049263015389442437 0.030765468254685405 -0.021498584188520905 0.0170380212366581 0.00052461611630860727 -0.02046941593289375 -0.105129886418581 0.85791924595832836 0.025321759283542637 -0.056915456429123872 -0.017101632431149479 -0.014380067586898802 0.016778461635112766 0.010770101565867664 0.94743126630783092 -0.67496705055236805 0.25000001490116125 0.86538460850715648 -0.33237907290458674 0.30833333730697637
decision_type=2 2 2 2 2 2 2 2 2 2 2 2 2 2 2 2 2 2 2 2 2 2 2 2 2 2 2 2 2 2
left_child=9 2 3 8 6 -6 -5 18 13 -1 12 -12 -9 -2 -10 16 29 20 -4 -18 21 22 -3 -23 25 -22 -17 -26 -20 -11
right_child=1 17 7 4 5 -7 -8 10 14 15 11 -13 -14 -15 -16 26 19 -19 28 -21 24 23 -24 -25 27 -27 -28 -29 -30 -31
leaf_value=-0.016905038437636882 0.0067347602321884735 0.004873111627034946 0.0014303219273388136 -0.0080155917407307622 -0.011672506189981703 0.0022657026093872486 0.00052950749554893915 0.0091474844750955974 0.0029009041118218983 -0.015368826276300332 0.008995343558910858 0.0021885942654313764 -0.0012526775264149787 0.00040828475878658887 -0.0049851227360341822 -0.013820376549034664 -0.012048890060288588 0.01281102597327418 0.0043889598868372421 -0.0051195898909384748 -0.0034869259572267207 0.0083509626507962814 -0.009249754885971781 0.0010476262040894971 0.00081788662163590506 0.0095420207887289155 -0.0076495309621608821 0.01180038816476151 -0.0051335523149573688 0.010330905109716359
leaf_weight=2980 4917 420 2143 5540 688 5102 2141 771 1679 31 5115 2429 2852 2454 2338 2790 965 1592 262 1150 145 1565 333 669 733 3719 733 236 1681 293
leaf_count=2980 4917 420 2143 5540 688 5102 2141 771 1679 31 5115 2429 2852 2454 2338 2790 965 1592 262 1150 145 1565 333 669 733 3719 733 236 1681 293
internal_value=-2.88789e-08 0.0022117 0.000947415 -0.000498769 -0.00295016 0.000608278 -0.00563313 0.00330468 0.00240057 -0.0122497 0.00490868 0.0068045 0.000959553 0.00462926 -0.00168775 -0.00992148 -0.00613875 0.00759915 -0.00107784 -0.00828439 0.00653717 0.00426575 -0.00136662 0.00616641 0.00793973 0.00905165 -0.0125384 0.00349972 -0.00384662 0.00784859
internal_weight=58466 49524 40112 24859 13471 5790 7681 15253 11388 8942 11167 7544 3623 7371 4017 5962 2439 9412 4086 2115 7820 2987 753 2234 4833 3864 3523 969 1943 324
internal_count=58466 49524 40112 24859 13471 5790 7681 15253 11388 8942 11167 7544 3623 7371 4017 5962 2439 9412 4086 2115 7820 2987 753 2234 4833 3864 3523 969 1943 324
is_linear=0
shrinkage=0.05


Tree=8
num_leaves=31
num_cat=0
split_feature=156 156 140 141 103 117 146 102 105 156 156 129 88 147 118 107 116 144 103 114 88 112 104 139 43 43 157 110 37 139
split_gain=571.871 123.703 49.5202 52.7426 36.9682 35.9567 37.0517 62.5773 37.0262 35.0355 33.7359 32.0172 19.1741 19.1449 17.6151 29.2433 20.7383 17.7896 15.9273 17.2688 15.6196 13.9807 11.6567 10.5278 9.55116 10.2139 9.44913 9.33914 9.02365 8.34904
threshold=0.31941699981689459 0.63333335518836986 0.00067048959317617129 0.0056777766440063724 0.033558107912540443 -0.095383357256650911 0.035408196970820434 0.090159364044666304 0.11883830651640893 0.10000000521540643 0.78333333134651195 0.0075845215469598779 -3.2504067420959468 0.036857910454273231 0.010252465028315784 -0.017663883045315739 -0.0062745842151343814 -0.027936135418713089 -0.016516553238034245 -0.105129886418581 -0.33604177832603449 0.070572484284639372 0.050289629027247436 -0.030756087042391297 0.27500000596046453 0.4083333313465119 0.30663135647773748 0.017363716848194603 0.45833332836627966 0.0025618914514780049
decision_type=2 2 2 2 2 2 2 2 2 2 2 2 2 2 2 2 2 2 2 2 2 2 2 2 2 2 2 2 2 2
left_child=9 2 5 4 11 -2 8 -8 -7 22 14 -4 29 -14 15 -3 -17 23 19 -11 -6 -19 -1 -16 -24 -26 -12 -21 -29 -5
right_child=1 10 3 12 20 6 7 -9 -10 18 26 -13 13 -15 17 16 -18 21 -20 27 -22 -23 24 -25 25 -27 -28 28 -30 -31
leaf_value=-0.015879755838454621 0.0066111140603959161 0.0068902286146779405 0.0010039259274118814 -0.0018073321569678791 0.00045102818447636384 8.9229591042091309e-05 -0.0096577603009358835 0.0049155908131993525 -0.010341214427557732 0.0063773009637124491 0.010346375677312954 -0.0061995177069190405 0.0082021346798808875 0.0009641542425137137 -0.003794409068605344 -0.004476287345540445 0.0033128327624464757 0.0090151840989162371 -0.011463510703010925 -0.011004549095122385 0.0091065335596564063 0.00019402472354889338 -0.014907751491916622 0.0050287569292767915 0.015365572003625025 -0.01860059841184427 -0.0015781547375884786 -0.0063925993677222057 0.0051957251018529289 0.0044805393912103605
leaf_weight=3663 1300 2258 3349 1088 926 11585 3085 967 918 257 3761 2858 4719 1135 561 1649 1773 3840 2757 947 1196 510 102 849 82 30 173 898 206 1024
leaf_count=3663 1300 2258 3349 1088 926 11585 3085 967 918 257 3761 2858 4719 1135 561 1649 1773 3840 2757 947 1196 510 102 849 82 30 173 898 206 1024
internal_value=-4.50877e-09 0.00210117 0.000424319 0.00241747 -0.000363917 -0.00139441 -0.00202343 -0.00617856 -0.000676352 -0.0116374 0.00582554 -0.00231217 0.00532616 0.00679974 0.00445111 0.00247377 -0.000439185 0.00639997 -0.00889618 -0.00582651 0.00533219 0.00798219 -0.0152166 0.00151468 -0.00383875 0.00620599 0.00982066 -0.00735861 -0.00422521 0.0012391
internal_weight=58466 49524 34150 16295 8329 17855 16555 4052 12503 8942 15374 6207 7966 5854 11440 5680 3422 5760 5065 2308 2122 4350 3877 1410 214 112 3934 2051 1104 2112
internal_count=58466 49524 34150 16295 8329 17855 16555 4052 12503 8942 15374 6207 7966 5854 11440 5680 3422 5760 5065 2308 2122 4350 3877 1410 214 112 3934 2051 1104 2112
is_linear=0
shrinkage=0.05


Tree=9
num_leaves=31
num_cat=0
split_feature=156 156 140 111 100 156 117 103 114 141 134 107 142 118 107 137 134 144 114 114 156 26 157 32 88 136 116 131 147 98
split_gain=516.645 115.611 40.7183 50.7491 42.5869 36.2527 28.9131 28.4125 28.9569 25.18 27.4968 23.4344 31.1679 22.2698 33.2943 23.7347 18.8937 18.0503 15.3424 13.6195 10.9518 11.3486 18.1298 10.8662 10.3061 10.2691 9.99998 10.936 8.70677 7.92097
threshold=0.3000000268220902 0.61078807711601268 0.00067048959317617129 -0.040770683437585824 -0.3255100399255752 0.75271740555763256 -0.099761873483657823 -0.02046941593289375 -0.105129886418581 0.035656481981277473 -0.015338231343775986 0.089031934738159194 0.011034610215574505 0.010252465028315784 -0.017663883045315739 0.0065524626988917598 -0.033183768391609185 -0.02083261031657457 0.05229937098920346 -0.0518424455076456 0.22970779240131381 0.63461539149284374 0.41543419659137731 10.500000000000002 -1.4385008811950681 0.036698633804917342 -0.009712059982120989 0.045152833685278899 0.0092805456370115297 -0.16334954649209973
decision_type=2 2 2 2 2 2 2 2 2 2 2 2 2 2 2 2 2 2 2 2 2 2 2 2 2 2 2 2 2 2
left_child=7 2 6 4 -4 13 -2 8 29 10 -5 12 -8 14 28 -16 -6 25 -13 -19 -10 -22 -23 -9 -11 -15 27 -7 -3 -1
right_child=1 5 3 9 16 26 11 23 20 24 -12 18 -14 17 15 -17 -18 19 -20 -21 21 22 -24 -25 -26 -27 -28 -29 -30 -31
leaf_value=0.010062400963300494 0.0062159573432599494 0.0078967560881332451 -0.010265522288099101 -0.0060358228317521868 -0.00014788876092847915 0.0078069341433832972 -0.002946712800214702 -0.014197150896445805 -0.011622002598147406 -0.00018925465565271306 0.00053015930102344553 -0.0079092513405544605 0.0023554047133396965 0.00019168913389997432 -0.0038647659489993596 0.0041777137813252905 0.0084036839527179795 0.0032090554886319853 0.00038591046850825454 0.009087528780083844 -0.014889243049383567 -0.0040135228270909975 0.024340862960485782 -0.0083409071152302176 0.0068437623017209709 0.010426776013404939 0.011128321308429353 -0.0026524576455762517 0.0016592062360495123 -0.011466952767436471
leaf_weight=281 1109 1907 379 2378 760 2036 8234 4970 1474 799 4835 2417 4177 1645 2666 1398 4259 1375 723 3506 202 600 62 949 1489 288 2419 284 795 50
leaf_count=281 1109 1907 379 2378 760 2036 8234 4970 1474 799 4835 2417 4177 1645 2666 1398 4259 1375 723 3506 202 600 62 949 1489 288 2419 284 795 50
internal_value=0 0.00195026 0.000116072 0.00201537 0.00588675 0.00510981 -0.00158217 -0.0113271 -0.00703948 -0.000183712 -0.00163394 -0.00213868 -0.00116184 0.0037951 0.00176201 -0.00109688 0.00710782 0.00581303 -0.00599776 0.00743276 -0.00899995 -0.00451923 -0.00134388 -0.0132594 0.00438575 0.00172013 0.00887582 0.00652429 0.00606361 0.00679018
internal_weight=58466 49878 31559 14899 5398 18319 16660 8588 2669 9501 7213 15551 12411 13580 6766 4064 5019 6814 3140 4881 2338 864 662 5919 2288 1933 4739 2320 2702 331
internal_count=58466 49878 31559 14899 5398 18319 16660 8588 2669 9501 7213 15551 12411 13580 6766 4064 5019 6814 3140 4881 2338 864 662 5919 2288 1933 4739 2320 2702 331
is_linear=0
shrinkage=0.05


Tree=10
num_leaves=31
num_cat=0
split_feature=101 118 115 135 113 116 116 143 144 143 139 134 22 144 30 126 112 105 107 88 140 137 98 157 157 14 142 157 89 157
split_gain=307.972 77.8157 67.2151 75.3905 53.0627 52.3446 61.8822 44.161 40.932 37.4893 36.4775 35.7275 33.6339 32.6058 24.8474 22.9944 18.365 17.4667 18.7228 17.1636 29.7642 12.0881 13.9718 10.9991 10.7628 8.35498 7.96445 7.91132 7.73302 7.65451
threshold=-0.38175280392169947 0.010252465028315784 0.042269131168723113 0.027307057753205303 -0.06334108859300612 -0.0069513481575995675 0.0073037163820117721 -0.046019820496439927 -0.027936135418713089 0.063728343695402159 0.021414346061646942 0.041838796809315688 0.56250000000000011 0.029811933636665348 0.37500000000000006 0.029012163169682029 0.028997180052101616 0.052676297724246986 -0.071368660777807222 0.38287432491779333 0.084066092967987074 -0.010461538564413784 -0.35720263421535486 0.43307124078273779 0.22831159830093387 3.0628833770751958 0.03690332546830178 0.37795808911323553 3.2330540418624882 0.3149822354316712
decision_type=2 2 2 2 2 2 2 2 2 2 2 2 2 2 2 2 2 2 2 2 2 2 2 2 2 2 2 2 2 2
left_child=14 2 3 5 13 7 -7 -2 17 12 11 -5 -10 27 -1 21 -15 18 -6 23 -21 22 -4 -17 -11 -23 -16 -3 -18 -12
right_child=1 4 15 10 8 6 -8 -9 9 24 29 -13 -14 16 26 19 28 -19 -20 20 -22 25 -24 -25 -26 -27 -28 -29 -30 -31
leaf_value=-0.013707634938159494 0.0053183404683681615 -0.0071013879327425106 -0.0056392509044031385 0.0026475511026570718 -0.0010553068003310488 0.0064135294481883392 -0.003376089863079728 -0.007541862013635413 0.00076424990547820928 0.0028854504960602913 0.006187095603644166 -0.0098159444600737847 0.0076654005851895107 0.0099493978418588955 -0.0074299057617520708 0.0012020772295743898 -0.0033340524867336999 -0.0068530311319439045 0.0063170616487367272 -0.0087577438854979425 0.0080103522046029683 -0.0010217309693120401 0.0079951206642590918 0.012989431497432312 -0.0068956542349286392 0.0042759697055509988 0.0034009434728605515 -0.017342424678536132 0.005908415718449779 0.012765096017317568
leaf_weight=3806 731 945 201 2984 2348 2184 6185 7624 2111 479 1098 712 10841 474 1196 1132 1107 722 1359 1062 352 1037 2769 240 679 2623 197 237 284 747
leaf_count=3806 731 945 201 2984 2348 2184 6185 7624 2111 479 1098 712 10841 474 1196 1132 1107 722 1359 1062 352 1037 2769 240 679 2623 197 237 284 747
internal_value=0 0.00113368 -0.000443649 -0.00194149 0.00344889 -0.00361633 -0.000820671 -0.00641599 0.004454 0.00577028 0.00311262 0.000244821 0.00654102 -0.00266479 -0.0116154 0.00309756 0.00145063 0.000259374 0.00164628 -0.000712503 -0.00457943 0.00469932 0.00707039 0.00326924 -0.00284564 0.00277361 -0.00589433 -0.00916161 -0.00144285 0.00885419
internal_weight=58466 53267 31681 22265 21586 16724 8369 8355 18539 14110 5541 3696 12952 3047 5199 9416 1865 4429 3707 2786 1414 6630 2970 1372 1158 3660 1393 1182 1391 1845
internal_count=58466 53267 31681 22265 21586 16724 8369 8355 18539 14110 5541 3696 12952 3047 5199 9416 1865 4429 3707 2786 1414 6630 2970 1372 1158 3660 1393 1182 1391 1845
is_linear=0
shrinkage=0.05


Tree=11
num_leaves=31
num_cat=0
split_feature=156 156 156 129 135 136 111 156 141 143 144 137 117 102 111 127 146 120 117 116 100 20 114 122 127 102 107 141 156 116
split_gain=433.342 100.984 40.3237 31.2182 26.7394 35.2602 26.6657 23.9013 21.0348 20.3937 26.1811 25.5216 24.4705 20.3349 19.3301 19.2663 16.295 14.0313 19.812 13.7241 14.6254 15.0254 13.3824 12.8437 9.58286 9.55197 9.3266 8.31078 7.99123 7.52082
threshold=0.3000000268220902 0.71470099687576305 0.57369652390480053 -0.012210955843329428 0.025859730318188671 -0.04696241952478885 0.00094262036145664762 0.067424245178699507 -0.030623438768088814 -0.0081059727817773802 -0.017162884585559365 -0.014033844228833912 0.032246971502900131 -0.047316735610365861 -0.079922713339328752 0.00010697133912174196 0.033208088949322707 -0.044548248872160905 0.029628729447722438 -0.010366351343691347 0.11951518803834917 0.75952380895614635 -0.03520302660763263 0.02891041245311499 0.073563497513532652 0.25141754001379019 0.24358551949262622 -0.01583134941756725 0.25000001490116125 -0.014139240607619284
decision_type=2 2 2 2 2 2 2 2 2 2 2 2 2 2 2 2 2 2 2 2 2 2 2 2 2 2 2 2 2 2
left_child=7 2 3 6 5 -5 8 -1 -2 10 12 15 -4 -13 -6 -11 -12 18 -9 20 24 -22 -8 25 29 28 -21 -25 -19 -3
right_child=1 19 9 4 14 -7 22 17 -10 11 16 13 -14 -15 -16 -17 -18 23 -20 26 21 -23 -24 27 -26 -27 -28 -29 -30 -31
leaf_value=-0.013995142534983199 -0.0030558684128431141 0.0083800347930061986 0.0031746113355332222 0.0070053372250928024 0.0096814153530730938 -0.004324941069657395 -0.0060412761451896458 -0.0072464406392622333 0.0051995867790782403 -0.0067438707821102454 0.0085553492511317077 -0.001474797407058877 -0.0083976801474848328 0.0047496600852457776 -6.7597262593124013e-05 0.00080822117950296265 0.0010908762310178474 -0.011749775172919072 0.012927470145647697 0.0094774069380081892 -0.0069875433194874093 0.0053672031815704922 0.00029647529911090362 0.0010557652687559712 -0.001850024505792921 0.023656685074957294 -0.018374646973136247 -0.0080267326287547427 -0.0056881095930426933 -0.0088070869590070079
leaf_weight=2980 916 2329 2473 743 580 8983 1093 393 4868 1419 3608 1810 560 4759 4104 2083 919 3322 176 3770 449 544 3493 423 280 20 30 619 655 65
leaf_count=2980 916 2329 2473 743 580 8983 1093 393 4868 1419 3608 1810 560 4759 4104 2083 919 3322 176 3770 449 544 3493 423 280 20 30 619 655 65
internal_value=0 0.00178616 0.000842003 -0.000458291 -0.00196394 -0.00345874 0.00163345 -0.0103738 0.00389126 0.00266981 0.00463271 0.00119576 0.00103589 0.00303384 0.00113888 -0.00225065 0.00704125 -0.00844815 -0.000995222 0.00714793 0.00496243 -0.000214431 -0.00121313 -0.00928866 0.00688661 -0.0105784 0.00925525 -0.0043354 -0.010753 0.0079106
internal_weight=58466 49878 42411 24780 14410 9726 10370 8588 5784 17631 7560 10071 3033 6569 4684 3502 4527 5608 569 7467 3667 993 4586 5039 2674 3997 3800 1042 3977 2394
internal_count=58466 49878 42411 24780 14410 9726 10370 8588 5784 17631 7560 10071 3033 6569 4684 3502 4527 5608 569 7467 3667 993 4586 5039 2674 3997 3800 1042 3977 2394
is_linear=0
shrinkage=0.05


Tree=12
num_leaves=31
num_cat=0
split_feature=156 156 156 118 129 109 117 127 110 119 107 103 99 136 88 139 113 113 124 156 26 157 157 119 26 157 104 113 140 123
split_gain=391.891 84.0133 41.7324 41.6649 43.2996 41.0275 40.3429 38.1177 32.2864 31.1466 33.7873 28.1265 23.5887 18.708 18.0049 16.6627 15.0749 26.2054 13.3985 12.2061 11.1291 63.1673 25.275 9.93139 8.90146 16.1868 8.86864 8.43961 8.19485 11.0112
threshold=0.36388340592384344 0.71470099687576305 0.24537037312984469 0.010252465028315784 -0.012210955843329428 0.026739027351140979 -0.043325796723365777 -0.04490897245705127 -0.047720601782202714 0.0018639607587829234 -0.016021930612623688 0.11317166686058046 -0.67568367719650257 0.023098234087228778 -4.1385321617126456 -0.0083969603292644007 -0.079448942095041261 -0.084246825426816926 0.051836941391229636 0.87771740555763256 0.67307692766189586 0.47125415503978735 0.45566275715827947 0.018246600404381755 0.63461539149284374 0.37888959050178533 0.46647985279560095 -0.19765468686819074 -0.016929440200328823 -0.14523981511592862
decision_type=2 2 2 2 2 2 2 2 2 2 2 2 2 2 2 2 2 2 2 2 2 2 2 2 2 2 2 2 2 2
left_child=2 3 16 4 9 6 -6 -7 15 13 -11 12 -10 -2 -13 18 17 -1 -5 26 22 27 24 -17 -4 -26 28 -22 -3 -30
right_child=1 19 20 8 5 7 -8 -9 11 10 -12 14 -14 -15 -16 23 -18 -19 -20 -21 21 -23 -24 -25 25 -27 -28 -29 29 -31
leaf_value=-0.011176131862202246 -0.0027193284101588496 0.0087580991836580281 -0.0088258750783314771 -0.00011454949800408128 0.0021504483112772953 -0.0069624984951162667 -0.0066763042456774021 0.0030091137001232878 -0.014103288849879689 0.0089535669692447778 0.0013978902092791009 0.00059827091269688338 0.0036023312675341197 0.0044450177892129449 0.011695784307316113 0.00073265312094757432 -0.011738452028808523 0.00955486733412763 -0.0070113733561413026 0.011273148319824823 0.01248699669648929 0.02343022228405579 -0.025343329177472357 0.0082117656720376159 -0.0052268489934276631 0.022782812473929159 -0.015242773730580401 -0.0054658605193220041 -0.0068059246149447632 0.0053731179668732587
leaf_weight=429 3713 1920 479 1889 1670 1211 5744 4589 192 2437 3771 459 8642 1207 1813 1360 6313 236 1124 1264 67 213 189 660 180 72 49 2340 194 4040
leaf_count=429 3713 1920 479 1889 1670 1211 5744 4589 192 2437 3771 459 8642 1207 1813 1360 6313 236 1124 1264 67 213 189 660 180 72 49 2340 194 4040
internal_value=0 0.00191724 -0.0087401 0.00101819 -0.000287769 -0.00222313 -0.0046874 0.00092608 0.00298821 0.00200994 0.00436493 0.0044937 0.00321664 -0.000960608 0.00945626 -0.000332916 -0.0109838 -0.00381079 -0.00268936 0.00679045 -0.00431558 -0.00265123 -0.00904833 0.00317937 -0.00482265 0.00276781 0.00587586 -0.00496306 0.00604531 0.0048136
internal_weight=58466 47948 10518 40481 24342 13214 7414 5800 16139 11128 6208 11106 8834 4920 2272 5033 6978 665 3013 7467 3540 2620 920 2020 731 252 6203 2407 6154 4234
internal_count=58466 47948 10518 40481 24342 13214 7414 5800 16139 11128 6208 11106 8834 4920 2272 5033 6978 665 3013 7467 3540 2620 920 2020 731 252 6203 2407 6154 4234
is_linear=0
shrinkage=0.05


Tree=13
num_leaves=31
num_cat=0
split_feature=156 156 118 146 129 118 156 110 131 143 102 125 137 126 143 113 113 116 108 116 156 129 138 26 104 158 26 20 108 107
split_gain=353.685 75.9356 38.9939 47.4573 38.6997 43.0661 37.6625 30.0366 27.9558 27.9286 28.3655 21.458 21.852 17.7771 14.4272 13.6044 23.6527 11.5465 12.5719 11.4968 10.8593 10.091 10.5926 12.784 20.4953 10.2388 9.92923 9.66853 9.37377 7.84551
threshold=0.36388340592384344 0.71666666865348827 0.010252465028315784 -0.011391654144972561 -0.018901864066720005 -0.10207475349307059 0.24537037312984469 -0.047720601782202714 -0.0056508274283260098 0.063728343695402159 -0.047316735610365861 -0.045247493311762803 0.053863579407334335 -0.021498584188520905 -0.017205459997057911 -0.079448942095041261 -0.084246825426816926 -0.010366351343691347 -0.14461834728717801 -0.015158236492425202 0.45620204508304601 -0.010579182300716637 0.0089146969839930552 0.67307692766189586 0.039514718577265746 0.14976064115762713 0.71153846383094799 0.75952380895614635 0.21093676984310153 0.24358551949262622
decision_type=2 2 2 2 2 2 2 2 2 2 2 2 2 2 2 2 2 2 2 2 2 2 2 2 2 2 2 2 2 2
left_child=6 2 3 11 8 -6 15 13 -5 10 -9 26 -13 20 -15 16 -1 18 27 28 -4 22 -8 25 -25 -24 -2 -3 -20 -19
right_child=1 17 7 4 5 -7 21 9 -10 -11 -12 12 -14 14 -16 -17 -18 29 19 -21 -22 -23 23 24 -26 -27 -28 -29 -30 -31
leaf_value=-0.010617585547610369 -0.0076135476782477791 -0.0092002244873539991 -0.0072797496102029128 0.0043526018265225451 0.0074953506378071938 -0.0045735317586686674 -0.0051543892444518508 0.0017040291486878146 -0.0025111599425768809 -0.0046320075189904605 0.007067692866598297 0.0055268922269228775 -0.0034187284749933179 0.001730681240428049 -0.0045460110367170001 -0.011151548092779816 0.0090775283783749959 0.0087664739234856858 0.0069505373052098935 -0.0064336281940735977 0.0065562222585028723 -0.0066058321718567214 0.0014167661145100805 -0.0035125529609626883 0.016281278270967994 -0.018395282223149987 0.0004801263768815173 0.0038393327626608572 -0.018284866237832653 -0.016778775585802978
leaf_weight=429 519 267 162 3423 800 9651 849 3999 2617 808 6438 5243 784 1529 2278 6313 236 3589 2779 179 1114 1882 179 236 292 102 1399 303 37 30
leaf_count=429 519 267 162 3423 800 9651 849 3999 2617 808 6438 5243 784 1529 2278 6313 236 3589 2779 179 1114 1882 179 236 292 102 1399 303 37 30
internal_value=0 0.0018214 0.000985919 -0.000277997 -0.00180761 -0.00364908 -0.00830312 0.00287774 0.00137787 0.00431957 0.00501312 0.00289627 0.00436233 -0.000311024 -0.00202384 -0.0104346 -0.0036199 0.00656128 0.00453821 0.00583394 0.00479483 -0.00409977 -0.00125166 0.00283813 0.00742659 -0.00576498 -0.00170794 -0.00226099 0.00661591 0.00855242
internal_weight=58466 47948 40764 24436 16491 10451 10518 16328 6040 11245 10437 7945 6027 5083 3807 6978 665 7184 3565 2995 1276 3540 1658 809 528 281 1918 570 2816 3619
internal_count=58466 47948 40764 24436 16491 10451 10518 16328 6040 11245 10437 7945 6027 5083 3807 6978 665 7184 3565 2995 1276 3540 1658 809 528 281 1918 570 2816 3619
is_linear=0
shrinkage=0.05


Tree=14
num_leaves=31
num_cat=0
split_feature=156 156 156 140 111 145 146 156 116 139 134 109 141 88 98 99 101 101 113 113 156 100 26 157 157 158 26 158 157 43
split_gain=319.205 70.6094 33.9877 32.1715 37.9789 29.0204 26.0753 19.971 19.946 22.0812 18.2941 28.1754 18.7094 17.5981 15.9338 12.5841 13.37 15.0355 12.2772 21.3487 11.4992 10.5306 9.61294 53.8779 22.1752 8.22966 8.0364 15.1038 8.0932 7.71309
threshold=0.36388340592384344 0.63333335518836986 0.24537037312984469 0.00067048959317617129 -0.040770683437585824 -0.033648092299699776 -0.047312391921877854 0.78333333134651195 0.084535308182239546 -0.0012224914971739052 -0.012200191151350735 -0.1111871227622032 0.053398992866277702 -3.8952819108963008 0.020352489314973358 -0.67568367719650257 -0.018784029409289357 0.0076481432188302287 -0.079448942095041261 -0.084246825426816926 0.53371214866638195 0.055133519694209106 0.67307692766189586 0.47125415503978735 0.45566275715827947 0.9028734862804414 0.63461539149284374 0.067447543144226088 0.36720074713230139 0.47499999403953558
decision_type=2 2 2 2 2 2 2 2 2 2 2 2 2 2 2 2 2 2 2 2 2 2 2 2 2 2 2 2 2 2
left_child=2 3 18 6 5 21 20 15 9 -8 12 -12 -6 -7 -10 -3 -17 -18 19 -1 -2 -5 24 25 26 29 28 -28 -4 -24
right_child=1 7 22 4 10 13 8 -9 14 -11 11 -13 -14 -15 -16 16 17 -19 -20 -21 -22 -23 23 -25 -26 -27 27 -29 -30 -31
leaf_value=-0.010086953641242676 0.00074643490843519678 -0.0079493999246201923 -0.0035984278291537764 -0.0085592659336493123 -0.0043725437616877515 0.0016748436182690456 -0.0033072072351474006 0.0075973574026434697 -0.0078353311991444467 0.00098321692762408288 -0.009172700388529938 0.0028519605021386975 0.0045604482026307984 0.0085552374934193126 0.0038870324144422972 0.0058371657688496767 -0.0020657345942265786 0.0035767398950578596 -0.010593988241785387 0.0086240362265572312 0.007538148180389382 0.0027933273509120954 -0.0060515778977886445 0.021739296383079403 -0.023556707878193445 -0.023075873878403624 0.018605854616406521 -0.0066206341426885921 -0.017492045619061144 1.399881189187486e-05
leaf_weight=429 1525 236 323 447 2963 1255 5844 3934 2010 6157 532 5738 730 3604 338 4445 1523 5236 6313 236 1056 375 1563 213 189 58 95 157 156 786
leaf_count=429 1525 236 323 447 2963 1255 5844 3934 2010 6157 532 5738 730 3604 338 4445 1523 5236 6313 236 1056 375 1563 213 189 58 95 157 156 786
internal_value=0 0.00173032 -0.00788804 0.00041196 0.00204671 0.00530916 -0.00109832 0.00452324 -0.00193078 -0.00110565 0.000185857 0.00183063 -0.00260524 0.00677932 -0.00614555 0.00346556 0.00370659 0.00230456 -0.00991291 -0.00343855 0.00352753 -0.00337466 -0.00389489 -0.00234792 -0.00829351 -0.00448315 -0.00433501 0.00287674 -0.00813913 -0.00402002
internal_weight=58466 47948 10518 32574 15644 5681 16930 15374 14349 12001 9963 6270 3693 4859 2348 11440 11204 6759 6978 665 2581 822 3540 2620 920 2407 731 252 479 2349
internal_count=58466 47948 10518 32574 15644 5681 16930 15374 14349 12001 9963 6270 3693 4859 2348 11440 11204 6759 6978 665 2581 822 3540 2620 920 2407 731 252 479 2349
is_linear=0
shrinkage=0.05


Tree=15
num_leaves=31
num_cat=0
split_feature=156 156 103 112 136 138 143 145 156 105 26 106 157 121 133 110 119 116 100 157 26 157 156 119 26 156 138 119 119 145
split_gain=288.091 64.0542 31.0657 23.4739 32.3885 25.5885 33.519 21.7435 21.158 19.7245 25.5407 28.2903 24.159 18.41 17.7831 26.8386 16.3439 15.6471 14.9753 14.8511 61.7691 31.9436 28.2562 14.5996 13.0313 12.04 10.1675 24.8489 12.8216 7.86293
threshold=0.36388340592384344 0.61078807711601268 -0.059085227549076073 -0.01652730721980333 -0.05437836050987243 0.0052779568359255799 -0.0077379622962325803 -0.0056843792553991071 0.77299153804779064 -0.104997631162405 0.67307692766189586 -0.041689597070217126 0.45566275715827947 -0.0037662790855392809 0.055180149152874954 -0.061218000948429101 -0.063035409897565828 0.10044576972723009 0.01590091455727816 0.41906167566776281 0.82692307233810436 0.44735614955425268 0.71124139428138744 0.012018702924251558 0.63461539149284374 0.10000000521540643 -0.0024088189238682385 0.015892627649009231 -0.011403925716876982 0.018021285533905033
decision_type=2 2 2 2 2 2 2 2 2 2 2 2 2 2 2 2 2 2 2 2 2 2 2 2 2 2 2 2 2 2
left_child=2 3 9 4 -2 6 23 16 19 -1 12 -12 24 -8 15 -7 -6 -9 -16 26 21 -21 -22 -5 -11 -4 27 -3 -28 -27
right_child=1 8 25 5 7 14 13 17 -10 10 11 -13 -14 -15 18 -17 -18 -19 -20 20 22 -23 -24 -25 -26 29 28 -29 -30 -31
leaf_value=-0.0081382559955184546 0.0055156176993645372 -0.0011968905917564411 -0.01132475142635566 -5.4741063540266593e-06 0.0014557015626321403 -0.0023068117019751804 -0.00038353631783682687 0.00046244057889986782 0.0071599034481495908 -0.0060423973954359909 0.014217165764574782 -0.0026978312782789263 -0.022368044439968746 -0.0061378091119600872 0.0043942726663564234 0.0052924442291663633 -0.0072029773941883011 -0.0068758616857240345 -0.0040862463787146299 0.0020923101358981829 0.023637413627315404 -0.024334600195520622 -0.0028146077307707198 0.0068482233166998422 0.012021335671771561 -0.0088402797819128413 0.0075331608194589344 0.0051215440098643259 0.0031433628184417885 -0.0042382852242195835
leaf_weight=1118 1355 3071 3463 1558 660 1400 2979 4496 4047 381 485 503 185 2609 815 6804 3101 866 1439 177 217 321 188 1547 135 2867 2645 3152 4501 1381
leaf_count=1118 1355 3071 3463 1558 660 1400 2979 4496 4047 381 485 503 185 2609 815 6804 3101 866 1439 177 217 321 188 1547 135 2867 2645 3152 4501 1381
internal_value=0 0.00164382 -0.00749376 0.000206657 -0.00169578 0.0012478 -0.00075638 -0.0027675 0.00396798 -0.00298704 0.000420306 0.00560172 -0.00687484 -0.00307119 0.00291419 0.00399501 -0.00568218 -0.000722026 -0.00101753 0.00306243 -0.00314015 -0.0149348 0.0113508 0.00340785 -0.00130391 -0.00913355 0.0034818 0.00200271 0.00476906 -0.00734565
internal_weight=58466 47948 10518 29629 10478 19151 8693 9123 18319 2807 1689 988 701 5588 10458 8204 3761 5362 2254 14272 903 498 405 3105 516 7711 13369 6223 7146 4248
internal_count=58466 47948 10518 29629 10478 19151 8693 9123 18319 2807 1689 988 701 5588 10458 8204 3761 5362 2254 14272 903 498 405 3105 516 7711 13369 6223 7146 4248
is_linear=0
shrinkage=0.05


Tree=16
num_leaves=31
num_cat=0
split_feature=156 156 118 115 146 135 144 135 158 112 99 156 138 130 136 136 111 109 128 138 142 145 135 103 103 135 104 157 120 110
split_gain=260.229 67.9798 27.0013 40.801 24.0324 32.8796 23.8331 21.1715 18.7532 20.9492 17.9375 17.1328 16.0181 15.7793 15.5256 14.616 13.8542 13.5071 13.3892 13.2034 13.1586 17.247 13.2713 12.0234 10.3406 10.1103 10.9543 9.34823 8.78029 7.34861
threshold=0.3000000268220902 0.57369652390480053 0.010252465028315784 0.042565235868096359 -0.014504124876111744 0.018073674291372303 -0.02083261031657457 0.025859730318188671 0.52822712063789379 0.10439760982990266 -0.67568367719650257 0.054411765187978751 0.0052779568359255799 -0.096896320581436143 -0.054598633199930184 -0.04696241952478885 0.028872831724584106 0.056141782552003867 0.028369026258587841 0.01564720552414656 -0.030337686650454995 0.013496855739504101 0.025252847932279113 0.18465358018875125 -0.017802598886191841 0.037634084001183517 0.050289629027247436 0.36227157711982733 0.023065298795700077 0.017363716848194603
decision_type=2 2 2 2 2 2 2 2 2 2 2 2 2 2 2 2 2 2 2 2 2 2 2 2 2 2 2 2 2 2
left_child=11 7 3 4 17 -6 20 8 12 14 -8 -1 15 -9 -10 -2 -12 -3 28 -14 22 -22 -4 -5 25 29 -27 -20 -15 -13
right_child=1 2 6 23 5 -7 10 13 9 -11 16 24 19 18 -16 -17 -18 -19 27 -21 21 -23 -24 -25 -26 26 -28 -29 -30 -31
leaf_value=-0.011325387381649885 0.0049076013282697431 0.0058877781838945886 0.011408502182503453 0.0065941932819265749 -0.0044654403490250521 0.0039131157534833773 -0.0049988838866996919 -0.010800820130431658 0.0041395009784470976 0.0063634201563594938 0.0080210477499398653 -0.0096791387943175166 0.0047971112402729506 0.0023638555793914773 -0.0062768558535517029 -0.0028896768349186853 0.0036262708943218106 -0.0026938681334028325 0.0029137528881791656 -0.0001873372545200984 0.0021153792908671465 -0.007165069861018912 -0.0006391976671345093 -0.00015384338711430646 -0.0082747067304029445 -0.0055677848915029471 0.0068949095176095822 0.0095039668049873745 -0.0020439752302396489 -0.0030863851587162668
leaf_weight=2716 666 1819 538 3780 4295 1609 340 241 395 426 5981 777 1955 2968 3725 6107 2569 612 1488 4140 1641 720 396 798 3454 333 374 846 1823 934
leaf_count=2716 666 1819 538 3780 4295 1609 340 241 395 426 5981 777 1955 2968 3725 6107 2569 612 1488 4140 1641 720 396 798 3454 333 374 846 1823 934
internal_value=0 0.00138412 0.00321829 0.00162457 -0.000457831 -0.00218115 0.00490675 -0.000473404 -0.00142408 -0.00418471 0.00625312 -0.008039 -0.000448368 0.00177339 -0.00527683 -0.0021221 0.00670126 0.00372526 0.0021997 0.00141073 0.00127254 -0.000712995 0.00629609 0.00541688 -0.00651775 -0.00400547 0.00101794 0.00530525 0.000685595 -0.00608399
internal_weight=58466 49878 25098 12913 8335 5904 12185 24780 17414 4546 8890 8588 12868 7366 4120 6773 8550 2431 7125 6095 3295 2361 934 4578 5872 2418 707 2334 4791 1711
internal_count=58466 49878 25098 12913 8335 5904 12185 24780 17414 4546 8890 8588 12868 7366 4120 6773 8550 2431 7125 6095 3295 2361 934 4578 5872 2418 707 2334 4791 1711
is_linear=0
shrinkage=0.05


Tree=17
num_leaves=31
num_cat=0
split_feature=156 156 156 118 112 98 133 88 100 112 136 130 118 101 125 26 156 148 26 98 113 113 156 109 102 26 108 158 140 139
split_gain=236.895 48.0763 42.3719 29.8273 33.0596 31.8585 33.4861 28.0085 24.2642 22.7085 21.9146 17.8634 20.4162 16.8198 12.8414 12.7426 58.8204 50.9686 13.8007 12.4175 9.30036 16.8588 9.20385 7.94381 7.06384 10.2419 6.82236 6.70285 5.70676 7.49756
threshold=0.41666667163372045 0.71666666865348827 0.24537037312984469 0.010252465028315784 0.050454780459403999 -0.3450233787298202 0.026112194173038009 -1.4385008811950681 0.29846118390560156 0.070572484284639372 -0.023893783800303933 0.030219797976315025 0.04243020340800286 -0.35838721692562098 -0.042923148721456521 0.71153846383094799 0.41291707754135137 3.0000000000000004 0.67307692766189586 -0.34748241305351252 -0.079448942095041261 -0.084246825426816926 0.87771740555763256 -0.04039840213954448 0.18891595304012301 0.59615385532379161 0.21093676984310153 0.45734977722167974 -0.016929440200328823 -0.049913328140974038
decision_type=2 2 2 2 2 2 2 2 2 2 2 2 2 2 2 2 2 2 2 2 2 2 2 2 2 2 2 2 2 2
left_child=2 3 20 4 5 7 -7 -2 15 11 -11 12 -5 -6 -15 16 18 -17 -4 -12 21 -1 26 -13 -22 -26 28 -19 -3 -30
right_child=1 22 8 9 13 6 -8 -9 -10 10 19 23 -14 14 -16 17 -18 27 -20 -21 24 -23 -24 -25 25 -27 -28 -29 29 -31
leaf_value=-0.0088256927566773818 0.0010827376735204953 0.0071064904398483635 -0.0068892031432364696 0.007082184488238729 -0.011026225267231718 0.0013688281224781902 -0.0037902302013325413 -0.010014460632249382 0.0093777025793198888 -0.0099536786725757821 0.012371944320106373 0.0032164449436504596 0.0025272033173233711 -0.00027006875901319522 0.00518089032694799 0.023274910329367786 -0.024948435423071659 -0.00095411801632174365 0.000556765445427678 -0.00053417219422396175 -0.0093530838580035604 0.0078012728073163428 0.0093543695983708403 -0.0018134016108082467 -0.010824969556415454 0.022003474153949123 -0.016963811408090328 -0.0058055246783288933 -0.0025405754858330389 0.004470189201205641
leaf_weight=429 845 1826 1310 4433 201 9527 4695 1733 378 613 212 1342 5539 1485 3949 195 361 1597 1183 1527 6218 236 1264 1890 51 44 36 1289 425 3633
leaf_count=429 845 1826 1310 4433 201 9527 4695 1733 378 613 212 1342 5539 1485 3949 195 361 1597 1183 1527 6218 236 1264 1890 51 44 36 1289 425 3633
internal_value=0 0.00172629 -0.00586769 0.00101681 -0.000149583 -0.0012614 -0.00033397 -0.00637535 -0.00289827 0.0026993 -0.00182555 0.00350569 0.0045527 0.00316418 0.00369038 -0.00368125 -0.00608887 -0.00144916 -0.00335411 0.00103757 -0.00855326 -0.00291691 0.00547736 0.000273628 -0.00914608 0.00434155 0.00464843 -0.00312293 0.00478208 0.00373462
internal_weight=58466 45175 13291 37991 22435 16800 14222 2578 6313 15556 2352 13204 9972 5635 5434 5935 2854 3081 2493 1739 6978 665 7184 3232 6313 95 5920 2886 5884 4058
internal_count=58466 45175 13291 37991 22435 16800 14222 2578 6313 15556 2352 13204 9972 5635 5434 5935 2854 3081 2493 1739 6978 665 7184 3232 6313 95 5920 2886 5884 4058
is_linear=0
shrinkage=0.05


Tree=18
num_leaves=31
num_cat=0
split_feature=156 156 156 146 99 132 133 135 113 106 129 123 157 26 156 157 26 113 113 156 130 104 108 157 104 26 134 99 115 91
split_gain=213.799 43.3887 38.269 33.1682 32.9456 29.3408 24.8116 35.4905 22.0926 20.9801 17.9038 17.5742 10.7242 10.582 53.3441 50.9135 13.1244 8.54924 15.2325 8.38186 8.00553 6.84259 6.21203 6.0094 6.0474 8.25803 5.13476 5.12891 4.22972 4.13052
threshold=0.41666667163372045 0.71666666865348827 0.22970779240131381 0.032042333856225021 -0.67568367719650257 0.057391405105590827 0.024556336924433712 -0.079870175570249544 -0.19765468686819074 -0.03344557806849479 0.016919591464102272 0.046089373528957374 0.3179954737424851 0.71153846383094799 0.41291707754135137 0.48924022912979132 0.67307692766189586 -0.079448942095041261 -0.084246825426816926 0.86388340592384349 0.011754554696381094 0.46647985279560095 0.21093676984310153 0.10000000521540643 0.41799171268939977 0.59615385532379161 0.075395058840513243 0.022451748140156273 -0.027538849040865895 0.96525374054908764
decision_type=2 2 2 2 2 2 2 2 2 2 2 2 2 2 2 2 2 2 2 2 2 2 2 2 2 2 2 2 2 2
left_child=2 3 17 4 29 9 7 -6 -4 20 -8 -11 -7 14 16 27 -10 18 -1 21 -5 22 28 -19 26 -26 -25 -15 -3 -2
right_child=1 19 8 5 6 12 10 -9 13 11 -12 -13 -14 15 -16 -17 -18 23 -20 -21 -22 -23 -24 24 25 -27 -28 -29 -30 -31
leaf_value=-0.0084126021222883148 -0.012854878156954333 0.0067812689474527265 0.0088823532835581153 0.0047248946865518253 -0.0061347948896506958 -0.0042489798323246094 0.0015023744743918269 0.0035100506916426587 -0.0065931297115007104 -0.0040441335821150915 -0.0031068599057275104 0.0032289095739319786 -0.014670453375021304 -0.0006604407551896686 -0.023701704092476426 0.022237266028755403 0.00059751486678485629 -0.010912421405136616 0.0074115396298272546 0.0085785238751915609 -0.0014569928063015471 -0.01420757940145043 -0.01612030759206793 -0.0083562422733671465 -0.0097063864121236 0.026064200890369905 -0.0012890035329395967 -0.0049267039306774181 0.0037532393236639305 -0.003398868210112334
leaf_weight=426 405 1631 380 1849 1005 464 5928 18540 1329 4064 3268 1043 532 1173 361 210 1212 2128 236 1467 729 49 36 3719 33 31 278 1775 4001 164
leaf_count=426 405 1631 380 1849 1005 464 5928 18540 1329 4064 3268 1043 532 1173 361 210 1212 2128 236 1467 729 49 36 3719 33 31 278 1775 4001 164
internal_value=0 0.00163997 -0.00557433 0.000965962 0.00177007 -0.00174837 0.00200611 0.0030138 -0.00280577 -0.000701079 -0.000135106 -0.00255772 -0.00982232 -0.00353978 -0.00571991 -0.00153456 -0.00316161 -0.00817592 -0.00276328 0.00520349 0.00297488 0.0043363 0.00449799 -0.00875396 -0.00762119 0.00756933 -0.00786604 -0.00323103 0.00463124 -0.0101404
internal_weight=58466 45175 13291 37991 29310 8681 28741 19545 6440 7685 9196 5107 996 6060 2902 3158 2541 6851 662 7184 2578 5717 5668 6189 4061 64 3997 2948 5632 569
internal_count=58466 45175 13291 37991 29310 8681 28741 19545 6440 7685 9196 5107 996 6060 2902 3158 2541 6851 662 7184 2578 5717 5668 6189 4061 64 3997 2948 5632 569
is_linear=0
shrinkage=0.05


Tree=19
num_leaves=31
num_cat=0
split_feature=99 14 111 99 138 114 99 135 141 107 142 138 119 114 139 141 121 109 121 113 158 157 30 35 121 157 22 158 33 37
split_gain=126.971 49.8243 29.2031 29.6277 24.5319 29.3852 25.4831 20.9489 20.2182 13.9348 13.3863 13.22 16.6839 17.1575 13.9375 11.1495 13.3675 10.5052 9.46764 8.6738 8.38937 7.62694 7.11076 6.52547 5.79543 5.84332 5.12377 4.97431 4.61552 3.66671
threshold=0.2382973060011864 3.2346625328063969 -0.095770284533500658 0.093254357576370253 0.0068701626732945451 -0.012900275643914936 -0.63120040297508229 0.027307057753205303 -0.034222839400172227 0.23707540333271029 0.03690332546830178 0.0050970925949513921 0.015892627649009231 0.038664853200316436 -0.022974235936999318 -0.023754443973302838 -0.037228228524327271 -0.065438810735940919 0.053532054647803314 0.042100336402654655 0.30847640335559851 0.16104026138782504 0.35119047760963445 0.60625001788139354 -0.042302645742893212 0.2374633997678757 0.56250000000000011 0.68758943676948558 0.60500001907348644 0.52500000596046459
decision_type=2 2 2 2 2 2 2 2 2 2 2 2 2 2 2 2 2 2 2 2 2 2 2 2 2 2 2 2 2 2
left_child=1 2 3 17 5 7 26 -4 -8 11 22 12 13 -3 -14 16 -13 20 -7 -17 -1 -12 -2 -19 29 -26 -6 28 -24 -11
right_child=10 9 4 -5 6 18 8 -9 -10 24 21 15 14 -15 -16 19 -18 23 -20 -21 -22 -23 27 -25 25 -27 -28 -29 -30 -31
leaf_value=-0.0069052743744602314 -0.0091912840538091213 -0.0017874918459868533 -0.0064434138069541964 -0.0075105137870243024 0.0023545624252877869 0.00077714674341125512 -0.0049304525624674226 -0.00040707081747515706 0.0006969189179438747 -0.0042237822567205785 -0.0061190146427929134 -0.0075138200437202297 -0.00063962592862630877 0.0040674737148852095 0.0062142853903490889 0.0062663273735606888 0.0029848677223828328 0.0010323782158239373 -0.0038830082344933113 0.0024384914357179974 0.0036566663976587005 0.0027539304177003655 -0.0057865843318004786 0.0073079662518774824 0.00085563630471071977 -0.0097850462728735332 0.010490233949802717 -0.0061978223459971801 0.0096638958658673349 0.0041436937868003024
leaf_weight=292 3347 3974 5132 548 269 5434 1870 1999 10890 210 457 370 1019 1826 2713 5559 1672 498 1363 2024 527 514 92 2522 194 380 707 1617 101 346
leaf_count=292 3347 3974 5132 548 269 5434 1870 1999 10890 210 457 370 1019 1826 2713 5559 1672 498 1363 2024 527 514 92 2522 194 380 707 1617 101 346
internal_value=-1.23758e-08 0.00079721 -0.000430011 0.00335961 -0.00103118 -0.00250986 0.000467829 -0.00475203 -0.000127455 0.0027363 -0.00680955 0.00305469 0.0017339 5.50275e-05 0.00434159 0.00436214 0.00107956 0.00491289 -0.000156704 0.00524538 -0.00010367 -0.00141736 -0.00782377 0.00627491 -0.00265652 -0.00618096 0.00825399 -0.00529149 0.00227465 0.000973944
internal_weight=58466 52338 32051 4387 27664 13928 13736 7131 12760 20287 6128 19157 9532 5800 3732 9625 2042 3839 6797 7583 819 971 5157 3020 1130 574 976 1810 193 556
internal_count=58466 52338 32051 4387 27664 13928 13736 7131 12760 20287 6128 19157 9532 5800 3732 9625 2042 3839 6797 7583 819 971 5157 3020 1130 574 976 1810 193 556
is_linear=0
shrinkage=0.05


Tree=20
num_leaves=31
num_cat=0
split_feature=156 156 156 146 99 133 135 116 113 137 144 107 127 157 26 156 157 26 157 156 120 117 101 101 26 122 108 120 92 110
split_gain=181.659 37.9244 31.8399 28.7409 29.406 22.453 30.1488 21.3522 19.1834 18.0455 16.5334 14.8967 13.408 12.7366 10.4495 48.0283 45.0417 11.2174 7.26913 7.09717 6.94045 9.44075 6.42412 10.6573 9.36633 6.40731 6.04296 5.63087 5.13366 4.35582
threshold=0.41666667163372045 0.73235049843788158 0.24537037312984469 0.032042333856225021 -0.67568367719650257 0.024556336924433712 -0.079870175570249544 0.093621954321861281 -0.19765468686819074 -0.015642330516129729 0.028956834226846698 -0.18039300292730329 0.058001076802611358 0.34632115066051489 0.71153846383094799 0.41291707754135137 0.48924022912979132 0.67307692766189586 0.10000000521540643 0.91757246851921093 -0.047622401267290108 0.029628729447722438 -0.018784029409289357 0.0033791792811825876 0.86538460850715648 0.033114431425929076 0.21093676984310153 -0.044548248872160905 2.1196104288101201 0.083664793521165862
decision_type=2 2 2 2 2 2 2 2 2 2 2 2 2 2 2 2 2 2 2 2 2 2 2 2 2 2 2 2 2 2
left_child=2 3 18 4 -2 6 -6 9 -4 11 -7 -5 -11 -9 15 17 27 -10 -1 22 21 -20 -3 24 -24 29 -25 -16 -27 -22
right_child=1 19 8 7 5 10 -8 13 14 12 -12 -13 -14 -15 16 -17 -18 -19 20 -21 25 -23 23 26 -26 28 -28 -29 -30 -31
leaf_value=-0.0098318744831056258 -0.009378450812601153 0.0063045038468323338 0.0083202434820061778 0.0059196018387260296 -0.0053911695249411404 -0.0013739436213525374 0.0032873070856531648 -0.0036230048265332433 -0.0061571126002367511 0.0033319588692478489 0.0034582545405537502 -0.00372101371411884 -0.0079308206565950265 -0.013364871518247862 0.0022164652241050816 -0.02248453287890435 0.021098325426356215 0.00055709722255470209 -0.0057299183915415358 0.0098918664328397909 -0.0084388729835189174 0.010931155619559509 -0.008015151044729954 0.0043878705130267672 0.011044068453419539 -0.0049726952251014861 -0.015879442406597957 -0.003840182097437451 0.0047280521705173537 -0.0029240058787617183
leaf_weight=2222 591 2645 380 449 1056 6948 18932 945 1310 2933 2375 3688 290 522 455 361 210 1182 238 682 3183 132 343 2660 79 622 37 2415 174 407
leaf_count=2222 591 2645 380 449 1056 6948 18932 945 1310 2933 2375 3688 290 522 455 361 210 1182 238 682 3183 132 343 2660 79 622 37 2415 174 407
internal_value=-5.87308e-09 0.00151165 -0.00513831 0.00092045 0.00166058 0.00188339 0.00282851 -0.00158619 -0.00256407 -0.000487484 -0.000142375 -0.00267325 0.00231657 -0.00709419 -0.0032623 -0.00544296 -0.00124051 -0.00297065 -0.00746637 0.00506278 -0.00635979 0.00020322 0.00449021 0.00294973 -0.00443181 -0.00691456 0.00410681 -0.00287815 -0.00284525 -0.00781524
internal_weight=58466 45175 13291 38729 29902 29311 19988 8827 6313 7360 9323 4137 3223 1467 5933 2853 3080 2492 6978 6446 4756 370 5764 3119 422 4386 2697 2870 796 3590
internal_count=58466 45175 13291 38729 29902 29311 19988 8827 6313 7360 9323 4137 3223 1467 5933 2853 3080 2492 6978 6446 4756 370 5764 3119 422 4386 2697 2870 796 3590
is_linear=0
shrinkage=0.05


Tree=21
num_leaves=31
num_cat=0
split_feature=99 14 111 99 138 100 115 99 125 119 107 103 142 138 119 139 144 88 144 109 141 30 30 121 134 100 100 93 103 158
split_gain=104.302 43.1465 25.1344 27.1668 21.7952 24.5092 24.9078 16.0653 18.7346 15.7269 12.4898 12.1416 11.6075 11.4033 15.4722 12.0484 10.8353 9.68841 9.28371 9.15135 8.6612 6.57943 5.86689 5.57251 4.53577 3.64051 3.62767 3.49317 3.48546 3.22473
threshold=0.2382973060011864 3.2407975196838383 -0.095770284533500658 0.093254357576370253 0.0068701626732945451 -0.019720627926290032 -0.088990468531846986 -0.66266167163848866 0.011500932741910221 0.016190459951758388 0.23707540333271029 -0.2236337140202522 0.03690332546830178 0.0052779568359255799 0.015892627649009231 -0.022974235936999318 -0.0093981260433793051 -7.2477865219116202 -0.071834653615951524 -0.094963699579238878 -0.018276197835803028 0.32738095521926885 0.35119047760963445 -0.042302645742893212 0.078033160418272032 -0.33010712265968317 0.24362289160490039 -2.827343106269836 0.26172408461570745 0.56776008009910595
decision_type=2 2 2 2 2 2 2 2 2 2 2 2 2 2 2 2 2 2 2 2 2 2 2 2 2 2 2 2 2 2
left_child=1 2 3 17 7 6 -6 9 -9 -4 13 -7 22 14 16 -16 -3 -1 26 -19 -20 29 -2 27 25 -24 -15 -12 -5 -14
right_child=12 10 4 28 5 11 -8 8 -10 -11 23 -13 21 18 15 -17 -18 19 20 -21 -22 -23 24 -25 -26 -27 -28 -29 -30 -31
leaf_value=-0.0017018544527408323 -0.008358581874835222 -0.0027226222337781662 -0.013588218386802062 -0.0048733037855575676 -0.008410936523820153 0.0057974346672337732 0.0039990100887017741 -0.003504593946054433 0.00027861516566402608 -0.0021705697306420874 -0.0096573782955321676 -0.0017084936041440028 -0.0057478815255444056 -0.0065484088719053833 -0.00054349211431824369 0.0059850376120058309 0.0018091262432856983 5.1975049739967424e-05 0.0015968643604681657 0.006735373032883997 0.0053722229400701869 0.0038650429214816063 0.0050235472640311083 -0.0061723156270202077 0.0029873040013068432 -0.0061372852712828496 0.0060431478120685864 0.0026311191469894708 -0.013951107763877797 0.0068214233179188927
leaf_weight=536 3347 2186 596 419 438 577 5200 7182 6007 613 66 8046 525 270 965 2626 3325 628 1974 2814 6656 390 76 546 168 1566 72 453 143 56
leaf_count=536 3347 2186 596 419 438 577 5200 7182 6007 613 66 8046 525 270 965 2626 3325 628 1974 2814 6656 390 76 546 168 1566 72 453 143 56
internal_value=-2.0548e-08 0.000722529 -0.000367352 0.00308888 -0.000915061 0.000470113 0.00303377 -0.00228739 -0.00178115 -0.00780457 0.00261331 -0.00120554 -0.00617181 0.0029235 0.00167562 0.00422932 1.06165e-05 0.00454346 0.00418883 0.0055175 0.0045093 -0.00115042 -0.00711623 -0.00264571 -0.00481547 -0.00561711 -0.00388096 0.00105567 -0.00719617 -0.00452585
internal_weight=58466 52338 33199 4540 28659 14261 5638 14398 13189 1209 19139 8623 6128 18074 9102 3591 5511 3978 8972 3442 8630 971 5157 1065 1810 1642 342 519 562 581
internal_count=58466 52338 33199 4540 28659 14261 5638 14398 13189 1209 19139 8623 6128 18074 9102 3591 5511 3978 8972 3442 8630 971 5157 1065 1810 1642 342 519 562 581
is_linear=0
shrinkage=0.05


Tree=22
num_leaves=31
num_cat=0
split_feature=101 10 118 115 135 128 113 144 143 111 108 112 119 144 118 131 101 113 88 144 136 157 119 103 128 122 10 120 157 109
split_gain=95.8502 39.0948 26.4379 19.5958 25.6985 18.6435 16.6068 15.5493 16.4324 14.2145 13.4411 11.7095 10.6782 9.78511 9.4753 12.2666 8.60138 10.4281 7.77619 8.35212 7.57734 7.2211 6.82534 8.68358 6.51623 6.38966 5.977 5.56681 4.96536 4.5469
threshold=-0.38175280392169947 0.60213297605514537 0.010252465028315784 0.042269131168723113 0.027307057753205303 0.12910693138837817 -0.06334108859300612 -0.027936135418713089 0.063728343695402159 0.010229249950498344 -0.051854711025953286 0.0398891568183899 0.018246600404381755 0.029811933636665348 0.010252465028315784 0.013234418816864492 0.12243635207414628 -0.023507400415837761 0.45152360200881964 -0.017162884585559365 -0.037833031266927712 0.10000000521540643 -0.002105999854393303 -0.017802598886191841 -0.020899036899209019 0.033114431425929076 0.58081048727035534 0.020931636914610866 0.36792066693305975 -0.11097660288214682
decision_type=2 2 2 2 2 2 2 2 2 2 2 2 2 2 2 2 2 2 2 2 2 2 2 2 2 2 2 2 2 2
left_child=21 9 3 4 5 -3 13 12 -9 11 -6 14 -8 28 15 -2 17 24 -13 -20 -16 -1 23 -5 -11 29 -19 -15 -4 -23
right_child=1 2 6 22 10 -7 7 8 -10 16 -12 18 -14 27 20 -17 -18 26 19 -21 -22 25 -24 -25 -26 -27 -28 -29 -30 -31
leaf_value=-0.0091216274399427404 -0.00053006547191251853 -0.0022132382804530611 -0.003223636845220452 0.0030017204575069293 0.0076405982048901692 0.0066551981047769937 -0.0012070289545960805 0.0054886019182466515 -0.0020343833663463424 -0.002510395054849551 0.0011075521099724952 0.00023462145749869541 0.0052794941889577028 0.0051979279259831666 0.0051571942504403043 -0.0056165705748572898 0.0051871383993561766 -0.0047694988701538904 0.00029350011915365068 0.009934324398689123 -0.00030062353296337019 0.0027664370208814459 0.0044806382672836365 -0.0025497532352588836 -0.0082145932811024981 0.0014677342957045742 -0.000723322484034642 -0.0015167095360994279 -0.012823314897879513 -0.006272848054619768
leaf_weight=1731 3361 10678 619 2144 1118 627 2103 8801 790 764 2669 1040 908 608 851 1833 297 1350 353 623 2509 145 3076 1048 1470 328 2829 625 173 2995
leaf_count=1731 3361 10678 619 2144 1118 627 2103 8801 790 764 2669 1040 908 608 851 1833 297 1350 353 623 2509 145 3076 1048 1470 328 2829 625 173 2995
internal_value=-2.58305e-08 0.000632376 0.00157108 0.000449327 -0.000526382 -0.00172082 0.00320882 0.00388424 0.00486839 -0.00132225 0.00303786 -0.000179153 0.000747613 -0.000991972 -0.000987524 -0.00232624 -0.00312213 -0.00350788 0.00324808 0.00645332 0.00108044 -0.00648011 0.00279936 0.00117744 -0.00626647 -0.00515975 -0.00203178 0.00179057 -0.00532956 -0.00585369
internal_weight=58466 53267 35987 21360 15092 11305 14627 12602 9591 17280 3787 10570 3011 2025 8554 5194 6710 6413 2016 976 3360 5199 6268 3192 2234 3468 4179 1233 792 3140
internal_count=58466 53267 35987 21360 15092 11305 14627 12602 9591 17280 3787 10570 3011 2025 8554 5194 6710 6413 2016 976 3360 5199 6268 3192 2234 3468 4179 1233 792 3140
is_linear=0
shrinkage=0.05


Tree=23
num_leaves=31
num_cat=0
split_feature=156 156 156 118 129 142 117 144 144 100 120 120 140 142 122 103 117 106 26 157 156 124 116 108 116 20 20 108 157 157
split_gain=144.723 32.0352 24.2598 20.6865 20.6793 29.4511 28.0864 18.3355 26.2066 16.7577 15.1271 25.4851 16.2513 12.5715 11.5172 9.77817 9.71169 9.34635 11.4267 40.7476 39.7844 8.87504 7.71139 9.26359 8.09276 7.60942 6.53304 5.84095 5.09869 6.6547
threshold=0.41666667163372045 0.71666666865348827 0.22970779240131381 0.010252465028315784 -0.012210955843329428 0.023007814772427086 -0.043325796723365777 0.025770485401153568 0.0058147641830146321 0.29846118390560156 0.030765468254685405 -0.0017318362370133398 -0.011060505174100397 0.031611137092113502 -0.059258244931697839 -0.049098350107669823 0.061575168743729598 0.11631093919277193 0.71153846383094799 0.48924022912979132 0.40990260243415838 0.028034277260303501 -0.010366351343691347 -0.14461834728717801 -0.015158236492425202 0.75952380895614635 0.60714286565780651 0.21093676984310153 0.10000000521540643 0.37583188712596899
decision_type=2 2 2 2 2 2 2 2 2 2 2 2 2 2 2 2 2 2 2 2 2 2 2 2 2 2 2 2 2 2
left_child=2 3 28 4 7 6 -6 8 -2 17 11 16 -13 -7 15 -12 -5 18 20 -20 -4 -16 23 25 27 -3 -9 -25 -1 -30
right_child=1 22 9 10 5 13 -8 26 -10 -11 14 12 -14 -15 21 -17 -18 -19 19 -21 -22 -23 -24 24 -26 -27 -28 -29 29 -31
leaf_value=-0.0086313438416451733 0.0023504372167829253 -0.0092336223670908876 -0.0034656332105446955 0.0015945931583023832 0.0026399819942137109 0.0074926990831364077 -0.0047157681142461442 -0.0011273424523009421 -0.003899696309248267 0.0078259684136154604 0.0011599352929008218 0.0026251262142920253 0.0086149707723829939 0.00052437323626536303 0.0030969409558295295 -0.0086487004936023643 -0.0069416597507955223 0.0028024635805832163 -0.0031704689223164759 0.019986662198584183 -0.020873846447057851 -0.0019330127354645187 0.0060382635940075076 0.0047914495277231175 -0.0064217415522892091 0.0023307526840749726 0.0061410833276414976 -0.015125119790274611 -0.0050820280877436333 -0.011473334383873792
leaf_weight=2222 4947 267 2133 5837 1610 806 6672 358 2537 378 419 2004 2613 3293 2254 642 353 618 2719 204 388 1434 3619 2779 179 303 2212 37 4176 453
leaf_count=2222 4947 267 2133 5837 1610 806 6672 358 2537 378 419 2004 2613 3293 2254 642 353 618 2719 204 388 1434 3619 2779 179 303 2212 37 4176 453
internal_value=-2.44806e-08 0.00134922 -0.00458631 0.000770047 -0.000201287 -0.00156941 -0.0032852 0.00148299 0.00023099 -0.00238171 0.00217122 0.00320482 0.0060164 0.0018961 -0.000179852 -0.00477097 0.00110678 -0.00301928 -0.00368116 -0.00155134 -0.00614831 0.0011398 0.00441122 0.00275789 0.00387051 -0.00307881 0.00512664 0.00452693 -0.00665779 -0.00570904
internal_weight=58466 45175 13291 37991 22435 12381 8282 10054 7484 6440 15556 10807 4617 4099 4749 1061 6190 6062 5444 2923 2521 3688 7184 3565 2995 570 2570 2816 6851 4629
internal_count=58466 45175 13291 37991 22435 12381 8282 10054 7484 6440 15556 10807 4617 4099 4749 1061 6190 6062 5444 2923 2521 3688 7184 3565 2995 570 2570 2816 6851 4629
is_linear=0
shrinkage=0.05


Tree=24
num_leaves=31
num_cat=0
split_feature=156 156 156 140 111 146 132 157 102 113 145 98 116 88 138 100 126 115 116 137 116 26 156 157 26 105 116 109 113 113
split_gain=130.615 29.0039 21.9132 21.0232 21.0243 20.3505 19.0615 17.06 22.8428 15.0201 12.9336 14.5525 12.4358 11.2166 10.7871 14.0089 11.6305 10.0732 15.1272 11.7548 8.92554 8.65441 39.3494 36.2876 10.0109 7.7121 14.503 5.91636 5.35659 11.5466
threshold=0.41666667163372045 0.63333335518836986 0.24537037312984469 0.00067048959317617129 -0.040770683437585824 0.035942802205681808 0.080913815647363677 0.3329805731773377 0.090159364044666304 -0.19765468686819074 0.023882824927568439 -0.3512787520885467 -0.0088461921550333483 -0.19839936494827268 -0.00033878006433951663 -0.015322193037718533 0.021591546013951305 0.042940091341733939 -0.015158236492425202 0.019497960805892948 0.062374031171202667 0.71153846383094799 0.41291707754135137 0.48924022912979132 0.67307692766189586 0.052676297724246986 0.084535308182239546 -0.044126765802502625 -0.079448942095041261 -0.084246825426816926
decision_type=2 2 2 2 2 2 2 2 2 2 2 2 2 2 2 2 2 2 2 2 2 2 2 2 2 2 2 2 2 2
left_child=2 3 28 5 6 10 13 -7 -9 -4 11 -2 17 -5 16 -16 -6 18 19 -3 -12 22 24 -23 -11 -14 -27 -19 29 -1
right_child=1 12 9 4 14 7 -8 8 -10 21 20 -13 25 -15 15 -17 -18 27 -20 -21 -22 23 -24 -25 -26 26 -28 -29 -30 -31
leaf_value=-0.0069001299372445871 -0.0044826616031250427 -0.00024954837173000435 0.0074094658676789162 0.0025678840338951383 0.00031540106026108777 -0.00080145169596889808 -0.007220912171480097 -0.0099962690150931129 0.0043146911857513499 -0.0055960345604894332 0.0051459851933962769 0.00034306932745716142 0.0055634715773500007 0.0073805329923799252 0.005133870313443251 -0.00027856773429421725 -0.0052459461049539861 0.0076686376158827708 -0.0082928413350753204 0.0054187114624067133 -0.0020718689107171351 -0.0024691565641074519 -0.020248941765893935 0.019051576189547923 0.00074687437757650296 0.0032711065608361407 -0.01128756048090151 0.0026059889655402945 -0.0067384333524929466 0.0068600459294007252
leaf_weight=429 1997 3527 380 2321 2792 1987 336 1557 339 1310 1808 7167 5228 2541 1990 2990 1416 824 458 1234 560 2870 361 210 1182 1972 187 1944 6313 236
leaf_count=429 1997 3527 380 2321 2792 1987 336 1557 339 1310 1808 7167 5228 2541 1990 2990 1416 824 458 1234 560 2870 361 210 1182 1972 187 1944 6313 236
internal_value=-1.99729e-08 0.00128177 -0.00435705 0.000371603 0.0017464 -0.000911108 0.0042877 -0.00404184 -0.00743468 -0.00222124 0.000142677 -0.000708073 0.00304569 0.00508432 0.000308092 0.00188335 -0.00155498 0.00167704 0.000382776 0.00121872 0.00343692 -0.00283915 -0.00482367 -0.000999069 -0.00258566 0.00452474 0.00200688 0.00411533 -0.00628848 -0.00200871
internal_weight=58466 45175 13291 29801 14386 15415 5198 3883 1896 6313 11532 9164 15374 4862 9188 4980 4208 7987 5219 4761 2368 5933 2853 3080 2492 7387 2159 2768 6978 665
internal_count=58466 45175 13291 29801 14386 15415 5198 3883 1896 6313 11532 9164 15374 4862 9188 4980 4208 7987 5219 4761 2368 5933 2853 3080 2492 7387 2159 2768 6978 665
is_linear=0
shrinkage=0.05


Tree=25
num_leaves=31
num_cat=0
split_feature=156 156 146 99 132 156 133 135 135 114 100 140 157 106 112 110 110 104 140 156 108 113 113 102 145 43 92 99 158 30
split_gain=117.881 26.9916 21.2971 22.8328 20.0988 19.8077 17.0013 22.8706 14.3355 18.6515 13.6815 13.0074 8.62597 8.33506 7.22542 6.78612 7.01402 6.3368 5.671 5.62965 4.98786 4.93424 10.4205 4.86958 4.51964 4.40437 4.13374 4.0534 3.92438 6.57409
threshold=0.41666667163372045 0.73235049843788158 0.032042333856225021 -0.67568367719650257 0.057391405105590827 0.22970779240131381 0.024556336924433712 -0.079870175570249544 0.021434232592582706 -0.017710562795400616 0.29846118390560156 0.049484590068459518 0.3179954737424851 0.11631093919277193 0.013314513955265285 0.017363716848194603 0.018330627121031288 0.45774380862712866 -0.066391058266162858 0.91757246851921093 0.21093676984310153 -0.079448942095041261 -0.084246825426816926 0.21776922047138217 -0.029624001123011109 0.32500000298023229 -1.4545246362686155 0.16381141543388369 0.59853360056877147 0.41071428358554846
decision_type=2 2 2 2 2 2 2 2 2 2 2 2 2 2 2 2 2 2 2 2 2 2 2 2 2 2 2 2 2 2
left_child=5 2 3 -2 8 21 7 -5 9 -4 13 -8 -6 15 -10 18 -17 19 -7 20 24 22 -1 28 -3 27 -15 -24 -23 -30
right_child=1 17 4 6 12 10 11 -9 14 -11 -12 -13 -14 26 -16 16 -18 -19 -20 -21 -22 23 25 -25 -26 -27 -28 -29 29 -31
leaf_value=-0.0065707036955334058 -0.0083711941566976204 0.00197712004669346 -0.0044740186881752986 -0.004784098340555233 -0.0032040685990719097 0.0023300390419315484 -0.0013172329981113624 0.0027744433528480313 0.0062370322830920966 0.001122820285595453 0.0070759283957626401 0.0029414038513584082 -0.012451714233037509 -0.00085043870610037133 -8.6723146834513135e-06 0.0067439917034065799 -0.0022997247473927006 -0.010816471549989172 -0.0056634042162610389 0.0086759147084970577 -0.014360518937790265 -0.0072146163840188446 -0.024222391670440685 0.006519747632189413 0.004981240449410289 0.009797350963738502 0.0073710177491908549 0.0060180069232159414 -0.0049504867476046783 0.010514017139546208
leaf_weight=426 591 1884 3084 1056 483 241 6901 18932 971 2875 378 2422 532 345 882 236 2302 69 2665 682 37 4961 20 71 3774 192 273 24 1084 73
leaf_count=426 591 1884 3084 1056 483 241 6901 18932 971 2875 378 2422 532 345 882 236 2302 69 2665 682 37 4961 20 71 3774 192 273 24 1084 73
internal_value=-1.18029e-08 0.00121769 0.00071891 0.00135604 -0.00143881 -0.0041392 0.00155239 0.00237482 -0.000578029 -0.00177296 -0.00214703 -0.000210316 -0.00805753 -0.00272317 0.00326179 -0.00334826 -0.00145635 0.00421357 -0.00499866 0.00437731 0.00386137 -0.00601102 -0.00189677 -0.00645021 0.00398192 0.00651733 0.00277449 -0.00766191 -0.00660175 -0.0039688
internal_weight=58466 45175 38729 29902 8827 13291 29311 19988 7812 5959 6440 9323 1015 6062 1853 5444 2538 6446 2906 6377 5695 6851 662 6189 5658 236 618 44 6118 1157
internal_count=58466 45175 38729 29902 8827 13291 29311 19988 7812 5959 6440 9323 1015 6062 1853 5444 2538 6446 2906 6377 5695 6851 662 6189 5658 236 618 44 6118 1157
is_linear=0
shrinkage=0.05


Tree=26
num_leaves=31
num_cat=0
split_feature=156 156 100 140 146 134 119 116 104 140 156 99 116 143 126 104 120 139 139 10 100 136 108 144 108 105 116 137 128 131
split_gain=106.385 24.585 18.0468 18.0392 18.2348 16.3086 22.8197 15.6453 19.3038 12.3939 12.0947 11.5804 10.7688 9.73525 18.6489 11.7601 9.63419 9.37476 8.06873 8.03658 7.01719 8.30631 8.00173 6.85047 7.15715 6.77339 12.5828 6.34261 5.78398 5.10207
threshold=0.41666667163372045 0.63333335518836986 0.2133188992738724 0.00067048959317617129 -0.047312391921877854 -0.019142988137900826 0.086236711591482176 0.048325393348932273 0.024365223944187168 0.060720141977071769 0.10000000521540643 -0.17017871141433713 -0.0088461921550333483 -0.01607183180749416 0.021591546013951305 0.18483847379684451 -0.047622401267290108 0.030821112915873531 -0.0085183023475110514 0.64760315418243419 0.018986019305884842 0.015271219424903395 0.036375857889652259 -0.04690707474946975 0.10080777108669282 0.052676297724246986 0.084535308182239546 0.042165337130427367 0.009893034119158985 -0.07308183982968329
decision_type=2 2 2 2 2 2 2 2 2 2 2 2 2 2 2 2 2 2 2 2 2 2 2 2 2 2 2 2 2 2
left_child=2 3 10 4 27 11 9 8 -6 -7 -1 -5 13 23 15 -15 28 -9 -13 -16 22 -22 -18 24 -3 29 -27 -2 -12 -14
right_child=1 12 -4 5 7 6 -8 17 -10 -11 16 18 25 14 19 -17 20 -19 -20 -21 21 -23 -24 -25 -26 26 -28 -29 -30 -31
leaf_value=-0.0066751360555703286 0.0044563441759472282 -0.0053563255972897197 0.0043918838297931874 -0.0099500533044162148 -0.0018756350908293055 0.0041155937447569079 -0.0079496927606480094 -0.0054454749918870105 0.0032952255926798333 -0.00035366940020221211 -0.0029328183024860803 0.0029371958734273726 0.00024066141858788498 0.0035202132114790681 -0.0056771559850896146 -0.0056666549043930909 -0.0028131413600653438 1.9215550670893885e-05 -0.0018546234176567277 0.00086490846980422347 -0.0041730079013737381 0.00061633851234561821 -0.0075076817233091474 0.0057274804902252736 0.0077432765524153907 0.0029750453176004572 -0.010585477358494183 -0.0021997826124460751 0.0042560352374737985 0.0056306894640630037
leaf_weight=3860 1895 317 620 333 6332 7700 480 3185 2524 1940 511 1324 486 3293 1342 389 1586 1039 2609 720 2563 1397 2137 1771 155 1972 187 440 617 4742
leaf_count=3860 1895 317 620 333 6332 7700 480 3185 2524 1940 511 1324 486 3293 1342 389 1586 1039 2609 720 2563 1397 2137 1771 155 1972 187 440 617 4742
internal_value=-1.57323e-08 0.00115678 -0.0039322 0.000318797 -0.000869384 0.00159231 0.00268545 -0.00159623 -0.000401311 0.00321567 -0.00433996 -0.00099972 0.00278078 0.00150711 0.000415259 0.00254802 -0.00331625 -0.00410017 -0.000240173 -0.00339054 -0.00394988 -0.00248222 -0.00550941 0.00430066 -0.0010425 0.00415714 0.00179732 0.00319986 0.000995008 0.00513061
internal_weight=58466 45175 13291 29801 15415 14386 10120 13080 8856 9640 12671 4266 15374 7987 5744 3682 8811 4224 3933 2062 7683 3960 3723 2243 472 7387 2159 2335 1128 5228
internal_count=58466 45175 13291 29801 15415 14386 10120 13080 8856 9640 12671 4266 15374 7987 5744 3682 8811 4224 3933 2062 7683 3960 3723 2243 472 7387 2159 2335 1128 5228
is_linear=0
shrinkage=0.05


Tree=27
num_leaves=31
num_cat=0
split_feature=156 156 156 105 104 126 142 145 114 100 106 117 113 113 146 124 126 115 111 109 157 101 16 116 26 156 157 26 116 157
split_gain=96.0133 22.83 16.4242 12.6209 15.3269 17.5793 11.9515 12.7971 11.4315 13.6073 13.2962 11.786 11.5476 11.4296 11.2828 11.2936 11.6932 13.9225 9.96831 9.52903 8.99217 8.90532 8.22103 7.88167 7.34047 35.2393 32.891 9.41204 7.08014 6.30681
threshold=0.41666667163372045 0.57482773065567028 0.22970779240131381 0.073720920830965056 -0.077574491500854478 0.0022814217954874043 -0.040360435843467705 0.023882824927568439 -0.058635275810956948 0.11051747575402261 0.018288209103047851 0.055520735681056983 0.027020459994673732 -0.19765468686819074 0.032042333856225021 -0.10548529773950575 0.027948356233537201 -0.054041206836700433 0.063696479424834265 0.20607101917266848 0.30506718158721929 -0.035399505868554108 0.64318180084228527 -0.011999168898910282 0.71153846383094799 0.41291707754135137 0.48924022912979132 0.67307692766189586 0.048325393348932273 0.28674419224262243
decision_type=2 2 2 2 2 2 2 2 2 2 2 2 2 2 2 2 2 2 2 2 2 2 2 2 2 2 2 2 2 2
left_child=2 14 -1 8 5 -5 -6 -8 12 11 -11 -10 21 -4 18 -16 17 -17 19 22 -18 -3 -2 29 25 27 -26 -15 -14 -20
right_child=1 3 13 4 6 -7 7 -9 9 10 -12 -13 28 24 15 16 20 -19 23 -21 -22 -23 -24 -25 26 -27 -28 -29 -30 -31
leaf_value=-0.005440114990151108 -0.00051629789801489387 -0.002939904598632118 0.0064845273016859335 0.0085012226592180613 0.0040758624033471261 -0.0019237543090309343 -0.0034301728295088891 0.0035956493083190832 0.0053213614517654551 0.0044255114302552577 -0.001202400004979054 0.00040408517069532744 -0.0016788040630911526 -0.0050918509573063316 0.0073239532804523309 0.0037758246335959258 -0.001753817507766883 -0.0032806138422354827 -0.001042295432401446 0.0094960003023028816 -0.010669609929962338 0.0034805487962557579 0.0022647015146565305 0.00034759340240682075 -0.0021432986974382652 -0.018880400244777783 0.018327140479174036 0.00099753037339309655 -0.011253290634024755 -0.0069849233030295776
leaf_weight=6851 4737 691 380 1036 941 662 3531 793 8007 1818 2480 1440 832 1329 292 960 473 2566 880 344 709 2460 6046 2314 2948 361 210 1212 252 911
leaf_count=6851 4737 691 380 1036 941 662 3531 793 8007 1818 2480 1440 832 1329 292 960 473 2566 880 344 709 2460 6046 2314 2948 361 210 1212 252 911
internal_value=-2.01347e-08 0.00109894 -0.00373562 0.00211127 0.000303122 0.00443414 -0.00102833 -0.00214041 0.00281121 0.00351108 0.00117707 0.00457238 0.000538488 -0.00192146 -0.000148873 -0.00220989 -0.00280255 -0.00135788 0.000527361 0.00130451 -0.00710691 0.00207089 0.00104255 -0.00157792 -0.00244959 -0.00426521 -0.000779402 -0.00218554 -0.00391088 -0.00406827
internal_weight=58466 45175 13291 24943 6963 1698 5265 4324 17980 13745 4298 9447 4235 6440 20232 5000 4708 3526 15232 11127 1182 3151 10783 4105 6060 2902 3158 2541 1084 1791
internal_count=58466 45175 13291 24943 6963 1698 5265 4324 17980 13745 4298 9447 4235 6440 20232 5000 4708 3526 15232 11127 1182 3151 10783 4105 6060 2902 3158 2541 1084 1791
is_linear=0
shrinkage=0.05


Tree=28
num_leaves=31
num_cat=0
split_feature=156 156 99 118 112 118 103 26 139 114 99 141 106 26 156 157 26 104 105 156 143 18 104 26 43 156 91 140 135 105
split_gain=86.652 21.5357 16.5706 17.5057 20.1586 17.7097 15.2329 14.8187 14.5026 14.2474 12.4122 10.3503 9.91798 8.47751 30.8794 27.3267 12.6346 7.62844 5.98729 5.36713 5.09044 4.67636 4.63528 5.07167 4.49687 4.40471 3.97833 3.89638 4.82883 3.81141
threshold=0.41666667163372045 0.73235049843788158 -0.67568367719650257 0.010252465028315784 0.030137208290398124 0.035668652504682548 -0.059085227549076073 0.75000000000000011 -0.0058090751990675918 -0.068601030856370912 -0.66266167163848866 0.016419626772403721 0.15712530910968783 0.71153846383094799 0.40990260243415838 0.44424363970756536 0.67307692766189586 0.039514718577265746 -0.030779605731368061 0.86388340592384349 -0.052387069910764687 0.51666668057441723 0.45774380862712866 0.86538460850715648 0.32500000298023229 0.39379699528217321 2.2668730020523076 -0.016796847805380818 -0.017101632431149479 -0.032461024820804589
decision_type=2 2 2 2 2 2 2 2 2 2 2 2 2 2 2 2 2 2 2 2 2 2 2 2 2 2 2 2 2 2
left_child=6 2 26 4 7 11 9 -4 -7 17 -6 -5 18 14 16 25 -11 -1 20 22 24 -14 27 -24 -8 -15 -2 -3 -29 -22
right_child=1 19 3 5 10 8 12 -9 -10 13 -12 -13 21 15 -16 -17 -18 -19 -20 -21 29 -23 23 -25 -26 -27 -28 28 -30 -31
leaf_value=-0.0022439238169760403 -0.0095706159929771131 0.0051683478397104091 -0.0031312261505824232 0.0056649971080412233 -0.0042654780037747362 -0.0010119697180659682 -0.014257734253300423 6.8575260449035833e-05 0.0027986811410023664 -0.0059183870844074843 0.0026138203933516301 0.00090235839602001856 -0.0031832295701300127 -0.0038880306287369126 -0.018187300670386413 0.017314623247622032 0.003009304006023835 0.0074037512052988405 -0.0063771586003821311 0.0063808449448445187 -0.0048649706014737438 0.0077031283378852233 -0.020760395261348704 0.0068401799372890416 0.003867792454980415 0.0037269504896656294 0.0012825299116459941 -0.00012923967887621874 0.0037344277299188504 -5.1317778477119434e-05
leaf_weight=300 490 1575 6057 3937 725 5360 38 8979 4672 864 6798 1610 174 1030 352 202 731 641 4398 1467 3308 226 42 27 323 232 101 1370 1965 472
leaf_count=300 490 1575 6057 3937 725 5360 38 8979 4672 864 6798 1610 174 1030 352 202 731 641 4398 1467 3308 226 42 27 323 232 101 1370 1965 472
internal_value=-1.90272e-08 0.00104399 0.000598447 0.000727331 -0.000162673 0.0020164 -0.00354884 -0.0012201 0.000762209 -0.00112132 0.00195009 0.00428364 -0.00473009 -0.00262484 -0.00478627 0.000246528 -0.00182376 0.00432284 -0.00509077 0.00372001 -0.0037231 0.00295584 0.0029348 -0.00989936 0.00193916 -0.0024838 -0.00770758 0.00311657 0.00214584 -0.00426526
internal_weight=58466 45175 38729 38138 22559 15579 13291 15036 10032 4352 7523 5547 8939 3411 1947 1464 1595 941 8539 6446 4141 400 4979 69 361 1262 591 4910 3335 3780
internal_count=58466 45175 38729 38138 22559 15579 13291 15036 10032 4352 7523 5547 8939 3411 1947 1464 1595 941 8539 6446 4141 400 4979 69 361 1262 591 4910 3335 3780
is_linear=0
shrinkage=0.05


Tree=29
num_leaves=31
num_cat=0
split_feature=156 156 118 107 114 144 128 129 113 138 143 109 111 139 142 145 135 88 129 102 126 157 121 139 105 157 140 122 121 144
split_gain=78.3988 29.3493 13.508 23.9188 20.1827 12.7755 12.1378 12.0807 14.4535 11.6095 11.1337 10.7617 10.2864 8.87133 8.53177 10.3996 8.82827 8.24866 9.78003 8.16208 10.3875 7.66511 7.50089 6.79825 9.4102 6.13682 5.59961 4.6046 4.7742 4.64309
threshold=0.25000001490116125 0.57369652390480053 0.010252465028315784 -0.018099586479365822 0.015171002130955459 -0.02083261031657457 -0.040097350254654877 -0.012210955843329428 -0.10932516679167746 0.0089146969839930552 0.011762523557990791 0.32947148382663732 0.037529163062572486 -0.092218477278947816 -0.030337686650454995 0.013496855739504101 0.025252847932279113 1.0000000180025095e-35 -0.03296705707907676 0.08735727891325952 0.056407045572996146 0.3160459846258164 -0.095464758574962602 0.0099954367615282553 -0.075534008443355546 0.25848674774169927 0.055620543658733375 0.033114431425929076 0.025579394772648815 0.059253621846437461
decision_type=2 2 2 2 2 2 2 2 2 2 2 2 2 2 2 2 2 2 2 2 2 2 2 2 2 2 2 2 2 2
left_child=27 7 3 23 6 14 -5 9 21 19 25 13 -12 -10 16 -16 -4 26 -19 20 -2 -9 -6 24 -3 -7 -11 29 -29 -1
right_child=1 2 5 4 22 10 -8 8 11 17 12 -13 -14 -15 15 -17 -18 18 -20 -21 -22 -23 -24 -25 -26 -27 -28 28 -30 -31
leaf_value=-0.0056549945714050188 0.0014840793507479803 -0.0063247519078317221 0.0086717005663299439 -0.0093058090660328632 -0.0074367472069836781 0.0037040575408988892 -0.0019402032119487237 -0.0023030505173657371 0.0048681258609438666 0.0012092429560073227 0.0036403409605595253 0.010006020977874616 -0.002261635069889177 -0.0014457124633998567 0.0010525266512527995 -0.0061529556899937998 -0.0011535059277754296 0.0011928047692339417 0.0068210228997055899 -0.0050571950518481928 -0.0045652252709036147 -0.011773643274144999 0.0028548358740043346 0.0047013208345014768 0.0029831776458050731 0.0071466810686148727 -0.0053119452193042347 -0.0035508635235306663 0.0040747685515442012 4.8057170013371631e-05
leaf_weight=5903 2942 364 538 646 188 2387 4192 381 580 2449 2624 218 1026 13360 1641 720 396 1514 1580 992 935 491 2931 3526 1066 2853 380 1008 257 378
leaf_count=5903 2942 364 538 646 188 2387 4192 381 580 2449 2624 218 1026 13360 1641 720 396 1514 1580 992 935 491 2931 3526 1066 2853 380 1008 257 378
