tree
version=v4
num_class=1
num_tree_per_iteration=1
label_index=0
max_feature_idx=160
objective=regression
feature_names=n_total_answers n_missing_answers n_answered_personality n_answered_economic n_answered_cognitive n_answered_demographics n_ordinal_items n_categorical_items n_text_items n_multi_select_items ordinal_mean_normalized ordinal_std_normalized ordinal_midpoint_rate ordinal_extreme_rate ordinal_acquiescence straightlining_max_repeat_rate bfi_44_mean_norm bfi_44_n_items bfi_18_mean_norm bfi_18_n_items autonomy_cognition_mean_norm autonomy_cognition_n_items personal_values_mean_norm personal_values_n_items self_monitoring_mean_norm self_monitoring_n_items self_monitoring_binary_mean_norm self_monitoring_binary_n_items regulatory_focus_mean_norm regulatory_focus_n_items bai_anxiety_mean_norm bai_anxiety_n_items bai_sum_score self_concept_mean_norm self_concept_n_items need_uniqueness_mean_norm need_uniqueness_n_items need_closure_mean_norm need_closure_n_items personality_traits_5pt_mean_norm personality_traits_5pt_n_items maximization_mean_norm maximization_n_items uncertainty_beliefs_mean_norm uncertainty_beliefs_n_items risk_sensitivity_personality_mean_norm risk_sensitivity_personality_n_items self_regulation_mean_norm self_regulation_n_items spending_scale spending_difficulty spending_anxiety shopper_type weight_loss_intention dictator_game_position ultimatum_offer_position trust_game_send_position trust_return_mean_position ultimatum_reject_rate hedonic_framing_mean loss_aversion_risky_choices loss_aversion_risky_rate crt_score crt_total_attempted numeracy_score numeracy_total_attempted financial_literacy_score financial_literacy_total vocabulary_synonym_total vocabulary_antonym_total spatial_n_attempted wason_correct wason_n_selected forward_flow_word_count demo_region demo_sex demo_age demo_education demo_race demo_citizenship demo_occupation demo_religion demo_religiosity demo_political_party demo_income demo_political_views demo_household_size demo_employment emb_0 emb_1 emb_2 emb_3 emb_4 emb_5 emb_6 emb_7 emb_8 emb_9 qemb_pca_0 qemb_pca_1 qemb_pca_2 qemb_pca_3 qemb_pca_4 qemb_pca_5 qemb_pca_6 qemb_pca_7 qemb_pca_8 qemb_pca_9 qemb_pca_10 qemb_pca_11 qemb_pca_12 qemb_pca_13 qemb_pca_14 qemb_pca_15 qemb_pca_16 qemb_pca_17 qemb_pca_18 qemb_pca_19 qemb_pca_20 qemb_pca_21 qemb_pca_22 qemb_pca_23 qemb_pca_24 qemb_pca_25 qemb_pca_26 qemb_pca_27 qemb_pca_28 qemb_pca_29 qemb_pca_30 qemb_pca_31 qemb_pca_32 qemb_pca_33 qemb_pca_34 qemb_pca_35 qemb_pca_36 qemb_pca_37 qemb_pca_38 qemb_pca_39 qemb_pca_40 qemb_pca_41 qemb_pca_42 qemb_pca_43 qemb_pca_44 qemb_pca_45 qemb_pca_46 qemb_pca_47 qemb_pca_48 qemb_pca_49 question_num_options block_Cognitive_tests block_Demographics block_Economic_preferences block_Personality qtype_MC qtype_Matrix qtype_TE person_construct_mean_loo person_construct_std_loo person_construct_percentile_loo construct_answers_available has_multi_item_construct
feature_infos=[536:537] [0:6] none [178:179] [64:65] none none none [21:22] [20:21] [0.44838592410087585:0.73608267307281494] [0.16133671998977661:0.34511783719062805] [0.02760736271739006:0.64417177438735962] [0.1840490847826004:0.81901842355728149] [2.2638037204742432:3.8282208442687988] [0.53846156597137451:1] [0.22272726893424988:0.80909091234207153] none [0.24444444477558136:0.86666667461395264] none [0.3571428656578064:0.91428571939468384] [9:10] [0.25462964177131653:0.9861111044883728] [18:24] [0.25:0.7638888955116272] none [0.5:0.92307692766189575] none [0.26666668057441711:1] none [0.25:0.82142859697341919] none [0:48] [0.43000000715255737:0.77999997138977051] none [0.26249998807907104:0.96249997615814209] none [0.20000000298023224:0.93333333730697632] none [0.20000000298023224:1] none [0.3333333432674408:1] none [0.20000000298023224:0.91666668653488159] none [0.3333333432674408:0.98666667938232422] none [0.23333333432674408:0.96666663885116577] none [1:11] [1:5] [1:5] [1:5] [1:2] [1:6] [1:6] [1:16] [1:8.5] [0:1] [1:2] [0:9] [0:1] [0:4] [3:4] [0:8] none [2:8] none none none none [0:4] [1:4] [7:20] [1:4] [1:2] [1:4] [1:6] [1:5] none [1:6] [1:12] [1:6] [1:4] [1:5] [1:5] [1:5] [1:7] [-18.468034744262695:13.981993675231934] [-14.723208427429199:10.627040863037109] [-10.310186386108398:11.699763298034668] [-7.8283696174621582:10.310257911682129] [-9.6072807312011719:9.2328338623046875] [-8.0900363922119141:16.57765007019043] [-7.335780143737793:5.8458571434020996] [-8.3878936767578125:6.4226036071777344] [-8.4518289566040039:7.699770450592041] [-5.4553799629211426:5.9361748695373535] [-0.45041906833648682:0.51288807392120361] [-0.68818861246109009:0.51629489660263062] [-0.39918535947799683:0.34074655175209045] [-0.595711350440979:0.25662651658058167] [-0.30449989438056946:0.30002698302268982] [-0.26794335246086121:0.33597484230995178] [-0.33094456791877747:0.48840698599815369] [-0.40084412693977356:0.25145360827445984] [-0.27771484851837158:0.26659488677978516] [-0.24749058485031128:0.38582488894462585] [-0.25158563256263733:0.21607595682144165] [-0.30014145374298096:0.35707324743270874] [-0.35830599069595337:0.19921086728572845] [-0.24905210733413696:0.31230509281158447] [-0.23482342064380646:0.2624877393245697] [-0.22648842632770538:0.26324465870857239] [-0.15513604879379272:0.28657063841819763] [-0.24639558792114258:0.22212052345275879] [-0.17947927117347717:0.33270791172981262] [-0.32572025060653687:0.23635797202587128] [-0.26190313696861267:0.20939898490905762] [-0.21048642694950104:0.20444269478321075] [-0.25737380981445312:0.40742817521095276] [-0.17823481559753418:0.1576528400182724] [-0.25615939497947693:0.19612608850002289] [-0.28742524981498718:0.24589303135871887] [-0.19168475270271301:0.18010798096656799] [-0.17329573631286621:0.24041898548603058] [-0.1833028644323349:0.24156151711940765] [-0.15861576795578003:0.19452224671840668] [-0.16623017191886902:0.17292448878288269] [-0.23354022204875946:0.15895016491413116] [-0.11709881573915482:0.15873731672763824] [-0.19992104172706604:0.21312782168388367] [-0.22046488523483276:0.11620821803808212] [-0.38285565376281738:0.17608319222927094] [-0.13804246485233307:0.13919660449028015] [-0.15238027274608612:0.13173738121986389] [-0.13635951280593872:0.10775377601385117] [-0.16318625211715698:0.16907347738742828] [-0.17573530972003937:0.17084750533103943] [-0.20046088099479675:0.15476372838020325] [-0.1486610621213913:0.18351574242115021] [-0.12285617738962173:0.1596672385931015] [-0.16242615878582001:0.14086709916591644] [-0.20833310484886169:0.12997826933860779] [-0.17790605127811432:0.12301091849803925] [-0.16522589325904846:0.1604858934879303] [-0.15033914148807526:0.12956240773200989] [-0.13981261849403381:0.19120091199874878] [2:9] none none none none [0:1] [0:1] none [0:1] [0:0.5] [0.0001950838923221454:1] none [0:1]
tree_sizes=2915 3040 3051 3042 3045 3046 3046 3059 3030 3045 3051 3087 3049 3096 3033 3060 3066 3061 3081 3035 3031 3088 3099 3059 3066 3092 3091 3088 3053 3057 3108 3074 3062 3084 3089 3095 3078 3083 3088 3070 3084 3029 3099 3089 3091 3074 3059 3095 3120 3071 3105 3041 3105 3079 3082 3017 3043 3057 3084 3092 3072 3038 3076 3056 3063 3044 3014 3023 3077 3084 3035 3082 2990 3051 3013 3092 3046 3069 3025 3037 3016 3019 3075 2991 2989 3069 3033 3021 3012 3012 2625 2983 2954 3027 3034 3035 2984 3015 3010 3072 3071 2514 3047 2963 3042 3049 3034 2373 3072 3057 3002 3019 3040 2999 3049 3069 2939 2932 3054 2576 2951 2956 3052 2946 3058 2929 3079 2921 3017 2943 2897 2436 2973 3037 3043 3017 2929 2919 2230 3002 3027 3097 3046 2969 2681 3019 3048 2909 3002 2975 3038 2940 3045 2335 3072 2954 2945 2945 2959 2990 2974 2557 2956 2973 2965 3034 3098 2583 3050 2996 2950 2980 2962 3057 3016 3024 2968 2995 2987 2995 2930 3005 3050 3002 2971 2894 3009 2992 3010 2972 2961 2907 2958 2997 2968 2989 2982 2936 2962 2992 2927 2957 3026 2927 2973 2994 3019 2944 2950 2954 2957 2943 3061 2965 3022 3027 2990 3022 3005 2920 3025 3010 2989 2922 2967 3008 2960 2965 3001 2966 2994 2992 2963 3035 3035 2992 3014 2957 3014 2954 3006 2965 3006 2971 3043 3017 3003 2935 3056 2948 3035 2992 3041 3051 2970 2997 2977 3071 3051 2996 3014 2994 2918 2973 3044 2968 3056 3037 2929 3042 2875 3014 2983 3069 3036 2941 2985 2989 3003 2980 2968 2982 2978 2972 3016 3015 2494 3003 3022 3001 3053 2980 2957 3001 2932 3003 3023 2991 3027 3021 2975 3031 2881 2987 2897 2952 3046 2924 3070 3035 3052 2927 3008 2983 2992 3002 3045 2932 2871 3008 2968 2984 2963 3039 2989 3006 2975 2954 2997 2972 2987 2946 2949 2978 2990 2978 3040 2993 2940 2896 2864 2967 2960 2986 2948 2914 3034 3005 2948 2982 2993 3084 2967 2918 3039 3032 2992 3021 3001 2889 2986 2949 3040 2973 3031 2990 3043 2970 3008 3013 2915 2935 3010 2996 3033 2982 3008 2974 2995 2978 2955 2996 2919 3016 2982 2955 3037 2947 2980 2970 3055 2954 3052 2993 3012 2911 2948 3022 2972 2982

Tree=0
num_leaves=31
num_cat=0
split_feature=156 156 118 129 109 156 119 127 125 99 139 156 113 136 121 113 113 103 156 102 148 144 118 115 144 26 156 131 26 157
split_gain=1306.61 281.213 104.451 102.085 90.4509 79.5669 74.252 72.4845 71.8027 61.3835 61.3718 44.8111 41.378 38.7502 38.5706 38.5093 65.1977 19.4337 18.721 13.2331 12.1067 12.1331 11.6128 16.9269 15.9503 14.1892 10.9952 10.851 11.6899 29.0741
threshold=0.31941699981689459 0.66854146122932445 0.011591962072998287 -0.012210955843329428 0.026739027351140979 0.24537037312984469 0.0018639607587829234 -0.04490897245705127 -0.042923148721456521 0.2382973060011864 0.02493469882756472 0.78452381491661083 -0.06334108859300612 0.023098234087228778 0.020629342645406726 -0.079448942095041261 -0.084246825426816926 0.049427611753344543 0.10000000521540643 0.21926116943359378 4.5000000000000009 -0.084782335907220827 0.010252465028315784 0.044538652524352081 -0.032494215294718735 0.86538460850715648 0.90990260243415844 0.015917224343866113 0.63461539149284374 0.41555817425251013
decision_type=2 2 2 2 2 2 2 2 2 2 2 2 2 2 2 2 2 2 2 2 2 2 2 2 2 2 2 2 2 2
left_child=5 2 3 6 10 15 13 -6 -8 12 -5 22 17 -2 -14 16 -1 -4 -17 -20 -13 -22 23 25 -24 -3 -23 28 -7 -30
right_child=1 11 9 4 7 27 8 -9 -10 -11 -12 20 14 -15 -16 18 -18 -19 19 -21 21 26 24 -25 -26 -27 -28 -29 29 -31
leaf_value=0.49813487976225873 0.51473219912515067 0.52058567896509744 0.51968578274887833 0.50887596066945362 0.50868855849545802 0.50306229453779694 0.51484416875532446 0.52279517593801883 0.52837044261404909 0.50948685709688624 0.51889715400281533 0.51042463844305086 0.52697368559381319 0.52491451560137081 0.52069113266839318 0.49525893608420185 0.5318069019498417 0.50657778687457744 0.50036181423134374 0.52821947430686877 0.52152093818675771 0.53311235760065478 0.5227244083874043 0.52955034988169725 0.53062204162549698 0.53317619718379816 0.53976036136859884 0.50603783795477653 0.5129555479978718 0.54265234479804547
leaf_weight=385 3777 1884 1250 5526 1138 214 1242 4553 4661 742 2113 55 8848 1241 3378 3670 229 365 2551 43 187 2765 829 1180 2828 254 810 882 774 92
leaf_count=385 3777 1884 1250 5526 1138 214 1242 4553 4661 742 2113 55 8848 1241 3378 3670 229 365 2551 43 187 2765 829 1180 2828 254 810 882 774 92
internal_value=0.518979 0.522134 0.520149 0.518139 0.515202 0.501269 0.521722 0.519973 0.525524 0.523493 0.511647 0.529273 0.524245 0.517252 0.525238 0.498735 0.510702 0.516725 0.497563 0.500826 0.53363 0.533971 0.526888 0.524742 0.528833 0.522085 0.534621 0.510156 0.513526 0.516121
internal_weight=58466 49626 38834 24251 13330 8840 10921 5691 5903 14583 7639 10792 13841 5018 12226 6878 614 1615 6264 2594 3817 3762 6975 3318 3657 2138 3575 1962 1080 866
internal_count=58466 49626 38834 24251 13330 8840 10921 5691 5903 14583 7639 10792 13841 5018 12226 6878 614 1615 6264 2594 3817 3762 6975 3318 3657 2138 3575 1962 1080 866
is_linear=0
shrinkage=1


Tree=1
num_leaves=31
num_cat=0
split_feature=156 156 118 129 109 108 156 111 113 99 156 156 132 114 113 113 141 116 156 116 114 119 157 158 131 47 157 26 97 158
split_gain=1179.24 253.807 94.8047 95.5713 88.9952 83.696 71.8041 68.4191 57.6367 54.9083 41.1811 40.4603 38.0885 36.2751 34.7526 58.8465 30.9735 20.6414 16.8924 16.8058 13.6291 11.2059 11.1114 10.148 9.79176 11.1356 9.23698 18.9252 9.14328 8.80926
threshold=0.31941699981689459 0.66854146122932445 0.010252465028315784 -0.012210955843329428 0.026739027351140979 -0.19667633622884748 0.24537037312984469 0.00094262036145664762 0.031457928009331233 0.2382973060011864 0.5000000298023225 0.81742423772811901 -0.01701740454882383 -0.052036417648196213 -0.079448942095041261 -0.084246825426816926 0.015338346362113954 -0.010366351343691347 0.10000000521540643 -0.015158236492425202 -0.035364093258976929 -0.044017367064952843 0.33282040059566503 0.055276872590184219 0.015917224343866113 0.45000000298023229 0.31306360661983496 0.63461539149284374 -0.99819296598434437 0.92847624421119701
decision_type=2 2 2 2 2 2 2 2 2 2 2 2 2 2 2 2 2 2 2 2 2 2 2 2 2 2 2 2 2 2
left_child=6 2 3 7 8 -6 14 12 -5 10 21 17 -2 -12 15 -1 -9 19 -16 20 -3 -4 -13 -20 25 -8 -27 -28 -24 -19
right_child=1 11 9 4 5 -7 24 16 -10 -11 13 22 -14 -15 18 -17 -18 29 23 -21 -22 -23 28 -25 -26 26 27 -29 -30 -31
leaf_value=-0.019802301303866281 0.00064258013911851132 0.0027451238095738181 -0.0070610751571593567 -0.010626852369882797 -0.016085651611646833 0.0031039983314884007 -0.013559274950511128 0.001670397542719331 -0.0012748832260306207 -0.0090175093932750375 0.0017400276029004643 0.015518277133146194 0.0082974140552617495 0.0083183926874563132 -0.02253397088899568 0.012187220323928364 -0.0072759899761673952 0.01169119367339992 -0.0085080756179771854 -0.006269932832770251 0.0088166073860756859 0.0013880097443739697 0.013324650115611259 -0.018371591310316373 -0.012294096221467064 -0.0061046946104338466 -0.016243133620616603 0.013063613273526523 -0.023201349046495224 0.0054144593689883815
leaf_weight=385 2543 1546 447 4773 640 5051 290 1963 2518 742 2889 2686 4509 7652 3670 229 1906 3220 297 281 2310 3201 34 2297 882 510 75 205 34 681
leaf_count=385 2543 1546 447 4773 640 5051 290 1963 2518 742 2889 2686 4509 7652 3670 229 1906 3220 297 281 2310 3201 34 2297 882 510 75 205 34 681
internal_value=0 0.00299706 0.00111189 -0.000840468 -0.0037404 0.000944596 -0.0168245 0.00260628 -0.00739789 0.00423771 0.00493135 0.00978005 0.00553783 0.00651598 -0.0192319 -0.00786313 -0.00273575 0.00798635 -0.0203451 0.00552295 0.00638391 0.000351018 0.0150125 -0.0172449 -0.00838151 -0.00517992 -0.00209497 0.00518976 -0.00487952 0.0105971
internal_weight=58466 49626 38834 23903 12982 5691 8840 10921 7291 14931 14189 10792 7052 10541 6878 614 3869 8038 6264 4137 3856 3648 2754 2594 1962 1080 790 280 68 3901
internal_count=58466 49626 38834 23903 12982 5691 8840 10921 7291 14931 14189 10792 7052 10541 6878 614 3869 8038 6264 4137 3856 3648 2754 2594 1962 1080 790 280 68 3901
is_linear=0
shrinkage=0.05


Tree=2
num_leaves=31
num_cat=0
split_feature=156 156 118 129 146 101 156 111 111 124 156 125 124 141 107 126 133 137 102 98 104 116 156 116 116 114 131 88 158 16
split_gain=1064.29 229.066 85.5613 86.2551 77.1995 68.0811 64.7965 61.7487 46.6862 38.5046 37.2915 37.275 34.8631 27.9544 27.8818 47.0473 27.4437 22.828 15.4152 15.0441 14.4249 13.8717 12.2811 11.7085 11.29 11.1096 10.6284 9.93906 9.13915 12.1759
threshold=0.31941699981689459 0.66854146122932445 0.010252465028315784 -0.012210955843329428 -0.014452422969043253 0.086262390017509474 0.24537037312984469 0.00094262036145664762 -0.092824518680572496 0.025283856317400936 0.78452381491661083 0.010164275765419008 0.0026308470405638222 0.015338346362113954 -0.052894946187734597 -0.0016704495646990833 -0.011644686572253702 0.032814875245094306 0.21926116943359378 -0.22694157809019086 0.041726076975464828 -0.010366351343691347 0.10000000521540643 -0.015158236492425202 -0.0088461921550333483 -0.035364093258976929 0.050938209518790252 -5.2154526710510245 0.92847624421119701 0.75000000000000011
decision_type=2 2 2 2 2 2 2 2 2 2 2 2 2 2 2 2 2 2 2 2 2 2 2 2 2 2 2 2 2 2
left_child=6 2 3 7 16 -6 14 11 19 12 21 -2 -10 -9 15 -1 -5 -11 22 27 -17 23 -16 25 26 -3 -12 -4 -23 -30
right_child=1 10 8 4 5 -7 -8 13 9 17 24 -13 -14 -15 18 20 -18 -19 -20 -21 -22 28 -24 -25 -26 -27 -28 -29 29 -31
leaf_value=-0.018946318289005427 0.001589756403057585 0.0021742052656498765 0.00512963178531964 0.0070643709825235603 -0.0075034322982923361 0.0049887258840700423 -0.0079628683059472655 0.0015868860872814581 0.0025114142624354705 -0.0041914487846600127 0.011510599470359054 0.0088624453665433253 0.0095381752606464396 -0.0069122283529619612 -0.021524102349424885 -0.013974263465427086 -0.0019043701605433666 0.0056817505775872065 0.0069994163744124096 0.0025425019760255711 0.010392910358855319 0.010622346095446758 -0.016808255768580714 -0.0055413135738431518 0.015914308352524168 0.008064735394706226 -0.0031266943857845698 0.013585797009523795 -0.0057464003241181824 0.0091363643519755816
leaf_weight=558 3493 1331 439 1830 8301 1255 1962 1963 6521 2532 1721 3559 2422 1906 3691 79 1596 761 54 544 259 2782 2237 247 1963 2019 133 1712 214 382
leaf_count=558 3493 1331 439 1830 8301 1255 1962 1963 6521 2532 1721 3559 2422 1906 3691 79 1596 761 54 544 259 2782 2237 247 1963 2019 133 1712 214 382
internal_value=0 0.00284722 0.00105628 -0.000798443 -0.00355342 -0.00586223 -0.0159835 0.002476 0.00402582 0.00271303 0.00929114 0.00526099 0.00441518 -0.00259891 -0.0182704 -0.0100299 0.00288496 -0.00190806 -0.0195035 0.00998374 0.00467794 0.00711497 -0.019746 0.00495074 0.0132659 0.00572611 0.0104576 0.0118629 0.0094176 0.00378403
internal_weight=58466 49626 38834 23903 12982 9556 8840 10921 14931 12236 10792 7052 8943 3869 6878 896 3426 3293 5982 2695 338 6975 5928 3597 3817 3350 1854 2151 3378 596
internal_count=58466 49626 38834 23903 12982 9556 8840 10921 14931 12236 10792 7052 8943 3869 6878 896 3426 3293 5982 2695 338 6975 5928 3597 3817 3350 1854 2151 3378 596
is_linear=0
shrinkage=0.05


Tree=3
num_leaves=31
num_cat=0
split_feature=156 156 140 111 156 132 117 105 134 132 104 107 156 138 134 113 113 99 102 108 100 123 114 156 131 47 157 26 102 43
split_gain=960.544 206.734 77.5434 82.85 58.4767 55.4029 54.7365 51.7624 45.0351 44.9675 39.8241 37.4358 33.7778 32.7826 30.8901 28.3489 48.2108 15.4122 15.223 12.2098 12.2662 14.9494 14.0265 11.891 8.8368 10.0518 8.33372 17.0865 8.39775 7.59783
threshold=0.31941699981689459 0.66854146122932445 0.00067048959317617129 -0.029575675725936886 0.24537037312984469 0.045445743948221214 -0.099761873483657823 0.096602581441402449 -0.015338231343775986 0.076423626393079772 -0.10022244974970816 0.0164258535951376 0.83333334326744091 -0.00033878006433951663 -0.033183768391609185 -0.079448942095041261 -0.084246825426816926 0.15917892754077914 0.21926116943359378 0.21093676984310153 0.11430152505636217 -0.064058609306812272 -0.058635275810956948 0.10000000521540643 0.015917224343866113 0.45000000298023229 0.31306360661983496 0.63461539149284374 -0.12657487392425534 0.44166666269302374
decision_type=2 2 2 2 2 2 2 2 2 2 2 2 2 2 2 2 2 2 2 2 2 2 2 2 2 2 2 2 2 2
left_child=4 2 6 5 15 14 -2 9 11 -8 -9 -5 19 -10 -4 16 -1 -7 23 20 22 -22 -3 -17 25 -6 28 -28 -27 -26
right_child=1 12 3 8 24 17 7 10 13 -11 -12 -13 -14 -15 -16 18 -18 -19 -20 -21 21 -23 -24 -25 29 26 27 -29 -30 -31
leaf_value=-0.017894740912943369 0.008720958496067353 0.0043044081866676544 0.00012656030228211786 -0.00040899608403805252 -0.012483909379801286 0.00068909747138729742 0.00010240083727942106 0.012605227323098414 -0.0016440478504380672 -0.0095993617240168836 -0.0094789828287467244 -0.01077366738071131 0.014290187602644167 0.0057688623075602703 0.0094113334105473262 -0.020438394299013809 0.01105919926838517 -0.01518100919774043 0.0068333255882198742 -0.024310576639428046 -0.0039235937607609373 0.0063363750567348338 0.0099564235249045216 -0.015971017330043122 -0.014466165924759475 0.0038097896881033946 -0.015036051771900755 0.012808824315137045 -0.0098607768009515272 -0.0044823776339830909
leaf_weight=385 1317 1429 1035 2580 290 297 14662 220 2418 1300 2773 1316 2243 3888 6714 3654 229 314 59 30 438 1860 4792 2551 600 166 75 205 344 282
leaf_count=385 1317 1429 1035 2580 290 297 14662 220 2418 1300 2773 1316 2243 3888 6714 3654 229 314 59 30 438 1860 4792 2551 600 166 75 205 344 282
internal_value=0 0.00270492 0.00100352 0.00333849 -0.0151845 0.0070286 -0.00113426 -0.00181935 0.000314076 -0.000687541 -0.00785328 -0.00391166 0.00882667 0.00292567 0.00817189 -0.017357 -0.00708773 -0.00746085 -0.0183626 0.00739232 0.00750512 0.00437847 0.00865911 -0.0186031 -0.00756477 -0.00452329 -0.0015923 0.00532712 -0.00540159 -0.0112815
internal_weight=58466 49626 38834 18562 8840 8360 20272 18955 10202 15962 2993 3896 10792 6306 7749 6878 614 611 6264 8549 8519 2298 6221 6205 1962 1080 790 280 510 882
internal_count=58466 49626 38834 18562 8840 8360 20272 18955 10202 15962 2993 3896 10792 6306 7749 6878 614 611 6264 8549 8519 2298 6221 6205 1962 1080 790 280 510 882
is_linear=0
shrinkage=0.05


Tree=4
num_leaves=31
num_cat=0
split_feature=156 156 118 146 129 139 156 126 99 156 156 125 102 146 113 113 135 102 116 156 136 143 116 121 131 158 89 131 47 120
split_gain=866.909 186.578 72.1887 74.5816 69.0058 53.5983 52.7678 50.1965 45.4462 35.9841 31.4289 30.5897 28.4119 27.4106 25.5833 43.5146 16.5462 13.7436 12.0402 10.7281 10.2585 16.1581 9.91975 9.51878 9.41346 8.30748 9.5428 7.97454 9.072 8.50336
threshold=0.31941699981689459 0.66854146122932445 0.010252465028315784 -0.011391654144972561 -0.012210955843329428 -0.082170158624649034 0.24537037312984469 0.056407045572996146 0.2382973060011864 0.5000000298023225 0.78452381491661083 -0.045247493311762803 0.022998760454356674 0.059167020022869117 -0.079448942095041261 -0.084246825426816926 -0.01823401357978582 0.21926116943359378 -0.010366351343691347 0.10000000521540643 0.02581103798002005 -0.01607183180749416 -0.0088461921550333483 -0.035552799701690667 0.050938209518790252 0.92847624421119701 2.3442212343215947 0.015917224343866113 0.45000000298023229 -0.013136290013790129
decision_type=2 2 2 2 2 2 2 2 2 2 2 2 2 2 2 2 2 2 2 2 2 2 2 2 2 2 2 2 2 2
left_child=6 2 3 11 7 -6 14 -5 9 23 18 16 -13 -11 15 -1 -2 19 20 -16 21 -3 24 -4 -12 -20 -27 28 -8 -30
right_child=1 10 8 4 5 -7 27 -9 -10 13 22 12 -14 -15 17 -17 -18 -19 25 -21 -22 -23 -24 -25 -26 26 -28 -29 29 -31
leaf_value=-0.017000468242971512 -0.011726994547624782 0.0087551559478119684 0.0039671893838498107 0.0029231157943540947 0.007922911499621545 -0.0065432629999471071 -0.011860144017411874 -0.0091135289903273367 -0.0083780392833323596 0.0063637081787912067 0.010393014757987262 0.0084774779606611537 0.0014878465536274793 -0.0056017116540749918 -0.019416530144747358 0.0105067218362921 7.1206724213185145e-05 0.0064928133141350097 0.0096812468855484793 -0.01517252880677186 0.0098347657497245659 0.00061544011965157064 0.014516944323772466 -0.0016255707980084113 -0.0033813961524958242 -0.014718816104679847 0.0054025683098134344 -0.010717902099956491 0.0055948175891030131 -0.0052968864299029299
leaf_weight=385 369 872 1081 5830 691 8652 290 1017 742 10039 1721 3000 2825 502 3654 229 1519 59 2782 2551 694 2031 1963 2567 133 66 530 882 274 516
leaf_count=385 369 872 1081 5830 691 8652 290 1017 742 10039 1721 3000 2825 502 3654 229 1519 59 2782 2551 694 2031 1963 2567 133 66 530 882 274 516
internal_value=0 0.00256969 0.000953342 -0.000750279 -0.00267818 -0.00547268 -0.0144254 0.00113434 0.00368097 0.00431205 0.00838537 0.0032958 0.00508868 0.0057933 -0.0164892 -0.00673305 -0.00223304 -0.0174445 0.00638746 -0.0176731 0.00437107 0.0030626 0.0120344 3.04698e-05 0.00940193 0.00853272 0.00316178 -0.00718698 -0.00429732 -0.00151247
internal_weight=58466 49626 38834 23903 16190 9343 8840 6847 14931 14189 10792 7713 5825 10541 6878 614 1888 6264 6975 6205 3597 2903 3817 3648 1854 3378 596 1962 1080 790
internal_count=58466 49626 38834 23903 16190 9343 8840 6847 14931 14189 10792 7713 5825 10541 6878 614 1888 6264 6975 6205 3597 2903 3817 3648 1854 3378 596 1962 1080 790
is_linear=0
shrinkage=0.05


Tree=5
num_leaves=31
num_cat=0
split_feature=156 156 140 111 100 146 156 134 109 139 142 115 99 156 134 108 99 156 158 131 116 138 125 121 135 26 131 26 157 158
split_gain=782.4 168.393 65.5407 73.4062 53.8748 51.9818 47.6181 44.1521 39.6426 34.2526 40.1564 36.3812 31.3038 29.2071 28.678 27.3241 20.917 18.3799 19.0125 23.4411 16.3926 14.0793 15.0109 14.692 13.2832 10.4739 7.19569 8.69464 22.6712 8.19964
threshold=0.31941699981689459 0.66854146122932445 0.00067048959317617129 -0.040770683437585824 -0.3255100399255752 -0.0059988799039274445 0.24537037312984469 -0.015338231343775986 -0.089191943407058702 0.0052335059735924014 0.04059641249477864 -0.065937895327806459 0.015385135076940061 0.86388340592384349 -0.033183768391609185 0.1393835246562958 0.27014258503913885 0.067424245178699507 0.15228898823261264 0.0020303785568103199 -0.0088461921550333483 -0.0024088189238682385 -0.032568750903010361 0.032605219632387168 0.037634084001183517 0.82692307233810436 0.015917224343866113 0.63461539149284374 0.41555817425251013 0.041437925770878799
decision_type=2 2 2 2 2 2 2 2 2 2 2 2 2 2 2 2 2 2 2 2 2 2 2 2 2 2 2 2 2 2
left_child=6 2 5 4 -4 15 17 12 -9 10 -7 -11 -5 20 -6 16 -2 -1 19 24 21 23 -23 -3 -19 -17 27 29 -29 -8
right_child=1 13 3 7 14 9 26 8 -10 11 -12 -13 -14 -15 -16 25 -18 18 -20 -21 -22 22 -24 -25 -26 -27 -28 28 -30 -31
leaf_value=-0.018570779387447976 0.0035833790776308404 0.0055039863247816241 -0.010806057984292478 -0.0081221317886883606 0.00082906692769418259 -0.0072888686217638873 -0.00086264435020485565 -0.0072252579601498239 0.0041144751796889359 0.0089326623985237375 0.0010662578845837152 -0.001832543502549141 0.00071193998246736362 0.014396005514400107 0.0099031446357731642 -0.01315934981724684 -0.010079924867014815 -0.0077570333248633723 -0.015171897013237704 -0.015623714670574551 0.0091475526976308799 -0.0013037671247396558 0.0087699874899952839 -0.002967722571182785 0.0098484012634091449 0.016580946456571544 -0.010182128434887187 -0.0046404905879720414 0.021583977889536258 -0.020965630689152331
leaf_weight=3044 6682 1171 388 1944 1047 5605 84 865 7040 954 1933 4421 2069 1519 5209 353 292 204 3029 376 4355 436 2403 908 225 32 882 774 92 130
leaf_count=3044 6682 1171 388 1944 1047 5605 84 865 7040 954 1933 4421 2069 1519 5209 353 292 204 3029 376 4355 436 2403 908 225 32 882 774 92 130
internal_value=0 0.00244123 0.000905672 0.00305235 0.00726359 -0.00105969 -0.0137042 0.000704178 0.00287285 -0.00297121 -0.00514569 7.74864e-05 -0.00356646 0.00796623 0.00838539 0.0022938 0.00301031 -0.0156648 -0.0133555 -0.00651238 0.00691215 0.00493134 0.00722116 0.00180165 0.00146522 -0.0106671 -0.00682788 -0.00408256 -0.00184441 -0.0131063
internal_weight=58466 49626 38834 18562 6644 20272 8840 11918 7905 12913 7538 5375 4013 10792 6256 7359 6974 6878 3834 805 9273 4918 2839 2079 429 385 1962 1080 866 214
internal_count=58466 49626 38834 18562 6644 20272 8840 11918 7905 12913 7538 5375 4013 10792 6256 7359 6974 6878 3834 805 9273 4918 2839 2079 429 385 1962 1080 866 214
is_linear=0
shrinkage=0.05


Tree=6
num_leaves=31
num_cat=0
split_feature=156 156 118 114 129 142 145 99 103 114 114 105 100 156 138 120 30 156 88 102 116 148 144 116 114 156 158 16 33 157
split_gain=706.347 155.208 63.5094 62.4975 61.1175 71.9863 46.24 41.5661 38.0406 41.9875 33.7351 33.5834 27.7251 26.7781 24.9789 24.7999 15.6104 13.9621 10.0292 10.0064 9.70008 9.22333 9.56604 9.15149 9.15569 8.00019 7.49804 10.4782 7.49318 6.98057
threshold=0.3000000268220902 0.66854146122932445 0.010252465028315784 0.095850307494401946 -0.012210955843329428 0.0025053394492715601 -0.0056843792553991071 0.10107609629631044 -0.01689106039702892 -0.105129886418581 -0.058635275810956948 -0.0023244071053341027 0.13227766752243045 0.78452381491661083 0.043183328583836562 0.046188859269022949 0.37500000000000006 0.22970779240131381 -8.1638312339782697 0.21926116943359378 -0.010366351343691347 4.5000000000000009 -0.084782335907220827 -0.015158236492425202 -0.035364093258976929 0.90990260243415844 0.92847624421119701 0.75000000000000011 0.58499997854232799 0.37267799675464636
decision_type=2 2 2 2 2 2 2 2 2 2 2 2 2 2 2 2 2 2 2 2 2 2 2 2 2 2 2 2 2 2
left_child=8 2 3 4 6 -6 -2 10 9 -1 15 -5 -12 20 29 -4 -10 19 -13 -11 23 -15 -23 24 -3 -24 -22 -28 -16 -9
right_child=1 13 7 11 5 -7 -8 14 16 17 12 18 -14 21 28 -17 -18 -19 -20 -21 26 22 25 -25 -26 -27 27 -29 -30 -31
leaf_value=0.0082096021148192876 -0.0029010997540826217 0.0013748322897579504 0.0018306042480390049 -0.0003693622368337363 -0.0083549191758306666 -0.00050279626714571767 0.0040884793824243005 -0.0043266243365273896 -0.016899448341353211 -0.014498456174342898 0.0072262253567481009 -0.0042116296532148474 0.00025857469376564034 -0.0093153322574453089 -0.0018734942754882287 -0.010933595640294141 -0.009576091774465053 -0.0059940138422438704 0.012271506362935503 0.0064118909473354748 0.0087404447403368803 0.00018263886130213914 0.010523839174066175 -0.0053618812599764915 0.0067220574011657196 0.016194091436860774 -0.0062941052866569208 0.007513742195759095 0.006134710510590443 -0.012029219586459611
leaf_weight=326 3992 1331 2090 1047 5394 6364 5808 1224 4735 1523 7910 98 1744 55 459 465 865 935 1448 59 2782 187 2765 247 2019 810 214 382 799 389
leaf_count=326 3992 1331 2090 1047 5394 6364 5808 1224 4735 1523 7910 98 1744 55 459 465 865 935 1448 59 2782 187 2765 247 2019 810 214 382 799 389
internal_value=0 0.00225784 0.000796922 -0.000792584 -0.00167491 -0.00410548 0.00124078 0.00334286 -0.013377 -0.00866175 0.00461594 0.00654065 0.00596807 0.00756797 -0.00206913 -0.000491147 -0.0157695 -0.0108494 0.011223 -0.0137147 0.00572372 0.0109363 0.0112342 0.00391357 0.00459923 0.0118108 0.00764941 0.00254706 0.00320899 -0.00618859
internal_weight=58466 50023 39231 24151 21558 11758 9800 15080 8443 2843 12209 2593 9654 10792 2871 2555 5600 2517 1546 1582 6975 3817 3762 3597 3350 3575 3378 596 1258 1613
internal_count=58466 50023 39231 24151 21558 11758 9800 15080 8443 2843 12209 2593 9654 10792 2871 2555 5600 2517 1546 1582 6975 3817 3762 3597 3350 3575 3378 596 1258 1613
is_linear=0
shrinkage=0.05


Tree=7
num_leaves=31
num_cat=0
split_feature=156 156 140 111 146 106 156 145 156 141 134 157 98 144 156 118 107 116 144 121 103 114 134 98 143 139 16 157 97 30
split_gain=638.378 137.868 56.0542 60.1869 40.354 51.9898 40.3241 39.0751 39.0379 27.1977 43.6158 25.5007 24.9368 35.0128 27.3228 24.2151 37.3317 25.7076 22.8728 21.0213 17.9677 39.0854 17.2815 15.8471 14.9808 12.6094 11.4606 8.47953 9.66134 7.94196
threshold=0.31941699981689459 0.62082910537719738 0.00067048959317617129 -0.040770683437585824 0.032821167260408408 -0.03344557806849479 0.78452381491661083 -0.033648092299699776 0.24537037312984469 0.035656481981277473 -0.015338231343775986 0.36363159120082861 -0.3512787520885467 0.014423587359488012 0.41666667163372045 0.010252465028315784 -0.017663883045315739 -0.0057994113303720942 -0.027936135418713089 -0.034125048667192452 -0.019228230230510231 -0.105129886418581 -0.033183768391609185 -0.1592658534646034 0.011762523557990791 -0.030756087042391297 0.64318180084228527 0.33282040059566503 -0.72840231657028187 0.29166667163372045
decision_type=2 2 2 2 2 2 2 2 2 2 2 2 2 2 2 2 2 2 2 2 2 2 2 2 2 2 2 2 2 2
left_child=8 2 4 7 12 19 15 23 20 10 -5 -7 13 -2 -14 16 -3 -18 25 -6 21 -1 -9 -4 -20 -17 -11 -8 -29 -22
right_child=1 6 3 9 5 11 27 22 -10 26 -12 -13 14 -15 -16 18 17 -19 24 -21 29 -23 -24 -25 -26 -27 -28 28 -30 -31
leaf_value=0.0089061670626203234 -0.0078269252531770386 0.0070350641340308009 0.0018036963553226537 -0.0068103860096625727 -0.0089701454022818872 -0.0058636439546152913 0.010812590923883701 0.0008046479879639328 -0.006152341814566204 8.9091558518236832e-05 0.0012964367818904907 -0.01514088439696766 -0.0050401326576066134 0.0089319261146440978 0.0021047193662614397 -0.0039048968745064184 -0.0049690640644292697 0.0031151082476150419 0.010830527763608858 0.0041473712002140384 -0.017515120181110466 -0.012756424922859702 0.009448253478406464 -0.012766059611469191 0.0052924322396223555 0.0051353881035486604 0.0073980010959354987 0.0085458879018090461 -0.02064062959929823 -0.013550683357110264
leaf_weight=241 1811 2614 492 2455 389 2004 3698 672 1962 830 5115 1178 1594 376 8321 644 1848 2101 2760 1417 2713 1514 4205 300 2200 960 1523 73 46 2410
leaf_count=241 1811 2614 492 2455 389 2004 3698 672 1962 830 5115 1178 1594 376 8321 644 1848 2101 2760 1417 2713 1514 4205 300 2200 960 1523 73 46 2410
internal_value=0 0.0022051 0.000307348 0.00247536 -0.00167035 -0.00545476 0.0058652 0.00658525 -0.0123789 0.000126801 -0.00133211 -0.00930045 -0.000110073 -0.00494282 0.000955484 0.0045491 0.00240016 -0.000666808 0.00669682 0.0013185 -0.0141541 -0.00977815 0.00825836 -0.00371067 0.00837543 0.0015026 0.0048222 0.0103896 -0.00271005 -0.0156517
internal_weight=58466 49626 32682 15592 17090 4988 16944 5669 8840 9923 7570 3182 12102 2187 9915 13127 6563 3949 6564 1806 6878 1755 4877 792 4960 1604 2353 3817 119 5123
internal_count=58466 49626 32682 15592 17090 4988 16944 5669 8840 9923 7570 3182 12102 2187 9915 13127 6563 3949 6564 1806 6878 1755 4877 792 4960 1604 2353 3817 119 5123
is_linear=0
shrinkage=0.05


Tree=8
num_leaves=31
num_cat=0
split_feature=101 107 10 118 111 112 138 141 32 113 100 115 144 144 114 98 37 110 158 98 101 98 158 97 91 32 158 157 107 88
split_gain=380.137 106.506 72.5258 45.6772 40.585 35.5923 33.0063 32.9039 32.2126 30.409 29.5585 25.6389 24.7242 24.1748 19.7478 18.8052 21.8338 13.0965 10.7294 9.48817 6.81698 6.1918 5.76119 5.15323 4.09385 3.74399 5.70138 3.43175 3.22717 3.95962
threshold=-0.38175280392169947 0.23072079569101336 0.6139034926891328 0.010252465028315784 -0.098181422799825654 0.030137208290398124 0.0068701626732945451 -0.034222839400172227 10.500000000000002 -0.06334108859300612 -0.33472432196140284 0.019289718940854076 -0.039438597857952111 -0.027936135418713089 -0.079963818192481981 0.020352489314973358 0.55833333730697643 0.018142619170248512 0.036041747778654105 -0.092241473495960222 -0.56050291657447804 -0.22694157809019086 0.80164140462875377 -0.81014555692672718 -1.5456337332725523 3.5000000000000004 0.45452618598937994 0.41255909204483038 0.25140807777643209 4.6246173381805429
decision_type=2 2 2 2 2 2 2 2 2 2 2 2 2 2 2 2 2 2 2 2 2 2 2 2 2 2 2 2 2 2
left_child=8 2 4 5 12 10 11 -8 22 17 -4 -6 21 -11 -7 16 28 -5 -14 -18 23 -2 25 -10 -21 -1 -27 -17 29 -3
right_child=1 15 3 9 6 14 7 -9 20 13 -12 -13 18 -15 -16 27 19 -19 -20 24 -22 -23 -24 -25 -26 26 -28 -29 -30 -31
leaf_value=-0.01696233282972821 -0.017427813845331507 -0.010591636733241566 -0.0084500139405412327 -0.0039686787353711336 -0.0056080675858479478 -0.0089751983031789145 -0.0063352448399086065 0.0021357701651094894 -0.008860689362350363 0.0025690411956381075 0.00091995296235409445 -0.00051597494434051962 -0.0039739150798294336 0.0082582517647940262 0.005777963241212259 4.8541133771762678e-05 0.0022896644212515977 0.0057199241895388511 0.0076850694532140012 -0.019766486827790558 -0.0085759670809113699 -0.0028548904351970586 0.0020771050091945762 0.0035870249964851395 -0.0058884153748325757 -0.0018444561567970718 -0.014494028050354558 0.012295652132126546 -0.013179314110957172 0.00069523377585246557
leaf_weight=2189 111 426 922 1015 5119 237 1330 8287 125 2465 9638 4785 214 7739 5077 390 480 531 2438 66 957 215 46 247 283 96 1438 67 1439 94
leaf_count=2189 111 426 922 1015 5119 237 1330 8287 125 2465 9638 4785 214 7739 5077 390 480 531 2438 66 957 215 46 247 283 96 1438 67 1439 94
internal_value=0 0.0012461 0.00181452 0.003531 -0.000292734 0.00178126 -0.00112239 0.000963629 -0.0130443 0.00589436 0.000101237 -0.00314845 0.00514377 0.00688447 0.00511873 -0.00753198 -0.00907323 -0.00063742 0.00674215 -0.0022632 -0.00634334 -0.00783981 -0.0154053 -0.000584755 -0.00853706 -0.0156228 -0.013706 0.0018596 -0.011952 -0.00854222
internal_weight=58466 53368 50123 27624 22499 15874 19521 9617 5098 11750 10560 9904 2978 10204 5314 3245 2788 1546 2652 829 1329 326 3769 372 349 3723 1534 457 1959 520
internal_count=58466 53368 50123 27624 22499 15874 19521 9617 5098 11750 10560 9904 2978 10204 5314 3245 2788 1546 2652 829 1329 326 3769 372 349 3723 1534 457 1959 520
is_linear=0
shrinkage=0.05


Tree=9
num_leaves=31
num_cat=0
split_feature=156 156 118 146 129 118 131 113 118 156 121 125 137 144 99 113 113 116 135 108 144 107 108 20 102 157 43 131 47 112
split_gain=533.75 120.414 55.4419 60.291 48.4235 60.5424 44.1379 36.4127 32.8278 31.8773 26.2962 25.6043 23.3551 19.1166 16.3029 15.8349 29.8818 15.6212 14.8873 14.3907 13.0124 12.3509 12.1968 11.7697 9.91547 7.6606 6.79447 7.11921 7.16988 6.92873
threshold=0.31941699981689459 0.71470099687576305 0.010252465028315784 -0.011391654144972561 -0.018901864066720005 -0.10207475349307059 -0.0056508274283260098 -0.06334108859300612 0.065352220088243498 0.24537037312984469 0.017318376339972023 -0.045247493311762803 0.053863579407334335 0.029811933636665348 -0.0087890168651938421 -0.079448942095041261 -0.084246825426816926 -0.0088461921550333483 -0.01823401357978582 -0.14461834728717801 -0.084782335907220827 0.24358551949262622 0.21093676984310153 0.75952380895614635 0.21926116943359378 0.37116861343383795 0.44166666269302374 0.013071727938950064 0.45000000298023229 0.10347766429185869
decision_type=2 2 2 2 2 2 2 2 2 2 2 2 2 2 2 2 2 2 2 2 2 2 2 2 2 2 2 2 2 2
left_child=9 2 3 11 6 -6 -5 13 10 15 -9 18 -13 25 -10 16 -1 19 -2 23 -21 -19 -22 -3 -17 -4 27 28 -11 -29
right_child=1 17 7 4 5 -7 -8 8 14 26 -12 12 -14 -15 -16 24 -18 21 -20 20 22 -23 -24 -25 -26 -27 -28 29 -30 -31
leaf_value=-0.013754531123355297 -0.010582008760082114 -0.0085525488058170729 -0.0060447562624755084 0.0049031481852907371 0.0086114921525332309 -0.0052665837236172425 -0.0035097495684614632 0.0076202572452297489 0.0047716039475884705 -0.010733681622520374 0.00099691986744042285 0.0058417794281783375 -0.0032038552083646331 0.0010556585808597938 -0.00058973260852440289 -0.013869233448557559 0.0090390240685790015 0.010465752655945843 0.0002592230665955045 -0.0041802966285864494 0.0082907111207005356 -0.020595759190387607 -0.023108356551100051 0.0050520827287817809 0.0066497389780911242 -0.016994988277698585 -0.0016465554542946714 -0.013649865000385512 -0.00013414822503755676 0.0032174736763899629
leaf_weight=385 390 295 616 3644 852 10061 2724 6545 2198 262 1946 5372 822 1139 3991 6205 229 3659 1676 239 2833 32 31 344 59 217 681 541 410 68
leaf_count=385 390 295 616 3644 852 10061 2724 6545 2198 262 1946 5372 822 1139 3991 6205 229 3659 1676 239 2833 32 31 344 59 217 681 541 410 68
internal_value=0 0.00201628 0.000982381 -0.000480919 -0.00216059 -0.0041825 0.00130363 0.00322708 0.00408418 -0.0113191 0.00610294 0.00303254 0.00464047 -0.00315053 0.00131361 -0.0129233 -0.00524504 0.00788431 -0.00178569 0.00560434 0.00701158 0.010194 0.00794751 -0.0012215 -0.013675 -0.00890673 -0.00569203 -0.00783818 -0.00427611 -0.0117578
internal_weight=58466 49626 42193 25541 17281 10913 6368 16652 14680 8840 8491 8260 6194 1972 6189 6878 614 7433 2066 3742 3103 3691 2864 639 6264 833 1962 1281 672 609
internal_count=58466 49626 42193 25541 17281 10913 6368 16652 14680 8840 8491 8260 6194 1972 6189 6878 614 7433 2066 3742 3103 3691 2864 639 6264 833 1962 1281 672 609
is_linear=0
shrinkage=0.05


Tree=10
num_leaves=31
num_cat=0
split_feature=156 156 140 111 132 146 106 156 156 88 88 141 134 98 108 156 137 118 107 137 144 113 135 99 88 139 99 102 156 100
split_gain=481.715 111.779 45.905 51.2577 37.0594 33.1914 43.61 32.5073 28.7639 25.6367 24.2119 21.2604 35.1467 21.2033 29.7387 23.6218 18.8481 18.3854 31.8664 24.784 18.4256 14.3733 28.3536 12.4334 10.9486 10.9285 9.20198 9.02393 7.18243 6.74201
threshold=0.31941699981689459 0.62082910537719738 0.00067048959317617129 -0.031471678987145417 0.044102836400270469 0.032821167260408408 -0.03344557806849479 0.78452381491661083 0.24537037312984469 -0.44653818011283869 -2.7475323677062984 0.035656481981277473 -0.01610010955482721 -0.3512787520885467 0.10521135851740838 0.41666667163372045 -0.042714774608612054 0.010252465028315784 -0.017663883045315739 0.034089548513293273 -0.027936135418713089 -0.07378863543272017 0.037634084001183517 -0.67568367719650257 4.9713973999023446 -0.030756087042391297 0.15917892754077914 0.21926116943359378 0.91757246851921093 0.11951518803834917
decision_type=2 2 2 2 2 2 2 2 2 2 2 2 2 2 2 2 2 2 2 2 2 2 2 2 2 2 2 2 2 2
left_child=8 2 5 4 9 13 16 17 21 -4 -8 12 -5 14 -2 -15 -7 18 29 -20 25 22 -1 -22 -13 -19 -6 -23 -9 -3
right_child=1 7 3 11 26 6 10 28 -10 -11 -12 24 -14 15 -16 -17 -18 20 19 -21 23 27 -24 -25 -26 -27 -28 -29 -30 -31
leaf_value=-0.012729164070172808 -0.0072823922045315813 0.0077411755072175409 0.0031375935052982071 -0.00682680608112017 -0.00076071637671638458 -0.0088508038669182325 -0.0020740095887600632 0.0081886228293921726 -0.005407803474650294 0.0096129424849374367 -0.011483867819563962 0.002589860261544875 0.0008374453302760587 -0.0047601946904177149 0.0081623169867314927 0.0018831633587793992 0.0037877340938881222 -0.0037954723901956464 -0.002938231709172913 0.0062623925750482498 -0.0050813192861139094 -0.013255538667172183 0.0080074321952083426 0.0079088865689279624 0.012948972302146797 0.0046207953731738343 -0.012524541714548813 0.0063183755890743156 0.013641416320387609 0.0014736000223934801
leaf_weight=482 1811 2070 2832 2244 407 371 997 3059 1962 3329 2185 1715 4483 1594 376 8321 1435 644 2979 970 191 6087 250 4769 300 960 282 59 758 544
leaf_count=482 1811 2070 2832 2244 407 371 997 3059 1962 3329 2185 1715 4483 1594 376 8321 1435 644 2979 970 191 6087 250 4769 300 960 282 59 758 544
internal_value=0 0.00191545 0.000206654 0.00216863 0.00540722 -0.00158306 -0.00501524 0.00521109 -0.0107532 0.00663746 -0.00853741 -0.000368543 -0.00171859 -0.000167964 -0.00462427 0.000814555 0.00118798 0.00402936 0.00215671 -0.000676797 0.00590085 -0.0122771 -0.00563991 0.00740747 0.00413577 0.00123853 -0.00558501 -0.0130666 0.00927344 0.00643895
internal_weight=58466 49626 32682 15592 6850 17090 4988 16944 8840 6161 3182 8742 6727 12102 2187 9915 1806 13127 6563 3949 6564 6878 732 4960 2015 1604 689 6146 3817 2614
internal_count=58466 49626 32682 15592 6850 17090 4988 16944 8840 6161 3182 8742 6727 12102 2187 9915 1806 13127 6563 3949 6564 6878 732 4960 2015 1604 689 6146 3817 2614
is_linear=0
shrinkage=0.05


Tree=11
num_leaves=31
num_cat=0
split_feature=156 156 140 111 100 156 117 146 102 105 156 129 138 134 118 107 116 120 120 144 126 143 122 99 106 109 105 30 144 148
split_gain=434.751 101.057 40.2199 46.3488 35.492 31.4584 31.1187 33.0305 49.3265 26.947 26.3571 21.712 25.3004 20.7674 18.7865 30.3705 20.4177 17.0945 21.1381 16.859 15.295 13.8413 11.6777 11.7002 10.5154 9.54675 8.38127 7.52795 7.11507 7.3608
threshold=0.31941699981689459 0.61078807711601268 0.00067048959317617129 -0.040770683437585824 -0.3255100399255752 0.78452381491661083 -0.099761873483657823 0.035408196970820434 0.090159364044666304 0.11883830651640893 0.067424245178699507 0.015414371620863678 -0.02629518415778875 -0.033183768391609185 0.010252465028315784 -0.017663883045315739 -0.0057994113303720942 -0.045373691245913499 -0.053665086627006524 -0.027936135418713089 -0.0029448244604282077 0.011762523557990791 0.02891041245311499 0.025321759283542637 -0.061958760023117058 -0.0027983244508504863 -0.29132921993732447 0.36309523880481726 -0.084782335907220827 4.5000000000000009
decision_type=2 2 2 2 2 2 2 2 2 2 2 2 2 2 2 2 2 2 2 2 2 2 2 2 2 2 2 2 2 2
left_child=10 2 6 4 -4 14 -2 9 -9 -8 -1 12 -5 -6 15 -3 -17 18 -12 24 -13 -21 23 26 -16 -24 -19 -25 -7 -30
right_child=1 5 3 11 13 28 7 8 -10 -11 17 20 -14 -15 19 16 -18 22 -20 21 -22 -23 25 27 -26 -27 -28 -29 29 -31
leaf_value=-0.013985512338286876 0.0066521995419020616 0.0058524445889582763 -0.0098938076689324868 -0.0037283314692203927 -0.00092556684799403692 -0.00067564193845893713 -0.00016678704670727428 -0.0092561953097562537 0.0040581144604612419 -0.0096349596796777171 -0.0063036843345681748 2.5180456003565219e-05 0.0033672158202186124 0.0080500883034532265 0.011305078688982718 -0.0044956316020115569 0.0024278787061537905 -0.012673567967644401 0.014462667440270619 0.009094924102719941 -0.0071780426908668888 0.0040658056045852079 -0.0086469967196134735 -0.013857923471945758 -0.00020646047424594354 0.00087986355890641132 -0.0033350226767053254 -0.008570418434367056 -0.0087809698683196224 0.0095799638675798278
leaf_weight=3044 1067 2881 343 1709 756 187 10727 2988 906 808 413 1425 4737 4328 227 1988 2292 341 174 3065 1523 2481 599 1937 1558 467 821 1044 55 3575
leaf_count=3044 1067 2881 343 1709 756 187 10727 2988 906 808 413 1425 4737 4328 227 1988 2292 341 174 3065 1523 2481 599 1937 1558 467 821 1044 55 3575
internal_value=0 0.0018197 9.43291e-05 0.00198485 0.0056635 0.00477059 -0.00160393 -0.00217529 -0.00615708 -0.0008306 -0.0102156 -0.000139873 0.00148517 0.00671442 0.00370625 0.00188363 -0.000786886 -0.0082344 -0.000136726 0.00548582 -0.0036947 0.00684628 -0.00914592 -0.0103477 0.00125577 -0.00446934 -0.00608152 -0.0120085 0.00880989 0.00929992
internal_weight=58466 49626 31317 14821 5427 18309 16496 15429 3894 11535 8840 9394 6446 5084 14492 7161 4280 5796 587 7331 2948 5546 5209 4143 1785 1066 1162 2981 3817 3630
internal_count=58466 49626 31317 14821 5427 18309 16496 15429 3894 11535 8840 9394 6446 5084 14492 7161 4280 5796 587 7331 2948 5546 5209 4143 1785 1066 1162 2981 3817 3630
is_linear=0
shrinkage=0.05


Tree=12
num_leaves=31
num_cat=0
split_feature=156 156 118 146 156 139 114 107 113 118 125 112 107 144 117 116 135 108 113 135 103 116 107 108 20 127 22 102 157 43
split_gain=393.144 85.4319 45.3233 50.1276 42.3702 40.6924 45.4091 29.0927 27.3942 28.886 25.8728 20.0476 18.7972 17.2671 13.5067 13.1375 12.2121 12.2116 11.7413 23.7175 11.5135 11.3101 10.5823 10.2712 10.1413 8.31231 7.94473 7.66515 6.28573 5.99766
threshold=0.36388340592384344 0.71470099687576305 0.010252465028315784 -0.011391654144972561 0.24537037312984469 0.019627070985734466 0.10556175932288171 0.057291917502880103 -0.06334108859300612 0.065352220088243498 -0.045247493311762803 0.025293565355241302 -0.12920401245355603 0.018363216891884807 -0.066153202205896364 -0.0088461921550333483 -0.01823401357978582 -0.14461834728717801 -0.07378863543272017 0.037634084001183517 -0.083523906767368303 -0.015158236492425202 0.24358551949262622 0.21093676984310153 0.75952380895614635 0.04131401143968106 0.54398149251937877 0.21926116943359378 0.36125896871089941 0.47499999403953558
decision_type=2 2 2 2 2 2 2 2 2 2 2 2 2 2 2 2 2 2 2 2 2 2 2 2 2 2 2 2 2 2
left_child=4 2 3 10 18 6 -5 -7 13 12 16 -12 -10 28 -11 17 -2 24 19 -1 25 23 -17 -19 -3 -6 -27 -20 -4 -22
right_child=1 15 8 5 20 7 -8 -9 9 14 11 -13 -14 -15 -16 22 -18 21 27 -21 29 -23 -24 -25 -26 26 -28 -29 -30 -31
leaf_value=-0.011587387805457733 -0.010531506597470073 -0.0083492486572589071 -0.0055182222989010633 -0.004626417033723745 -0.004387076085422964 0.0028130986482663156 0.011107788707035986 -0.0057437920273395691 -0.0029415519105974565 0.0061251123814297153 0.0023142077667084007 0.0083138077354925396 0.0063464532937953892 0.0011210807356293185 1.5737163387995271e-05 0.0092039319689143136 -0.00021805875550277561 0.0070866909425808993 -0.011990920908731533 0.0073776213554955783 -0.0082302779745896323 -0.0062876101295127789 -0.019545607490939382 -0.021722602051420091 0.0042780426883042393 -0.0089332933167523866 0.0062095596227796359 0.0060453193111194153 -0.015613442105057412 -0.0025048992777258537
leaf_weight=482 352 295 464 9680 686 5244 481 1225 585 1110 3716 2230 7758 1117 4896 3659 1557 2897 6087 250 1557 175 32 31 344 104 508 59 233 652
leaf_count=482 352 295 464 9680 686 5244 481 1225 585 1110 3716 2230 7758 1117 4896 3659 1557 2897 6087 250 1557 175 32 31 344 104 508 59 233 652
internal_value=0 0.00190544 0.00100401 -0.000352321 -0.00882219 -0.00190734 -0.0038809 0.00119183 0.00305897 0.003791 0.00293917 0.00456535 0.00569454 -0.00272855 0.00114584 0.00683416 -0.00212328 0.00474321 -0.0111032 -0.00510319 -0.0043469 0.00603965 0.00895228 0.0067785 -0.00154442 -0.000605117 0.00362602 -0.0118168 -0.00890363 -0.00654304
internal_weight=58466 48081 40648 24485 10385 16630 10161 6469 16163 14349 7855 5946 8343 1814 6006 7433 1909 3742 6878 732 3507 3103 3691 2928 639 1298 612 6146 697 2209
internal_count=58466 48081 40648 24485 10385 16630 10161 6469 16163 14349 7855 5946 8343 1814 6006 7433 1909 3742 6878 732 3507 3103 3691 2928 639 1298 612 6146 697 2209
is_linear=0
shrinkage=0.05


Tree=13
num_leaves=31
num_cat=0
split_feature=156 156 156 118 112 139 132 119 99 114 121 111 142 156 109 157 138 120 129 143 120 120 116 138 114 125 145 156 33 157
split_gain=354.817 78.1898 38.2349 36.7463 42.8357 37.752 39.1256 30.3244 24.9329 24.1427 27.6124 19.1405 18.0747 17.1171 14.7137 14.2195 14.0024 10.6622 10.4464 10.3595 10.2414 18.6876 9.76414 10.8765 10.6619 9.40447 7.07141 7.00822 6.68062 6.16715
threshold=0.36388340592384344 0.66854146122932445 0.24537037312984469 0.010252465028315784 0.050454780459403999 0.019627070985734466 -0.024728430435061451 0.0062785516493022451 0.10107609629631044 -0.058635275810956948 0.017318376339972023 0.00094262036145664762 -0.028909611515700814 0.86388340592384349 0.026739027351140979 0.36930866539478308 0.043183328583836562 0.010410090908408167 0.0048924169968813666 0.0083194891922175902 -0.045373691245913499 -0.053665086627006524 -0.0088461921550333483 -0.0024088189238682385 0.019394384697079662 -0.032568750903010361 -0.016332753933966156 0.054411765187978751 0.58499997854232799 0.37267799675464636
decision_type=2 2 2 2 2 2 2 2 2 2 2 2 2 2 2 2 2 2 2 2 2 2 2 2 2 2 2 2 2 2
left_child=2 3 20 4 5 6 -2 -7 9 12 -11 15 -5 22 -13 -6 29 18 19 -4 21 -1 23 24 -3 -25 -21 -22 -18 -10
right_child=1 13 17 8 11 7 -8 -9 16 10 -12 14 -14 -15 -16 -17 28 -19 -20 26 27 -23 -24 25 -26 -27 -28 -29 -30 -31
leaf_value=-0.0093124192597049231 0.0021394707389827679 -0.0021514424489407764 -0.0027178231859954654 0.0038666296355378128 0.004180191716101552 -0.0014432644343215339 -0.0054301725114910271 0.0051876030463338411 -0.0030244681895425151 0.0065905954977414543 0.00062224259818226615 -0.0033565523026842328 -0.0047262597883150912 0.010480789102127422 0.0036967539019204204 0.012589534267490772 -0.0027203912667989488 -0.0076387636604725619 -0.0062983190556446635 -0.0033455769670584163 -0.013107609731643578 0.012712646680004642 0.0064763559284773953 -0.001511840554342188 0.0053556448829947386 0.00646038236127727 0.009884867622575658 -0.0097170416309783434 0.0051760134206198811 -0.010427585269033536
leaf_weight=377 2190 1352 807 1144 1721 4781 7726 2696 1080 6607 2745 1290 1315 1519 1731 712 414 1339 846 137 2582 129 4355 436 727 2403 378 3790 755 382
leaf_count=377 2190 1352 807 1144 1721 4781 7726 2696 1080 6607 2745 1290 1315 1519 1731 712 414 1339 846 137 2582 129 4355 436 727 2403 378 3790 755 382
internal_value=-1.34498e-08 0.00181015 -0.00838116 0.000725262 -0.000522473 -0.00173501 -0.00375786 0.00094705 0.00269948 0.00368013 0.00483935 0.00334337 -0.000726569 0.00555816 0.000683237 0.00664401 -0.00170086 -0.00412975 -0.0019597 0.000813505 -0.010548 -0.00368465 0.00475105 0.00322203 0.000471549 0.00523427 0.00635568 -0.0110921 0.00237525 -0.00496338
internal_weight=58466 48081 10385 37289 22847 17393 9916 7477 14442 11811 9352 5454 2459 10792 3021 2433 2631 3507 2168 1322 6878 506 9273 4918 2079 2839 515 6372 1169 1462
internal_count=58466 48081 10385 37289 22847 17393 9916 7477 14442 11811 9352 5454 2459 10792 3021 2433 2631 3507 2168 1322 6878 506 9273 4918 2079 2839 515 6372 1169 1462
is_linear=0
shrinkage=0.05


Tree=14
num_leaves=31
num_cat=0
split_feature=156 156 156 158 99 99 103 123 156 26 102 157 146 99 101 101 114 113 135 103 26 157 157 26 114 102 26 91 158 43
split_gain=320.232 71.8069 34.5042 29.2133 24.613 23.4973 25.8893 23.3048 21.7395 17.3843 63.1638 57.7658 15.8993 14.5993 13.2259 20.8531 15.0131 9.91799 20.1268 9.84157 22.9938 37.0046 25.2909 19.8303 7.19057 6.75016 6.57727 6.22457 6.05515 8.50048
threshold=0.36388340592384344 0.62082910537719738 0.24537037312984469 0.58431413769721996 -0.67568367719650257 0.031006129458546642 0.027374237775802616 -0.064058609306812272 0.81742423772811901 0.78846153616905224 0.1583097502589226 0.47985558211803442 0.032042333856225021 -0.67568367719650257 -0.018784029409289357 0.0076481432188302287 -0.061038028448820107 -0.07378863543272017 0.037634084001183517 -0.083523906767368303 0.67307692766189586 0.4371297955513001 0.45538303256034857 0.63461539149284374 -0.0086678080260753614 0.21776922047138217 0.59615385532379161 1.1217832565307619 0.9028734862804414 0.47499999403953558
decision_type=2 2 2 2 2 2 2 2 2 2 2 2 2 2 2 2 2 2 2 2 2 2 2 2 2 2 2 2 2 2
left_child=2 3 17 4 -2 6 -6 24 13 11 -11 -9 -7 27 16 -16 -15 18 -1 20 22 -22 23 -4 -5 -19 -27 -3 29 -21
right_child=1 8 19 7 5 12 -8 9 -10 10 -12 -13 -14 14 15 -17 -18 25 -20 28 21 -23 -24 -25 -26 26 -28 -29 -30 -31
leaf_value=-0.010479191070316691 -0.012096539320133536 -0.013991530690156151 -0.011731914441796941 -0.0012750354704091397 0.0014178643608448122 0.00083039014839473473 0.0064023836261344926 -0.00322256532977413 0.0084056223807782385 -0.0022157812059224904 0.023318979224703711 -0.024049235594927901 -0.0036727060327376073 -0.0017220403998753761 -0.0021115919816591241 0.0038695859991880891 0.006554830271669667 -0.010853376632992367 0.0069909641264582715 -0.0075027242726681395 -0.0015525058215116643 0.023079118551731576 -0.025510289440844953 0.012191414021991448 0.012224515881938167 -0.010281745674596592 0.020465762329380414 0.00095163779077546266 -0.022814960366693036 -0.00050653039788385958
leaf_weight=482 342 164 199 137 9488 6736 3593 4421 2754 2684 266 360 2764 614 1886 6395 5011 6077 250 1552 584 206 156 153 346 35 34 120 52 605
leaf_count=482 342 164 199 137 9488 6736 3593 4421 2754 2684 266 360 2764 614 1886 6395 5011 6077 250 1552 584 206 156 153 346 35 34 120 52 605
internal_value=-1.12915e-08 0.00171967 -0.00796223 0.00029409 0.00121101 0.00141288 0.00278744 -0.00226413 0.00433904 -0.00293036 8.64051e-05 -0.00479276 -0.000479297 0.00354933 0.0037788 0.00250675 0.00565045 -0.0100207 -0.0045055 -0.00392343 -0.000463749 0.00486831 -0.00876423 -0.00131821 0.00838616 -0.0106765 0.00481231 -0.0076637 -0.00595384 -0.00554296
internal_weight=58466 48081 10385 31137 22923 22581 13081 8214 16944 7731 2950 4781 9500 14190 13906 8281 5625 6878 732 3507 1298 790 508 352 483 6146 69 284 2209 2157
internal_count=58466 48081 10385 31137 22923 22581 13081 8214 16944 7731 2950 4781 9500 14190 13906 8281 5625 6878 732 3507 1298 790 508 352 483 6146 69 284 2209 2157
is_linear=0
shrinkage=0.05


Tree=15
num_leaves=31
num_cat=0
split_feature=156 156 140 111 156 114 122 110 102 156 88 134 119 112 118 126 157 103 103 120 117 91 120 26 157 157 26 113 102 100
split_gain=289.017 65.2362 31.4484 35.4169 31.1352 26.6114 26.0471 24.1199 23.5304 20.9913 18.1455 15.4769 23.953 18.1754 14.1304 17.6074 24.9503 19.4752 12.386 11.224 10.792 9.96563 9.32057 12.8367 42.1154 22.6986 12.8057 8.97582 17.4826 7.81799
threshold=0.36388340592384344 0.61078807711601268 0.00067048959317617129 -0.029575675725936886 0.24537037312984469 0.053844528272748 -0.032203869894146912 0.087689563632011427 0.032506573945283897 0.78452381491661083 -3.2504067420959468 -0.015338231343775986 0.063021238893270506 0.060056444257497794 0.010252465028315784 -0.0071796341799199572 0.41955837607383734 -0.012817615643143652 -0.003981766407378017 0.046188859269022949 0.011138351168483497 0.21436686813831332 0.010410090908408167 0.67307692766189586 0.47125415503978735 0.45538303256034857 0.63461539149284374 -0.071878753602504716 -0.17020307481288907 0.043750418350100524
decision_type=2 2 2 2 2 2 2 2 2 2 2 2 2 2 2 2 2 2 2 2 2 2 2 2 2 2 2 2 2 2
left_child=4 2 5 7 27 6 21 10 -8 14 -4 13 -13 -5 15 16 -3 -17 20 -20 -16 -2 23 25 -25 26 -6 28 -1 -9
right_child=1 9 3 11 22 -7 8 29 -10 -11 -12 12 -14 -15 18 17 -18 -19 19 -21 -22 -23 -24 24 -26 -27 -28 -29 -30 -31
leaf_value=0.0068639751722457346 -0.0087123631170514127 0.0055720372273365603 0.0013164120472004652 -0.0053996445209783068 -0.008220732179180729 0.002438944201211519 0.0023993973770492436 -0.01091928528094091 -0.0029956252336806786 0.0072819924221524659 0.0075794591032941261 0.0026532712569828265 -0.0089344679695766826 0.0033844626971172099 0.0046210014448277671 0.0031662695287183679 -0.011314371646800657 -0.0038515393071185465 0.0082311409866040481 -0.00021993114090321765 -0.00082013686545925966 -0.0031794513297548331 -0.0070083865167019817 -0.0024561807507399195 0.021970646649628268 -0.02422646543337513 0.0083360217529226035 -0.010190406990720541 -0.009201490766525329 0
leaf_weight=236 1839 2935 1630 2272 331 3565 3160 261 5604 3817 3999 4244 498 794 2812 1804 236 2186 2715 458 1346 1467 1339 1298 204 155 180 6046 596 439
leaf_count=236 1839 2935 1630 2272 331 3565 3160 261 5604 3817 3999 4244 498 794 2812 1804 236 2186 2715 458 1346 1467 1339 1298 204 155 180 6046 596 439
internal_value=-3.45241e-08 0.00163368 0.000189201 0.00189831 -0.00756425 -0.00135584 -0.00247711 0.00467801 -0.00104978 0.00398222 0.00576686 -0.000354278 0.00143496 -0.00312313 0.00311267 0.00153186 0.00431306 -0.000677322 0.00465606 0.00700978 0.00285848 -0.00625905 -0.00372757 -0.00169851 0.000860599 -0.00747599 -0.00237785 -0.00951963 -0.0046379 -0.00406989
internal_weight=58466 48081 29772 14137 10385 15635 12070 6329 8764 18309 5629 7808 4742 3066 14492 7161 3171 3990 7331 3173 4158 3306 3507 2168 1502 666 511 6878 832 700
internal_count=58466 48081 29772 14137 10385 15635 12070 6329 8764 18309 5629 7808 4742 3066 14492 7161 3171 3990 7331 3173 4158 3306 3507 2168 1502 666 511 6878 832 700
is_linear=0
shrinkage=0.05


Tree=16
num_leaves=31
num_cat=0
split_feature=101 107 14 118 112 146 113 144 111 30 110 109 100 140 98 37 113 126 112 101 14 97 157 158 157 108 30 158 158 93
split_gain=176.411 57.6938 48.5537 31.8414 30.5571 32.2078 24.5105 18.9097 17.0231 16.8353 14.4068 12.0906 10.7612 10.746 10.2432 13.6467 8.46816 7.60138 7.22733 6.06622 5.89209 4.90968 4.03348 3.26105 3.00219 2.78455 2.88833 2.8025 2.62462 2.43307
threshold=-0.38175280392169947 0.23072079569101336 3.0598158836364751 0.010252465028315784 0.049946876242756851 -0.014504124876111744 -0.06334108859300612 -0.027936135418713089 0.00078555336222052585 0.35119047760963445 0.018142619170248512 0.0094125666655600088 -0.34801292419433588 0.00067048959317617129 0.020352489314973358 0.55833333730697643 -0.033072158694267266 0.066897366195917143 0.037884704768657691 -0.56050291657447804 2.9401841163635258 -0.81014555692672718 0.31955118477344518 0.70456010103225719 0.41255909204483038 0.062154293060302741 0.64285713434219371 0.68758943676948558 0.68758943676948558 -1.2929802536964414
decision_type=2 2 2 2 2 2 2 2 2 2 2 2 2 2 2 2 2 2 2 2 2 2 2 2 2 2 2 2 2 2
left_child=9 2 8 4 5 -4 10 -8 12 -1 -5 -6 -2 -14 15 23 17 -10 22 21 -18 28 -17 29 -16 26 -21 -27 -11 -3
right_child=1 14 3 6 11 -7 7 -9 16 19 -12 -13 13 -15 24 18 20 -19 -20 25 -22 -23 -24 -25 -26 27 -28 -29 -30 -31
leaf_value=-0.010940429461290159 -0.010174953092544481 -0.010682492123056787 0.0031565805857809246 -0.0041151459371860152 0.00087751076429442372 -0.0017059863902987805 0.0013926318251369502 0.0057846920909551611 -0.0077989554600487523 0.0089432037805044478 0.0046863293967843783 0.0058753924938165537 -0.0013023391622135599 0.0024607706493883583 -0.00035217483399072134 -0.00079134460447552511 -0.0047636137892655131 0.00086518778650614473 0.0039680446734086574 -0.0098140107414154739 -0.00069542746452803353 0.0041881750882131258 -0.010078905037363523 -0.014047831863558439 0.011080186809634879 0.010068726305913482 0.0046498174928334534 -0.005052219942377323 -0.0082442432728098477 -0.0067096897776542617
leaf_weight=3375 241 621 4987 1367 1829 10736 3236 10142 1437 25 704 3591 3847 3741 390 235 1355 306 359 607 2604 280 235 280 67 32 36 568 175 1058
leaf_count=3375 241 621 4987 1367 1829 10736 3236 10142 1437 25 704 3591 3847 3741 390 235 1355 306 359 607 2604 280 235 280 67 32 36 568 175 1058
internal_value=-4.04552e-08 0.000848754 0.00126714 0.0022135 0.000952388 -0.000163345 0.00393905 0.00472271 -0.00129174 -0.00888624 -0.00112066 0.00418986 0.000221182 0.000552289 -0.00561184 -0.00674942 -0.00336983 -0.00627509 -0.0013644 -0.00485881 -0.00208923 -7.39193e-05 -0.00544807 -0.0090253 0.00131708 -0.00670222 -0.00899525 -0.00423435 -0.00606405 -0.00818316
internal_weight=58466 53368 50123 36592 21143 15723 15449 13378 13531 5098 2071 5420 7829 7588 3245 2788 5702 1743 829 1723 3959 480 470 1959 457 1243 643 600 200 1679
internal_count=58466 53368 50123 36592 21143 15723 15449 13378 13531 5098 2071 5420 7829 7588 3245 2788 5702 1743 829 1723 3959 480 470 1959 457 1243 643 600 200 1679
is_linear=0
shrinkage=0.05


Tree=17
num_leaves=31
num_cat=0
split_feature=156 156 118 139 142 112 119 103 127 110 103 133 126 126 124 104 26 99 157 26 143 20 116 116 108 156 20 108 158 157
split_gain=242.367 57.2117 30.115 35.4659 39.5735 40.1787 34.4458 26.5054 25.6686 21.6971 22.4795 19.209 18.4558 17.9129 17.7168 17.674 22.2398 28.8812 24.5735 17.816 12.0764 10.5128 10.1487 11.7394 10.1944 9.23865 8.75405 8.63947 8.62068 8.32143
threshold=0.36388340592384344 0.71470099687576305 0.010252465028315784 0.019627070985734466 0.023007814772427086 0.083360392600297942 0.012018702924251558 -0.059085227549076073 -0.067700624465942369 -0.047720601782202714 0.11317166686058046 0.025457007810473446 -0.021498584188520905 0.0024711802834644918 0.025283856317400936 0.023194897919893268 0.67307692766189586 0.18286894261837008 0.47125415503978735 0.63461539149284374 -0.017205459997057911 0.57857143878936779 -0.010366351343691347 -0.015158236492425202 -0.14461834728717801 0.10000000521540643 0.75000000000000011 0.21093676984310153 0.45051997900009161 0.40309086441993719
decision_type=2 2 2 2 2 2 2 2 2 2 2 2 2 2 2 2 2 2 2 2 2 2 2 2 2 2 2 2 2 2
left_child=7 2 3 4 5 -2 11 15 -8 12 14 -5 28 -6 -11 -1 18 29 19 -17 -14 -12 23 24 26 -9 -3 -26 -4 -18
right_child=1 22 9 6 13 -7 8 25 -10 10 21 -13 20 -15 -16 16 17 -19 -20 -21 -22 -23 -24 -25 27 -27 -28 -29 -30 -31
leaf_value=-0.0064881026119092524 -0.0052316548553795559 -0.011609426046074449 0.00042160408224336984 0.0018383484796643237 0.0035345104371164102 0.0034516414839505212 -0.011163198075541596 -0.010357897841748842 0.0066376715281134431 0.0040371360875407379 -0.003098410046629876 -0.0040418003890622138 0.0013830518255970271 -0.0029764201279910067 -0.00083334065542672137 -0.0062688846888980174 0.008021106610332996 -0.010825185695342882 -0.022965543234473623 0.015535785679496553 -0.0043125998689224994 0.0092042071179964657 0.0073587222128100654 -0.0065504911708485786 0.0058393144783791887 -0.0068506604113576664 0.0025325045612778849 -0.020582652187500244 0.008622769223563153 0.020725003837926942
leaf_weight=1484 8012 165 587 3612 3648 1597 214 3479 3660 6092 189 2256 1572 1486 2690 310 330 165 152 134 2277 2047 3756 261 2897 4117 323 31 709 214
leaf_count=1484 8012 165 587 3612 3648 1597 214 3479 3660 6092 189 2256 1572 1486 2690 310 330 165 152 134 2277 2047 3756 261 2897 4117 323 31 709 214
internal_value=-5.37226e-08 0.00149601 0.000758307 -0.000347256 -0.0018943 -0.00378794 0.00199343 -0.00692696 0.00565253 0.00243339 0.00368525 -0.000421531 -0.000246518 0.00164895 0.00254471 -0.00275533 0.00148597 0.00747257 -0.00562741 0.00030458 -0.00198514 0.0081619 0.00552938 0.00365907 0.00444093 -0.00845788 -0.00224165 0.00555648 0.00491269 0.0130336
internal_weight=58466 48081 40648 24485 14743 9609 9742 10385 3874 16163 11018 5868 5145 5134 8782 2789 1305 709 596 444 3849 2236 7433 3677 3416 7596 488 2928 1296 544
internal_count=58466 48081 40648 24485 14743 9609 9742 10385 3874 16163 11018 5868 5145 5134 8782 2789 1305 709 596 444 3849 2236 7433 3677 3416 7596 488 2928 1296 544
is_linear=0
shrinkage=0.05


Tree=18
num_leaves=31
num_cat=0
split_feature=156 156 100 146 99 133 156 133 118 142 142 101 110 107 156 105 120 106 120 107 108 115 100 157 122 144 101 144 157 147
split_gain=220.949 46.0963 40.9627 37.2539 32.7858 28.2067 25.5995 23.3657 21.8912 22.8443 19.1206 18.5009 10.9191 9.51059 9.21834 8.18992 9.01967 7.44309 7.25437 12.7981 6.82075 6.03832 7.51179 4.96372 5.38637 4.95301 4.78298 4.00722 3.98808 3.38298
threshold=0.41666667163372045 0.71470099687576305 0.29537677764892584 0.032042333856225021 -0.67568367719650257 0.024556336924433712 0.24537037312984469 -0.016545589081943032 -0.10207475349307059 -0.040203249081969254 -0.00069735533907078196 -0.31644064188003534 0.017363716848194603 0.076646950095891966 0.86388340592384349 0.0057487438898533591 -0.013136290013790129 0.17213642597198489 -0.045373691245913499 -0.091348011046648012 0.21093676984310153 -0.027538849040865895 -0.21021136641502378 0.10000000521540643 0.033114431425929076 0.0050923381932079801 0.066680677235126509 -0.076417855918407426 0.28674419224262243 -0.06362446583807467
decision_type=2 2 2 2 2 2 2 2 2 2 2 2 2 2 2 2 2 2 2 2 2 2 2 2 2 2 2 2 2 2
left_child=2 3 6 4 28 7 18 -6 -5 13 -11 -7 17 -10 20 29 -17 25 19 -1 21 26 -23 -20 -25 -8 -3 -16 -2 -14
right_child=1 14 -4 8 5 11 12 -9 9 10 -12 -13 15 -15 27 16 -18 -19 23 -21 -22 22 -24 24 -26 -27 -28 -29 -30 -31
leaf_value=0.011357112621632628 -0.0046310333224477696 0.0079730881982486793 0.01021448872286556 0.0087160394190137439 0.0013889444641678596 -0.010494343585324525 -0.0043544486939732256 0.0048582448383642863 0.00031947887059266414 -0.006450797588647094 -0.00093474071314531308 0.00024559777701914945 0.0035499200318459671 0.0086166811621313077 -0.0024019195035764867 0.0064583131305249982 -0.0043573785183980366 0.0048143424242054695 -0.010756795181651756 -0.0070671772063052828 -0.019314370990194233 0.0072108747029307188 0.0022368775933754009 -0.0085731830611912134 -0.0038800236797991421 -0.0085286214944885023 0.00015147585721536616 0.0093205467853313111 -0.013575740475025168 -0.0039076920822958766
leaf_weight=125 198 1511 391 459 9748 420 1427 9676 1523 3476 2871 8759 165 447 76 540 299 154 2066 380 30 1003 3144 3557 744 1432 226 1443 347 1829
leaf_count=125 198 1511 391 459 9748 420 1427 9676 1523 3476 2871 8759 165 447 76 540 299 154 2066 380 30 1003 3144 3557 744 1432 226 1443 347 1829
internal_value=-5.70195e-08 0.00165231 -0.00571753 0.000946455 0.00180643 0.00203808 -0.00620789 0.00311745 -0.00190922 -0.0024964 -0.00395656 -0.000245499 -0.00377398 0.00220536 0.00525284 -0.00154294 0.00259778 -0.00586984 -0.00827752 -0.00249412 0.0043585 0.0044807 0.00344139 -0.00873535 -0.00776273 -0.00644738 0.00695844 0.00873051 -0.0103382 -0.00328779
internal_weight=58466 45357 13109 37924 29148 28603 12718 19424 8776 8317 6347 9179 5846 1970 7433 2833 839 3013 6872 505 5914 5884 4147 6367 4301 2859 1737 1519 545 1994
internal_count=58466 45357 13109 37924 29148 28603 12718 19424 8776 8317 6347 9179 5846 1970 7433 2833 839 3013 6872 505 5914 5884 4147 6367 4301 2859 1737 1519 545 1994
is_linear=0
shrinkage=0.05


Tree=19
num_leaves=31
num_cat=0
split_feature=101 107 14 111 99 99 125 118 112 103 32 101 108 88 98 37 114 88 112 125 158 32 158 88 158 89 33 98 142 108
split_gain=130.721 46.7431 41.1851 23.2013 27.514 20.3804 18.9572 17.7653 17.2406 15.2138 13.2881 11.0687 15.0591 9.06023 8.18961 10.9395 7.9762 6.25805 6.05036 4.32315 4.67653 6.70696 3.37537 3.34944 3.246 2.99918 2.79515 2.38809 2.37337 2.23459
threshold=-0.38175280392169947 0.23072079569101336 3.213190078735352 -0.098181422799825654 0.093254357576370253 -0.67568367719650257 -0.0055280118249356738 0.011591962072998287 0.030137208290398124 0.0095123457722365874 9.5000000000000018 0.046060455963015563 0.10184365138411523 -5.2154526710510245 0.020352489314973358 0.55833333730697643 -0.079963818192481981 3.5901700258255009 0.037884704768657691 0.0088888495229184645 0.7277849316596986 12.500000000000002 0.81316652894020092 -2.2864792346954341 0.70456010103225719 2.4551398754119877 0.58499997854232799 0.17938975989818576 0.03690332546830178 0.06291529163718225
decision_type=2 2 2 2 2 2 2 2 2 2 2 2 2 2 2 2 2 2 2 2 2 2 2 2 2 2 2 2 2 2
left_child=10 2 3 4 13 27 -7 8 9 -4 28 17 -13 -2 15 24 -10 -9 25 20 -12 -22 -23 -6 -3 -17 -16 -5 -1 -21
right_child=1 14 7 5 23 6 -8 11 16 -11 19 12 -14 -15 26 18 -18 -19 -20 29 21 22 -24 -25 -26 -27 -28 -29 -30 -31
leaf_value=-0.0098202219121202462 7.7457485730315928e-06 -0.0073000011781622466 0.001676280804849376 -0.014216908685873617 -0.0019846177649170951 -0.0019599526673017122 0.00080383318704746541 0.0045571917710899692 -0.0060314772976068657 -0.0030051191278959982 0.012522708497864686 -7.0032663702109706e-05 0.0073199069214056629 0.0063244912136023769 -0.004329558243655802 -0.0011140285355125846 0.0047513617800810119 0.0080427452837930277 0.0035986316392636643 -0.0088782774342968714 -0.010140442989246747 0.013646480932356023 -0.00050520140291570703 -0.012034335509038057 -0.013147066046432629 -0.0091317378079206878 0.0039191940321983343 -0.0061722061686046194 -0.0059871474822228189 -0.0033419405175417953
leaf_weight=3104 722 1679 5757 281 121 11483 13494 3350 179 2484 58 2234 996 2683 155 242 3818 2106 359 417 194 46 474 273 280 228 302 142 474 331
leaf_count=3104 722 1679 5757 281 121 11483 13494 3350 179 2484 58 2234 996 2683 155 242 3818 2106 359 417 194 46 474 273 280 228 302 142 474 331
internal_value=-4.93419e-08 0.000730596 0.0011072 -0.00010592 0.00353815 -0.000651173 -0.000466603 0.0028003 0.00157222 0.000264569 -0.00764946 0.00452992 0.00220749 0.00498663 -0.00508461 -0.00610179 0.00426694 0.00590377 -0.00127961 -0.00372676 -0.0010937 -0.00220999 0.000741832 -0.00896326 -0.00813953 -0.00501633 0.00110987 -0.0115323 -0.00931419 -0.00643661
internal_weight=58466 53368 50123 29199 3799 25400 24977 20924 12238 8241 5098 8686 3230 3405 3245 2788 3997 5456 829 1520 772 714 520 394 1959 470 457 423 3578 748
internal_count=58466 53368 50123 29199 3799 25400 24977 20924 12238 8241 5098 8686 3230 3405 3245 2788 3997 5456 829 1520 772 714 520 394 1959 470 457 423 3578 748
is_linear=0
shrinkage=0.05


Tree=20
num_leaves=31
num_cat=0
split_feature=101 107 14 118 146 142 113 118 134 30 99 104 10 146 114 91 157 142 22 30 158 99 108 97 157 88 142 30 134 158
split_gain=117.98 42.1891 37.9366 23.7443 23.8842 26.8571 18.9816 18.595 13.1173 11.991 11.9455 11.8384 8.0019 9.3582 7.39149 10.1308 5.92198 4.06233 3.28271 2.63144 3.94112 4.6067 2.98497 2.57733 2.57587 2.7364 2.14008 2.22865 2.18219 2.22265
threshold=-0.38175280392169947 0.23072079569101336 3.0645163059234624 0.011591962072998287 -0.011391654144972561 0.021026123315095905 -0.06334108859300612 0.035668652504682548 -0.015869734808802601 0.36309523880481726 -0.67568367719650257 0.082032304257154479 0.57557821273803722 0.032042333856225021 0.11670067906379701 1.3821734786033633 0.49393914639949804 0.03690332546830178 0.58101850748062145 0.6130952537059785 0.7277849316596986 0.34539633989334112 0.062154293060302741 1.9606945514678957 0.41255909204483038 4.3808636665344247 0.03690332546830178 0.31547619402408605 0.078033160418272032 0.80164140462875377
decision_type=2 2 2 2 2 2 2 2 2 2 2 2 2 2 2 2 2 2 2 2 2 2 2 2 2 2 2 2 2 2
left_child=9 2 10 4 8 -6 11 -8 -4 26 -2 -5 16 -14 15 23 -12 19 -17 20 21 -11 -22 -3 25 -16 28 -28 29 -1
right_child=1 14 3 6 5 -7 7 -9 -10 17 12 -13 13 -15 24 18 -18 -19 -20 -21 22 -23 -24 -25 -26 -27 27 -29 -30 -31
leaf_value=-0.009953494165073731 -0.012956250461760419 -0.0070385262774607165 0.0010696866102577248 0.0011005442361256782 -0.0018778417061909279 0.0029463296091590393 0.0068513891421650812 0.002808966001286238 0.0053058330738792701 -0.010898467996508204 -0.002565555749864324 -0.0079251724234152415 0.00060736463710380157 -0.0030858194277846892 0.0014551867669835678 0.004167081822599626 -0.019531094959412496 0.0032804221283305604 -0.0031498217893690529 0.0012654563838880857 -0.008908183158537173 0.01053588847260619 -0.0035405970809523884 -0.01165664473002339 0.010098556994593569 -0.0094411199421560836 -0.0077834456453266046 -4.1520643125838909e-05 -0.0053225572382664928 0.0012683390774574485
leaf_weight=2748 209 1390 3723 1530 9375 4167 4331 8313 3596 37 4067 476 8109 2175 320 188 52 190 817 170 543 76 504 393 67 70 345 129 312 44
leaf_count=2748 209 1390 3723 1530 9375 4167 4331 8313 3596 37 4067 476 8109 2175 320 188 52 190 817 170 543 76 504 393 67 70 345 129 312 44
internal_value=-8.14242e-08 0.00069404 0.00105183 0.00193425 0.000850445 -0.000393008 0.00347718 0.00419412 0.00315178 -0.00726716 -0.00109235 -0.00103924 -0.00091967 -0.000173279 -0.00483062 -0.00579698 -0.00278189 -0.00354056 -0.00177556 -0.0045191 -0.00537121 0.00346653 -0.0063303 -0.00806043 0.00105382 -0.000491583 -0.0088486 -0.00568792 -0.00932924 -0.00977478
internal_weight=58466 53368 50123 35511 20861 13542 14650 12644 7319 5098 14612 2006 14403 10284 3245 2788 4119 1520 1005 1330 1160 113 1047 1783 457 390 3578 474 3104 2792
internal_count=58466 53368 50123 35511 20861 13542 14650 12644 7319 5098 14612 2006 14403 10284 3245 2788 4119 1520 1005 1330 1160 113 1047 1783 457 390 3578 474 3104 2792
is_linear=0
shrinkage=0.05


Tree=21
num_leaves=31
num_cat=0
split_feature=156 156 100 146 134 121 132 135 114 117 146 108 156 98 132 110 127 116 116 107 125 147 105 88 106 26 120 120 88 118
split_gain=175.174 38.4714 35.5837 31.0007 26.6403 28.1513 26.0248 25.5478 26.2002 25.1053 25.0947 21.6972 18.4404 17.8186 14.2891 9.85182 9.21554 8.39451 10.5092 7.70665 7.5045 8.26239 7.06412 8.26159 6.65722 6.98277 5.90372 10.9915 5.07701 5.01382
threshold=0.41666667163372045 0.71470099687576305 0.29537677764892584 0.032042333856225021 -0.016322446055710312 -0.00055982088088057924 0.057391405105590827 0.021434232592582706 -0.017710562795400616 0.032246971502900131 -0.047312391921877854 -0.13884609192609784 0.24537037312984469 0.19830199331045154 -0.019190128892660138 0.017363716848194603 0.0092439563013613241 -0.010366351343691347 -0.013384994119405745 0.24358551949262622 -0.028414755128324028 -0.0036795721389353271 0.0057487438898533591 -0.60299497842788685 0.17213642597198489 0.71153846383094799 -0.045373691245913499 -0.053665086627006524 -0.4988477081060409 0.071678433567285552
decision_type=2 2 2 2 2 2 2 2 2 2 2 2 2 2 2 2 2 2 2 2 2 2 2 2 2 2 2 2 2 2
left_child=2 3 12 4 5 14 7 8 -5 13 -7 -11 26 -6 -2 24 -9 18 20 -19 21 -3 -17 -24 25 -14 27 -1 -8 -22
right_child=1 17 -4 6 9 10 28 16 -10 11 -12 -13 15 -15 -16 22 -18 19 -20 -21 29 -23 23 -25 -26 -27 -28 -29 -30 -31
leaf_value=-0.0064151471590148937 -0.0011064984169998737 -0.0047583046210927828 0.0097580056875921067 -0.00559328318031944 0.0041650384028609532 0.0032597003137631491 -0.0051740358232137684 0.00036796611742493507 0.00099359542405125234 -0.0084640734297892883 -0.0044181748088138999 0.001071280799390289 -0.008608622133329252 -0.0087548338957637289 0.004466856879206926 -0.0029833207467104342 0.0076441530067319421 0.0066354900767995918 -0.01213859360318161 -0.017895348221989151 0.0069798995209668646 0.0037217668937458872 -0.0038567612804892449 0.0063616984285775535 0.0046308111041031145 -0.0036521844593640817 -0.0077177766217828032 0.010482158760421972 -0.012566996998676923 0.0022519041095555811
leaf_weight=376 1803 482 391 3084 13085 1383 399 776 2955 697 4607 4132 1364 272 3169 1994 995 3724 110 32 1457 710 318 521 154 1495 6367 129 567 918
leaf_count=376 1803 482 391 3084 13085 1383 399 776 2955 697 4607 4132 1364 272 3169 1994 995 3724 110 32 1457 710 318 521 154 1495 6367 129 567 918
internal_value=-9.83682e-08 0.00147117 -0.00509099 0.000826319 0.00161082 -0.000335742 -0.00177867 -0.000820268 -0.00236944 0.00278441 -0.00264459 -0.000304275 -0.00554804 0.00390144 0.00244482 -0.00348199 0.00445917 0.00476047 0.00305936 0.00642422 0.00353009 0.000288328 -0.00136271 0.00248272 -0.00547277 -0.00601904 -0.00730475 -0.00208647 -0.00952026 0.00515485
internal_weight=58466 45357 13109 37924 29148 10962 8776 7810 6039 18186 5990 4829 12718 13357 4972 5846 1771 7433 3677 3756 3567 1192 2833 839 3013 2859 6872 505 966 2375
internal_count=58466 45357 13109 37924 29148 10962 8776 7810 6039 18186 5990 4829 12718 13357 4972 5846 1771 7433 3677 3756 3567 1192 2833 839 3013 2859 6872 505 966 2375
is_linear=0
shrinkage=0.05


Tree=22
num_leaves=31
num_cat=0
split_feature=156 156 113 146 132 135 123 156 134 138 123 121 134 156 110 129 105 134 121 116 132 157 110 127 112 146 105 120 106 26
split_gain=158.095 35.0744 30.5414 22.9834 22.5497 19.006 21.716 16.9882 15.4676 20.0672 22.4751 19.5383 17.4385 13.2051 12.9413 11.3892 9.87158 11.5617 10.7421 9.05932 11.7432 8.90699 8.56696 7.80693 7.0366 6.98411 6.375 7.8031 5.91499 6.17244
threshold=0.41666667163372045 0.63333335518836986 -0.19765468686819074 0.032042333856225021 0.057391405105590827 0.021434232592582706 0.070027951151132597 0.24537037312984469 -0.016322446055710312 -0.00033878006433951663 0.022036778740584854 -0.00055982088088057924 -0.023746284656226632 0.86388340592384349 -0.046956414356827729 0.059281716123223312 0.045774778351187713 -0.0038831068668514486 0.0076857802923768767 -0.0088461921550333483 0.025205436162650589 0.31689181923866278 0.017363716848194603 0.0092439563013613241 -0.03924963437020778 0.035408196970820434 0.0057487438898533591 -0.013136290013790129 0.17213642597198489 0.71153846383094799
decision_type=2 2 2 2 2 2 2 2 2 2 2 2 2 2 2 2 2 2 2 2 2 2 2 2 2 2 2 2 2 2
left_child=2 3 -1 8 5 6 -5 -4 11 10 -10 15 -13 16 -11 -2 19 18 -18 20 -3 -6 28 -7 -19 -21 -24 -28 29 -9
right_child=1 13 7 4 21 23 -8 22 9 14 -12 12 -14 -15 -16 -17 17 24 -20 25 -22 -23 26 -25 -26 -27 27 -29 -30 -31
leaf_value=0.0091424340707978655 0.0035173852764865694 0.00100057508276439 -0.0069399683440100257 -0.0040383253890692332 -0.0040380227543227688 -0.00042653467435213902 0.0047005590882395728 -0.0080694401323707816 0.0017747889183110451 0.00045953386119411475 -0.0051928621893442637 -0.0011827685767083322 -0.0089799734639839836 0.0077628313460502201 0.0052667357998320025 -0.003251355033390909 0.00081107179532120084 -0.0018242418857334231 -0.0073630391735518587 0.0062032811034042068 0.0065274366669346787 -0.014078895498688279 -0.0028341696852153429 0.0070993783583556645 0.0045145017716447331 0.00071029696147073378 0.0059493920893137001 -0.0041101788598244112 0.0043995707861151454 -0.0034177415645801033
leaf_weight=379 3106 4053 6873 4019 409 576 863 1368 5242 1892 1485 3942 877 1519 5410 776 1025 573 660 3805 1261 485 1994 853 1841 685 540 299 154 1502
leaf_count=379 3106 4053 6873 4019 409 576 863 1368 5242 1892 1485 3942 877 1519 5410 776 1025 573 660 3805 1261 485 1994 853 1841 685 540 299 154 1502
internal_value=-1.00518e-07 0.0013976 -0.00483646 0.00039942 -0.00206106 -0.00100724 -0.00249238 -0.00525317 0.00117958 0.00220682 0.000235813 -0.000476135 -0.00260312 0.00333477 0.00402189 0.00216295 0.00285051 0.000788417 -0.00238818 0.00371212 0.00231322 -0.00949277 -0.00327275 0.00406271 0.00300781 0.00536645 -0.00129458 0.00235831 -0.00512411 -0.00563715
internal_weight=58466 45357 13109 29935 7205 6311 4882 12730 22730 14029 6727 8701 4819 15422 7302 3882 13903 4099 1685 9804 5314 894 5857 1429 2414 4490 2833 839 3024 2870
internal_count=58466 45357 13109 29935 7205 6311 4882 12730 22730 14029 6727 8701 4819 15422 7302 3882 13903 4099 1685 9804 5314 894 5857 1429 2414 4490 2833 839 3024 2870
is_linear=0
shrinkage=0.05


Tree=23
num_leaves=31
num_cat=0
split_feature=101 107 14 111 138 141 144 119 128 118 112 129 30 109 112 139 37 100 142 112 101 101 88 134 112 158 30 157 100 158
split_gain=87.5169 32.7931 32.6201 20.0021 22.2499 21.3742 19.4148 13.7637 11.5949 10.4377 12.9532 11.0118 10.0948 7.51735 7.36637 6.58748 5.76645 5.44186 4.79719 4.5877 4.587 3.72208 4.35444 3.29798 3.20238 2.90148 2.81677 2.29541 2.56216 2.07007
threshold=-0.38175280392169947 0.23072079569101336 3.2407975196838383 -0.098181422799825654 0.0068701626732945451 -0.034222839400172227 -0.039438597857952111 0.012018702924251558 -0.023482241667807099 0.010252465028315784 0.030137208290398124 -0.012210955843329428 0.33928571641445165 0.0094125666655600088 0.082922205328941359 -0.02825437672436237 0.55833333730697643 -0.29351074993610377 0.03690332546830178 0.037884704768657691 0.068708758801221861 0.21340014785528186 -5.9974617958068839 0.078033160418272032 0.10369698703289033 0.70456010103225719 0.6130952537059785 0.22872642427682879 -0.29351074993610377 0.72908177971839916
decision_type=2 2 2 2 2 2 2 2 2 2 2 2 2 2 2 2 2 2 2 2 2 2 2 2 2 2 2 2 2 2
left_child=12 2 3 6 7 -6 20 -5 -8 10 11 -4 -1 -12 15 -11 17 -3 23 27 -2 25 -23 26 -16 -19 -14 -18 -29 -21
right_child=1 16 9 4 5 -7 8 -9 -10 14 13 -13 18 -15 24 -17 19 21 -20 29 -22 22 -24 -25 -26 -27 -28 28 -30 -31
leaf_value=-0.0079314671863167287 -0.0030177409648699314 0.0033951586796074685 0.0027692211454843282 -0.0031653584204896414 -0.0040895221322370485 0.0016834651972563513 0.00063326188127944567 6.7056230923817655e-05 0.006483047147668947 0.0021209338728745693 0.0010582494654997729 -0.0012717002767532019 -0.0058029902545375231 0.0058442135178552101 -0.0044688718505514913 0.0054536072354204844 0.0016337146953179086 -0.0061165187323483474 0.0033984000394024967 0.015769011280738203 -0.013709634867554216 0.017810790073604157 -0.0030399410214227893 0.0023403572250826465 0.002280893540615391 -0.011642340473899837 0.0013670451581752256 0.0035655619864839888 -0.0069512414251016175 0.0022440662013804105
leaf_weight=3259 312 154 2791 8706 1856 11756 1322 5292 2368 2119 1317 4256 1286 2189 332 4986 152 1679 233 31 149 31 126 168 372 280 152 67 397 328
leaf_count=3259 312 154 2791 8706 1856 11756 1322 5292 2368 2119 1317 4256 1286 2189 332 4986 152 1679 233 31 149 31 126 168 372 280 152 67 397 328
internal_value=-8.79469e-08 0.000597728 0.000913178 -5.65266e-05 -0.000543212 0.000895901 0.00317928 -0.00194299 0.00438877 0.00259074 0.00156445 0.000328051 -0.00625904 0.00404799 0.00397696 0.00446046 -0.004273 -0.00565477 -0.00329197 -0.00105033 -0.00648876 -0.00631603 0.0010627 -0.00426603 -0.000895499 -0.00690998 -0.00504154 -0.00367215 -0.005421 0.00343401
internal_weight=58466 53368 50123 31761 27610 13612 4151 13998 3690 18362 10553 7047 5098 3506 7809 7105 3245 2270 1839 975 461 2116 157 1606 704 1959 1438 616 464 359
internal_count=58466 53368 50123 31761 27610 13612 4151 13998 3690 18362 10553 7047 5098 3506 7809 7105 3245 2270 1839 975 461 2116 157 1606 704 1959 1438 616 464 359
is_linear=0
shrinkage=0.05


Tree=24
num_leaves=31
num_cat=0
split_feature=156 156 100 146 99 133 135 116 106 157 140 120 98 100 101 118 139 88 156 135 100 139 26 156 100 147 157 22 144 41
split_gain=133.84 30.5695 28.0981 24.5725 24.2194 23.0303 30.4437 20.56 24.025 17.3726 15.3958 15.1503 13.1292 15.0663 12.5848 9.6729 10.8118 8.85996 7.43885 6.51692 7.8888 8.03532 6.33857 6.23865 7.46391 5.12084 4.78967 3.81632 3.24521 3.14183
threshold=0.41666667163372045 0.71470099687576305 0.29537677764892584 0.032042333856225021 -0.67568367719650257 0.024556336924433712 -0.079870175570249544 0.067812066525220885 -0.037349639460444443 0.3214810192584992 0.049484590068459518 -0.044548248872160905 -0.40132264792919153 -0.33203734457492823 -0.019729872234165665 -0.070036716759204851 0.069640688598155989 -2.0832194089889522 0.89479812979698192 -0.0055595913436263791 -0.16807105392217633 -0.042381323873996728 0.71153846383094799 0.10000000521540643 -0.26992212235927576 -0.0044788725208491078 0.31043364107608801 0.71759259700775158 -0.076417855918407426 0.92307689785957348
decision_type=2 2 2 2 2 2 2 2 2 2 2 2 2 2 2 2 2 2 2 2 2 2 2 2 2 2 2 2 2 2
left_child=2 3 11 4 27 6 -6 12 26 -10 -7 14 17 -14 -1 16 22 -5 19 20 -3 -22 -13 -17 -25 -16 -9 -2 -20 -21
right_child=1 18 -4 7 5 10 -8 8 9 -11 -12 15 13 -15 25 23 -18 -19 28 29 21 -23 -24 24 -26 -27 -28 -29 -30 -31
leaf_value=-0.0061513846747339096 -0.010193665471927765 0.0057471122113711848 0.0087445873276776678 0.0016915424055518658 -0.0059055177268145746 -0.0016880366448482624 0.0030456490094392316 -3.7252086647767027e-05 -0.0030949826279082259 -0.012759923139284264 0.002945600615279596 -0.0014745282039707788 -0.0069248654986884929 0.0017428758013572838 -0.0023981645746111741 -0.0076964929197290534 -0.0082849084222962454 -0.0092642262496108949 -0.0057629601242233869 0.0052106275904797023 -0.0075064442735444884 0.0014254769115254029 0.0076187188433715775 -0.0078445690586399774 -0.0040427775714350868 0.0056943563039726867 0.0091879914507423111 0.00593710374467227 0.0086607510542064791 -0.011801597125732395
leaf_weight=550 506 910 391 268 1001 6737 18423 449 867 1007 2442 492 559 4835 274 3498 368 587 40 3365 293 1782 313 1777 4771 675 204 39 1016 27
leaf_count=550 506 910 391 268 1001 6737 18423 449 867 1007 2442 492 559 4835 274 3498 368 587 40 3365 293 1782 313 1777 4771 675 204 39 1016 27
internal_value=-4.78629e-08 0.00128597 -0.00444997 0.000711129 0.00140958 0.0016087 0.00258404 -0.00160808 -0.00541362 -0.00829195 -0.000454712 -0.00485615 -6.82509e-05 0.000843456 -0.000131563 -0.00548695 -0.00118486 -0.0058247 0.00421808 0.00357279 0.00186608 0.000161235 0.00205591 -0.00598875 -0.00507548 0.00335256 0.00283903 -0.00902843 0.00810868 0.00507305
internal_weight=58466 45357 13109 37924 29148 28603 19424 8776 2527 1874 9179 12718 6249 5394 1499 11219 1173 855 7433 6377 2985 2075 805 10046 6548 949 653 545 1056 3392
internal_count=58466 45357 13109 37924 29148 28603 19424 8776 2527 1874 9179 12718 6249 5394 1499 11219 1173 855 7433 6377 2985 2075 805 10046 6548 949 653 545 1056 3392
is_linear=0
shrinkage=0.05


Tree=25
num_leaves=31
num_cat=0
split_feature=156 156 100 140 114 141 134 119 157 144 107 156 157 108 109 107 156 22 158 157 99 110 115 107 110 141 157 107 135 144
split_gain=120.793 28.1701 25.3607 18.4994 22.9629 21.679 19.7835 22.683 18.5758 20.7325 14.3038 12.1776 11.9817 16.0307 10.9166 10.8662 10.6266 9.19437 11.4147 11.8646 7.71857 7.61131 7.4048 6.22507 5.45307 4.92787 4.72991 7.2421 6.71913 4.64141
threshold=0.41666667163372045 0.63333335518836986 0.29537677764892584 0.00067048959317617129 0.037557030096650131 0.0056777766440063724 -0.016322446055710312 0.086236711591482176 0.36796660721302038 0.014423587359488012 0.0164258535951376 0.24537037312984469 0.3262744694948197 0.062043070793151862 -0.023080936633050438 0.17909456789493564 0.86388340592384349 0.77304747700691234 0.83162352442741405 0.33146546781063085 -0.67568367719650257 0.017363716848194603 -0.083723533898591981 0.29233674705028539 0.053027663379907615 0.047579025849699981 0.37572011351585394 -0.052894946187734597 0.037634084001183517 0.0050923381932079801
decision_type=2 2 2 2 2 2 2 2 2 2 2 2 2 2 2 2 2 2 2 2 2 2 2 2 2 2 2 2 2 2
left_child=2 3 11 4 8 6 10 -8 14 -10 -5 26 -7 -14 -2 22 17 18 20 -20 -3 29 -6 -17 -23 -26 27 28 -1 -13
right_child=1 16 -4 5 15 12 7 -9 9 -11 -12 21 13 -15 -16 23 -18 -19 19 -21 -22 24 -24 -25 25 -27 -28 -29 -30 -31
leaf_value=-0.0058013972627133249 0.0010909875196860428 -0.0068761751263443751 0.0083075815721614741 -0.0014847372354670567 -0.003174998252245697 0.0015915701071419531 0.0024895039146741165 -0.0094482884084915435 -0.0077015858445008958 0.0019816477921510305 -0.010023807132315715 -0.0027277462434942474 0.0080138964427148972 0.00062671082262886167 -0.0027510560819593529 -0.0072574692049709143 0.0069301570945185095 0.0049395183372465783 0.001545886013656353 -0.0043473813065165899 0.0033574629329344943 0.0013945838579549846 0.0035775036648085915 0.0023688087699153555 -0.004514261393544986 0.0021851240171313663 -0.0111244899206098 -0.0062660017198977336 0.0042909881067105847 -0.0066610863018505264
leaf_weight=328 3677 189 391 1586 453 3630 4631 435 2379 719 711 1516 2362 1068 3716 461 1519 3070 2737 1241 6666 1250 3844 263 1231 352 431 5782 331 1497
leaf_count=328 3677 189 391 1586 453 3630 4631 435 2379 719 711 1516 2362 1068 3716 461 1519 3070 2737 1241 6666 1250 3844 263 1231 352 431 5782 331 1497
internal_value=-7.02933e-08 0.00122165 -0.00422754 0.000327074 -0.000871253 0.00161622 -0.000281335 0.00146313 -0.00220233 -0.00545265 -0.00413069 -0.00461344 0.00359587 0.00571537 -0.000839514 0.00190892 0.00295772 0.00252325 0.00183796 -0.000291481 0.00307439 -0.00293415 0.00286436 -0.00375404 -0.00107117 -0.00302132 -0.00604115 -0.00569989 -0.000724884 -0.00468399
internal_weight=58466 45357 13109 29935 15512 14423 7363 5066 10491 3098 2297 12718 7060 3430 7393 5021 15422 13903 10833 3978 6855 5846 4297 724 2833 1583 6872 6441 659 3013
internal_count=58466 45357 13109 29935 15512 14423 7363 5066 10491 3098 2297 12718 7060 3430 7393 5021 15422 13903 10833 3978 6855 5846 4297 724 2833 1583 6872 6441 659 3013
is_linear=0
shrinkage=0.05


Tree=26
num_leaves=31
num_cat=0
split_feature=156 156 100 120 127 105 102 120 117 157 101 139 101 101 114 112 26 128 108 122 20 123 102 118 139 145 117 26 30 108
split_gain=109.017 25.7777 22.8898 17.5328 23.0599 14.2582 15.8049 13.0896 12.2859 13.956 10.9359 10.5376 12.6298 14.1049 13.9009 12.0844 10.9327 10.5916 10.1182 9.35386 10.0148 8.53872 8.51493 8.23365 9.20431 7.87901 6.74906 5.68615 5.33631 7.25749
threshold=0.41666667163372045 0.6111111342906953 0.29537677764892584 0.039723290130496032 -0.067700624465942369 -0.104997631162405 -0.24959291517734525 -0.044548248872160905 -0.057927569374442094 0.36796660721302038 -0.019729872234165665 -0.0012224914971739052 -0.018669908866286274 0.0083186407573521155 -0.058089762926101678 -0.042576899752020829 0.82692307233810436 -0.12908253818750379 0.21093676984310153 0.046153863891959197 0.57857143878936779 -0.015262899454683064 0.036905447021126754 -0.070036716759204851 0.069640688598155989 1.0000000180025095e-35 0.032410524785518653 0.71153846383094799 0.37500000000000006 0.0088707534596323984
decision_type=2 2 2 2 2 2 2 2 2 2 2 2 2 2 2 2 2 2 2 2 2 2 2 2 2 2 2 2 2 2
left_child=2 3 7 4 19 26 -7 10 -5 -10 -1 12 14 16 -3 -15 -14 -13 25 20 -2 -16 -11 24 27 -19 -6 -9 29 -25
right_child=1 11 -4 8 5 6 -8 23 9 22 -12 17 13 15 21 -17 -18 18 -20 -21 -22 -23 -24 28 -26 -27 -28 -29 -30 -31
leaf_value=-0.0056031102869077039 0.0066704795817288005 -0.0027093215143509704 0.0078924148415816676 0.0020315012480049254 -0.001120148171656607 -0.0043804822328280925 0.0021598915878614611 -0.0013532103917382474 -0.0017494193242405026 -0.0027326476397502419 0.0032565357409551268 -0.0064682694991809592 -0.0080138784974887311 -0.0053356241963966166 0.00094001085208378181 0.0022327167303493648 0.0031852020996907941 0.0026020535366947711 -0.015162207869191964 9.138396115391838e-05 -0.0076570499427749215 0.0068344885733141727 -0.011198912408189413 -0.0028718814999109492 -0.0075510623691139277 0.0056645133534956845 -0.0089137095568169161 0.0072589218238247313 -0.0030990358681451595 -0.0067235647350298135
leaf_weight=550 134 687 391 1308 837 977 16735 492 3290 485 949 241 827 610 860 3877 295 3796 67 938 1306 2170 774 1510 368 4726 417 313 1978 6558
leaf_count=550 134 687 391 1308 837 977 16735 492 3290 485 949 241 827 610 860 3877 295 3796 67 938 1306 2170 774 1510 368 4726 417 313 1978 6558
internal_value=-6.42826e-08 0.00116057 -0.0040162 0.000186532 0.000851674 0.00143382 0.00179879 -0.00438283 -0.00223646 -0.00346479 2.18279e-06 0.00261958 0.00144657 -5.04381e-05 0.00370681 0.00120251 -0.00506488 0.00385784 0.00414831 -0.00378888 -0.00631958 0.00516329 -0.00794241 -0.00496916 -0.000999708 0.00430107 -0.00371678 0.00199012 -0.00543211 -0.0060034
internal_weight=58466 45357 13109 27201 21344 18966 17712 12718 5857 4549 1499 18156 9326 5609 3717 4487 1122 8830 8589 2378 1440 3030 1259 11219 1173 8522 1254 805 10046 8068
internal_count=58466 45357 13109 27201 21344 18966 17712 12718 5857 4549 1499 18156 9326 5609 3717 4487 1122 8830 8589 2378 1440 3030 1259 11219 1173 8522 1254 805 10046 8068
is_linear=0
shrinkage=0.05


Tree=27
num_leaves=31
num_cat=0
split_feature=98 14 111 107 118 98 144 88 100 135 118 146 125 104 109 118 100 110 88 136 106 158 115 107 89 121 157 145 90 122
split_gain=54.7893 25.0264 19.4439 15.0912 13.5342 18.2695 14.5212 12.7574 12.4018 11.6382 9.8898 11.7163 11.9168 9.70665 13.7207 11.2235 9.57165 8.43662 9.72266 8.28644 7.67227 7.63038 6.72446 6.69044 7.7936 4.54364 4.385 4.32013 3.82017 3.65623
threshold=0.19830199331045154 3.213190078735352 0.010229249950498344 0.23072079569101336 0.010252465028315784 -0.35720263421535486 -0.017162884585559365 -2.0832194089889522 -0.34801292419433588 0.025859730318188671 0.011591962072998287 -0.011391654144972561 0.074789337813854231 0.0091987852938473242 -0.037286248058080666 0.056411733850836761 0.24362289160490039 -0.047720601782202714 1.1381115913391116 0.0092097069136798399 -0.018652258440852162 0.43680201470851904 0.10510969907045366 -0.096778467297554002 -2.4676222801208492 -0.042302645742893212 0.22222210466861728 0.033229257911443717 -3.7272626161575313 0.033114431425929076
decision_type=2 2 2 2 2 2 2 2 2 2 2 2 2 2 2 2 2 2 2 2 2 2 2 2 2 2 2 2 2 2
left_child=1 2 4 10 5 7 16 -1 -7 13 11 20 -13 14 -4 -15 -6 27 -19 -8 -3 -2 29 -11 -25 -5 -27 -12 -24 -23
right_child=21 3 9 25 6 8 19 -9 -10 23 17 12 -14 15 -16 -17 -18 18 -20 -21 -22 22 28 24 -26 26 -28 -29 -30 -31
leaf_value=0.00064188300043476029 -0.0068706404672770425 0.00046087886913001824 -0.0071036888443467838 -6.0010683675350548e-05 -0.0021065445449082424 -0.007350894628036825 0.0051057897017364288 -0.0095630251787229715 0.00063990847601243716 0.0059786852996923006 -0.00053900668282269582 -0.00048312348367321451 0.0074581987786548109 -0.0072796015966474937 -0.00037003236445856848 -0.00087576501472194461 0.00769962732551638 0.0022534635916679866 0.0062906779986467501 0.00084421719105828353 0.0048923394094574878 -0.0044926350292774347 0.012942138207538048 -0.0029743471310205672 0.0016675428445462178 0.001021495721927821 -0.0081016755783724619 0.0035879427338772426 0.00053885768622082095 0.0021200578100649954
leaf_weight=470 2361 1529 940 573 2155 512 3478 874 9323 444 1635 7276 505 2161 3882 1004 281 2762 3255 1702 2717 2616 78 1712 1915 170 570 1034 306 226
leaf_count=470 2361 1529 940 573 2155 512 3478 874 9323 444 1635 7276 505 2161 3882 1004 281 2762 3255 1702 2717 2616 78 1712 1915 170 570 1034 306 226
internal_value=-8.70493e-08 0.000497358 -0.000421578 0.00178478 0.000583595 -0.0005235 0.00220925 -0.00599106 0.000223266 -0.00198876 0.00211445 0.0011853 3.18176e-05 -0.00309777 -0.00168397 -0.00524994 -0.000972781 0.00340036 0.00443843 0.00370661 0.00329783 -0.00470897 -0.00312504 0.000185875 -0.000522166 -0.0034116 -0.00599935 0.00105809 0.00307671 -0.00396491
internal_weight=58466 52879 30853 22026 18795 11179 7616 1344 9835 12058 20713 12027 7781 7987 4822 3165 2436 8686 6017 5180 4246 5587 3226 4071 3627 1313 740 2669 384 2842
internal_count=58466 52879 30853 22026 18795 11179 7616 1344 9835 12058 20713 12027 7781 7987 4822 3165 2436 8686 6017 5180 4246 5587 3226 4071 3627 1313 740 2669 384 2842
is_linear=0
shrinkage=0.05


Tree=28
num_leaves=31
num_cat=0
split_feature=156 156 100 146 99 133 135 132 135 114 99 120 128 158 157 109 156 157 100 156 108 135 104 88 30 158 22 126 144 88
split_gain=92.4611 22.5128 20.1905 18.7407 19.6774 19.2434 24.8725 16.6699 17.321 18.0742 13.9137 11.0494 9.83105 7.87471 7.74191 7.29534 7.25629 6.98079 6.37143 7.1658 6.51526 5.48634 8.01757 4.05736 3.74455 7.04322 3.42279 3.37086 2.86867 2.83045
threshold=0.41666667163372045 0.71470099687576305 0.29537677764892584 0.032042333856225021 -0.67568367719650257 0.024556336924433712 -0.079870175570249544 0.057391405105590827 0.018595859408378605 -0.017710562795400616 -0.64811009168624867 -0.044548248872160905 0.009893034119158985 0.99906253814697277 0.31689181923866278 0.1061803698539734 0.90000000596046459 0.35935889184474951 0.018986019305884842 0.10000000521540643 0.036375857889652259 -0.0055595913436263791 0.18483847379684451 4.9230713844299325 0.27976191043853765 0.087978903204202666 0.71759259700775158 0.022366819903254512 -0.076417855918407426 -4.0322880744934073
decision_type=2 2 2 2 2 2 2 2 2 2 2 2 2 2 2 2 2 2 2 2 2 2 2 2 2 2 2 2 2 2
left_child=2 3 11 4 26 6 -6 8 9 -5 -7 12 -1 16 29 18 21 -10 20 -20 -13 22 -3 27 25 -17 -2 -14 -18 -9
right_child=1 13 -4 7 5 10 -8 14 17 -11 -12 15 23 -15 -16 24 28 -19 19 -21 -22 -23 -24 -25 -26 -27 -28 -29 -30 -31
leaf_value=-0.0039035181739661105 -0.0093269389843018465 0.0022184324208469508 0.0074855071639738299 -0.0047107645674592082 -0.0054168991710589007 -0.0081860300227294749 0.002673786725702898 0.0033305324973083653 0.0016589525368983695 0.00078909082707957247 -2.6196049050431236e-05 -0.0036972651421334213 -0.0020823353235970422 -0.016755057259174696 -0.012032634239936127 0.002498152653113885 -0.0071280061828576978 0.0085690138744660797 -0.0060487282572509902 -0.0025048420088768781 -0.0078311108871338894 0.0044927993875106915 -0.0087383332399495837 0.012471964336779004 0.0024480882855431839 -0.01020774506062482 0.0059474093843089916 0.0055669461412163404 0.0084761602749997451 -0.0053953250467818565
leaf_weight=779 506 2852 391 3018 1001 556 18423 126 1332 2955 8623 1442 240 47 493 218 30 505 2371 3601 2848 3464 177 123 522 217 39 357 863 347
leaf_count=779 506 2852 391 3018 1001 556 18423 126 1332 2955 8623 1442 240 47 493 218 30 505 2371 3601 2848 3464 177 123 522 217 39 357 863 347
internal_value=-6.45693e-08 0.00106881 -0.0036987 0.000575484 0.00118547 0.00136496 0.00225653 -0.00144988 -0.000682695 -0.00198907 -0.000521174 -0.00404305 -7.83027e-06 0.00358506 -0.00764587 -0.00458175 0.00371562 0.00356201 -0.00497115 -0.00391283 -0.006443 0.00313296 0.00157599 0.00420006 -0.000400787 -0.00383048 -0.00822296 0.00248382 0.00794487 -0.0030599
internal_weight=58466 45357 13109 37924 29148 28603 19424 8776 7810 5973 9179 12718 1499 7433 966 11219 7386 1837 10262 5972 4290 6493 3029 720 957 435 545 597 893 473
internal_count=58466 45357 13109 37924 29148 28603 19424 8776 7810 5973 9179 12718 1499 7433 966 11219 7386 1837 10262 5972 4290 6493 3029 720 957 435 545 597 893 473
is_linear=0
shrinkage=0.05


Tree=29
num_leaves=31
num_cat=0
split_feature=156 156 100 158 26 102 157 157 26 104 92 16 138 136 11 130 156 99 156 131 112 119 121 103 146 102 113 157 157 14
split_gain=83.4463 20.8097 18.2253 15.0974 19.9762 65.1746 58.8519 14.6449 40.1207 73.4017 25.1199 11.7015 10.4076 12.8712 10.0669 9.6138 9.02607 8.7186 8.57424 9.90919 10.5544 10.3254 8.40037 12.2199 10.0692 7.19337 5.75345 4.61374 3.95325 3.76635
threshold=0.41666667163372045 0.6111111342906953 0.29846118390560156 0.58431413769721996 0.78846153616905224 0.1583097502589226 0.47985558211803442 0.4371297955513001 0.75000000000000011 0.30670113861560827 3.4503793716430669 0.67954546213150036 0.0052779568359255799 -0.054438114166259759 0.2971752136945725 -0.0079673333093523962 0.86388340592384349 -0.67568367719650257 0.054411765187978751 0.0246092863380909 0.10095417499542238 -0.011403925716876982 0.029777900315821174 0.17702064663171771 0.035183766856789596 0.25141754001379019 -0.07378863543272017 0.27339364588260656 0.26874192059040075 3.1855828762054448
decision_type=2 2 2 2 2 2 2 2 2 2 2 2 2 2 2 2 2 2 2 2 2 2 2 2 2 2 2 2 2 2
left_child=2 3 18 7 6 14 11 12 9 -9 -10 -5 13 -2 -6 -14 17 29 -1 21 27 26 24 -24 -19 -23 -20 -21 -22 -3
right_child=1 16 -4 4 5 -7 -8 8 10 -11 -12 -13 15 -15 -16 -17 -18 22 19 20 28 25 23 -25 -26 -27 -28 -29 -30 -31
leaf_value=-0.0063089346505215867 0.0054978097166224092 -0.013037700203602521 0.0071259971794938211 -0.0046797124309120438 -0.00036831785934091392 0.022062279595946647 -0.022486954579706033 0.006476908697576958 0.020732819264997475 -0.025239920646535637 0.0023624179252517336 0.00072505814984192608 -0.00018770108898911151 -0.001279281324268966 -0.01181608763271739 0.0031261035566236654 0.0060171662712309058 0.0036030626308486062 0.0063520173353910072 -0.0043255963733195854 -0.0015382813690784823 -0.0040207354409548699 0.001106002786082898 -0.0091552863579916072 -0.00045964172929827357 0.0085405710893889739 -0.00053286368634278801 -0.0083773787594557444 0.0083883859264302467 -0.001919999071798865
leaf_weight=2759 762 122 390 2114 2237 338 389 712 480 245 305 1900 3926 8645 210 4938 1519 9240 349 1302 313 3874 4937 308 1824 117 2311 1547 147 206
leaf_count=2759 762 122 390 2114 2237 338 389 712 480 245 305 1900 3926 8645 210 4938 1519 9240 349 1302 313 3874 4937 308 1824 117 2311 1547 147 206
