tree
version=v4
num_class=1
num_tree_per_iteration=1
label_index=0
max_feature_idx=160
objective=regression
feature_names=n_total_answers n_missing_answers n_answered_personality n_answered_economic n_answered_cognitive n_answered_demographics n_ordinal_items n_categorical_items n_text_items n_multi_select_items ordinal_mean_normalized ordinal_std_normalized ordinal_midpoint_rate ordinal_extreme_rate ordinal_acquiescence straightlining_max_repeat_rate bfi_44_mean_norm bfi_44_n_items bfi_18_mean_norm bfi_18_n_items autonomy_cognition_mean_norm autonomy_cognition_n_items personal_values_mean_norm personal_values_n_items self_monitoring_mean_norm self_monitoring_n_items self_monitoring_binary_mean_norm self_monitoring_binary_n_items regulatory_focus_mean_norm regulatory_focus_n_items bai_anxiety_mean_norm bai_anxiety_n_items bai_sum_score self_concept_mean_norm self_concept_n_items need_uniqueness_mean_norm need_uniqueness_n_items need_closure_mean_norm need_closure_n_items personality_traits_5pt_mean_norm personality_traits_5pt_n_items maximization_mean_norm maximization_n_items uncertainty_beliefs_mean_norm uncertainty_beliefs_n_items risk_sensitivity_personality_mean_norm risk_sensitivity_personality_n_items self_regulation_mean_norm self_regulation_n_items spending_scale spending_difficulty spending_anxiety shopper_type weight_loss_intention dictator_game_position ultimatum_offer_position trust_game_send_position trust_return_mean_position ultimatum_reject_rate hedonic_framing_mean loss_aversion_risky_choices loss_aversion_risky_rate crt_score crt_total_attempted numeracy_score numeracy_total_attempted financial_literacy_score financial_literacy_total vocabulary_synonym_total vocabulary_antonym_total spatial_n_attempted wason_correct wason_n_selected forward_flow_word_count demo_region demo_sex demo_age demo_education demo_race demo_citizenship demo_occupation demo_religion demo_religiosity demo_political_party demo_income demo_political_views demo_household_size demo_employment emb_0 emb_1 emb_2 emb_3 emb_4 emb_5 emb_6 emb_7 emb_8 emb_9 qemb_pca_0 qemb_pca_1 qemb_pca_2 qemb_pca_3 qemb_pca_4 qemb_pca_5 qemb_pca_6 qemb_pca_7 qemb_pca_8 qemb_pca_9 qemb_pca_10 qemb_pca_11 qemb_pca_12 qemb_pca_13 qemb_pca_14 qemb_pca_15 qemb_pca_16 qemb_pca_17 qemb_pca_18 qemb_pca_19 qemb_pca_20 qemb_pca_21 qemb_pca_22 qemb_pca_23 qemb_pca_24 qemb_pca_25 qemb_pca_26 qemb_pca_27 qemb_pca_28 qemb_pca_29 qemb_pca_30 qemb_pca_31 qemb_pca_32 qemb_pca_33 qemb_pca_34 qemb_pca_35 qemb_pca_36 qemb_pca_37 qemb_pca_38 qemb_pca_39 qemb_pca_40 qemb_pca_41 qemb_pca_42 qemb_pca_43 qemb_pca_44 qemb_pca_45 qemb_pca_46 qemb_pca_47 qemb_pca_48 qemb_pca_49 question_num_options block_Cognitive_tests block_Demographics block_Economic_preferences block_Personality qtype_MC qtype_Matrix qtype_TE person_construct_mean_loo person_construct_std_loo person_construct_percentile_loo construct_answers_available has_multi_item_construct
feature_infos=[536:537] [0:6] none [178:179] [64:65] none none none [21:22] [20:21] [0.44838592410087585:0.73608267307281494] [0.16133671998977661:0.34511783719062805] [0.02760736271739006:0.64417177438735962] [0.1840490847826004:0.81901842355728149] [2.2638037204742432:3.8282208442687988] [0.53846156597137451:1] [0.22272726893424988:0.80909091234207153] none [0.24444444477558136:0.86666667461395264] none [0.3571428656578064:0.91428571939468384] [9:10] [0.25462964177131653:0.9861111044883728] [18:24] [0.25:0.7638888955116272] none [0.5:0.92307692766189575] none [0.26666668057441711:1] none [0.25:0.82142859697341919] none [0:48] [0.43000000715255737:0.77999997138977051] none [0.26249998807907104:0.96249997615814209] none [0.20000000298023224:0.93333333730697632] none [0.20000000298023224:1] none [0.3333333432674408:1] none [0.20000000298023224:0.91666668653488159] none [0.3333333432674408:0.98666667938232422] none [0.23333333432674408:0.96666663885116577] none [1:11] [1:5] [1:5] [1:5] [1:2] [1:6] [1:6] [1:16] [1:8.5] [0:1] [1:2] [0:9] [0:1] [0:4] [3:4] [0:8] none [2:8] none none none none [0:4] [1:4] [7:20] [1:4] [1:2] [1:4] [1:6] [1:5] none [1:6] [1:12] [1:6] [1:4] [1:5] [1:5] [1:5] [1:7] [-18.468034744262695:13.981993675231934] [-14.723208427429199:10.627040863037109] [-10.310186386108398:11.699763298034668] [-7.8283696174621582:10.310257911682129] [-9.6072807312011719:9.2328338623046875] [-8.0900363922119141:16.57765007019043] [-7.335780143737793:5.8458571434020996] [-8.3878936767578125:6.4226036071777344] [-8.4518289566040039:7.699770450592041] [-5.4553799629211426:5.9361748695373535] [-0.45041906833648682:0.51288807392120361] [-0.68818861246109009:0.51629489660263062] [-0.39918535947799683:0.34074655175209045] [-0.595711350440979:0.25662651658058167] [-0.30449989438056946:0.30002698302268982] [-0.26794335246086121:0.33597484230995178] [-0.33094456791877747:0.48840698599815369] [-0.40084412693977356:0.25145360827445984] [-0.27771484851837158:0.26659488677978516] [-0.24749058485031128:0.38582488894462585] [-0.25158563256263733:0.21607595682144165] [-0.30014145374298096:0.35707324743270874] [-0.35830599069595337:0.19921086728572845] [-0.24905210733413696:0.31230509281158447] [-0.23482342064380646:0.2624877393245697] [-0.22648842632770538:0.26324465870857239] [-0.15513604879379272:0.28657063841819763] [-0.24639558792114258:0.22212052345275879] [-0.17947927117347717:0.33270791172981262] [-0.32572025060653687:0.23635797202587128] [-0.26190313696861267:0.20939898490905762] [-0.21048642694950104:0.20444269478321075] [-0.25737380981445312:0.40742817521095276] [-0.17823481559753418:0.1576528400182724] [-0.25615939497947693:0.19612608850002289] [-0.28742524981498718:0.24589303135871887] [-0.19168475270271301:0.18010798096656799] [-0.17329573631286621:0.24041898548603058] [-0.1833028644323349:0.24156151711940765] [-0.15861576795578003:0.19452224671840668] [-0.16623017191886902:0.17292448878288269] [-0.23354022204875946:0.15895016491413116] [-0.11709881573915482:0.15873731672763824] [-0.19992104172706604:0.21312782168388367] [-0.22046488523483276:0.11620821803808212] [-0.38285565376281738:0.17608319222927094] [-0.13804246485233307:0.13919660449028015] [-0.15238027274608612:0.13173738121986389] [-0.13635951280593872:0.10775377601385117] [-0.16318625211715698:0.16907347738742828] [-0.17573530972003937:0.17084750533103943] [-0.20046088099479675:0.15476372838020325] [-0.1486610621213913:0.18351574242115021] [-0.12285617738962173:0.1596672385931015] [-0.16242615878582001:0.14086709916591644] [-0.20833310484886169:0.12997826933860779] [-0.17790605127811432:0.12301091849803925] [-0.16522589325904846:0.1604858934879303] [-0.15033914148807526:0.12956240773200989] [-0.13981261849403381:0.19120091199874878] [2:9] none none none none [0:1] [0:1] none [0:1] [0:0.5] [9.7541946161072701e-05:1] none [0:1]
tree_sizes=2909 3034 3052 3067 3053 3043 3057 3039 3024 3040 3047 3022 3072 3075 3090 3037 3052 3066 3066 3051 3072 3063 3081 3061 3060 3050 3037 3072 3056 3085 3056 3101 3099 3074 3061 3073 3061 3042 3087 3064 3073 3086 3054 3064 3072 3071 3046 3079 3078 3054 3034 3081 3067 3082 3064 3080 3062 2950 3093 3023 3025 3070 2982 3077 3080 3040 3023 3049 3083 3046 3075 2980 3051 3059 3053 2994 3006 3013 3041 3073 2971 3077 3030 3049 3003 2947 3079 2989 2944 3014 3085 2996 3045 3063 2467 2982 2987 2972 2998 3069 3073 2991 2965 3020 2995 2724 2974 2408 2976 2986 3049 3066 2931 2635 2938 3018 3011 2977 2988 3058 2578 3030 3057 2997 2993 3049 2976 2939 3016 3013 2656 3022 3039 2988 2970 2980 3000 2418 2964 2908 2992 2620 2974 3030 3033 3013 2947 2641 2940 3027 2953 2998 3059 2590 2976 2912 2978 3001 2957 3007 2780 2995 3022 3026 2877 2996 2955 2989 2909 2972 2527 2941 2990 3004 2966 2965 2594 3006 2972 2996 2951 2970 2987 3003 2984 2972 3015 3044 2958 2957 2848 2830 2962 2986 2977 2969 2993 2764 2983 3030 3039 2981 2998 2933 2968 2916 3009 2927 2784 3001 3002 3020 3065 3028 2986 2979 2975 3045 2917 2637 3005 2874 3001 2964 3042 3000 2941 2996 3064 2961 2991 2982 3013 2950 2975 2937 2969 2991 3060 3052 2801 2848 2946 2483 3004 3013 3086 3004 2929 2937 2973 2994 3005 2951 3060 2980 2989 2910 2966 2991 3007 3021 2584 2998 2979 2939 2948 2971 2971 3016 2968 3047 2980 2919 2986 2969 3080 2577 2951 2999 2958 2939 2980 2971 2990 3004 2982 3010 2951 2993 2965 2971 2948 2995 2976 2948 3007 2986 2984 2948 2985 2975 2965 2944 2996 3015 3016 2990 2981 3047 3006 3035 2978 2982 3029 3017 3007 2927 2929 3003 2952 2999 2942 3023 3044 2932 3027 2976 3017 2961 2923 3006 2976 2981 2947 2915 2971 2985 3012 3005 2922 2915 2980 3063 3010 2995 3002 2973 2928 3028 3032 2984 2934 2998 3049 3006 2959 2983 3022 2921 2910 3008 2956 3006 2966 2925 2955 2971 2995 2896 2388 2967 3009 2981 2982 2960 2946 2947 2996 2953 2934 2935 3043 2969 2932 3001 3021 3021 3007 3012 2499 3041 2989 2939 2952 3026 3005 2948 3076 2984

Tree=0
num_leaves=31
num_cat=0
split_feature=156 156 140 134 119 156 117 146 105 106 111 99 139 156 103 114 156 109 128 128 156 128 107 148 110 106 43 98 156 30
split_gain=1294.35 269.175 104.943 90.26 104.546 74.575 64.1585 69.0732 79.5944 79.4107 56.5303 50.2222 54.4384 43.7401 38.8834 60.4669 18.6439 15.3076 13.8504 13.046 12.5837 11.8701 14.4891 10.9731 9.70192 9.67981 9.00547 9.23741 8.7784 8.43109
threshold=0.31941699981689459 0.68102538585662853 0.00067048959317617129 -0.021787489764392372 0.086236711591482176 0.067424245178699507 -0.099761873483657823 0.035942802205681808 0.11883830651640893 -0.037349639460444443 -0.040770683437585824 -0.17017871141433713 -0.0085183023475110514 0.78452381491661083 -0.017802598886191841 -0.10285578295588492 0.24537037312984469 -0.056915456429123872 -0.14282456040382382 -0.12908253818750379 0.91757246851921093 0.052479999139904983 0.034808406606316573 4.5000000000000009 0.017363716848194603 0.014161270111799242 0.30833333730697637 -0.16334954649209973 0.50562438368797313 0.33928571641445165
decision_type=2 2 2 2 2 2 2 2 2 2 2 2 2 2 2 2 2 2 2 2 2 2 2 2 2 2 2 2 2 2
left_child=5 2 6 11 10 -1 28 8 -8 -9 -5 -4 -13 18 15 26 29 -17 -3 -15 23 22 -20 -21 -19 -23 -7 -28 -2 -16
right_child=1 13 3 4 -6 14 7 9 -10 -11 -12 12 -14 19 16 17 -18 24 21 20 -22 25 -24 -25 -26 -27 27 -29 -30 -31
leaf_value=0.49391287807947493 0.52149526469025509 0.50594848684553395 0.50048629999224892 0.52933093282740629 0.50313033594384637 0.49895858193183645 0.51876960409816431 0.52140126370295603 0.50499011359446044 0.50662917227060222 0.52247413928182085 0.52587433368595171 0.51463598606614358 0.51448339429469381 0.49522825681956123 0.50089784745948607 0.50671139444914326 0.50410797357947923 0.52855547638765543 0.51027043566563968 0.5393652965654212 0.52599822004850072 0.52289483922007762 0.53215328449059407 0.51293958243696369 0.51471100671897496 0.5348800234159834 0.50909855977727914 0.53008949915031789 0.50109430874735472
leaf_weight=2969 444 86 445 4879 565 23 13496 1251 1136 3330 7841 1536 3609 96 1365 1043 793 553 3913 58 662 372 1596 2964 717 387 248 40 911 1138
leaf_count=2969 444 86 445 4879 565 23 13496 1251 1136 3330 7841 1536 3609 96 1365 1043 793 553 3913 58 662 372 1596 2964 717 387 248 40 911 1138
internal_value=0.517952 0.521102 0.519234 0.521927 0.52417 0.500383 0.516764 0.516022 0.5177 0.510664 0.525105 0.516597 0.51799 0.52837 0.503629 0.508176 0.500011 0.505392 0.525835 0.532631 0.533105 0.526109 0.526917 0.531731 0.509088 0.520237 0.528861 0.531278 0.527278 0.497892
internal_weight=58466 49577 39443 18875 13285 8889 20568 19213 14632 4581 12720 5590 5145 10134 5920 2624 3296 2313 6354 3780 3684 6268 5509 3022 1270 759 311 288 1355 2503
internal_count=58466 49577 39443 18875 13285 8889 20568 19213 14632 4581 12720 5590 5145 10134 5920 2624 3296 2313 6354 3780 3684 6268 5509 3022 1270 759 311 288 1355 2503
is_linear=0
shrinkage=1


Tree=1
num_leaves=31
num_cat=0
split_feature=156 156 140 134 117 156 117 107 120 141 111 156 114 107 158 102 43 107 108 116 156 123 131 156 116 131 43 100 138 158
split_gain=1168.19 242.932 94.7093 81.6191 80.5039 67.46 57.9065 62.5709 64.957 52.6067 52.5445 39.4733 35.6036 35.0649 25.8995 25.4411 25.1381 22.3245 19.5774 19.3777 17.2953 14.0789 13.2642 15.2489 12.7375 13.2135 10.9406 17.1024 10.7417 10.4019
threshold=0.31941699981689459 0.68102538585662853 0.00067048959317617129 -0.019142988137900826 0.089080013334751143 0.10000000521540643 -0.099761873483657823 0.089031934738159194 0.039723290130496032 0.0094055552035570162 -0.040770683437585824 0.78452381491661083 0.057157788425683982 0.0164258535951376 0.19481207430362704 -0.17883677035570142 0.29166667163372045 0.1667558625340462 -0.029750629328191277 -0.0088461921550333483 0.24537037312984469 -0.10530196875333785 0.0170380212366581 0.15990259498357776 -0.0088461921550333483 0.047415083274245269 0.37500000000000006 -0.21934905648231504 -0.00125624070642516 0.92847624421119701
decision_type=2 2 2 2 2 2 2 2 2 2 2 2 2 2 2 2 2 2 2 2 2 2 2 2 2 2 2 2 2 2
left_child=5 2 6 9 10 15 -2 8 -8 13 -5 19 -9 -4 22 16 -1 -6 -11 21 26 -3 23 -7 25 28 -16 -28 -13 -21
right_child=1 11 3 4 17 14 7 12 -10 18 -12 24 -14 -15 20 -17 -18 -19 -20 29 -22 -23 -24 -25 -26 -27 27 -29 -30 -31
leaf_value=-0.021081502035620713 0.0088601155888009941 -0.0059147711506941257 -0.0022612939495102475 0.011171805506455093 -0.015913932777390408 0.011715313262547926 0.0014251694127250449 -0.0096536715575354978 -0.006237440866054926 0.013203764873098942 0.004424723393413316 0.007092022730045654 0.0029560433598761373 -0.014155408474413909 -0.021716339044790298 -0.022645119487804444 0.015487951797437373 0.00013576610845685128 0.0018669259453368188 0.011692012998223195 -0.010057277273480719 0.0058437097849378689 -0.014271760502329365 -0.00656459640060807 0.016839700965144103 -0.00350471081692679 0.0062058083558049343 -0.016245780480846326 0.015251923698063538 0.0036649313598442579
leaf_weight=99 1355 277 2049 4682 481 130 11675 3238 3624 453 7532 645 676 889 980 3628 89 393 2396 2523 1104 3071 489 914 1899 144 90 1366 1092 483
leaf_count=99 1355 277 2049 4682 481 130 11675 3238 3624 453 7532 645 676 889 980 3628 89 393 2396 2523 1104 3071 489 914 1899 144 90 1366 1092 483
internal_value=0 0.00299267 0.0012184 0.00377605 0.0059624 -0.0166911 -0.00112849 -0.00183328 -0.000389667 -0.00116781 0.00701164 0.0098977 -0.00747449 -0.00586272 -0.0129099 -0.0217155 -0.00374474 -0.00869298 0.00367207 0.00748872 -0.0152624 0.00486907 -0.00747311 -0.00428177 0.0139452 0.0110188 -0.0176182 -0.0148539 0.012226 0.0104042
internal_weight=58466 49577 39443 18875 13088 8889 20568 19213 15299 5787 12214 10134 3914 2938 5073 3816 188 874 2849 6354 3540 3348 1533 1044 3780 1881 2436 1456 1737 3006
internal_count=58466 49577 39443 18875 13088 8889 20568 19213 15299 5787 12214 10134 3914 2938 5073 3816 188 874 2849 6354 3540 3348 1533 1044 3780 1881 2436 1456 1737 3006
is_linear=0
shrinkage=0.05


Tree=2
num_leaves=31
num_cat=0
split_feature=156 156 118 139 119 109 119 156 99 142 156 125 156 110 103 104 113 135 116 156 123 116 131 118 115 119 138 32 158 109
split_gain=1054.32 219.251 87.3011 80.8632 88.4383 64.7203 61.7183 61.0993 52.2431 51.8334 43.8012 40.1568 35.6239 34.3501 32.4532 32.8351 33.2183 26.6051 17.4884 15.1902 12.7077 11.4929 11.9281 10.2667 10.2353 9.98509 9.69214 9.51612 9.38568 8.39281
threshold=0.31941699981689459 0.68102538585662853 0.011591962072998287 0.019627070985734466 0.012018702924251558 0.026542088016867641 0.043940069153904922 0.067424245178699507 0.2382973060011864 0.06874913722276689 0.50562438368797313 -0.042923148721456521 0.78452381491661083 -0.049263015389442437 -0.017802598886191841 0.037000160664319999 0.0073324993718415507 0.016575537621974949 -0.0088461921550333483 0.25000001490116125 -0.10530196875333785 -0.0088461921550333483 0.047415083274245269 0.035668652504682548 0.048914516344666488 0.017616628669202331 -0.00125624070642516 25.500000000000004 0.92847624421119701 0.017843122594058517
decision_type=2 2 2 2 2 2 2 2 2 2 2 2 2 2 2 2 2 2 2 2 2 2 2 2 2 2 2 2 2 2
left_child=7 2 3 5 17 9 -7 -1 10 -2 23 -6 18 -12 15 29 24 -5 20 -16 -3 22 26 -4 -17 -22 -14 -10 -20 -9
right_child=1 12 8 4 11 6 -8 14 27 -11 13 -13 21 -15 19 16 -18 -19 28 -21 25 -23 -24 -25 -26 -27 -28 -29 -30 -31
leaf_value=-0.021713076218633706 -0.006997697284218481 -0.0056192460824418134 0.0040410115693639585 -0.0038316052003105569 -0.0079108231454382231 0.0035975089945049147 -0.01015059628431102 -0.015451625017431464 -0.012019414985115336 0.0049241179207249672 0.0025259050042823385 0.009978829028872602 0.0067375314163860521 0.0086345756432226507 -0.017956268140320957 0.011138951015404765 -0.010662558755162628 0.0030139766170923241 0.011107458794396785 -0.0095453583617337908 0.0032005077021871075 0.015997804026217487 -0.0033297183180690314 -0.0016156439680392873 -0.012766100705668063 0.0090180056000816553 0.014489466696807075 -0.00023593928274963697 0.0034817607968117403 -0.0081491789444675857
leaf_weight=2969 8021 277 1185 3552 342 4647 990 1099 541 1028 3474 3733 645 6834 2616 404 451 2363 2523 680 1831 1899 144 2481 50 1240 1092 252 483 620
leaf_count=2969 8021 277 1185 3552 342 4647 990 1099 541 1028 3474 3733 645 6834 2616 404 451 2363 2523 680 1831 1899 144 2481 50 1240 1092 252 483 620
internal_value=0 0.00284307 0.0011575 -0.000662049 0.00280804 -0.00302289 0.00118183 -0.0158567 0.0041983 -0.0056427 0.00490701 0.00847587 0.00940294 0.00657641 -0.0129181 -0.00876381 -0.00104887 -0.00109599 0.00711435 -0.0162232 0.00462554 0.0132481 0.0104679 0.000211574 0.00849077 0.00555154 0.0116149 -0.00828216 0.00988415 -0.012822
internal_weight=58466 49577 39443 24676 9990 14686 5637 8889 14767 9049 13974 4075 10134 10308 5920 2624 905 5915 6354 3296 3348 3780 1881 3666 454 3071 1737 793 3006 1719
internal_count=58466 49577 39443 24676 9990 14686 5637 8889 14767 9049 13974 4075 10134 10308 5920 2624 905 5915 6354 3296 3348 3780 1881 3666 454 3071 1737 793 3006 1719
is_linear=0
shrinkage=0.05


Tree=3
num_leaves=31
num_cat=0
split_feature=156 156 140 141 156 156 134 119 146 111 107 126 99 123 125 105 118 107 124 158 137 102 43 100 119 114 109 156 126 116
split_gain=951.549 200.013 82.646 75.6281 55.7345 53.326 51.2159 61.4748 45.8164 38.0258 36.6679 52.4134 34.8198 33.037 29.524 23.9013 28.1678 23.0124 22.2616 21.6495 21.3131 21.1279 21.4202 17.2704 20.8084 18.6952 16.1824 14.4261 12.4634 13.2182
threshold=0.31941699981689459 0.63333335518836986 0.00067048959317617129 0.0056777766440063724 0.10000000521540643 0.78297099471092235 -0.016322446055710312 0.095051735639572157 -0.0059988799039274445 -0.040770683437585824 0.057291917502880103 0.027948356233537201 0.057652411982417114 0.018145361915230755 -0.045247493311762803 0.058871215209364898 0.014352927915751936 0.0164258535951376 0.068234827369451537 0.19481207430362704 0.0041128669399768123 -0.17883677035570142 0.29166667163372045 0.11951518803834917 -0.0063692175317555657 -0.058635275810956948 0.087394397705793395 0.24537037312984469 0.15196241438388827 -0.081297058612108217
decision_type=2 2 2 2 2 2 2 2 2 2 2 2 2 2 2 2 2 2 2 2 2 2 2 2 2 2 2 2 2 2
left_child=4 2 8 6 21 15 17 -8 14 26 11 -10 -12 -11 -2 23 20 -4 -16 -6 -17 22 -1 25 -25 -3 -5 -21 29 -7
right_child=1 5 3 9 19 28 7 -9 10 13 12 -13 -14 -15 18 16 -18 -19 -20 27 -22 -23 -24 24 -26 -27 -28 -29 -30 -31
leaf_value=-0.019257701036610429 -0.0034635130007882329 0.0038154257239586564 -0.0029842401853076134 0.0082959557260256622 -0.0066558502142906751 0.003745584316635331 0.0039962517528796225 -0.014755412385044468 0.00036840414591629236 0.0072805422592577065 -0.00096465108812928812 -0.0088449284150078529 -0.011965741512242745 -0.0011779108604452477 0.0050908789826643701 -0.0049123117010142093 0.0080252143106850377 -0.013359004431784508 -0.0064197574069450375 -0.015929672533928966 0.0056275778461454366 -0.020478352809210995 0.014499043058155046 0.0078612038851649212 -0.001416756312675034 0.010545188367215158 0.015799595754442019 -0.0090233646240903496 -0.0078283066675569005 0.013760781087664879
leaf_weight=99 1977 1394 1842 2143 1533 365 5310 476 6272 2797 1095 2047 2102 1964 3985 1404 1300 754 469 2436 728 3628 89 1360 1086 4006 1086 1104 74 3541
leaf_count=99 1977 1394 1842 2143 1533 365 5310 476 6272 2797 1095 2047 2102 1964 3985 1404 1300 754 469 2436 728 3628 89 1360 1086 4006 1086 1104 74 3541
internal_value=0 0.00270095 0.000583195 0.00315225 -0.0150641 0.0074639 -0.000165059 0.00245228 -0.00176014 0.00663286 -0.00364812 -0.00189822 -0.00819963 0.00379032 0.00161991 0.00570694 0.00222438 -0.00600028 0.00387747 -0.011627 -0.00131079 -0.0196312 -0.00325212 0.00722955 0.00374006 0.00880904 0.010822 -0.0137779 0.0124408 0.0128264
internal_weight=58466 49577 34319 16372 8889 15258 8382 5786 17947 7990 11516 8319 3197 4761 6431 11278 3432 2596 4454 5073 2132 3816 188 7846 2446 5400 3229 3540 3980 3906
internal_count=58466 49577 34319 16372 8889 15258 8382 5786 17947 7990 11516 8319 3197 4761 6431 11278 3432 2596 4454 5073 2132 3816 188 7846 2446 5400 3229 3540 3980 3906
is_linear=0
shrinkage=0.05


Tree=4
num_leaves=31
num_cat=0
split_feature=156 156 118 129 109 127 156 156 111 99 156 132 139 110 105 118 158 137 125 102 43 100 119 114 156 126 113 131 156 156
split_gain=858.789 180.517 61.4624 76.5061 68.8333 78.409 50.2963 48.1246 46.4958 39.9592 33.6228 33.0346 32.8164 27.1947 21.5701 25.4216 19.537 19.2358 19.2282 19.0668 19.3367 15.5861 18.7806 16.8707 13.0169 11.2519 11.2432 11.1568 12.7357 10.9577
threshold=0.31941699981689459 0.63333335518836986 0.011591962072998287 -0.012210955843329428 0.026739027351140979 -0.04490897245705127 0.10000000521540643 0.78297099471092235 0.00094262036145664762 0.2382973060011864 0.50562438368797313 -0.01701740454882383 0.02493469882756472 -0.049263015389442437 0.058871215209364898 0.014352927915751936 0.19481207430362704 0.0041128669399768123 0.048308743163943298 -0.17883677035570142 0.29166667163372045 0.11951518803834917 -0.0063692175317555657 -0.058635275810956948 0.24537037312984469 0.15196241438388827 -0.050465729087591164 0.0170380212366581 0.15990259498357776 0.91757246851921093
decision_type=2 2 2 2 2 2 2 2 2 2 2 2 2 2 2 2 2 2 2 2 2 2 2 2 2 2 2 2 2 2
left_child=6 2 3 8 12 -6 19 14 11 10 -4 -2 -5 -12 21 17 27 -16 -10 20 -1 23 -23 -3 -18 29 -17 28 -8 -9
right_child=1 7 9 4 5 -7 16 25 18 -11 13 -13 -14 -15 15 26 24 -19 -20 -21 -22 22 -24 -25 -26 -27 -28 -29 -30 -31
leaf_value=-0.018296757304380015 -0.00012788347872028335 0.0036246816228352151 0.00010945584894016503 -0.0092035881122259407 -0.011327767529104672 0.0035789844732921857 0.011223153455398217 0.010980312470631731 -0.00058450904304041746 -0.0075830422354428301 0.001802582056449363 0.0075252415560209248 -0.0012334965450121972 0.0079556183961537134 -0.0046667311893091399 -0.0052240507207195787 -0.015133254010621459 0.0053462762788472201 -0.010135178060782842 -0.019454492260994327 0.013775716719296949 0.0074682011802410606 -0.0013459315124127347 0.01001795523890843 -0.0085722782113433326 -0.0074379462241939602 0.0093048139495022567 -0.012558016623884366 -0.0054828829297462155 0.01804490983038155
leaf_weight=99 2164 1394 3666 4915 1112 4264 130 3241 2925 783 2708 4040 1754 5345 1404 150 2436 728 643 3628 89 1360 1086 4006 1104 74 1150 489 914 665
leaf_count=99 2164 1394 3666 4915 1112 4264 130 3241 2925 783 2708 4040 1754 5345 1404 150 2436 728 643 3628 89 1360 1086 4006 1104 74 1150 489 914 665
internal_value=0 0.00256591 0.000554 -0.00104759 -0.00371463 0.000494357 -0.014311 0.00709078 0.00223931 0.00334928 0.00408026 0.00485505 -0.00710824 0.00588724 0.00542167 0.00211319 -0.0110458 -0.00124513 -0.00230754 -0.0186497 -0.00308844 0.00686813 0.00355298 0.00836866 -0.0130891 0.0118187 0.00762402 -0.0063231 -0.00339609 0.0121852
internal_weight=58466 49577 34319 21817 12045 5376 8889 15258 9772 12502 11719 6204 6669 8053 11278 3432 5073 2132 3568 3816 188 7846 2446 5400 3540 3980 1300 1533 1044 3906
internal_count=58466 49577 34319 21817 12045 5376 8889 15258 9772 12502 11719 6204 6669 8053 11278 3432 5073 2132 3568 3816 188 7846 2446 5400 3540 3980 1300 1533 1044 3906
is_linear=0
shrinkage=0.05


Tree=5
num_leaves=31
num_cat=0
split_feature=101 118 115 135 113 116 116 143 134 118 32 98 111 141 126 123 130 88 140 144 89 107 88 39 88 99 137 101 103 103
split_gain=501.526 122.298 109.181 89.07 74.2362 72.2451 96.3857 52.3776 49.5941 48.0791 38.2579 37.7776 35.1925 37.4215 33.27 31.2603 29.2414 26.1922 41.3494 19.6022 18.0922 16.6613 16.0976 13.7415 13.6562 12.2716 11.692 11.2044 9.91962 9.85397
threshold=-0.38175280392169947 0.010252465028315784 0.041666418313980109 0.022777261212468151 -0.06334108859300612 -0.0063080973923206321 0.0073037163820117721 -0.046019820496439927 0.057078529149293906 0.035668652504682548 12.500000000000002 -0.07946345210075377 -0.11662654206156729 0.021572517231106762 0.029012163169682029 -0.0014609157224185763 0.030219797976315025 0.45152360200881964 0.084066092967987074 0.0028945592930540447 1.84378057718277 0.017087180167436603 -5.1516621112823477 0.68333333730697643 -5.107353448867797 -0.060067646205425256 -0.0067223468795418731 -0.56050291657447804 -0.017802598886191841 0.018417577259242538
decision_type=2 2 2 2 2 2 2 2 2 2 2 2 2 2 2 2 2 2 2 2 2 2 2 2 2 2 2 2 2 2
left_child=10 2 3 5 15 7 -7 -2 11 16 -1 -5 24 -14 19 25 22 28 -19 23 29 -18 -6 -4 -11 -3 -21 -12 -16 -17
right_child=1 4 14 8 9 6 -8 -9 -10 12 27 -13 13 -15 17 20 21 18 -20 26 -22 -23 -24 -25 -26 -27 -28 -29 -30 -31
leaf_value=-0.017219080669604897 0.0053946056640705566 -0.005414572341795371 -0.0030715422789813719 0.0019664075889219796 0.0047901093309260581 0.0094779882430759462 -0.0039992539944428106 -0.0092302523309206498 -0.012631139887710358 0.00076081255568263677 0.0018511956475756983 0.012747805401737934 8.9236888376406873e-05 0.0065451974876638234 0.010040166071421865 -0.0056724986926898879 -0.0031477494948063539 -0.009703509711117551 0.010080172662301538 0.0101739034694603 0.00059465358495133867 0.0090183421983855896 0.011920964338872526 0.0049572719674122355 0.011332465939047057 0.0081256732255202968 0.00501905965315292 -0.0096905613876978394 0.001362862666752558 -0.014022209815745824
leaf_weight=4037 670 221 825 5093 973 1678 6331 7034 504 371 291 967 6281 3494 485 783 685 1155 342 2373 649 477 4311 1502 1758 683 2062 751 1031 649
leaf_count=4037 670 221 825 5093 973 1678 6331 7034 504 371 291 967 6281 3494 485 783 685 1155 342 2373 649 477 4311 1502 1758 683 2062 751 1031 649
internal_value=0 0.0014283 -0.000524012 -0.00245721 0.00436152 -0.00450074 -0.00117479 -0.0079576 0.00243386 0.00555117 -0.0150137 0.00368799 0.00366702 0.00239747 0.00388115 -0.00294992 0.00902968 -0.000487252 -0.00517971 0.00582831 -0.00632321 0.00184281 0.0106091 0.00210862 0.00949284 0.00480951 0.00777868 -0.00646275 0.00414317 -0.00946161
internal_weight=58466 53387 32052 22277 21335 15713 8009 7704 6564 18350 5079 6060 11904 9775 9775 2985 6446 3013 1497 6762 2081 1162 5284 2327 2129 904 4435 1042 1516 1432
internal_count=58466 53387 32052 22277 21335 15713 8009 7704 6564 18350 5079 6060 11904 9775 9775 2985 6446 3013 1497 6762 2081 1162 5284 2327 2129 904 4435 1042 1516 1432
is_linear=0
shrinkage=0.05


Tree=6
num_leaves=31
num_cat=0
split_feature=156 156 118 129 109 127 119 107 156 117 156 99 144 156 136 103 114 116 126 135 104 109 156 110 146 110 105 43 157 98
split_gain=719.975 160.271 63.6039 65.9831 57.5706 66.8449 43.7103 50.5405 40.9416 40.4007 39.9868 28.8686 29.2373 24.8317 24.5109 22.4749 40.8846 16.6862 13.0343 20.9356 11.0828 10.5402 10.082 9.56683 8.78078 7.95815 7.41636 7.25934 7.2512 6.97567
threshold=0.31941699981689459 0.68498390913009655 0.011591962072998287 -0.012210955843329428 0.026739027351140979 -0.04490897245705127 0.0018639607587829234 -0.016021930612623688 0.067424245178699507 -0.043325796723365777 0.50562438368797313 0.2382973060011864 -0.02083261031657457 0.86388340592384349 0.023098234087228778 -0.017802598886191841 -0.10285578295588492 -0.0088461921550333483 0.026521055027842525 -0.01823401357978582 0.18483847379684451 -0.056915456429123872 0.25000001490116125 -0.044580912217497819 -0.018069964833557602 0.017363716848194603 0.063742903992533698 0.30833333730697637 0.3579214364290238 -0.16334954649209973
decision_type=2 2 2 2 2 2 2 2 2 2 2 2 2 2 2 2 2 2 2 2 2 2 2 2 2 2 2 2 2 2
left_child=8 2 3 6 9 -6 14 -8 -1 -5 23 12 -12 17 -2 16 27 18 20 -20 -3 -18 -17 -4 -25 -23 -19 -10 -13 -29
right_child=1 13 10 4 5 -7 7 -9 15 -11 11 28 -14 -15 -16 22 21 26 19 -21 -22 25 -24 24 -26 -27 -28 29 -30 -31
leaf_value=-0.017897895770517567 -0.0031491152207924924 0.0075657060167103234 -0.0042977391487381911 0.0013125922255095724 -0.0095428767073076643 0.0035153728248141637 0.010820401443510647 0.0015082891420785186 -0.017070346563283743 -0.0075920972713622546 0.0010482458014455674 -0.0026671456628447696 0.0070640699156367618 0.014258992862686289 0.0048963951850203129 -0.014860689521531327 -0.013258536324009263 0.010586449010070123 -0.0047036799601779186 0.008080106863714966 -0.0055992917380082129 -0.010970529766796414 -0.0080046215256190292 -0.0030449540805048986 0.00283898589166249 -0.0029744013082246439 0.0047623123451443899 0.015069822110550888 -0.0178013640648199 -0.007323154187599077
leaf_weight=2969 3848 2789 1259 1605 1238 4699 2367 3794 23 6154 2706 172 7988 1438 1255 2616 1043 3086 742 563 169 553 680 939 1949 717 669 248 148 40
leaf_count=2969 3848 2789 1259 1605 1238 4699 2367 3794 23 6154 2706 172 7988 1438 1255 2616 1043 3086 742 563 169 553 680 939 1949 717 669 248 148 40
internal_value=0 0.00234942 0.000969119 -0.000582268 -0.00291379 0.000791358 0.00225221 0.00508696 -0.0131035 -0.00574947 0.00352352 0.00509919 0.00554235 0.00820527 -0.00116936 -0.0106976 -0.00723974 0.0071186 0.00497502 0.000808033 0.00681153 -0.00952942 -0.0134483 -0.000660152 0.000924081 -0.0064613 0.00955045 0.00976834 -0.00968908 0.0119394
internal_weight=58466 49577 40121 24960 13696 5937 11264 6161 8889 7759 15161 11014 10694 9456 5103 5920 2624 8018 4263 1305 2958 2313 3296 4147 2888 1270 3755 311 320 288
internal_count=58466 49577 40121 24960 13696 5937 11264 6161 8889 7759 15161 11014 10694 9456 5103 5920 2624 8018 4263 1305 2958 2313 3296 4147 2888 1270 3755 311 320 288
is_linear=0
shrinkage=0.05


Tree=7
num_leaves=31
num_cat=0
split_feature=156 156 132 119 145 118 99 117 156 156 114 128 123 116 115 118 103 114 109 107 137 109 109 148 26 116 53 98 98 124
split_gain=650.131 145.006 49.0381 49.3782 49.9297 43.451 47.0697 40.2248 39.1528 38.612 35.1125 31.886 26.1078 16.6074 16.8422 26.3206 15.2823 22.8612 14.7693 14.2158 11.9862 10.4186 10.4148 10.3783 12.083 10.1401 9.93289 20.3248 19.5711 9.8603
threshold=0.33333332836627966 0.63333335518836986 0.076423626393079772 0.015892627649009231 -0.0067726231645792714 0.011591962072998287 0.025321759283542637 -0.042784396559000008 0.78297099471092235 0.10000000521540643 -0.0039539968129247418 -0.048953093588352196 -0.0064196086023002854 -0.010366351343691347 0.041666418313980109 0.011307402048259975 -0.017802598886191841 -0.10285578295588492 -0.044901743531227105 -0.052894946187734597 0.04976578243076802 -0.01200424926355481 -0.056915456429123872 4.5000000000000009 0.90384614467620861 -0.081297058612108217 1.5000000000000002 0.45843879878520971 0.45843879878520971 -0.12920850887894628
decision_type=2 2 2 2 2 2 2 2 2 2 2 2 2 2 2 2 2 2 2 2 2 2 2 2 2 2 2 2 2 2
left_child=9 2 3 5 11 10 -7 26 13 19 -2 -5 -6 14 15 -3 17 -11 -9 20 -1 -15 -19 24 -10 -25 27 -4 -28 -27
right_child=1 8 7 4 12 6 -8 18 23 16 -12 -13 -14 21 -16 -17 -18 22 -20 -21 -22 -23 -24 25 -26 29 28 -29 -30 -31
leaf_value=-0.016299365688265635 -0.0053541877482275761 -0.0033634614319498894 0.0038225902449124183 0.0052254157119463905 0.0083575534835827608 0.0063647532899629329 -0.0020943476879908534 0.00030284973438606113 -0.026043000906261046 0.0083189109326614174 -2.7014792600954378e-05 -0.0033740990767508841 0.002367719014033588 0.0089771938327961303 0.0066475895739485386 0.0049284441039221128 -0.012073834680797951 -0.012152516776689944 -0.012460374744946011 -0.016908426514712461 0.0080818625452778476 0.0045881326218889544 -0.0051437047963189507 0.0027836187953595598 0.0198554081691278 -0.0083384061491339669 0.0007680374612089694 -0.027643967659724746 0.022144789018274588 0.012033149186213241
leaf_weight=94 5474 1817 190 1611 4550 3741 2933 267 40 231 7116 3256 3036 2719 2016 2021 2782 946 1472 3614 108 2705 1215 353 22 60 347 70 155 3505
leaf_count=94 5474 1817 190 1611 4550 3741 2933 267 40 231 7116 3256 3036 2719 2016 2021 2782 946 1472 3614 108 2705 1215 353 22 60 347 70 155 3505
internal_value=0 0.00224748 0.00043977 0.000971441 0.00342521 -0.000614532 0.00264656 -0.00630028 0.0063011 -0.0123689 -0.00234366 -0.000526494 0.00596114 0.00479551 0.00294697 0.00100159 -0.00955178 -0.00661567 -0.0104981 -0.0161866 -0.00324403 0.0067895 -0.00821504 0.0105657 -0.00966461 0.0108876 0.0032734 -0.0046447 0.00738458 0.0116884
internal_weight=58466 49476 34218 31717 12453 19264 6674 2501 15258 8990 12590 4867 7586 11278 5854 3838 5174 2392 1739 3816 202 5424 2161 3980 62 3918 762 260 502 3565
internal_count=58466 49476 34218 31717 12453 19264 6674 2501 15258 8990 12590 4867 7586 11278 5854 3838 5174 2392 1739 3816 202 5424 2161 3980 62 3918 762 260 502 3565
is_linear=0
shrinkage=0.05


Tree=8
num_leaves=31
num_cat=0
split_feature=101 107 14 111 158 125 111 105 138 141 125 132 109 101 37 98 109 111 30 158 124 146 122 96 88 142 37 12 93 134
split_gain=369.684 93.5482 70.0257 44.6144 31.6283 30.8085 26.2661 33.9958 28.2163 31.2546 27.5512 23.9443 23.4635 18.197 17.3059 17.7968 13.192 11.2473 9.93929 9.80304 8.256 7.0351 6.41764 4.27912 3.94547 3.77793 3.61205 3.36233 3.32965 3.11227
threshold=-0.38175280392169947 0.23072079569101336 3.1426379680633549 -0.095770284533500658 0.85283344984054577 -0.0084210466593503935 -0.095770284533500658 0.14296698570251468 0.0050970925949513921 -0.034222839400172227 0.011500932741910221 -0.0033663354115560646 -0.053827919065952294 0.12243635207414628 0.55833333730697643 0.020352489314973358 -0.065438810735940919 -0.18130289763212201 0.33928571641445165 0.30847640335559851 0.033880682662129409 0.0091885863803327101 0.033114431425929076 0.94380733370780956 -15.480787754058836 0.04059641249477864 0.44166666269302374 0.1455233842134476 3.2455766201019292 0.078033160418272032
decision_type=2 2 2 2 2 2 2 2 2 2 2 2 2 2 2 2 2 2 2 2 2 2 2 2 2 2 2 2 2 2
left_child=4 2 3 12 18 11 7 16 10 -10 -8 -5 19 -7 15 24 -4 -14 -1 -2 -16 27 25 28 -3 -20 -26 29 -22 -6
right_child=1 14 6 5 21 13 8 -9 9 -11 -12 -13 17 -15 20 -17 -18 -19 22 -21 23 -23 -24 -25 26 -27 -28 -29 -30 -31
leaf_value=-0.015986539538043919 -0.0071961194108609424 0.0044292453046313558 0.0028798255716715906 -0.0065926839125562539 -0.011780206070137704 0.00010575427842724035 -0.0011763143466516732 -0.016688125734035365 -0.0019060653541347035 0.0054857264101979223 0.0037025996869168645 -0.0012761086501772126 -0.00093140869454485836 0.0089744812540978828 0.001694281413773912 0.0015737168926569782 0.0097792841138105713 0.0096338932423820078 -0.012735095919458241 0.0031637770474491479 -0.013927152468641471 0.0019730998792062459 0.0010135123175663561 0.0015419356460020376 -0.012921940329464976 -0.002537002567194563 -0.0084080269881345159 0.0014984748862457997 0.0043250190678666882 0.0021044411329608974
leaf_weight=3172 404 40 915 3512 295 9688 6336 143 1652 10595 5324 5342 291 615 685 326 2885 1833 943 524 200 334 108 83 1269 102 697 79 28 46
leaf_count=3172 404 40 915 3512 295 9688 6336 143 1652 10595 5324 5342 291 615 685 326 2885 1833 943 524 200 334 108 83 1269 102 697 79 28 46
internal_value=0 0.00122631 0.00176605 -0.000327881 -0.01289 -0.00122259 0.00343603 0.00721776 0.00281205 0.00448822 0.00105101 -0.00338563 0.00528616 0.00063579 -0.00689058 -0.00924715 0.00811952 0.00818408 -0.0145378 -0.00134154 -0.00136724 -0.00343039 -0.0105458 -0.00812327 -0.0110081 -0.0117451 -0.0113252 -0.00773825 -0.0116619 -0.00989241
internal_weight=58466 53387 50059 22209 5079 19157 27850 3943 23907 12247 11660 8854 3052 10303 3328 2332 3800 2124 4325 928 996 754 1153 311 2006 1045 1966 420 228 341
internal_count=58466 53387 50059 22209 5079 19157 27850 3943 23907 12247 11660 8854 3052 10303 3328 2332 3800 2124 4325 928 996 754 1153 311 2006 1045 1966 420 228 341
is_linear=0
shrinkage=0.05


Tree=9
num_leaves=31
num_cat=0
split_feature=101 118 115 114 107 113 129 158 98 158 118 98 158 104 123 99 114 43 88 111 130 111 98 137 32 88 146 105 157 142
split_gain=333.641 86.6648 81.3462 71.4565 63.5731 59.7369 57.4831 43.0053 33.1059 31.2491 30.2409 28.7158 28.5477 25.4028 25.0561 19.9989 22.5865 18.5419 16.0371 13.8796 12.0854 12.0369 10.1539 9.21171 8.96719 8.21606 6.34854 6.15043 5.19149 4.85711
threshold=-0.38175280392169947 0.010252465028315784 0.041666418313980109 0.095850307494401946 0.085817344486713423 -0.06334108859300612 -0.012210955843329428 0.45051997900009161 0.011340043041855099 0.14976064115762713 0.035668652504682548 -0.35720263421535486 0.85283344984054577 -0.13551256060600278 -0.0014609157224185763 0.27014258503913885 -0.058635275810956948 0.5416666865348817 4.034795045852662 -0.092824518680572496 0.030219797976315025 0.12289815023541452 -0.15802204608917234 -0.010461538564413784 7.5000000000000009 -4.0904121398925772 0.0091885863803327101 -0.014758432283997534 0.38648086786270147 0.03690332546830178
decision_type=2 2 2 2 2 2 2 2 2 2 2 2 2 2 2 2 2 2 2 2 2 2 2 2 2 2 2 2 2 2
left_child=12 2 3 4 6 14 -2 10 -6 23 20 18 24 -13 22 16 -9 21 -11 -12 -7 -16 -3 27 -1 -5 -14 -4 -27 -26
right_child=1 5 9 25 8 7 -8 15 -10 11 19 13 26 -15 17 -17 -18 -19 -20 -21 -22 -23 -24 -25 29 28 -28 -29 -30 -31
leaf_value=-0.015187263240211333 0.0025603354114280084 0.0092740992574917025 -0.0062373027516482438 0.0015852774654530795 -0.0079544735261047311 0.0074655875597424044 -0.003760517486523644 0.0032874060504348847 0.010980260820065212 -0.00077175151364771962 0.0045854804264152567 -0.002051854750223351 -0.0073503417481997659 0.0063903360590374658 -0.012116506175982091 -0.010563545632603632 0.0086448560807522636 0.0014804552257293288 -0.018777201679893579 -0.0016176293353673328 -0.00093145456213066739 -0.0025343441810176588 -0.0013144481974013487 -0.007499640269238628 -0.011326805773275446 0.0089449868006266468 0.0018745038927455958 0.0040585312785949733 0.017448058263639498 -0.0019229512571567492
leaf_weight=3172 6174 456 216 320 5818 2496 8615 2712 240 417 1155 1025 420 6772 991 161 7201 598 176 4109 516 492 448 729 992 882 334 440 228 161
leaf_count=3172 6174 456 216 320 5818 2496 8615 2712 240 417 1155 1025 420 6772 991 161 7201 598 176 4109 516 492 448 729 992 882 334 440 228 161
internal_value=0 0.001165 -0.000478452 -0.00214714 -0.00288901 0.0036342 -0.0011214 0.00470139 -0.00720317 0.00332391 0.00202989 0.00447278 -0.0122456 0.00527985 -0.00292442 0.0068955 0.00717976 -0.00594449 -0.00612865 -0.000255502 0.00602542 -0.00894167 0.00402202 -0.00363173 -0.013811 0.00866349 -0.00325796 0.000659952 0.0106989 -0.0100186
internal_weight=58466 53387 32052 22277 20847 21335 14789 18350 6058 9775 8276 8390 5079 7797 2985 10074 9913 2081 593 5264 3012 1483 904 1385 4325 1430 754 656 1110 1153
internal_count=58466 53387 32052 22277 20847 21335 14789 18350 6058 9775 8276 8390 5079 7797 2985 10074 9913 2081 593 5264 3012 1483 904 1385 4325 1430 754 656 1110 1153
is_linear=0
shrinkage=0.05


Tree=10
num_leaves=31
num_cat=0
split_feature=156 156 140 141 134 132 144 122 147 156 125 156 140 145 156 130 103 107 126 115 126 99 128 88 30 26 157 91 148 43
split_gain=507.202 121.203 51.7528 48.6584 39.7243 37.4155 32.7344 34.5161 34.4702 29.012 24.8511 23.621 21.7655 21.1888 18.7666 18.1132 13.0838 13.0619 32.8638 13.3024 11.3688 10.4133 8.92505 7.56244 6.88429 6.82587 29.7171 6.77881 6.65065 6.28479
threshold=0.33333332836627966 0.66666671633720409 0.00067048959317617129 0.0056777766440063724 -0.016322446055710312 0.045445743948221214 0.026615653187036518 -0.042947642505168908 -0.036091780290007584 0.24537037312984469 0.039756175130605705 0.86388340592384349 -0.075747456401586519 -0.012228403706103562 0.43377195298671728 0.015956985764205459 0.029298742301762108 -0.052894946187734597 -0.0016704495646990833 0.038903968408703811 0.15196241438388827 -0.67568367719650257 0.052479999139904983 0.23002053797245028 0.30357143282890325 0.63461539149284374 0.41530311107635504 0.52444039285182964 4.5000000000000009 0.44166666269302374
decision_type=2 2 2 2 2 2 2 2 2 2 2 2 2 2 2 2 2 2 2 2 2 2 2 2 2 2 2 2 2 2
left_child=9 2 6 4 15 -6 7 12 -9 17 13 20 -2 -5 -8 -4 -16 18 -1 -20 21 27 -23 -12 -19 28 29 -3 -11 -27
right_child=1 11 3 10 5 -7 14 8 -10 25 23 -13 -14 -15 16 -17 -18 24 19 -21 -22 22 -24 -25 -26 26 -28 -29 -30 -31
leaf_value=-0.014640598290113441 0.0057346137750174204 -0.013500272772750621 -0.0088411756541436747 4.0941631063611869e-05 0.0032253559056106525 -0.011560791302506833 -0.0049376262348912736 0.0060553749551896874 -0.0019779088296123862 -0.022457469868467007 0.0070728966823568745 0.012600153962892581 -0.0077687305937984563 0.0058467073821909746 0.0022117984006980729 -0.00090549171569912618 0.0088325718224126146 -0.01481526997275151 0.0091928293315791786 -0.014308964532113911 -0.0076447280627054085 0.0067666769411045789 0.0018781229752508543 0.013320213968811013 -0.011372586737012733 -0.0085384574096246599 0.022171728681704663 0.0041396820624604504 -0.0068820008008606635 -0.0022351214755297641
leaf_weight=560 328 111 1416 2407 6244 459 724 1539 10075 111 967 1438 3251 4537 3142 1464 980 3416 300 75 156 8090 1059 983 2569 1033 98 106 183 645
leaf_count=560 328 111 1416 2407 6244 459 724 1539 10075 111 967 1438 3251 4537 3142 1464 980 3416 300 75 156 8090 1059 983 2569 1033 98 106 183 645
internal_value=0 0.00198511 0.00066483 0.0025736 0.000101152 0.00221179 -0.00109491 -0.00223639 -0.000912882 -0.010925 0.00523696 0.00662432 -0.00652956 0.00383503 0.00248272 -0.00480928 0.00378744 -0.0124792 -0.00696964 0.00447402 0.00572109 0.0059444 0.00620143 0.0102258 -0.0133388 -0.00572641 -0.00455285 -0.00486462 -0.0127908 -0.00611908
internal_weight=58466 49476 38516 18477 9583 6703 20039 15193 11614 8990 8894 10960 3579 6944 4846 2880 4122 6920 935 375 9522 9366 9149 1950 5985 2070 1776 217 294 1678
internal_count=58466 49476 38516 18477 9583 6703 20039 15193 11614 8990 8894 10960 3579 6944 4846 2880 4122 6920 935 375 9522 9366 9149 1950 5985 2070 1776 217 294 1678
is_linear=0
shrinkage=0.05


Tree=11
num_leaves=31
num_cat=0
split_feature=156 156 132 156 111 99 108 134 117 156 108 146 156 105 16 156 26 144 143 139 104 146 26 43 118 53 98 98 157 88
split_gain=457.768 110.166 39.1869 34.6934 31.4589 42.9357 49.1441 38.05 31.1244 26.1797 24.0723 22.5372 17.5744 14.2176 20.2865 21.4067 18.5393 13.9191 13.4222 12.9741 12.0001 12.0914 14.8577 10.4159 9.83424 9.27696 19.2141 15.9824 9.11979 8.90089
threshold=0.33333332836627966 0.62082910537719738 0.076423626393079772 0.78297099471092235 -0.016442509833723303 0.036027031019330032 -0.027731678448617455 0.061845526099205024 -0.042784396559000008 0.24537037312984469 0.015027316752821209 0.044249938800930984 0.4224828332662583 0.058871215209364898 0.7022727131843568 0.6404196321964265 0.86538460850715648 -0.029235117137432095 0.036943504586815841 -0.030756087042391297 0.13796157389879229 -0.047312391921877854 0.59615385532379161 0.32500000298023229 -0.073296450078487382 1.5000000000000002 0.45843879878520971 0.45843879878520971 0.31590531766414648 -0.23899292200803754
decision_type=2 2 2 2 2 2 2 2 2 2 2 2 2 2 2 2 2 2 2 2 2 2 2 2 2 2 2 2 2 2
left_child=9 2 4 13 5 7 -7 -2 25 20 11 -6 -12 17 16 -16 -15 19 -19 -3 -1 -22 -23 -24 -10 26 -4 -27 -5 -26
right_child=1 3 8 28 10 6 -8 -9 24 -11 12 -13 -14 14 15 -17 -18 18 -20 -21 21 22 23 -25 29 27 -28 -29 -30 -31
leaf_value=-0.012338324531918677 0.0056163215087856435 -0.0041509696534465122 0.0033131070959484909 0.0097620201694767639 -0.0014714827248416093 0.0064580606435584503 -0.0034187888224438221 -0.0073746087379589174 0.0061196259790607241 -0.0054404222724224443 -0.0041001925723797954 -0.008479140491058924 0.0028704637322763751 -0.0040051445057222726 0.012892628158305289 0.0017943111396541704 0.016182705441470002 0.0073851281380591903 0.0013429591929536055 0.0040719727496269648 -0.017066491963235599 -0.016700127212292463 -0.01659011666293014 0.015976157463673087 -0.0064330556626047159 0.00041929304164939178 -0.027413576263987438 0.019872702108984144 -0.0021149358981926835 -0.014014545264532828
leaf_weight=6567 7811 658 184 3812 8144 1724 4671 607 92 2070 1108 1336 4903 1627 576 1773 122 5139 1122 1765 105 68 29 151 700 332 70 155 168 877
leaf_count=6567 7811 658 184 3812 8144 1724 4671 607 92 2070 1108 1336 4903 1627 576 1773 122 5139 1122 1765 105 68 29 151 700 332 70 155 168 877
internal_value=0 0.00188588 0.000196852 0.00518197 0.000685028 0.00233255 -0.000755232 0.00467883 -0.00593908 -0.010379 -0.00089007 -0.00245975 0.00158465 0.00391186 0.00148254 0.00451873 -0.00259241 0.00505762 0.00630322 0.00183669 -0.0118554 -0.00285442 0.00315155 0.010689 -0.00972547 0.0025828 -0.00515011 0.00662671 0.00925934 -0.0106537
internal_weight=58466 49476 32714 16762 30304 14813 6395 8418 2410 8990 15491 9480 6011 12782 4098 2349 1749 8684 6261 2423 6920 353 248 180 1669 741 254 487 3980 1577
internal_count=58466 49476 32714 16762 30304 14813 6395 8418 2410 8990 15491 9480 6011 12782 4098 2349 1749 8684 6261 2423 6920 353 248 180 1669 741 254 487 3980 1577
is_linear=0
shrinkage=0.05


Tree=12
num_leaves=31
num_cat=0
split_feature=156 156 140 141 134 119 117 146 129 130 111 156 123 138 156 116 88 107 126 104 126 143 123 156 100 26 104 104 125 115
split_gain=413.146 100.387 42.6582 43.9234 35.815 37.6062 34.0598 34.9883 45.121 25.6785 25.1069 23.6261 23.3971 17.7476 17.3278 12.4059 11.9431 11.2672 28.4926 13.5109 11.0761 12.7142 8.35451 6.38804 6.61559 6.16384 25.1333 6.00289 5.39302 5.19869
threshold=0.33333332836627966 0.68498390913009655 0.00067048959317617129 0.0056777766440063724 -0.016322446055710312 0.095051735639572157 -0.099761873483657823 0.035942802205681808 -0.0222398592159152 -0.0044476399198174468 -0.040770683437585824 0.24537037312984469 0.018145361915230755 -0.0056968422140926114 0.86388340592384349 -0.0088461921550333483 -1.0514629185199735 -0.052894946187734597 -0.0016704495646990833 0.041726076975464828 -0.029424468986690041 -0.01607183180749416 -0.094606917351484285 0.10000000521540643 0.018986019305884842 0.63461539149284374 0.30670113861560827 0.30670113861560827 -0.063011132180690752 -0.0050493367016315452
decision_type=2 2 2 2 2 2 2 2 2 2 2 2 2 2 2 2 2 2 2 2 2 2 2 2 2 2 2 2 2 2
left_child=11 2 6 4 13 -6 -2 9 -9 -8 16 17 -12 -4 15 20 -5 18 -1 -20 22 -22 -3 -19 -25 27 -27 -13 -26 -17
right_child=1 14 3 10 5 -7 7 8 -10 -11 12 25 -14 -15 -16 29 -18 23 19 -21 21 -23 -24 24 28 26 -28 -29 -30 -31
leaf_value=-0.013288277543626357 0.006781586885471075 -0.012255998700857163 -0.00056512678840086553 0.0044154055973821106 0.0030841162062525207 -0.011303526630326771 -0.0029713015641393142 0.003760249639255084 -0.0079515701442414294 0.0013458586231832491 0.0056029340280691828 -0.0062665523668877197 -0.00098552787786683493 -0.0082198781843388843 0.011482200735348868 0.009465381035338033 0.010296389162432831 -0.013389146007490457 -0.010773189593097122 0.01039659239990145 0.0069039087528581754 -0.00031092782925566811 0.0081031131546924467 -0.013645522988482109 0.0017473643762059511 -0.0052615147222693807 0.02525623467063632 -0.021065084019796454 -0.0089736892497116975 0.0057321002890831788
leaf_weight=560 1359 52 1502 1388 6496 488 5417 1072 3523 9457 3111 183 2375 1530 1438 1891 2302 3614 104 271 879 1995 1337 829 127 1706 70 111 1415 1864
leaf_count=560 1359 52 1502 1388 6496 488 5417 1072 3523 9457 3111 183 2375 1530 1438 1891 2302 3614 104 271 879 1995 1337 829 127 1706 70 111 1415 1864
internal_value=0 0.0017916 0.000696666 0.0023973 0.000107292 0.00207778 -0.000870156 -0.00140459 -0.0052181 -0.000226102 0.00489634 -0.00986018 0.00274981 -0.00442978 0.00642496 0.00551707 0.00808596 -0.0112627 -0.00614532 0.00450957 0.00366867 0.00189428 0.00733568 -0.0120611 -0.0100338 -0.00516843 -0.00405315 -0.0118813 -0.00808734 0.0076139
internal_weight=58466 49476 40020 19192 10016 6984 20828 19469 4595 14874 9176 8990 5486 3032 9456 8018 3690 6920 935 375 4263 2874 1389 5985 2371 2070 1776 294 1542 3755
internal_count=58466 49476 40020 19192 10016 6984 20828 19469 4595 14874 9176 8990 5486 3032 9456 8018 3690 6920 935 375 4263 2874 1389 5985 2371 2070 1776 294 1542 3755
is_linear=0
shrinkage=0.05


Tree=13
num_leaves=31
num_cat=0
split_feature=156 156 140 141 156 103 129 120 127 140 111 156 123 102 157 99 121 105 137 113 113 109 123 116 116 108 157 43 30 103
split_gain=372.878 93.294 39.1896 38.3153 30.3098 29.3831 27.1769 25.1223 26.5179 25.1297 22.741 21.3206 20.3359 20.2037 18.6702 15.9743 14.9525 20.9351 16.5634 11.5765 31.4748 10.3268 10.0608 9.44042 9.4413 8.81682 6.70064 6.48585 6.05714 6.06003
threshold=0.33333332836627966 0.6111111342906953 0.00067048959317617129 0.0056777766440063724 0.75271740555763256 0.033558107912540443 0.0075845215469598779 0.039723290130496032 -0.051798982545733445 -0.056705612689256661 -0.040770683437585824 0.24537037312984469 0.018145361915230755 -0.25871957838535303 0.32392883300781256 -0.67568367719650257 0.029777900315821174 0.03160909470170737 -0.014033844228833912 -0.079448942095041261 -0.084246825426816926 0.087394397705793395 -0.035489041358232491 -0.0088461921550333483 -0.015158236492425202 -0.14461834728717801 0.38811162114143377 0.30833333730697637 0.33928571641445165 -0.1294458135962486
decision_type=2 2 2 2 2 2 2 2 2 2 2 2 2 2 2 2 2 2 2 2 2 2 2 2 2 2 2 2 2 2
left_child=11 2 7 5 15 6 -4 8 22 -9 21 19 -12 -10 -11 -3 18 -18 -17 20 -1 -5 -2 24 25 -6 -7 -22 29 -21
right_child=1 4 3 10 23 26 -8 9 13 14 12 -13 -14 -15 -16 16 17 -19 -20 28 27 -23 -24 -25 -26 -27 -28 -29 -30 -31
leaf_value=-0.012649307952614481 0.003780789505147205 -0.0086153038797992468 0.0008212061831779472 0.0056863411607919988 -0.0013197961793104279 0.0029862730097108114 -0.006127094730856545 0.002909562139789748 -0.008644711189016864 -0.0033370247107316559 0.0049988261388062942 -0.0049101622925161476 -0.0019231441153540537 0.00094004857313247548 -0.010968932111015545 0.002118251546550294 0.0034930478043546246 -0.004214082946612018 0.0065445891943452343 -0.0033962273698074476 -0.0094714335007974274 0.011860977576979854 -0.0076057088106602612 0.010245524651983454 -0.0042216908260805999 0.0080138545793031393 0.009706069385157251 0.014072512658541932 -0.0086079223316252781 -0.012597483182468425
leaf_weight=403 221 273 3031 1949 291 1453 2625 792 581 1660 2613 2070 1785 10162 1554 3543 2854 1274 5254 188 34 1043 1550 2363 214 1891 500 195 1538 4562
leaf_count=403 221 273 3031 1949 291 1453 2625 792 581 1660 2613 2070 1785 10162 1554 3543 2854 1274 5254 188 34 1043 1550 2363 214 1891 500 195 1538 4562
internal_value=0 0.00170204 6.30553e-05 0.0019135 0.00457855 -0.000576405 -0.00240278 -0.00161672 -0.000513049 -0.00506292 0.00447781 -0.00936734 0.00218834 0.000421072 -0.00702913 0.00334428 0.00359741 0.00111314 0.00476253 -0.0106997 -0.00423469 0.00784112 -0.00618172 0.00800017 0.00578299 0.00676678 0.00471003 0.0105499 -0.0113486 -0.0122345
internal_weight=58466 49476 31519 14999 17957 7609 5656 16520 12514 4006 7390 8990 4398 10743 3214 13198 12925 4128 8797 6920 632 2992 1771 4759 2396 2182 1953 229 6288 4750
internal_count=58466 49476 31519 14999 17957 7609 5656 16520 12514 4006 7390 8990 4398 10743 3214 13198 12925 4128 8797 6920 632 2992 1771 4759 2396 2182 1953 229 6288 4750
is_linear=0
shrinkage=0.05


Tree=14
num_leaves=31
num_cat=0
split_feature=156 156 140 141 156 103 120 99 140 108 157 156 134 123 123 88 107 99 131 113 118 107 103 131 120 112 116 131 138 103
split_gain=336.533 84.2018 35.247 35.1505 27.5504 26.9947 22.8957 25.0014 22.8548 21.2925 19.4615 19.3024 19.1175 17.2936 16.7692 16.1176 15.2738 14.3901 14.3292 25.8383 13.409 26.5581 13.1982 13.1312 9.90181 9.00117 8.51943 10.0217 6.3887 6.36227
threshold=0.33333332836627966 0.61078807711601268 0.00067048959317617129 0.0056777766440063724 0.75271740555763256 0.033558107912540443 0.039723290130496032 0.1124396324157715 -0.056705612689256661 0.031133936718106273 0.36967784166336065 0.067424245178699507 0.061845526099205024 0.041919393464922912 0.02952012233436108 -0.29515007138252253 0.040468495339155204 -0.67568367719650257 0.0246092863380909 -0.079448942095041261 0.010252465028315784 -0.017663883045315739 -0.05042788386344909 -0.00050375147839076806 -0.013136290013790129 0.078746281564235701 -0.0088461921550333483 0.050938209518790252 -0.00125624070642516 0.055045867338776595
decision_type=2 2 2 2 2 2 2 2 2 2 2 2 2 2 2 2 2 2 2 2 2 2 2 2 2 2 2 2 2 2
left_child=11 2 6 5 17 13 7 12 -8 10 -5 -1 -2 -4 -10 -7 -9 -3 19 -13 21 -19 -22 -11 29 -20 27 28 -6 -21
right_child=1 4 3 9 26 15 8 16 14 23 -12 18 -14 -15 -16 -17 -18 20 25 24 22 -23 -24 -25 -26 -27 -28 -29 -30 -31
leaf_value=-0.012201154123548589 0.0016856375015780528 -0.0081848540748070686 -0.0035044393922337943 0.0044810899565325924 0.0031626112137950954 -0.00038799905847815215 0.0027641208523999654 -0.00069975829428914078 -0.0086101855681970582 0.0044374213712271311 0.012144058380211795 0.0073259422780191001 -0.0052704049687733352 0.0043865364867573461 0.00019230716887834963 0.0087126912266227204 -0.0075486208238421315 0.0055820110456234013 -0.011583546274420018 0.00027739169141859224 0.0025054058855647683 -0.00082976516115794343 0.0070731094353350711 -0.0018100337435017881 -0.0084346793334076561 -0.0024824785601152118 0.0097332918042911023 -0.0052036768491877678 0.0086779379327586292 -0.0086406436613651501
leaf_weight=2969 8126 273 4767 2801 880 909 792 1573 2514 1700 1179 363 1124 812 688 1044 1691 2760 2008 666 2859 3890 3552 1663 2383 316 2363 200 1316 285
leaf_count=2969 8126 273 4767 2801 880 909 792 1573 2514 1700 1179 363 1124 812 688 1044 1691 2760 2008 666 2859 3890 3552 1663 2383 316 2363 200 1316 285
internal_value=0 0.00161696 5.06089e-05 0.00181599 0.00433354 -0.000583308 -0.00153983 -0.000487386 -0.00483592 0.00427767 0.00675285 -0.00889913 0.000839748 -0.00235493 -0.00671738 0.00447472 -0.00424977 0.00316719 -0.0072697 -0.00533248 0.00340498 0.0018307 0.00503705 0.00134665 -0.00671257 -0.0103485 0.00760014 0.00549364 0.00647055 -0.0023912
internal_weight=58466 49476 31383 14875 18093 7532 16508 12514 3994 7343 3980 8990 9250 5579 3202 1953 3264 13334 6021 3697 13061 6650 6411 3363 3334 2324 4759 2396 2196 951
internal_count=58466 49476 31383 14875 18093 7532 16508 12514 3994 7343 3980 8990 9250 5579 3202 1953 3264 13334 6021 3697 13061 6650 6411 3363 3334 2324 4759 2396 2196 951
is_linear=0
shrinkage=0.05


Tree=15
num_leaves=31
num_cat=0
split_feature=156 156 140 134 119 156 111 146 139 117 136 156 99 101 101 99 131 104 26 156 114 106 53 157 125 157 112 98 37 157
split_gain=304.038 78.4521 31.8123 35.3029 35.1421 24.8972 22.6304 21.5077 20.6837 20.2038 22.1102 14.8164 12.8453 13.4622 15.7418 11.2828 11.24 20.7749 20.3321 10.3291 9.74923 8.61844 8.39169 7.82985 9.30365 7.64221 7.24771 6.80706 6.68567 6.5751
threshold=0.30131579935550695 0.6111111342906953 0.00067048959317617129 -0.021787489764392372 0.086236711591482176 0.78297099471092235 -0.040770683437585824 -0.047312391921877854 -0.02798060234636068 -0.099761873483657823 -0.054598633199930184 0.067424245178699507 -0.67568367719650257 -0.018784029409289357 0.0076481432188302287 -0.17017871141433713 0.0246092863380909 0.041726076975464828 0.63461539149284374 0.52299153804779064 -0.061038028448820107 -0.006710733287036418 1.5000000000000002 0.31590531766414648 -0.0069341380149126044 0.43294447660446173 0.078746281564235701 -0.20419155061244962 0.44166666269302374 0.40399223566055303
decision_type=2 2 2 2 2 2 2 2 2 2 2 2 2 2 2 2 2 2 2 2 2 2 2 2 2 2 2 2 2 2
left_child=11 2 7 8 6 12 -5 19 22 -9 -11 -1 -3 20 -15 -10 17 29 25 27 -14 -20 -4 -7 -25 -19 -18 -2 -28 -13
right_child=1 5 3 4 -6 23 -8 9 15 10 -12 16 13 14 -16 -17 26 18 21 -21 -22 -23 -24 24 -26 -27 28 -29 -30 -31
leaf_value=-0.011591137300720851 0.0044633921898639259 -0.0071578119809546405 -0.001129200516618662 0.0068715619085644086 -0.0093066750147895849 0.0080884556611225452 0.0020072021631170811 0.005750992031203361 -0.012998527986768361 0.0036310645142788745 -0.003320093070441578 -0.0076264007878674685 -0.0009695284972935297 -0.0019027707521020361 0.0032828960299322537 -0.0027361765996623019 -0.011132491228373986 -0.0019602598198497846 0.012482767693253342 0.0065842770900589919 0.0060244620174307578 -0.0070405244599983444 0.0092254085570974958 -0.011590841346575568 0.013009318586036159 -0.019792371684638391 -0.0057545039747645592 -0.002711518062698808 0.015788952517212847 0.015791106539846257
leaf_weight=2969 534 296 318 3947 528 3812 6076 750 290 1260 12343 2657 554 1897 6387 3536 1890 165 348 1049 4843 67 505 109 59 95 243 867 42 30
leaf_count=2969 534 296 318 3947 528 3812 6076 750 290 1260 12343 2657 554 1897 6387 3536 1890 165 348 1049 4843 67 505 109 59 95 243 867 42 30
internal_value=0 0.00148771 3.37959e-06 0.00166099 0.00326065 0.00413277 0.00392336 -0.0014958 -0.0019684 -0.00223506 -0.00267582 -0.00873832 0.0031386 0.00336184 0.00209478 -0.00351598 -0.00720734 -0.00539161 0.00244418 0.00283289 0.0053056 0.0093169 0.0052191 0.00762254 -0.00291658 -0.00850526 -0.010011 1.99227e-05 -0.0025533 -0.00736193
internal_weight=58466 49960 32003 15200 10551 17957 10023 16803 4649 14353 13603 8506 13977 13681 8284 3826 5537 3362 675 2450 5397 415 823 3980 168 260 2175 1401 285 2687
internal_count=58466 49960 32003 15200 10551 17957 10023 16803 4649 14353 13603 8506 13977 13681 8284 3826 5537 3362 675 2450 5397 415 823 3980 168 260 2175 1401 285 2687
is_linear=0
shrinkage=0.05


Tree=16
num_leaves=31
num_cat=0
split_feature=156 156 156 118 146 142 139 100 118 99 139 125 98 137 99 116 130 100 101 26 113 113 26 156 157 26 104 35 114 43
split_gain=275.833 58.1916 48.1983 38.0196 56.781 41.5931 53.8153 29.0982 22.9258 27.3727 25.7377 20.2549 18.7934 16.3371 15.095 12.5756 12.5713 11.5163 8.55833 8.40559 8.28226 24.4117 8.23465 61.0392 57.5074 14.4459 7.78643 6.92854 5.37399 5.30582
threshold=0.41666667163372045 0.71470099687576305 0.24537037312984469 0.010252465028315784 -0.011391654144972561 0.021026123315095905 0.019627070985734466 0.29537677764892584 0.035668652504682548 -0.67568367719650257 -0.0058090751990675918 -0.045247493311762803 -0.33272375166416163 0.053863579407334335 -0.053477721288800233 -0.0088461921550333483 0.030219797976315025 -0.27688823640346522 -0.029895396903157231 0.75000000000000011 -0.079448942095041261 -0.084246825426816926 0.71153846383094799 0.41227769851684576 0.48924022912979132 0.67307692766189586 0.04000110179185868 0.63124999403953563 -0.022540894336998459 0.30833333730697637
decision_type=2 2 2 2 2 2 2 2 2 2 2 2 2 2 2 2 2 2 2 2 2 2 2 2 2 2 2 2 2 2
left_child=2 3 20 4 11 6 -6 22 9 -5 14 19 -12 -13 -10 17 -11 -3 28 -2 21 -1 23 25 -24 -4 -20 -7 -19 -23
right_child=1 15 7 8 5 27 -8 -9 10 16 12 13 -14 -15 -16 -17 -18 18 26 -21 -22 29 24 -25 -26 -27 -28 -29 -30 -31
leaf_value=-0.011167329490011086 -0.0060343809312819749 0.008645895693519097 -0.0069447515728379393 -0.0080194625805627678 -0.0068076650165747018 -0.0026394013805008504 0.00052290711283773641 0.010857508182210025 0.0067971484360356193 0.0075716190160266972 0.010882950742227592 0.0058397202229347658 0.0026863065950651615 -0.0026134234143967857 -0.0018149876192027252 0.007984252169237465 0.0013050151046741167 0.0023674497583767952 0.0027944917852672979 0.0012306751226931218 -0.0097756278646130984 -0.008838277769803303 -0.0040605224852503681 -0.024840048947889503 0.022885493701016647 0.00072086874512365163 -0.0037928742094110093 0.0026310858815097493 0.0099271710048031651 0.012450478711837264
leaf_weight=403 613 954 1227 350 6068 734 4260 348 571 4317 875 4904 3497 646 4648 3656 985 466 1235 1133 6288 34 2953 372 212 1229 704 4110 479 195
leaf_count=403 613 954 1227 350 6068 734 4260 348 571 4317 875 4904 3497 646 4648 3656 985 466 1235 1133 6288 34 2953 372 212 1229 704 4110 479 195
internal_value=0 0.00186003 -0.00634085 0.00106015 -0.000247303 -0.00199056 -0.00378358 -0.0031905 0.00298762 0.00551387 0.00149829 0.00337706 0.00432833 0.00485485 -0.000871569 0.00588436 0.00640845 0.00388243 0.00230449 -0.00131754 -0.00922671 -0.00375609 -0.00400741 -0.00596916 -0.0022527 -0.00310704 0.000400069 0.00183135 0.00620589 0.00926293
internal_weight=58466 45205 13261 37711 22468 15172 10328 6341 15243 5652 9591 7296 4372 5550 5219 7494 5302 3838 2884 1746 6920 632 5993 2828 3165 2456 1939 4844 945 229
internal_count=58466 45205 13261 37711 22468 15172 10328 6341 15243 5652 9591 7296 4372 5550 5219 7494 5302 3838 2884 1746 6920 632 5993 2828 3165 2456 1939 4844 945 229
is_linear=0
shrinkage=0.05


Tree=17
num_leaves=31
num_cat=0
split_feature=156 156 118 146 139 142 103 104 26 157 157 125 118 99 139 107 26 106 98 139 137 130 26 116 116 108 107 20 114 156
split_gain=249.382 58.5862 35.7677 40.6043 31.9007 52.2091 27.4998 28.9088 33.7885 28.9185 28.0115 23.2405 22.7309 25.1323 22.9347 22.2751 21.7061 18.8079 17.7679 13.7219 12.472 12.0488 11.4926 11.3474 9.41708 10.0244 10.884 8.70329 6.91843 5.51239
threshold=0.36388340592384344 0.71470099687576305 0.010252465028315784 -0.011391654144972561 0.019627070985734466 0.023007814772427086 -0.02046941593289375 0.037000160664319999 0.67307692766189586 0.47125415503978735 0.41304935514926916 -0.045247493311762803 0.035668652504682548 -0.67568367719650257 -0.0058090751990675918 -0.17425123602151868 0.63461539149284374 -0.018652258440852162 -0.33272375166416163 0.062077183276414878 0.02210272662341595 0.030219797976315025 0.71153846383094799 -0.0088461921550333483 -0.015158236492425202 -0.14461834728717801 0.047231402248144157 0.75952380895614635 0.043223313987255103 0.22970779240131381
decision_type=2 2 2 2 2 2 2 2 2 2 2 2 2 2 2 2 2 2 2 2 2 2 2 2 2 2 2 2 2 2
left_child=6 2 3 11 5 -5 7 29 9 16 19 22 13 -4 20 -6 -9 -13 -16 -10 -14 -15 -2 24 25 27 -27 -3 -26 -1
right_child=1 23 12 4 15 -7 -8 8 10 -11 -12 17 14 21 18 -17 -18 -19 -20 -21 -22 -23 -24 -25 28 26 -28 -29 -30 -31
leaf_value=-0.0095101987865121862 -0.0085592231270423848 -0.0094592254192862116 -0.0077560674668470152 -0.0063273139445628179 0.0075275824834301315 0.0011664323744905428 -0.0089466674702155611 -0.007269130884531393 0.0067021125924270342 -0.025297060862694887 0.022659433144795304 -0.00075371408595335224 -0.0024401738057890834 0.0070580896336977636 0.010136360375457256 -0.00040300623358979564 0.016685802337543548 0.0056771105686118798 0.0022615670315944466 -0.0098717786769718652 0.0029777936161439252 0.0010968501071142822 7.4138045444954847e-05 0.0075850613677234634 -0.0089846107597162383 0.0070860999970895726 -0.00029696936912196819 0.0039216567252715042 0.0065163777444002674 -0.0046705497918367389
leaf_weight=1208 521 223 357 6397 1061 3649 6589 360 510 163 236 1521 4034 4463 885 5340 128 4487 3772 165 1441 1049 1476 3656 236 2380 630 266 103 1160
leaf_count=1208 521 223 357 6397 1061 3649 6589 360 510 163 236 1521 4034 4463 885 5340 128 4487 3772 165 1441 1049 1476 3656 236 2380 630 266 103 1160
internal_value=0 0.00152949 0.000777071 -0.000425453 -0.00184709 -0.0036049 -0.00697176 -0.00365909 0.00161827 -0.00707571 0.00783665 0.00249477 0.00261501 0.00509133 0.00118002 0.000910944 -0.000971366 0.00404826 0.00375951 0.00264159 -0.00101321 0.00592458 -0.00217636 0.00559028 0.00368849 0.00446011 0.00553923 -0.00217162 -0.00425907 -0.00714213
internal_weight=58466 47947 40453 24452 16447 10046 10519 3930 1562 651 911 8005 16001 5869 10132 6401 488 6008 4657 675 5475 5512 1997 7494 3838 3499 3010 489 339 2368
internal_count=58466 47947 40453 24452 16447 10046 10519 3930 1562 651 911 8005 16001 5869 10132 6401 488 6008 4657 675 5475 5512 1997 7494 3838 3499 3010 489 339 2368
is_linear=0
shrinkage=0.05


Tree=18
num_leaves=31
num_cat=0
split_feature=101 118 115 135 116 116 111 143 133 139 134 132 110 121 141 158 98 104 111 122 88 158 30 22 101 157 137 137 100 89
split_gain=138.463 46.2972 45.2403 47.2949 36.1299 43.1549 31.5323 26.8391 26.7678 25.9622 23.6003 20.5967 19.4676 18.131 16.5468 15.9332 16.2524 17.4263 15.8487 14.4893 13.9996 13.9382 12.7329 10.3516 8.53475 6.74686 5.90805 5.51984 4.8386 4.63414
threshold=-0.38175280392169947 0.010252465028315784 0.041666418313980109 0.027307057753205303 -0.0069513481575995675 0.010641993023455145 0.010229249950498344 -0.046019820496439927 0.045467291027307517 0.021414346061646942 0.041838796809315688 -0.071421522647142396 -0.047720601782202714 -0.013678663875907658 0.021803605370223526 0.14976064115762713 -0.35720263421535486 -0.13551256060600278 0.048861151561141021 -0.018098823726177212 4.034795045852662 0.33859595656394964 0.33928571641445165 0.55787038803100597 -0.56050291657447804 0.28988336026668554 -0.010461538564413784 0.0081456922926008719 0.018986019305884842 -8.0009398460388166
decision_type=2 2 2 2 2 2 2 2 2 2 2 2 2 2 2 2 2 2 2 2 2 2 2 2 2 2 2 2 2 2
left_child=22 2 3 4 7 -6 8 -2 11 10 -5 -3 -13 23 18 26 20 -18 -8 -20 -17 29 -1 -10 28 -11 -4 -23 -24 -16
right_child=1 6 15 9 5 -7 14 -9 13 25 -12 12 -14 -15 21 16 17 -19 19 -21 -22 27 24 -25 -26 -27 -28 -29 -30 -31
leaf_value=-0.0098133921562759043 0.0041702695807480424 -0.0052360228184040632 0.00085463278318895274 0.0018505548345919935 0.0049016666250167387 -0.0029988755000346797 -0.00656922726737918 -0.0062700646746138749 -0.006887539231571975 0.0041932920421926282 -0.008071031119858664 0.0013494276122810855 0.0067308361980465709 -0.0036602934762881277 -0.01586316961014321 0.00021161608357109265 -0.0022595880936393006 0.0047324343000873462 -0.0044000432887857169 0.0018000040299863036 -0.01658642028842151 0.0029493480130323951 -0.0041884201416136002 0.0072897385531380688 -0.0066843688185761448 0.010245214253118695 -0.0056793480734405981 0.0090851756042644866 0.0055156495312220465 -0.0005974407090471003
leaf_weight=3194 670 456 656 3029 2415 6077 1167 7486 153 960 747 2122 8126 1654 53 417 1025 6772 1338 3185 176 640 246 798 1371 893 729 868 268 775
leaf_count=3194 670 456 656 3029 2415 6077 1167 7486 153 960 747 2122 8126 1654 53 417 1025 6772 1338 3185 176 640 246 798 1371 893 729 868 268 775
internal_value=0 0.000750482 -0.000450677 -0.00169513 -0.00303488 -0.000751426 0.00255523 -0.00541172 0.00404794 0.0022663 -0.000111216 0.00515416 0.00561707 -0.000495685 7.93026e-05 0.00238488 0.00320531 0.00381258 -0.00137471 -3.31104e-05 -0.00476946 0.00362292 -0.00788873 0.00500263 -0.00462418 0.00711333 -0.00258127 0.00648516 0.000861743 -0.00158423
internal_weight=58466 53387 32052 22277 16648 8492 21335 8156 13309 5629 3776 10704 10248 2605 8026 9775 8390 7797 5690 4523 593 2336 5079 951 1885 1853 1385 1508 514 828
internal_count=58466 53387 32052 22277 16648 8492 21335 8156 13309 5629 3776 10704 10248 2605 8026 9775 8390 7797 5690 4523 593 2336 5079 951 1885 1853 1385 1508 514 828
is_linear=0
shrinkage=0.05


Tree=19
num_leaves=31
num_cat=0
split_feature=156 156 156 100 133 128 128 112 99 142 136 134 144 103 156 130 116 26 156 157 26 116 90 157 113 113 133 88 43 120
split_gain=211.739 45.9705 35.532 23.6588 23.0495 33.9541 31.0872 25.433 28.305 22.5071 20.6039 19.8186 19.0813 10.6935 10.1917 10.1762 7.8702 7.79144 54.8215 50.6813 11.7201 7.24541 7.50017 6.24133 6.0247 19.538 5.65958 5.57717 4.76453 4.63882
threshold=0.41666667163372045 0.71470099687576305 0.24537037312984469 0.29537677764892584 0.024556336924433712 0.05532848276197911 0.086691882461309447 -0.015687862876802679 -0.67568367719650257 0.010391455143690111 -0.054598633199930184 0.044719671830534942 0.011439957655966284 0.03943790681660176 0.90990260243415844 -0.019063589163124558 -0.0088461921550333483 0.71153846383094799 0.41227769851684576 0.48924022912979132 0.67307692766189586 -0.015158236492425202 3.455549001693726 0.35859902203083044 -0.079448942095041261 -0.084246825426816926 0.02307161316275597 -0.8743196129798888 0.30833333730697637 -0.044548248872160905
decision_type=2 2 2 2 2 2 2 2 2 2 2 2 2 2 2 2 2 2 2 2 2 2 2 2 2 2 2 2 2 2
left_child=2 4 24 17 5 7 10 9 -9 -2 13 -12 15 -6 16 -7 21 18 20 29 -4 22 -3 -14 25 -1 -23 -8 -27 -19
right_child=1 14 3 -5 6 12 27 8 -10 -11 11 -13 23 -15 -16 -17 -18 19 -20 -21 -22 26 -24 -25 -26 28 -28 -29 -30 -31
leaf_value=-0.0099961865049119809 -0.0015290474726499671 0.0018755636887453127 -0.0062394291478604881 0.0098163748120954353 0.010682531295579178 -0.0061341448269852487 0.0021278873154610945 -0.010635253578646172 0.0040629197296150922 0.0044134191641624692 -0.0032804792139013079 0.0026541442896459164 -0.0047201504848407372 -0.0021502202851575265 0.010695781232911509 0.0030125499089629581 0.0063772936535891958 0.0009625185798631874 -0.023379089637253634 0.021718755587724785 0.00066490488059081838 0.004670200499277662 0.0069419333365814467 -0.011421537578237974 -0.008501656353059708 -0.0088699582267051554 -0.0093255426012124002 0.0087558592003560108 0.011302540671713957 -0.0044411764245984022
leaf_weight=403 5561 2081 1227 348 485 405 510 335 14050 2233 8595 1681 1012 243 761 1217 3210 471 372 212 1229 112 1129 533 6288 34 201 851 195 2482
leaf_count=403 5561 2081 1227 348 485 405 510 335 14050 2233 8595 1681 1012 243 761 1217 3210 471 372 212 1229 112 1129 533 6288 34 201 851 195 2482
internal_value=0 0.00162968 -0.00555551 -0.00285041 0.000918716 0.00178217 -0.000850804 0.00247383 0.00372014 0.000172912 -0.00173288 -0.00230914 -0.00305992 0.00639279 0.00520656 0.000725139 0.00458509 -0.00358707 -0.00549516 -0.00188033 -0.00278264 0.00295043 0.00365935 -0.00703644 -0.00803339 -0.00336533 -0.00430173 0.00627655 0.00828056 -0.00357759
internal_weight=58466 45205 13261 6341 37711 25346 12365 22179 14385 7794 11004 10276 3167 728 7494 1622 6733 5993 2828 3165 2456 3523 3210 1545 6920 632 313 1361 229 2953
internal_count=58466 45205 13261 6341 37711 25346 12365 22179 14385 7794 11004 10276 3167 728 7494 1622 6733 5993 2828 3165 2456 3523 3210 1545 6920 632 313 1361 229 2953
is_linear=0
shrinkage=0.05


Tree=20
num_leaves=31
num_cat=0
split_feature=101 118 107 125 114 114 114 113 118 26 157 157 158 106 125 141 157 104 144 110 30 98 112 157 138 142 101 134 43 158
split_gain=113.602 39.84 30.0576 29.9804 33.1027 29.96 27.0221 26.5483 25.9039 21.127 55.1699 29.957 20.5406 20.5383 18.6943 18.5558 16.6983 15.4031 13.8476 11.8307 10.8487 10.5699 9.10968 9.02472 8.09862 7.85774 6.76505 6.39181 6.36892 4.87783
threshold=-0.38175280392169947 0.010252465028315784 0.0164258535951376 0.010164275765419008 -0.024393929168581959 0.095850307494401946 -0.079963818192481981 -0.06334108859300612 0.035668652504682548 0.75000000000000011 0.49956710636615759 0.49956710636615759 0.33859595656394964 0.042761638760566718 0.052902046591043479 0.021572517231106762 0.28232060372829443 -0.087538603693246828 0.055719589814543731 -0.054752133786678307 0.33928571641445165 0.17732558399438861 0.04448394104838372 0.34897349774837499 -0.029920698143541809 0.03690332546830178 -0.0052168429829180232 0.078033160418272032 0.55833333730697643 0.33859595656394964
decision_type=2 2 2 2 2 2 2 2 2 2 2 2 2 2 2 2 2 2 2 2 2 2 2 2 2 2 2 2 2 2
left_child=20 2 3 4 16 9 14 18 17 11 -11 -4 24 -6 -5 -14 -2 26 23 -8 -1 -19 -20 28 -10 27 -9 -22 -3 -24
right_child=1 7 5 6 13 -7 19 8 12 10 -12 -13 15 -15 -16 -17 -18 21 22 -21 25 -23 29 -25 -26 -27 -28 -29 -30 -31
leaf_value=-0.0089221078174732335 -0.001241189741466753 -0.0057547552074207918 -0.0041262223673261258 0.0039787189034100213 0.0058050324186945529 0.0078481480048091645 -0.00035794062757047319 -0.0041680593138042066 -0.0053671828057469109 -0.0015609816627374113 0.023236876268545651 -0.025153451153728371 0.0014361118528682811 -0.00071603136589137276 -0.0090213639545055745 0.0065638813033864242 -0.0089533844847287589 0.0076035993919353539 0.0070930838932359592 0.0052190506197165327 -0.0065106569497605793 -0.00028662647163966976 -0.0060200067792201733 -0.012315731864490583 -1.1192009806185238e-05 0.0040348315897940296 0.0033499651214825782 0.0034586416936782378 0.0031268715676369737 0.00094358463525426198
leaf_weight=3194 1281 704 6283 455 1661 723 1130 445 918 7492 231 174 5273 4417 703 2654 1557 4624 456 5945 1451 466 366 377 3059 254 911 180 282 800
leaf_count=3194 1281 704 6283 455 1661 723 1130 445 918 7492 231 174 5273 4417 703 2654 1557 4624 456 5945 1451 466 366 377 3059 254 911 180 282 800
internal_value=0 0.000679778 -0.000434465 0.000992705 -0.00101579 -0.00207705 0.0031684 0.00235395 0.00306543 -0.00258356 -0.000818032 -0.00469439 0.00168238 0.00106536 -0.00390926 0.00315367 -0.00547439 0.00561863 -0.00201802 0.00432762 -0.00714549 0.00688027 0.00110122 -0.00573327 -0.00124897 -0.00413185 0.000878829 -0.00540707 -0.00320938 -0.00123861
internal_weight=58466 53387 32052 17149 8916 14903 8233 21335 18350 14180 7723 6457 11904 6078 1158 7927 2838 6446 2985 7075 5079 5090 1622 1363 3977 1885 1356 1631 986 1166
internal_count=58466 53387 32052 17149 8916 14903 8233 21335 18350 14180 7723 6457 11904 6078 1158 7927 2838 6446 2985 7075 5079 5090 1622 1363 3977 1885 1356 1631 986 1166
is_linear=0
shrinkage=0.05


Tree=21
num_leaves=31
num_cat=0
split_feature=156 156 156 146 116 100 133 135 99 24 112 131 99 124 156 156 99 110 116 126 147 110 116 157 157 145 157 157 107 124
split_gain=178.252 40.6605 29.2352 24.9875 24.8437 20.3878 18.9093 26.1538 21.6642 17.1343 16.5491 16.0241 13.8768 18.2541 13.2354 12.2746 9.50397 8.98388 8.5132 11.5565 10.432 8.21262 7.26468 6.11842 5.8557 5.38391 5.12874 6.83545 6.30823 6.55335
threshold=0.41666667163372045 0.66666671633720409 0.24537037312984469 0.032042333856225021 0.067812066525220885 0.29537677764892584 0.024556336924433712 -0.079870175570249544 -0.67568367719650257 0.5486111342906953 0.10336545109748842 -0.031096769496798512 0.036027031019330032 -0.09930813685059546 0.52478581666946422 0.87771740555763256 0.1124396324157715 0.017363716848194603 -0.010366351343691347 -0.029424468986690041 -0.0036795721389353271 0.018330627121031288 -0.010876416228711603 0.37913288176059728 0.36177892982959753 -0.0049310722388327113 0.10000000521540643 0.37614153325557714 -0.025264085270464417 -0.038990341126918786
decision_type=2 2 2 2 2 2 2 2 2 2 2 2 2 2 2 2 2 2 2 2 2 2 2 2 2 2 2 2 2 2
left_child=2 3 26 6 12 17 7 16 -9 23 11 -8 25 -14 -11 18 -2 -4 19 22 -21 -19 -3 -6 -12 -5 -1 28 29 -28
right_child=1 15 5 4 9 -7 10 8 -10 14 24 -13 13 -15 -16 -17 -18 21 -20 20 -22 -23 -24 -25 -26 -27 27 -29 -30 -31
leaf_value=-0.0093363085887038268 -0.00091075586607800301 0.0064614373968466688 -0.0051687745385984593 -0.0026302191795402993 -0.0073923174949152362 0.0091148712396099344 0.0027241630902361895 -0.0086713930937837615 0.0030574791501384005 0.0051815633280470228 0.002212762608064244 -0.0028589019869015397 0.0082077536026270315 -0.0030978057173501831 -0.005773874108852624 0.0088226465100747931 -0.01123486424490356 0.0073579439512386231 0.005097879366823376 -0.0022052650647765982 0.0032403072907399404 -0.0021243415045509701 -0.0095450254694390488 -0.01465803391591383 0.009265229313675195 0.0043178045037430409 -0.0079492195897708229 -0.012388889343490334 -0.0069300949410597045 0.0002094498510203473
leaf_weight=2212 454 1494 3147 329 802 348 1690 403 16381 442 889 5355 401 3232 731 1245 440 250 4630 1744 1773 2596 74 459 442 1795 370 435 3172 731
leaf_count=2212 454 1494 3147 329 802 348 1690 403 16381 442 889 5355 401 3232 731 1245 440 250 4630 1744 1773 2596 74 459 442 1795 370 435 3172 731
internal_value=0 0.00149526 -0.0050973 0.000646739 -0.00176177 -0.00264345 0.00140414 0.00233138 0.00277546 -0.00599649 -0.000552272 -0.00151885 2.7909e-05 -0.00184817 -0.0016413 0.00414599 -0.00599894 -0.00332734 0.00354598 0.00213182 0.000538579 -0.00128918 0.00570172 -0.0100429 0.00455955 0.00323908 -0.00734498 -0.00640796 -0.00579736 -0.00252874
internal_weight=58466 45205 13261 34245 8191 6341 26054 17678 16784 2434 8376 7045 5757 3633 1173 10960 894 5993 9715 5085 3517 2846 1568 1261 1331 2124 6920 4708 4273 1101
internal_count=58466 45205 13261 34245 8191 6341 26054 17678 16784 2434 8376 7045 5757 3633 1173 10960 894 5993 9715 5085 3517 2846 1568 1261 1331 2124 6920 4708 4273 1101
is_linear=0
shrinkage=0.05


Tree=22
num_leaves=31
num_cat=0
split_feature=156 156 156 118 112 101 102 100 110 102 109 100 145 101 125 119 156 110 133 106 124 110 108 116 141 104 157 157 107 144
split_gain=160.875 37.0367 26.3859 24.0745 31.4742 23.2461 26.1986 18.4013 15.8473 15.6497 15.3348 14.5811 13.5791 12.1965 11.9609 10.6894 8.25025 8.10786 7.75767 7.55471 7.52353 7.41263 6.63435 5.1948 7.9058 4.89168 4.62706 6.16827 5.69257 6.15757
threshold=0.41666667163372045 0.71666666865348827 0.24537037312984469 0.010252465028315784 0.050454780459403999 0.069819938391447081 0.088080000132322325 0.29537677764892584 -0.049263015389442437 -0.050003271549940102 0.079038895666599288 0.13227766752243045 0.033229257911443717 -0.35838721692562098 -0.042923148721456521 0.018246600404381755 0.90000000596046459 0.017363716848194603 -0.028334853239357468 0.15712530910968783 0.051836941391229636 0.018330627121031288 0.21093676984310153 -0.081297058612108217 -0.0082498327828943712 0.45774380862712866 0.10000000521540643 0.37614153325557714 -0.025264085270464417 0.059253621846437461
decision_type=2 2 2 2 2 2 2 2 2 2 2 2 2 2 2 2 2 2 2 2 2 2 2 2 2 2 2 2 2 2
left_child=2 3 26 4 5 6 -2 17 12 18 -7 -11 20 -6 -15 -14 22 19 -10 -4 -5 -19 23 24 -3 -25 -1 28 29 -28
right_child=1 16 7 8 13 10 -8 -9 9 11 -12 -13 15 14 -16 -17 -18 21 -20 -21 -22 -23 -24 25 -26 -27 27 -29 -30 -31
leaf_value=-0.008869535404227755 -0.0036886891198667049 -0.0051216648614319394 -0.0056538235668422386 -0.0001687512928434534 -0.0092869364396959055 0.00042292945490398449 0.0013386117728262164 0.0086593895023413178 -0.0028491472887499014 0.0060971536393039207 0.0080779820501492208 0.00093453452263433262 0.00016377830554840012 -0.00041289018226927569 0.0048551877931158546 0.0079794969547603359 0.0092910823399599881 0.0069903407581906165 0.0022413222518363001 0.003154561433942531 -0.0053328525099281977 -0.0020181326279438477 -0.016676655996844408 0.0048382462339034366 0.0059588118853651662 -0.0090176693793397825 -0.0036392841885332207 -0.011769729468206232 -0.0065836120198984622 0.0089121155444250293
leaf_weight=2212 9548 351 2882 1868 195 2963 3555 348 1085 5241 840 1854 1073 1476 3973 740 862 250 2409 265 1135 2596 38 5638 297 64 993 435 3172 108
leaf_count=2212 9548 351 2882 1868 195 2963 3555 348 1085 5241 840 1854 1073 1476 3973 740 862 250 2409 265 1135 2596 38 5638 297 64 993 435 3172 108
internal_value=0 0.00142049 -0.0048425 0.00079482 -0.000245792 -0.00132531 -0.00232434 -0.00251122 0.00231839 0.00339989 0.00211541 0.00474887 -5.85368e-05 0.00298684 0.00342731 0.00335715 0.00469518 -0.00316097 0.000659063 -0.00491035 -0.00212244 -0.00122461 0.00407396 0.00419944 -3.51277e-05 0.00468154 -0.00697786 -0.00608767 -0.00550753 -0.00240215
internal_weight=58466 45205 13261 37955 22550 16906 13103 6341 15405 10589 3803 7095 4816 5644 5449 1813 7250 5993 3494 3147 3003 2846 6388 6350 648 5702 6920 4708 4273 1101
internal_count=58466 45205 13261 37955 22550 16906 13103 6341 15405 10589 3803 7095 4816 5644 5449 1813 7250 5993 3494 3147 3003 2846 6388 6350 648 5702 6920 4708 4273 1101
is_linear=0
shrinkage=0.05


Tree=23
num_leaves=31
num_cat=0
split_feature=156 156 156 127 114 141 108 100 135 123 105 122 16 88 127 116 108 116 104 106 156 103 123 103 138 110 105 88 106 16
split_gain=145.191 34.4286 23.8146 21.2323 19.6011 18.389 16.8558 16.6083 12.6133 16.0875 12.4817 12.4324 11.7943 11.1407 10.9525 10.8549 15.8943 18.6573 10.4121 10.1405 9.87404 8.87903 8.65643 8.48782 9.76709 7.31689 7.1795 10.8732 6.81928 6.78464
threshold=0.41666667163372045 0.63333335518836986 0.24537037312984469 -0.067700624465942369 -0.059112509712576859 0.0026064056437462573 -0.031595091335475438 0.29537677764892584 0.023094880394637588 0.049481850117444999 0.058871215209364898 0.046153863891959197 0.71136361360549938 -4.1385321617126456 -0.10855915769934653 -0.0088461921550333483 -0.14461834728717801 -0.015158236492425202 0.0096915443427860754 0.046969529241323478 0.6404196321964265 0.17702064663171771 0.01194113912060857 -0.0010143701802007852 0.050371957942843444 0.017363716848194603 0.07954722642898561 -0.76740658283233631 0.15712530910968783 0.72045454382896434
decision_type=2 2 2 2 2 2 2 2 2 2 2 2 2 2 2 2 2 2 2 2 2 2 2 2 2 2 2 2 2 2
left_child=2 3 -1 11 8 6 -6 25 9 -5 15 13 23 -2 -15 16 19 -18 -7 -3 -14 -17 -10 24 -12 28 -27 -28 -4 -22
right_child=1 10 7 4 5 18 -8 -9 22 -11 12 -13 20 14 -16 21 17 -19 -20 -21 29 -23 -24 -25 -26 26 27 -29 -30 -31
leaf_value=-0.0066290661709985229 0.0010530779018900313 0.0010597323226842383 -0.0053711519938097526 -0.0050880870746292384 -0.0033442142199212477 0.001718627251423361 0.0013070227638185489 0.008226668704412788 0.0029729134961445133 0.0050396767361475933 0.0027711775656297189 0.00056760404386830459 0.015668493530014826 0.002166137780327617 -0.0090283864715619833 0.0059333451733962891 0.0048163795330626556 -0.008250421260763089 0.0048366375774570418 -0.0081817904761348759 -0.0034865547553571494 -0.014570410952980357 -0.0037058509997887957 -0.0052877874455085246 -0.013053242823663347 -0.0020317255066108612 -0.0067676661855307907 0.01305726227061502 0.0029969522117764928 0.0042385685460617339
leaf_weight=6920 501 818 2882 2890 2761 6879 6612 348 1689 453 982 1340 158 255 1495 5388 4359 291 4392 465 360 53 680 938 108 2543 106 197 265 1338
leaf_count=6920 501 818 2882 2890 2761 6879 6612 348 1689 453 982 1340 158 255 1495 5388 4359 291 4392 465 360 53 680 938 108 2543 106 197 265 1338
internal_value=0 0.00134948 -0.0046004 0.000364344 0.000855929 0.0015733 -6.25985e-05 -0.00238556 -0.00173584 -0.00371399 0.00328265 -0.00324207 0.000833747 -0.00551201 -0.00739427 0.00411843 0.00263752 0.00399726 0.00293414 -0.00228655 0.00371455 0.00573217 0.00105357 -0.00180037 0.00119656 -0.00300288 -0.00116328 0.00610543 -0.00466476 0.00259757
internal_weight=58466 45205 13261 29947 26356 20644 9373 6341 5712 3343 15258 3591 3884 2251 1750 11374 5933 4650 11271 1283 1856 5441 2369 2028 1090 5993 2846 303 3147 1698
internal_count=58466 45205 13261 29947 26356 20644 9373 6341 5712 3343 15258 3591 3884 2251 1750 11374 5933 4650 11271 1283 1856 5441 2369 2028 1090 5993 2846 303 3147 1698
is_linear=0
shrinkage=0.05


Tree=24
num_leaves=31
num_cat=0
split_feature=101 10 111 99 103 141 133 135 141 141 133 108 107 114 30 137 99 135 108 101 116 98 126 143 97 158 107 37 13 20
split_gain=76.2183 32.5489 23.1666 25.1151 28.8705 21.6618 13.7371 12.9737 15.5657 15.2229 12.8756 12.8295 12.4721 10.4509 8.06787 7.82645 8.7995 7.84031 7.45116 7.11601 6.31231 5.25584 4.56097 4.17522 4.01415 3.81217 3.63704 4.70343 3.27093 2.91074
threshold=-0.38175280392169947 0.63545268774032604 0.010229249950498344 0.040907943621277816 -0.0061729280278086654 0.034357950091362006 -0.021375153213739392 0.053049549460411079 -0.065448068082332597 0.02259826194494963 0.035645183175802238 -0.12471204996109007 0.23072079569101336 -0.029729790054261681 0.33928571641445165 0.02648931369185448 -0.13405743986368177 0.025859730318188671 0.10521135851740838 -0.56050291657447804 -0.054180741310119622 0.15574812144041064 0.062076149508357055 0.015158814378082754 -1.005968391895294 0.15604265779256823 0.28825990855693823 0.52500000596046459 0.58435583114624035 0.68412700295448314
decision_type=2 2 2 2 2 2 2 2 2 2 2 2 2 2 2 2 2 2 2 2 2 2 2 2 2 2 2 2 2 2
left_child=14 2 3 4 11 6 -5 8 25 -10 -6 -2 15 -7 -1 16 21 -18 23 24 28 -3 -22 -17 -16 -4 -14 -28 -9 -20
right_child=1 12 7 5 10 13 -8 20 9 -11 -12 -13 26 -15 19 18 17 -19 29 -21 22 -23 -24 -25 -26 -27 27 -29 -30 -31
leaf_value=-0.0073850400874668314 0.0055877806810252437 0.007507355483749977 -0.0027670084422597137 -0.0067817578279986985 0.0067911127147203586 -0.00081540065212307384 -0.0014998735895001751 -0.003505105193003016 -0.004441150933484404 -0.00024869032467094457 0.00045517248542352825 -0.00031854522410959139 -0.0055462800117467188 0.0049133215526872172 -0.0040695156911721682 0.0048287130965893044 0.00048340863288109199 0.0035376021470141777 0.0030953785875659978 -0.0051353834227403534 0.001302097206123728 0.0020764133952263812 0.0077731642525582251 0.0013655558889900824 0.005103030907723495 0.0045251981077292103 -0.0063438038331756 0.0044660612466775077 -0.019902613854896254 0.010937267855358063
leaf_weight=3194 1047 1047 224 1816 3493 1643 3832 293 7322 3078 1043 7527 593 1542 187 2422 6907 3023 154 1371 2030 781 315 1366 327 880 159 273 34 543
leaf_count=3194 1047 1047 224 1816 3493 1643 3832 293 7322 3078 1043 7527 593 1542 187 2422 6907 3023 154 1371 2030 781 315 1366 327 880 159 273 34 543
internal_value=0 0.000556788 -0.000296729 0.000720904 0.00210953 -0.00133954 -0.00319922 -0.00187226 -0.00260138 -0.00320085 0.00533542 0.000402226 0.00234234 0.00195669 -0.0058529 0.00268007 0.00200138 0.00141376 0.00445803 -0.00325363 0.00126497 0.00519024 0.00217407 0.00358131 0.00175593 0.00304086 -0.00300415 0.000474767 -0.00523645 0.00921318
internal_weight=58466 53387 36119 21943 13110 8833 5648 14176 11504 10400 4536 8574 17268 3185 5079 16243 11758 9930 4485 1885 2672 1828 2345 3788 514 1104 1025 432 327 697
internal_count=58466 53387 36119 21943 13110 8833 5648 14176 11504 10400 4536 8574 17268 3185 5079 16243 11758 9930 4485 1885 2672 1828 2345 3788 514 1104 1025 432 327 697
is_linear=0
shrinkage=0.05


Tree=25
num_leaves=31
num_cat=0
split_feature=156 156 156 158 16 98 158 33 157 100 156 158 98 105 156 16 108 139 147 144 26 156 157 104 26 18 104 114 132 18
split_gain=122.975 30.0636 19.5441 18.2592 15.9327 16.3249 17.4755 15.6685 23.2802 14.8281 13.1173 12.7177 19.6832 11.2006 12.9806 10.1811 9.49718 7.89208 9.59655 8.07571 7.0679 48.2173 44.4361 10.6806 6.84953 6.02655 5.31338 5.07776 13.66 4.79182
threshold=0.41666667163372045 0.6111111342906953 0.24537037312984469 0.66745442152023327 0.66590911149978649 -0.25886905193328852 0.57518044114112865 0.64499998092651378 0.3472211360931397 0.29537677764892584 0.81742423772811901 0.40250207483768469 -0.17602030932903287 1.0000000180025095e-35 0.59150716662406932 0.64318180084228527 0.21093676984310153 -0.0012224914971739052 0.003361374838277698 -0.066894710063934312 0.71153846383094799 0.41227769851684576 0.48924022912979132 0.42210412025451666 0.78846153616905224 0.66111111640930187 0.41799171268939977 -0.10678875818848609 -0.013576610945165156 0.63888889551162731
decision_type=2 2 2 2 2 2 2 2 2 2 2 2 2 2 2 2 2 2 2 2 2 2 2 2 2 2 2 2 2 2
left_child=2 3 27 4 11 6 -6 8 -5 20 16 15 -13 29 -15 -2 17 18 -3 -19 21 23 -22 -4 -7 -10 -12 28 -1 -9
right_child=1 10 9 7 5 24 -8 13 25 -11 26 12 -14 14 -16 -17 -18 19 -20 -21 22 -23 -24 -25 -26 -27 -28 -29 -30 -31
leaf_value=-0.0079170398575174172 -0.00035566810677790164 -0.00045052775036320852 -0.0034583905587067965 -0.0015811400979998938 0.0082444999703241879 -0.00044896304006761169 0.00092878510289196015 -0.0063328702775664871 -0.01148879013359163 0.0077999612171655453 0.0062929858874927764 -0.0064222426140351889 0.0010300235455167675 0.0099826180774890607 -0.0051433352544927261 0.0033544268469921251 -0.015701657940781179 -0.0055263532873739384 0.0030304376957771828 0.0038470271772087605 -0.0027746390744577873 -0.02139948336412547 0.020912392936036008 0.005826480341213653 0.0031047416045124491 0.0012164388896729762 -0.011551472099753919 -0.0066399911738278293 0.0036562728737811068 0.0018393878711748985
leaf_weight=580 6900 4044 2093 2416 1948 3821 1408 395 1012 348 2697 1860 1690 554 190 2525 73 237 3875 6989 2953 372 212 363 2100 102 42 5886 454 327
leaf_count=580 6900 4044 2093 2416 1948 3821 1408 395 1012 348 2697 1860 1690 554 190 2525 73 237 3875 6989 2953 372 212 363 2100 102 42 5886 454 327
internal_value=0 0.00124197 -0.00423381 0.000195014 0.000808484 0.00239079 0.00517694 -0.00253628 -0.00434111 -0.00222723 0.00283034 -0.000322484 -0.00287328 0.00180617 0.00611274 0.000637803 0.00225644 0.00234354 0.00125221 0.00353876 -0.00281056 -0.00462761 -0.00118522 -0.00208368 0.000810647 -0.010321 0.00601671 -0.00607166 -0.00283097 -0.00262518
internal_weight=58466 45205 13261 27248 22252 9277 3356 4996 3530 6341 17957 12975 3550 1466 744 9425 15218 15145 7919 7226 5993 2828 3165 2456 5921 1114 2739 6920 1034 722
internal_count=58466 45205 13261 27248 22252 9277 3356 4996 3530 6341 17957 12975 3550 1466 744 9425 15218 15145 7919 7226 5993 2828 3165 2456 5921 1114 2739 6920 1034 722
is_linear=0
shrinkage=0.05


Tree=26
num_leaves=31
num_cat=0
split_feature=156 156 146 132 156 133 135 99 135 114 100 129 126 133 157 99 127 156 110 110 90 157 97 157 133 114 135 16 156 102
split_gain=110.985 27.6152 19.809 19.6318 17.6384 16.8122 21.1639 19.4237 14.732 20.146 13.3834 12.492 18.0851 12.1293 8.71212 8.44974 7.45055 6.93315 6.29195 6.7524 5.33676 11.3067 16.4464 5.25802 5.04828 4.58207 12.497 4.25493 5.18381 4.08067
threshold=0.41666667163372045 0.71666666865348827 0.032042333856225021 0.057391405105590827 0.24537037312984469 0.024556336924433712 -0.079870175570249544 -0.67568367719650257 0.018595859408378605 -0.017710562795400616 0.29537677764892584 0.020686620846390728 -0.01665596384555101 0.025544539093971256 0.32538883388042456 0.1124396324157715 0.0092439563013613241 0.90990260243415844 0.017363716848194603 0.053027663379907615 3.455549001693726 0.43294447660446173 1.1865888237953188 0.40187835693359381 -0.01088209683075547 -0.10678875818848609 0.037634084001183517 0.73181819915771495 0.41227769851684576 0.21926116943359378
decision_type=2 2 2 2 2 2 2 2 2 2 2 2 2 2 2 2 2 2 2 2 2 2 2 2 2 2 2 2 2 2
left_child=4 2 5 8 25 6 15 -8 9 -4 18 13 -13 -7 -5 -2 -10 20 27 24 21 -3 -23 -22 -20 26 -1 28 -6 -27
right_child=1 17 3 14 10 11 7 -9 16 -11 -12 12 -14 -15 -16 -17 -18 -19 19 -21 23 22 -24 -25 -26 29 -28 -29 -30 -31
leaf_value=-0.0056244755049849396 -0.00073577008103916188 0.0029079482957674119 -0.0046741477106109338 -0.0034938181587244512 -0.003890155956782354 -0.0060930467551397827 -0.0070683295332872598 0.0027359931453121615 2.4297089322025624e-05 0.0011503961346700836 0.0074101872198012999 0.0017652709559819386 -0.006248735468844694 0.0014867387447598602 -0.012531341246310152 -0.0098760563873626916 0.0063726858452484523 0.0085267791832295201 0.0050603534041015275 -0.003166851573425554 0.0048966930338503224 -0.025511117449424043 0.0093784981297852735 0.016170390428559028 -0.0012256963938811164 -0.0064658415628860641 0.0076031279737165574 0.003190504916474371 -0.010325372172884586 0.0046563063031778889
leaf_weight=805 554 4099 2978 567 2608 582 519 18364 889 2958 348 1143 1829 5632 507 467 966 761 602 1566 2141 84 56 109 678 5803 229 182 357 83
leaf_count=805 554 4099 2978 567 2608 582 519 18364 889 2958 348 1143 1829 5632 507 467 966 761 602 1566 2141 84 56 109 678 5803 229 182 357 83
internal_value=0 0.00117987 0.000639585 -0.00142931 -0.00402212 0.00127025 0.00208688 0.00246618 -0.000554927 -0.0017709 -0.00211582 -0.000498671 -0.00316504 0.000775842 -0.00776633 -0.0049225 0.00333328 0.00400754 -0.00267004 -0.000964038 0.00347653 0.00242954 -0.0115261 0.00544645 0.00172713 -0.00576809 -0.00268922 -0.00421111 -0.00466732 -0.006308
internal_weight=58466 45205 37955 8865 13261 29090 19904 18883 7791 5936 6341 9186 2972 6214 1074 1021 1855 7250 5993 2846 6489 4239 140 2250 1280 6920 1034 3147 2965 5886
internal_count=58466 45205 37955 8865 13261 29090 19904 18883 7791 5936 6341 9186 2972 6214 1074 1021 1855 7250 5993 2846 6489 4239 140 2250 1280 6920 1034 3147 2965 5886
is_linear=0
shrinkage=0.05


Tree=27
num_leaves=31
num_cat=0
split_feature=156 156 127 120 88 137 156 111 105 108 100 156 120 108 122 88 120 139 101 128 110 110 106 88 133 128 137 157 104 131
split_gain=100.164 25.3855 16.3921 23.3807 16.0138 16.9825 15.9175 12.3701 14.1693 13.6615 12.0796 10.8565 9.50127 8.84619 8.28397 10.7968 11.2611 8.06459 11.0822 7.05808 5.67812 6.09384 6.01117 4.74348 4.55655 4.29735 4.08083 3.93093 6.06272 9.16921
threshold=0.41666667163372045 0.6111111342906953 -0.067700624465942369 0.039723290130496032 1.3832109570503237 -0.014657211489975451 0.24537037312984469 -0.016442509833723303 -0.104997631162405 0.015027316752821209 0.29537677764892584 0.86388340592384349 0.055109294131398208 0.21093676984310153 0.046153863891959197 0.33340664207935339 0.044656034559011466 -0.0012224914971739052 -0.018669908866286274 -0.12908253818750379 0.017363716848194603 0.053027663379907615 0.15712530910968783 -7.1439321041107169 -0.01088209683075547 -0.12908253818750379 -0.028624250553548333 0.37614153325557714 0.050289629027247436 0.0020303785568103199
decision_type=2 2 2 2 2 2 2 2 2 2 2 2 2 2 2 2 2 2 2 2 2 2 2 2 2 2 2 2 2 2
left_child=6 2 14 7 12 -6 27 8 -4 -9 20 13 -5 17 15 23 -17 18 -3 -19 22 24 26 -2 -22 -13 -8 28 -1 -30
right_child=1 11 3 4 5 -7 10 9 -10 -11 -12 25 -14 -15 -16 16 -18 19 -20 -21 21 -23 -24 -25 -26 -27 -28 -29 29 -31
leaf_value=-0.0057312766642469261 0.0046319897609238833 0.0034556587437784394 -0.0035390838860535605 -0.0038240603632480039 -0.0097405701354757283 -0.00044849739657654283 -0.00017734545636457751 -0.0013118139668084686 0.0033345293280515513 0.0025554595326360095 0.0070398906351611156 -0.013658965585960284 0.0019797007536239519 -0.014884273061885479 0.00022963385509911546 -0.011317839233452264 0.0014601121578825653 -0.0051415714307733902 -0.00023883683904192375 0.0036977052430622473 0.0048074197491459782 -0.0030085292176610257 0.00319283078868872 -0.0033186745496942825 -0.0011644296569587877 0.0071152620203082956 -0.0054550791093686381 -0.010093101044848857 0.0041630912723238907 -0.0067446448387064916
leaf_weight=5713 244 3357 822 1104 1176 847 433 5972 8439 3697 348 25 1951 75 1148 826 217 232 5128 7727 602 1566 265 805 678 1413 2449 435 406 366
leaf_count=5713 244 3357 822 1104 1176 847 433 5972 8439 3697 348 25 1951 75 1148 826 217 232 5128 7727 602 1566 265 805 678 1413 2449 435 406 366
internal_value=0 0.00112087 0.000158797 0.0006095 -0.00240273 -0.00585302 -0.00382102 0.00141782 0.00272383 0.000166366 -0.00201003 0.00258043 -0.000116109 0.00221719 -0.00317914 -0.00505197 -0.00865478 0.00229568 0.00122231 0.00343929 -0.00253659 -0.000915834 -0.00400059 -0.00146403 0.00164061 0.00674877 -0.00466394 -0.00547965 -0.00516912 -0.00100213
internal_weight=58466 45205 27248 24008 5078 2023 13261 18930 9261 9669 6341 17957 3055 16519 3240 2092 1043 16444 8485 7959 5993 2846 3147 1049 1280 1438 2882 6920 6485 772
internal_count=58466 45205 27248 24008 5078 2023 13261 18930 9261 9669 6341 17957 3055 16519 3240 2092 1043 16444 8485 7959 5993 2846 3147 1049 1280 1438 2882 6920 6485 772
is_linear=0
shrinkage=0.05


Tree=28
num_leaves=31
num_cat=0
split_feature=156 156 146 132 156 112 103 111 99 136 106 146 100 88 156 26 156 157 26 157 126 116 147 110 110 113 107 105 128 157
split_gain=90.3988 23.0688 16.6396 16.4896 14.3655 12.4309 15.1938 16.4986 14.1548 11.85 11.3374 13.7382 10.9028 8.59291 7.4191 6.27231 42.1834 39.8985 10.1643 6.25874 5.87983 8.79094 7.21771 5.30631 5.89323 5.28253 4.76501 4.48629 3.88178 3.61927
threshold=0.41666667163372045 0.66666671633720409 0.032042333856225021 0.057391405105590827 0.24537037312984469 0.008011005353182556 0.26172408461570745 0.037529163062572486 -0.67568367719650257 0.082607042044401183 -0.03344557806849479 0.11670998111367227 0.29537677764892584 -1.0514629185199735 0.86388340592384349 0.71153846383094799 0.41227769851684576 0.48924022912979132 0.67307692766189586 0.32538883388042456 -0.028876028023660179 -0.0069513481575995675 -0.0036795721389353271 0.0072812444996088752 0.012033058796077968 -0.036866044625639909 -0.0080277831293642504 0.037592096254229553 -0.12908253818750379 0.10000000521540643
decision_type=2 2 2 2 2 2 2 2 2 2 2 2 2 2 2 2 2 2 2 2 2 2 2 2 2 2 2 2 2 2
left_child=4 2 5 10 29 6 7 -2 -7 -10 25 -12 15 -8 20 16 18 27 -6 -5 23 22 -22 -3 -25 -4 -23 -17 -16 -1
right_child=1 14 3 19 12 8 13 -9 9 -11 11 -13 -14 -15 28 17 -18 -19 -20 -21 21 26 -24 24 -26 -27 -28 -29 -30 -31
leaf_value=-0.0068782797592413852 0.0014849877719090698 0.006356054923849149 0.004261693088584372 -0.0036437295073455016 -0.0049616590121342357 -0.0097001212015220464 -2.894489698585251e-05 -0.002863344536141343 0.0025125742486277456 -0.0042582910874972915 -0.0028091525871718919 0.0069542533204774611 0.006688098351983059 -0.012419976114820926 -0.012981437899852323 -0.0015074025543932055 -0.019808765838282012 0.020060394474012918 0.0014688555326604785 -0.011465165992613054 -0.0023462304392013176 0.005445591008274811 0.0022334165552075763 -0.010235127470108317 0.0029471181413533733 -0.00067703642802406389 0.0017227770664843022 -0.006729667293948239 0.0067595492644759031 -0.0044185839350777351
leaf_weight=2212 7546 1610 1333 528 1227 254 221 3068 13903 677 4529 391 348 385 25 2458 372 212 1229 501 1680 1710 1763 93 927 909 1739 495 1413 4708
leaf_count=2212 7546 1610 1333 528 1227 254 221 3068 13903 677 4529 391 348 385 25 2458 372 212 1229 501 1680 1710 1763 93 927 909 1739 495 1413 4708
internal_value=0 0.0010648 0.000425634 -0.00153977 -0.00363002 0.00104373 -0.000211661 0.000227591 0.00199359 0.00219778 -0.000688557 -0.00203197 -0.00190952 -0.00791088 0.00306142 -0.00240981 -0.00412144 -0.000878685 -0.00174189 -0.00745818 0.0025549 0.0017861 0 0.0045674 0.00173854 0.00225722 0.00357019 -0.00238488 0.00641111 -0.00520573
internal_weight=58466 45205 34245 8191 13261 26054 11220 10614 14834 14580 7162 4920 6341 606 10960 5993 2828 3165 2456 1029 9522 6892 3443 2630 1020 2242 3449 2953 1438 6920
internal_count=58466 45205 34245 8191 13261 26054 11220 10614 14834 14580 7162 4920 6341 606 10960 5993 2828 3165 2456 1029 9522 6892 3443 2630 1020 2242 3449 2953 1438 6920
is_linear=0
shrinkage=0.05


Tree=29
num_leaves=31
num_cat=0
split_feature=156 156 118 146 98 88 126 111 133 141 156 134 113 100 88 100 138 121 156 158 26 156 157 104 156 105 114 116 140 120
split_gain=81.5859 21.2245 18.854 30.4378 19.6436 40.8348 18.6433 13.1959 16.5092 13.6592 12.9645 11.6734 9.97663 9.84072 9.62541 8.94893 8.91647 7.93769 7.0437 5.91116 5.66074 38.0725 36.0122 9.24307 4.42412 4.04864 3.91768 11.2215 3.9106 3.94773
threshold=0.41666667163372045 0.75271740555763256 0.010252465028315784 -0.011391654144972561 -0.3512787520885467 -0.33604177832603449 0.027948356233537201 0.022305244579911235 0.045467291027307517 0.002246458781883121 0.24537037312984469 -0.015869734808802601 -0.052097305655479424 0.29537677764892584 -5.107353448867797 0.017226418480277065 0.01526301307603717 -0.013678663875907658 0.51818782091140758 0.99849656224250805 0.71153846383094799 0.41227769851684576 0.48924022912979132 0.42210412025451666 0.91757246851921093 0.037592096254229553 -0.10678875818848609 0.0026165419258177285 0.060720141977071769 1.0000000180025095e-35
decision_type=2 2 2 2 2 2 2 2 2 2 2 2 2 2 2 2 2 2 2 2 2 2 2 2 2 2 2 2 2 2
left_child=10 2 3 11 5 -5 -6 8 14 15 26 16 -13 20 -4 -9 -2 -10 -11 24 21 23 25 -12 28 -22 27 -1 29 -3
right_child=1 19 7 4 6 -7 -8 9 17 18 13 12 -14 -15 -16 -17 -18 -19 -20 -21 22 -23 -24 -25 -26 -27 -28 -29 -30 -31
leaf_value=0.0036892864749170856 0.0026039387393329049 0.002605729704377105 0.00048213199282836483 0.0022088232143040241 0.00031824809124828435 -0.011574038706544366 -0.0038150181585276631 -0.0050806248702434812 0.0033457264223850135 -0.0019748689955139914 -0.0029337701306431825 0.00033164299036105298 0.0057764534082813948 0.0063538854922768956 0.0046818701746612771 6.8197615883953589e-05 -0.0022440194520811055 -0.0033733653538689139 0.0045797652221791565 -0.011645520332867851 -0.0014320385680742817 -0.018818859802834265 0.019058320132715315 0.0057039468413801449 0.0081785553349846638 -0.0063933198084932131 -0.0054446729629920934 -0.0067818769493050123 -0.0012547913919431948 0.005884635883430283
leaf_weight=462 1994 1865 1688 914 9962 1302 3756 1378 655 535 2093 1199 2836 348 7176 2172 1808 1333 1738 58 2458 372 212 363 657 495 5886 572 355 1824
leaf_count=462 1994 1865 1688 914 9962 1302 3756 1378 655 535 2093 1199 2836 348 7176 2172 1808 1333 1738 58 2458 372 212 363 657 495 5886 572 355 1824
internal_value=-4.26105e-09 0.00101154 0.000639749 -0.000264223 -0.00151918 -0.00588729 -0.000813118 0.00192869 0.00295901 7.6624e-06 -0.00344857 0.00228666 0.00415986 -0.00181405 0.00388269 -0.00192918 0.000297233 -0.00115695 0.00303475 0.00417012 -0.00228938 -0.00391545 -0.000834713 -0.00165471 0.0043668 -0.00226575 -0.0049455 -0.00209863 0.00374592 0.00422855
